0.540706 0.891232 0.5378 0.313107 0.925022 0.522033 -0.779835 0.424601 0.260254 0.0825074 -0.686275 -0.966954 -0.553413 0.105717 0.0642518 -0.429608 -0.243825 -0.351032 0.42399 0.0191583 -0.191931 0.840571 0.218709 0.400739 -0.0633626 -0.0823969 0.164786 0.161747 0.441879 -0.52173 0.805029 0.02385 -0.597116 0.388965 -0.628341 -0.627064 -0.0711817 -0.392992 -1.18419 -0.793558 0.71339 -0.827613 -0.697696 -0.784751 0.278082 0.46313 -0.0936231 -0.780893 -0.79498 -0.529696 0.357484 0.0886922 -0.603429 -0.339329 -0.420097 0.387358 0.660895 0.827891 -0.372567 0.305558 -0.493695 -0.377494 -0.519599 0.0925836 -0.771341 0.103052 0.723056 0.347929 0.897533 0.729945 0.771115 0.831077 -0.898251 -0.767554 -0.77451 0.586513 0.909474 0.34832 1.04051 -0.746781 0.950916 0.526225 0.448318 -0.565456 -0.687159 1.06415 0.862628 0.972575 1.00655 -0.426787 0.317049 -0.432372 0.199272 0.789012 0.6654 0.392018 0.0778067 0.562682 -0.109004 -0.0695646 0.257729 -0.33601 -0.241083 0.352414 -0.0933437 -0.00794409 -0.047027 -0.287174 -0.736072 -0.0754809 -0.377277 0.860825 -0.910045 0.928878 -0.853887 -0.750375 0.937612 0.916942 -0.855123 0.846933 -0.607016 0.336085 -0.682016 0.524894 0.174695 1.04745 -0.0100066 0.992991 0.196601 0.498604 -0.462435 -0.794956 0.9237 0.0310329 0.311622 -0.451788 0.75165 -0.956308 0.0536138 0.809516 -0.276503 0.668158 0.664484 -0.200677 0.580732 0.832847 0.0921068 0.56997 0.80564 0.262944 0.453308 -0.813313 -0.424066 0.75799 0.730957 0.674107 0.596324 -0.494563 0.443402 -0.163774 -0.961188 -0.965856 0.0492353 -1.03232 0.0566467 -0.631065 -0.463611 -0.147433 -0.530119 0.680261 -0.242914 0.258489 0.375515 -0.466835 -0.791519 0.141058 -0.530376 0.444824 -0.147048 -0.637074 -0.217032 -0.638517 -0.371795 0.401897 -0.786246 -0.555431 0.181703 -0.936125 0.142089 -0.179962 -0.0120166 0.348928 0.0403364 -0.711572 0.577649 -0.693997 -0.127077 -0.6401 0.378863 0.569545 -0.765526 -0.718041 0.109263 0.90764 0.019252 0.443817 0.186942 0.622039 0.000894886 -0.886511 1.03572 0.845434 -0.401125 -0.316912 0.296596 -0.200075 0.20731 -0.4618 -0.164946 -0.624759 0.361066 0.839933 0.748032 -0.629446 -0.704893 0.483601 -0.210771 0.112044 0.787537 1.1602 -0.327318 1.00996 -0.546915 0.690372 0.8257 0.36046 0.0390264 -0.0912275 -0.397145 0.642099 -0.341454 -0.468916 0.365194 0.129434 0.153902 -0.422942 0.861742 -0.725854 0.024291 -0.422387 -0.439611 -0.70816 -0.56654 -0.661447 -0.302084 -0.550112 0.387517 0.112998 0.184976 -0.0632862 0.0363138 0.592447 -0.299779 0.204581 0.00848388 -0.697981 -0.642619 0.83069 -0.0113182 -0.0179265 0.487833 0.640789 0.479518 -0.12538 -0.184702 -0.312179 0.512823 -0.297113 -0.00317782 -0.470793 0.266051 0.547063 -0.1622 0.609697 0.669006 0.320305 -1.14262 0.115076 -0.527683 0.0814628 -0.951393 0.506272 -0.331305 -0.23119 -0.249266 0.696563 0.113004 0.170924 0.618151 -0.84975 -0.845968 0.25552 -1.04401 0.86177 -0.755857 -0.0546275 -0.311315 0.828001 0.717954 0.752834 -0.54901 0.0278272 0.386091 0.344353 -0.250969 0.280882 -0.150955 -0.238032 -0.461122 0.542433 -0.930214 -0.154956 0.327725 -0.0379239 0.83113 -0.701726 -0.110664 0.18125 0.674407 -0.283378 0.578023 -0.884128 1.08811 0.652625 1.07322 -0.559123 -0.31071 -0.16669 -0.672732 -0.558872 -0.30244 -0.253967 0.480579 1.01356 -0.845303 -0.742809 0.298682 0.0603889 0.0395184 0.784853 -0.426607 0.030618 -0.229852 1.00181 1.03768 -0.509023 1.18722 -0.132312 0.602999 0.792129 0.482318 0.0859413 0.775418 0.454539 -0.367506 0.755591 0.507372 -0.0825178 -0.788586 0.701691 0.226473 -0.242 -0.612396 -0.33772 -0.305813 -0.536411 -0.205703 0.849964 0.390325 0.707476 0.640638 0.971896 -0.252007 1.10582 0.511513 -0.60837 -0.806227 0.438503 0.00263508 0.51261 -0.0302041 -0.783652 -0.677781 -0.460698 0.466114 -0.256824 -0.946816 -0.0179758 0.657679 -0.743835 -0.345972 -0.0805676 0.0626134 0.0868938 0.601977 0.768909 0.553808 -0.620987 0.601149 -0.0576368 -0.873219 0.173565 -0.28661 -0.339524 0.0833981 -0.717659 0.088957 0.313125 0.714057 -0.903952 -0.165275 -0.282648 -0.667392 0.159806 0.280086 -1.14615 -1.01648 0.388038 -0.13847 0.787812 0.846497 0.729067 -0.149508 0.0903589 -0.0113297 -0.472459 -0.0377485 -0.371304 0.0303377 -0.389101 0.637574 0.176221 0.871016 -0.463836 -1.02396 0.0546784 -0.0353936 0.313791 -0.390224 -0.0708093 0.670497 0.609605 0.824838 -0.799846 0.0162341 0.365403 -0.639026 0.218952 0.01183 0.437731 0.159249 -0.0101806 0.258077 1.03215 -0.920594 -0.775036 -0.405922 0.0884745 -0.00339195 0.63636 0.737329 -0.376904 -0.0757479 0.612318 0.138957 -0.0499131 -0.338287 1.02674 -0.820971 0.1465 0.122414 1.00427 -0.0872893 -0.136903 0.953902 0.747505 1.05374 -0.818458 -0.075452 0.00742263 0.498004 0.927735 1.00308 -0.209637 0.751604 0.733198 -0.255898 -0.714751 -0.306259 0.531692 0.824157 -0.697104 0.996328 -0.404263 0.736332 -0.0395801 0.380847 -0.726173 0.000931385 0.589428 0.484511 0.814363 0.127815 -0.98172 -0.685741 -0.0432664 0.644483 -0.780686 0.0286845 -0.593283 0.080875 -0.547782 -0.738838 -0.129543 0.000230864 -0.978735 -0.405879 0.681645 -0.754059 0.292057 0.263543 -0.875274 0.628813 0.271391 -0.283303 0.339092 -0.793259 -0.915946 0.647784 0.150536 0.6105 -0.0665991 -0.236778 -0.349299 -0.0409108 0.101936 0.645476 -0.388682 0.323717 -0.3282 0.0368477 -0.581093 0.149185 0.373612 0.375936 -0.780784 0.431099 -0.860229 -0.863443 -1.08545 0.573246 0.574335 -0.766725 0.31971 -0.0825658 -0.000394349 -0.267104 0.186261 0.170256 -0.59005 -0.606461 -0.128771 0.498279 0.299552 0.64402 -0.3237 -0.424309 0.459015 0.500847 -0.900812 -0.548819 -0.102555 -0.179749 0.831078 -0.450033 -0.55044 -0.678725 -0.758601 -0.239798 -0.475368 -0.843353 -0.687325 1.165 -0.580377 0.624276 0.0556321 0.502599 -0.645047 -0.643253 -0.398235 -0.195308 -0.311785 0.404931 -0.682789 0.910501 -0.0413874 -0.107994 -0.599788 -0.505525 -0.505633 -0.443085 -0.294424 0.121148 0.203821 -0.550649 0.499149 0.490197 -0.373905 0.516054 0.998472 -0.0083602 0.687471 -0.98938 -0.0631964 0.753305 0.53208 0.743871 -0.0854958 0.639892 0.819803 0.302701 -0.76534 -0.743514 -0.532646 -0.675897 -0.995439 0.411376 0.235631 -0.538874 0.728984 0.411764 -0.242069 -0.724532 -0.481812 0.926644 -0.337241 -1.01949 0.352261 0.216521 0.477066 0.343041 -0.80132 -0.0347584 0.413816 0.0467724 -0.409508 -0.173189 -0.223738 0.527992 -0.505793 -0.39188 -0.171332 -0.280678 -0.192403 0.250592 0.0198333 -0.150954 -0.390764 -0.802001 0.112397 -0.845207 0.53749 -1.11678 -0.541043 -0.950258 -1.18816 0.12325 -0.953817 0.214384 -0.631578 0.544986 -0.434384 -0.393059 -0.446496 -0.96864 0.837419 0.350632 0.112371 -0.236914 0.0736791 0.815126 0.495405 1.01901 -0.439348 -0.6489 0.288701 0.557554 0.149494 -1.05924 0.840801 -0.59765 -0.799965 0.630885 -0.358823 -0.055573 0.861934 -0.331859 -0.647876 -0.75008 -0.838054 -0.128607 0.873487 -0.0890824 0.677077 -0.308113 0.160761 0.791017 -0.65402 -0.578189 -0.533983 0.213207 1.04003 0.907913 0.243478 -0.21469 -0.805453 -0.451258 -0.581862 0.68159 -0.46154 -0.773036 0.933722 -0.296021 0.659826 -0.478296 0.510908 0.60848 0.35954 0.88715 0.677011 0.289973 -0.271016 0.522693 -0.857442 -0.687019 -0.89145 0.186461 0.809289 -0.84831 0.278672 -0.960903 0.213257 0.474932 0.88426 -0.662779 0.975535 0.965984 -0.22334 -0.819084 0.363664 0.180546 -0.740347 0.29124 0.918053 1.09397 0.976325 0.670983 0.629577 0.0560211 0.431238 0.149403 -0.671263 -0.876604 -0.383823 -0.574134 -0.625249 -0.320731 0.606674 -0.808103 -0.16291 0.0375531 -0.727593 -0.954951 -0.608704 -0.955653 -0.626763 -0.604835 -0.956276 0.155472 -0.41784 0.40807 -0.716425 -0.197417 -0.323542 -0.787822 -0.171726 -0.393106 0.702003 -0.733371 0.579455 0.136849 0.440372 -1.09608 0.258462 -0.949605 -0.668485 0.660256 -0.263281 -1.0406 -1.10358 0.642028 0.0856575 -0.804603 0.844078 0.643617 -0.493675 -0.623208 -0.755566 -0.302814 0.638108 -0.0830022 -0.873973 0.846322 0.528515 -0.308667 -0.990632 -0.580832 0.344314 -1.13234 -0.128715 0.105835 0.347187 -0.313032 0.56765 0.0692634 0.0875593 1.09681 -0.227903 0.871992 -0.729513 0.0436344 0.892837 0.590379 0.508724 0.957613 0.455442 1.13576 1.20982 0.562717 -0.314041 0.816264 -0.607073 -0.0746877 0.762085 1.10139 0.671218 0.815329 -0.391256 0.165983 0.793096 0.408214 -0.873628 0.110587 -1.09405 0.590464 0.962689 -0.156445 0.309791 -0.369647 -0.419738 0.317371 0.539599 -0.728389 -0.325877 -0.28092 0.805865 0.695511 -0.697255 0.602548 -0.171097 -0.099984 0.179534 -0.0640445 0.39696 -0.394094 -0.221806 -0.173691 -0.694271 0.220326 0.738287 -0.950195 -0.327546 1.03983 0.329283 -0.173643 0.516253 0.191258 0.568577 -0.268836 0.899047 -0.785558 -0.928352 0.393565 -0.587634 -0.320378 -0.912836 -0.818669 -0.6543 -0.474023 0.815503 0.16765 0.309822 -0.0967779 -0.900029 -0.251192 0.518888 -0.109719 0.551827 0.801284 -0.938356 0.251084 0.831463 -0.26655 0.206715 0.135079 0.531772 -0.321321 -0.72921 -0.0125014 0.310138 -0.848896 0.195365 0.368809 0.524812 0.615011 -0.939159 0.632058 -1.14488 -0.54193 -0.76467 0.711554 0.684532 0.749408 -0.204868 -1.00383 -0.357553 -0.565243 0.0178956 -0.722994 -0.680022 -0.0208743 0.378548 -0.937355 0.749844 -0.346229 0.263959 0.399262 0.536888 0.827726 -0.213795 0.0962314 -0.614565 -0.676399 -0.201089 1.27436 1.23835 0.13693 1.05597 1.25846 0.787524 -0.540982 1.13105 0.808089 -0.518622 0.20165 0.811437 -0.0322346 0.497783 -0.169322 0.255495 0.944842 0.97694 -0.151788 1.12535 0.713512 0.495213 0.404401 0.298718 0.0242723 0.125079 0.888762 -1.10399 0.246676 0.941042 -0.40973 0.151529 0.800654 0.423649 -0.105243 0.7856 0.0318498 0.146626 0.745676 -0.529063 0.196431 -0.732962 0.694237 0.718102 0.535064 -0.639021 -0.33252 0.170852 -0.977377 0.237536 0.0204103 0.69339 -0.318969 -0.678879 -0.100747 0.655451 0.439335 -0.219338 0.80392 -0.167379 -0.480609 
-0.860036 0.733494 -0.574894 0.6272 -0.310756 -0.679815 -0.302773 0.837762 -0.937344 0.168174 0.0103706 -0.546449 -0.0108227 -0.259353 -0.961389 0.324046 0.396476 0.202457 0.33403 -0.36124 -0.826108 -0.0279389 0.177598 -0.591091 0.814787 -0.186821 0.876122 -0.356035 -0.367156 -0.238283 0.626694 0.0779059 -0.181678 -0.749381 0.00292255 0.600469 -0.332043 0.69971 0.509296 -0.341307 -0.143004 -0.488702 0.2274 0.912738 0.299077 0.267705 0.297316 -0.237301 -0.443855 -0.245968 0.520819 -0.0975233 0.8355 -0.264646 0.493929 0.846507 0.800064 0.45781 -0.45806 -0.598741 1.0868 0.886116 0.258437 -0.392805 0.949848 1.02949 1.05554 -0.541062 0.610868 0.448966 0.0108913 -0.668948 0.789934 1.08842 -0.846377 -0.0130946 0.263809 0.311601 0.585615 0.647407 0.837925 -0.159568 -0.750776 0.417701 0.389898 0.408729 -0.0730451 -0.154382 -0.471823 0.164887 -0.0237572 -0.608651 -0.0817612 -0.924493 -0.154138 -0.288832 -1.10583 -0.308152 0.0467142 0.401116 -0.890428 0.995604 0.746376 0.811029 0.968058 0.795566 -0.311367 0.159902 -0.0610057 -0.902013 -0.434946 -0.394983 -0.272572 -0.32059 -1.09296 -0.938121 -0.82165 -0.176634 -0.128129 -0.353775 -1.0412 -1.07179 0.0933246 -0.0703526 -1.03276 -1.09841 0.626876 -0.978013 -0.283315 -0.303899 0.438405 -0.224597 -0.286427 0.291364 -0.341642 -0.223031 0.199333 0.499277 1.0243 -0.81669 0.648631 -0.290577 -0.0771227 -0.41842 0.610367 0.0209058 -0.176192 0.875566 0.925275 0.826883 -0.421394 -1.0067 0.810508 0.723811 0.0622473 -0.948277 0.888563 -0.00779712 -0.604747 -0.132239 0.96898 1.02262 0.919388 -0.238378 0.411814 -0.352292 0.617433 -0.460428 1.0622 0.544939 -0.256351 0.793296 -0.677201 0.690545 -0.654849 0.906727 -0.328105 0.147712 0.758224 -0.290103 0.0683398 -0.520234 -0.131626 0.0646411 -0.663913 0.98996 0.11313 1.1765 -0.150578 0.259311 -0.130172 -0.438129 0.0928094 -0.446571 0.120499 -0.6945 0.00198638 -0.427761 -0.290196 -0.0894941 0.971316 0.286958 -0.471637 -0.873198 -0.196586 -0.334903 0.814968 0.2646 0.616369 0.37569 0.693105 -0.554906 0.587642 -0.772273 0.210881 0.61338 0.891381 -0.967324 0.547076 -0.494566 0.107746 -0.795694 -0.133862 -0.993986 -0.492215 0.775608 -0.814201 0.403464 -0.668037 -0.188182 -0.674688 -0.782022 -1.01247 -0.246915 -0.761366 -0.310128 0.266006 0.888537 0.755858 -0.31956 0.067051 0.313968 0.0540301 -0.405474 0.642406 -0.73528 -0.807585 0.459445 -0.730693 0.817697 -0.978363 0.416781 -1.04154 -0.183037 0.39996 -0.35913 -0.259073 0.624077 -0.929742 0.0224403 -0.51808 -0.495773 0.308893 -0.486547 0.341387 0.66521 0.294703 -0.369827 0.592215 0.246624 0.53031 -0.0535718 -0.20125 -0.15989 0.706351 -0.522625 0.165556 -0.950555 -0.988461 0.542367 0.914955 -0.931076 0.0608107 -0.8388 0.169314 -0.186484 0.139342 -0.823931 -0.301838 0.391337 0.470878 0.249784 0.990951 -0.158563 0.864716 0.274812 -0.564092 0.0690764 0.936672 1.11507 -0.652155 0.475853 -0.0380793 0.0714213 -0.751581 -0.239454 0.648543 0.572293 -0.0949707 0.696483 0.18777 -0.144609 0.838498 -0.676391 0.0191109 -0.0564818 -0.0274976 0.844765 -0.0999258 0.397337 0.03986 1.11613 -0.592573 -0.20147 -0.298488 1.07322 0.91592 -0.0060069 0.0278617 0.715457 -0.0360589 0.2499 0.0749853 0.773633 -0.869842 0.129098 -0.749918 0.480128 -0.661301 -0.230203 -0.160116 0.204038 0.331816 -0.625977 0.173228 -0.984738 0.0506909 0.890211 0.671901 0.735512 0.0783432 -0.503331 0.568878 0.257819 0.13881 -0.814321 0.325632 0.00807582 0.23483 -0.664464 -0.335596 -0.866874 0.485634 0.67242 0.740816 0.450256 -0.393499 0.882419 -0.229497 -0.167244 -0.430903 0.57473 -0.86441 -1.09806 -1.06601 0.236896 -1.14891 0.0295842 0.152374 0.615222 -0.176907 -0.764703 -0.86019 -0.504192 0.626123 0.279477 -0.259995 -0.074599 -0.681551 -0.940491 0.268157 -0.0265851 -0.745054 -0.132668 -0.270105 -0.955127 -0.649573 0.431413 -0.925075 0.351153 -0.47026 -0.137564 0.0982412 -0.32104 -0.189226 0.176667 0.95811 -0.22574 -0.756069 0.13591 -0.565608 0.139248 0.472256 -0.288512 0.882109 0.338276 -0.779065 -0.204744 -0.509218 -0.407989 -0.0350669 0.836826 0.743519 0.212915 -0.334369 -0.645661 0.252052 0.0639159 0.879982 0.344324 -0.555099 -0.621605 1.22833 0.575275 0.0740968 0.0517419 -0.179629 0.0256633 0.883667 0.0605175 1.12948 1.21951 1.1127 0.58818 -0.161176 0.770813 -0.264586 -0.133489 -0.4751 0.085392 0.362435 0.268493 -0.309266 -0.109598 -0.660034 0.227848 0.183452 0.492887 -0.792485 -0.0847204 -0.312087 -0.557496 0.0296424 -0.409564 0.708317 0.767752 0.244934 -0.906449 -0.572792 -0.279687 -0.234703 -0.751433 -0.361899 -0.404958 0.593432 0.27411 -0.759493 -0.856513 0.963003 -0.475747 -0.053453 0.0885538 0.677399 0.540642 -1.03493 0.968302 -0.161099 0.113749 0.38648 -0.0189148 0.929967 1.00815 0.258399 -0.205183 -0.599568 -0.185178 -0.603512 0.512429 -0.158404 -0.229774 -0.65042 0.607936 0.00403723 -0.0965498 -0.85591 -0.382566 -0.822108 -0.543851 -0.144359 -0.778154 0.0721847 -1.06968 0.411232 -0.270356 0.575914 0.345924 -0.265648 -0.545982 -0.505347 -0.875282 0.490452 -0.478192 -0.811542 -0.205882 0.363886 -0.255051 0.827242 0.987018 -0.498869 -0.113427 -0.0353733 -0.16004 -0.496695 -0.893724 0.761214 -0.230806 -0.241337 -0.979058 0.290845 0.660012 -0.744999 -0.539429 0.804855 0.843405 0.426849 0.500102 0.363412 -0.866592 0.995216 0.980658 -0.700585 0.484188 -0.46551 -0.464224 -0.660498 0.84823 0.20287 1.06923 0.880741 0.667575 -0.0146506 -0.142149 -0.530313 0.448401 -0.0707579 1.24684 1.29537 0.668589 1.28106 0.598738 0.368676 -0.47191 0.923663 -0.0706566 -0.745552 0.144501 -0.60222 0.641081 0.167241 -0.709341 0.460347 0.41345 0.691698 0.858123 0.824102 0.899874 0.657541 -0.0598515 0.861182 0.350729 -0.633596 -0.474022 0.886632 -0.449252 0.649848 -0.548199 -0.51236 0.608448 0.80575 -0.550551 -0.154809 -0.12076 -0.255006 -0.454522 0.696672 -0.18514 0.466718 0.874483 -0.808164 -0.559094 -0.895272 0.6417 0.886217 0.704895 0.514025 0.630081 0.50712 0.0720696 -0.524515 0.301645 -0.688576 -0.278016 0.63047 -1.01017 0.0620295 0.158085 -0.622284 0.500105 -0.119096 -0.827468 -1.08461 0.60398 -0.057133 -0.307753 -0.826711 -0.258085 0.63904 0.769837 -0.226619 -1.04198 -0.722298 -0.219172 0.576791 -0.900243 -0.500029 0.130557 0.766778 -0.982937 -0.735675 -0.698608 0.357749 -0.469318 0.066942 0.18567 -0.284374 -0.642119 -0.360597 0.403894 1.10948 0.496202 0.601945 1.14126 0.10284 -0.337494 -0.185353 0.3214 0.448687 -0.545763 0.0289906 -0.772806 -0.437437 0.530619 0.205689 -0.72799 0.762693 0.753277 0.452464 0.588982 0.758531 0.545479 0.837473 0.136604 -0.796138 -0.158276 -0.842218 -0.1001 0.182558 -0.362567 1.13416 0.119235 1.0032 0.601147 0.213667 -0.0195465 1.20098 0.928103 -0.631712 0.682429 -0.524388 0.409438 0.719917 -0.295155 -0.313972 -0.234783 -0.0401668 -0.622809 -0.600372 -0.683919 0.799318 1.08212 0.826789 0.538807 0.0750648 0.875736 -0.708095 0.163354 -0.379051 0.330485 0.631441 -0.521447 -0.761119 0.382063 0.793891 0.139161 -0.839427 0.745538 -0.194253 -0.821407 0.0944256 0.0064668 0.33604 -0.335312 0.652726 0.823517 0.226218 -0.5738 -1.04561 0.431181 -0.329777 0.721245 0.532583 -0.555159 0.253203 -0.47321 -0.778323 0.461969 0.601087 -0.224511 -0.321419 0.053101 0.00983166 -0.289209 -0.728524 -0.257579 0.777105 -0.626471 -0.462196 -0.408358 -0.450134 0.53113 0.544751 -1.05945 -0.751715 0.315569 0.921134 0.610184 0.851144 -1.02172 0.11043 -0.509231 0.743654 -0.388557 -0.0886981 -0.0236948 0.166433 0.110683 -0.608099 -0.203551 0.984132 0.219967 1.00163 0.16644 1.04811 -0.539755 1.19102 1.18486 0.103697 -0.201222 -0.155092 0.775296 -0.676292 -0.615126 0.641227 -0.43788 0.659781 0.492341 -0.861388 0.497941 0.591904 0.391261 -0.701192 0.527771 -0.747424 0.298408 -0.401112 0.381627 -0.652932 0.007124 -0.736399 -0.606864 -0.712577 -0.793541 0.534689 -0.701585 -0.355622 0.535716 -0.733902 0.550411 1.18055 -0.0842482 0.264867 -0.632798 0.251401 -0.164431 -0.00392092 0.0174801 -0.46807 0.228885 -0.478984 0.953934 -0.519879 -0.353615 0.481619 -0.372433 0.811308 0.979423 0.952369 -0.874689 -0.0601613 -0.864818 -0.605041 0.00297121 -0.803519 0.731183 0.084834 -0.365812 0.0525576 0.0607931 0.968089 -0.0350338 0.666873 -0.075188 0.113578 -0.295437 0.535333 0.814346 0.425591 0.783909 -0.239217 0.759859 0.653383 0.0403396 -0.790751 -0.0538797 0.457691 0.825019 -0.134462 0.381372 0.978113 0.71088 0.476636 -0.743155 -0.41922 0.563819 0.891998 0.600966 -0.924739 -0.22276 -0.579441 0.809774 0.557892 -0.970337 -0.295447 -0.417771 -0.236691 -0.80555 -0.620137 -0.927431 -1.08108 0.146834 0.844245 0.640602 -0.540237 -0.649938 -0.147149 1.00317 -0.898019 0.563951 0.342457 -0.961318 0.166753 -0.266925 -0.736876 0.842963 -0.631522 -0.696961 0.48929 -0.466232 0.201614 -0.881809 -0.405969 -0.104836 -0.620514 0.508856 0.720123 0.22476 0.829016 -0.794927 0.259689 0.699903 0.328002 0.0889242 0.345509 0.69152 0.394218 -0.848099 0.809862 0.635359 1.02236 0.371756 0.932818 0.324232 -0.707878 -0.725971 0.138759 -0.409858 -0.401476 -0.369986 0.143082 0.646771 -0.276503 0.71693 -0.379071 -0.0943501 0.00438134 1.12305 0.966752 -0.376993 -0.735247 0.0895275 -0.70982 0.609769 -0.739023 0.723677 0.539586 0.802004 0.934155 0.18002 0.262606 0.681855 -0.627436 0.0314586 -0.155629 -0.423885 0.261636 0.982764 0.118389 0.709498 -0.533533 1.07549 0.244273 -0.0163995 0.538671 0.57791 0.664383 -0.756522 0.436431 0.335452 -0.444392 0.481503 -0.723433 -0.35691 -0.107779 -0.660131 -0.858866 -0.836627 0.858493 0.804124 0.156807 -0.0622278 0.367626 0.49575 0.838394 -0.916168 -0.968425 0.0387135 -0.973011 -0.00332271 -0.318461 -0.574299 -0.00531557 0.813832 0.278598 -0.567003 0.307691 -0.14363 -0.540719 -0.463421 -1.01831 -0.0223013 -1.00744 -0.814987 0.624515 -0.159395 -0.508772 0.63306 -0.0791828 -0.642621 0.483061 -0.786013 0.62064 0.164967 0.957601 0.491766 -0.298712 
0.989539 -0.305286 0.488435 -0.21455 0.245291 0.74768 0.97962 0.239081 -0.0103381 -0.645519 -0.702829 0.810143 -0.176168 0.0750591 0.790046 1.00021 0.305336 -0.702412 0.390254 -1.55395 -0.522929 0.199799 -0.0626217 0.154565 -0.214651 0.130689 -0.469877 0.682579 0.144339 -0.776288 0.127603 0.185745 -0.165747 -0.546409 1.01791 0.979794 1.03559 0.833815 0.022404 -0.0431599 1.11546 0.374707 -0.411014 -0.20183 -0.733632 -0.581807 -0.320321 0.373996 -0.397913 -0.694405 0.443202 0.413758 0.575238 -0.478066 -0.321601 -0.546878 0.923659 0.446088 -0.647698 0.162635 0.634548 0.443323 -0.749248 -0.622439 0.649947 -0.938586 -0.842486 0.660626 0.822206 0.102335 -0.531488 0.932725 -0.53206 0.0287488 -0.488359 -0.533988 0.42424 0.228852 0.942603 1.23137 0.773389 0.533659 0.418507 0.113251 0.491222 0.871765 0.357663 0.496565 0.226807 0.458998 -0.465704 -0.172836 -0.292225 -0.682623 -0.287836 -0.770276 -0.375938 -0.045686 1.20688 -0.448336 -0.784745 -0.434139 -0.584323 -0.48887 0.214402 -0.564903 -0.140843 -0.195492 -1.01222 -0.0959938 0.027513 0.60737 -0.827868 -0.990381 -0.95598 0.502748 1.01476 0.639851 0.35942 0.431153 0.358961 0.476727 0.427956 0.389888 0.628036 -1.03339 0.352542 -0.94561 -0.116127 0.432551 -0.620281 -0.256331 -0.974478 -0.328941 0.456956 0.603365 0.504768 -0.419928 -0.63702 0.443526 0.354156 0.0913135 -0.345528 0.427992 0.3714 0.491994 0.043158 -0.366896 -0.534744 0.86291 0.818025 0.415651 0.210859 0.0222023 -0.333855 -0.284985 0.0281038 -0.607242 -0.154059 -0.865164 -0.846954 0.448904 0.141934 -0.907261 0.998746 -0.403223 0.625731 0.436385 0.0802605 1.0549 -0.203246 -0.62896 0.265612 0.760765 0.832016 -0.360363 0.0406052 -0.00190527 0.807934 0.748607 -0.0282596 0.704172 0.184293 -0.815041 -0.0778501 1.01096 0.0259239 1.15186 -0.528074 0.939615 -0.71069 -0.466651 0.14341 0.276929 -0.571495 0.120472 0.803909 -1.03315 -0.586795 -0.0904499 1.10556 0.20402 -0.0109335 0.0691292 -0.140139 -0.153664 0.713052 1.15586 1.03904 0.668861 0.71544 -0.0444184 -0.0221343 -0.325406 -0.11601 0.86415 -0.423772 0.65896 0.905861 0.0384592 0.517106 0.837816 0.171418 -0.493655 0.247239 0.583795 0.853831 0.15684 0.617387 -0.797933 0.695804 0.813212 0.206669 -0.210134 -0.1278 -0.599562 1.1755 -0.668676 -0.4963 0.676914 0.56924 0.25569 -0.785555 -0.266174 -0.813768 0.0344015 -0.38208 -0.0489298 0.0209391 -0.482411 0.647851 0.682403 0.711862 -0.890016 -1.17492 -0.397656 0.692576 0.693059 0.661036 -0.128097 0.862769 0.68115 -0.104723 0.218688 -0.344573 0.829653 0.417754 -0.371545 1.10128 0.387918 -0.96077 0.6935 0.0546439 -0.422854 -0.94321 -0.290013 0.128456 -0.402442 0.56988 -1.123 -0.283191 -0.29631 0.619353 -0.473848 0.0936496 -0.891341 0.622913 0.123699 -0.940321 0.697612 -0.356917 1.10365 0.425983 0.616298 0.314567 1.07243 0.244135 -0.28839 -0.523457 0.0691801 -0.944807 -0.362555 -0.158559 0.210005 0.235864 0.291689 -0.481292 -0.180875 -0.785429 -0.71818 -0.101044 0.116546 0.300508 -0.177112 0.88724 -0.375275 0.0291285 0.602774 0.783863 0.133104 0.183462 -0.687504 0.0581051 -0.492907 0.782301 -0.951837 -0.80116 -0.360045 -0.489082 -0.541741 0.464298 -0.73372 -0.095251 -0.743383 0.451011 -0.615773 0.837361 -0.820865 0.0332477 1.00033 -0.832366 0.842478 -0.00412568 0.466212 -0.410974 -0.35323 0.875701 0.452519 -0.790305 0.644999 -0.580161 0.0398667 0.579005 0.144458 0.579072 0.320072 0.201693 0.819558 -0.616825 -0.605768 -0.561375 -1.12774 -0.0479352 0.917496 -0.472469 -0.652718 -1.04454 -0.515243 -0.64699 -0.256204 -0.884426 -0.0692297 -0.126388 0.153334 -0.759748 0.605882 -0.907764 -0.483561 0.123878 -0.795564 0.875431 0.240403 0.0459552 0.0875884 -0.602401 -0.414092 -0.390101 -1.50579 -0.562841 0.107654 -0.738343 0.273442 0.347742 0.301469 0.0918195 1.12719 0.784995 0.140665 -0.735658 -0.885478 -0.750407 0.00449732 -0.0565588 0.0232858 -1.16052 0.488495 -0.119076 -0.924541 -1.37457 -1.19967 -0.840646 0.523672 0.135338 0.564893 0.211763 -1.0579 -0.551805 -0.76558 -0.952278 0.184745 0.510506 -0.627641 -0.55526 -0.188135 0.457186 0.569069 -0.242618 0.0211135 -0.379751 0.199604 0.381705 0.137363 -0.778415 -0.283236 -0.343738 -0.387993 -0.453407 0.885283 -0.0267676 -0.424502 0.978931 0.41542 -0.612957 0.351897 0.0987939 0.707675 0.345832 0.604836 0.925209 0.38057 -0.303975 0.433667 0.696611 -0.0844268 -1.03495 -0.123145 -0.764149 -0.49465 -1.34692 -0.443749 0.513962 -0.0142807 0.670062 1.00229 -0.991288 -0.343994 -0.576799 -0.5133 -0.82818 0.30674 -0.0587771 -0.792037 -0.306503 0.401267 0.653975 0.827467 -0.0395204 -0.417569 -0.0899232 -0.743001 0.67195 0.275852 0.434022 0.368043 -0.793852 0.641088 -0.489236 0.164102 -0.572689 -0.723495 0.920305 -0.530338 0.588952 0.404606 -1.08098 0.613255 -0.965603 -0.869996 -1.22431 -0.493373 -1.02509 -0.130021 -0.240472 -0.324438 -0.789654 -0.554258 -0.744346 -0.214829 -0.139432 -0.0172782 0.0840128 -0.751716 -0.714783 -0.343479 -1.08741 -0.408379 -0.373681 -0.635974 -0.882718 0.616992 0.167593 -0.75785 0.970702 0.150904 1.19908 -0.764704 -0.393457 -0.42122 0.281049 0.207942 0.228835 0.0495819 -1.02671 -0.736836 0.536097 -1.05758 -0.93271 -1.19309 -0.119325 0.0704564 0.013471 -0.727596 0.851792 0.815101 0.401173 -0.983188 0.0168345 -0.71228 -0.324811 0.230194 0.709807 0.796872 0.279341 0.574225 -0.268433 0.118178 0.75608 0.463209 0.512215 -0.0921174 -0.425018 -0.291459 -0.86732 -0.203764 -0.0329692 -0.799216 0.188755 0.464573 -0.621148 -0.615572 -0.196975 0.64601 -0.174359 -0.21671 0.542916 -0.712338 -0.129477 -0.437846 -0.469559 0.42962 0.61301 -0.973845 -0.083078 -0.251063 0.308557 0.388199 0.621308 -0.0882488 -0.204009 0.0758879 -1.20428 0.649222 -0.902019 -0.738563 -0.722652 0.0155702 -0.90206 0.325753 -0.627576 -0.37655 0.999205 0.208871 1.24895 -0.454577 0.755709 0.174144 -0.881169 -1.10809 0.716974 -0.532212 0.538034 0.365825 -0.382035 -0.520232 -0.717695 -0.306769 -0.563984 -0.833815 0.943693 0.716171 0.542364 0.591184 0.229547 0.495997 -1.66165 -0.325201 -0.940394 -1.06548 -0.542007 -0.186227 -0.145851 -0.563534 -0.977188 -0.128385 -0.38395 0.263628 -1.01261 -0.595593 0.0750171 -1.51849 0.49392 -0.0701978 0.293865 -0.90341 -1.22576 0.64605 0.274102 -0.313132 -0.273874 0.491453 -0.74671 -0.684305 0.292313 0.249902 -1.12937 0.385292 -0.200104 0.122842 0.596481 0.60422 -1.15729 -0.622332 -0.687951 -1.35399 -0.168892 -0.303167 0.244915 0.221622 -1.02225 0.166529 0.409132 -1.04729 -0.447435 -0.111215 -0.37229 -0.46316 -0.135365 -1.01937 0.168326 0.270695 0.183988 0.371362 0.456437 -0.850436 -0.308865 0.443909 0.341339 0.747031 -0.582188 -0.0847165 0.598871 -0.507097 0.486051 1.09503 -0.428617 -0.174777 0.215689 1.12665 -0.654183 0.39381 0.408237 0.880799 0.418461 1.02119 -0.070031 -0.802068 -0.32836 0.778336 -0.980642 0.44154 -0.233414 0.061394 -0.390699 -1.0365 -0.0248993 0.1739 0.335569 -0.707507 -0.0711627 -0.968758 0.489005 -0.17083 -0.369655 0.183956 -0.0888109 0.0338451 0.810285 1.13146 0.157902 0.993385 0.22834 1.2064 0.568471 -0.666321 0.763385 -1.0254 -0.649421 -0.975229 0.831428 -0.835815 0.664326 -0.374828 0.682227 0.266506 0.486385 -0.212223 -0.348165 -0.331768 0.314785 0.546602 -0.144008 -0.74464 -1.28264 -0.673706 0.115269 -0.254101 0.411608 0.0176409 -0.0683178 -0.215522 0.0643168 0.883434 -0.266724 -0.869649 -1.31415 -1.22144 -1.28114 -1.1697 -0.506698 -1.08952 -0.838964 -1.2271 -0.292028 -1.12312 0.459778 -0.821271 0.263148 1.66112 0.231541 -0.21054 0.707437 0.803321 0.560114 0.812626 -0.31059 0.266946 -0.293251 -0.551068 -0.795657 0.867142 0.53119 0.0506227 0.30174 -1.11275 0.377504 0.397295 -0.543749 -1.0917 0.802334 0.425271 -0.73279 -0.588352 -1.00151 0.131252 -0.461292 0.584295 0.188576 0.381657 0.379092 -0.911507 0.828745 -0.0246853 0.824052 0.295638 -0.051373 -0.188614 -0.44424 0.984031 0.642139 0.0842801 0.957813 0.299802 -0.48448 0.672204 0.541515 -0.80331 0.376576 -0.781808 -0.760743 0.303112 0.610662 -0.534946 0.644817 0.667218 0.537571 -0.928879 -0.287226 -0.601838 0.240582 -0.793765 -0.440713 0.0783311 0.0960431 -0.800588 -0.723218 -0.779077 0.276408 0.352392 -0.483424 0.175487 -0.790848 -0.576733 -0.711755 -0.354348 0.956216 0.876965 -0.122061 0.383649 0.908791 0.00815721 0.769614 -0.692384 -0.921448 -0.247223 -0.532291 -1.11129 0.572864 0.373992 -0.122836 0.220867 1.16913 0.889783 -0.0187282 0.384621 -0.564952 0.221853 0.641606 0.556853 -1.33279 -1.50433 -0.955714 -1.6525 -1.37146 -0.669914 -0.913036 0.458198 -0.608106 0.267878 -0.341699 0.951185 0.750346 -0.769478 -0.670076 -1.09295 0.285255 -0.238916 -0.678297 0.194391 -0.766192 -0.391807 -1.14 -1.03268 0.0686462 0.162798 0.879594 1.43043 -0.301966 0.926874 0.800272 -0.466735 0.234187 -0.928854 -0.0667863 0.393472 -0.252391 -1.28803 0.249321 0.45174 0.289695 0.446654 -0.194655 -0.410413 -1.2813 0.513598 0.0308502 0.668328 -0.254232 0.899408 0.312323 0.29166 0.340099 0.78059 0.745425 -0.295216 0.0936799 0.5972 -0.470138 0.681508 0.12601 -0.880345 -0.45146 -0.211444 -0.442068 0.993649 -0.398631 0.798118 -0.887372 0.995354 0.349063 0.506273 0.777924 -0.440102 -0.550427 0.83585 -0.62197 0.727897 0.676344 0.226888 0.567767 -0.0932562 -0.749921 -0.230444 -0.522754 -1.11199 0.0608525 0.271327 0.287638 0.540678 -0.0880616 -0.492454 -1.3287 0.343707 0.500315 -0.522527 0.652985 -0.653673 -0.435538 1.00498 1.11002 0.814912 0.276103 0.791234 1.2457 0.797232 0.637926 -0.221337 0.477993 0.263559 -0.308163 -1.65082 -0.562894 -0.609327 -0.147998 0.610015 0.591723 -0.887476 0.394735 0.27939 -0.338543 0.205945 -0.46896 -0.409775 -0.225941 0.633735 0.334236 -0.753556 0.0579617 0.0836024 -1.18038 -0.23399 -0.437146 -0.282613 -0.568383 -0.491755 -0.413807 -0.545992 0.10314 0.800298 0.262403 -0.766236 -1.49691 -1.12611 -0.0425901 -0.0812264 0.0309148 
0.300978 0.630014 -0.877488 -0.431886 -0.898155 0.0176316 -0.332175 -0.338072 0.743986 -0.620458 0.833688 -0.79004 -0.8131 0.34356 -0.543927 0.927234 -0.616239 0.847917 0.221135 0.354658 -0.373314 0.692893 -0.579567 -0.648573 -0.155205 -0.366706 -0.597751 0.397146 -0.64781 0.529195 0.917997 0.669386 0.167512 -0.95119 -0.753807 0.285847 0.0867387 -0.0654018 0.968699 -0.15217 0.331245 0.8192 0.0789774 0.539771 0.184652 0.552529 0.484903 0.579448 0.395139 -0.298429 -0.0634237 -0.975392 -0.603152 0.358416 -0.622878 0.242473 -1.00545 -0.217787 -0.356846 -0.647704 -0.681391 -0.43257 -0.974384 0.495705 -0.373169 -0.717706 -0.207337 0.72043 0.223461 -0.23206 -0.42508 -0.438232 -0.405795 0.656132 -0.896929 0.779771 0.209771 0.589292 0.367501 -0.386706 -0.701764 -0.689263 -0.355744 -0.298652 0.682198 0.0344314 0.957295 0.677175 0.817426 -0.399033 -0.96443 -0.85908 0.173792 -0.935066 0.639654 0.803436 -0.650007 -0.564286 0.526912 0.576362 0.207126 -0.894314 -0.857938 0.804519 0.771929 -0.74559 0.594188 -0.0318683 0.830189 -0.0519483 0.601128 -0.851144 0.279207 -0.750139 -0.146523 -0.0418373 0.280533 -0.197074 -0.365599 0.0805569 0.390874 -0.344843 0.222161 -0.434425 -0.278762 -0.136853 -0.62967 0.0725619 0.300447 0.899267 -0.348916 -0.490767 -0.993202 -0.205746 -0.685365 0.772686 0.0433688 0.90374 -0.24664 -0.113945 -0.135707 -0.649606 0.0299103 -0.862282 -0.405875 0.893917 0.10681 0.885745 -0.303865 0.740886 -0.0177143 -0.896933 -0.588287 -0.781618 -0.3174 0.14692 0.0976422 0.069059 -0.764411 -0.585702 -0.0233799 -0.105032 -0.0677763 -9.41222e-05 0.709912 0.265068 -0.208929 -0.232084 0.188366 0.563689 0.67761 -0.925726 0.935976 -0.275019 -0.770109 -0.458869 -0.386276 0.332235 -0.570256 0.312899 0.0755046 0.413423 0.417055 0.487746 0.63433 -0.897823 -0.362122 -0.262472 0.17843 -0.119851 0.156167 -0.834965 0.785705 -0.90113 0.176056 0.502481 0.372963 0.976155 -0.720489 -0.43201 0.546506 0.958948 -0.356201 0.48375 -0.314968 -0.124999 -0.9672 0.307795 -0.784601 -0.529996 -0.372342 0.297769 0.897076 -0.941892 -0.199282 0.533713 -0.837756 0.4389 -0.724422 0.343378 -0.678142 0.43431 0.51104 -0.890022 0.535541 -0.309911 0.615099 -0.088993 -0.331294 0.897455 0.482324 -0.781599 0.866511 -0.864477 0.712043 -0.460907 -0.00213399 0.730664 0.864495 0.231733 -0.780053 -0.50512 -0.468584 -0.887229 -0.452126 0.321148 0.642271 -0.293923 -0.239591 0.901524 -0.966897 0.0661517 0.336246 0.544731 0.176712 -0.127627 -0.764335 -0.206908 0.784788 -0.0939922 -0.308186 0.26804 0.125158 -0.447324 0.39813 -0.168479 0.103046 -0.592877 -0.425413 -0.0367379 0.633893 -0.210837 0.452394 -0.82415 -0.0867481 -0.988505 0.496435 -0.445047 -0.282737 -0.743395 -0.527853 -0.233939 0.338437 0.824081 -0.673104 -0.468743 -0.287426 -0.42121 0.330905 -0.496069 0.491649 -0.960373 0.792697 -0.365104 -0.389329 0.205369 0.485968 0.732871 0.636279 -0.917647 -0.282074 0.287782 -0.110364 -0.818285 0.458597 0.798029 -0.803923 -0.0419305 -0.644752 -0.0852592 0.215763 -0.171964 0.681587 -0.445001 -0.346428 -0.988362 0.0910407 0.370448 -0.406969 -0.567436 0.885604 -0.90416 -0.516654 0.685213 -0.260235 0.103054 -0.100301 -0.767614 -0.157416 -0.46184 -0.683414 0.562354 0.82704 0.2074 0.751659 0.294325 0.0136341 0.956176 -0.740248 0.375863 -0.114698 0.489058 -0.781107 -0.432496 -0.954484 -0.12734 -0.415847 0.13993 -0.753434 0.180753 0.575479 -0.865371 0.278602 -0.938533 0.823257 -0.978358 0.167762 -0.274158 -0.742952 -0.986823 0.272672 -0.417824 0.584246 0.0867712 0.776203 0.32211 -0.6009 -0.19169 0.296561 -0.338809 -0.814313 -0.82413 -0.855416 -0.606596 -0.260871 -0.813982 0.266393 0.306909 0.309563 0.496835 -0.512298 -0.114716 0.631168 0.76601 -0.0532698 0.454932 0.789155 -0.884319 -0.818024 -0.953446 -0.870429 0.449261 -0.376265 0.709034 -0.452201 -0.588829 0.0431584 -0.0573773 0.214523 -0.665676 0.598052 0.410748 -0.478487 0.754267 0.803977 0.260062 0.939574 0.0697541 -0.417361 0.264825 -0.417735 0.0860415 -0.833838 -0.769626 -0.130996 0.129978 0.690316 -0.337693 0.250598 0.889315 -0.27029 0.400836 0.359509 0.370145 0.129036 0.926468 0.805102 -0.806014 -0.109119 0.0372269 -0.453561 -0.499536 -0.557066 0.063101 -0.742926 -0.750439 -0.674572 -0.801948 0.320395 -0.0912957 0.463673 0.903291 -1.00398 0.63322 -0.861148 -0.130465 -0.233996 0.842418 0.545526 -0.970133 0.744996 -0.715405 0.439756 0.113539 0.664017 -0.424765 0.0464824 0.47194 -0.228083 0.940056 -0.489518 0.321049 -0.550168 -0.0364297 -0.607738 -0.285682 0.219491 -0.275932 -0.0745842 -0.447067 0.646285 -0.610439 -0.543137 0.642669 -0.972398 -0.401101 -0.48434 -0.203183 -0.556051 -0.936006 -0.170954 -0.808062 -0.648739 -0.728695 0.307974 -0.981994 -0.150247 -0.642388 0.498777 0.630362 -0.693588 -1.00526 -0.0645562 -0.25972 -0.025734 0.343738 0.470617 -0.806172 -0.932164 -0.6101 -0.259526 0.703306 -0.224777 0.193257 0.346296 -0.213542 0.775757 0.845826 0.583306 -0.780061 0.909179 -0.588297 -0.588631 -0.738799 -0.315613 0.721048 -0.719086 0.535368 -0.92002 0.773734 0.160318 -0.619276 0.780144 -0.89312 0.132245 -0.250296 0.446007 -0.40239 -0.0617189 0.524868 -0.00116577 0.690369 0.228012 0.773464 -0.117086 -0.426325 -0.424418 -0.325646 -0.564818 -0.825426 -0.0896307 -0.63909 -0.397159 0.338563 -0.372341 0.292295 0.0633064 -0.0760444 -0.151458 0.165306 -0.27967 -0.974416 0.569805 -0.475749 -0.843615 -0.280497 0.291679 0.620133 0.335237 -0.758797 0.139965 -0.670788 0.933913 -0.629386 -0.895057 -0.181779 -0.0546691 -0.318881 0.493166 0.381159 -0.142968 -0.592888 0.747683 0.46477 0.748878 -0.611406 -0.229249 -0.172875 0.327481 0.628649 -0.998521 -0.943134 0.663512 0.57325 -0.415534 0.823108 -0.704157 0.877585 0.44456 0.633384 -0.871692 -0.405711 0.970709 -0.930975 -0.0287457 -0.917978 -0.0997026 0.929679 -0.229819 -0.605861 0.311509 0.634084 -0.193929 0.0623777 0.102309 -0.441841 0.453603 0.875865 0.387647 -0.216318 0.507187 0.391639 -0.156585 0.173433 -0.0317584 0.425264 -0.00607444 0.265777 0.31564 -0.549049 -0.0940078 0.44366 0.044905 -0.123594 0.512382 -0.983803 -0.0411742 -0.59345 0.939583 0.724354 -0.203549 0.247019 0.35876 0.586139 -0.707 -0.555924 -0.854219 0.748161 -0.679952 0.531114 -0.469598 0.828974 -0.0811171 0.370031 0.00326521 0.893696 -0.193492 -0.996986 0.160538 -0.883478 -0.551337 -0.938437 0.555124 0.488855 -0.0667374 0.0620018 0.499654 0.902612 0.480133 0.450875 0.626752 -0.72418 -0.302227 -0.0144607 0.877629 0.00582664 0.445514 -0.96233 -0.234722 0.778777 0.581821 0.312189 0.615914 -0.484946 -0.304806 -0.36545 -0.570369 0.523707 -0.340544 0.606892 0.663902 0.13179 0.692135 0.236347 -0.361763 -0.357004 -0.683398 -0.850855 -0.459428 0.791747 0.602152 -0.830192 -0.930352 -0.699277 0.155826 0.947958 0.307361 -0.397842 0.987169 -0.920247 -0.609935 0.577588 0.399032 -0.981257 -0.893427 -0.889687 -0.331003 -0.452888 0.64344 0.338998 -0.836745 0.309803 -0.527056 0.857712 -0.452139 0.113207 -0.497554 -0.133662 0.270849 0.0516212 -0.334069 -0.120084 0.227987 -0.257865 0.193851 -0.602936 -0.302683 -0.498094 -8.21801e-05 -0.308613 -0.41355 0.393161 -0.727747 0.988222 0.414632 -0.618563 -0.900407 -0.913666 -0.0700343 0.744312 0.426432 0.0943188 0.050767 0.89618 -0.0513277 0.604149 0.021021 0.462859 -0.522566 -0.708136 -0.485866 0.143027 0.171439 0.742158 0.885549 -0.640844 -0.867071 -0.421771 -0.143175 0.128774 0.269929 0.4269 -0.494877 0.525941 0.417395 0.922559 0.907874 0.515067 -0.992548 -0.161669 0.254641 0.429245 0.933867 -0.683435 0.336757 -0.111602 0.922123 -0.647616 -0.654143 -0.606172 -0.361582 -0.145534 0.531669 0.803863 -0.409205 0.427474 -0.82582 -0.265069 -0.995049 0.0298725 0.863193 0.274474 -0.528002 -0.616652 -0.184547 0.902779 -0.68366 -0.264319 0.430025 -0.660553 0.582549 -0.300985 0.781665 0.531801 0.0409343 0.144785 -0.553442 -0.0205518 0.516023 -0.18874 0.392481 -0.828239 0.683084 -0.0583591 0.993767 -0.71472 -0.636028 -0.836994 0.0225513 -0.62843 0.195113 -0.113452 0.645916 0.667179 0.270108 -0.537209 0.572106 0.594175 0.207604 0.0107318 0.940714 -0.196479 0.723673 0.738477 -0.648592 -0.228955 -0.111783 -0.196948 0.755408 -0.593304 0.616472 0.150076 -0.419825 0.301852 -0.90604 -0.423598 0.59579 -0.533654 -0.255466 -0.377204 -0.15798 0.948653 0.525002 -0.495745 0.623663 -0.203589 -0.0322586 0.202667 -0.604623 -0.82148 -0.78298 -0.661164 -0.0158397 0.942953 -0.921628 0.337292 -0.284589 -0.0321279 -0.85843 -0.528092 0.371215 0.754714 0.618491 0.956905 0.0681919 0.723833 -0.460168 -0.336366 -0.810165 0.286476 0.288885 0.0347087 0.235522 -0.19224 0.532311 -0.145453 0.599903 -0.504047 -0.94186 0.9792 -0.342324 -0.742061 -0.680602 0.64402 -0.796914 -0.601836 -0.0236922 -0.0865108 0.361291 0.11731 0.390706 -0.257604 -0.116645 0.0146564 -0.299687 0.946148 -0.266901 0.234767 -0.395354 -0.0822411 -0.484302 0.887187 0.945789 0.76146 -0.293892 0.489447 -0.384738 -0.695116 0.984916 -0.327627 -0.700947 -0.342357 -0.055027 -0.367908 -0.688851 0.15794 0.0399742 0.307705 -0.915043 -0.584889 -0.560844 0.490652 0.182466 0.34887 -0.468336 0.899173 0.31387 0.283603 0.152772 0.935442 -0.78184 0.685953 0.84122 -0.824305 0.44265 -0.457751 0.667816 -0.939788 -0.150866 0.653219 -0.266934 0.148863 -0.687336 0.680497 0.783867 -0.366903 -0.150893 -0.165776 0.948467 -0.0532105 0.262787 -0.597129 -0.547328 -0.549305 0.756689 -0.0105784 -0.645361 0.0722783 -0.725564 0.508991 0.00948047 -0.504296 0.197801 -0.146643 -0.322424 -0.353983 0.397977 -0.650487 -0.289693 -0.74391 -0.979146 0.461535 0.414628 -0.666795 0.141449 0.204384 -0.0304977 0.992089 -0.959388 -0.0802753 -0.059993 0.304533 0.323561 0.394264 0.756632 0.0769072 -0.619805 -0.892347 -0.849125 -0.343509 0.618336 0.166484 0.163818 -0.172474 -0.973647 0.84387 0.476032 0.429278 -0.80168 -0.808693 0.687882 -0.787305 0.646198 0.0978654 -0.458356 -0.216443 -0.696813 0.494775 -0.240726 -0.672992 -0.583422 0.701479 0.633727 0.740484 0.0348813 
0.161591 -0.382789 0.259093 0.282912 -0.223552 -1.07715 -0.0933634 -1.05262 0.101188 0.764551 -1.01785 0.025939 0.300463 0.479981 0.21949 0.521184 0.188213 0.462966 0.172436 -0.715436 -0.985858 -1.03739 -0.394836 0.554726 -0.224553 0.000283186 -0.899794 -0.412823 -0.204959 0.914899 0.775537 -0.848417 -0.298853 0.0619853 0.420394 0.459714 0.121386 -0.433908 0.72137 -0.578132 -0.480801 0.881862 0.602333 -1.01629 0.431286 -0.00262956 0.785137 -0.133759 -0.174729 0.309052 0.55757 0.123175 0.444176 0.84795 -0.662747 0.894309 -0.0849089 -0.635836 -0.593063 0.705407 -0.617932 -0.624201 0.638222 -0.267673 0.522834 0.636917 -0.131699 0.200496 -0.186242 0.141362 0.73895 0.498581 -0.158607 0.261518 0.0791361 0.985866 -0.286436 0.488 0.441523 0.16348 1.38146 1.23875 0.854273 0.0594045 1.08216 1.06965 -0.104108 0.0190755 -0.577381 0.427606 -0.399074 -0.328264 0.340543 -0.919929 0.278893 -0.632818 0.355536 0.667223 -0.343098 0.402947 -1.00271 -1.02306 -0.817066 -0.926622 -0.0641819 0.239329 -0.945707 -0.0288034 0.982491 -0.34125 0.686749 0.656794 -0.460612 0.174737 -0.553176 -0.572374 0.0930945 0.172322 0.21595 0.358743 -0.734007 0.588203 0.777492 0.362662 0.680692 0.0542428 0.710753 0.149056 -0.348348 -0.550232 -0.487421 -0.31076 -0.513175 -0.164526 -0.0750868 0.43048 -0.905472 -0.0404329 -0.590383 -0.886763 0.704141 -0.837729 0.756422 -0.71296 0.344069 -0.779321 -0.33258 -0.659118 0.314052 0.830609 0.680946 0.577991 0.450609 0.515153 0.0695192 0.295451 -0.210258 -0.102542 -0.427149 0.62784 0.504393 0.0895926 -0.719041 -1.02671 -0.917499 0.450785 0.712403 -0.631262 -0.372024 -0.662122 -0.347214 -0.494209 -0.428926 -0.368091 0.0771022 -0.851188 0.160018 0.993807 -0.180222 -0.342802 0.678455 -0.744099 -1.07716 0.0741245 0.72767 -0.0130374 -0.517318 -0.320955 0.991238 0.165379 -1.02099 0.24193 -0.630529 -0.0792275 0.851465 -0.216755 -0.0456272 1.02183 0.593566 0.750938 1.31562 1.11846 0.867329 -0.456867 -0.265477 0.167944 0.221241 0.927437 0.159921 0.353074 1.24646 -0.487954 0.326296 0.8234 0.419142 0.333883 0.092225 1.13819 1.18427 0.0327759 0.0504556 1.05582 -0.954882 -0.232897 -0.628836 0.254243 -0.163643 -0.157026 -0.29989 0.946955 0.779935 -0.787217 0.693319 0.590501 -0.28478 1.03107 -0.67243 0.101165 0.394395 -0.220415 -0.860969 0.211017 0.0236642 0.630378 0.119606 -0.502113 -0.0791013 1.02599 -0.6646 -0.266223 -0.315045 -0.024419 -0.327048 -0.329215 0.727889 0.244247 -1.06134 -0.383447 -1.16154 -0.382624 -0.449757 0.660591 -0.0934917 -0.839884 0.182949 0.530165 -0.850719 0.501473 -0.322806 0.578339 -0.753307 -0.177353 -0.218771 0.265323 -0.633754 0.785255 0.669614 0.20301 0.756938 -0.995607 -1.00969 -0.472203 0.116837 -0.181401 0.41879 -0.0362275 -0.853178 0.544285 0.69696 -1.00602 -0.905035 -0.777272 -1.2033 0.248079 -0.1627 0.200882 0.123745 0.0814623 -0.123046 -1.10373 -0.157595 0.383591 -0.0669641 0.731879 -0.0804963 0.587214 0.835609 -0.299619 -0.393983 0.378873 -0.533588 -0.413355 -1.15708 0.556575 0.392797 0.465509 -0.441504 0.734851 -0.302416 -0.889294 0.936849 0.498112 0.0629012 1.02755 0.126953 0.814224 0.424677 1.25692 -0.299618 -0.643161 1.06619 0.602871 0.827831 -0.0973922 0.556462 -0.147025 -0.153427 0.170577 0.300308 0.0800795 -0.830424 0.256348 0.419412 -0.869272 0.197506 0.326935 0.869761 0.792078 -0.192421 -0.60848 0.616126 -0.890989 0.40205 -0.96056 0.691253 -0.944308 0.4949 -0.227423 0.835209 0.984447 -0.0789005 0.714019 0.414769 -0.666822 -0.571164 -0.566038 -0.488295 -0.551588 0.106895 0.318426 0.257019 0.42756 -0.232679 -0.118611 0.660531 0.771947 0.824796 0.138617 0.128856 -0.74099 0.487258 -0.30467 -0.63861 -0.0486493 -0.376725 -1.08838 -0.207177 -0.892594 -0.331929 -0.392396 -0.944915 0.457724 -0.79788 0.355787 0.729522 -0.40029 0.813664 -0.701908 0.0181756 -0.055822 0.614157 -0.708868 -0.747643 -0.733408 0.0527895 0.822279 -1.04122 -0.112877 0.00391239 0.161667 0.299414 -0.348051 1.05669 0.769318 0.69703 -0.123641 0.821733 -0.499825 -0.0934275 -0.576052 0.302927 0.430069 -0.681907 0.736836 -0.120128 -0.834485 -0.565326 -0.191336 -0.331335 0.716868 0.93372 -0.634565 -0.867744 -0.523105 -0.436358 0.119875 -0.974273 -0.410634 -0.929312 0.0600552 0.702434 0.430869 0.794017 0.963714 -0.226051 0.254599 -0.297155 -0.246088 1.19909 1.02075 0.928097 0.767876 0.584665 1.17239 0.597376 -0.49289 1.16453 1.0901 0.346437 -0.140852 0.687492 0.158251 0.286287 0.840693 0.526991 1.2038 0.384118 0.708144 -0.575761 -0.0796738 -0.386616 -0.82135 -0.545772 -0.215273 -0.447896 0.715873 1.23436 -0.0852039 -0.766631 0.69935 -0.43594 0.803837 0.246019 0.766784 0.291413 -0.714619 0.978273 0.333908 -0.83359 0.124547 0.952651 0.607348 1.04254 -0.143519 0.114508 0.17272 -0.577699 0.88393 -0.369309 0.00220725 -0.0116918 0.422814 0.387611 0.3801 0.837348 0.530452 -0.303445 0.622721 -0.599004 -0.13567 0.347434 0.0197494 -0.777867 -0.758759 -0.429533 0.52095 -0.468267 -0.535622 -0.277128 -0.449888 0.380543 -0.481386 -0.968596 0.337385 0.345619 0.165052 -0.502379 0.812071 0.06786 0.145029 -0.297597 -1.07257 -0.545175 -1.01313 0.222171 -0.73028 0.534161 0.959841 1.05745 1.12835 0.00462151 0.430346 0.155814 0.418379 0.810779 0.752855 -0.113836 -0.703938 -0.590848 -1.09512 0.262487 -0.829837 -0.297344 0.432081 0.485264 -0.845422 -0.203524 -0.760852 -0.861918 0.938176 0.448061 0.0675949 0.740516 0.851374 -0.206786 0.0802636 -0.821685 -0.458722 0.176003 -0.774113 -0.335539 -0.79062 0.227967 0.449513 0.676536 0.405042 0.612397 -0.250335 1.21956 1.42745 -0.0219699 0.367523 1.35612 0.519682 -0.295129 0.883763 0.742653 0.462002 1.03486 0.9217 0.48204 0.511184 -0.109082 0.671118 0.803566 0.810837 -0.591752 0.437993 -0.916489 0.347373 0.629478 -0.253847 0.83382 0.292316 -0.790728 0.263158 -0.525794 0.40369 0.610501 -0.696812 0.493758 -0.870495 0.0349665 0.370963 0.63835 0.660181 0.0183676 0.0451534 -0.164182 -0.304929 -0.354156 0.963322 0.869905 0.122194 0.0271752 0.0455704 -0.418087 0.466868 -0.411158 -0.310755 0.0666254 -0.748402 0.205602 -0.283891 0.37145 0.255666 0.830909 0.724059 -0.337329 0.456431 0.583409 0.745107 0.357507 -0.375224 0.00143889 -0.255352 -0.938194 -1.21352 0.614265 -0.260276 -0.662421 -0.830464 -0.353729 -0.79338 0.208946 0.639061 0.215562 0.769996 -0.00147023 0.693116 -0.621818 -1.00935 0.872311 0.546527 -0.267216 0.266844 -0.0316786 -0.243956 0.171169 0.64492 -0.809857 -0.0940443 0.509002 0.590803 0.51749 -0.370917 -0.440969 0.889456 -0.283563 -0.454504 -0.11687 0.205387 -0.31739 0.655421 0.559515 -0.864464 0.460519 -0.129734 0.975714 -0.536274 -0.587577 -0.737073 -0.575403 -0.637945 -1.10751 0.419702 0.86753 -0.148534 1.25143 0.0325207 -1.01016 -1.12242 1.00194 1.18922 0.990343 0.735129 0.0261206 -0.068829 0.91703 0.60748 0.279471 -0.2487 -0.286004 0.971373 -0.525034 1.18226 0.948113 0.880788 0.17392 1.09169 -0.441905 0.685324 -0.547427 -0.250195 -0.895806 -0.862164 -0.87811 0.69325 0.168284 -0.725851 0.0395229 0.460448 -0.839058 -0.451291 0.0841787 0.635313 0.983555 0.749549 -0.702811 0.362369 -0.176419 0.118741 0.945642 0.28285 -0.203517 1.05427 0.138682 -0.559984 0.593132 0.958513 -0.863842 0.75125 0.497158 -0.620736 -0.556902 0.628617 -0.318194 -0.351096 0.538996 0.677879 -0.340216 -0.731462 -0.0358497 -0.275812 -0.195806 -0.916818 -0.465096 -0.203671 0.459171 -0.49809 -1.02568 -0.726797 0.56247 -1.19261 0.449425 -0.757817 0.768373 -0.39063 -0.315279 0.370715 -0.356176 -0.0452925 0.0486663 -0.849798 0.379853 0.513762 0.653603 -1.07676 -0.963626 0.0702412 0.47978 -0.391314 0.317979 -0.55589 0.488754 -0.704753 -0.313801 0.987835 0.0402925 -0.653114 -0.294149 0.0380109 -0.334346 -0.684459 0.12804 -0.644649 -0.128491 0.23314 0.34097 0.81897 -0.418179 -1.00579 -0.189384 0.878401 -0.739993 -0.734588 0.433331 -1.09568 -0.974346 0.407131 -0.024604 0.728438 -0.85134 -0.421177 -0.76526 0.531769 -0.0603738 -0.327423 0.10239 0.37666 0.412959 -0.422467 0.260252 1.39577 -0.0714455 1.32325 -0.275507 0.528651 0.427843 0.809863 0.194825 0.962629 0.806394 0.935378 1.23282 1.47808 1.36345 0.479071 1.09309 -0.513501 -0.0498815 0.202138 -0.803617 -0.154633 0.525174 -0.812946 -0.39355 -0.720178 0.507961 1.03417 0.841668 -0.582927 0.832912 -0.446494 -0.616393 -0.611702 -0.537173 -0.633916 0.343793 0.34654 0.932391 -0.746165 -0.0088031 0.504265 0.889955 -0.278579 0.473164 0.972538 0.774074 0.350471 -0.73655 -0.563709 -0.70262 -0.600941 0.407939 0.88847 -0.156108 0.779152 1.01106 1.0076 0.507379 0.652049 -0.678877 0.302164 -0.920465 -0.48511 0.220151 -0.822833 -0.289607 -0.399155 0.588376 -0.314943 -0.147294 -0.276918 -0.747569 -0.174887 0.447529 0.708325 -0.182808 0.308925 -0.0452452 0.0568649 0.75815 0.23987 0.330541 -0.0186839 -0.0195031 -1.00138 -0.405304 -0.149519 0.936004 -0.919051 -0.36209 -0.586222 0.516222 -0.346061 -0.142256 -0.0427788 0.0604541 0.614422 0.585346 -0.316684 -0.464647 -0.308774 0.704924 0.124106 0.889717 0.470193 -0.123589 -0.309663 -0.288686 -1.05965 0.780348 -0.47636 0.216029 0.087562 0.434674 -0.777581 0.243634 -0.758493 0.1764 0.382963 -0.595295 0.731122 0.936515 0.654606 -1.09449 -0.851519 0.00629502 0.967946 -0.362769 -0.0466453 -0.424353 0.125923 0.593382 0.978202 1.19891 0.237612 0.309177 0.0459718 0.961676 1.02505 0.401525 1.26803 -0.105569 -0.519037 0.0360697 -0.602542 -0.226172 -0.714565 -0.416302 0.669382 0.585836 -0.260866 0.786643 0.462539 0.00981808 0.964907 0.712271 0.445078 0.0973328 0.893096 0.751004 -0.0238576 -0.762828 -0.167837 -0.403695 -1.32199 0.775949 0.521995 -0.374266 0.38675 0.440272 0.460773 0.191445 -1.05076 0.644888 -0.701115 -0.798598 -0.840248 -0.461421 -0.297496 1.03644 -0.699639 0.691909 0.537789 0.517892 -0.613987 0.294944 0.107375 0.855301 -0.613646 -0.170103 0.735166 -0.00155757 
0.245935 -0.22279 -0.590757 0.459109 -0.165702 -0.40101 -0.383492 -0.356016 0.947796 1.10934 0.822559 0.733941 0.686272 0.920757 0.76757 0.707943 -0.568897 -0.444332 0.635458 -0.671787 1.04288 0.0538539 0.987081 -0.495494 -0.629666 0.0133442 1.22501 0.178089 0.767879 0.812161 0.70679 -0.504133 -0.972168 -1.22119 -1.13284 -0.334014 -1.28571 -0.621057 0.230095 0.749043 -0.605469 -0.0877143 0.5419 1.257 -0.042123 0.610855 0.779929 0.191369 0.819753 0.259718 0.444001 0.572043 -0.789079 0.269862 0.736711 -0.753785 0.994503 0.671063 -0.345164 0.444631 0.17229 -0.414929 -0.771171 0.475155 -0.1128 -0.349099 -0.183281 0.124592 0.129744 1.08747 -0.0394966 0.45452 -0.0934575 -0.548024 0.254473 0.495239 0.621982 -0.120623 -0.500827 0.352994 -0.953418 0.586216 -0.41705 -1.14131 -0.352963 -0.790659 -0.975896 -0.445063 -1.24039 -0.415464 -1.0555 -0.0055806 0.170121 -0.737639 -0.455864 -1.16657 0.175319 0.528351 0.0063689 0.764433 -0.0811251 0.499777 -0.266552 -1.28917 -1.04779 -0.895509 0.461196 1.03888 0.431982 -0.567849 0.619083 0.315345 0.951696 -0.948357 0.407765 -0.029646 -0.315516 0.789848 0.803822 -0.436284 -0.208343 1.09719 0.944327 1.06205 -0.437422 -0.0655922 -0.714073 0.239635 -0.805121 0.326699 0.316681 0.539043 0.153284 -0.199039 0.904766 0.484835 -0.050463 0.295589 0.331773 0.994239 0.343902 -0.479064 0.214209 0.171174 -0.364344 -0.217429 -0.871025 0.0650132 -0.410599 1.00796 1.02866 0.250599 0.922119 0.826703 0.156845 -0.267115 -0.36905 0.24448 -0.168723 -0.82661 -1.25405 -0.863825 0.859819 -0.242874 -0.775853 0.19826 -0.732322 0.283103 -0.565019 0.448354 0.276969 0.900761 1.10501 -0.130515 0.0207534 -0.535483 0.310069 -0.0348861 0.455165 0.541149 -0.129862 0.259614 -0.51574 -0.61214 -0.322025 0.226487 -0.767065 -0.190789 -0.896456 0.581344 0.330168 -0.783193 -0.703231 0.415508 0.613609 -0.131858 -0.394576 0.834744 -0.777556 -0.0548831 0.142424 0.393898 -0.571482 -0.131519 0.739812 0.248434 0.186368 -0.0676515 -0.884549 -0.744682 -0.90257 -0.593486 0.210448 -0.608396 -0.355956 -1.25385 0.517299 -0.206329 -0.398237 0.673559 -0.645783 -1.03753 -1.14894 -0.675332 0.61936 0.690651 0.626705 0.7275 -0.163111 0.137996 -0.751469 -1.04813 -0.428907 -0.135683 0.1238 -0.467443 -0.402599 -0.166745 1.00779 -0.451224 0.00720046 -1.00479 0.253081 -0.384508 -0.189395 -0.806043 -0.520776 -0.502116 0.34037 0.50886 -0.466219 1.02847 0.844585 -0.142557 -0.212553 0.240558 -0.598945 -0.720149 0.218174 0.703143 0.681007 1.03733 1.23816 -0.0520721 0.0311486 0.39975 0.362819 0.192068 0.737345 -0.132683 0.637755 -0.288618 -0.116234 0.0626829 0.177905 0.409644 0.396161 1.09733 1.31603 -0.250565 0.639686 -0.094239 -0.117414 0.0334583 0.552623 0.295456 -1.3248 0.21152 -0.273687 -0.279978 0.164455 -0.599366 -0.927311 -0.0990313 -0.283902 0.142592 -0.853099 -0.706971 -0.649361 1.01126 0.207965 1.34359 -0.494405 0.774941 -0.00796115 0.574564 0.261408 1.01777 0.419942 0.344021 -0.611382 -0.42335 0.614137 -0.526013 0.283567 -0.259556 0.589014 0.478097 -0.528083 -0.0257006 -0.267088 0.815471 0.638545 0.104316 -0.367358 -0.306477 -0.707963 -0.375975 -0.225156 -0.527054 -0.814082 0.614105 -0.802497 -0.609928 0.309691 0.0322566 0.820188 -0.902187 -0.422079 -0.348583 0.138068 -0.253464 0.015408 -0.344522 0.267857 -0.691449 0.499023 -0.1711 -1.43232 -1.22486 0.365063 -1.01862 0.942253 0.296771 0.54479 -0.643499 0.301636 0.125927 -0.695559 -0.909239 0.6769 -0.273675 -0.956537 -0.868474 0.645186 0.883067 0.750739 0.361544 0.983205 -0.722978 -0.646677 0.45296 0.411778 0.70285 -0.664891 -0.0990893 -0.746251 -0.850445 -1.1841 -0.770531 -0.47215 0.899738 -0.214647 -0.69995 -0.0926747 -0.923989 -0.567002 -0.259674 0.533617 0.504217 0.630075 1.01757 1.29209 0.645585 1.03692 0.575117 0.119559 0.349987 -0.160359 -0.0505884 0.558143 0.295854 -0.608114 -0.207805 0.209784 0.202899 1.09499 0.564151 0.43316 1.22147 1.01285 0.567375 1.0371 -0.517171 0.133496 -0.617709 -1.04686 0.540101 0.456552 0.484534 -0.568666 -0.497544 -0.100701 -0.606431 0.986333 -0.00927739 -0.863126 0.0871203 -0.542138 0.425387 0.887425 0.836129 -0.616105 1.0212 -0.535133 0.0702936 -0.102974 -0.628893 1.20465 0.93213 1.08352 0.482339 0.127519 0.639386 0.651183 -0.228443 -0.678421 1.2121 -0.102906 0.821602 0.924416 0.730548 -0.579045 0.208865 -0.48939 -0.835646 -0.898424 -0.459987 -0.309664 -0.926925 0.365282 -0.743488 0.670121 0.511524 -0.804012 -1.24881 -0.923562 -0.475739 -1.16997 -1.04699 -0.944045 -1.35986 0.463424 0.205879 0.34592 0.117494 -1.11936 0.509724 0.00396073 -0.447224 0.895283 0.319279 -0.233513 1.09071 -1.17682 -0.421815 0.588521 -1.10831 0.247877 -0.417509 -0.675925 -0.0848991 0.143999 -0.705184 0.034967 0.490518 -0.670901 -0.183496 -0.886707 -0.735197 0.260306 -0.38943 -0.66721 0.106189 -0.81663 -1.02661 -0.543672 -0.648944 -0.710646 -0.503278 0.947186 1.01245 0.463537 -0.673386 0.772493 0.82004 0.302438 0.801677 -0.99749 -0.0700678 0.0696434 -0.147115 1.36089 1.03143 -0.0104018 -0.253061 0.382854 0.207524 0.769175 0.73329 0.675187 0.274375 -0.0621528 -0.389492 0.0515883 0.58971 -0.124259 0.907618 1.44422 -0.195306 1.19264 0.995881 -1.01798 0.0379826 -1.13113 -0.951111 0.264287 0.26109 -1.39015 0.234117 -0.975708 -0.774815 0.602563 -0.800984 -0.809172 -0.314616 0.070002 1.03941 0.84141 -0.149399 0.649137 0.3451 0.961259 1.1655 0.740906 -0.259304 0.199799 1.15241 1.02848 -0.105197 -0.348179 0.966527 -0.321602 0.255018 0.368598 0.0743671 0.778954 -0.274932 -0.503933 0.795663 1.03774 -0.144453 -0.707838 0.75418 0.0841035 -0.262177 -0.818491 -1.04086 -0.630135 0.77434 -0.399533 0.763528 0.0027107 -0.897161 0.376987 -0.967778 -0.578639 -0.77903 -1.09298 -0.669956 0.0620988 -0.512767 -0.946779 -1.41812 -1.33603 0.446511 -0.565329 0.223538 -0.238719 0.386191 0.556856 -0.366808 -1.32073 0.395904 -1.18062 -0.151541 -0.699342 -0.710734 0.168924 -0.0341092 -0.508187 -0.804031 0.460604 0.687737 -0.678615 -0.434824 -1.15595 0.140807 0.170936 -0.83164 -0.972079 -0.226887 0.0607239 -0.547662 -0.293213 0.173647 -0.314176 1.06819 0.357528 0.455767 0.0936934 -0.508111 0.51317 0.122123 -0.767345 0.733071 -0.61432 0.451508 0.0287772 1.40398 1.36759 0.20896 1.2069 0.271732 -0.349 -0.406727 0.879429 -0.20644 0.823883 0.206908 0.347381 1.30656 1.44758 -0.183806 -0.12699 0.375024 1.29552 0.15425 0.131798 -0.281823 -1.31667 0.442389 -0.0968452 1.01134 0.634883 0.23736 0.140121 0.45642 -1.0171 0.568731 -0.217821 -0.933348 -0.496368 0.322524 0.38377 0.532575 0.504014 0.0488011 0.992032 0.361651 1.15411 -0.0576901 0.27141 1.30644 0.223463 0.811953 0.0365432 -0.201067 -0.260132 0.877271 0.658464 0.13372 1.06979 0.286645 0.181626 0.146579 -0.248283 -0.189055 -0.408447 -0.0870304 -0.464844 0.828684 0.112834 0.307985 -0.161613 -0.740056 -0.5306 -0.769998 0.12694 -0.770677 0.37356 -0.00162201 -0.420092 -0.999527 -0.405914 0.511374 -1.43815 0.41891 -0.801785 -0.77448 0.148582 -1.24878 0.289503 -0.0886144 -0.315869 -0.664501 -0.309561 0.926031 0.649029 0.132971 -0.412765 -1.28475 -0.60434 0.503205 0.10908 0.477984 -0.912514 -1.05802 -0.978922 0.519353 -0.442665 0.299926 -0.712549 0.203459 -1.17268 0.389516 0.27511 -1.07905 0.51506 -0.871996 -0.32457 0.0950271 -0.329242 -0.101038 -0.232587 0.946957 0.756914 0.547324 0.522073 0.0480918 -0.892428 -0.787802 0.13166 -0.0625322 -0.549597 0.296509 0.297279 -0.0427374 0.172215 0.160234 1.28083 0.529709 -0.390494 -0.271634 -0.122945 -0.290661 1.15585 -0.814455 -0.123792 0.97791 -0.280406 0.822849 0.111003 0.0818218 -0.47548 0.549275 -0.246386 0.447671 -0.85913 -1.52348 -0.465129 -0.0630291 -0.73888 0.672635 0.696675 -0.7521 -1.15904 -0.754247 -0.45645 -0.17374 -0.0174647 -0.316716 -0.882445 0.623941 -0.0129382 -0.012208 1.22464 0.212406 0.0643917 -0.339866 -0.171673 0.509485 1.01402 0.529318 0.977471 0.881552 -0.154363 -0.603719 0.341526 0.597961 -0.453066 -0.909904 -0.529336 -0.336148 0.816824 -0.595608 0.127452 -1.02899 -0.436137 0.711618 -0.0546834 0.847489 -0.718133 0.0825486 0.351998 0.229515 -1.12829 0.358572 -0.756025 -0.247746 0.440565 -0.619139 -1.61253 0.0501969 -1.4621 0.184886 -0.271846 -0.576059 -1.43291 -0.87466 -0.925219 -0.982741 -0.841859 -0.436306 0.631236 -0.308552 0.582783 -0.370441 -0.520459 -1.11494 -1.11614 0.250452 -1.18098 -0.546021 -0.29318 0.573159 -0.977383 -0.0891612 0.319462 -0.756104 0.482471 -0.140667 0.229373 0.571844 -0.405531 0.543029 0.669914 -0.819187 -0.180288 0.954632 0.248312 0.816396 -0.26207 1.12694 0.0464307 -0.552027 -0.452315 -0.599536 -0.516764 -0.0497855 -0.326328 -0.127982 -0.0152056 0.202354 0.901665 1.12141 -0.110407 0.931751 -0.237833 1.03269 -0.539475 -0.497171 0.162535 0.942285 1.19476 0.754198 0.790065 1.15012 1.26499 -0.412771 0.937673 0.325042 1.16274 -0.789361 0.0154299 -0.601657 -0.889899 0.531906 -0.149748 -0.522389 -1.37352 0.460721 0.418346 -0.529704 -1.25307 -0.214749 -0.779069 -0.38755 -0.62703 -0.057002 -0.448802 -0.0954285 0.0582959 0.433428 -0.402942 0.0402871 0.172592 0.916625 -0.226022 0.221429 1.11689 -0.513506 1.01166 0.836697 -0.42907 -0.278754 -0.868063 -0.214911 1.08985 0.158504 0.632065 -0.80143 -0.373273 0.387737 0.240382 -0.159438 -0.984996 0.315707 0.345173 -0.0325926 -0.642853 -0.91453 0.720288 0.332628 0.528646 -0.83742 -0.772986 -0.50251 -1.40495 -0.471098 -0.0780151 0.212663 -0.422248 -0.251432 -0.219881 0.041388 -1.52334 -0.00816611 -1.05203 -1.57902 -0.949466 -1.41826 -0.483339 0.362789 0.522821 0.564996 -1.07619 0.6661 -0.144769 0.27558 -0.634301 0.170967 0.706021 -0.541409 -0.190906 0.533777 0.00333459 0.093944 -1.07608 -0.269049 -0.850669 0.642545 -0.280513 0.54465 0.332399 -0.567481 0.508965 0.567238 -0.510121 -0.497482 0.681913 0.0700209 -0.395684 1.20315 -0.97257 
0.748393 0.187541 -0.958498 0.514908 -0.830038 0.706583 -0.735531 0.616754 0.577497 -0.101532 -0.446545 0.0908051 0.829159 0.906815 0.268101 -0.20789 -0.635652 0.142819 0.751429 -0.901585 -0.486526 -0.767983 0.64593 -0.937439 -0.618478 0.795332 0.709499 0.274341 -0.85919 0.526598 0.294147 -1.07525 -0.230693 0.394497 0.487489 0.0437752 0.215341 0.85816 -0.267893 -0.139309 -0.191001 0.336003 -0.961992 -0.27633 0.35316 0.384327 0.597437 0.778916 -0.416396 0.398518 0.930016 0.114857 0.64515 0.574571 0.220397 -0.929158 0.381063 -0.0618475 0.355864 0.557172 -0.469343 -0.274189 0.557705 0.399908 -0.794221 0.13215 -0.466183 0.528036 0.103536 0.345957 -0.538172 -1.02107 -0.249924 -0.469071 -0.263379 -0.865406 -1.04792 -0.629764 -1.04692 -0.425331 0.809077 0.918274 0.764095 0.52896 0.571242 0.0658896 0.683911 0.0311681 -0.896917 0.144385 -0.307988 -0.310361 0.923641 -0.685533 -0.830524 -0.775674 0.530287 -0.226794 0.818754 -0.308754 -0.79019 -0.607351 -0.211824 0.0408126 -0.00522087 0.589122 0.230074 -0.0130146 -0.996827 0.237993 0.617384 0.828561 0.172179 0.389823 0.402769 -0.212816 -0.500347 0.134058 0.848751 -0.384704 -0.704832 -0.426743 0.376371 -0.711614 -0.0486603 0.599871 -0.433736 -0.466983 -0.553261 -0.537849 0.299725 -0.285033 -0.114212 -0.872395 0.778112 0.904557 0.738726 0.0555867 -0.0632901 0.783878 -0.685633 -0.449662 0.647307 0.51628 -0.98316 0.13542 -0.609214 -0.418099 -0.664835 -0.679017 0.290011 -0.301854 -0.0358946 -0.246661 0.080759 -0.994231 -0.635418 0.655686 -0.439765 -0.115256 -0.814358 -1.06848 0.66827 0.160028 -0.848972 0.535883 0.150825 -1.02773 -0.35924 -0.862349 0.844961 0.0415684 -0.203952 0.569479 -0.36123 -0.124186 -0.242929 0.0771395 0.508772 0.103708 0.413283 -0.198667 0.848907 -0.571978 0.567254 -0.0573895 -0.554629 -0.998017 -0.328732 0.0846888 -0.0340644 -0.0421279 0.105296 -0.294252 -0.775392 0.37781 -0.647145 0.452079 0.423338 0.0585365 0.655158 0.299638 -0.865561 -0.518784 -0.0917839 -0.187095 0.400225 0.707087 0.931822 -0.0509308 -0.117939 0.417197 0.824196 -0.190268 0.920233 0.462311 0.844546 -0.530217 0.565181 -0.429369 0.589062 -0.420279 0.614377 -0.189973 0.393099 0.911317 -0.743642 0.800609 0.450583 0.775039 -0.0444604 0.185423 0.156875 0.175137 0.719086 -0.897605 -0.975147 0.172822 0.858387 -1.03135 -0.875299 -0.253175 0.425982 -1.00988 0.596294 0.39244 0.483864 0.45984 0.884469 0.0961327 -0.892577 0.567175 0.751101 0.775106 -0.570773 0.192215 0.747722 -0.246382 0.0588674 0.264071 -0.416725 -0.912737 -0.535219 0.755706 0.28214 -0.774249 0.902963 0.339236 0.415331 0.758795 0.338849 0.57262 -0.415118 -0.144797 0.654845 -0.751447 -0.689686 0.217362 0.788069 -0.742083 -0.641324 -1.02949 0.910907 -0.79732 0.768681 -0.647804 0.415658 0.59196 0.176992 -0.432539 -0.0901222 0.835056 -0.291122 0.454248 0.676262 -0.932322 0.73407 0.627464 0.492235 0.236806 0.492609 -0.0933624 -0.11018 -0.865191 0.807772 -0.410967 -0.569232 -0.870941 0.820698 -0.770691 -0.562307 -0.75685 -0.770315 -0.625594 -0.523586 -0.918493 -0.194583 -1.03173 0.747128 -0.917976 -0.402512 -0.277102 -0.983241 0.435503 -0.705295 0.769862 0.574262 -0.906196 0.462824 0.0977226 0.364027 -0.0153921 -0.957583 -0.707018 0.161963 0.891303 -0.077047 0.630069 -0.910763 -0.184479 0.935131 -0.391986 0.134283 -0.764258 0.0698069 0.701345 -0.596918 0.954731 0.697164 -0.809126 -0.919664 -0.588913 0.0202653 -0.828806 0.921079 0.381634 -0.9724 0.542948 0.565524 0.571712 -0.237884 0.0130678 -0.389786 -0.155725 0.345464 0.821864 -0.218019 -0.713811 0.467225 -0.12215 0.132474 0.434527 0.530726 -0.680154 0.700733 -0.384798 -0.960484 -0.848709 -0.388401 0.827617 -0.580744 -0.253443 -0.713201 0.495626 -0.0164842 -0.731992 -0.0680264 0.0730717 0.904087 -0.436972 -0.34256 -0.311333 0.597856 0.308807 0.564287 -0.0269455 0.148936 -0.656924 0.260817 -0.374811 0.285333 -0.514484 -0.852821 -0.124529 -0.141334 0.926294 0.564963 -0.0344749 -0.868378 -0.741688 -0.127204 -0.389284 0.04646 0.194274 -0.829748 -0.906849 0.548111 0.194594 0.239381 0.513745 0.822059 -1.03829 -0.739436 0.482782 0.326928 0.873403 -0.462077 -0.438434 -0.659175 0.894709 0.299166 0.699661 -0.534568 0.51371 -0.354475 0.355751 0.474656 -0.757946 -0.61754 0.680147 -0.449134 0.300052 -0.62759 0.685119 -0.428707 -0.378773 0.867252 -0.797496 0.882206 0.170472 0.812689 0.832817 0.266239 -0.834001 0.399976 -0.327761 -0.877968 -1.01342 0.284324 -0.506454 0.938216 -0.376817 -0.765753 -0.560928 -0.826541 -0.0856005 0.861252 0.714989 0.229165 -0.680429 0.470667 0.851435 0.690445 0.912361 0.602867 -0.6598 -0.38435 0.523527 -0.403887 -0.419582 -0.19145 -0.491734 -0.480957 -0.827087 -0.244144 -1.03496 -0.100225 -0.0730771 -0.976457 -0.748913 0.478972 -0.998609 -0.0866623 0.792108 -0.482294 0.161646 -0.288633 -0.621028 -0.120379 -1.02861 -0.279207 -0.62623 0.853459 -0.531414 -0.656323 0.523063 -0.133567 0.0179038 0.132773 0.512197 0.642628 -1.00698 -0.91376 -0.80727 -0.825055 -0.122002 -0.796391 0.143359 0.843128 -0.730661 0.436356 0.379727 -0.68254 -0.601746 0.179579 -0.18367 0.542028 -1.08477 0.271868 -0.49586 -1.02402 -0.928055 -0.0460838 0.907054 -0.385149 0.368167 0.488623 0.562378 -0.537354 -0.323408 0.126177 -0.857177 -0.263507 0.278075 -0.580241 0.0205224 -0.755039 -0.298893 -0.75597 -0.828825 0.0462566 0.762829 0.627598 0.432276 -0.740615 -0.0915553 -0.608073 0.895847 -0.0657848 0.73642 -0.516017 -0.0266646 0.875342 0.465823 -0.0879369 -0.486864 -0.108455 -0.531047 -0.881305 0.398139 0.226164 0.331739 0.617921 -0.958351 -0.30188 -0.877152 0.129411 0.0100798 -0.0767885 0.504186 0.317496 -0.936067 0.350698 0.0237387 0.578147 0.658358 -1.01604 -0.999312 0.61099 -0.0436462 0.77868 -0.869023 -1.03451 0.687561 0.662914 -0.0548508 -0.728355 -0.368392 0.491273 -0.534807 -0.900705 -0.215053 0.863286 0.797704 -0.088152 -0.353386 -0.992819 -0.877994 0.738866 -0.0190963 0.731745 0.156393 0.141721 0.127508 -0.77045 -0.263566 -0.173141 -0.75461 -0.171156 -0.49089 0.279516 -0.333097 -0.281431 0.318947 -0.587066 -0.61466 -0.732594 -0.318868 0.0326813 0.780481 0.182372 0.185602 -0.383487 0.118112 0.0606081 0.607718 0.801461 0.077203 0.75371 0.592201 -0.876297 0.518923 -0.243794 0.29941 -0.309951 0.0539081 -0.892735 0.595143 0.386659 -0.00675301 -0.852017 -0.292496 0.684569 -0.15629 -0.976268 -0.901171 0.297271 -0.645376 -0.147541 -0.587243 -0.792111 -0.896777 0.668853 -0.100981 0.265505 -0.207909 -0.439873 0.118412 0.906792 -0.645804 -0.215871 -0.901437 -1.04542 0.639194 0.487765 -0.278539 -0.226814 0.672268 -0.614209 -0.762907 -0.254879 -0.396482 0.0378063 -0.472639 0.584392 0.130635 -0.285219 -0.0459249 0.565891 0.63224 0.429145 0.800026 0.762536 0.126731 -0.24045 0.0974446 -1.04078 0.363025 -0.706645 -1.04674 0.795991 0.151295 -0.859794 0.83529 -0.142639 0.692068 -0.345151 0.76092 0.503508 0.135465 -0.921846 -0.677712 0.816562 0.160139 -0.10282 0.431593 -0.652199 0.650415 -0.573851 0.948083 0.314687 0.89048 0.815878 0.144763 0.0842407 -0.350573 -0.683066 0.118343 -0.922364 -0.326192 0.140972 -1.04342 0.907049 0.354927 0.866679 -0.164933 0.123362 -0.431695 -0.270832 -0.247889 0.809295 -0.156654 0.123473 0.661933 -0.956595 -0.957897 0.169635 -0.541184 0.767733 0.650811 -0.517458 0.16322 0.614013 -0.686817 -0.688113 -0.298088 -0.0175875 -0.348769 0.854102 0.108893 0.372987 0.0512647 0.136787 0.361399 -0.545104 0.0478385 -0.742394 0.65977 0.695387 0.00152297 -0.579772 0.548806 0.889075 0.585309 0.247485 -1.00827 0.697387 -0.523335 -0.499446 0.505302 -0.843155 -0.0301324 -0.336404 0.771341 0.347116 0.0346717 -0.467231 -0.596879 0.747205 -0.574302 0.578972 0.187648 0.537339 -0.214992 -0.388833 -0.961017 0.854109 -0.11052 0.746702 0.617136 -1.041 -0.745991 0.221072 -1.08254 0.911745 -0.447734 -1.01964 0.685281 0.104679 -0.445581 0.28651 0.361429 0.639961 -0.980685 0.19887 0.0715664 0.129347 0.812032 0.536193 -0.0957547 -0.719044 0.145768 -0.84102 0.891753 -1.02937 -0.188723 -0.985965 0.913187 0.788052 0.858606 0.609485 0.83485 -0.823746 -0.110929 0.842931 -0.78886 0.571653 0.916959 -1.02811 -0.254966 -0.45669 0.29883 -0.850059 -0.772439 0.371289 0.404383 0.338538 -0.46581 0.247581 -0.0903794 0.506249 0.596827 -0.876753 0.742154 0.565605 -0.826115 -0.377898 0.646114 -0.842403 -0.510614 0.583555 0.840725 -0.602322 0.858219 -0.163243 -0.682935 -0.830518 -0.500503 -0.691901 -0.819197 0.285344 -0.128214 0.519141 0.460846 0.182339 -0.0448273 -0.058138 -0.42662 0.56129 -0.732642 0.560163 0.0859179 0.871742 0.688654 -0.155879 0.456941 0.892887 0.512843 0.149952 -0.893608 -0.933044 -0.199316 -1.00895 -0.493785 -0.303674 -0.120547 -0.12804 -0.116313 0.389986 0.246216 0.11257 -0.278206 -0.859515 -0.321241 -0.75234 0.384616 0.687446 0.231041 -1.00428 0.23901 0.498556 0.559092 -0.606475 0.42409 0.305663 0.303961 -0.068148 0.240255 -0.118042 -0.845702 0.406659 0.0179451 0.0305036 0.44577 0.554191 0.753369 -0.611611 -0.510184 -0.297306 0.840581 0.76654 0.882948 -0.364067 -0.993274 -0.350775 -0.0377721 0.458221 -0.596581 -0.719326 0.542971 0.74389 0.843066 0.164001 -0.790953 0.337483 -0.457698 0.572163 -0.694863 0.820743 -0.514196 -0.47184 0.297841 0.548518 0.599848 -0.191221 0.173826 0.418388 0.276606 0.745111 -0.791874 0.194404 0.586235 -0.806773 -1.05143 0.704619 -0.0813292 -0.0221795 0.220862 0.377186 0.293137 -0.197091 0.161804 0.186157 -0.981463 0.409936 -0.445747 -0.410889 0.0149673 -0.073611 -0.522593 0.572678 0.536124 0.85695 0.201383 0.20506 -0.250383 -0.53984 -0.28242 -0.879048 -0.701328 0.016388 0.415999 -1.01246 0.284797 0.445405 0.768478 -0.725967 -0.513773 0.0502362 0.713436 0.840911 0.909161 -0.0755393 0.0575311 -1.0283 -0.615833 0.673552 -0.383477 0.481045 -0.318015 0.134805 0.0585703 -0.781754 0.0305306 -0.707493 0.447233 0.804174 -0.20944 -0.769553 -0.998289 0.169087 0.287461 0.451688 0.193976 -0.566791 
-0.00965828 0.0497841 -0.0149428 0.512292 -0.871548 -0.276029 0.379175 -0.9214 0.692431 -0.511451 -0.898875 -0.890684 -0.80951 -0.270912 0.589583 -0.127686 0.895294 -0.313766 0.123734 -0.0222655 0.0397753 -0.347716 -0.167016 0.87818 -0.0836757 -0.131781 0.0840478 -0.743063 -0.635447 -0.694631 -0.0409669 0.403624 0.421139 -1.0403 -0.0684846 0.574374 -0.292651 -0.665432 0.671847 -0.581028 -0.160788 0.781296 -0.447022 0.0652738 -0.450458 -0.814549 -1.02072 -0.50299 -0.0895606 0.147101 0.514935 -1.00104 0.848418 -0.593735 0.93486 -0.181939 0.344123 0.090003 0.146004 0.804079 0.504421 -0.830772 0.269424 -0.0705695 -0.872738 -0.799009 -0.448327 -0.0683271 -0.373082 -0.732888 0.352999 0.467042 -0.900103 0.946807 -0.431759 -0.323591 -0.840011 -0.43092 0.2452 0.145184 0.791856 -0.215384 0.16528 0.656946 0.214766 0.128736 -0.47782 -0.398535 -0.743714 0.693239 -0.572667 0.786979 0.887735 0.719946 -0.211828 -0.918504 0.987619 0.410687 0.0316528 -0.382093 0.725631 -0.564576 -0.854004 0.881401 -0.567717 -0.234602 -0.387645 -0.354973 0.382175 0.856852 0.77336 0.158094 -0.371902 -0.0500288 -0.157095 0.864765 -0.897425 0.308725 -0.589636 -0.690846 0.0235215 -0.140058 -0.882061 -0.0982384 -0.433117 -0.104817 -0.0290291 -0.460515 -0.71621 0.98225 0.1488 -0.992617 -0.603128 0.273606 0.866443 -0.184288 -0.979353 -0.538629 0.451852 0.378679 -0.707187 0.204756 -0.468395 -0.0836809 -0.853231 0.356096 -0.248343 -0.766755 -0.303332 0.200458 -0.452455 0.701959 -0.951499 -0.339161 -0.403388 -0.394147 0.54171 0.540046 0.169666 0.870355 0.588689 -0.6666 0.89177 -0.991324 0.629158 0.782045 -0.156785 0.66898 -0.741076 -0.697128 0.0718209 -0.413384 0.546741 0.642376 0.537807 0.736604 0.03558 -0.665159 -0.990557 0.776875 0.584129 -0.385934 0.530491 0.681796 0.341532 -0.798904 -0.64032 -0.0254381 0.850458 0.592591 -0.0932944 0.49382 0.925241 -0.20062 0.502288 0.662489 -0.314509 -0.553406 0.325359 -0.0658895 -0.259016 -0.561458 0.554301 -0.685513 -0.89074 0.11723 -0.870848 0.222055 0.52939 -0.838769 0.0222193 0.133232 -0.198985 -0.428301 -0.156137 -0.833123 -0.193882 0.231214 0.167749 -0.316609 -0.14986 -0.901914 -0.79803 -0.154675 -0.0487701 0.754483 -0.506121 0.634403 -0.797434 0.885176 -0.370845 0.00461462 -0.622152 -0.75665 0.375842 -0.460354 0.409972 0.492102 0.740502 -0.082162 0.64236 -0.233884 -0.942927 -0.554549 0.353332 -0.143355 -0.412591 -0.868733 -0.868889 0.782532 -0.160296 -0.0250913 0.871978 0.0358714 0.813544 -0.176618 -0.217142 -0.693647 -0.540488 -0.00918704 -0.815978 0.0821242 0.981849 -0.451612 0.307439 0.339132 0.071265 -0.30547 -0.183454 -0.204908 0.596127 -0.5604 0.549467 0.647994 -0.127377 -0.093567 -0.444038 0.504826 0.0470855 -0.327237 0.273623 0.884605 0.645361 0.140505 -0.0489767 0.474241 -1.01563 0.734997 0.80071 -0.537482 -0.255023 -0.992191 0.566413 -0.249702 -0.424937 -0.109685 -0.89702 0.659996 0.605078 -0.047567 -0.49972 0.249455 0.438102 -0.899243 -0.0580912 -0.63657 0.0467671 0.542495 0.913132 -0.857198 -0.739376 0.231013 -0.911042 0.970673 -0.565633 0.0820487 0.502045 -0.518852 -0.124834 0.358449 -0.00587481 0.662081 0.408284 -0.384172 -0.528459 -0.956207 0.505811 -0.427267 0.69467 0.15142 0.556937 -0.777048 -0.570485 0.0185801 -0.600021 0.448064 0.459439 0.468208 0.0113213 0.389945 0.629632 0.286746 -0.347716 0.749703 0.293535 0.110174 -0.144507 -0.177623 0.620327 0.75667 -0.792931 -0.369165 0.429904 0.622043 0.236027 0.905119 0.645305 -0.209653 -0.47914 0.405321 0.994253 -0.86866 0.680809 -0.527812 0.19943 -0.926597 0.901627 -0.361277 0.524997 -0.0861149 -0.94589 0.189692 -0.75495 -0.329917 -0.0835757 0.514179 0.819948 0.804473 -0.630493 0.433299 0.554855 -0.431538 -0.940228 -0.0243245 -0.818322 0.294505 -0.110029 0.852696 -0.909584 0.4187 0.261102 -0.911682 0.555794 -0.0460902 -0.433519 -0.246576 0.0222276 -0.530725 0.393993 -0.450994 0.396315 0.446698 0.729314 0.645092 -0.838581 -0.310393 0.165891 -1.03519 -0.518825 0.529496 0.399106 -0.91751 -0.868734 0.477894 0.0393499 -0.684372 -0.205964 0.952549 -0.807829 -0.0905356 0.395194 0.478914 0.0197607 -0.0321813 -0.558042 0.602274 0.742467 0.493892 -0.885903 0.181822 -0.911356 0.558734 -0.326511 0.87115 0.2461 -0.126685 -0.395048 -0.540115 -0.113668 0.128759 -0.952864 -0.651022 0.224037 -0.780352 0.88379 -0.675563 -0.408718 -0.272561 -0.668726 -0.164211 0.69156 0.723164 -0.692352 -0.290372 -0.258833 -0.201193 -0.649629 -0.477172 -0.675642 -0.507358 0.736878 -0.559812 -0.869347 -0.519121 -0.619738 0.387537 0.373279 0.0125301 0.873799 -0.71647 -0.842091 0.939381 -0.344577 0.404279 -0.820313 -0.440955 0.75158 -0.209022 0.297368 -0.919624 0.625847 -0.00656378 0.858628 0.990614 0.73329 -0.353751 -0.16627 -0.857098 0.212697 0.20147 -0.31472 -0.00464248 0.693603 -0.187645 0.469573 -0.939564 -0.807112 -0.154789 0.0862114 -0.914534 0.16672 0.219439 -0.998249 0.787233 -0.34525 -0.784853 -0.621248 -0.593693 0.00156124 0.680574 -0.506333 -0.376623 -0.328295 -0.648808 -0.374033 -0.566506 0.00580776 0.470013 -0.403816 -0.768441 -0.319706 0.282836 0.240588 -0.62227 -0.89461 -0.276825 -0.546097 -0.692525 0.578218 0.537933 -0.618462 -0.276533 -0.223434 -0.584729 -0.480309 0.418699 -0.38191 -0.105407 0.858726 0.653612 -0.403328 -0.660769 -0.723253 0.289603 -0.285754 -0.0725065 0.748549 0.746679 -0.579103 -0.637121 -0.995208 0.126168 0.66776 0.263318 0.527078 0.802879 -0.982809 -0.985479 -0.857167 0.630471 0.585565 -0.434294 -0.601325 -0.594793 0.0236805 -0.0352802 0.869858 0.686144 0.918936 0.759549 0.369021 -0.430743 -0.848276 0.659101 0.86791 -0.13309 -0.315744 0.717116 -0.281725 0.109685 -0.920761 -0.277957 -0.713209 0.796732 -0.978279 0.845052 0.627001 -0.927635 0.892878 0.796401 0.778167 0.548371 -0.566603 -0.812198 0.97153 0.472867 0.17311 0.860586 0.188013 0.119211 0.65223 -0.418259 0.713358 0.827892 -0.691752 0.65199 -0.242843 -0.00553264 0.354019 0.466394 -0.864012 0.483756 -0.765313 -0.517193 0.337675 -0.686509 -0.626935 0.0100717 -0.563571 -0.694207 -0.146924 -0.791525 0.850153 0.281284 -0.607056 0.831013 -0.224865 0.592889 0.732652 0.925983 -0.311514 0.354059 -0.452788 -0.56613 0.212546 -0.144692 -0.919308 0.974853 0.84421 0.447528 0.460505 -0.983603 -0.0373258 0.71824 -0.498991 -0.68996 -0.94733 -0.110446 0.331206 -0.506555 0.214267 -0.807375 -0.288599 0.0703417 0.473294 0.105884 -0.0906586 -0.758169 -0.313826 -0.355641 -0.782786 0.422739 -0.992237 -0.194106 0.892456 0.264581 0.641869 0.957089 0.216979 0.491823 0.410045 -0.307831 0.522135 -0.60845 -0.569801 -0.945963 -0.270791 -0.494018 -0.031872 -0.914703 0.0213148 -0.796258 -0.699287 0.764506 0.316787 0.821425 -0.0855245 -0.722957 -0.885237 0.654869 -0.0365921 -0.624967 0.117243 0.0139606 0.122411 -0.0476858 -0.765543 -0.208865 -0.0147204 0.547395 -0.613997 -0.594755 -0.745793 0.915564 -0.101231 -0.218033 -0.930861 0.62805 0.281207 0.0319959 0.76238 -0.649855 0.276643 -0.905381 -0.857577 -0.38305 0.945138 0.0802048 -0.030037 -0.864829 -0.190316 0.947294 -0.473007 0.952756 -0.00767945 0.731657 -0.0255405 0.296452 -0.402787 0.988416 -0.127371 0.00626273 -0.536158 0.191138 -0.0220935 0.362373 0.955128 0.0352829 0.0225835 0.283303 -0.892091 -0.156287 0.6913 0.437791 -0.0215197 0.872036 -0.897226 -0.0269269 0.00112645 0.0700792 0.0973008 0.807123 0.0171342 0.632898 0.776959 -0.970519 0.405914 -0.275433 0.301175 0.963677 -0.259536 -0.794508 0.00062844 0.203493 0.394622 0.979346 -0.437766 0.36465 0.0361662 0.616494 -0.32901 0.17 -0.546565 -0.629191 -0.380779 0.461596 -0.736329 -0.255664 -0.547545 0.280559 0.826554 0.568596 0.102351 -0.138224 0.208543 -0.135682 -0.122276 -0.395538 0.621945 -0.788832 -0.374973 -0.596103 -0.556078 0.612723 0.576572 0.819641 0.589693 -0.842866 0.196828 -0.360386 0.781978 0.881662 0.828879 -0.722712 -0.715573 -0.524574 0.75838 -0.43207 0.239793 -0.769708 0.869007 0.09953 0.831261 0.00753744 -1.00612 0.0862125 0.918927 -0.0860617 0.732742 0.58419 0.168718 -0.646224 -1.06882 0.569866 -1.06685 0.540224 0.470955 0.612054 0.791568 -0.331578 -0.744063 0.587677 -0.387341 -0.810015 0.965453 -0.00890663 -0.347371 0.714431 0.556958 0.939526 -1.0149 0.510611 0.115979 0.835676 -0.509661 0.0801467 -0.00210705 -0.514422 -0.931406 -0.255531 -0.901414 0.264408 0.13048 -0.902193 -0.0930031 0.137886 0.72389 -0.584367 -0.222539 0.537286 0.145363 0.0984619 0.187394 0.818024 0.275414 0.136936 -0.212308 -1.02375 -0.107672 -0.597739 0.97296 -0.0704607 0.905411 0.0796388 -0.176643 -0.548589 -0.781962 0.824061 -0.0704629 -0.71387 -0.428193 0.0348395 0.571418 0.72691 0.175294 -0.553438 -0.159926 -0.148815 -0.135784 0.633579 -0.574093 -0.957557 -0.240992 0.612821 0.851203 -0.951616 -0.223985 -0.327337 -0.95276 0.691059 0.074867 -0.975964 -0.360951 0.0063737 0.132449 0.477632 0.471712 0.360876 0.311342 -0.581838 0.661902 0.904617 0.456984 0.220614 0.617999 -0.381993 0.754286 -0.45893 0.527577 -0.371862 -0.83446 0.935884 -0.362475 -0.0950137 0.547238 -0.49029 -0.0324899 -0.666375 0.195976 0.0338243 -0.950783 -0.690354 0.0962339 -0.287748 0.335157 -0.7518 -0.788043 -0.172004 0.633498 0.553518 0.273717 0.323455 0.496731 -0.217013 -0.40303 0.155662 0.443239 -0.656215 0.683607 -0.031796 -0.0793754 0.818631 -0.12455 0.600488 -0.239041 -0.533785 -0.79492 0.7838 -0.140946 0.414763 -0.120205 -0.0372254 0.772391 -0.929912 0.715859 0.148336 -0.691314 -1.03408 -0.9875 -0.974452 0.60269 0.371199 0.388108 0.126826 -0.819589 -0.989338 -0.692273 0.653064 -0.61447 -0.973869 -0.360099 0.374314 0.917756 0.601323 0.0623965 -0.234081 -0.866159 0.283684 -0.387294 0.0602552 -0.238607 0.550011 -0.943276 -0.431372 0.601036 0.820908 0.76047 0.972697 0.849301 0.832094 -1.00491 0.447078 0.208024 0.390838 -0.416016 0.394146 0.393646 -0.112455 0.0348574 0.782888 -0.0638282 0.700253 0.197105 -0.178315 0.257093 -0.80152 0.576458 0.400673 0.513657 -0.783296 -0.521245 -0.727005 0.767532 -0.436551 -0.255028 
0.423777 -0.564105 -0.311807 0.409393 -0.702164 -0.46013 0.42309 0.765151 0.766144 -0.172364 -0.637161 0.177548 -0.752453 0.274118 -0.764503 -0.9518 -0.790142 0.934221 0.228982 0.0653963 0.229874 0.470082 -0.315523 -0.331389 0.00478674 -0.0767005 0.175009 0.309471 -0.281093 0.763682 -0.79252 -0.857088 -0.800192 -0.104224 0.552296 -0.502366 0.435637 -0.0246243 -0.737352 0.20165 0.802882 -0.374515 -0.620803 -0.949446 0.899728 -0.385052 -0.901116 -0.890285 -0.45083 0.327868 0.175112 0.779174 -0.201921 0.859719 -0.552083 0.802869 -0.216979 0.622926 0.11234 0.502056 0.383179 0.319823 0.644843 0.58642 -0.78427 0.197269 -0.915814 0.65137 -0.827353 -0.653036 -0.146849 0.97566 -0.0274207 0.232479 -0.973783 -0.127691 0.84743 -0.874897 -0.0179738 -0.60327 0.453101 -0.84273 -0.823965 -0.748819 -0.983139 -0.376178 -0.946079 -0.200119 -0.753252 0.166263 -0.698059 0.633489 -0.513788 0.94691 0.220034 -0.298054 0.14418 0.300789 -0.650119 0.313395 0.647753 0.203032 0.289056 -0.379684 -0.564506 0.315401 0.492772 -0.716929 0.440503 -0.525201 -0.320199 -0.106396 -0.367932 -0.144165 0.144786 -0.350942 0.479787 0.198837 0.44907 0.726665 -0.635946 0.749964 0.359107 -0.149604 0.697004 -0.420728 0.552469 -0.158689 0.888126 0.910415 -0.8371 0.539553 0.117119 0.4555 -0.836552 0.556193 -0.225675 0.659644 0.842688 -0.781739 -0.862125 -0.474078 0.115169 -0.226758 0.385058 -0.736616 0.425734 -0.131725 0.465654 -0.121637 -0.401499 0.834442 -0.367066 0.962214 -0.310555 -0.665455 -0.454035 -0.75361 0.180332 -0.56568 -0.842964 0.343335 0.973864 0.274147 -0.201174 -0.862698 -0.169799 0.573021 0.796815 -0.327112 0.79128 0.934815 0.198935 -0.0932975 -0.291813 -0.415879 0.170087 -0.866079 0.452398 -0.36413 0.0124136 -0.948972 -0.529559 0.645349 -0.986757 0.159887 0.979893 -0.440662 0.406283 0.16023 -0.00646903 0.563321 -0.496303 -0.0324738 -0.162402 0.302526 0.10483 0.667933 -0.12432 -0.0982217 -0.659048 -0.33291 -0.163406 0.539886 0.573793 0.544783 -0.87599 -0.25599 0.678835 0.576538 0.380011 -0.30875 0.627438 0.850325 -0.663527 0.640683 0.0102125 -0.68363 -0.799977 -0.583373 0.476728 0.19368 0.980074 0.980426 -0.83879 -0.182329 0.28295 0.266038 -0.514397 -0.841371 -0.835616 -0.176897 -0.177734 0.0011044 -0.636863 -0.603795 -0.454111 -0.512853 0.140215 -0.775275 -0.936315 -0.479773 -0.0840249 0.691253 -0.629319 0.252578 0.332066 0.381025 0.572427 0.535568 0.800036 0.0481892 -0.271715 0.78024 0.0287428 -0.110378 -0.400908 -0.687126 -0.843009 0.084958 -0.528234 -0.675081 0.911641 0.29761 0.329448 -0.721798 0.697239 0.878769 -0.231218 -0.159112 -0.893201 -0.164235 0.364415 0.0262012 -0.469549 0.738527 -0.717788 0.866076 0.123112 0.854849 0.401725 -0.0756765 -0.0957864 -0.868814 -0.294389 0.934003 0.0218516 0.304953 -0.75287 0.178946 -0.610097 -0.281114 0.503855 -0.698466 -0.983514 -0.166698 -0.420265 0.713724 -0.287931 0.348513 -0.445392 -0.181007 -0.815592 0.919152 0.845196 -0.28514 0.65768 -0.872463 -0.418935 -0.219079 0.982515 0.982791 0.705245 -0.113271 -0.886023 -0.589014 -0.179264 0.135833 0.715813 0.0678686 -0.685089 -0.894153 0.786886 0.818768 -0.592617 0.803375 -0.347928 -0.0128802 0.517103 0.364146 -0.664364 -0.928289 -0.816861 -0.479954 0.990865 -0.971535 0.235037 0.648676 -0.843867 0.816103 -0.570531 -0.86148 0.798768 -0.865283 0.0252504 0.912749 -0.454294 0.846119 0.0487075 -0.738355 -0.0858867 0.363622 -0.632653 -0.299145 0.182369 -0.225126 -0.495497 0.834589 0.762125 -0.981826 0.195301 -0.905671 -0.910115 0.37844 -0.385626 -0.919249 0.406905 0.849412 0.729426 0.563039 0.665516 -0.840975 0.701689 0.467841 -0.702701 -0.269502 0.380641 -0.156944 -0.424425 -0.571615 0.103735 0.489819 0.792134 0.471358 -0.808001 -0.0243012 -0.752437 -0.303384 -0.189576 -0.990328 -0.281757 -0.990842 -0.892576 -0.188448 0.391024 -0.274768 -0.104264 -0.198639 -0.421925 -0.37141 -0.632173 -0.752981 -0.208953 -0.927052 0.714864 0.0883504 -0.19655 0.0955844 0.931487 0.380199 0.525144 0.0363988 -0.128807 0.318451 -0.491071 0.0633142 -0.705722 -0.243534 0.759943 0.104693 -0.233872 -0.521823 0.113842 -0.126449 0.289727 -0.495138 0.598779 -0.81454 0.30622 -0.823148 -0.185949 0.674047 -0.576257 0.604971 0.746867 -0.861393 -0.30655 -0.449553 0.234321 -0.375062 0.930646 -0.240534 0.661337 -0.198161 -0.922209 -0.82986 0.865028 -0.627929 -0.0732607 0.625104 0.476897 0.692872 -0.896715 -0.409258 -0.433577 0.393012 0.0954621 -0.83494 0.578475 -0.598172 -0.657941 -0.607472 -0.924122 -0.234068 0.997629 0.822876 -0.09533 -0.30892 -0.626805 -0.861137 0.315893 -0.696156 -0.10167 -0.0227674 0.105687 -0.0237458 0.147501 -0.0291572 0.348455 -0.925756 -0.404049 -0.174649 0.76724 -0.300768 0.416224 -0.666336 -0.907628 -0.491602 -0.504563 0.667415 -0.0897745 -0.159073 -0.936625 -0.0104641 0.60686 -0.938996 -0.187588 -0.48847 -0.247914 0.185737 -0.349477 -0.931896 0.489707 0.548979 0.0453889 -0.404554 -0.475808 -0.808073 0.565326 0.872777 -0.733702 -0.838597 -0.300691 -0.96541 -0.138059 -0.884354 -0.631634 -0.0456812 -0.372503 -0.132744 -0.374841 0.541148 0.708178 -0.311465 -0.469314 0.315037 -0.250461 0.343094 0.826563 0.501621 -0.471169 -0.522914 0.569729 -0.981457 -0.973931 -0.384801 -0.385931 -0.448564 -0.191699 -0.819429 -0.574612 0.0757727 -0.656853 0.12482 0.110487 0.205085 0.240477 0.478866 -0.840605 0.867966 -0.653887 -0.215448 0.409112 -0.945713 0.473084 0.939795 0.369322 -0.77738 0.28289 0.195885 0.724113 0.811593 0.672843 0.293844 0.826834 0.69561 0.902993 -0.561843 -0.752954 -0.285958 -0.378526 -0.327566 0.789689 -0.0355067 0.80056 -0.096391 -0.826855 0.0411707 -0.617392 -0.667455 -0.0908587 -0.271274 0.1171 -0.681745 -0.217131 -0.40996 -0.74195 -0.847663 -0.187194 0.540942 0.348225 -0.462951 0.352666 0.0211982 0.831023 0.182933 -0.279886 0.740069 0.627141 -0.0294084 -0.542457 -0.747948 0.646464 -0.749204 0.220106 0.447153 0.154533 0.393255 -0.511675 0.537143 0.725923 0.397464 -0.734004 -0.156978 0.715845 0.0490092 0.433205 0.973895 0.201347 -0.753989 0.514837 -0.450428 -0.21694 -0.132498 0.570771 -0.385916 -0.949564 -0.708987 -0.645719 0.677626 0.261656 -0.188127 0.929806 -0.091753 0.0627966 0.150043 -0.644471 -0.783633 -0.457669 -0.157112 0.75469 -0.730694 -0.758341 -0.979202 0.112439 0.95751 0.0698287 -0.454333 0.931397 -0.728831 -0.208328 0.446235 -0.179258 0.574733 -0.686263 -0.608491 -0.811187 -0.635831 -0.317477 -0.456907 -0.958124 0.944259 0.355047 0.971763 -0.147413 -0.582075 0.121887 0.208198 -0.364533 0.665391 -0.947741 -0.609721 0.934822 -0.706086 -0.588911 0.0472744 -0.748586 0.48091 0.592933 -0.817191 0.752077 -0.615398 0.62904 -0.427184 0.959332 0.939342 -0.0391065 -0.851855 -0.693057 0.64685 -0.308761 -0.654611 0.587678 -0.957144 -0.685595 -0.562481 -0.539219 0.439039 0.648463 0.0962475 0.104432 0.700724 0.489961 0.042689 0.998072 0.901053 -0.910034 -0.750507 0.38197 0.682905 -0.567696 0.134049 -0.932637 -0.938803 0.706865 -0.973159 -0.99588 -0.328807 -0.825011 -0.688934 -0.681954 -0.13377 -0.340112 0.909157 -0.0876091 -0.0196553 -0.647272 0.376608 -0.57718 -0.995376 -0.523712 0.530685 0.708783 0.966252 -0.426623 0.706859 0.86731 -0.336655 0.956478 0.249275 -0.653622 -0.611221 -0.616549 -0.586115 -0.549876 -0.909684 -0.559273 -0.545756 -0.238491 -0.384285 -0.234691 0.0795547 0.481946 0.425198 -0.0112873 -0.605534 -0.594328 0.341489 0.771121 -0.17146 0.346243 -0.752461 -0.640645 0.0551551 -0.786079 -0.0682336 -0.238952 -0.919735 0.596314 -0.281402 0.330848 0.942783 0.107467 0.714283 -0.643332 0.557592 0.804592 -0.202613 -0.988171 -0.433897 0.413104 -0.222862 0.645658 -0.104954 -0.797668 -0.365633 0.289512 -0.391995 0.975958 0.060736 0.436647 0.322281 0.308357 0.796083 -0.622482 0.522359 -0.270974 0.139739 0.603797 -0.67456 0.85844 -0.0654885 -0.731893 -0.0342095 -0.351191 -0.375212 -0.476604 -0.54658 0.422195 -0.464757 0.0195397 -0.164683 0.3124 -0.338087 0.727083 0.511451 0.299734 0.0200491 -0.880521 0.272261 -0.922645 0.556126 -0.408203 0.382965 0.35221 -0.0279391 -0.0919297 -0.918764 -0.888197 -0.48813 -0.58989 0.973677 0.449945 -0.321652 -0.0604014 -0.901111 0.303271 0.463129 -0.447561 -0.274404 0.998502 0.572108 0.561041 0.31103 -0.762544 0.291558 -0.174085 0.537192 -0.68839 -0.051173 -0.187113 -0.607602 -0.49174 0.410737 0.781416 0.863903 -0.613767 -0.30708 0.948571 -0.498531 0.208223 -0.641317 -0.524852 -0.341825 0.0371635 0.414877 -0.242812 -0.659569 -0.121995 0.309624 0.066024 -0.123495 -0.118268 -0.372935 -0.812464 0.119188 0.918624 0.0134499 -0.34362 -0.769767 0.962278 0.469268 -0.377369 -0.529334 -0.119867 -0.595905 -0.667289 0.264509 0.095238 -0.716683 0.768013 -0.694502 -0.357869 -0.756709 -0.0362011 0.679294 0.658148 0.720965 -0.980191 -0.463756 0.0306789 0.0858168 0.41275 0.912413 0.712876 0.600278 0.0315938 0.631501 -0.38627 0.687975 0.861734 -0.423996 0.157239 -0.515639 0.0466692 -0.962627 -0.111441 0.381388 0.30389 0.985784 0.664787 0.0719838 -0.708638 -0.693001 0.315357 0.255241 0.986372 -0.0263949 -0.0236915 -0.993951 0.509733 -0.993127 0.0918783 -0.0775051 0.919297 -0.195226 -0.477206 -0.0490906 -0.563706 0.136541 -0.361096 -0.705257 0.709265 0.792862 -0.217441 -0.243359 0.82751 0.66494 -0.865401 0.1314 0.653471 0.802134 -0.793867 0.944834 -0.890867 0.521489 0.200077 -0.904493 -0.501472 -0.82018 -0.894882 -0.991607 -0.813177 0.197133 -0.0689764 -0.893744 -0.997962 0.453948 0.0572966 -0.56154 -0.409382 0.696329 -0.263362 -0.696684 0.492624 0.519199 0.0627063 0.326315 0.190319 0.203486 -0.536231 -0.152905 0.00892425 -0.326664 -0.204637 0.121491 -0.801741 0.998875 0.220432 -0.30321 -0.821304 0.325553 -0.294687 -0.63435 -0.477188 0.636334 -0.528096 -0.475152 0.0902788 0.529199 -0.0366918 0.680897 0.225527 0.699946 0.984213 -0.281849 0.219145 0.0469188 -0.955533 -0.590536 -0.749594 -0.491636 0.256689 0.259379 0.181748 -0.9479 -0.619001 0.380134 -0.948896 0.601561 -0.922948 -0.770071 -0.0727571 -0.217635 -0.450357 
0.507726 -0.537981 0.100936 0.999455 0.518658 -0.409969 -0.0822302 0.180758 0.849764 -0.329946 0.208757 -0.431024 0.913768 -0.727085 -0.356016 -0.689351 -0.503108 0.109348 0.487879 0.697938 -0.777445 0.527512 -0.935209 0.650573 0.601632 0.677042 0.707498 0.866893 -0.345209 -0.464285 -0.573567 -0.930553 -0.0732894 0.524456 -0.931192 -0.550671 -0.870108 0.0137607 0.650712 0.950215 0.635417 -0.196377 -0.570558 0.462465 0.00536701 0.0341767 0.719397 0.485128 -0.834818 0.307033 0.280501 -0.489391 -0.0509759 0.436086 -0.807001 -0.382249 0.13563 0.860433 -0.617249 0.713845 -0.660024 -0.195578 0.80784 0.267178 -0.663554 0.882146 0.75766 -0.485855 -0.0535404 0.435733 -0.476717 -0.322977 -0.682673 -0.0124243 -0.876774 0.300672 1.03362 0.855483 -0.207417 -0.813767 0.137718 0.978588 -0.407405 0.991587 0.32033 -0.329429 -0.509791 -0.617901 -0.504852 -0.157452 -0.919827 -0.166492 0.656117 0.882469 -0.88266 0.982939 0.739003 0.831584 -0.583317 -0.417766 0.154714 -0.217528 0.0657043 0.309018 0.641054 0.0944126 -0.505304 0.584452 -0.11329 0.200559 0.680534 0.939294 0.108264 -0.797299 0.868448 -0.648577 -0.221844 -0.760406 -0.345889 0.184707 0.0119475 -0.379603 0.936217 -0.424057 -0.568001 0.987953 -0.488865 -0.915192 0.698467 -0.203305 -0.464386 -0.263019 0.46169 0.534428 0.954246 0.0350444 -0.441743 -0.634127 -0.476178 0.360025 0.532351 -0.833974 0.223338 -0.472169 -0.796764 -0.0575836 -0.226503 -0.131833 0.0953545 0.256527 0.93907 -0.969928 0.830241 0.84255 -0.462364 -0.807745 0.771081 -0.0224749 -0.833973 0.349911 0.676345 -0.281899 -0.905692 0.176372 -0.682679 -0.915942 -0.7911 -0.218255 -0.582183 -0.317953 -0.925355 0.860725 -0.234635 0.205362 -0.672721 -0.0447193 -0.843072 0.0989691 0.896238 0.304366 -0.543493 0.903384 0.364412 -0.646659 0.743787 0.867855 -0.49336 0.442707 -0.198974 -0.298326 -0.186228 -0.521442 0.433825 -0.0836056 0.671029 0.737099 0.0226856 0.909804 -0.370956 0.575759 -0.303572 -0.282259 0.432656 0.426759 0.932303 0.757218 -0.627762 1.07505 -0.159915 -0.829345 0.29031 0.215858 0.988807 -0.451074 0.46039 0.658055 -0.644761 0.902786 0.0498398 0.130372 -0.407086 0.864225 0.629505 1.0182 -0.213508 0.287215 0.707895 0.72929 0.077884 -0.830984 0.117206 0.588744 -0.260542 -0.572124 -0.0962383 -0.395433 -0.849155 0.227124 -0.408201 -0.0934764 0.328827 0.797137 1.02887 0.208914 -0.762005 0.376277 -0.212158 -0.474287 0.218767 0.75535 0.599251 0.752459 0.560916 0.185856 0.719359 -0.742063 -0.657276 0.353307 0.856476 0.305612 0.355757 -0.105928 -0.205535 -0.942789 0.275263 0.642596 -0.434445 0.30847 -0.190543 0.0794734 -0.874234 0.990577 -0.268955 1.0145 0.10686 -0.141741 0.304174 0.752146 0.248349 -0.541364 0.450709 -0.193212 -0.85876 -0.0495251 0.924413 0.819825 0.112622 -0.815655 0.0391296 -0.0271139 0.465897 -0.592853 0.891944 -0.665156 -0.547748 0.103699 0.930585 -0.0553154 -0.684218 -0.388894 0.920441 -0.621876 -0.432111 -0.363453 -0.576842 0.698713 0.564322 0.786813 0.525999 -0.14216 -0.731955 0.0312643 0.703267 -0.574863 0.957749 0.578883 -0.806644 0.0818182 0.752973 0.229159 -0.901562 0.290084 0.716338 0.995086 0.590385 -0.81469 0.183762 0.584647 0.197107 0.571006 -0.716214 0.160897 0.996484 -0.143405 0.792973 -0.624094 -0.492845 0.228179 -0.913686 0.959572 1.01848 -0.742741 -0.116535 0.62617 -0.373304 -0.201973 0.169146 -0.206111 0.870001 -0.0739293 1.03786 0.934009 -0.803412 0.711099 0.88039 0.714907 0.777565 -0.0636416 0.172291 -0.161936 -0.626856 0.327122 0.882026 -0.716109 -0.866312 0.609762 -0.426281 -0.444758 -0.235967 -0.427628 -0.566296 -0.326685 -0.276069 0.226996 -0.762392 0.296758 0.949004 0.330031 1.04739 0.772114 -0.800316 1.00795 0.644468 -0.694028 0.610738 0.460418 0.915127 0.304025 -0.74773 0.00890396 -0.932631 -0.429922 -0.717866 0.863604 -0.242608 -0.739817 0.40191 0.269103 -0.21744 1.06587 0.7373 0.0973415 -0.37383 -0.623098 -0.813489 -0.237079 0.554907 -0.910156 -0.974162 0.515415 0.788973 -0.832314 0.493259 0.424729 -0.606589 0.0411779 -0.265013 -0.720474 -0.731605 -0.0199465 0.267023 -0.63822 0.533388 0.490578 -0.777967 -0.733514 0.673286 0.462189 0.411116 -0.576399 0.485374 0.134314 0.479209 -0.883767 0.553122 0.729083 -0.0869451 0.129443 0.836063 -0.0284159 -0.326644 0.630921 0.0992825 -0.887831 -0.037817 0.495735 0.124615 0.716184 0.806436 0.484186 -0.226873 0.158214 0.879784 -0.601684 -0.287942 -0.868541 -0.284148 -0.507957 0.696154 -0.806362 -0.0940792 0.150535 0.298713 -0.65436 0.2181 -0.275879 0.9904 -0.939327 0.772137 0.74294 -0.0616621 -0.638108 0.325777 1.0218 -0.555568 -0.731479 0.5001 0.582526 0.99479 0.29349 0.0644471 -0.252166 -0.619656 -0.138903 0.011665 -0.0408182 -0.144429 0.575711 0.304358 -0.584762 0.679654 -0.856929 0.502803 -0.10751 -0.581678 -0.327011 0.569618 -0.664758 -0.35403 0.240882 0.990822 0.492235 0.523264 0.219772 0.425734 0.896923 0.450707 -0.110413 0.452583 0.383164 -0.881301 -0.56192 1.02605 -0.582027 0.179475 -0.0755001 0.240837 0.94471 -0.561445 -0.521345 -0.688757 0.994012 -0.466787 0.682682 -0.182663 -0.137665 -0.690936 -0.699899 0.143058 -0.154278 0.433873 0.00864633 -0.795922 -0.0992239 -0.83836 0.549069 -0.306844 0.490466 -0.646907 -0.909021 -0.164657 -0.596085 -0.625525 -0.23412 -0.26448 0.545874 0.625734 -1.06909 0.437505 -0.925967 -0.578336 0.679919 -0.945007 -0.0747459 0.303242 -0.257438 0.717438 0.533897 -0.000568185 -0.191584 -0.667318 -0.538461 0.856277 -0.405417 0.337404 1.01077 -0.821687 1.06386 0.534288 -0.47019 -0.904891 -0.680498 -0.0608936 -0.487224 0.0672775 0.689277 -0.886759 -0.167745 0.767544 0.64357 -0.0286827 -0.706312 0.403956 0.0598862 0.28296 -0.214928 0.896494 0.0482646 -0.64314 -0.0939389 0.834156 -0.368431 0.262545 0.573295 0.136965 -0.48029 0.498217 0.220892 -0.519658 -0.0440015 0.72 -0.439486 0.235881 -0.362148 0.0523524 -0.686754 -0.663936 0.126065 0.125213 1.07374 -0.30646 0.981832 -0.778209 0.955969 -0.077824 0.366227 -0.38713 -0.293268 -0.662074 -0.114493 0.541822 1.09451 0.458511 -0.24302 0.620946 -0.480525 0.180377 0.021799 0.634477 0.555793 0.855401 0.248857 -0.967496 0.0103511 0.855871 0.0531911 0.2966 -0.876629 -0.881887 -0.633306 -0.89216 -0.243652 -0.748827 -0.753479 -0.410009 0.0445118 0.501009 0.100533 0.722537 0.751968 0.885184 0.11252 0.705631 0.298362 0.810554 0.305483 0.737788 -0.0915917 -0.848984 0.256265 -0.617211 1.01097 -0.506912 -0.6204 -0.0458284 -0.774163 0.294723 -0.82379 -0.737581 0.340188 -0.616523 -0.718329 -1.00262 -0.415827 -0.545592 -0.435669 0.596487 0.936556 0.630246 0.230676 0.663571 0.498778 -0.721362 0.2438 -0.286005 -0.949808 -0.502396 -0.603701 -0.0561264 -0.301562 0.692016 0.336717 -0.312669 -0.839977 0.694971 0.608108 -0.644369 -0.0268814 0.728976 -0.433794 -0.671147 -0.849038 -0.141668 -0.62876 -0.197115 0.450386 0.0519085 -0.504127 0.471096 -0.206307 0.792242 0.152398 -0.648086 -0.832159 -0.492027 0.095635 -0.779452 0.0054872 0.460906 0.11354 0.616989 0.0445295 -0.661088 -0.809798 0.0986244 0.929087 0.69817 0.366705 -0.139433 0.400008 0.922181 0.180857 0.530421 -0.198807 0.559811 -0.707501 -0.77986 -0.43398 -0.301064 0.567205 0.21765 -0.625761 -0.398163 0.447072 -0.574609 -0.00111374 -0.51198 -0.399265 0.934986 0.898038 0.652743 0.48849 -0.107116 0.923752 0.573137 0.869652 0.71486 0.146982 0.133447 -0.507542 -0.535063 -0.0151484 0.635349 0.963896 0.736763 0.13679 -0.805798 0.877304 0.624314 -0.125858 0.403087 -0.259515 0.0972776 0.889856 -0.925925 0.416559 -0.202347 -0.517942 0.931512 -0.384866 -0.753735 0.524671 1.05551 0.091002 0.341806 0.49739 -0.192115 -0.0635284 -0.436777 0.917549 0.411093 -0.0142646 -0.174551 -0.0863188 -0.18182 -0.500369 0.942084 -0.0784326 -0.764664 0.47953 0.690856 0.584974 -0.84716 -0.267691 0.39158 -0.802259 -0.891051 -0.902925 -0.431028 -1.08618 -0.375779 -0.267559 0.407135 -0.373786 0.757363 -0.327126 -0.917694 -0.406969 0.64668 -0.361722 -0.513219 0.00734003 0.589238 0.28321 0.870736 -0.637799 0.712002 0.778014 0.296532 0.97827 0.263643 0.0122388 0.614324 0.487994 0.876573 0.115588 0.757258 1.04698 0.278292 -0.608117 1.08603 1.01615 0.214401 0.51538 -0.374933 -0.0675945 -0.844386 -0.350638 0.48167 0.718072 0.193637 0.860365 -0.379427 -0.31883 0.0696497 -0.537589 0.0392868 -0.24681 -0.76843 -0.664638 -0.260289 0.509758 0.363019 -0.66078 -0.0079676 0.175633 0.374598 -0.354927 0.105949 -0.446431 -0.0764034 0.083917 -0.532183 1.04303 -0.442816 0.0493392 -0.0537194 -0.3267 0.654682 -0.638364 -0.692742 -0.238044 -0.877378 -0.178444 0.318713 0.0787042 0.190653 -0.726309 0.733182 0.32142 -0.455442 -0.559633 -0.210703 0.855357 -0.27433 0.713561 -0.0675003 1.05986 -0.695201 0.95613 -0.535089 0.101223 -0.0692529 -0.179881 0.0461209 0.361046 0.797804 0.882335 0.950775 0.359421 -0.829674 -0.800402 1.0272 -0.785076 -0.0622941 0.245382 0.177701 1.0717 0.471368 -0.162929 0.279728 0.891177 0.189823 -0.998314 0.629617 0.781028 0.595358 -0.514692 0.740387 0.831411 -0.615038 -0.845897 -0.139735 0.267347 -0.0768719 0.8286 -0.442568 -0.425286 0.608419 -0.583464 0.867415 0.743836 -0.455639 0.831857 0.896182 0.475791 0.0560463 0.0368313 0.443134 -0.569967 0.812518 -0.290361 -0.770293 -0.0805301 -0.374264 0.81724 -0.29987 -0.74419 -0.666698 -0.542645 -0.87057 -0.245786 -0.296917 0.0963613 -0.892763 0.675737 -0.0240917 -0.274803 -0.661576 -0.303844 0.197185 -0.751075 -0.563701 0.718422 1.03628 -0.718519 0.155827 0.010091 0.201186 -0.504352 0.349027 -0.0713352 0.110891 0.553199 0.831625 0.747745 0.391098 -0.457701 1.0065 0.72118 -0.0019774 -0.884311 -0.532728 0.632074 0.123175 -0.538709 0.186297 0.996526 0.0790537 0.433069 -0.40468 -0.805539 0.635612 -0.0228315 0.910868 0.646433 0.214381 0.00680398 -0.416884 -0.670526 0.390879 0.817086 0.139645 -0.576561 0.305459 -0.116727 -0.938422 -0.402315 0.383386 1.03539 -0.726798 -0.692062 -0.896698 -0.311774 1.14603 
