-0.962485 0.073901 0.815416 -0.856507 0.476858 -0.691413 -0.248048 -0.402329 -0.684465 0.44636 0.7257 -0.0828578 -0.578677 0.333716 0.51876 -0.3999 0.46668 0.995395 0.188406 0.770403 0.189923 0.936648 0.43933 -0.16462 -0.749405 -0.487499 -0.97865 -0.806249 -0.590023 -0.660462 0.727187 -0.552591 0.413357 0.54252 -0.409175 -0.109875 0.851024 0.34269 0.487709 -0.833604 -0.211119 0.213238 0.083448 0.210113 -0.453135 -0.397875 0.810125 -0.986543 -0.402563 -0.00155582 0.783777 0.787274 -0.0649907 0.223018 -0.377433 0.185521 0.73543 -0.356088 0.379267 -0.854595 -0.0166324 0.106293 -0.407349 -0.603442 -0.35127 0.183387 0.286595 -0.50033 -0.474011 -0.225784 -0.333937 0.314862 0.987457 0.749514 -0.475015 -0.465593 -0.64836 -0.664897 -0.452215 -0.0509188 0.333554 -0.668445 -0.263643 -0.731443 0.554573 0.358923 0.454074 0.29 -0.997253 -0.166737 0.435325 -0.013956 0.939639 -0.971941 0.382682 -0.411626 0.211449 -0.330723 0.0880433 0.737435 0.443494 0.754103 0.0523002 0.430947 0.503614 0.577271 0.965261 0.85525 0.912371 -0.486958 -0.195673 0.245919 -0.155408 0.540671 0.514469 -0.600841 -0.100412 -0.0314532 0.689159 -0.0976647 0.801806 0.124488 0.888367 0.741362 0.152463 0.270966 -0.670352 -0.636178 0.94015 0.417609 -0.898826 0.38356 0.171627 0.153391 -0.18559 -0.32485 -0.269419 -0.220405 -0.469673 -0.357131 0.29255 0.334568 0.888696 -0.862949 -0.124847 0.403087 -0.463869 0.774651 -0.628459 -0.774798 -0.323096 -0.826736 0.349608 -0.434812 0.914543 -0.498016 0.836061 -0.755892 -0.134278 0.776128 0.661629 -0.0331869 0.159603 -0.166828 -0.879887 0.97393 0.50824 -0.14947 -0.246637 -0.961605 0.493303 -0.954183 0.372874 0.381916 -0.817215 -0.752059 -0.215086 -0.281173 -0.977492 0.156372 -0.0560539 -0.300676 0.329553 -0.706535 0.264424 0.244092 -0.20456 0.10048 0.488116 0.661076 -0.123475 0.149583 -0.372277 -0.964038 0.982669 -0.252247 -0.990191 0.490826 0.598276 -0.236836 0.529225 0.0915867 -0.191011 -0.0978173 -0.526502 -0.00822591 0.150044 0.258419 0.710597 0.172552 -0.585216 -0.34545 0.871871 0.744338 -0.0519949 0.136292 -0.0116524 0.743366 -0.763307 -0.523611 0.404451 0.113226 0.626052 -0.967831 0.149188 0.608721 -0.220075 0.158996 0.0995509 -0.621803 0.922157 -0.371226 0.469781 -0.268856 0.530864 0.94327 0.722905 -0.319094 0.201682 0.433504 0.853445 0.61646 -0.911962 0.725313 0.3608 0.0360469 -0.138391 -0.650858 -0.220587 0.0983022 -0.174469 -0.816228 -0.788563 -0.548504 -0.784142 0.360544 -0.939866 -0.00429999 -0.480547 0.159601 0.373816 -0.558481 0.78828 -0.156501 0.172581 0.319069 -0.213306 -0.104597 0.999881 0.988286 -0.671186 0.853243 0.604663 -0.583231 0.578473 -0.0346222 0.452735 -0.560005 0.314438 -0.767944 0.53821 -0.860123 -0.584255 0.749564 -0.408704 -0.368475 0.110023 -0.348654 0.627133 0.629384 0.810856 0.000863405 -0.929177 0.599056 0.844279 0.243235 -0.0820469 -0.369197 -0.861449 -0.0822489 -0.380994 -0.532718 -0.229089 -0.776415 -0.116032 -0.650699 0.188876 -0.663386 -0.210787 -0.496774 -0.431413 -0.67266 -0.35698 -0.0156726 -0.923099 0.234306 0.615765 0.186836 0.885565 0.242734 -0.183941 0.696258 -0.756489 -0.113201 0.29523 -0.912293 -0.869966 -0.786817 -0.28148 -0.731412 0.130942 0.337604 -0.264124 0.901848 0.561105 0.619838 -0.748851 -0.250012 0.956452 0.0403669 0.253214 -0.474954 0.367699 0.896224 0.509284 0.44452 0.130459 0.124977 -0.368634 0.0160228 -0.632214 0.447425 -0.287718 -0.388698 -0.665782 -0.992494 -0.300991 -0.535748 -0.77931 0.417519 -0.267158 0.351629 -0.244967 0.468708 0.253474 -0.683869 0.0885415 0.504615 0.0661131 0.0449906 -0.455021 -0.680687 0.570023 0.912673 -0.784463 0.0793109 0.357198 0.345993 -0.795724 0.988471 -0.638077 -0.428015 0.435812 0.0741207 0.183197 0.769942 0.0815441 0.882114 -0.765889 0.302142 0.29954 -0.0331396 -0.346307 -0.945508 -0.564516 0.907073 -0.62946 0.523939 0.41161 0.436571 -0.431152 0.956496 0.755796 -0.861218 0.869086 0.97125 0.218009 0.226199 0.317159 0.422204 0.214587 0.678994 0.994095 -0.349688 -0.246968 0.177208 -0.579834 0.834485 0.0592396 -0.3458 0.136552 -0.641302 0.620976 0.790069 -0.586977 -0.943707 0.697059 -0.21652 0.580149 0.108581 -0.780037 -0.851092 0.0649941 0.975676 -0.712393 -0.0660033 0.946842 0.505529 -0.839891 0.263913 -0.0723551 0.374688 -0.0570964 -0.0782646 -0.975087 0.69577 -0.901222 -0.555084 0.530172 0.157931 0.0990273 -0.333363 0.516545 -0.28008 -0.543294 0.929568 -0.223779 -0.846231 -0.286941 -0.643555 0.262357 -0.0669803 -0.494719 -0.672656 -0.0913044 -0.207115 0.261348 -0.144462 -0.701593 0.421447 -0.880557 0.226052 -0.203943 0.0622678 -0.852288 -0.179103 -0.241876 -0.75343 0.265895 -0.711708 0.404506 -0.635083 -0.0450672 -0.0789504 0.0848402 0.411641 -0.149382 0.861049 0.565401 0.563663 -0.782588 -0.172248 -0.503326 -0.277312 0.155093 0.405367 0.51556 -0.583573 -0.739108 0.813967 0.837875 -0.619665 0.0400228 -0.366063 0.442608 0.187731 0.454827 -0.79936 0.434219 -0.279367 -0.511151 -0.161365 0.0854646 0.443701 0.759594 -0.829786 -0.144757 -0.38988 -0.968823 -0.579438 -0.826295 -0.751491 0.248234 -0.329699 -0.0288881 -0.596763 -0.924425 -0.513415 -0.180415 -0.663616 -0.699531 -0.342621 -0.283359 0.34041 0.291227 -0.840845 -0.471946 -0.254035 -0.640287 0.96218 0.466509 -0.151518 -0.199269 -0.448114 -0.707909 -0.439756 -0.277983 0.147259 0.170284 -0.246888 0.567738 0.343829 0.00145931 -0.184198 -0.985968 0.972476 0.218956 -0.910474 -0.541019 -0.961545 -0.574176 -0.240636 -0.304255 0.142376 -0.900315 0.986883 0.301448 -0.372349 -0.267241 0.661158 -0.410173 -0.800741 -0.490448 0.390393 -0.249023 -0.198519 0.950548 0.472906 0.948654 0.120746 -0.774069 0.516308 -0.535435 0.227383 -0.667887 -0.521401 0.199867 0.55115 -0.431871 0.65884 0.589525 -0.00604935 -0.581796 -0.714731 -0.863678 -0.482104 -0.727848 0.437777 0.145538 0.00490833 0.0988451 0.735286 0.204095 0.608322 0.125766 0.955148 -0.590117 0.0763143 0.42806 -0.641463 -0.802944 0.653986 0.874845 -0.338374 -0.118628 -0.793045 0.14022 -0.918773 0.758022 0.708336 0.740065 0.347549 -0.297716 -0.841734 0.632809 -0.161399 -0.323843 0.904959 -0.723635 0.82169 -0.0901291 0.375215 0.556976 -0.886045 -0.0164678 -0.31734 -0.93098 0.393334 0.758882 0.496996 0.751782 0.955855 0.150897 0.626544 -0.382602 -0.967821 0.833416 0.757526 -0.886677 0.591355 0.465784 0.853304 -0.0611812 -0.832026 -0.988513 -0.428453 0.00649232 -0.312439 -0.523583 0.282775 -0.490832 0.386206 -0.342098 -0.933945 0.500073 0.641342 -0.251368 0.569009 0.0345912 -0.492569 0.0659209 -0.21371 -0.536802 -0.783273 -0.587252 0.0805111 -0.751177 -0.753919 -0.162046 -0.638017 0.837273 -0.696437 -0.784799 -0.223999 -0.528546 -0.773396 0.34747 0.477859 -0.0859236 0.823793 -0.239454 0.423156 0.209911 0.41836 0.489127 -0.2901 0.0596181 -0.762249 -0.721094 -0.905798 -0.254908 0.34466 -0.119674 0.208128 0.561304 0.29299 -0.711448 0.810044 0.538988 0.126419 -0.827977 0.376258 0.429982 -0.612776 -0.847737 0.901519 -0.386162 0.499729 0.379305 0.527907 0.323522 -0.860155 -0.0489324 -0.466567 0.558204 -0.55981 0.243323 -0.382181 -0.322142 0.522149 -0.288049 0.422882 -0.133105 0.592351 -0.368912 -0.571804 -0.114655 -0.0803609 -0.761761 -0.575671 -0.953946 -0.589738 0.800587 0.476042 -0.20251 0.952846 0.377478 0.411319 0.452571 -0.243229 -0.0607779 -0.223919 -0.103387 0.890278 0.309506 -0.545189 -0.669535 -0.447172 0.0726337 0.00832715 -0.925028 0.784571 -0.568805 -0.0582161 0.376844 0.0621988 0.369898 -0.737903 0.981747 0.608049 -0.313652 -0.972282 -0.981772 -0.513153 0.503672 -0.184366 -0.56039 -0.118935 -0.773138 0.892092 0.637746 0.166 -0.331908 -0.465723 0.0561956 0.977504 -0.0109968 0.386579 -0.469751 -0.938454 -0.605186 -0.394862 0.846034 -0.174071 0.546829 0.222793 0.888038 -0.0833574 0.484809 0.869702 -0.475391 -0.828937 0.897337 -0.457246 -0.342168 0.400931 0.358302 0.0972782 -0.718177 0.584995 -0.0107207 0.919482 -0.249094 0.657283 -0.546326 0.807014 0.634704 0.442587 0.193505 -0.835136 0.50405 0.588236 -0.230086 0.350001 -0.585922 -0.68326 -0.427214 -0.697887 0.233294 -0.942572 -0.828349 0.757736 -0.771592 -0.931095 -0.699598 -0.113849 0.469747 0.658615 0.983421 0.751567 0.243607 -0.0272994 0.671052 0.994596 -0.370007 -0.875277 0.801531 -0.73531 0.56731 -0.00495937 -0.570445 0.0713653 -0.416722 0.199473 -0.578642 -0.00265317 0.516125 -0.00593387 0.29939 -0.250649 0.0515812 0.47112 -0.492835 0.279991 0.540019 -0.192434 -0.833864 0.00977022 -0.533822 -0.850442 -0.238663 0.709785 0.122262 -0.567618 0.704298 0.752242 -0.442892 0.505826 -0.983071 -0.875591 -0.499136 -0.55352 0.19577 0.0841311 0.645945 0.617125 -0.918526 0.162074 -0.388803 0.380859 0.911411 0.662685 -0.148111 -0.581512 -0.0574087 -0.608178 0.225971 0.108645 0.40151 0.692062 0.258121 -0.837245 0.401769 -0.61971 -0.404941 0.105982 -0.867551 0.152076 -0.388273 -0.850705 0.276405 0.112501 -0.404303 -0.527917 -0.803459 -0.758446 -0.910875 -0.722068 0.403547 -0.299762 0.658703 0.314875 -0.637165 -0.48949 0.733275 0.305344 -0.0977528 -0.0408374 -0.586103 -0.696335 -0.348857 0.671929 -0.533663 -0.947183 -0.947864 0.0612322 0.158637 -0.815578 -0.786783 0.770271 -0.666366 0.48954 -0.117311 -0.070761 0.961529 0.079139 0.17071 -0.949429 0.356988 -0.425831 -0.24928 0.0156072 0.888955 0.113551 0.526109 0.622227 -0.581192 -0.571811 -0.418778 -0.167459 -0.268229 0.232276 -0.495613 0.198025 0.285011 -0.44356 -0.740751 -0.55636 -0.259142 -0.527537 -0.786089 0.0745757 0.961996 0.0965972 -0.996269 0.923526 -0.824269 0.174445 0.974096 0.532719 0.74861 -0.275177 -0.451677 0.637562 0.838285 -0.925648 0.259719 -0.742984 -0.49737 0.841014 0.0896413 0.234399 0.0732946 0.594024 -0.56758 -0.641699 -0.849536 -0.308326 -0.198055 -0.108674 0.164135 0.0158532 0.965811 0.126128 -0.887561 0.969539 0.0496505 -0.711833 0.14398 0.0237436 0.820883 -0.107413 0.748553 -0.630794 -0.46985 0.586838 -0.556442 0.789853 0.843851 -0.0538973 0.630785 -0.0665906 -0.819589 -0.296003 -0.472648 
-0.374073 0.0754214 -0.309074 0.31725 0.8819 0.586798 -0.513807 -0.102323 0.547572 0.607482 0.00528521 0.517208 -0.342937 0.293351 -0.33888 0.680702 0.119097 0.558535 0.434123 0.488206 -0.911404 0.0208969 0.931662 0.878366 -0.135347 -0.122292 0.509068 0.797951 0.0580379 -0.787023 -0.674786 0.670671 0.275122 -0.00203884 -0.029976 0.134181 -0.433174 0.438305 -0.986091 -0.898581 0.0374122 0.0109087 0.605305 0.676453 -0.71387 -0.746631 0.344029 0.387137 0.793828 -0.239933 -0.142845 0.864246 0.762724 -0.229257 0.724718 -0.390523 0.630501 0.215736 -0.610666 -0.329729 0.410451 -0.303688 -0.677152 -0.33252 0.68118 0.279891 0.788656 -0.765154 -0.295041 0.794279 -0.671943 0.724427 -0.217756 0.915468 0.387832 0.0553158 -0.844228 -0.28122 -0.565726 0.936536 0.465758 0.273526 0.787718 0.215427 -0.968838 0.499389 0.811795 0.648598 -0.298117 -0.812089 -0.694187 -0.900665 -0.128732 -0.384282 -0.246139 -0.460624 0.882433 -0.470631 -0.238835 -0.42567 -0.694368 0.0712306 -0.714146 0.0749999 -0.0263616 0.660709 -0.882706 0.116624 -0.633572 -0.466413 0.0401173 0.819106 0.798969 -0.180219 0.0264923 0.816865 -0.699127 -0.175043 0.452445 -0.00525448 0.000200737 0.745562 0.0813961 0.858447 -0.656632 0.817309 -0.620374 -0.782512 -0.666302 0.128113 -0.225767 -0.373876 -0.813937 0.0516026 0.692845 0.151643 -0.305901 0.792141 -0.749785 0.0474546 -0.687534 0.277055 -0.146713 -0.906764 -0.916452 0.866476 0.897139 -0.62854 -0.326469 0.331689 0.348293 0.655499 0.0590869 -0.588537 0.495786 0.389194 -0.784474 0.8575 0.588769 -0.464004 -0.0226883 -0.65522 0.144194 0.14545 0.378454 -0.180855 -0.720851 -0.940445 -0.402042 -0.483939 0.0936876 -0.102705 0.779937 0.933777 -0.0225036 0.845514 0.782282 -0.143451 -0.801204 -0.562384 -0.829982 0.528995 -0.924779 0.211202 0.922564 0.552914 -0.417703 -0.880166 0.39711 -0.847207 -0.362244 -0.643707 -0.515389 0.768945 0.488773 0.849828 -0.425136 0.754687 0.896242 0.159849 -0.742232 -0.0230293 -0.955873 -0.975256 -0.102218 0.00855883 0.862127 -0.333013 0.851984 -0.956971 0.0915523 1.00894 0.558959 0.153626 0.206999 0.468401 -0.306608 0.776111 0.575255 -0.922496 0.915943 -0.799968 -0.579164 -0.612588 0.955836 0.896451 -0.775824 -0.482362 0.638073 -0.892466 0.66456 0.882957 0.0715382 0.695727 0.894741 0.956198 -0.308777 0.73887 -0.38986 -0.469857 0.773787 0.693597 -0.468968 0.3195 -0.166022 0.724744 -0.225073 0.51465 0.488195 -0.662519 0.579192 0.391177 -0.480365 0.982134 0.760393 -0.532858 0.865624 0.971913 -0.0327985 0.49049 -0.93398 -0.376742 0.365219 0.129403 -0.699052 0.241967 0.0674273 -0.0210764 -0.0324013 0.664255 0.495767 -0.276827 0.344623 1.01352 -0.970327 -0.839335 0.720368 -0.213294 0.657134 0.190391 0.106014 0.218171 -0.436633 0.600254 0.174959 -0.694152 -0.938394 0.0402009 -0.73061 0.0105722 -0.488047 -0.6825 0.615879 0.859279 0.428861 0.903708 0.0879291 -0.51709 -0.130703 -0.957677 -0.865976 -0.648105 -0.247609 0.460618 -0.652645 -0.235934 0.603148 -0.950455 0.532472 0.242162 0.222045 -0.379345 -0.557537 0.767366 -0.785261 0.611245 -0.940109 -0.74173 -0.367396 -0.688756 0.255827 0.131544 -0.384244 -0.141404 -0.0217837 -0.963107 -0.245903 -0.942471 -0.498598 0.605453 -0.918041 -0.377533 0.949308 -0.173706 -0.92502 -0.721261 0.572314 0.660234 -0.684706 0.0918261 -0.110592 0.524244 0.69929 0.318718 0.278487 0.901068 -0.0829866 0.325417 -0.853623 0.536607 0.623682 0.389141 -0.344913 -0.773642 -0.765369 0.619657 -0.755272 -0.0290786 0.659367 -0.266471 -0.436605 0.728366 0.342735 -0.505311 -0.463346 0.399717 -0.239613 -0.904113 0.0518317 0.0676579 0.179678 0.927935 -0.421353 -0.134276 0.233981 0.84442 -0.245886 -0.86202 0.151948 -0.112465 0.661626 -0.237331 -0.741265 -0.70149 -0.0242121 -0.519861 0.905225 0.207564 0.437902 0.556383 0.932542 0.993109 0.266749 0.25728 -0.530382 0.790122 -0.356271 0.216755 0.872763 0.677341 -0.728883 0.0391975 0.586092 -0.174344 0.880759 -0.191917 -0.341919 -0.3771 -0.0721263 0.79666 0.479823 -0.441009 -0.466148 0.732535 -0.142676 0.509387 -0.794419 -0.255855 -0.301492 0.624755 -0.717396 -0.386766 0.599814 0.536291 0.857139 -0.943845 0.313038 -0.512233 0.259771 0.172669 -0.848145 0.512702 -0.806352 0.726104 -0.673529 -0.937428 -0.48369 -0.0332931 -0.33241 0.426135 -0.254605 -0.858288 0.979277 0.273355 0.861235 -0.181883 -0.235682 -0.951947 0.549287 0.449867 0.660371 0.818816 -0.949522 0.247119 0.346884 0.899108 0.289787 -0.357951 -0.631027 -0.463417 0.806686 -0.487078 -0.963592 0.982571 -0.778789 -0.649972 -0.967812 -0.27509 0.304108 -0.313259 -0.862555 -0.964097 -0.184578 -0.896209 0.29636 -0.33628 -0.0910157 -0.952328 -0.301188 -0.554824 0.484482 -0.654425 -0.749072 0.521347 0.57926 0.579977 0.402655 -0.14401 -0.791236 0.75865 0.379588 0.997736 -0.746442 0.402931 0.967244 -0.538296 0.74481 0.991405 0.178066 0.0351611 -0.3351 0.302261 0.0583858 0.467619 0.393387 -0.658264 -0.886591 -0.71065 -0.623552 -0.195802 -0.283352 0.842727 0.131592 -0.0455614 0.351151 -0.297341 -0.473879 -0.254421 0.545443 -0.278097 -0.513988 -0.0929597 -0.298366 -0.273485 -0.703316 -0.344549 0.174797 -0.976686 -0.36621 -0.660248 0.0392828 0.274524 0.618606 -0.913623 -0.269083 -0.0121039 -0.602274 -0.181122 0.258033 -0.244179 0.604666 0.957188 -0.414422 -0.276749 -0.0964963 0.91875 0.415208 0.406261 -0.354034 -0.0697588 -0.889624 0.119872 0.824599 -0.207615 0.832193 -0.892619 0.440992 -0.00606163 -0.882501 -0.93441 0.312207 0.141477 0.315969 -0.0817194 0.209302 -0.971749 0.899591 0.612449 -0.147136 0.164305 -0.634801 -0.540848 0.128134 -0.0555958 0.171126 -0.979673 -0.138104 -0.427108 0.425787 0.506848 0.502033 0.535066 -0.374586 0.325606 -0.661698 -0.538807 0.431656 0.7731 0.449491 0.548375 0.833983 -0.235609 -0.307431 0.147739 0.685183 0.904715 0.178931 0.587318 0.507079 -0.978572 -0.258148 0.859379 -0.537251 0.852114 -0.209116 0.620952 0.859514 0.639666 -0.819236 0.272243 0.13348 0.669732 -0.205747 0.745256 -0.0182331 0.114032 -0.811549 -0.599411 -0.125654 0.62514 0.935913 -0.309666 -0.623563 -0.384568 0.829902 -0.946408 -0.488427 -0.00492621 0.627664 1.00503 0.00318079 -0.643449 0.852108 0.453594 -0.808959 -0.369993 0.0615989 -0.962406 -0.748238 0.224252 0.296662 0.372059 -0.11905 -0.922173 0.10428 0.854624 0.183893 0.284695 -0.762966 -0.959878 -0.108152 -0.840119 -0.282798 0.255021 -0.238133 -0.471436 0.294995 0.260732 0.51137 -0.100361 0.242339 -0.502694 0.232372 0.0702814 0.92051 0.410089 0.681121 -0.036273 0.43421 0.915503 -0.825026 -0.281935 0.279666 0.0381968 -0.221972 -0.634921 -0.125858 0.943193 0.63217 0.099112 0.964773 -0.495443 0.244827 -0.325935 0.752381 0.993628 0.189736 0.0262914 0.232468 -0.320771 0.913571 -0.537734 0.157818 0.139298 0.526103 0.0719044 -0.444909 0.213981 -0.967229 0.978938 0.123796 -0.799081 -0.309883 -0.603157 0.237657 0.473847 -0.23148 -0.877021 0.416108 -0.600407 0.220529 0.38556 -0.090349 -0.53548 -0.94137 -0.338876 -0.542509 0.247853 0.690203 0.697524 0.929673 0.606112 -0.84256 0.0899505 -0.252418 0.685811 -0.835669 0.292777 -0.11005 -0.80394 0.265815 1.00803 -0.6037 0.950284 -0.600842 0.633012 0.411107 0.154615 0.742926 -0.185859 0.541118 -0.0498526 -0.813654 -0.562574 0.401342 -0.767881 0.0856999 0.845722 0.466658 -0.237402 0.525033 0.383154 -0.644503 0.674176 -0.534991 0.0947562 0.34676 -0.384247 -0.625836 -0.776301 -0.200498 0.627644 -0.785876 0.182841 0.560034 -0.399663 -0.202042 -0.0419163 0.741844 -0.472196 0.759133 0.263617 0.463574 0.931208 0.693079 -0.148135 -0.848712 -0.233274 -0.314206 0.60485 0.516206 -0.802467 -0.0254434 0.85807 0.858103 0.426128 -0.0594247 0.188045 -0.98081 0.291246 0.375469 -0.211697 -0.105165 0.582507 0.958944 -0.558625 -0.830638 -0.261238 0.386386 0.89959 0.258947 0.128147 0.149523 -0.295588 0.0463926 -0.169126 0.556974 0.185547 0.585306 -0.781805 -0.218812 0.0874652 -0.601528 0.73441 -0.0706496 -0.761231 0.142832 0.851745 0.408182 0.149459 0.130537 -0.216734 0.937565 -0.981328 -0.628521 0.90745 -0.538076 -0.469464 -0.364463 0.841781 -0.582977 0.882522 -0.0369387 0.577875 -0.401433 -0.979272 -0.591322 -0.857513 0.204796 0.991793 -0.640749 0.980276 0.0786394 -0.235013 0.722388 1.01556 0.00703666 -0.136526 0.864643 -0.587942 -0.985007 -0.00259508 0.197507 0.954835 0.0186023 0.559093 0.847488 0.475338 -0.916281 -0.522607 0.310982 -0.499843 -0.640721 -0.726779 -0.935015 -0.055242 -0.719207 -0.540189 0.0741641 0.472255 -0.561709 0.420091 0.439218 0.50379 -0.83276 0.143585 0.501069 0.155501 0.9932 0.35253 0.559278 0.999897 -0.658167 -0.256488 0.941486 0.346813 -0.710735 0.776013 -0.190705 -0.639332 -0.75927 -0.892727 -0.15714 -0.417945 -0.637476 -0.1054 0.513617 -0.36982 0.335319 -0.431514 -0.916795 0.765548 0.980595 0.5143 0.251094 -0.864209 -0.353854 -0.254656 0.278271 -0.37393 -0.915428 -0.180326 -0.386706 -0.586264 0.550417 -0.463135 0.742972 0.810051 -0.723336 -0.484994 -0.854046 -0.494921 -0.389482 -0.0184483 0.0740082 -0.0447281 0.865057 -0.423904 0.577934 0.187778 0.13086 0.647938 -0.0596751 0.0997464 0.150879 -0.815245 0.222532 0.789408 -0.0776819 -0.511844 -0.60602 -0.0150351 0.290488 -0.0120099 0.379922 -0.177855 0.506041 0.104214 -0.37438 0.782348 0.619795 -0.228215 -0.718612 -0.770766 0.755284 0.352258 0.181005 0.607433 0.920166 -0.248077 -0.206735 0.0502965 -0.588524 0.744891 -0.838493 0.561398 0.928909 0.383133 0.34449 -0.150218 0.874807 0.744901 0.837099 0.167634 -0.264621 0.214461 0.987062 -0.761118 -0.678942 -0.385107 -0.976672 0.942772 0.388908 -0.693047 -0.8307 0.139012 0.658748 0.350139 -0.254776 0.577772 -0.899156 0.537662 -0.372881 -0.5008 0.269415 -0.224695 -0.95248 0.185003 -0.854749 0.37886 -0.98256 1.00182 0.106788 0.836513 0.152134 0.823882 0.0376958 0.125027 -0.946541 0.349414 0.731565 -0.936459 0.278923 0.107502 -0.642488 0.435262 -0.767026 1.00306 -0.227815 -0.0343907 0.562937 -0.144868 -0.515094 -0.823289 0.34101 
0.728384 -0.0739266 0.362589 -0.0995994 0.0581826 -0.271711 -0.0960926 0.0467606 0.820828 -0.273798 -0.815368 0.630492 0.749855 0.296597 0.665979 0.0810529 0.0102469 0.711605 -0.657937 -0.9004 -0.949004 0.759184 -0.685321 -0.964124 -0.486833 0.262003 0.58549 0.354956 0.733951 0.749243 -0.316786 0.462334 -0.324684 -0.954425 -0.637038 0.733725 -0.225908 0.266868 -0.219515 -0.40508 0.99307 -0.034883 -0.774587 0.742698 -0.738513 0.891164 -0.176477 0.271507 0.602542 0.165357 0.371106 0.653538 -0.0754593 0.685786 0.689413 0.437709 -0.052212 0.274676 -0.207561 -0.318488 0.0241459 0.475652 -0.855927 0.699463 0.521227 -0.49319 0.43296 -0.704909 0.773448 -0.786782 -0.110214 0.766291 0.178109 0.114971 0.508761 0.439369 0.00590796 -0.667943 -0.289351 -0.391778 0.49719 -0.918474 -0.738469 -0.578497 0.767084 0.950717 0.858984 -0.285353 0.225394 -0.348576 0.396159 -0.750689 -0.873154 0.540003 0.948546 0.647846 -0.953417 0.381281 0.94271 0.819804 0.59427 -0.167732 0.585868 -0.227848 0.947009 0.0944035 -0.788709 -0.0473104 0.426231 -0.0782895 0.56068 -0.076808 0.00300836 0.821983 0.344468 -0.230135 0.772473 0.203224 0.484283 -0.0023632 0.85442 -0.119785 0.246723 0.980811 -0.580239 0.194816 0.62843 -0.533884 -0.424135 0.570912 -0.714307 -0.830092 -0.597049 0.871333 -0.0581675 -0.650267 -0.0344924 0.152897 0.302192 -0.608489 -0.925394 -0.137128 0.314703 0.0773879 -0.315372 -0.341057 0.847026 -0.543354 0.861713 0.330855 0.454056 0.715905 -0.78916 -0.29945 0.696717 -0.369399 0.895364 0.325146 0.0969448 -0.528771 -0.103941 0.38241 -0.358863 0.299237 0.253971 0.583196 0.64897 -0.780522 -0.263908 -0.0488382 -0.389011 -0.18953 0.813807 0.925464 0.887631 -0.501792 -0.41582 0.73443 -0.0451477 -0.554106 0.065284 -0.591089 -0.838201 0.276126 0.109461 0.858516 0.906499 0.00459755 0.183661 0.00344367 0.476053 -0.92028 -0.614145 -0.88281 0.37873 0.639598 0.700159 0.0274745 0.858849 -0.563977 0.978407 -0.53039 0.246268 0.791987 -0.605153 0.133672 -0.710032 -0.0211985 -0.132125 0.244596 0.424467 0.932932 0.653278 0.586037 0.208831 -0.237487 0.444327 0.115331 0.767109 -0.372239 -0.881454 0.242936 -0.292746 -0.495824 0.359899 -0.914245 -0.856456 0.0598311 0.113002 -0.997834 0.495626 0.0911816 -0.528452 -0.258334 -0.117059 -0.133833 0.875107 0.172679 0.844739 -0.257247 -0.582954 0.268977 -0.324543 -0.929903 -0.145213 0.88406 -0.16762 -0.701115 -0.000835658 -0.400736 -0.0735811 0.117256 0.841742 0.633214 0.621199 0.201412 0.718742 0.764516 -0.738987 -0.168485 0.766454 0.75641 0.922466 -0.762225 -0.502154 -0.194821 0.103716 -0.627274 0.977857 -0.0515464 0.115479 -0.605324 -0.782796 0.790709 -0.535455 0.0715369 0.674313 0.296471 0.370193 -0.326752 0.895505 -0.703617 0.790501 0.737247 0.929597 0.4117 -0.0611149 0.648339 0.176217 0.199672 -0.520147 -0.0571025 -0.0436926 -0.597453 0.180672 0.454154 0.207725 -0.715613 0.826879 0.185354 0.232614 -0.0578697 0.579803 0.449591 -0.267388 -0.955879 -0.478873 -0.593075 0.340591 0.89132 0.0801729 0.236096 -0.812297 -0.129327 -0.0266575 -0.8827 -0.717627 0.912001 0.765639 0.458589 0.111674 -0.754507 -0.59874 -0.932248 -0.352186 0.581705 0.521679 0.85531 0.865865 0.348332 0.0404382 0.0982527 -0.709766 -0.379985 -0.452383 0.0226203 -0.336092 0.0685161 0.429318 -0.99573 -0.0403908 -0.490736 0.240141 0.147084 0.37971 -0.786745 0.264157 0.661854 -0.874971 0.0295691 0.120218 0.236474 0.274834 0.521249 0.304 0.922417 0.102729 -0.17455 0.7775 -0.0316332 -0.826448 -0.182289 -0.933611 -0.536441 0.437495 -0.386224 0.485949 -0.898826 0.682063 -0.0849619 -0.894783 -0.358558 0.424073 0.345129 0.788297 -0.196447 0.558157 0.0522277 -0.53482 0.682731 -0.918663 0.584942 -0.0810223 0.355942 0.105964 -0.777253 0.278132 -0.791538 0.04797 0.0554052 0.1766 0.221295 0.872887 0.242761 0.684625 0.310155 0.856536 0.170574 0.411329 0.538372 -0.914615 0.516319 -0.820413 0.509003 -0.139006 0.967429 -0.687671 -0.581077 0.0194269 -0.222717 -0.898346 0.100765 -0.637777 0.0206316 -0.543067 0.468186 0.24338 0.734838 0.676648 -0.708652 -0.209531 -0.146526 0.512869 -0.336644 -0.903765 0.197493 0.97351 0.952543 -0.632159 0.384612 0.490688 -0.547002 -0.0992979 0.670047 0.962001 0.761697 0.637476 -0.72567 -0.81938 -0.343097 0.0516116 -0.717725 0.757667 0.413835 0.302906 -0.785628 -0.117979 -0.453716 0.94921 -0.441328 -0.162368 -0.260548 0.411919 -0.649727 0.402582 0.507924 0.54754 0.375865 0.460242 0.915153 -0.239751 -0.0492972 -0.632076 0.660724 -0.379478 -0.670303 0.422195 -0.742231 -0.396198 0.602586 -0.0855535 0.655185 0.884633 -0.328114 0.0687949 0.187313 -0.113969 0.950587 0.733369 -0.164988 -0.490969 -0.429225 0.574236 0.920719 -0.0791786 -0.0234092 0.428417 -0.531868 -0.647775 -0.111571 -0.616943 0.112245 0.8389 -0.249247 -0.227259 -0.540807 0.080223 -0.805292 -0.283265 0.683796 0.797067 0.630952 0.338754 0.681473 -0.697392 -0.592681 -0.131441 0.188183 -0.642549 -0.398529 -0.977034 -0.133746 0.172018 0.596974 -0.213255 -0.907391 -0.426665 -0.785068 -0.439487 -0.0746664 0.103132 -0.0566567 -0.962649 -0.0581942 0.694096 -0.189908 0.400998 -0.225908 0.00457335 -0.882495 -0.54234 -0.198814 0.748002 0.795959 -0.517569 -0.949617 -0.79695 0.350761 0.238565 -0.439499 0.952232 0.26153 0.426982 0.12425 -0.141495 -0.786502 0.216859 0.43184 -0.571342 0.777599 -0.6426 0.531789 -0.279059 -0.605249 -0.526407 -0.58519 0.204615 0.874364 0.188674 -0.791039 0.991641 0.646107 0.010144 0.739643 0.442066 0.492577 0.790026 0.645116 -0.156663 0.0285893 -0.794382 -0.204431 -0.70988 0.632372 0.919818 0.148624 0.845871 0.136677 -0.419536 -0.725699 -0.0859507 -0.0623624 0.805862 0.634761 0.332161 -0.720772 -0.950656 -0.46345 -0.846635 0.237791 -0.254716 -0.855222 -0.116328 0.755201 0.884194 -0.674492 0.247551 0.673992 0.970397 -0.90934 -0.297644 -0.824212 -0.113996 -0.00775113 0.807932 -0.194406 -0.859356 0.653576 0.942042 -0.279118 0.927649 -0.144137 0.658289 0.733284 -0.509604 -0.00977639 -0.987715 -0.460488 0.526542 -0.834578 0.777075 -0.728404 -0.690028 -0.339483 -0.973431 -0.806061 -0.0142027 0.273892 0.867703 -0.0440316 0.364325 -0.43017 0.131528 -0.7499 0.561622 -0.0609929 0.05524 0.702038 -0.407646 -0.00294549 -0.577309 -0.480223 0.852687 -0.919247 -0.747169 -0.657145 0.0707482 -0.735111 -0.11786 -0.402938 -0.569917 -0.341013 -0.131342 -0.259944 0.319503 -0.105 -0.0662331 -0.694926 -0.831335 -0.198984 0.260587 0.532535 0.370617 -0.608113 0.782408 -0.0677603 0.330893 -0.162353 -0.365723 0.923246 0.834926 0.0569686 -0.556978 0.687386 0.137722 -0.304147 -0.969531 -0.791304 -0.0390312 -0.0873922 -0.194243 0.391052 0.571594 0.674188 -0.86912 -0.10913 -0.431039 0.0644183 0.195715 -0.262602 0.865435 -0.543696 -0.730067 0.236051 -0.15181 -0.947659 -0.831709 -0.820917 -0.11024 -0.197659 -0.89767 -0.275314 0.859536 -0.454649 -0.587928 -0.00274151 0.241204 -0.557687 0.205726 -0.798054 0.354695 -0.988745 0.592771 -0.0739376 0.685216 0.723424 0.816703 -0.74605 -0.212383 0.0121948 -0.00887787 -0.347175 0.468271 0.260828 0.888647 -0.683768 0.312941 -0.94329 -0.504912 -0.797301 -0.140948 -0.402808 -0.0728407 -0.28164 0.142316 0.339004 0.715388 -0.616708 0.781087 -0.0791126 -0.414988 0.135554 -0.0680848 -0.822446 -0.938614 -0.383096 0.90075 0.877862 -0.129377 -0.311861 -0.110173 0.861517 0.340735 -0.642131 0.122115 0.229154 -0.326126 -0.565173 0.285638 0.168734 -0.362702 -0.855539 0.76547 0.564001 -0.137634 -0.0924415 -0.0972237 -0.422475 0.290623 -0.316363 0.498184 0.875404 0.81896 -0.570132 -0.947269 0.880119 0.0465464 0.953254 0.757754 0.916939 -0.358608 -0.352419 0.778456 0.9819 0.00522278 -0.0996567 0.210827 0.678641 0.334715 -0.503991 -0.152851 0.971786 -0.359758 -0.387382 0.535787 0.502607 0.520176 -0.561438 -0.919641 -0.189202 0.122198 0.578314 -0.313798 -0.0588421 -0.99159 -0.26084 -0.178497 0.054952 -0.307587 -0.420743 -0.0281092 0.333578 0.22661 -0.249881 0.31525 -0.768394 0.650235 -0.47415 0.910247 -0.015052 0.0218564 -0.242605 -0.0432636 0.662101 0.370014 -0.507476 0.164708 -0.109811 -0.0689142 0.244839 0.700987 -0.946717 -0.176845 -0.612812 -0.00556056 -0.168664 0.126122 0.815716 0.886061 0.818307 -0.605254 -0.142274 0.151659 0.62113 0.607617 -0.53332 0.852508 0.257627 -0.00769576 0.762527 -0.757652 -0.986066 -0.480303 0.198859 0.675807 0.889481 0.691154 -0.159711 -0.220555 -0.377986 -0.9151 -0.519797 -0.32493 -0.0921711 -0.132835 0.66928 0.738936 0.993057 0.484771 0.624769 0.811136 0.879288 -0.517733 -0.0374312 0.50019 -0.910344 0.429019 0.352471 0.347054 -0.578906 0.11477 0.589174 -0.5652 0.634238 -0.212196 -0.88962 0.523492 -0.521269 -0.0495588 -0.697291 0.100516 0.0348878 -0.217542 0.775128 0.942486 0.649393 0.444181 0.681194 0.642223 -0.0712733 0.305737 0.453133 -0.192214 0.787775 -0.58453 -0.692253 0.877204 0.844489 0.660217 0.224258 -0.734645 -0.22524 -0.186795 -0.300073 -0.591229 0.600554 -0.190146 0.931809 -0.920943 0.760066 -0.76571 0.179347 -0.205047 0.0167467 -0.0455257 -0.262563 -0.333861 -0.601345 -0.581369 -0.691638 0.327378 0.724367 0.761721 -0.86461 0.512369 -0.822809 -0.556864 0.389573 -0.978547 -0.896874 -0.386397 -0.71342 -0.122341 0.426581 -0.013722 0.286203 0.0271325 0.796133 0.21801 0.106192 0.556198 0.452301 -0.714462 -0.64885 -0.530953 0.240011 0.0885873 0.135186 0.638666 0.507219 0.443551 -0.033953 0.231585 0.205042 0.101209 -0.256271 0.382008 0.544116 -0.866928 0.403233 0.647014 -0.25355 0.689584 -0.475553 -0.827199 -0.324361 0.810421 0.19971 -0.528458 0.0282063 -0.694327 -0.972487 -0.519722 -0.409015 -0.621564 -0.0509 0.830767 0.466798 -0.915943 0.469208 -0.0262104 0.527378 -0.564977 -0.794855 -0.267805 0.536003 -0.0513527 -0.886029 0.0798929 0.0814914 0.516975 -0.273322 0.82771 0.206331 0.250896 -0.999716 0.881742 0.0610886 0.199765 -0.646943 -0.910934 0.505211 -0.619658 -0.430884 -0.904033 -0.241449 0.517986 0.926507 -0.77488 0.601588 0.395259 0.198453 0.128739 0.830055 0.403599 
0.860656 0.365779 -0.648261 0.9744 -0.554554 0.432998 0.491144 0.171895 0.26048 -0.302752 -0.577436 0.260537 -0.421238 0.483422 -0.539922 -0.0684079 0.572264 0.965062 0.311706 -0.858848 -0.939199 -0.929966 0.658911 0.987081 -0.705074 0.260495 0.382336 0.493374 -0.610764 0.212393 -0.103255 -0.75006 -0.421776 0.248535 -0.775613 0.0237145 -0.318418 0.715582 -0.804338 0.942115 -0.587119 -0.381728 0.202703 -0.00830629 -0.898253 0.662827 0.923337 0.674058 0.627936 0.235095 0.815257 0.688785 0.305174 0.474213 0.675913 0.600148 -0.265241 0.0582999 0.093574 0.124044 -0.729258 0.990369 0.374029 -0.150985 0.23895 0.598465 0.87278 0.92058 0.314092 -0.931511 0.862741 0.727017 -0.313198 0.0654836 -0.281244 -0.211405 -0.271645 -0.357863 -0.537299 -0.643658 0.877282 -0.721995 -0.954827 0.1825 0.752267 0.721134 -0.217305 -0.512926 -0.220521 0.876325 0.61117 0.0502745 0.86674 -0.0147531 0.899336 0.105727 -0.41625 0.772157 0.0263526 0.897895 0.840692 -0.110859 0.624963 -0.472456 0.954683 -0.656227 0.316193 -0.316905 -0.0140399 0.77895 0.0394823 -0.136704 -0.942992 0.0847086 -0.954143 0.809326 -0.194105 -0.171396 -0.703548 0.585432 -0.295024 0.907669 -0.36425 -0.428237 -0.107035 -0.464862 0.677555 0.47677 -0.69265 -0.296038 0.374717 -0.851905 0.593164 -0.000267868 -0.324309 0.5479 0.343557 0.991944 -0.768954 -0.670421 0.770946 0.270582 0.19293 0.828006 -0.644648 0.238839 0.637384 0.161302 -0.9325 0.933888 -0.253217 -0.22747 0.841609 0.382589 0.344347 -0.265379 0.917782 0.0219496 -0.788554 -0.774821 0.725967 0.586214 -0.626679 0.319174 -0.414004 0.0490624 -0.132874 0.929606 0.0410532 0.0982191 -0.740767 -0.187953 -0.631148 0.45221 -0.359902 -0.27575 -0.308903 -0.722469 0.885602 -0.241353 -0.788534 -0.367565 0.531226 -0.946877 -0.984923 -0.124376 -0.212206 0.932905 0.897624 -0.000714212 -0.841868 0.623638 -0.414454 -0.468502 -0.0571376 0.171593 0.58061 0.810035 0.101246 -0.378297 -0.0917058 0.360518 0.433797 0.27719 -0.187227 -0.926055 -0.998508 0.503923 -0.648477 0.887141 -0.737384 -0.436968 -0.48038 0.793889 -0.383799 -0.465257 -0.330443 0.404049 -0.532295 -0.432767 -0.596616 -0.374119 -0.809081 -0.0110324 0.15742 0.133819 -0.839387 -0.261924 -0.0561003 0.261901 0.359833 0.852253 -0.377528 -0.206317 0.129495 0.435307 -0.13232 0.13104 -0.0607247 0.219254 0.0182314 0.201945 0.782346 0.537913 -0.00411611 -0.601397 -0.927288 0.6655 0.802701 -0.45954 -0.767218 -0.793868 0.166397 -0.576247 0.195161 -0.676126 0.557628 0.355823 0.0620032 -0.498418 -0.38222 -0.578104 -0.646109 0.240311 0.215633 0.483439 -0.324334 -0.916629 -0.385466 0.615003 0.302678 0.632827 -0.182998 0.0850775 0.17079 0.812946 0.483732 0.243555 0.478494 0.286485 0.784072 0.711332 0.492668 -0.049486 -0.864868 -0.312122 0.274436 0.692808 -0.956244 -0.663506 -0.805559 -0.338417 -0.241563 -0.451622 0.901947 0.974119 -0.968131 -0.422338 -0.942462 -0.353547 -0.807286 0.360265 -0.720671 0.00976443 -0.554605 0.450167 -0.177242 0.929178 -0.30623 -0.698697 0.215714 -0.522109 -0.987318 -0.291569 0.428454 -0.852138 0.39636 -0.297059 0.840717 0.440163 0.0394823 -0.964795 -0.898201 0.797966 -0.41637 -0.996208 0.772132 -0.38446 -0.418504 0.829712 0.262051 -0.225737 0.190029 0.541471 0.784122 0.635518 -0.00831712 -0.393074 0.564743 0.685499 -0.0917339 -0.219508 -0.83661 -0.0790048 0.488975 0.591945 0.0689161 -0.114609 -0.705067 -0.0903314 -0.674405 0.334454 -0.0550802 -0.572559 0.132468 0.528602 -0.56872 -0.0953539 -0.855851 0.0127767 -0.265592 0.406286 0.787145 0.9245 -0.0522358 0.571262 0.559961 0.939406 -0.821806 0.124756 0.624951 0.0864158 0.905253 0.788393 -0.992528 0.394231 0.380334 0.0763826 -0.720422 0.675225 0.986022 -0.394819 0.0096913 -0.0690516 0.0326257 -0.857831 -0.540441 0.46391 0.0468211 -0.396244 -0.523251 0.781243 -0.989945 -0.736106 0.705738 -0.0421815 0.835161 0.265747 -0.102729 -0.986645 -0.609493 -0.477773 0.0998232 -0.704235 -0.689371 0.1073 0.690005 0.690973 -0.816305 0.969634 0.366246 -0.830235 -0.425139 -0.62401 0.10076 0.607541 -0.481795 0.56037 0.0714995 0.565078 -0.835824 0.548299 0.346367 -0.825721 0.81224 0.0521533 0.132148 0.647448 -0.682048 -0.970531 0.66085 -0.291495 -0.448254 -0.239276 0.00431757 -0.137575 0.868075 -0.305631 -0.446557 -0.948183 -0.335949 0.919741 -0.778371 0.238965 -0.704222 0.322438 -0.153447 -0.185968 -0.117144 0.918102 -0.620843 0.0470779 0.466447 0.725572 0.221404 0.278728 -0.222234 -0.646401 -0.0737681 0.0958166 -0.616839 -0.412828 0.804371 -0.0650463 0.347943 -0.191265 0.797427 0.216064 0.503148 -0.649088 0.267919 -0.832753 -0.7293 0.489603 0.406262 -0.433475 -0.187911 -0.747143 0.380598 0.694987 -0.828993 0.759805 -0.257892 0.637507 0.485429 0.963563 -0.0837227 -0.736757 -0.682787 0.842564 0.359066 -0.299621 -0.570263 0.163437 0.63533 0.777681 0.972175 0.432757 -0.00625431 0.475329 0.783669 -0.738331 0.642576 -0.945627 0.751273 0.048836 -0.379101 -0.436687 0.301658 -0.998532 -0.741686 0.47267 0.761278 0.000427283 0.110176 0.246706 -0.0360041 -0.973532 0.509956 0.281209 0.869032 -0.130979 0.981587 -0.701231 -0.967539 0.616917 -0.92355 -0.995364 0.0496702 0.0701926 0.479961 -0.166654 0.331866 0.122544 -0.112277 0.0831453 -0.828608 0.508634 0.646517 0.473096 0.510149 0.904878 -0.0541837 0.271471 -0.0946428 -0.943953 -0.481775 0.869403 -0.917438 -0.971767 0.150664 0.951641 -0.102697 0.132298 -0.749543 -0.0701889 -0.250739 -0.673046 -0.0655055 0.798983 0.397195 -0.585493 -0.367623 -0.270887 0.537101 0.520152 0.81231 0.70854 0.0288324 0.458872 0.181687 -0.460972 0.363797 -0.872446 0.810551 -0.730798 -0.816352 -0.671172 -0.861347 -0.733739 -0.642888 0.28937 -0.782051 0.254458 -0.578292 -0.531553 -0.815686 0.171062 -0.204507 0.118899 -0.0299095 -0.807262 0.533454 0.602518 -0.0781029 0.0705999 0.122715 -0.265746 -0.220821 -0.848409 -0.806829 0.960921 -0.309331 0.557021 -0.911478 -0.498738 0.826265 -0.727789 -0.169853 0.964971 -0.461478 0.187301 0.254337 -0.243488 -0.558199 0.676134 0.225001 -0.37384 -0.152804 -0.979498 0.745062 0.81729 -0.786765 0.278517 0.419808 0.135134 -0.650881 -0.457475 0.869389 0.128298 -0.305888 -0.93744 0.0892192 0.384785 0.619581 0.177696 0.886018 0.445807 0.449917 -0.28384 0.410776 0.988439 0.903461 -0.334844 -0.255056 -0.654738 -0.658706 0.969951 -0.0285807 0.188489 0.990448 -0.283518 0.00577733 -0.796317 0.995002 -0.57441 0.338813 -0.655879 -0.0318888 0.208204 0.472424 0.662236 0.270767 -0.438348 0.0470269 -0.109646 0.739406 -0.0669078 -0.663785 0.189372 0.649305 0.747042 0.17786 0.552814 -0.58775 0.922854 0.898123 -0.246409 0.892853 -0.130407 0.942129 0.883348 0.586125 -0.0520429 -0.912922 0.581175 0.373593 0.42594 0.925343 -0.658243 -0.365807 0.397816 -0.99596 0.905012 0.95952 0.0511171 -0.204583 0.698974 0.98426 0.13168 -0.111606 0.633613 -0.121231 -0.933699 0.186482 0.291073 0.989208 0.0846513 -0.955292 0.882107 0.954287 0.98688 0.765497 0.540454 -0.065118 0.852668 0.12172 -0.691429 0.278654 0.0471088 -0.349626 0.912897 -0.555025 -0.34554 0.817956 -0.595458 0.70562 -0.38659 -0.896442 0.689932 0.745098 -0.00799822 0.323588 -0.376049 0.0583419 -0.489898 0.915073 0.0476035 0.594801 0.959823 -0.0702473 0.549129 0.946749 -0.304706 0.0896304 -0.118324 -0.452042 -0.788645 0.190248 0.826615 0.25846 0.840624 0.739512 0.703437 -0.504915 0.557467 -0.892021 -0.799294 -0.829119 -0.788463 0.890639 0.916026 0.203537 0.214181 -0.460058 -0.73815 0.7243 -0.544983 0.309446 0.319097 -0.58516 -0.760801 -0.131773 -0.638412 -0.0655126 0.957857 0.243264 0.482446 -0.830793 -0.566485 0.309061 0.427664 -0.725861 0.048573 0.131103 -0.230777 -0.39396 0.239082 -0.0300677 -0.223072 0.450622 -0.139422 -0.307042 -0.345833 -0.925184 0.232952 -0.083935 0.799164 0.688018 -0.774435 0.118312 -0.897095 -0.535189 0.986587 -0.53546 0.399347 0.944492 0.707853 -0.118154 -0.886255 -0.858585 -0.809042 0.541461 -0.584399 0.239583 -0.327389 0.184874 0.845673 0.911743 -0.845144 -0.377351 0.362414 0.0154829 0.315657 -0.983366 0.0903475 -0.451342 -0.0672505 -0.110442 -0.763276 0.158362 -0.992083 -0.660319 0.623225 0.994556 -0.195728 0.0226234 0.939095 -0.487831 0.904508 -0.947118 -0.346374 -0.904487 0.594435 0.0693166 0.335187 -0.732906 -0.745762 0.180907 -0.821116 -0.590859 0.803605 0.541346 0.424672 0.11931 0.558021 -0.484943 0.668016 -0.509225 0.404667 0.904787 0.649225 0.412625 -0.755495 0.272497 0.407234 0.0488226 -0.704841 0.34637 0.561028 -0.800286 0.399298 -0.785301 -0.704727 -0.00626742 0.284023 0.630461 0.260825 0.538255 -0.188631 0.439709 0.947396 -0.385026 -0.018945 0.372068 0.734285 -0.460918 0.887128 0.402292 0.0298951 0.291795 0.307033 -0.320915 -0.295612 0.551551 0.951584 -0.888377 -0.399634 -0.753257 0.457987 -0.838602 -0.553544 -0.142715 -0.623904 -0.258275 0.851018 0.660112 -0.62781 0.11184 0.198365 0.183558 -0.448451 0.145762 0.798534 0.532607 -0.482173 0.532818 -0.928311 -0.595035 -0.0648836 0.10159 0.696769 -0.757792 0.780728 -0.598792 0.793806 0.73236 -0.487126 -0.605776 0.97915 0.970916 -0.444335 -0.574347 -0.171749 -0.0681873 0.16743 -0.320686 -0.40803 0.539667 0.791206 0.790386 -0.276728 -0.657195 -0.0638032 -0.478147 0.87546 0.454073 -0.94528 0.947196 0.859087 -0.0101137 0.0488361 0.555903 0.232142 -0.170388 0.957158 0.0259946 -0.437983 -0.529917 0.420265 -0.458777 -0.558949 0.975987 -0.0330758 0.26935 -0.0921494 -0.865603 0.948705 0.499862 0.674106 0.740004 0.290338 -0.602527 -0.917144 -0.773417 -0.0806279 0.958363 0.680704 -0.0258616 0.905606 0.539838 0.964075 -0.0455111 0.0957787 0.196255 0.784147 0.0529441 -0.777695 -0.653788 0.523117 0.642613 -0.112534 0.964214 0.618647 0.854438 0.233606 -0.473462 0.988877 0.182356 -0.973558 0.663029 -0.0776389 0.316783 -0.939494 0.00521595 0.543364 -0.0201251 -0.0364226 0.224068 0.954016 -0.130817 -0.236094 0.91809 0.823672 0.859693 0.114345 0.607814 -0.0873233 0.33665 0.95398 -0.56424 -0.0207706 -0.15854 -0.600025 -0.402124 
-0.391425 0.546255 0.0247768 -0.408241 -0.270671 0.0553343 -0.749535 0.641194 -0.620024 -0.690638 -0.352981 -1.07324 0.298069 0.616987 0.146828 0.248928 -0.510767 0.912078 0.190072 -0.68556 0.773532 -0.699858 -1.06443 -0.305441 0.639219 0.88291 0.128553 -0.406624 -0.291307 0.497192 0.214809 0.433298 0.18115 -0.635581 -0.856948 -0.997945 0.510459 -0.526376 0.75676 -0.989781 -0.073721 -0.482273 -0.986324 -0.690017 -0.755534 0.283365 0.708113 -0.147833 0.307023 -0.0435499 0.248464 0.181943 0.371384 0.274792 0.936855 0.038095 0.206528 0.144507 0.735622 0.983298 -0.297012 -0.0396098 0.44414 0.918924 0.408574 0.685696 -0.976867 0.00386435 -0.76929 0.822137 -0.00664263 0.17568 -0.625428 0.0832892 0.511874 -0.359878 -0.648375 0.140469 0.432191 0.599907 -0.908537 -0.349541 -0.262611 0.359911 0.840025 -0.392172 -0.644558 0.0041598 0.694002 -0.95755 -0.0121748 -0.574126 0.0468206 -0.507108 -0.657184 -0.550154 -0.842307 -0.61416 0.415896 -0.632237 -0.800862 -0.591265 0.52531 -0.441125 0.459964 -0.0139817 0.140952 0.776297 -0.869844 -0.438109 0.384481 -0.783248 0.202853 -0.896039 0.588467 0.046151 -0.263494 -0.998137 -0.873515 -0.489916 -0.887598 0.192929 -0.00211407 0.224324 0.75106 0.439846 0.741951 -1.01584 0.905784 0.225135 -0.579573 -0.831392 0.727529 -0.982153 -0.201225 0.255261 0.0891336 -0.972156 0.139391 0.320998 -0.316599 -0.388943 0.62601 -1.02994 -0.176469 0.319126 0.150193 0.692069 0.427156 0.379827 -0.696683 0.646992 -0.334704 0.39504 -0.0353611 -0.494881 -0.0945186 -0.22391 -0.405469 -0.062571 -0.863201 0.148072 0.213333 -1.02593 0.250245 -0.909743 0.339022 -0.527033 -0.746884 -0.420228 0.855054 0.0119058 0.289915 0.617583 0.13415 -0.739813 0.0633317 -0.618794 1.01648 -0.425763 0.831434 -0.63097 -0.752353 -0.473715 0.87407 0.316296 0.133223 -0.174318 -0.864956 0.765567 0.774429 -0.70858 -0.0468781 0.0687534 -0.647731 -0.710755 0.228135 0.741315 -0.221408 0.49985 -0.655952 -0.315947 -0.42537 0.681297 -0.706361 0.636104 0.889312 0.302053 0.999915 0.851306 0.82821 0.74344 -0.838591 -0.962889 -0.744962 -1.04034 0.290342 0.351902 -0.238905 0.448295 0.160563 -0.432601 0.744947 -0.899636 0.617173 -0.899245 -0.654519 -0.189233 0.808162 0.127381 -0.671209 -0.827601 0.764365 -0.152197 0.778358 -0.980829 -0.517128 0.634245 0.314359 -0.54071 0.490292 0.13058 -0.777737 0.657347 0.183577 -0.466067 0.688413 -0.429765 -1.0404 -0.469757 -0.936513 0.166758 0.164836 0.894628 0.341894 -0.141083 -0.922558 0.77088 0.758239 -1.0225 -0.0187404 -0.843287 -0.815048 -0.209959 0.0954862 -0.919236 -0.0696551 0.670047 0.800754 -0.661175 -0.780014 0.37351 0.571002 -0.448199 0.158618 -0.113979 0.203944 -0.0375618 0.574866 0.260736 0.602479 0.731537 -0.492475 -0.170667 0.693222 -1.06789 0.787448 0.889224 0.853509 0.700278 -1.01109 -0.0519021 0.945195 -0.733306 0.854486 0.155941 -0.518534 -0.0852695 -0.0789972 -0.675416 0.347903 0.263424 0.868463 0.0718671 0.915154 0.108896 1.03788 0.21968 -0.815547 0.676388 -0.474377 0.797893 0.462105 0.0939566 -0.296712 0.234983 0.117036 -0.453862 0.133211 -0.0588959 -0.755466 0.176257 0.949675 -0.748344 0.488952 0.813075 0.402059 0.933602 -0.255636 -0.649342 -0.664423 -0.893313 0.585298 -0.827252 0.110597 0.462987 0.245307 0.0707179 -0.406839 0.282645 -0.32985 0.0697534 0.055894 -0.900497 -0.906597 0.694286 0.281282 0.166866 -0.759512 -0.550942 -0.88967 -0.52108 0.592175 -0.946326 -0.312197 0.0449681 0.89415 -0.895318 0.00994194 -0.38118 -0.592324 0.301357 -0.316589 -1.05173 0.425456 0.758813 0.386661 -0.358596 -0.159606 -1.03623 -1.06685 0.511965 0.0167883 0.032993 0.689072 0.194816 -0.198286 0.0475817 -0.580335 0.0793807 0.536592 -0.375878 0.627236 0.20403 -0.224434 -0.599729 -0.66491 -0.257204 -0.423243 0.41678 0.427182 0.0606875 -0.194022 -0.788057 0.10755 -0.681288 -0.952447 -0.417066 0.0480366 -0.0289304 -0.35613 0.106068 -0.356592 0.809744 -0.734378 -0.574698 0.104951 0.138058 0.556305 0.628365 -0.676483 0.193191 -0.647926 -0.956827 -0.501479 0.231332 -0.437762 -0.0396406 -0.927949 0.2531 -0.543358 0.598939 -0.574271 0.391453 0.921636 0.634979 0.823474 -0.958047 -0.651603 -0.00905302 0.188999 0.1113 -0.797735 0.875326 -0.0110221 -0.455829 -0.581853 -0.791858 0.750082 1.00394 0.864783 -0.895711 0.231459 -0.745405 -0.79837 0.768184 0.471807 -0.259712 -0.289417 0.585321 -0.940986 0.247193 0.241274 -0.467156 -0.313789 0.150004 -0.860048 -0.518332 0.204694 -0.552197 0.434985 -0.642022 0.540136 0.605593 -0.799327 -0.528192 -0.946998 -0.519653 -0.441278 0.719116 -0.554726 -0.610931 0.771971 0.611419 -0.414575 0.938924 0.344794 -0.970482 -0.331147 -0.920721 0.631625 -0.256595 0.313654 -0.145731 0.255926 -1.04464 -1.00172 0.358316 -0.625872 0.167129 0.806114 0.794633 0.499772 0.319123 0.3485 0.658344 0.764701 0.385527 -0.845355 -0.663243 0.120765 -0.398799 -0.24896 -0.0596276 -0.712639 0.393874 -0.0509917 0.702398 0.50934 0.715308 0.871275 0.234038 -0.44358 0.270184 -0.828189 0.877298 0.310535 -0.745442 0.335264 0.779765 0.522524 0.233261 0.665207 0.110877 -0.367039 0.0947493 -0.15424 -0.516004 -0.442864 0.089844 -0.053187 0.818036 0.836922 0.798741 -0.143892 -0.791234 0.290657 0.893493 -1.00366 -0.111315 0.704199 -1.02639 -0.786328 -0.642156 0.346174 -0.474196 -0.657669 -0.22506 -0.118457 0.817065 -0.287857 -0.488366 0.131999 -0.558261 0.737184 0.92963 0.702703 -0.273835 -0.489127 -0.637447 0.928005 0.544807 -0.752342 0.829505 0.42326 0.201685 -0.942521 -0.247366 0.0995057 -0.897093 0.659801 -0.155414 -0.873317 0.923513 0.202615 0.470718 -0.591631 0.548626 -0.705834 0.356998 0.407239 0.0186721 0.882608 -0.483481 0.441547 0.599376 -0.625202 0.0727423 -0.719028 -0.158265 0.402848 -0.842921 -0.658779 0.588535 0.891708 0.65872 -0.346407 0.855408 -0.692287 0.693868 0.939091 0.939402 -0.517502 -0.985465 0.787447 0.638764 0.45503 -0.790606 0.214251 0.772326 0.582519 -0.375032 -0.236027 0.451148 0.0984125 -0.844605 -0.023428 0.47574 0.226915 0.237903 -0.682648 -0.396574 0.330983 -0.388877 -0.855435 0.191717 -0.745924 -0.188309 0.0701818 -0.421697 -0.464779 0.0466949 -0.444936 0.0602026 0.119887 -0.594972 -0.212769 -0.31453 -0.271425 -0.892063 -0.452299 -0.61478 -0.19966 0.371425 0.876548 -1.01459 0.624781 -0.0593599 0.537866 -0.0693127 -0.740332 -1.05964 0.603986 0.667468 -0.37345 0.831514 -0.0593036 -0.038546 -0.249749 -0.848685 0.659161 0.401742 0.314427 -0.657526 -0.41274 -0.43926 -0.161551 0.462666 0.321628 0.669982 0.65358 0.939027 -0.885442 -0.458866 0.416138 -0.866765 -0.352675 0.18774 0.216429 -0.678609 -0.794545 0.538359 -0.633226 0.938824 0.354393 0.116614 0.881841 -0.598091 -0.808487 -0.29104 -0.388889 0.960193 -0.800712 1.03379 -0.67926 -0.217929 -0.449451 0.143216 -0.775634 0.866588 -0.17288 0.894086 0.825326 -0.0520113 -0.580306 0.234596 0.102068 0.14064 -0.541299 -0.683844 0.434035 -0.358994 0.825905 0.783768 -0.499772 0.157053 -0.119858 -0.630862 0.492826 -0.00350236 0.000318617 -0.956119 -0.180395 0.0321596 0.899158 0.018291 0.722938 -0.590315 -0.875936 0.903631 -0.78534 -0.132646 0.695215 -1.06144 0.771739 -0.823174 0.226415 -0.110125 0.320872 0.677978 0.215566 -0.261219 -0.730967 0.00783986 -0.520917 -0.252405 -0.910445 0.285706 0.0785343 0.562057 -0.751453 -0.971126 0.566714 0.0436689 0.0756898 0.477704 -0.927266 -0.1858 0.902533 -0.799375 -0.257743 -0.863585 0.111786 -0.471183 -0.824768 -0.0139521 -0.209728 0.48811 -1.01979 -0.846161 0.217471 0.211937 -0.065081 0.540005 -0.731786 0.469926 -0.623236 -0.545227 -0.151993 0.528199 -0.926272 0.155575 0.630279 0.71843 -0.71365 -0.200019 0.304338 -0.50118 0.749481 0.376666 -0.177746 -0.382564 0.621631 -0.951203 0.270411 0.886794 0.119063 -0.890798 0.426156 0.140939 -0.647518 -0.248913 -0.569014 0.402679 -0.598549 -0.172039 -0.00836155 -0.0978951 0.384591 0.92475 -0.458683 0.566102 0.213283 -0.707544 0.380943 0.605663 0.191202 -0.205585 -0.865938 -0.00442505 -0.828094 -0.0129142 0.588553 0.782125 0.00274642 -0.147023 0.676642 -0.912779 -0.0664506 0.0622744 0.208559 0.289957 0.772554 0.624971 -0.324984 -0.750892 -0.476381 0.707314 0.15765 0.853973 0.599868 0.626114 0.387425 -0.22745 0.900577 -0.240679 -0.66405 0.0269864 0.455586 -0.627181 0.864353 0.493722 0.194253 0.387964 0.20073 -0.857881 -0.86874 -0.233782 -0.821594 0.0207946 0.765281 0.324701 -0.676334 0.621667 0.0282782 0.0414036 0.848007 0.543176 -0.292222 -0.0510458 0.325439 -0.730838 -0.453419 -0.322568 -0.00988375 -0.625145 0.360456 0.201602 0.312586 -0.254705 0.53943 0.155336 -0.775956 -0.243181 -0.455001 0.420323 -0.101457 -0.291452 -0.791144 0.103781 0.782958 -0.961877 -0.493356 -0.84481 0.691997 0.565143 0.233184 0.561896 0.0921604 -1.03999 -0.451367 -0.545293 -0.753334 0.124655 0.163279 0.252556 0.542892 -0.41896 -0.453622 -0.0788274 0.374002 -0.853173 -0.846944 0.681971 0.0133493 -0.156291 0.247207 -0.932489 0.675459 0.588404 0.304073 0.568646 0.720574 0.908085 0.816312 0.48774 0.518129 0.105124 0.149262 -0.290661 0.151827 0.806562 0.284861 0.512699 0.0421158 -0.42164 -0.101242 -0.300766 0.273168 0.559231 0.741089 -0.24781 0.81819 0.996661 -0.440779 -0.0575447 -0.0936485 0.844138 0.00833069 -0.409841 0.409514 -0.690573 -0.861459 0.0982662 -0.831135 0.909636 -0.464121 0.623893 -0.0267603 0.676692 -0.69929 -0.913729 0.444455 0.634206 0.656456 -0.494162 -0.776446 -0.483518 0.158669 0.439958 -0.929342 -0.120387 -0.858112 0.851135 -0.170096 -0.373693 -0.323603 0.619596 -0.680249 0.526468 -0.975733 0.580377 0.704236 -0.90031 -0.3754 0.777171 0.926158 0.0807153 0.319798 -0.152746 -0.243171 0.694435 -0.0255872 -0.761897 0.334275 -0.377135 -0.28082 0.488701 0.0865568 0.847568 -0.154399 0.0877747 -0.353707 -0.088322 -0.148803 0.387164 0.44297 0.43348 -0.062439 0.746973 -0.0367692 -0.0100609 0.320241 -0.342637 0.0812557 -1.03428 -0.531055 0.0374358 0.10728 0.862863 -1.06099 -1.07564 0.601189 -0.0379621 -0.805793 
0.0450688 0.699622 0.0120114 -0.464313 -0.200188 -0.155026 0.395049 0.916338 0.514727 -0.650162 -0.197507 -0.0597754 0.85219 -0.707249 0.951835 0.661345 0.336903 0.0233916 0.0783032 -0.904541 -0.798158 0.134977 -0.345687 0.336348 -0.665149 -0.390323 0.36776 -0.658373 -0.724128 -0.605088 -0.412711 0.295034 -0.93119 0.573595 0.808867 -0.139708 -0.585802 0.199761 -0.227478 0.924816 0.545492 0.570893 -0.13938 0.393086 0.864673 -0.20427 0.0378181 0.184977 0.798804 -0.904373 0.25997 0.980376 0.204891 0.888542 0.290854 0.513843 -0.527678 -0.367166 0.829681 -0.259822 0.0197195 -0.591037 -0.973051 0.0802478 0.964351 0.817608 0.922351 -0.629725 0.00909697 -0.313395 -0.713177 -0.453678 -0.750787 0.139151 0.93124 -0.894312 0.926972 -0.0388156 0.282806 0.717903 0.0488491 -0.465161 0.690256 -0.754228 -0.584645 -0.0269594 0.751602 -0.120286 0.59546 0.570804 0.609167 -0.393093 0.971495 0.627848 0.678903 0.937517 0.459495 0.615296 -0.678163 -0.529732 -0.696428 -0.389674 0.0151687 -0.448888 0.747368 -0.0526142 -0.342051 0.678994 0.913305 0.945512 0.398545 -0.0358183 -0.517336 0.091071 0.211733 -0.100315 -0.934223 -0.0350189 0.781052 0.665357 -0.460091 0.411855 -0.706276 -0.46704 0.0437507 0.976845 -0.525405 -0.504601 0.584266 -0.216876 -0.0481637 0.87018 0.385097 0.957892 -0.583892 0.10634 -0.116892 0.0521993 -0.22211 -0.210814 -0.00940951 -0.830844 0.762832 0.482548 0.269655 -0.0295496 -0.621726 0.331384 0.927549 -0.848724 -0.0111852 -0.540543 0.537618 0.257193 -0.0331669 -0.438775 0.213904 0.421396 0.0131955 -0.245231 -0.833441 0.944706 -0.391525 0.531313 0.886203 0.00837099 -0.361048 -0.229393 -0.938152 0.418142 0.560764 0.0534035 0.588155 0.306913 -0.480727 -0.158567 -0.742947 -0.122928 -0.847515 -0.835842 0.00791586 0.120861 -0.396858 -0.474934 -0.642394 0.549629 0.0604913 0.5457 -0.054534 -0.934336 -0.707546 0.11139 1.00969 -0.0997616 -0.365622 0.887607 0.900342 0.247551 -0.36757 0.953919 -0.325079 -0.815096 -0.0184854 -0.762457 0.483801 0.492775 0.0709794 0.732809 -0.638192 0.215392 0.888988 0.361742 -0.671767 -0.515937 0.876299 -0.324628 -0.976716 -0.0711695 -0.786877 -0.0395034 -0.0137613 -0.502671 -0.943993 -0.0199177 0.394098 -0.313078 -0.135781 0.278594 0.936147 0.498323 0.21357 -0.408121 0.681116 -0.803479 -0.169469 0.169564 0.693626 0.906273 -0.0959167 -0.94241 0.123987 -0.204647 0.421005 0.453902 0.281093 0.301462 -0.866452 0.308597 -0.769394 -0.631674 -0.713375 0.23829 -0.134357 -0.653249 -0.773586 -0.744217 0.0296815 0.0827195 0.526115 -0.0477892 -0.43269 -0.271002 0.534921 -0.777704 -0.101046 -0.656423 0.384465 -0.414644 -0.757248 -0.718762 -0.343758 0.379982 0.0900029 -0.930819 -0.174011 -0.636796 0.362768 -0.0486391 0.663613 0.589129 0.294031 0.934162 -0.188651 -0.856433 -0.740642 0.0121749 -0.644139 0.245612 -0.94846 0.856108 -0.82269 -0.401509 -0.435242 0.696005 -0.177922 0.465013 -0.959119 -0.792212 -0.948678 -0.715425 -0.510121 -0.313064 0.643936 0.559502 -0.264328 -0.55074 0.902033 -0.921956 0.38029 0.545331 0.64674 -0.34614 0.453574 -0.567774 -0.228425 0.687072 0.418849 0.119391 -0.0852455 0.469765 -0.0251896 0.101243 -0.940076 0.531301 -0.21103 -0.143791 -0.0119682 -0.178419 0.073241 0.013568 0.080362 0.537581 0.692496 -0.283715 0.0890859 -0.579763 0.157654 -0.016791 -0.509638 -0.469964 -0.479378 -0.873318 0.173439 0.963732 -0.449155 0.937059 0.642864 0.961508 0.0482 -0.440752 0.415387 -0.99281 0.656974 0.471786 0.535014 -0.569844 -0.670276 -0.492789 0.232798 0.383777 0.518671 -0.685852 -0.0775337 0.215808 0.0352047 -0.983569 0.637881 -0.804922 0.00185387 -0.869597 -0.273004 0.52411 -0.738835 0.904346 0.509639 -0.16618 0.859241 0.156645 -0.204651 -0.088622 0.715876 -0.785228 -0.0735645 0.368888 0.677177 -0.551812 0.785377 0.998768 -0.052734 0.0129338 0.373613 -0.560071 0.301013 -0.725973 0.648125 -0.671039 -0.716797 0.278575 -0.462706 0.298301 0.422387 0.256015 -0.185504 0.675641 0.152421 -0.701541 -0.516351 -0.0101048 0.429419 0.257576 0.879786 0.129223 0.456315 -0.213794 -0.545338 0.0955247 0.196545 -0.780369 0.0738179 -0.876707 0.212161 -0.569066 -0.435717 -0.485574 -0.293792 -0.786361 -0.155929 -0.00991032 0.49304 0.360969 -0.731996 -0.104961 -0.403525 0.0618258 -0.450001 0.728494 0.33994 0.0134163 -0.301812 -0.250855 -0.749482 -0.442798 0.852231 0.680936 0.317632 -0.701374 -0.24173 -0.486248 -0.482293 0.841487 -0.371282 0.721607 -0.735889 0.16716 -0.77229 -0.0379624 0.39009 0.0462807 0.92663 -0.142385 -0.600745 -0.813405 0.744637 -0.0122176 0.240561 -0.713248 -0.291639 -0.427405 0.289811 0.395885 0.311034 0.532328 0.945106 0.155313 0.205325 0.254805 0.445894 0.965484 0.752678 0.947783 0.803446 -0.622127 0.665908 -0.948203 0.546806 0.87782 -0.00506319 -0.0822945 -0.078014 -0.0774568 0.776429 0.32588 0.113933 0.525941 -0.684505 -0.643287 0.814903 0.0259774 -0.0688119 0.109049 -0.573742 -0.757798 -0.337062 -0.611001 0.419302 0.868459 0.642296 -0.136306 0.832362 0.399015 -0.184598 0.628018 0.772956 -0.522552 0.671493 0.307638 -0.656773 -0.338716 -0.779589 0.260459 0.579181 0.974768 -0.438681 -0.331715 0.497391 -0.130571 0.0343576 0.317654 0.904905 0.957264 -0.581399 -0.676988 -0.800555 0.0597906 -0.305895 0.597017 -0.0936219 -0.679721 -0.555412 -0.271748 0.70884 0.249432 -0.660305 0.443819 0.688953 0.977173 -0.265087 -0.984433 -0.378057 -0.0612139 0.259708 -0.815159 -0.0852121 0.822298 -0.14615 -0.591091 -0.307452 0.871751 0.710105 -0.418987 0.812448 -0.888037 -0.112666 0.991446 0.151277 0.561101 0.568259 -0.962504 0.860974 0.992031 -0.260437 0.543858 0.215613 0.0434797 -0.0305968 -0.0961716 0.0300453 0.713709 -0.0886354 0.643688 -0.355813 -0.837246 0.820249 0.550702 0.976821 -0.351406 0.934107 -0.35615 -0.487659 0.636217 0.21684 -0.683111 0.740263 -0.903717 -0.699619 -0.118875 0.646971 0.857914 -0.089581 0.49999 0.842008 0.641987 0.0358579 0.049632 -0.312645 -0.99284 0.937894 0.701581 0.717356 -0.154272 0.341821 -0.654214 -0.00726891 0.146265 0.87759 -0.0496378 0.792747 0.812668 0.595309 -0.690271 0.45364 -0.182958 -0.371598 0.196077 -0.0844988 -0.0690895 -0.918458 -0.433196 -0.20675 -0.00387563 -0.91168 -0.343256 -0.344353 0.12829 0.697824 0.338402 0.126841 0.63976 0.0510613 -0.156572 -0.515299 -0.614941 0.180909 0.469255 0.523061 0.0533927 -0.592493 0.304109 -0.145679 0.983937 0.591897 -0.713874 -0.20243 -0.783268 0.495589 0.722458 0.157269 0.56886 -0.718838 0.942375 -0.443158 -0.65621 -0.426624 0.190574 0.446202 -0.74194 -0.483871 -0.434265 0.890482 0.552616 0.388716 -0.66286 0.899603 -0.468387 0.785908 0.402171 0.564488 -0.819976 -0.306999 -0.59441 -0.834798 -0.71383 -0.307454 -0.0404061 -0.500088 -0.832246 -0.338337 0.636786 0.7161 -0.0778718 0.558464 -0.74753 0.245479 -0.888297 0.422911 -0.32845 -0.650656 0.918197 0.211022 -0.786456 0.434857 -0.436236 -0.467639 0.326091 0.0870067 -0.690143 -0.262344 -0.339093 -0.500586 0.422424 0.0582336 -0.343655 0.700335 0.725033 0.590157 -0.825531 0.88499 -0.755924 0.803483 0.593226 0.158289 0.351585 0.834981 -0.606935 0.455027 0.249874 0.0566034 0.796107 0.160066 -0.74039 -0.998339 -0.40312 -0.174672 -0.464037 0.924925 0.914289 -0.139883 -0.340895 -0.428233 0.343735 -0.934253 0.614201 0.981139 0.746889 0.337796 0.57297 0.92315 0.227478 0.821801 0.731516 -0.177511 -0.0181764 0.08729 -0.338095 0.379065 -0.453768 0.916153 -0.563705 -0.635686 0.0937616 -0.28262 -0.633916 0.689121 0.541194 -0.0994639 0.618133 0.459572 0.752854 -0.730568 -0.97253 0.0883034 -0.673042 0.629429 0.0642878 -0.931066 -0.0377763 -0.367911 0.969477 -0.835827 -0.571441 0.697129 -0.021172 0.419947 -0.209952 0.650302 -0.208846 0.328411 0.558095 0.227007 0.670927 -0.365925 0.922466 1.0151 -0.693169 0.447693 -0.0948315 0.914599 -0.103363 -0.358537 -0.850125 -0.114025 0.695575 -0.539737 -0.501118 -0.256673 -0.487468 0.444576 0.359081 -0.516752 0.609955 0.788418 -0.822798 -0.410456 0.191754 -0.0493786 -0.776774 0.966267 -0.737661 0.764667 0.172681 0.912762 -0.621494 0.0750204 0.907718 -0.334982 -0.498097 -0.213337 -0.446602 0.362645 0.392166 -0.315104 -0.759796 0.0793586 0.136747 -0.25157 0.832093 0.65878 -0.81526 0.182945 -0.866198 0.786468 -0.0544243 -0.714785 -0.649799 -0.870461 0.228084 -0.4343 -0.912169 0.479994 -0.680058 0.249798 0.384499 -0.309814 -0.683188 0.284207 0.346947 -0.189284 -0.937187 0.892298 -0.824741 0.456876 -0.420863 -0.582594 -0.461814 0.730234 0.162402 -0.633158 0.373203 0.331223 0.533822 0.487934 0.0984929 -0.522033 0.77482 0.450754 -0.387576 0.00778085 -0.978779 -0.298038 -0.508486 -0.655099 0.955708 0.880639 0.0394581 -0.728558 0.160045 -0.600854 0.100353 0.244535 -0.704646 0.27625 -0.297955 -0.124675 0.697786 0.247455 -0.39916 -0.144616 0.606397 0.965718 -0.821526 0.132087 0.448621 0.273064 0.605949 0.219337 -0.278158 -0.786626 -0.795229 -0.286346 -0.114002 -0.297639 0.0685165 -0.148336 -0.424862 -0.899858 0.120686 0.736218 -0.513272 -0.795448 -0.0319861 -0.234402 0.471432 0.657159 0.633516 0.161914 -0.106055 -0.78224 1.00075 -0.533827 -0.850681 -0.854943 0.581692 0.581392 0.400623 0.170316 -0.216602 -0.897954 0.363419 -0.0147564 -0.183286 -0.749816 0.670744 0.86842 0.0852786 -0.770746 0.951927 -0.810624 0.948847 -0.581916 -0.622409 -0.103286 0.163536 0.82872 -0.466643 -0.238847 -0.0452764 0.391088 -0.0473787 -0.0708639 0.848825 0.0934707 0.0657677 0.439878 -0.315744 -0.524153 -0.398044 0.459428 -0.430327 0.95689 -0.58138 0.360332 -0.818446 -0.918345 0.221032 0.259069 -0.69956 0.162489 0.437973 -0.758993 0.572297 0.807277 0.129698 -0.27217 0.627736 0.654767 0.490594 -0.415919 0.0477492 -0.554891 0.515154 -0.101474 0.540572 -0.404721 -0.665021 -0.778602 0.0553159 -0.0790287 0.66486 0.60902 -0.138005 -0.914833 -0.0289564 0.045568 -0.831393 -0.806125 -0.693677 -0.530727 0.356144 0.744069 -0.291234 -0.0723727 0.554211 0.846774 0.660026 0.18262 0.502162 0.154721 0.785045 -0.431863 0.618045 0.304178 0.470797 0.16583 0.894685 0.792692 
0.335473 -0.102154 -0.330007 0.0254775 -0.468261 0.557059 0.102734 0.495135 -0.404802 0.263357 0.681017 -0.106839 0.728219 0.0232415 -0.376362 -0.571226 0.952091 -0.825188 -0.727181 0.613152 0.358442 0.752939 -0.254309 0.106148 -0.693071 -0.650289 -0.603613 0.78698 0.520081 -0.704057 0.569808 -0.117074 0.221148 -0.733176 0.902179 0.746923 0.818148 -0.022508 0.214642 -0.614401 -0.76513 -0.110315 0.272802 0.957377 0.917181 0.900382 -0.609601 0.873798 -0.920266 -0.332239 0.491484 0.442714 -0.55165 -0.735054 -0.422481 -0.215972 -0.356592 0.00341238 -0.422578 -0.828461 0.307414 -0.844765 0.0624646 -0.463435 -0.559495 -0.00399344 -0.685149 -0.720189 -0.98655 0.546331 -0.317756 -0.745055 -0.534247 -1.01522 -0.757942 -0.587335 0.914896 -0.337813 -0.683804 -0.975638 0.35968 0.837411 0.496809 0.837765 -0.86573 -0.89376 -0.346296 -0.192593 0.139386 0.260858 0.00658872 -0.525443 0.447291 -0.897651 0.0442962 0.907319 0.105256 0.368228 -0.805426 0.11732 -0.0697261 -0.10582 0.387977 0.415564 -0.111726 0.639443 0.837687 -0.177153 -0.677145 -0.824628 -0.130951 0.698923 -0.971151 -0.618435 0.558369 -0.793985 -0.469299 -0.747188 0.0307712 0.687416 0.536122 -0.938331 -0.813587 -0.000721716 -0.820246 0.246144 -0.103269 0.271748 -0.400976 0.102904 -0.597437 0.569422 -0.962927 0.840983 0.0126808 -0.0468607 0.497954 -0.122031 0.813795 0.856387 0.0784076 -0.29225 0.584328 0.136199 0.117474 0.16864 0.334641 0.641157 0.414426 -0.654519 0.308613 -0.0745325 -0.59562 0.491814 0.921106 -0.395008 -0.242501 -0.136904 0.902446 0.383909 -1.00663 -0.667969 -0.0424981 -0.965279 -0.832984 0.94267 -0.0294484 0.647331 -0.185719 -0.222009 0.49761 0.886583 0.479435 0.0755757 0.0164972 -0.40879 -0.76148 -0.64435 -0.7631 0.657481 -0.271224 0.573235 -0.389337 0.172116 0.0940881 -0.438768 0.773264 0.859641 0.43238 0.683706 0.251541 0.43374 -0.965826 -0.759596 0.499817 -0.767451 -0.776987 -0.512792 0.886505 0.0439198 0.294935 0.413848 -0.0414024 -0.1959 -0.48248 -0.99516 0.423406 -0.214231 -0.609779 0.690042 -0.525374 0.150365 0.296823 0.117197 -0.652367 -0.575908 0.711609 -0.84928 -0.691525 0.170473 0.857007 0.587683 -0.369864 0.910983 0.834991 -0.860956 -0.857862 -0.94173 -0.352872 -0.950544 0.121331 0.961512 0.472603 -0.909015 -0.224936 -0.988564 -0.881076 -0.778056 -0.179425 -0.469263 0.930984 0.312651 0.700655 0.27046 -0.527248 -0.914469 0.708693 -0.801748 -0.746453 -0.960705 0.389352 -0.868497 0.64783 -0.960003 -0.960407 0.474311 -0.831557 -0.805736 0.549471 -0.144338 -0.716167 -0.288894 -0.164776 0.784716 -0.169949 0.647543 0.833403 -0.0156888 0.894669 -0.32075 0.540245 0.852787 -0.98162 0.254948 0.114202 -0.517517 0.34204 -0.18846 -0.330647 0.580688 -0.151895 -0.944556 0.721424 -0.491326 -0.893013 0.781042 -0.993456 -0.699411 -0.997081 0.583588 0.160984 -0.708789 -0.700843 -1.02143 -0.941738 0.111546 0.619944 0.885511 -0.910267 0.50825 -0.441593 0.623617 0.354678 -0.428914 -0.118566 -0.52825 0.0564465 -0.771997 0.30072 0.744921 0.838041 -0.820832 0.829407 0.565823 -0.318185 0.932006 0.344644 -0.303401 -0.759118 0.355548 -0.678278 0.433195 0.678084 -0.394001 0.42856 0.753172 0.747266 0.0782237 0.666782 0.866734 -0.385429 -0.745079 0.518447 -1.00102 -0.144267 -0.568746 -0.497902 0.943561 -0.307739 0.83583 0.722031 -0.447998 -0.959857 0.574404 -0.860767 -0.248221 0.531152 0.510291 0.470962 0.7997 -0.106606 0.789381 0.239796 -0.419435 -0.582008 -0.307375 -0.641936 -0.814752 0.789113 -0.957517 -0.938707 -0.585285 -0.691509 0.600958 -0.563203 0.191146 -0.944419 -0.0395076 0.152442 -0.211612 -0.161021 -0.0850558 0.3602 -0.106742 -0.496817 0.514574 0.658584 -0.943539 0.0471367 0.153959 0.877315 0.961336 -0.0361664 0.135152 -0.468707 0.370306 0.817221 -0.0739982 0.599425 0.650405 -0.0103073 0.688266 -0.907565 0.3252 0.312811 -0.445398 -0.451699 0.407263 0.550273 0.725707 -0.800509 -0.609291 -0.36808 0.550957 0.275312 0.124313 0.0512692 -0.0816138 0.174594 -0.904863 -0.907039 0.0646525 -0.93198 0.0434957 -0.803192 -0.375534 -0.558763 -0.958397 0.555204 -0.958434 0.692683 -0.475913 0.70902 0.764312 0.850196 0.0261897 -0.68039 -0.611016 -0.575985 0.860357 -0.894834 -0.387381 -0.759742 -0.263536 -0.835372 0.539727 0.907777 0.257828 -0.534753 0.0793935 0.358909 -0.445647 -0.851772 0.422536 0.595636 -0.656935 -0.944709 -0.954909 -0.573797 0.641819 -0.88202 -0.895992 -0.817291 0.843826 0.898042 -0.93737 -0.101889 -0.754254 -0.520291 0.35186 -0.864165 -0.385397 -1.00415 -0.592538 0.382439 -0.808151 0.957089 0.292086 0.460117 -0.555962 -0.608993 -0.161451 0.0163612 -0.442787 -0.71072 -0.358262 -0.0698795 -0.625583 -0.285505 0.350837 -0.979044 -0.158436 0.482537 -0.768206 -0.288647 0.400572 -0.686021 0.620341 0.657262 -0.195369 -0.00650137 0.814324 0.440712 0.0111896 -0.756399 -0.155254 0.224217 -0.756674 -0.822989 -0.27549 -0.296952 -0.416039 0.579007 0.734853 0.158298 0.888604 -0.599394 -0.889356 -0.717957 0.135911 0.481999 -0.679011 0.966784 -0.052 -0.458207 -0.282999 -0.612626 -0.108737 -0.640112 -0.933007 0.717879 0.375569 0.903499 0.180531 -0.591716 -0.831376 -0.952986 0.664195 -0.579143 -0.76708 -0.612651 0.123607 -0.183206 0.943214 -0.175099 0.939237 0.815149 0.232239 -0.929831 -0.88179 -0.62207 0.559275 -0.561377 -0.627821 -0.475354 0.0145062 0.0919673 -0.0855232 0.89786 0.429143 -0.0415476 0.593226 -0.194934 -0.137269 -0.225032 0.214324 0.0322277 -0.177339 -0.130999 0.441628 0.0443893 0.245218 -0.444228 0.885103 0.225241 0.433021 0.831146 0.0581347 -0.328385 0.897459 0.172491 0.0473185 0.454507 0.619103 0.427718 -1.01287 -0.335065 -0.440691 -0.0587727 -0.453726 -1.00496 0.906599 -0.830474 -0.169869 -0.202381 -0.0274185 -0.927446 0.859589 0.824986 -0.0287199 0.332584 -0.0992558 -0.752123 0.91973 -0.21446 0.4852 0.363191 -0.36161 -0.437137 -0.945664 -0.43596 0.765184 0.129841 -0.951713 0.412495 -0.412592 -0.934746 -0.928056 0.141226 0.00319422 -0.354966 0.163505 -0.0642526 -0.164573 -0.985914 0.767521 0.842066 -0.879312 0.625128 0.665175 0.0903773 -0.0204284 -0.412284 0.359841 -0.0795185 0.415645 -0.118361 -0.67618 -0.930003 0.474213 -0.605877 -0.350505 0.244674 0.544274 -0.278219 -0.320605 -0.849304 -0.194272 -0.228134 0.312093 0.798225 0.401222 -0.536661 -0.227255 -0.724548 -0.486995 -0.460361 -0.883123 -0.36743 -0.813061 0.804241 0.744781 0.187817 -0.586606 0.126311 -0.870116 0.827765 -0.989791 -0.547689 0.897717 0.47412 -0.176714 -0.475901 -0.307096 -0.628555 0.252493 0.4032 -0.466766 -0.93188 -0.838112 0.842448 0.893869 0.590927 -0.669859 -0.330799 0.868103 -0.154508 0.186634 0.962923 0.454477 0.372897 0.766826 0.202732 -0.438116 -0.81869 -0.672562 -0.307686 -0.992034 -0.663347 0.1437 0.916634 0.844882 -0.975793 -0.507188 -0.455177 -0.607185 0.731079 0.933782 -0.0782575 0.806824 -0.896675 -0.228147 0.708401 0.701659 0.142714 -0.583083 0.609558 0.970721 0.609212 0.578498 0.455222 0.0121317 0.375359 -0.3146 0.603645 0.586295 0.0425665 -0.674308 0.625629 0.410591 0.500765 0.563421 0.253529 0.525206 -0.945169 0.820055 0.937542 0.815646 0.783663 -0.110888 0.652293 0.916727 0.690814 0.39054 0.648227 -0.172231 0.801969 0.2545 -0.179507 0.456443 -0.119576 -0.676864 -0.507444 -0.734817 0.0178482 -0.894576 0.870968 -0.919971 -0.571786 0.493707 0.487651 0.948592 0.075034 -0.218075 0.510398 0.170011 -0.380421 0.467434 0.00326146 -0.582915 -0.629839 -0.330627 -0.638719 -0.918205 -0.917861 -0.978812 -0.0696321 0.902641 0.263591 0.761657 0.350263 -0.840084 -0.922303 0.832108 -0.575764 0.0944289 0.936399 -0.705736 0.173763 -0.613774 0.809274 -0.317146 -0.643576 -0.0923547 0.465213 0.869053 -0.922064 -0.938682 0.313338 0.0576509 -0.521617 0.706531 0.748915 -0.145678 0.797147 0.839464 -0.114991 -0.273723 0.740873 -0.823016 -0.506663 0.0832329 -0.672623 -0.428556 -0.0843828 -0.271845 0.632397 -0.171237 0.0226161 -0.192097 0.216956 -0.168241 0.489556 0.572154 0.740255 -0.0446765 0.441839 0.818761 0.0509472 -0.210773 -0.0892265 0.556915 -0.509947 -0.344793 -0.592818 -0.717114 -0.509645 0.287531 0.00459073 -0.77298 0.459083 0.492504 0.338044 0.814297 -0.918221 -0.75427 -0.441694 0.73031 0.103532 0.610055 -0.433933 -0.651652 -0.52815 -0.914645 0.950233 -0.758163 0.0704111 0.421803 -0.909668 -0.859111 -0.769441 0.0206237 0.719504 -0.247482 0.707747 -0.843579 0.0652352 -0.772071 0.473776 -0.900417 -0.515191 -0.0372851 0.621926 0.827306 -0.214817 0.71189 -0.901531 0.388329 0.488354 0.245975 0.0193249 -0.93618 0.603633 0.500394 -0.831336 0.573485 0.739333 0.236197 -0.00767855 0.847644 0.395038 0.263681 -0.0891333 0.154909 -0.966231 -0.364052 0.328667 0.116247 -0.118849 -0.180304 0.243287 0.393288 0.811345 -0.12654 0.230928 -0.398562 -0.424582 0.340431 0.977905 -0.923773 -0.424131 -0.0134812 -0.860837 -0.821617 -0.514222 -0.693085 0.751171 -0.753077 0.56452 -0.235078 -0.882295 -0.0172808 -0.971025 0.0282735 -0.862662 -0.960659 0.641373 0.443029 0.155742 -0.454487 -0.714484 -0.592296 0.924705 -0.918493 0.280169 0.153493 -0.318272 0.87966 -0.504204 -0.33889 0.956964 0.0729947 0.648406 -0.916479 0.228185 -0.888984 -0.619289 -0.0180039 -0.640732 0.943882 0.744052 -0.524703 -0.072553 0.773345 0.504204 0.0756249 0.84688 0.179532 -0.467687 0.0162674 0.715603 -0.181078 0.428962 0.644963 -0.0949162 -0.286215 -0.195998 0.591572 -0.401794 0.304587 -0.719962 -0.417427 -0.585105 0.919589 -0.329305 0.648007 -0.941363 0.079201 -0.344039 -0.554814 0.0525771 -0.57079 -0.0503245 -0.990469 -0.767409 -0.516081 0.10498 -0.90131 0.682674 0.666726 0.146881 0.430501 -0.482126 -0.394116 0.105292 0.452788 0.349484 0.939037 0.0741952 0.977535 0.273451 0.358689 -0.431721 0.68632 0.326812 0.28422 0.380473 0.406318 -0.626257 -0.954161 0.860853 0.446084 -0.505132 -0.169581 0.476094 -0.252418 0.311409 -0.422408 -0.158507 0.0354414 -0.714123 -0.970664 -0.516504 -0.178921 -0.347757 0.605723 -0.709176 -0.981021 0.572219 0.392101 -0.974755 -0.135894 -0.228185 -0.401375 -0.465069 
-1.16726 0.58644 0.617056 0.135874 -1.04611 0.700101 0.183421 0.505496 -0.786988 -1.19931 -0.205819 -0.0966222 0.113764 0.388038 -1.32092 -0.84633 -1.28365 -1.28901 -0.400671 -0.642295 -0.659685 -0.655728 -0.0311645 -0.428479 -1.11027 -0.737971 -0.497424 -0.250957 0.0221474 0.123136 0.326553 0.118271 0.0345291 0.264001 -0.395689 0.256041 0.26238 -1.06068 -0.0550186 0.698168 -0.898802 -0.883065 -0.0944667 0.594718 -1.12894 -0.0221996 -0.885304 -0.991498 0.0746802 0.0897506 -0.243053 -1.18679 -1.30065 -1.14708 -0.540634 -1.02909 -0.498535 0.308191 -0.0188891 -1.12652 -0.130862 -0.335751 0.235476 -0.909252 -0.941152 -0.98114 0.513323 0.572092 -0.848306 -0.331987 0.438244 -0.567375 0.116927 -0.295536 -0.353004 0.575931 -0.734777 0.203473 0.832145 0.749591 -0.378109 -0.0600546 0.6606 -0.568848 -0.0135491 -0.512659 -0.281479 0.758 -0.687602 1.18955 0.926904 0.221619 -0.323039 0.0602414 0.339574 -0.12932 0.0896493 -0.0458709 -0.324429 0.721579 -0.861876 -0.335709 -0.232039 0.470326 0.43291 0.2887 -0.112563 0.519472 -0.622283 -0.354108 0.0955012 -0.294551 0.334497 -0.34397 0.222213 1.32857 0.0353112 0.737951 0.593033 -0.09905 0.620372 0.0491996 0.806457 -1.16055 -1.02648 -0.127989 -0.41409 0.282202 -0.887913 0.375012 -0.0417706 -0.864314 -1.05263 0.631068 0.690718 0.318534 -0.149559 -0.530048 -0.267822 0.0375707 -0.0683556 -1.35249 -1.41294 -1.06918 -0.801807 -0.289479 -0.974492 -0.0336726 -0.646849 -1.44039 -1.0045 -1.02645 -0.0629632 -1.0545 -1.01086 0.144289 0.237571 0.0595996 -0.235702 0.675518 -0.135158 -0.880683 -0.786414 0.0856467 -0.920186 -0.812097 -0.312743 0.228258 0.0132808 -1.21557 -0.363629 -0.663973 -1.18774 -0.324082 -0.228155 -0.577089 -1.24872 0.190317 0.685071 -0.462597 0.180219 -1.08199 -0.276537 -0.694786 -0.747251 0.139487 -1.03759 0.752516 -0.642777 0.0122716 0.735787 0.588194 0.382903 -0.801004 -0.0962039 0.780607 -0.420889 0.737223 0.0711649 -1.20379 1.03814 -0.687351 -0.267602 -0.829912 0.325427 0.837154 -0.147513 0.403111 0.273975 -0.142406 1.02576 -0.34938 -0.164495 0.0810884 0.435583 0.473277 -0.333939 0.888756 0.536858 0.206577 -0.204784 0.213904 -0.207738 -0.730557 0.426174 0.688033 -0.87478 -0.673246 0.807621 0.615561 -0.475221 0.725022 0.7063 0.430441 1.07609 0.19003 -0.0928221 -0.473803 1.12601 0.935043 0.0852322 1.08935 -0.559391 0.979548 0.106906 0.825232 0.0159193 0.235562 0.0558665 -1.02157 -1.01613 0.520125 0.119478 -0.189576 -1.14245 -0.317823 -0.518473 -1.07648 -0.0464161 -0.831114 0.470347 0.364235 -1.15794 0.143252 -0.630846 0.625863 -1.08423 -0.09858 -1.1487 -1.09874 -0.368731 -0.330581 -1.33574 -0.147067 -0.619234 -0.292999 -0.371146 0.490906 -0.942892 -1.15552 0.743381 -0.669356 0.664445 0.111391 0.319677 -1.18067 -0.907119 -0.86457 -0.855168 0.418745 -0.320006 -1.08243 0.132985 -0.0776987 0.360696 -1.18872 -0.149261 0.599551 0.0828467 0.0999172 -1.21988 -0.941774 -0.824581 -1.1269 0.337629 -0.0101249 -0.078758 -0.696272 -0.22754 0.169317 -0.650233 -0.26119 -1.11811 -0.572014 -0.745699 0.531157 -0.452804 -0.409376 -1.083 -0.0700249 -0.634144 -0.177839 0.0822946 0.756139 -0.998818 -0.366087 0.689086 0.0807096 -0.293369 0.266695 -0.271578 -0.18601 0.721551 0.276816 0.0763363 0.340793 -0.431842 1.14707 0.69737 0.399858 0.510209 -0.654317 -0.4523 0.658796 0.177442 0.259773 0.549658 0.918357 0.783886 0.339078 -0.270354 -0.870381 -0.651424 0.989942 1.04746 -0.477085 -0.119194 0.97625 0.796635 0.371636 -0.0310256 -0.472867 1.42782 -0.288565 0.500527 -0.136956 0.643654 0.909418 0.0185903 0.447632 0.284709 -0.455734 0.591841 0.359488 0.861579 -0.577557 -0.846827 -0.180571 -1.07617 0.540959 -0.963131 -0.497628 -1.23045 -0.503478 -0.477885 0.661736 -0.0711438 0.181481 0.465664 -0.35469 -0.416168 -0.566724 0.0237534 -0.454055 -0.0936584 -0.686271 0.256682 -0.56241 -1.03897 -0.946271 0.479522 -0.188207 -0.810896 0.122905 -0.647409 -0.94738 0.695637 -0.339072 0.256817 -1.16906 -0.472607 0.612122 -0.308824 -0.388764 -0.559677 0.520581 -0.351832 0.739089 0.0712969 -0.549675 -0.213956 -1.03328 0.224181 -0.914101 -0.218694 -0.594527 -0.197498 -0.521866 0.176119 0.0590978 -0.204319 -0.0132451 -0.703202 0.378849 -0.504492 -0.0595914 -1.19675 -0.57826 -1.21739 0.250227 -0.389254 -0.25958 0.333953 0.483385 0.659631 -0.878334 0.452026 -0.356927 -0.949624 -0.20387 0.260061 0.184847 0.00366307 -0.251752 0.460381 -0.930089 0.699691 -0.202272 0.127691 0.186661 1.22513 1.16949 -0.406315 -0.140966 0.840515 0.258741 0.791821 0.889819 0.954586 0.892379 0.479336 -0.107974 0.173911 0.32609 -0.228488 -0.175953 0.278949 -0.93785 0.273562 0.483104 0.084717 -0.106146 -0.125886 -0.788821 0.856024 -0.546827 -0.591311 0.0435241 -0.136057 0.360678 1.38387 0.119941 0.229292 -0.684493 0.36165 -0.186149 0.469965 0.25673 -0.283664 0.437661 -0.125871 0.670944 0.608835 0.520752 -0.444846 -1.15393 -1.09467 0.383492 -1.10283 0.205454 -0.107717 -0.0965626 -1.14218 0.455433 -0.0646338 0.328279 -1.36047 0.10996 -0.556658 -0.355364 -0.636807 -0.578676 0.558564 0.402589 -0.379389 -0.313571 -1.06921 -1.16838 0.6461 -0.846553 -0.210728 -0.705641 -1.2073 -0.591054 -1.25068 -0.696469 -0.414423 -1.05875 -0.923954 -0.126595 0.410453 0.216708 -0.884116 0.607265 0.0907484 0.477709 0.379135 0.190755 0.0555912 -0.85171 -0.658768 0.860791 -0.00934523 -1.09861 0.400347 0.747182 -0.106367 0.58911 -1.16255 -0.33714 -0.931064 -0.0676813 0.35691 -0.811857 -1.31726 0.407241 -0.238033 -0.388861 -1.24631 0.294226 -1.16516 0.49523 -0.132001 -0.601159 0.512565 -0.827681 -1.00725 0.0698152 0.701011 0.409577 0.454732 -0.848973 0.420121 -0.363085 -0.47413 0.124638 -0.0858757 0.870309 0.396327 0.0544108 -0.0664379 0.771053 1.23748 -0.558708 0.906576 1.12802 1.1276 0.157926 0.230813 1.33597 -0.0690859 0.539514 1.02825 0.870149 0.828858 0.30751 0.854101 0.93987 -0.285202 0.981374 0.645511 1.15145 1.16603 0.0249798 -0.369634 -0.729599 0.979852 0.234009 0.758128 -0.0729226 1.03088 -0.616906 -0.687569 0.803965 -0.288089 1.3325 1.1354 -0.202536 0.0818423 -0.179567 -0.64091 0.413729 0.692364 -1.03949 -0.109329 0.239447 0.130249 -0.427811 0.0426296 0.488686 -0.848795 -0.718873 0.367023 -0.964727 0.0777352 -1.14029 -0.851059 -0.045704 0.0768138 -1.20802 -1.02086 0.0468715 -0.938104 -1.14149 -0.292349 -0.617431 -1.20446 -0.625104 -0.282178 -0.42265 -0.140601 -0.100141 -1.05973 -0.360761 -0.0949407 -0.057445 -0.92197 -0.734597 -1.22349 0.292013 -1.03244 -0.732153 -1.10087 0.619379 -0.405876 0.249882 -1.20049 0.0133728 -0.371629 0.284261 0.228173 -0.517075 -0.72775 0.272903 -0.428842 0.149714 -1.20866 -0.336137 -1.28046 -0.279083 0.456087 -0.0717016 -1.05631 -1.27653 -1.05365 0.227512 -0.00428631 -0.568668 -1.11821 0.103461 -0.691782 -0.565587 1.00512 -0.537353 -0.76897 -0.336897 0.804406 -0.802733 0.898192 -0.414288 0.710043 0.32819 0.526163 -0.665185 0.152329 -0.488342 0.943045 0.246227 0.369417 1.05966 1.26186 0.0900174 0.117987 -0.587128 -0.0579125 0.429203 1.00303 -0.655637 1.2541 1.33215 0.895741 -0.545703 -0.51499 0.542026 -0.334835 -0.225158 -0.604614 -0.351557 0.09004 -0.490762 0.348169 -0.206075 0.313311 -0.653903 -0.169907 -0.731668 -0.558422 -0.76739 0.098139 0.4252 0.861545 -0.105357 1.22651 -0.348067 0.0572123 -0.0552018 0.778833 -0.380623 -0.107685 0.456859 -0.461176 -0.691402 0.750497 -0.207036 0.605995 -1.03482 0.517599 0.85598 -0.519234 -0.719957 0.847 0.416284 -0.233795 0.13407 0.461852 0.149753 0.0118659 0.514368 0.148826 -1.16699 -0.216261 -0.288225 -0.476625 -0.316735 0.11462 0.257435 0.33383 -0.352233 -1.15979 -0.865676 -0.956787 -0.454609 -0.435985 -1.32777 0.489356 -0.696501 -1.09794 0.0178882 -0.820292 -0.588372 0.398403 -0.909506 -1.18502 -0.800287 0.288241 0.374349 0.475386 -0.530073 0.108583 -0.234307 -0.52358 -0.883727 0.668736 0.108088 -0.0573758 -0.130945 -0.345068 -0.432613 -1.08333 -0.0743659 0.00457184 -0.66205 -1.32602 -1.19073 -0.462638 0.608864 -0.454422 -0.188956 0.178377 0.309491 0.662168 -0.156951 0.637495 0.617657 0.0859004 0.0608675 0.268079 -0.0422501 0.906535 -0.305901 1.2624 -0.194681 0.434793 1.31868 1.35185 -0.348152 0.593025 0.416643 0.458671 0.739117 -0.499508 -0.142755 -0.611562 -0.302683 0.14355 0.277226 -0.280663 1.04432 1.40152 0.866292 0.18155 0.700634 -0.511602 -0.249526 0.515376 0.850606 1.05093 -0.20595 -0.244367 0.645026 0.0795749 -0.315258 1.34588 1.22571 -0.672445 1.01455 -0.257038 0.737752 0.0111088 0.636357 0.0867073 0.104752 1.10691 0.0381756 0.336307 -0.483356 0.745908 0.151485 0.922569 0.459925 -0.493498 -0.418598 -0.368378 -0.620792 0.145356 1.08515 0.846111 -0.338662 -0.807332 -0.826702 0.971103 0.240183 -0.469502 0.773707 -0.0626029 -0.760958 0.131116 -0.0493589 0.662781 -1.13737 -0.710568 -0.63524 -0.469625 -1.09656 0.0160989 0.596669 -0.747633 -0.296325 -0.315225 -0.696336 -0.744281 0.253834 0.0807784 0.139573 -1.16732 -0.734935 -0.0164327 -1.32113 -0.0529911 0.269802 -1.05422 -0.0942809 -0.55793 -0.667704 -0.391233 0.434685 -0.212785 -1.03232 -0.346126 -0.334522 -0.950672 0.167841 0.226889 -0.124022 0.241911 -0.46794 -0.334115 -1.10387 -1.28188 -1.17432 -0.47581 -0.741597 0.435816 -0.936805 -1.21617 0.781868 -0.131447 0.476775 0.937937 -0.836282 0.0127434 -0.856804 0.257767 0.559133 -0.450792 -0.849083 0.443848 0.939817 -0.35482 -0.480646 0.0520839 0.0222486 1.09319 -0.474009 1.1708 0.783508 0.436829 0.25001 1.08541 0.635958 0.471047 0.109839 1.31485 0.377567 0.662707 1.41183 0.239639 1.38099 0.690814 -0.0598489 1.30845 -0.525995 -0.0693961 0.584073 1.09245 0.53378 0.614579 0.312714 0.150175 0.93334 0.653877 0.796859 -0.707044 0.05923 0.830731 1.1013 -0.585555 -0.144385 0.255136 1.07036 1.00988 0.994727 -0.458693 0.507057 -0.555197 0.124691 0.276397 0.44679 0.2561 -0.667285 0.637161 -0.0457109 -0.428336 -0.621455 -1.13769 
-0.815999 0.320572 0.298741 0.0832808 1.03412 -0.261495 -0.767069 0.338937 -0.187911 0.0377158 -0.230522 -0.332137 0.162207 0.21546 0.417197 -0.0555879 -0.138758 0.220316 0.28182 -0.791477 0.784807 -0.421026 0.406517 -0.0261253 0.613646 0.75052 -0.384147 -0.369021 -0.737948 -0.169368 -0.2594 -0.640705 -0.924093 0.964938 0.368374 0.990031 -0.437403 0.440353 0.217508 0.251101 -0.65321 0.864271 0.86964 0.503671 0.0885981 0.187976 -0.689751 0.799647 -0.709302 0.505135 0.934457 -1.03266 -0.966052 0.282176 -0.0539016 0.68578 0.0735722 0.632372 -0.664844 0.317974 -0.599142 0.0239142 0.620095 -0.548527 -0.019172 -0.0261751 -0.578302 0.505205 -0.632073 0.619994 -0.219936 -0.203063 0.567004 -0.330607 -0.764636 -0.410624 0.840476 -0.46424 -0.616443 -0.856073 -0.922017 -0.620498 -0.773933 -0.792696 0.764607 0.266622 0.906104 -0.164214 -0.121165 -0.782883 -0.866103 0.256695 0.248223 0.782261 0.733624 -0.797584 -0.305298 -0.89371 0.715522 0.110715 0.769878 -0.468058 0.904263 0.321583 0.169891 -0.886675 0.890454 0.0292171 -0.32336 -0.701756 0.184935 -0.234661 -0.329973 0.379128 -0.0975002 -0.637344 -0.451533 -0.255715 0.124183 0.374643 -0.104574 0.196039 -0.414982 -0.901796 -0.0915493 -0.75403 -0.770854 0.548774 -0.668945 0.93495 -0.362101 1.05371 -0.592829 -0.528626 0.323385 0.519931 -0.46307 0.145125 -0.528846 0.114997 0.311908 0.546769 0.775176 0.915516 -0.204687 -0.4526 -0.874379 0.251716 0.182628 0.146092 -0.469165 0.933731 -0.827723 -0.061879 0.918303 -0.00859963 0.13537 -0.882996 -0.480248 0.395431 0.969766 0.0636535 0.371314 -0.728593 0.418362 -0.455606 0.673487 0.837583 0.574241 -0.950235 -0.108298 -0.168972 0.515438 -0.443863 -0.348177 -0.788167 0.0262403 -0.311375 0.388576 -0.901914 0.746764 0.867719 -0.96228 -1.0223 -0.106305 -0.957638 0.0382878 -0.962989 -0.862394 0.512017 0.346972 -0.954732 -0.464554 -0.305212 -0.709436 0.896205 0.182288 0.966486 0.775012 -0.184114 -0.929613 -0.341925 0.644716 0.550185 0.195514 -0.729924 0.776476 -0.768197 0.00907579 0.274673 -0.535252 -0.116452 0.242013 -0.440789 -0.128419 -0.875187 -0.422413 0.869486 -0.887394 -0.308968 0.351855 0.502393 -0.211215 0.850994 -0.858265 0.0536006 0.807088 0.378171 0.0654171 0.592492 -0.818816 0.125541 -0.75976 0.803503 -0.331727 0.418332 -0.886225 -0.515377 0.712717 0.138314 0.73738 -0.887588 0.92824 -0.122015 -0.399447 -0.218347 -0.0289095 0.153187 -0.40091 0.0317408 0.80883 0.912568 -0.539398 -0.475019 0.720956 -0.454872 0.556479 0.517878 0.901911 -0.423411 0.057839 1.03402 0.654298 0.231845 0.79033 -0.743867 -0.358289 0.836213 -0.365422 -0.793506 -0.159613 -0.725551 -0.811778 -0.340648 0.0383758 -0.305489 0.349542 0.906095 0.759087 0.78627 -0.240138 0.384322 0.589792 0.128742 0.834051 0.236375 0.655214 0.342063 -0.293483 0.47515 0.850223 0.698005 0.388266 0.351769 -0.19912 0.0555661 0.486381 0.27896 -0.200068 -0.957022 0.396261 0.542706 -0.81409 0.523323 -0.87031 0.18164 -0.824405 0.344635 -0.00345661 0.846876 0.132078 0.795705 0.321688 -0.191905 0.0168052 0.194773 -0.944733 -0.361387 -0.536903 -0.320738 -0.944735 -0.730906 -0.664336 0.418744 0.607117 0.119219 -0.479767 0.154254 -0.546275 0.31921 0.191035 0.870546 -0.17514 0.425041 0.407165 0.0201031 -0.335819 0.631925 -0.555484 0.741452 0.567927 0.638529 0.569043 -0.113474 -0.591451 -0.431306 1.03239 -0.544003 0.198609 -0.463366 0.180431 0.217665 -0.223541 0.541939 -0.272764 -0.556827 -0.310383 0.238223 0.555722 0.117134 -0.468458 -0.272222 -0.0362172 0.390266 -0.806325 -0.608902 -0.600671 -0.170652 0.977963 -0.232162 -0.50252 0.483346 -0.629566 1.04123 -0.68218 -0.258187 -0.422953 -0.681265 0.155426 0.721138 -0.213111 -0.716366 -0.0561671 0.547159 0.773485 0.617156 0.938625 -0.591598 -0.188643 0.463231 0.480197 0.306906 -0.843073 -0.60721 -0.329254 -0.719038 -0.29467 -0.0439567 -0.00364666 -0.38539 0.657983 0.383661 0.961654 0.886791 0.298283 -0.787965 -0.435473 0.778699 -0.642654 0.545884 0.360378 0.054249 0.744259 -0.796408 -0.474446 0.470163 0.773032 -0.613953 0.804641 -0.469191 0.747281 0.15952 0.689672 0.784963 0.443203 -0.791817 0.972501 -1.00094 0.0482732 -0.162402 -0.449006 -0.371374 -0.853322 -0.538639 -0.524274 0.359027 -0.395955 -0.0585743 0.127502 -0.0455136 -0.393725 -0.424389 -0.896858 -0.603992 -0.17251 -0.36441 0.83142 -0.46956 -0.0436373 0.546354 -0.0243764 -0.331192 -0.302421 -0.341497 -0.505405 -0.823389 -0.0644909 -0.546937 -0.767081 -0.965877 0.302532 -0.167679 -0.285266 0.554122 0.380795 0.257346 0.0614524 -0.944589 -0.637616 -0.720307 0.0779677 -0.0730178 -0.207778 0.145097 0.271135 0.613224 0.774635 0.148477 -0.825446 -0.263984 -0.293577 0.211673 0.500945 0.45466 0.845058 0.917879 0.574166 -0.204912 -0.630244 0.822184 -0.181235 0.72728 -0.294995 0.583572 0.280266 1.04013 -0.225112 -0.757413 1.03776 0.0595343 -0.538893 0.101434 0.969049 0.255837 -0.755725 0.239157 -0.165959 0.981734 -0.681709 -0.0196149 -0.304177 -0.0156334 -0.871671 -0.896384 -0.628605 0.968629 0.998421 0.929119 -0.257319 -0.626157 0.721589 0.541926 1.04665 -0.686996 -0.0266826 0.21667 -0.722431 0.712269 0.402665 -0.792662 -0.333542 0.742962 0.180301 -0.459566 -0.0731223 0.328972 0.610807 0.616644 0.161296 0.797278 -0.504571 0.739882 -0.315131 -0.43853 0.835584 0.0434686 -0.542771 0.742782 -0.109431 0.0737024 0.96566 -0.54362 -0.521994 0.868159 -0.310571 0.337091 -0.0569385 -0.139433 -0.0447491 -0.7335 -0.00978628 0.575648 -1.03442 -0.85355 -0.921264 -0.139178 0.410523 0.641452 -0.461727 -0.318175 0.565326 0.0750958 -0.531248 -0.692737 0.561422 -0.786874 0.255345 -1.03824 0.877774 -0.903403 0.0613979 0.884895 -0.414371 0.518514 0.765192 0.277348 -0.0610761 -0.240643 -0.877035 0.946666 0.0867578 0.195587 0.60066 0.138956 0.434412 0.736153 -0.874095 -0.0743636 0.416215 -0.389413 0.521217 -0.0642394 0.625161 0.954396 0.253362 0.226556 -0.802743 -0.503792 0.241894 -0.844057 -0.319281 -0.684576 0.990422 0.192484 0.833363 0.743346 -0.529832 -0.182562 -0.460343 -0.334564 -0.210091 0.704287 0.887659 -0.625271 -0.180553 0.248531 1.02998 -0.160447 -0.889452 0.428951 0.427426 0.590605 -0.664477 0.0172489 0.512109 0.533806 -0.777295 0.698931 1.02245 0.425558 0.79418 -0.376781 0.695861 0.771777 0.80502 0.516559 0.519015 -0.716737 -0.727887 1.03823 -0.0961018 -0.0202621 0.568923 -0.356269 0.239527 -0.670179 0.832148 0.208659 0.083974 0.821539 -0.489764 -0.618848 0.376812 -0.238357 0.311707 -0.258495 -0.815129 0.399122 -0.668512 -0.954436 -0.306894 -1.00423 -0.396713 -0.638144 0.749596 -0.609556 0.816431 0.139317 -0.459152 0.966749 0.00303593 0.264638 -0.19049 -0.500484 0.850105 -0.968227 -0.237029 0.624688 0.129373 0.771366 0.380202 0.623958 -0.854802 -0.312235 -0.637616 0.4272 0.464733 -0.390962 -0.0967013 0.838136 -0.262879 0.680554 0.86165 0.367162 0.967328 0.51054 0.65542 0.729429 -0.316333 -0.769254 0.693201 0.694486 0.497073 -0.415749 -0.656733 0.452036 -0.375817 0.124866 0.141317 0.843634 0.0283852 -0.31003 0.591827 0.26117 0.487675 1.01235 -0.305753 -0.098561 -0.465346 0.611367 -0.255062 0.272937 0.275494 -0.397378 -0.379112 0.260715 -0.817058 -0.656727 0.0524451 -0.121571 -0.473276 -0.274786 -0.399884 -0.918757 0.311728 -0.0605832 0.579543 0.987267 -0.873662 -0.192392 0.862606 0.119735 0.398286 0.335995 -0.701217 -0.189684 0.301511 -0.0304119 0.721803 0.837458 -0.444629 -0.582807 0.0605313 0.777615 0.00048014 0.666513 0.00436976 0.143925 0.954009 0.991367 0.986805 -0.525563 -0.296761 -0.426882 -0.456296 1.02136 0.478383 1.10813 0.954919 0.528117 -0.232507 0.668114 -0.490588 -0.881914 -0.0127779 -0.243198 -0.155644 -0.787356 0.632254 -0.567841 0.988218 -0.876051 -0.227839 -0.0564312 0.770002 0.614889 -0.557142 -0.373442 -0.34557 -0.718394 -0.454686 -0.436013 -0.300038 0.190285 0.0810433 0.148465 0.117447 -0.540722 0.109338 -0.102094 0.837274 0.783032 -0.508737 -0.65112 0.827507 0.409809 -0.0333103 -0.409197 0.561198 -0.385067 0.023148 0.476692 -0.30272 0.779365 -0.599809 -0.474324 0.489109 -0.094082 0.191624 -0.795261 0.21797 0.746557 -0.292917 0.869362 -0.0964266 0.816808 0.069622 -0.992618 -0.742935 -0.805579 -0.0741987 -0.834849 -0.968342 0.527605 -0.457632 0.969382 0.0243182 0.630449 -0.294104 -0.26268 -0.666435 0.78767 -0.710648 0.0779989 0.582088 -0.32754 0.513665 0.0386336 0.53064 -0.333743 0.224218 -0.230256 -0.539086 0.980597 -0.30866 0.381364 0.825489 0.742968 0.335533 -0.930988 0.929612 -0.675679 -0.736408 1.0208 0.879916 -0.15184 1.04948 -0.0440116 -0.514487 -0.326682 0.598197 -0.26538 -0.608228 0.82036 0.746438 0.934197 -0.52448 0.253718 -0.0286848 0.986201 0.906974 -0.839406 -0.270663 -0.66709 -0.884372 0.370821 0.658403 0.887421 0.0727555 0.00572279 0.950562 -0.00893455 0.315279 -0.789006 -0.0301149 0.174425 -0.00914801 -0.102328 1.00251 0.352503 0.477911 0.507281 1.03112 0.797306 0.293501 0.701175 0.672443 0.639389 -0.137032 -0.449624 0.571599 -0.290244 -0.400563 -0.826744 -0.10826 -0.414387 0.434245 -0.594099 -0.628337 -0.638716 0.311696 -0.782903 0.270915 -0.472252 -0.683209 -0.812612 0.642654 0.167043 -0.0319761 0.525485 -0.529945 -0.593676 0.0569997 -0.558603 -0.898484 -0.761054 -0.947548 0.736164 0.899802 -0.0580285 -0.730374 0.394925 0.546028 -0.160371 0.565076 -0.545166 0.474731 0.0362146 -0.0983148 0.866839 0.382875 -0.780207 -0.923535 -0.281606 -0.177757 -0.582898 -0.129711 -0.5492 0.670968 0.952659 -0.904532 -0.763302 -0.609282 0.160831 -0.257691 -0.384384 0.525675 -0.0733744 -0.575017 0.423115 0.839817 -0.277302 -0.185913 0.358269 0.525498 -0.58688 0.830241 -0.0114911 0.419421 -0.268057 -0.135422 -0.172802 0.0053233 -0.0257669 0.55436 0.808583 0.350538 -0.59048 -0.730709 0.0530507 -0.619338 -0.638243 0.286524 -0.188603 0.574043 1.05494 0.394802 0.0127665 -0.098357 0.740465 -0.632319 -0.306103 -0.581195 0.150152 1.03389 0.91114 0.53185 0.815531 -0.127593 -0.0870824 -0.487313 0.69029 0.696031 0.447759 -0.411389 
0.122665 0.138087 0.85951 0.539692 0.388742 -0.107267 0.894041 0.715073 -0.852783 -0.368114 0.19088 -0.882212 0.938812 -0.881523 -0.066705 0.607196 -0.589775 0.526051 0.924896 0.492811 0.465958 0.751759 -0.0718493 0.185712 -0.472649 0.747877 0.604845 -0.878585 0.347853 -0.0434457 -0.38106 -0.545938 -0.921824 -0.53802 0.977316 0.450498 0.338301 0.854931 0.149141 0.483051 -0.529598 -0.676409 0.570404 -0.607247 -0.574397 -0.512727 0.983503 -0.180629 0.996865 0.89194 -0.704461 0.446288 0.627129 0.221083 -0.37062 -0.848217 -0.0337465 -0.768364 -0.726786 -0.685973 0.188101 -0.107923 -0.231875 0.266323 0.354104 -0.254623 -0.283243 -0.293689 -0.385782 0.865847 -0.838625 0.0705996 -0.810611 0.73176 0.4633 -0.385083 -0.781142 0.446638 0.434142 -0.770351 0.352506 0.743624 0.6759 -0.0204251 -0.0353547 -0.694659 0.131428 0.930995 -0.462956 0.404731 -0.754891 0.725241 -0.703095 0.0158185 -0.00585178 0.653606 0.761186 0.710895 -0.654079 -0.638592 0.576712 -0.492744 0.431966 0.766059 -0.761016 -0.11873 -0.633003 -0.556038 -0.671977 0.801164 -0.326384 0.680553 0.530909 -0.678321 -0.367709 -0.5183 -0.386862 0.763855 -0.587194 0.150309 0.154721 -0.355956 -0.138314 0.437762 0.643398 0.83937 0.0748793 0.388085 0.533806 0.404345 0.733044 0.0939903 0.895096 0.148482 -0.15645 -0.882418 -0.972743 0.208028 -0.440992 -0.647171 0.00681024 0.216251 -0.983077 -0.464762 0.5355 -0.353208 0.0145055 -0.853785 -0.605774 0.41089 0.266147 0.518584 -0.97543 -0.888501 -0.060077 0.648918 0.931854 0.995871 0.0207688 0.449276 0.383828 -0.262655 -0.473165 0.262493 0.869413 0.353968 0.363649 0.894203 -0.454419 0.906254 -0.783445 0.535901 0.106046 -0.782956 -0.945301 -0.374869 -0.152592 0.0527806 -0.245115 0.225177 -0.552787 -0.981469 -0.258865 -0.530839 -0.872696 0.67851 -0.881722 -0.940722 0.674516 0.138975 0.508485 0.0582763 0.876224 -0.964775 -0.679324 0.759542 0.403098 0.684265 0.625757 0.934664 0.590469 0.842292 0.470507 -0.303555 -0.94084 0.525051 0.321391 -0.0795427 -0.408281 -0.909818 -0.854432 0.0388488 -0.891371 -0.113283 0.508054 -0.763998 -0.434694 0.62628 -0.704772 -0.760228 -0.234813 0.803654 0.300603 -0.355995 0.841471 0.621258 -0.610444 0.230561 0.305483 1.01529 0.165188 -0.104093 0.857534 -0.378296 0.578311 0.902741 -0.853217 -0.100214 -0.176717 -0.261412 -0.0239128 -0.0590023 0.749618 0.0708517 0.813877 0.257771 0.306969 -0.620693 -0.129811 0.588346 -0.394798 0.621532 0.378124 0.889336 -0.750943 0.203106 0.494131 -0.377849 -0.58277 -0.216902 -0.37909 0.565909 0.662538 -0.538044 -0.814902 0.23842 -0.637749 -0.670491 -0.864179 0.169147 0.0517079 0.109434 -0.892265 -0.201182 -0.822133 0.919172 -0.95981 0.468425 -0.717938 -0.10602 0.0403648 -0.129144 -0.503537 -0.600549 -0.258747 -0.284768 0.572351 -0.794968 0.321003 0.973119 -0.0282957 0.925482 0.522593 -0.382194 -0.628988 0.691254 0.839771 -0.269185 -0.981769 0.959021 0.869537 0.0393793 0.0520051 0.960774 0.821788 0.213528 0.863561 0.845592 -0.334503 -0.85688 -0.263045 0.703242 -0.00265106 0.205651 -0.911077 0.710788 0.920914 0.647237 0.915753 0.241841 0.620284 -0.112647 0.167222 0.142774 0.519077 0.55215 -0.152051 0.358807 -0.745026 -0.161789 0.303872 -0.875557 0.877501 -0.644197 -0.914891 0.699289 0.583227 0.962565 0.558777 -0.751357 -0.908369 -0.71821 0.937954 0.0750799 0.487406 1.01285 -0.214191 0.408257 0.660027 -0.298495 -0.349961 0.282863 0.591467 0.819869 -0.574376 0.0965313 0.358009 0.25957 -0.572627 0.61295 -0.916215 0.731223 0.723331 0.961302 -0.912958 0.80853 0.674651 0.67036 0.757216 0.205566 0.891162 0.83498 0.473521 0.82925 -0.0898044 -0.0389556 0.828239 0.682164 -0.644578 0.474359 -0.630218 -0.00840635 -0.259256 0.944759 -0.205026 0.14988 0.0248049 -0.863487 -0.60699 0.449709 0.733004 -0.525733 0.178387 0.453878 -0.566877 0.263061 0.260032 -0.908573 -0.0830072 0.0147606 0.294557 -0.194289 -0.15266 -0.234377 -0.381548 0.741104 0.710158 -0.569741 0.406757 -0.950839 0.885686 0.757597 0.0218253 -0.403959 0.671958 0.786406 0.72957 -0.319588 0.906555 -0.893884 -0.886355 0.623099 -0.436074 0.275571 0.0605075 -0.00543123 -0.463931 -0.696052 0.055483 0.42254 0.302254 -0.666515 -0.788259 -0.866846 0.0825765 -0.18619 0.85754 -0.209877 0.241448 0.26186 -0.177123 0.0992926 0.00557674 0.81685 0.695331 -0.336505 0.603189 0.424757 0.343837 0.509679 0.530809 0.45738 0.132749 -0.891312 -0.253051 -0.792799 0.0752641 0.25505 -0.502912 -0.866797 -0.322544 0.799339 -0.535934 -0.110804 0.932419 0.560613 0.716912 0.804039 -0.663129 -0.0555917 0.0519474 0.145807 -0.956352 -0.95649 -0.037399 0.738914 -0.292993 -0.434198 0.163675 -0.949133 -0.921874 -0.302879 0.510923 0.21084 -0.208193 -0.756125 0.39006 0.866971 0.484907 0.887165 0.983672 -0.837599 0.686594 -0.552172 0.0656523 0.633073 0.994562 -0.245283 0.409251 -0.682439 0.685276 -0.538645 0.463506 0.729056 -0.509001 -0.587748 0.454107 0.184107 -0.0358374 -0.396108 0.221111 0.0258004 0.284533 -0.284458 -0.779829 -0.940127 -0.0570246 0.607765 0.910458 -0.574633 0.492462 0.891677 -0.414689 0.176684 -0.662872 0.634634 -0.206668 -0.670755 -0.613082 -0.799842 -0.355635 -0.930312 -0.355003 -0.908642 0.782317 0.119562 -0.51282 0.21735 -0.71526 0.432412 0.80493 0.489432 -0.558211 0.0730458 -0.811374 -0.354392 0.102582 0.101156 -0.77708 -0.00342175 0.510058 0.698919 -0.128215 -0.907109 -0.12696 0.206281 0.710987 0.649821 0.519042 -0.918658 0.833459 -0.853044 -0.865429 -0.538001 -0.77833 0.900294 0.565044 -0.307556 0.103857 0.821946 -0.88903 -0.119051 0.297327 -0.475249 0.939943 0.471909 0.156308 0.0424561 -0.427003 0.379164 -0.960981 -0.90299 0.0920432 -0.0752615 -0.838088 0.937122 -0.897013 0.858754 0.572842 0.608059 0.926127 0.392322 0.740971 -0.939303 0.854331 0.962751 0.947132 0.405436 -0.358756 0.0370392 0.22731 -0.261808 0.917933 -0.475354 0.262951 0.857886 0.996579 -0.580713 -0.0970309 -0.427795 0.80109 -0.0580437 -0.344785 -0.120873 0.83873 -0.182993 -0.197763 0.941733 -0.338116 -0.624892 0.549881 -0.411899 0.781499 0.304902 -0.365082 0.607982 0.239802 -0.431829 -0.000470773 0.867233 0.591399 -0.786974 -0.408442 0.50943 -0.262214 0.854599 0.353414 -0.279536 -0.73998 -0.760082 0.27619 -0.95538 0.165389 0.914935 -0.092689 0.00172398 -0.284357 0.707105 -0.0590159 0.375085 -0.920241 -0.511573 0.960754 0.844838 0.77692 -0.40677 0.450369 0.0142786 0.158974 -0.552589 -0.121029 -0.252178 -0.342021 0.468076 -0.759176 0.376802 0.303736 0.575306 -0.919156 0.547323 0.798793 0.326644 0.561618 -0.0661331 0.225214 -0.54755 0.919035 0.924325 -0.856984 -0.156516 0.282869 -0.77978 0.315288 0.227006 -0.965523 0.0757341 0.817733 0.48233 -0.912524 -0.0398154 0.913281 -0.0500073 0.691441 -0.445332 -0.598449 0.915854 0.917569 0.677371 0.477209 0.970502 0.210718 0.248066 0.29714 -0.22774 -0.818142 -0.477713 0.224643 -0.899172 -0.553408 0.381614 -0.0417282 0.743395 0.587807 -0.740353 -0.0436679 0.608225 0.335255 -0.239902 0.076576 0.411382 0.706322 -0.0101426 -0.641236 0.397865 0.530674 -0.253625 0.29978 0.434297 -0.576243 -0.236962 0.404808 0.634487 1.01112 -0.298043 -0.593234 -0.807004 0.226879 0.634051 -0.703539 0.673453 0.0016545 0.240727 0.402826 -0.424608 0.50035 -0.640805 -0.816282 -0.164375 0.11938 0.260383 -0.755503 -0.174208 -0.76362 -0.410628 -0.804172 0.739205 0.307903 0.481774 0.159668 0.717838 -0.769047 -0.449388 0.352427 -0.771815 0.238684 0.731333 -0.578704 -0.536921 0.362855 -0.298754 -0.87997 -0.651956 0.925536 0.506482 -0.0928664 0.409474 0.849261 0.0744265 -0.77131 -0.0477788 -0.68159 -0.543233 0.761612 -0.461633 0.0297218 0.954994 -0.724863 -0.664857 0.434225 0.432272 -0.949481 0.662721 0.977905 0.383982 0.885934 0.214144 0.112856 -0.709211 0.660779 -0.554681 -0.0382781 0.750484 -0.222991 -0.129212 0.254396 0.681572 -0.722305 0.087103 -0.260537 -0.510139 -0.99115 0.0273167 -0.0839262 0.753879 0.563145 0.94326 0.706321 0.821754 -0.738068 0.124078 0.237553 -0.704021 -0.229596 0.201566 0.666062 -0.371613 -0.598272 -0.249029 -0.0948666 -0.965507 0.196206 0.866776 0.784899 0.973144 -0.262506 0.0252476 0.640724 0.00119789 -0.901622 -0.633834 0.490889 -0.878969 0.393364 -0.607008 0.860929 -0.0574614 -0.677717 0.56725 -0.235704 -0.41316 -0.322636 0.987887 -0.13377 0.433724 0.175394 -0.481756 -0.937952 0.563096 0.269149 -0.0328248 0.597594 -0.534624 -0.166035 0.382498 -0.558844 0.574109 -0.589603 -0.918151 -0.424726 -0.49126 -0.552015 -0.947784 -0.38412 0.841374 -0.554702 -0.523165 -0.215999 -0.23234 -0.969794 0.534436 0.338008 -0.306312 0.508444 -0.809624 -0.886451 -0.330028 -0.319218 -0.852237 -0.794764 0.936108 0.115081 0.788969 -0.612407 0.921209 0.157611 -0.187735 0.492778 0.565517 -0.108384 -0.948388 -0.942222 0.323189 -0.912514 -0.342749 0.148146 -0.483642 0.117658 0.915739 0.267616 0.131445 0.433752 -0.410787 0.808733 -0.0742249 -0.236822 0.905806 0.579282 0.441467 -0.948866 0.782082 0.372592 0.147256 0.566083 0.757726 0.0659956 -0.278764 -0.446443 -0.471619 -0.743616 0.428783 -0.422419 -0.688325 -0.250586 -0.351475 -0.0476054 0.881016 0.148338 -0.946472 0.780161 -0.600622 0.168397 0.197407 -0.0279218 -0.0393894 -0.893329 0.718735 -0.150054 0.669493 0.143732 -0.115385 0.435174 -0.497574 -0.98203 -0.0267684 -0.753902 0.0559435 0.680498 -0.214316 0.58432 0.936815 -0.785601 -0.852146 -0.765546 -0.0502346 -0.217624 0.172848 -0.183207 0.916596 0.226206 -0.403147 -0.698002 -0.633343 0.766324 0.260098 0.313293 0.873 -0.0211666 -0.83674 0.528523 -0.891397 0.0338962 -0.0503565 -0.403031 0.0378164 0.922887 -0.170892 -0.906221 0.603389 0.614805 0.678108 0.540217 0.829217 0.828597 0.777306 -0.218386 -0.38906 -0.0498822 0.598403 -0.472385 -0.837618 -0.818617 -0.170375 -0.470877 0.947728 -0.910163 0.842526 0.806848 0.0547853 0.991917 0.321497 0.149523 0.0119322 -0.742736 0.732709 -0.978077 -0.847683 -0.466067 -0.89814 0.755844 -0.865146 0.766088 0.268197 0.950217 0.578197 0.0430271 
