-0.669183 -0.968927 -0.750799 -0.707899 0.344346 -0.441593 0.196907 -0.79224 0.233747 -0.223877 0.677663 0.398003 0.146829 0.686687 -0.933431 -0.485347 0.483609 -0.775922 -0.720767 -0.0902876 -0.556935 -0.767108 0.914768 0.475212 -0.298206 -0.279219 0.879524 -0.974523 0.0700473 0.965319 0.0690323 0.395856 0.992192 0.313578 0.688352 0.335171 0.879463 -0.110238 0.547902 0.111076 0.664994 0.225151 -0.490214 -0.195666 -0.0896231 -0.425025 0.322912 -0.602736 -0.194601 0.599036 0.303511 0.241351 0.832701 0.218525 -0.265071 -0.464128 0.939352 -0.40135 -0.43628 0.0205996 -0.439636 0.630073 -0.592848 -0.441782 -0.0128836 -0.901419 0.895381 -0.170457 -0.0180965 0.453442 0.947387 -0.353498 -0.335971 -0.545016 0.471635 0.571542 0.0305739 -0.221502 0.965192 0.83233 -0.616875 0.271997 0.0748944 -0.788427 -0.512322 0.789424 -0.252177 -0.574997 -0.606023 0.306826 0.430429 -0.0452435 -0.0597414 0.829046 0.503886 0.884661 0.924363 0.394936 -0.279991 -0.0900736 -0.162623 -0.333518 0.553325 0.498965 0.120028 0.00721547 0.0680953 -0.8487 0.790784 0.0333995 0.988209 -0.833352 -0.698791 0.0616695 -0.618065 -0.210098 -0.143005 0.130627 0.212506 0.249461 -0.561146 -0.358931 -0.798111 0.37866 -0.526847 0.708209 0.270406 -0.600942 0.105808 0.992931 0.3064 0.941275 -0.341063 -0.141091 0.43817 0.778984 0.866723 -0.493825 0.930277 0.653932 0.539874 0.914642 0.823066 0.840441 -0.0254863 -0.795241 -0.369437 0.834967 0.335493 0.844011 0.0822492 0.774222 -0.514103 0.286999 0.154924 -0.0426656 -0.006471 -0.577409 0.355458 -0.914301 -0.585271 -0.336955 -0.977966 0.070208 0.524051 0.482003 -0.146029 0.387855 0.984697 -0.211212 0.0423269 0.519473 -0.301159 -0.137703 0.362159 0.673242 0.069233 0.996628 0.509593 -0.595946 0.837896 -0.412299 -0.821444 -0.680624 0.873144 0.328325 0.27747 -0.132572 0.758229 -0.371055 -0.0387009 -0.83344 0.302894 0.00350364 0.244255 -0.182324 -0.523272 -0.899921 -0.802492 -0.534575 -0.128825 0.243073 0.985128 0.567224 -0.892008 0.340634 0.239227 0.173587 0.336129 -0.244312 0.572747 0.174797 0.338492 0.749121 0.493174 0.215131 0.0844184 -0.23212 -0.921022 -0.162533 0.403591 0.0407044 0.00497586 -0.308682 -0.958417 -0.751274 0.509585 -0.476436 -0.657788 0.711531 -0.0160332 0.21881 -0.0439785 -0.0340239 -0.205772 0.0681281 -0.688727 -0.959901 -0.760332 0.648073 -0.204837 0.81722 -0.178728 -0.86543 0.573493 -0.688837 0.348314 -0.340927 0.0796999 0.426489 0.496447 -0.520669 -0.532724 -0.498342 0.173264 -0.490488 -0.251635 -0.318487 0.030427 0.0895571 -0.607303 -0.987041 -0.692287 0.34736 -0.0227504 0.101632 -0.590184 0.286874 0.142114 -0.352369 -0.0665307 0.933354 -0.537108 0.754256 -0.930292 -0.963192 -0.932134 0.418303 -0.30282 0.15131 -0.153518 -0.804562 0.629433 0.301504 -0.302241 -0.198882 0.819043 0.444235 0.479929 -0.151419 -0.465811 0.873735 -0.136021 -0.158484 0.222398 0.835419 0.943037 0.63255 0.128835 0.0747576 -0.726503 -0.940915 0.00863413 -0.26172 0.815689 0.0752371 -0.224681 0.877132 -0.510554 0.459539 0.0224293 0.334128 0.65792 -0.350282 -0.35848 -0.642136 0.454878 -0.543507 0.791623 -0.0722936 0.31754 -0.678618 -0.203153 -0.832213 0.154949 -0.981936 1.00166 0.0967335 0.63749 0.121373 -0.831918 0.906564 0.181367 0.181158 -0.358474 -0.0101463 -0.744161 0.411959 -0.173624 -0.255384 -0.125114 0.883294 -0.918747 -0.467381 -0.467325 -0.280773 -0.141054 0.976864 0.173147 -0.333091 -0.104954 -0.523376 -0.021184 0.687718 -0.363164 -0.865312 0.702434 -0.360786 0.227541 0.333737 0.758781 0.397007 0.243551 -0.0606801 -0.423984 0.883955 0.925307 -0.171128 0.295747 -0.210192 0.573601 -0.829104 -0.326697 0.647902 -0.29962 0.204361 -0.637375 0.575684 0.177117 0.533911 -0.760909 -0.928818 -0.992745 0.217948 0.756622 -0.356152 0.350885 0.452434 0.278647 -0.42523 -0.216531 0.0353122 0.968231 -0.97648 0.969049 -0.461109 0.904225 0.892916 0.365935 0.19883 -0.317993 -0.0619147 0.360602 0.354326 -0.414415 -0.927783 -0.438634 -0.0513938 0.642787 0.734751 -0.519747 0.882539 0.808626 -0.513754 0.0990078 0.565316 0.131819 -0.547759 0.0183479 -0.579907 0.0234214 0.796949 0.440669 -0.00657952 0.817923 0.41407 0.531813 0.721845 0.305441 -0.101547 -0.0807243 0.983499 0.831895 -0.717349 0.335846 -0.582659 -0.654126 0.887205 0.361029 0.992723 0.627641 0.835831 0.869843 0.43219 -0.672453 -0.0259989 -0.0146491 0.457439 0.430677 -0.993959 0.865334 -0.568997 0.802252 0.305849 0.425915 0.619612 -0.286605 -0.0409289 0.341218 -0.981326 0.840211 -0.742136 1.00392 0.684946 -0.433314 0.334023 -0.905341 -0.112108 0.226409 0.4499 -0.128793 -0.148623 0.291564 -0.256068 -0.719373 0.609642 0.703753 0.27424 0.0593741 0.116513 0.276971 -0.0797034 0.549303 0.0735848 -0.777822 -0.0259253 -0.308922 -0.0669839 0.923814 -0.96785 -0.0539945 0.771943 -0.711152 -0.0579559 0.449867 -0.174218 -0.724543 0.542062 0.712405 0.500685 -0.0081344 -0.414699 -0.649047 -0.721451 0.324269 -0.368479 0.887059 0.0275545 0.901881 -0.0535706 -0.85757 0.175564 0.863245 0.690825 -0.750911 -0.919303 -0.337923 -0.0602405 0.00864126 -0.41292 -0.0289595 0.951213 -0.640795 0.257306 -0.109184 0.807779 -0.918545 0.166576 0.34808 0.791416 -0.335547 -0.662426 -0.622231 0.0189621 -0.37707 0.704274 0.646838 -0.498245 -0.26934 0.543407 0.453542 -0.129361 -0.273259 0.314706 -0.451584 -0.0276808 0.399574 0.216751 0.913819 -0.600581 0.807442 -0.112219 -0.635419 -0.833382 -0.863347 0.249071 0.982035 -0.779141 -0.594349 0.317619 -0.995637 0.0671402 0.65544 -0.622538 -0.921007 -0.729906 -0.920614 0.723175 -0.229454 -0.195558 0.269903 -0.779714 0.671758 0.994799 0.530616 -0.776049 -0.037674 -0.0759892 0.447496 -0.108827 0.324531 0.266545 0.741846 0.658275 0.408132 0.864802 -0.101201 0.37569 -0.913518 0.306871 -0.303242 -0.912089 -0.63396 -0.657125 -0.538943 -0.555987 -0.387707 -0.471158 -0.840735 0.373126 0.334528 0.426099 0.595224 0.00277458 0.407962 0.118799 0.224317 -0.640697 -0.967101 -0.334478 0.23859 0.346675 0.913374 -0.0471038 0.0146366 0.32424 -0.182854 0.908887 -0.304267 -0.0968653 0.206813 0.380812 -0.0140543 0.571675 0.723949 0.444659 -0.991474 -0.675566 0.978072 -0.834132 0.697798 0.310595 0.586345 0.285734 -0.690304 -0.0116118 -0.601592 0.531648 0.343041 -0.574277 -0.804788 -0.443884 0.767186 -0.896078 0.505337 -0.229363 0.420169 -0.677213 -0.326752 -0.891863 0.22223 0.876509 0.487368 -0.797426 0.444189 0.204682 0.643454 0.450244 0.526976 0.622372 0.616935 0.227866 -0.0664817 0.206039 -0.482246 0.241901 -0.807891 -0.0879207 -0.226599 0.536777 0.333023 -0.0329272 -0.909823 0.10141 0.072671 0.596457 0.872124 -0.510593 0.914961 -0.459249 -0.399026 0.139087 -0.583692 -0.912278 0.341511 0.863164 0.284842 -0.0187315 0.306498 -0.183262 -0.400401 -0.0719506 -0.963236 0.528774 -0.873269 -0.450208 -0.231956 -0.691747 0.45263 0.537001 0.841981 -0.221271 -0.49937 0.925899 0.883423 0.570251 0.505864 0.748121 -0.945651 0.427253 -0.714007 -0.362242 -0.441727 -0.292755 -0.283182 0.88588 -0.440327 -0.984791 -0.115178 0.857045 -0.174387 0.457034 -0.207236 -0.143577 -0.0144234 -0.0977281 0.392745 0.745392 0.216579 -0.145234 0.280335 0.051349 0.632491 0.771901 -0.0306942 0.503658 0.329395 -0.517556 0.241296 0.376469 0.908213 0.542104 -0.973818 -0.53014 -0.760642 -0.257373 -0.650491 -0.203254 -0.251506 0.211188 -0.338306 0.566054 -0.328738 0.446997 -0.581793 0.653453 -0.648731 0.812366 0.398426 0.556218 -0.343561 -0.328004 -0.392758 -0.720595 -0.55934 0.577532 0.780691 0.769089 -0.94184 0.028093 0.144336 0.962303 -0.437465 0.161446 -0.579374 -0.204183 0.900901 -0.234002 0.588838 -0.352368 0.974116 -0.750885 -0.78747 -0.357546 0.690321 -0.373183 -0.704349 -0.956526 -0.562731 0.692752 0.605156 0.100802 -0.631825 -0.786569 0.386375 -0.189965 0.788597 0.157591 -0.425255 0.845512 -0.813915 0.724033 0.812451 -0.254076 -0.11938 -0.769891 0.540581 -0.219939 -0.00628196 0.131071 0.42474 -0.0386968 0.373683 0.630376 0.617057 0.0623159 -0.736619 0.902728 0.100563 -0.303014 0.59357 -0.29969 0.788205 0.943634 -0.0956731 0.170559 -0.243781 -0.311637 -0.687674 0.331684 -0.465204 -0.50771 0.0387879 -0.664159 0.245125 0.89916 -0.443967 -0.239448 -0.317584 0.548485 0.887303 -0.900844 -0.501141 0.254334 0.727588 -0.898035 -0.680459 0.980912 0.999012 0.416018 -0.317551 0.583162 -0.892561 -0.55288 0.531005 0.0068564 0.612833 -0.737968 0.692621 0.921503 0.586313 -0.775367 -0.592635 -0.385902 -0.447413 0.636529 -0.479427 0.103613 -0.60032 0.191603 -0.356387 -0.715751 0.287646 0.143843 0.53868 0.0112462 0.240977 0.848897 -0.0139674 0.23192 0.257752 0.655591 -0.193497 0.359049 -0.891014 -0.674482 -0.636852 0.717074 -0.409761 -0.94837 0.632066 -0.82983 -0.730992 -0.96495 -0.221455 -0.1844 0.665058 0.289162 0.915538 -0.940542 -0.524501 -0.445381 -0.661374 0.757997 0.69188 0.873526 -0.237076 -0.0696673 0.722482 0.750181 -0.838294 -0.0257007 0.401041 -0.0345492 -0.667464 0.514273 0.293332 -0.306189 0.226144 0.88307 -0.247471 -0.145039 -0.944749 0.0164486 -0.1018 -0.168697 0.829854 -0.441749 -0.882989 0.748326 -0.383739 -0.405315 -0.701179 -0.0479916 -0.647243 0.990573 -0.172536 0.106919 -0.0802773 -0.457018 -0.0586786 0.0713698 0.512665 -0.746081 -0.957274 0.847508 0.766718 0.325607 -0.45349 -0.0189161 0.203114 0.275897 0.884629 0.249307 -0.722327 -0.282678 -0.921899 -0.889419 0.276161 -0.814664 0.839293 0.882951 -0.224533 -0.859511 -0.162032 0.125286 -0.874651 0.659586 -0.779434 0.0361986 -0.806973 0.07408 -0.890392 0.706529 0.324939 -0.853515 0.542587 0.075798 0.469029 -0.928085 -0.953232 -0.340301 0.340601 0.880856 0.911617 0.620681 -0.410086 0.97206 0.72132 0.858478 -0.847165 0.556268 0.747451 -0.0796462 0.695996 -0.42482 -0.965834 0.814318 -0.775375 -0.74776 -0.148808 -0.579702 0.323554 -0.0454045 -0.881168 -0.363739 0.0953974 0.651329 0.70711 -0.447345 0.721167 0.752098 0.209217 0.0520082 0.623089 0.110359 -0.334271 -0.788087 0.0768139 -0.619563 -0.931724 0.224368 0.936376 0.805768 -1.83735 
0.680895 -0.512032 -0.805797 0.490211 -0.322227 -0.454205 -0.643653 0.0156455 0.794797 0.325012 0.179352 -0.549758 -0.625172 -0.227233 -0.84071 -0.000304443 -0.414937 0.890432 -0.843621 0.588805 0.521896 0.214916 -0.556305 0.707591 -0.648085 -0.416707 0.828116 0.751694 -0.488634 0.553225 0.661931 -0.861329 1.2873 0.803187 0.602571 -0.481603 -0.78322 1.11402 0.600235 0.954045 0.17024 -0.341213 -0.443965 0.431919 0.443523 -0.568961 -0.645184 0.909254 -0.707325 -0.512665 0.453227 0.632043 0.602569 0.638492 0.333847 0.908921 -0.813871 -0.00556186 0.38047 -0.241278 -0.414081 -0.0112477 -0.213383 -0.491801 -0.212259 -0.639094 -0.0534495 0.00871098 -0.751875 -0.587878 -0.0827454 0.31794 -0.0101847 0.23537 -0.314597 -0.634221 0.62455 -0.00766198 -0.773649 0.735919 0.31375 0.513435 0.358911 -0.127419 0.0554354 -0.378215 -0.337404 0.175877 0.603105 0.981398 0.802905 -0.903355 -0.0901531 -0.439085 -0.511131 0.643998 -0.110139 0.366587 -0.411647 0.0733333 0.72942 0.475477 -0.656003 -0.294568 -0.331668 0.0201999 0.0174868 -0.773638 0.984781 0.163631 0.980003 0.293762 -0.311362 0.355263 -0.836888 0.779772 0.968419 -0.149085 -0.0441183 0.597617 -0.156797 -0.202307 0.714701 0.758314 0.399702 -0.802281 0.45208 -0.696703 0.595182 -0.926799 0.383503 0.38562 0.572048 0.781089 -0.93968 -0.81559 -0.239064 0.148882 -0.574911 -0.255129 -0.739166 -0.541236 1.04523 -0.00661636 0.783197 -0.766219 -0.19115 0.737589 0.0352271 0.581381 0.304588 0.819274 -0.586603 -0.0720815 0.616142 0.740702 0.166013 -0.0459727 0.879166 -0.370427 -0.0774499 0.218499 0.96255 -0.560322 -0.223555 1.00613 -0.293592 0.718727 -0.0660489 0.0448433 -0.669745 0.23595 0.490283 -0.716571 -0.845341 0.137767 -0.556771 -0.112991 -0.204994 0.429475 -0.59873 -1.00457 0.230551 -0.171366 -0.0723956 -0.237148 -0.478504 -0.897518 0.791972 -0.560537 -0.199833 -0.325147 0.735776 -0.244854 0.0868577 -0.383922 -0.320873 0.724359 -0.80722 0.68292 -0.261676 -0.526944 -0.110925 -0.718423 -0.250911 -0.01309 0.278662 0.131447 0.77633 -0.960768 -0.473102 -0.837378 -0.914779 0.684443 -0.0629014 0.0521544 -0.565967 0.414077 0.130766 -0.891998 0.80283 0.867522 -0.250474 0.443977 -0.43476 0.827692 -0.998571 0.220142 0.517167 -0.83454 -0.118844 -0.757098 -0.37042 0.742113 -0.646462 0.360899 -0.280374 0.587733 -0.508332 -0.507862 0.603748 0.0314697 -0.323564 0.693667 -0.243093 0.617429 -0.206023 0.194557 0.0854827 0.929023 0.34426 -0.128519 0.840546 -0.946273 -0.658027 -0.62685 0.878713 -0.698147 0.642927 0.440296 -0.43642 -0.478616 0.696717 0.171295 -0.717507 -0.84927 -0.401913 0.0719365 0.653991 0.0460267 0.426149 0.286858 -0.942125 -0.901048 0.0567577 -0.165999 0.669781 0.728568 1.00989 -0.179399 0.673874 0.359438 0.660155 0.495144 0.411459 0.865235 0.695833 0.150165 -0.883721 0.290063 -0.366924 -0.245054 0.820462 -0.803565 0.928067 -0.844581 -0.629541 -0.637397 0.0406857 -1.02212 0.443439 -0.468007 0.263892 0.509579 -0.457166 -0.698608 -1.61933 -0.563103 0.980649 -0.721883 0.234131 0.652216 0.543426 -0.16423 0.186426 -0.135222 -0.295364 -0.15789 -0.911647 -0.0231872 -0.765832 -0.287907 0.712719 -0.955409 0.0562667 0.603215 -0.856465 0.448148 0.985457 0.210258 0.490805 0.420879 0.661427 -0.245408 -0.107093 -0.667171 0.0137264 0.163183 -0.273325 -0.0319805 0.417896 0.861449 -0.433937 -0.0623134 -0.345733 0.583389 0.789608 0.369294 -0.617322 0.864814 -0.673709 -0.44004 -0.39852 -0.956098 -0.396714 0.676247 0.62531 -0.267433 0.133052 0.617989 0.920862 -0.381657 0.0294759 0.626927 0.394741 0.936759 0.990851 -0.571554 0.130011 -0.280798 0.307617 -0.460293 -0.420391 0.966948 0.494998 0.244664 0.583334 0.334792 -0.369692 1.0082 0.198372 -0.0614673 -0.444013 0.803063 0.0376637 0.148151 0.420111 -0.251664 0.92094 -0.417327 -0.630939 0.870089 0.256138 0.345828 0.50092 -0.381447 0.289555 0.478134 0.0221041 -0.601113 -0.856908 -0.624586 -0.076255 -0.202665 -0.711708 -0.691145 -1.0069 0.95317 0.672828 -0.354863 0.820245 -0.183265 0.558375 -0.601085 -0.281146 -0.355886 0.38612 -0.998996 0.322339 0.349418 -0.29105 0.588979 0.247214 0.958021 -0.0683192 -0.303958 -0.475152 -0.763716 -0.961342 0.556894 -0.341177 -0.624697 1.4431 0.496795 0.0870872 -0.641666 0.963676 0.0634206 -0.79037 0.551969 0.796729 -0.877333 -0.640945 0.307566 -0.4935 0.113223 0.918514 -0.939304 0.209149 0.239905 0.47728 0.892921 -0.0976383 -0.263727 0.835494 0.77602 0.428586 -0.557092 0.955885 0.619427 -0.970124 -0.465351 -1.03513 -1.01016 -0.965642 0.0666984 -0.691222 0.90944 -0.848379 -0.452859 0.497633 0.881949 -0.354632 0.948681 0.207904 0.154324 0.0436286 0.174359 0.211052 -0.739518 -0.54555 -0.275243 -0.796458 0.297387 0.467756 -0.91164 0.0669431 -0.0559871 -0.439492 0.0477038 -0.398272 -0.408444 0.591977 -0.370688 -0.390355 0.619244 0.716344 -0.0430767 0.576044 0.854413 0.48136 0.0823751 0.817974 -0.886894 0.0276784 0.00206452 0.34588 -0.955176 -0.800098 -0.414709 -0.62719 -0.347495 0.00356567 -0.4133 1.0171 -0.131361 -0.287607 0.0496998 0.73222 0.254814 -0.936045 -0.620463 0.937541 0.689993 0.0753993 -0.515009 0.218154 -0.33384 0.395579 -0.11872 -0.448599 -0.192621 1.02508 -0.762922 0.0287128 -0.0781912 0.279407 -0.602536 0.136897 0.510907 -0.113946 0.52936 -0.809038 -0.831258 -1.03876 -0.88761 0.0561284 0.0134157 -0.0847004 -0.175935 0.974953 0.127306 -0.0350424 0.692849 -0.16977 -1.05231 -0.791858 -0.761874 -0.287263 0.681679 0.137038 0.234312 -0.468809 0.170361 0.654922 0.655102 -1.02277 -0.176863 -0.934719 0.143876 -0.587834 0.0926806 -0.348172 -0.389188 0.366402 -0.302991 -0.272792 -0.640271 0.361242 0.904828 0.133356 0.42644 0.184466 -0.73621 0.230081 -0.880819 -0.755085 0.480904 -0.712433 -0.0734474 0.170746 0.415086 -0.827085 0.738115 -0.513039 0.740988 0.416174 -0.458065 -0.342596 0.499924 0.716441 0.0851337 -0.434551 -0.648232 0.699826 0.91427 0.0701444 -0.551387 -0.673576 -0.463471 -0.640446 0.444264 0.966973 0.513596 0.659127 0.217078 0.613028 0.923392 -0.270686 0.925689 -0.155982 0.936279 0.362804 0.0616062 0.689574 0.858481 -0.156684 0.140421 -0.55519 0.534891 -0.349314 -0.846151 -0.317676 0.232124 -0.429427 -0.647628 0.178064 0.585585 -0.226666 0.434008 -0.848163 0.0946649 -0.0624221 -0.825228 -0.352046 -0.450255 0.351403 -0.730496 -0.431853 -0.805319 -0.771484 0.421991 -0.958355 0.553566 -0.498586 0.766253 0.409996 0.300974 -0.113313 0.845482 -0.18564 0.529618 -0.837734 0.391319 -0.186582 -0.47054 0.69688 -0.959369 -0.774234 -0.544252 0.479657 -0.608617 0.66648 -0.606734 -0.608687 -0.632415 0.0528008 0.718594 -0.407328 0.4725 -0.979493 -0.25224 -0.172351 -0.971624 -0.539958 0.321584 1.13757 0.77549 -0.211641 -0.309943 0.818492 0.534766 -0.59791 0.865442 -0.0712841 0.141974 -0.389089 -0.184186 0.248325 -0.0505724 0.443185 -0.28185 0.270328 0.14166 0.236489 0.974704 0.678479 -0.755104 0.925553 -0.719848 0.863606 -0.8337 0.204209 -0.203829 -0.784489 0.619322 -0.801506 -0.941421 0.593615 -0.064042 -0.1313 0.41981 -0.493957 0.28042 0.355475 0.516424 -0.480674 0.863229 -0.680592 0.746317 -0.177171 0.718722 -0.485111 -0.79194 -0.133136 0.763641 -0.78691 -0.543676 -0.973089 -0.798761 -0.259543 0.870581 -0.729679 0.903379 -0.323994 -0.532076 0.570529 -0.0765983 -0.421089 0.20065 0.913351 0.45619 -0.372155 -0.590814 -0.245879 -0.997314 0.898212 0.315906 0.97694 -0.693802 0.106512 -0.136974 -1.03162 0.702029 0.0366014 -0.0806144 0.413642 0.251853 0.368881 0.370146 0.476755 -0.919461 0.34422 0.842709 -0.991071 0.990413 -0.720321 0.66352 -0.0673778 -0.289854 -0.279369 -0.18291 -0.650567 0.374754 0.209018 0.0715666 0.316803 0.140469 -0.513937 0.378438 0.492849 0.420228 -0.84755 0.60404 0.144127 0.206031 -0.52122 -0.338372 -0.460988 0.859081 -0.814779 -0.927261 -1.06931 0.23099 0.739625 -1.08207 0.334285 -0.845256 0.644897 -0.693992 -0.0831444 -0.657111 0.125036 0.184448 0.820143 -0.60296 -0.641609 0.300297 0.696349 -0.216336 -0.52908 0.17955 -0.541302 -0.142485 -0.250903 0.506385 -0.729142 0.334396 -0.657615 -0.141889 0.293033 -0.589551 -0.0199653 0.351288 0.78802 -0.12144 0.397907 0.180961 -0.0103868 0.00528882 0.491812 0.922115 0.367303 -0.375487 0.154199 0.192452 -0.00826441 0.575731 -0.591643 -0.325067 -0.600336 0.0737916 0.84985 -0.153543 -0.999093 -0.334574 -0.489271 -0.768254 -0.990632 -0.137144 0.133229 0.303135 0.304669 -0.871965 -0.363202 0.147741 0.012522 -0.973663 -0.649945 -0.999111 0.0414896 0.868659 0.927106 -0.537693 -0.463626 0.162095 0.712547 0.581529 -0.261268 -0.840217 -0.744535 0.188274 0.266594 -0.860967 -0.83698 0.306859 -0.144855 -0.339056 0.702584 -0.178058 0.51202 -0.269031 -0.816368 -0.14807 -0.14704 -0.162099 0.952094 0.842547 -0.174018 -0.711404 0.852959 0.927 -0.807767 0.836503 -0.599015 -0.256785 -0.0251677 -0.936237 0.99251 0.74327 -0.832756 -0.441385 -0.0592814 0.512772 -0.235754 0.0566512 -0.18163 0.530594 0.532825 -0.620618 -0.723886 0.104215 0.00466187 -0.348756 -1.0183 0.948814 0.594565 0.889643 0.748936 -0.525293 -0.822847 0.60279 -0.542615 -0.598292 0.535848 -0.128973 0.212941 -0.492513 -0.101195 0.603432 -0.842142 0.243386 -0.871078 0.24863 -0.286193 -0.0133776 -0.645113 0.461966 -0.48239 0.914552 0.898085 0.14608 0.139772 -0.00580383 0.917225 0.32317 -0.0560509 0.560768 0.0879425 -0.36009 -0.846102 0.39181 -0.495247 -0.425954 0.948331 -0.983111 0.425596 0.0965018 -0.426182 -0.5379 -0.298954 -0.139932 0.594473 -0.14404 -0.887893 -0.703789 0.828502 -0.557841 0.809479 -0.556607 -0.611362 0.73817 0.610164 0.576673 -0.219215 0.602065 -0.262582 0.753357 0.142404 0.878994 -0.435738 0.287037 0.345617 0.104961 0.925295 0.288633 0.15566 0.373245 -0.569587 0.721929 0.800133 0.150345 -0.389134 0.441735 -0.943856 -0.207984 0.791513 0.930208 0.258353 0.656561 -0.612028 0.709003 0.413121 -0.974092 0.27318 -0.762903 0.691908 -0.912656 -1.00145 -0.293651 0.917866 -0.392241 -0.929505 0.251412 -1.05068 
-0.613635 -0.43072 -0.117202 0.430082 0.00505564 -0.172476 0.319276 -0.823384 0.293186 -0.288462 -0.529564 1.0166 -0.473272 -0.756875 0.326166 -0.828308 -0.299617 0.0766183 0.62173 -0.336857 -0.692091 0.853628 -0.650826 -0.58686 0.839232 0.0901093 -0.644371 -0.494638 0.262738 0.635475 -0.885207 0.30309 -0.803361 -0.0336775 -0.358081 0.198336 0.574682 0.823498 0.33054 -0.235477 -0.547818 0.580045 -0.284469 -0.0969268 0.765512 0.985702 0.00166961 -0.715045 -0.106864 -0.537442 -0.0727901 0.149136 -0.791978 0.197189 0.438748 0.976965 -0.729042 0.727383 -0.650165 0.435447 0.291594 -0.577743 -0.389794 0.424787 0.343536 0.173392 -0.447112 -0.15259 -0.0612483 0.844859 0.557687 0.367443 0.372031 -0.74472 -0.792322 0.0668145 -0.797154 0.134032 0.357216 0.0818062 0.600349 -0.710231 -0.783224 0.830065 0.469789 0.669131 0.801103 0.756164 0.39681 -0.827146 0.198054 -0.315423 -0.373789 0.795059 -0.851508 0.987057 -0.0122843 -0.278731 -0.166569 0.979928 -0.422747 -0.585244 0.302145 0.887509 -0.376915 0.565752 -0.0471672 -0.17905 -0.355342 -0.640105 0.895891 -0.72085 -0.389926 -0.873854 1.13389 1.05781 0.738339 0.744148 0.770397 0.072312 0.94505 -0.124563 0.784736 -0.511398 -0.311681 0.81398 -0.700934 0.553821 -0.565552 0.0634591 0.46533 -0.0630012 0.246141 -0.26351 -0.0923695 1.04566 -0.894038 0.764119 -0.275994 -0.224922 -0.898809 -0.469302 -0.0243415 -0.430293 -0.425739 0.0177276 -0.45284 -0.743678 -0.307864 -0.7905 0.302703 -0.361539 0.0632441 -0.000652695 0.0768963 0.77006 -0.128708 0.408126 0.376333 0.258284 -0.459766 -0.171273 -0.841086 0.884447 0.486011 -0.0184809 0.784431 0.638337 -0.295374 -0.54517 -0.632527 -0.157255 -0.0374713 0.2742 0.265468 0.468702 -0.811701 0.762073 0.684058 -0.14429 1.00133 -0.0883765 0.435854 0.0997714 0.890171 -0.537005 -0.162618 -0.355349 0.811533 -0.855411 0.857099 -0.75169 -0.0912184 -1.00125 -0.932012 -0.6377 -0.063823 0.816803 0.969827 0.620396 -0.744102 -0.69754 -0.709324 0.194089 0.555846 0.506184 -0.346578 0.73284 0.239032 -0.658377 -0.401092 0.234486 0.281484 -0.972724 -0.630803 0.159732 -0.46864 0.197679 0.835665 -0.670358 0.373277 0.644832 -0.415235 -0.759221 0.63548 -0.396831 -0.359287 -0.394445 -0.49968 -0.401468 -0.777323 -0.27031 -0.0881299 -0.395524 0.97499 -0.464543 -0.974018 -0.42559 -0.872305 0.28175 -0.113971 -0.281873 -0.419935 -0.813213 -0.308074 -0.165291 0.325235 0.282136 1.03621 0.161333 0.566286 0.37682 -0.211001 -0.985901 0.456798 -0.714264 -0.44832 -0.956933 -0.0712134 0.123556 -0.344437 0.0129869 0.850901 0.610918 0.648397 0.664093 0.962202 0.630503 -0.733488 -0.859754 -0.095236 0.159119 -0.239071 0.461848 -0.626482 0.670653 -0.764545 -0.40944 -0.0841629 -0.73958 0.646515 -0.578695 0.700531 -0.645114 -0.569545 0.0998836 -0.283689 0.13381 0.254284 0.635807 -0.761659 0.889285 -0.208864 -0.96008 0.442581 -0.536136 0.718145 0.420277 -0.855653 0.967264 0.472413 0.0419061 0.0870825 -0.643185 -0.545416 -0.65458 0.974831 -0.341475 -0.0977978 -0.206384 -0.135228 -0.479602 0.169975 -0.617475 -0.141095 0.605213 0.436543 0.556368 -0.285287 -0.376606 0.209376 -0.050743 -0.495504 -0.980794 -0.034222 0.928096 -0.514016 -0.315906 0.32128 -0.381409 -0.361562 -0.164101 0.67537 0.731369 0.21722 -0.859632 -0.901345 0.186181 -0.285157 -0.0166743 0.968647 0.645679 0.507101 0.138757 -0.942421 -0.589448 -0.247747 0.521768 0.951445 0.441182 -0.872907 0.152186 -0.570523 -0.393797 0.101094 0.45701 -0.434143 0.61306 -0.847743 0.903638 -0.721903 -0.273911 -0.263938 0.914045 -0.545288 0.929468 -0.975992 -0.468333 0.0564621 -0.230781 0.492116 0.0939124 -0.634415 -0.0986649 -0.819778 -0.509659 0.321089 -0.0482888 0.872299 0.211679 -0.649752 -0.992616 -0.536591 -0.174506 -0.54939 0.429644 -0.778951 0.0755443 0.153656 -0.732263 -0.0086928 0.420654 -0.0116495 0.665632 0.27193 0.451232 0.479485 0.303518 0.996054 -0.298417 -0.514293 0.398233 0.708824 -0.445231 -0.565057 0.871029 -0.0541334 0.664966 -0.102263 -0.0973499 -0.133264 0.206466 -0.0973809 0.351613 -1.00167 0.522515 -0.133604 -0.783266 -0.351667 -1.00513 -0.447772 0.646134 0.395091 0.476628 0.313888 -0.259164 -0.128842 -0.0811472 -0.932035 -0.209992 0.593416 -0.841453 -0.814405 0.312049 -0.331574 -0.471029 0.197515 0.636237 -0.774586 -0.973731 -0.488205 0.172971 0.24231 0.408844 -0.496652 0.27999 -0.0790043 0.372788 0.5319 0.598312 0.409041 -0.976869 0.244808 -0.156434 0.492584 -0.406055 0.606333 -0.614486 0.541796 0.669317 0.177668 0.188504 0.846894 0.347475 -0.486799 -0.453975 0.915511 0.690355 -0.852237 -0.86562 0.777159 -0.367801 0.298755 -0.0027515 -0.889814 0.774875 -0.718272 0.0533091 0.189756 0.802702 -0.662274 -0.394878 0.878338 0.968341 0.471181 0.33851 -0.528308 0.047339 0.661783 -0.949622 -0.195947 -0.130019 0.286409 -0.418972 -0.864291 0.680979 0.0821337 -0.871951 0.390174 0.156556 -0.677883 0.0374288 0.892119 0.491393 -0.933312 -0.97567 0.41336 -0.622152 -0.023694 -0.375973 -0.791077 0.601458 0.0808025 -1.01001 0.563669 -0.15034 0.0517674 1.05385 0.646774 -0.0815476 0.882944 -0.751113 0.803928 0.0916282 -0.154456 -0.888748 -0.150139 0.996944 -0.741227 -0.78192 0.193594 -0.414494 0.427624 0.190156 -1.04228 0.395112 0.218612 0.409743 0.840963 -0.670632 -0.983841 -0.941475 1.02256 0.176922 -0.940506 0.523288 0.690242 0.399484 0.536771 0.456041 -0.555245 0.571607 0.806896 -0.648999 -0.307988 -0.312073 -0.602283 0.521845 -0.303937 -0.356527 0.743357 0.925846 0.135184 0.0965351 0.124785 0.171606 -0.423363 -0.644725 -0.390718 -0.565463 -0.345479 -0.389867 -0.503381 -0.348087 0.806147 -0.424069 -0.779633 0.626303 0.980258 0.739806 0.0824099 -0.597307 0.267117 -0.101251 -0.266604 0.979547 0.614173 0.151626 0.487743 -0.656707 0.811841 0.273972 -0.723238 -0.0523563 -0.597069 0.426262 -0.847544 -0.00141029 0.779024 -0.260657 0.477395 -0.557743 0.405921 0.941161 0.114091 0.142485 -0.515579 0.254986 -0.207208 -0.584722 0.0420699 0.918121 -0.153355 -0.743651 -0.227097 0.58381 -0.684842 -0.510989 -0.236985 0.803456 -0.267527 -0.476282 0.0979752 0.0431306 0.464439 0.446785 -0.553056 0.591176 -0.58313 -0.782889 -0.499757 0.793011 -0.294979 0.707081 0.692536 0.859853 -0.0399086 -0.831737 0.123662 0.770942 -0.306322 -0.859786 0.532488 0.584434 -0.500188 -0.736055 0.122479 -0.310226 -0.143848 0.790756 -0.567265 0.553415 -0.519356 0.483134 -0.113928 -1.13727 0.0976358 0.0580774 0.631209 0.454449 0.450463 -0.971242 0.261662 -0.911926 0.943428 0.120137 -0.989777 0.0144727 0.448186 0.124965 -0.287261 -0.82906 0.393286 -0.465622 0.929711 0.853047 0.017809 0.0302748 -0.341831 1.08027 0.0048384 0.186947 0.670643 0.434378 -0.236236 -0.678921 0.474283 0.816695 0.492709 0.118414 0.304301 -0.0493504 0.211804 -0.363043 0.12567 0.0629849 0.751836 0.115161 -0.923553 0.161943 -0.711276 -0.10513 0.334675 0.689992 0.453126 0.158164 0.556129 -0.46966 -0.805579 -0.798257 -0.47822 0.157205 0.392431 -0.829051 -0.363453 -0.801874 -0.460326 -0.86109 -0.941279 -0.965759 0.262305 0.349644 -0.0089608 -0.519091 -1.04832 -0.848464 0.630251 0.769993 0.295093 0.758814 -0.146159 0.651651 -0.391264 -0.722911 0.286594 -0.940939 0.419292 -0.245569 -0.406294 0.573129 0.0554446 0.199621 -0.252241 -0.59042 0.341255 0.456796 -0.378074 0.730455 0.453714 -0.345539 0.918734 -0.261973 -1.03227 -0.115297 0.15391 -1.05111 0.126639 -0.133454 0.76879 -0.727634 -0.460283 -0.237353 -1.07379 0.163402 0.012281 0.310467 0.293952 -0.55814 -0.760017 0.954039 -1.0047 0.0135107 -0.0104318 -0.242378 0.524944 -0.54188 -0.734629 -0.814704 -0.757873 0.696182 -0.165903 -0.911788 -0.480102 -0.131726 0.0752714 0.829758 -0.0375843 -0.854635 -0.509703 -0.256695 -0.349275 0.271581 0.470928 -0.477878 -0.363903 -0.415709 0.993952 0.972776 0.125467 -0.881286 0.978302 0.253754 0.255263 0.122465 -0.884812 -0.158035 0.539231 -0.661318 0.0297024 0.788581 -0.954408 0.869414 0.925972 -0.422247 -0.286868 0.0700359 -0.672246 0.669746 0.261087 0.0219683 -0.605535 0.910359 -0.643361 0.932396 -0.4321 -0.0487705 -0.470747 -0.425198 -0.0301741 0.652357 -0.276391 -0.0379357 -0.110176 -0.960653 -0.912732 -0.00350979 -0.0982421 0.62216 0.342184 0.955964 0.412883 0.436796 0.866287 0.414342 -0.938284 -0.381754 -0.526116 -0.572651 -0.715516 0.779476 0.474128 -0.303704 0.805291 0.860609 -0.3233 -0.651259 -0.0444439 0.158161 -0.103529 0.815295 -0.156084 0.649989 -0.234852 0.746231 0.633661 -0.186676 -0.299371 -0.487881 -0.562703 -0.906543 -0.510766 0.902568 0.527363 -0.628992 0.283031 0.538427 1.64399 0.793567 0.911258 0.244128 0.564005 0.449436 -1.00328 0.321391 0.290961 -0.40716 0.482873 -0.870394 0.636442 -0.551249 0.851376 -0.287139 -0.881468 -0.304 -0.442757 0.717823 0.501958 0.314644 -0.780612 -1.08385 0.449341 -0.254525 0.913198 -0.0131354 0.188762 0.195185 -0.505687 -0.763817 -0.127185 -0.429154 0.438209 -0.408647 0.991245 0.543219 0.963386 0.228886 -0.858553 0.490193 0.41644 -0.848709 -0.957926 0.344407 -0.0132038 -0.624376 -0.950593 0.591202 -1.03513 0.480887 0.00540144 -0.683823 0.648653 -0.576257 0.217476 0.538763 0.399324 -0.662954 -0.225755 1.02464 -0.430076 0.786147 -0.506712 -0.955154 -0.615716 -0.522832 0.573409 -0.669755 0.750934 0.806994 0.84468 0.202615 -1.01419 0.941889 -0.398831 0.0388015 -0.843369 -0.32131 -0.391521 -0.826583 -0.679359 0.611684 -0.440121 1.00416 -0.899702 0.772224 0.571582 0.52261 -0.84751 -0.663444 0.51423 -0.25663 -0.851934 -0.944299 -0.175263 -0.406086 -0.423568 -0.560055 -0.0574251 -0.619743 -0.743643 -0.164882 0.595059 -0.742753 -0.241663 -0.769331 0.348465 -0.0226056 -0.111015 0.82841 0.0889672 0.260166 0.498047 0.634038 0.211704 0.490204 0.365409 -0.233838 0.116845 0.513395 0.0684383 -0.267793 -0.580772 0.396776 -0.250353 0.193873 0.855207 0.213687 0.49578 -0.195287 0.647069 0.816241 0.551815 0.256482 -0.863135 -0.637463 0.455347 0.327287 0.310404 -0.915839 0.313743 -0.541393 0.727121 -0.162754 -0.878107 -0.284568 -1.35743 
0.544454 0.635304 0.546045 0.107342 -0.251992 -0.782603 0.45066 -0.948942 -0.0665128 -0.414734 0.952808 -0.821052 -0.832262 -0.271876 0.798404 -0.898636 -0.606582 0.102667 -0.740229 -0.195542 -0.423083 0.71494 -0.797931 -0.0352396 0.0835662 -0.295422 -0.393262 0.988403 -0.099508 0.493254 -0.511196 -0.494299 0.173351 -0.887399 0.677752 0.986942 -0.615984 0.16269 -0.914292 0.337848 0.796764 -0.947214 0.575334 -0.972566 -0.185054 0.447833 -0.8764 0.218261 -0.461016 -0.628008 -0.966606 0.0947011 -0.899244 -0.780519 -0.939535 0.165167 -0.0787013 -0.35647 0.146084 0.818545 -0.900409 0.64132 -0.716571 0.241045 0.731644 -1.06131 0.217445 -0.944453 0.0873852 0.301521 0.44535 -0.0555848 0.393978 -0.0403402 -0.0356159 -0.795184 -0.545056 0.0351872 0.427222 -0.0456572 0.44245 0.44897 -0.976437 0.563104 0.724743 -0.73168 -0.230078 -0.30625 -0.125209 -1.00179 -0.516118 0.0559587 0.634871 -0.107209 -0.519174 0.472098 -0.0406327 0.783751 0.596832 -0.927767 0.300631 0.0658294 -0.0833103 -0.479221 -0.803354 -1.02242 -0.13868 -0.369157 0.0293126 -0.635342 0.647549 -0.393409 0.891453 0.763046 -0.756727 0.666567 -0.913742 0.106933 -0.624816 -0.0393024 0.141563 -0.0588789 -0.943106 -0.270676 0.758621 -0.502223 -0.857237 -0.290385 -0.796418 0.745431 -0.188625 0.405939 -0.123525 0.812938 -0.940757 0.0291761 0.828954 -0.0350314 0.696815 -0.176221 0.354101 0.415332 0.569063 0.310133 0.275289 0.861571 0.00750978 0.385392 -0.0546107 0.451975 -0.601554 -0.961355 -0.590373 -0.498523 -0.20311 -0.721449 0.0549759 0.00464325 0.0324042 0.358666 -0.190753 0.856895 -0.176382 0.714039 0.709585 -0.0860742 -0.230023 0.553665 0.889253 -0.501274 -0.46132 0.262907 0.933261 -0.846876 -0.42259 0.211881 -0.963237 0.577172 -0.415041 -0.0148678 0.000549145 -0.0115516 -0.011664 0.422307 0.446571 0.791532 0.664417 -0.503814 -0.236561 -0.261247 0.85637 0.607574 -0.401234 -0.276375 0.281237 -0.728234 0.557687 -0.937393 0.829121 0.463448 -0.457502 -0.728147 -0.321119 -0.598237 -0.498787 0.303206 0.740509 -0.481264 -0.0908648 -0.672454 0.437904 0.88381 0.37581 -0.474701 0.317048 -0.253751 -0.689532 -0.0233315 0.293739 0.105467 0.732617 0.280852 -0.141406 -0.540548 1.09932 -0.813488 -0.313674 0.549176 -0.778684 -0.352061 0.00896183 -0.283516 -0.130015 0.833442 0.287857 0.405058 0.107997 -0.0225951 0.923137 -1.00037 0.396304 0.377577 2.00735 -0.456108 0.95996 0.262945 0.324865 -0.716668 -0.660272 -0.330018 0.280763 -0.865933 0.946012 -0.789356 -0.49492 0.854036 -0.728186 0.190179 0.40535 -0.492411 0.690888 -0.540509 0.271826 -0.475054 -0.725974 -0.459727 0.881687 0.394472 0.597737 0.80955 0.424779 -0.132412 0.230104 0.382239 0.457969 0.218191 -0.324565 -0.132516 0.543019 0.0351 0.57394 0.0204519 0.178021 0.509676 0.269361 0.69608 0.380878 0.604421 -0.135827 -0.211787 -0.88468 -0.476211 0.263187 0.399328 0.0398413 0.531593 0.958269 -0.0744907 -0.0707792 0.50667 -0.287312 -0.656619 -0.655859 0.926459 0.69947 0.803648 0.214571 -0.612307 -0.322264 -0.297152 0.419137 -0.75117 0.686132 -0.453404 0.744659 -0.0737679 -0.743868 0.145913 -0.456741 0.126764 0.893928 -0.318617 0.715641 0.101924 -0.956856 -0.277333 -0.395206 -1.01823 0.593082 0.599168 0.489493 -0.655541 0.941437 0.853668 -0.704581 0.654615 0.707106 0.481253 -0.941808 -0.681915 -0.770296 0.560508 -0.391468 0.841905 -0.900922 -0.674787 -0.104535 -0.589409 0.51791 0.434899 0.418221 0.363989 -0.704725 0.271896 -0.48877 -0.764672 0.882576 0.219452 -0.794139 0.482011 -0.186815 0.753741 0.887689 -0.258075 0.694582 -0.833723 -0.615198 0.255213 0.228335 -0.473531 0.645427 0.752085 -1.04624 -0.739905 0.680997 -0.858634 -0.483585 -0.507741 -0.44815 -0.939772 0.91439 0.960863 0.444638 -0.998885 0.139607 0.949121 -0.8156 0.0352576 0.0939784 -0.6199 -0.467335 0.962247 -0.884193 -0.657343 -0.248122 0.697776 -0.517972 0.198583 -0.032618 -0.897097 0.719769 -0.404157 0.895112 0.75948 -0.160539 0.550388 0.863486 0.414847 -0.939695 -0.666215 0.461391 0.976026 -0.69224 -0.135954 0.983828 0.439098 -0.227617 -0.862927 -0.568739 0.917271 -0.48935 -0.0774279 0.87876 -0.408772 0.239064 -0.3979 -0.742752 0.719624 0.792378 0.166592 0.79907 0.525886 0.745779 0.657934 0.241176 -0.401242 0.239118 0.110431 0.958225 0.327825 0.447173 0.42977 0.229118 0.771716 -0.70793 0.187015 0.175457 0.0705842 0.616275 0.590974 -0.0657758 0.746214 -0.507644 -0.166762 -0.571854 0.760511 0.511902 -0.35179 0.381072 0.261906 0.769165 0.249307 -0.147257 0.618672 -0.0608173 -0.987764 -0.802758 -0.754105 0.0563621 -0.729548 0.463563 -0.377911 0.663488 -0.337569 -0.749967 0.919984 0.942204 0.398442 -0.0450973 0.281686 0.145123 0.977736 0.0374932 0.344662 0.0775889 0.469079 0.309753 -0.647636 -0.706433 -0.127389 0.588829 -0.876421 -0.901475 -0.728933 0.666743 -0.033906 -0.744982 0.875809 0.165088 0.299594 -1.02494 -0.485982 1.04684 0.723149 0.167624 -0.762959 0.576941 -0.0281104 0.638749 -0.485728 -0.848376 -0.327439 -0.53165 0.240965 -0.671231 0.252513 -0.28179 0.490649 0.488252 -0.138413 -0.743016 -0.0309669 -0.0507341 -0.680369 0.291771 -0.377753 0.267485 0.555792 -0.508657 -0.608425 -0.0609377 -0.477956 -0.104804 -0.113269 -0.840147 -0.953286 0.0873536 0.709997 0.0417924 -0.26969 -0.788722 0.213946 0.378988 -0.349023 -0.594029 0.55446 0.890429 0.13143 0.0375138 0.386451 -0.97619 0.281911 -0.634663 -0.0577152 0.567859 0.630192 0.572348 -0.206696 0.162018 -0.989206 0.17022 -0.905381 -0.504223 -0.962746 -0.0537425 -0.363534 -0.91503 -0.943651 -0.697797 0.112471 -0.275413 -0.459818 -0.695463 -0.828337 0.215854 -0.218302 0.693841 0.150894 0.865721 -0.312159 -0.493747 0.933673 1.00439 -0.141771 -0.199431 0.46894 -0.541752 -0.631158 -0.641256 0.673304 -0.652702 0.486457 0.761838 -0.100501 0.541499 -0.263429 0.552737 0.624775 -0.388397 0.946569 -0.31092 0.51802 -0.483276 -0.0560563 0.575259 0.729857 0.7149 0.247894 -0.208964 0.611601 1.06559 0.231937 0.429752 1.1275 -0.869177 -0.67491 0.47404 -0.316683 -0.25661 0.84809 -0.825596 0.148026 0.0454018 1.00679 0.874209 -0.15715 -0.426884 0.478016 -0.699306 0.280993 0.396395 0.0429186 -0.412794 0.754189 0.922 -0.956376 0.325627 0.631112 0.346667 -0.942891 0.0880034 0.133572 0.104309 -0.455271 0.0270454 0.263565 -0.234284 -0.704 0.749234 0.412224 -0.899067 0.971353 -0.544168 0.372974 0.80797 -0.637314 -0.89066 -0.641146 0.800596 -0.605574 0.56159 0.124698 0.348516 -0.776744 -0.127387 0.280767 -0.733616 -0.775693 -0.141316 0.508522 -0.724849 0.936224 -0.386424 0.483953 -0.537341 0.575394 -0.270764 0.229858 0.945891 -0.488617 -0.36778 -0.938883 -0.569242 0.04231 0.38104 -0.793247 0.356957 0.483621 -0.448101 0.164635 0.867429 -0.894918 -0.683422 0.177516 -0.751001 0.130417 -0.571144 -0.540389 0.43369 0.220432 1.00744 0.610008 0.203617 -0.380893 0.105548 0.753995 -0.808307 0.8679 -0.121961 -0.952532 -0.642852 0.540832 -0.867994 -0.283565 -0.436822 0.649759 0.0526171 0.937132 -0.00754797 0.576634 0.140719 -0.129001 0.737542 0.422638 0.954199 0.892065 -0.509981 -0.492996 -0.573748 0.772608 0.724565 -0.591152 0.394598 -0.167445 -0.0380526 -0.516573 -0.595288 0.0751807 -0.620151 0.525604 0.269879 -0.300757 -0.0276078 0.280006 0.346509 0.483638 -0.144842 -0.59128 0.42328 0.903114 0.903959 -0.515794 -0.336104 0.476537 0.762734 -0.338682 0.569683 -0.779426 -0.0565738 0.743611 1.01905 -0.305589 0.956878 0.311121 0.357326 -0.13491 0.681225 0.848885 0.87606 0.905977 0.257022 -0.0188096 -0.512643 -0.852455 -0.716646 0.867523 0.621819 0.129418 -0.735565 0.0300462 -0.025322 -0.85728 0.528152 0.561019 0.690977 0.283619 -0.834246 0.0464092 0.521076 0.0956208 -0.274877 0.468269 0.657366 -0.286493 -0.24464 -0.00772667 0.523885 -0.568026 -0.197137 0.376216 -0.657955 0.986447 -0.650826 -0.170315 -0.89438 -0.371797 -0.316685 0.695399 0.745356 -0.106584 -0.324358 -0.359757 -0.0129583 -0.835642 -0.792227 -0.366373 0.443946 -0.675722 0.649663 -0.0504822 0.307469 -0.657547 -0.637002 -0.0154228 -0.0840382 0.157498 1.00015 -0.459651 0.562605 -0.231749 0.921458 0.881547 -0.198345 -0.690473 -0.250708 -0.0691521 -0.0739688 0.373983 -0.400867 -0.381607 -0.731633 0.24857 0.288901 0.29719 -0.77177 0.445037 0.9751 -0.122918 0.784435 0.562361 0.765233 0.122776 0.921031 -0.812832 -0.723587 -0.0757826 0.516437 -0.804082 0.536221 -0.231723 -0.054821 0.387833 -0.446004 0.769125 0.691459 0.241626 -0.291031 -0.368775 -0.428411 0.265214 0.149903 -0.17519 -0.577845 -0.576022 -0.864185 0.767121 0.987309 0.948202 -0.319007 0.603774 0.517903 -0.683355 -0.33101 0.477107 -0.507269 -0.110698 -0.666198 0.571144 -0.0125579 0.800405 -0.780224 0.693796 0.160639 -0.296263 0.575235 -0.0999101 0.847424 -0.868257 0.278105 -0.570054 0.220042 -0.563093 0.249479 0.703662 -0.181255 0.257434 0.469071 -0.343547 0.295161 -0.90484 -0.753644 -0.1894 -0.582458 -0.0826947 -0.763142 -0.190225 0.776147 -0.475674 -0.658109 -0.305704 -0.74025 -0.518374 -0.462437 0.382478 0.201853 -0.944848 -0.878646 0.0347171 -0.887909 0.356754 0.391128 0.328584 0.760192 -0.392045 -0.0172165 -0.420457 0.886305 -0.582051 0.202217 0.121451 -0.524953 0.382205 0.886099 -0.152682 -0.724621 -0.937452 0.637898 -0.993873 -0.42949 0.96424 -0.290117 -0.211239 -0.611423 0.185447 -0.793922 0.70909 0.304009 -0.743321 -0.313358 0.413906 0.661762 -0.83806 -0.219406 0.432313 -0.318693 0.762776 1.04976 -0.535874 -0.992702 0.0651019 0.619649 -0.461078 -0.42392 0.606903 0.50843 -0.166223 0.612042 0.0750296 -0.0646171 -0.847413 -0.0300071 0.55539 -0.0321372 0.497335 -0.231895 0.391915 0.0428311 1.00214 0.294615 0.701929 0.382502 0.150769 0.79802 -0.90119 -0.543513 -0.518 0.795448 -0.570307 0.029871 0.925811 0.524151 -0.430294 -0.448263 -0.89041 -0.794924 0.878388 -0.0428646 0.586873 -0.190203 0.771055 0.885115 0.868997 0.255874 -0.235648 0.162641 0.979912 1.02111 -0.858398 0.889261 0.344636 0.847817 0.241956 -0.706439 0.444852 -2.53728 
-0.306277 0.833575 -0.0128651 0.0641542 -0.261274 -0.229006 -0.477119 0.252513 0.179218 -0.431552 0.356722 0.0302067 0.471048 0.123582 0.883428 0.211045 -0.0120224 0.647369 -0.599514 0.823026 -0.273065 -0.67417 0.666021 -0.103369 -0.622019 0.0620241 -0.376215 0.210653 0.188031 -0.901833 -0.450534 0.83004 0.817788 0.245609 -0.196381 -0.485112 -0.702632 0.322538 0.725785 0.714032 1.22845 0.441671 -0.348834 0.607191 -0.729344 -0.727491 -0.500542 0.250649 1.0263 0.0101416 -0.0914561 -0.2627 0.469055 -0.385418 0.577499 0.448322 0.593254 -1.48669 -0.0194292 -0.136422 -0.476029 0.570405 -0.265525 -1.25933 0.0539518 0.605656 -0.390908 0.208298 0.077349 -0.606019 -0.177553 0.0532869 0.704537 0.462793 -0.626236 0.960871 0.568651 0.24985 0.0933803 1.06539 -0.481912 -0.798338 -0.585292 0.731616 -0.148764 1.18861 0.571912 -0.460758 -1.11399 -0.287309 0.528148 -0.663774 -0.810682 -0.736563 -0.455816 0.566245 -1.03409 0.321723 -0.11853 0.184844 0.703496 0.860146 -0.571939 0.329623 0.2323 -0.0782485 0.0637847 0.0707425 -0.667951 -0.554011 -0.18702 -0.451025 -0.384241 0.172835 -0.468527 0.506616 0.206226 -0.891194 -0.90645 0.387721 -0.200608 0.628498 0.816785 0.109276 -1.00864 -0.613147 -0.356543 -0.861055 0.669297 0.696709 0.452573 0.410147 0.550138 0.863967 -0.196099 -0.166737 -0.137335 -0.869936 0.964826 0.185216 -0.414107 -0.1923 0.929895 0.348343 -1.03056 -0.478304 -0.144988 0.22646 -0.310848 0.0259881 -0.387198 0.544356 -0.333871 -0.448431 -0.327474 -0.444086 -0.0362463 0.421392 -0.194371 -0.581868 -0.0264878 -1.01887 0.693233 -0.355338 -0.976946 -0.327872 0.727923 -0.249892 0.042081 1.58618 -0.781963 0.299034 -0.581477 -1.05555 -0.173954 -0.94879 -0.476355 0.46069 0.469003 0.452563 -0.32547 -1.31289 -0.312495 0.339336 -0.878694 0.236631 -0.905307 0.217816 -0.17191 -0.214024 -0.97328 0.99068 0.0834319 0.529592 0.208192 0.247414 -0.572546 0.755485 -0.991883 0.45211 0.326938 -0.647403 -0.0452619 0.53302 -0.830649 0.808287 0.483461 0.188467 0.129522 -0.023853 -0.731626 -1.03092 -0.0849602 0.292188 0.346916 0.658501 -0.405133 0.785549 0.155709 0.617511 -0.442189 -0.0390228 0.66325 0.886219 -0.0673418 -0.741968 -0.0334036 0.493062 -0.815854 0.382117 0.148969 0.487035 0.738009 -1.0587 0.18995 -0.691523 0.826581 -0.494791 0.316361 0.237359 0.394234 0.778401 0.494436 -0.609679 -0.00978415 0.108754 0.91405 0.870181 -0.148556 -0.108672 0.644408 0.552361 0.944181 0.393945 0.474664 0.0366278 0.822262 -0.327558 -0.34851 -0.941889 -0.830993 0.710654 0.604752 -0.914834 0.884115 -0.462925 -0.562022 0.683049 0.0226616 1.09939 -0.129126 -0.457094 0.746606 -0.360366 -0.0251497 -0.180543 0.814994 0.0964055 -0.0992128 -0.320773 0.765217 -0.45241 -0.619419 0.874132 0.938562 0.77905 -0.278343 0.688394 -0.855247 0.368306 0.592954 -0.451916 0.0292381 0.396126 -0.483297 0.0273164 0.880077 0.133872 -0.462366 0.00853668 -0.246729 0.462703 0.324622 -0.619736 -0.903061 -0.567044 0.57213 -1.05826 0.199883 -0.75176 -0.256533 0.0223242 -0.331212 0.197393 0.204758 -0.369979 -0.28166 0.697919 -0.82682 -0.0689971 0.100979 0.919596 0.869062 -0.927406 0.0839369 -0.623681 -0.186184 -0.25497 0.869397 0.538216 0.904003 -0.314743 -0.091284 0.0532848 0.134107 0.342734 0.555417 -0.778752 0.426261 0.0172801 0.0757371 -0.830749 0.946322 1.03892 0.238036 -1.03744 -0.519537 1.01109 -1.19681 -0.499073 0.313264 0.570662 -0.50879 0.0155551 0.941321 0.941799 0.551285 0.0353151 -0.0718686 -0.00108507 -0.431006 -0.291977 0.722101 0.737659 -0.941377 -0.0735785 0.11304 0.346774 -0.979568 -0.405924 -0.724264 0.167031 -0.256241 -0.896344 0.111223 -0.982423 -0.0262107 0.656134 -1.01303 0.549962 -0.538182 0.271107 0.337434 0.268895 -0.623202 0.312062 0.201799 0.947793 -0.683846 -0.867514 0.146854 -0.0675613 -0.0898263 -0.215776 -0.214818 -0.0489791 -1.00951 -0.848715 -0.469398 -0.971693 -0.209935 -0.193369 0.425638 0.625365 0.0666855 -0.509507 0.667097 -1.03386 -0.605382 0.908758 0.684494 -0.383689 0.112249 -0.204099 1.02449 0.395801 -0.787306 0.124259 0.390197 -0.432506 0.308069 -0.613208 0.378786 -0.657165 0.769459 0.146397 0.140821 0.316098 -0.723392 0.665789 0.352514 -0.196143 -0.56237 -0.591162 -0.112331 0.252378 0.192698 -0.726625 -0.468057 0.123321 -1.06918 0.0173857 -1.04326 0.150063 -0.860727 -1.13741 -0.540857 -0.789743 -0.0907713 0.786451 -0.575582 -0.464065 -0.92792 -1.2451 -0.596931 0.396429 -0.762839 0.090084 -0.307761 -0.147851 0.17781 -0.841404 0.799247 0.190034 -0.205064 -0.339767 0.0652178 -0.991448 0.094094 -0.921848 0.421625 0.277712 0.39942 0.576406 -0.235507 0.618343 0.407913 0.240346 0.872932 -0.16896 0.417006 -0.424872 -0.245055 0.648686 -0.0200928 0.214554 0.349527 0.580781 -0.332256 -0.831883 -0.674183 0.716851 -0.600769 -0.681693 0.110639 0.207522 0.0759985 -0.98732 0.330619 -0.755729 -0.669049 -0.341337 0.67753 0.842964 -0.814188 -0.618181 0.451633 0.659177 0.765081 0.287669 -0.717272 0.224291 -0.859526 0.163696 -0.0534482 0.190696 -0.557649 -0.701841 -0.235744 0.227913 -0.460268 0.226092 -0.0914323 -0.0663533 0.650667 -0.872084 -0.648954 -0.255809 -0.697827 0.575333 -0.0738632 -0.442158 -0.668493 -0.507529 -0.613907 -0.414323 0.125258 0.792687 -0.859404 -0.161086 0.299111 -0.599067 -0.970875 0.366337 0.731454 0.0393301 -0.277922 -0.890544 0.432157 0.257252 0.373858 1.05742 -1.08237 -1.1265 -0.351356 1.02639 -0.465811 0.101489 -0.406473 -0.559112 -0.685927 0.572219 -0.169071 -0.249599 -0.330739 1.08685 0.539577 0.675016 0.223777 0.841438 -0.8902 -0.372422 -0.842059 -0.49563 -0.878408 0.785296 0.528615 -0.401278 0.974985 -0.0276167 0.739817 -0.504582 -0.34761 -1.31234 -0.0883741 0.391473 -0.574718 0.707316 -0.598752 -0.0356022 0.693311 -0.0542949 -0.516508 0.0727579 1.08165 -0.18788 -0.530011 0.206065 -0.643028 1.16388 0.308891 0.163774 -0.462713 0.237004 0.0831816 -0.477926 0.198064 -0.00797017 0.134328 0.0530588 1.11353 0.0427581 -0.60545 -0.696261 0.245776 0.600906 0.849219 0.417299 0.0296841 -0.868479 -0.56933 -0.0109272 0.122832 0.200759 -1.08378 0.00846246 -0.949959 -0.706788 -0.698005 -0.630884 -0.851664 0.318066 0.168781 -0.339818 -0.400623 -0.53747 0.279091 0.883462 0.406777 -0.426721 0.150312 0.0896855 0.693363 0.50064 0.425073 -0.00878024 0.279812 0.308942 -0.344259 -0.554975 0.52002 0.143082 0.482896 -0.254994 -0.564267 0.478545 0.855797 -0.489629 0.857466 -0.878995 0.232644 -0.939888 0.451538 -0.776793 -0.390578 -0.996852 -0.348506 -0.806914 -0.443649 1.05829 -0.189828 0.0484524 -0.435278 -0.922709 -0.439538 -0.684864 0.0221168 0.664195 0.698471 0.746852 -0.845711 0.234064 -0.0700711 0.708252 0.777614 0.104945 0.128276 0.537122 1.04688 -0.0555617 0.463903 -0.37276 0.752488 0.136383 0.0653921 1.05758 -0.083521 0.864167 -0.775062 0.447401 0.656616 -0.277672 -0.433488 -0.318961 -0.152919 0.275658 -0.152716 -0.788235 -0.0708497 -0.247529 0.644978 -0.139446 -0.957178 -0.122557 0.119124 -1.10884 -0.631369 -1.07355 0.888962 -0.928995 0.310853 0.243542 0.0873557 -0.591639 -0.316658 -0.647422 -0.628235 -0.971734 1.00434 -0.444681 0.374982 0.401835 0.11155 -0.981981 -0.767813 -0.959879 0.0648324 0.518981 -0.773411 -0.815893 -0.738477 -0.839708 0.404443 -0.48781 -0.0084532 -0.458637 -0.422385 0.380984 -0.366848 -0.587275 0.540877 0.815096 0.833939 -0.353945 -0.678706 -0.5167 -0.261688 -0.210071 -0.511689 -0.315394 0.380107 -0.952763 -0.92042 -0.366929 -0.863709 -0.273378 -0.156858 0.487187 -0.674836 0.210192 0.89636 -0.150711 0.473235 0.373029 0.391902 -0.361734 0.929973 -0.817509 0.980721 -0.371998 -0.35291 0.608251 -0.523771 -0.491262 -0.740541 0.0498914 -0.036952 0.155363 0.70644 0.572481 0.629455 0.163043 0.691462 -0.83345 0.801761 0.792233 -0.156385 -0.469271 0.0744689 0.0722083 0.608086 -0.194638 0.849022 0.182152 -0.747428 0.251332 0.707705 -1.04564 0.185415 0.418886 -0.699976 -0.805802 0.325556 0.185584 -0.639685 0.498605 1.13146 0.464603 -0.500864 1.70454 -0.664225 -0.549565 -0.195888 -0.56263 -0.600625 -0.718889 -1.18976 0.367975 -0.104847 0.53881 -0.647832 -0.852571 -0.894155 -0.698603 0.913319 -0.105416 0.765609 0.421098 -0.597595 0.0576851 -0.140202 0.591401 0.168739 -0.386236 -0.553459 0.692161 -0.53795 -0.420533 -0.143381 -0.463089 -0.758741 0.46696 0.0550618 -0.142468 -0.725547 0.818056 0.364793 -0.0528315 0.0571001 -0.26631 -0.679841 0.805692 0.382675 0.115975 -1.09056 0.0544784 0.540793 1.08006 -0.124505 -0.380018 -0.50128 -0.801506 -0.951457 -0.949161 -0.210792 -0.125339 0.694764 -0.16703 0.583742 -0.388217 0.674659 -0.985692 -0.456966 -0.0713015 0.148415 0.0900368 -0.348687 -0.125662 0.961206 0.843991 0.552663 -0.701622 0.670677 -0.0441572 0.221497 0.793488 -0.705643 -0.110187 0.643789 0.218052 0.560675 -0.458351 0.545448 0.604239 -0.339883 -0.453432 -0.254202 -0.646775 0.459211 -0.665614 0.124652 0.248038 -0.52715 0.561294 -0.762634 0.623441 -0.249704 0.000132249 -0.257935 0.264811 -0.080638 -0.841449 0.210723 -0.466829 -0.0166322 -0.71848 -0.776754 0.236202 -0.000529578 0.714534 -0.4313 -0.453272 -0.775735 -1.29006 -0.900986 -0.369601 -0.735649 -0.236352 0.137879 0.907573 0.326743 -0.648932 -0.0140169 0.389377 0.748513 -0.254835 -0.60679 -0.312394 -0.992591 0.576337 0.210615 0.308961 0.4692 -0.571829 0.80818 -0.25863 0.0358971 -0.900332 0.755039 -0.890755 -0.98552 -0.451522 -0.276107 -0.920699 -0.59694 -0.111403 0.168761 -0.440966 0.618221 -0.848183 -0.30793 0.0153364 0.0095486 1.0891 -0.328328 -0.246827 -0.218146 1.00778 0.430229 0.267206 0.611263 -0.263972 -0.258051 0.258335 0.62317 -0.315043 -0.889582 -0.551024 0.0901629 -0.854432 -0.396131 0.00626617 -0.555556 0.178039 0.337777 0.161682 -0.524548 -0.103316 0.640463 -0.929048 0.218287 -0.55333 0.419138 -0.795226 -0.742033 -0.985695 -0.0783539 0.537458 0.807593 -0.752825 0.0572965 0.471552 0.2652 -1.04939 -0.130493 -0.190979 -0.330909 0.0411955 0.315729 0.772275 0.0946646 1.00274 -0.20798 0.680237 -0.549505 
-0.760879 -0.582224 0.558013 0.062481 -0.582155 0.796869 -0.568893 0.134354 0.362179 -0.0837325 0.504071 0.316597 0.710684 -0.0233183 0.0524086 -0.864926 -0.750333 -0.319093 0.372782 -0.724378 0.698998 -0.718735 0.0518779 -0.398444 0.653388 -0.622195 0.830384 0.648068 0.799393 0.468473 -0.0630203 0.66886 -0.963329 -0.436528 -0.0335043 -0.611512 -0.528771 0.469074 0.446107 0.66834 -0.682615 -0.0108259 -0.183275 -0.975103 -1.12155 -0.86522 -0.894316 -0.539866 0.0050687 0.627478 -0.502634 -0.447687 0.96513 0.688936 0.435559 0.689905 -0.780585 0.382138 0.445909 -1.02852 -0.193893 -0.597249 0.962738 0.0871714 0.0426632 0.0640474 0.564396 0.623694 -0.458602 0.151384 0.446982 -0.175499 -0.89717 -0.637717 -0.276848 -0.828514 -0.369042 0.0460396 -0.560657 0.454224 -0.312473 -0.0902077 -0.805298 -0.307434 -0.484067 0.657346 -0.562604 -0.0769897 0.0468823 0.908739 -0.0249599 -1.04286 -0.601782 -0.0284432 0.0421446 0.582405 -0.97256 -0.264701 0.313433 -0.388302 0.900091 -0.236616 0.493287 -0.952222 0.193053 -0.588612 -0.721459 0.828922 0.476147 -0.251515 0.422919 -0.731756 0.662715 0.666894 -0.0284262 -0.785187 0.370754 0.464792 0.143417 -0.540116 0.387308 -0.798134 -0.565608 0.718429 0.204128 0.542531 0.385663 0.090615 -0.797193 -0.479359 0.622754 -0.818486 0.406057 0.241753 -0.604196 -0.494213 0.813394 0.239555 -0.455754 0.0856131 0.395915 0.839139 0.481511 -0.145466 0.564203 -0.685207 0.206015 0.0668886 0.929318 -0.890699 0.384183 0.335537 -0.728379 0.757838 0.206614 0.565349 0.43667 -0.457806 -0.0670006 0.777376 0.27364 -0.539247 1.36273 -0.202905 -1.14426 -0.990773 0.359642 0.687388 -0.350497 -0.995707 -0.0683986 0.933766 -1.20677 -0.555905 -0.274948 0.697955 -0.319856 0.973328 -0.428074 -0.251284 -0.736079 -0.79259 -0.889259 -0.0418062 -0.97243 0.568793 -0.277361 0.608307 -0.893417 0.520104 0.444324 0.575496 -0.71643 0.423 -0.704067 -0.750239 0.571343 -1.0756 -0.915947 -0.784448 -1.04808 -0.0864792 -0.730413 -0.969433 0.430606 -0.0807555 0.632943 -0.676226 -0.144423 -0.638275 0.276842 0.195836 -0.464815 0.592346 -0.922139 -0.236733 0.149032 -0.302471 -0.504581 0.369936 -0.700123 -0.983295 -0.0158113 -0.292692 0.568752 0.440925 0.0514699 0.188785 0.461283 0.0921734 0.465497 0.553422 -0.821228 0.590702 0.627234 0.606065 -0.490476 0.501357 -1.08276 0.466818 0.785247 0.38049 -0.310366 -0.616308 0.0216879 -0.0817196 0.292492 -0.816024 0.469215 0.793324 0.656048 0.887723 0.811008 -0.40177 -0.524139 0.33913 -1.16329 0.52305 -0.570416 0.47415 -0.406081 1.03685 -0.0464754 -0.141223 0.60707 -0.292585 -0.636286 -0.800774 -1.10475 -0.690135 0.522039 0.614662 0.693934 -0.688535 -0.746054 -0.252236 -0.00954989 0.415848 0.0372769 -0.453041 0.14201 -0.240707 -0.344689 -0.0119978 0.203885 -0.00549665 -0.754582 0.119446 -0.439692 -0.204574 -0.140396 0.14065 -0.295912 0.827221 -1.17301 -0.813078 -0.190335 -0.660689 -0.491664 -0.253961 -0.392608 -1.0769 -0.562746 -0.45099 -0.707018 -0.587769 0.418704 0.507352 -0.766834 -0.520833 1.01594 0.594649 0.167545 -1.07785 -0.523628 -0.567609 0.045216 -0.35342 0.822788 -0.950911 0.524508 -0.401918 0.421122 -0.504244 -0.45125 0.454453 -0.134132 0.0789662 0.808828 0.298594 0.881434 -0.384222 0.444968 -0.610554 0.207831 0.586608 0.384747 -0.318907 0.0520991 0.682734 0.161763 0.0130385 0.237204 -0.624502 0.544212 0.778108 -0.193353 0.0968532 -0.350821 -0.373306 0.31246 -0.597329 0.297587 -0.229133 -0.0873135 0.874999 -0.771959 0.799144 0.104186 -0.910494 0.165399 -0.0508866 -0.204807 -0.392701 0.532471 -0.822178 -0.641605 -0.0606786 -0.0992079 0.416763 -0.220864 -0.868706 -0.455449 -1.00766 -0.475771 -0.948798 0.944295 0.511539 0.256178 -0.565823 -0.900603 -0.569501 -0.0573631 0.340408 0.273296 0.791509 0.2519 0.536276 0.62734 -0.737665 0.565477 -0.107205 0.608262 -0.0196509 0.41026 -0.131014 -0.479401 0.771644 0.824485 0.264926 0.189144 -0.625236 0.712558 0.593711 -0.418998 -0.911125 0.216684 -0.745467 0.450743 0.015791 -0.148966 0.634954 0.692967 0.729076 -0.0590677 -0.116333 0.50049 -0.822552 -0.787947 0.356113 -0.598815 -1.22372 0.957397 0.738661 -0.650361 0.0941902 -0.383966 0.124527 0.132815 -0.450355 -0.479096 -0.903287 0.0990427 -0.754513 -0.87546 0.726513 -0.546034 0.663465 -0.81593 -0.908769 -0.0937024 0.182863 0.988643 -0.337278 -0.0830666 -0.0352851 0.598885 -0.220568 0.421573 -0.968023 0.7602 -1.0464 -0.763449 0.780159 0.935462 -0.135448 0.136946 -0.332361 -1.05562 -0.753769 0.297089 -0.379751 -0.500207 -0.566831 -0.0429444 -0.463907 -0.740573 0.487489 -0.617825 -0.595702 0.708438 0.379455 0.580698 0.672709 -0.946642 -0.43456 -0.247833 0.649734 0.230945 -0.774896 0.876949 0.0939464 -0.749885 -0.819415 -0.0640471 -0.794251 0.0575201 -0.829205 -0.0585049 0.112528 -0.592174 -0.749991 0.81775 -0.00601966 -0.164422 -0.201296 0.652827 0.0365214 -0.745547 -1.00632 0.510592 -1.1003 0.378817 0.142247 0.743104 0.404941 0.647092 -0.538766 0.194797 -0.133001 -0.327919 0.0366223 -0.92098 -0.0233761 0.333726 -0.0179279 0.24716 -0.759779 0.189434 -0.74411 -0.00728264 0.310065 -0.700958 0.12939 -0.303293 0.203646 0.818636 -0.906084 -0.983825 -0.887769 -0.994898 0.605842 -0.573958 0.983254 -0.0878294 1.10986 -0.0496265 -0.292457 -0.659351 -0.758421 0.515189 0.268892 0.37683 0.547156 -0.733877 -0.428382 -0.400147 0.537783 -0.242008 0.24884 0.562954 -1.21423 -0.0335431 0.944092 0.409918 0.84626 0.109871 0.219619 0.670203 0.30864 0.332616 1.05682 0.194482 0.545506 0.590919 0.860408 0.623862 -0.135873 -0.254797 -0.567083 -0.0326773 -0.86539 0.353258 -0.71716 0.81788 0.889365 -0.113046 -0.626199 0.5388 0.781002 -0.784967 -0.174718 -1.05895 0.398093 -0.108556 0.202687 0.0913588 -1.05615 -0.507718 -0.0402205 0.309971 -0.964508 -0.0417884 -0.603271 0.643896 -0.490365 -0.660399 0.262298 0.199277 -0.0942328 0.484434 -0.828686 0.0876459 -0.00440935 -0.465804 -0.013241 -0.129668 0.545532 0.524689 -0.849851 0.397652 0.725644 0.0168207 0.392378 0.255933 0.954936 -0.213728 -0.541015 0.976512 0.322679 0.478168 0.371201 0.435915 -0.502772 0.84699 0.108545 0.0734291 -0.828469 -0.391046 -0.686318 0.0938864 0.988681 -0.583029 -0.842197 -0.0366027 0.15672 0.59288 0.820802 -0.263936 -0.318148 0.609046 0.861179 -0.575669 -0.152148 0.234846 0.544921 -0.137773 -0.938943 -0.928188 -0.136878 0.43521 0.610656 -0.892051 -0.282184 -0.916421 -1.08956 -0.870102 0.143627 -1.03992 -0.668384 0.954208 0.216417 -0.527697 -0.787265 0.275372 0.552111 0.378414 -0.142087 0.249449 0.930822 0.601007 0.180007 0.849569 -0.847693 -1.03596 0.337024 0.746276 -0.012427 0.221371 0.69911 -1.09091 -0.105864 0.696181 -0.903801 0.888065 0.592261 -0.670843 0.801138 0.0451981 -0.770404 -0.593625 -0.374912 0.706762 0.0301856 -0.198927 0.265894 -0.528214 -0.82522 -0.921239 0.580351 -0.977875 0.758895 -0.119965 -1.04297 0.781233 0.156069 0.308745 0.682129 -0.836473 -0.250919 0.637075 -0.757955 0.63851 0.378739 -0.533541 0.558954 0.114042 -0.200711 0.452464 -0.879009 0.197094 0.90308 -0.166305 -0.0954788 -0.203784 0.720524 -0.822142 0.259586 0.944758 -0.601092 -0.14083 -0.912575 -0.777519 -0.962392 -0.819823 -0.782288 0.270297 0.602127 1.0698 0.628292 -0.56252 0.784181 0.905501 -0.796905 0.194448 -0.462531 0.755852 -0.629118 0.387597 0.282377 -0.47633 -0.385863 0.19507 0.532271 0.502362 -0.89585 0.176515 0.774822 0.233293 0.176506 -0.775195 -0.603232 0.275019 -0.575135 -0.591102 0.38807 -0.478395 0.621796 -0.0958024 -0.512977 0.207844 0.41161 -0.67665 0.129046 0.554446 0.367998 0.512024 0.150665 0.573742 0.144326 -0.364287 -0.614822 0.548937 0.790189 0.85749 0.170465 0.81039 0.627974 -0.488118 0.273798 -0.873653 0.0115601 0.553891 0.216463 0.216647 -0.942022 -0.328322 -0.834528 0.651123 0.368318 -0.485556 -0.0480503 0.207269 0.241021 -0.745635 -0.345756 -0.64875 0.862873 -1.14485 -0.462226 -0.0097323 -0.213563 -0.283007 -0.324954 -0.168813 -0.389842 0.659499 -0.614521 0.587218 -0.617944 0.728184 0.618559 0.651592 0.555098 0.00592218 0.453126 0.575039 1.01535 0.543782 0.50227 0.752337 -0.446224 -0.644232 -0.174599 0.498951 -0.0812932 0.758856 -0.679076 -0.635143 -1.06582 -0.229774 0.624943 -0.271928 0.779469 -0.709002 0.309444 -0.486074 -0.969414 -1.06868 -0.746231 -0.259684 0.822929 -0.921853 -0.389951 0.346406 0.342997 -0.960661 0.0278957 0.352002 0.614179 -0.43933 0.141372 -0.93772 0.0980941 -0.825956 0.669563 0.868628 -1.01067 1.04392 -0.482142 -0.970251 -0.175669 -0.794462 -0.0853173 -0.193513 -0.481235 -0.703686 0.338373 -0.331335 -0.686469 0.678088 0.352389 -0.814221 0.768587 -0.968752 0.612336 0.271164 -0.565401 -0.312565 -0.449776 0.834135 0.232329 0.602934 0.79771 -0.725747 0.759435 0.367542 -0.948935 0.833898 0.407412 -0.448229 0.605219 -0.782601 -0.387738 -0.461993 -0.0256538 0.236227 -0.0387892 -0.523742 0.977958 0.184376 -1.10491 0.24446 0.0647277 0.291877 0.416635 -0.12699 -0.127281 0.363826 0.832474 0.270638 0.251711 0.0890177 0.0859026 0.291636 0.430888 -0.262121 -0.265466 0.647061 -0.255857 -0.774684 -0.885839 -0.510366 -0.494974 0.0823023 -0.0366413 0.481867 -0.763939 -0.891559 -0.963158 -0.425909 0.585424 -0.853635 0.832825 -0.354259 -0.926406 0.268416 -1.12654 -0.00251413 -0.246428 0.863595 -0.586064 -0.68007 0.0744654 0.612674 0.526877 -0.263902 -0.429861 -0.684055 -0.659001 0.169822 -0.545308 -0.330014 0.909585 0.26215 1.02021 -0.171741 -0.248069 -0.608396 0.0381887 0.0448826 -0.0320514 -0.527776 0.173065 -0.185285 0.484701 0.148629 -0.95215 0.562698 -0.788112 0.0155587 0.547582 -0.243467 0.332921 -0.327077 -0.559762 -0.0797123 0.450421 -0.0261283 0.323295 0.832494 -0.730489 0.924997 -0.357295 -0.945219 0.148156 -0.341488 0.0223279 0.983557 0.183986 -0.846169 -0.0256022 -0.856233 -0.264506 -0.808509 0.0961605 -0.658555 0.465114 0.168837 0.894987 0.723948 -0.738858 0.591111 -0.294595 0.679296 -0.614477 0.083244 -0.379422 0.795843 -1.03069 0.999181 0.732548 -0.877837 0.798289 -0.95875 
-0.678632 -0.0127966 -0.0510357 0.32257 -0.0388191 -0.886942 0.462659 0.954352 -0.725638 -0.831019 -0.835029 0.329681 -0.502323 0.584004 -0.449721 -0.610599 0.295867 -0.166287 -0.979411 0.892994 -0.484538 -0.640911 -0.105218 0.186808 -0.779825 -0.0807023 0.161852 0.882852 0.217992 0.0617613 -0.823319 0.481858 -0.962328 0.093463 -0.214816 -0.0242272 0.202979 -0.787951 -0.106007 0.483893 -0.614552 0.0382403 -0.166381 -0.150105 -0.411748 0.336389 0.276211 0.919805 -0.842401 0.306355 0.772199 -0.335307 0.679398 -0.342427 0.836797 0.87516 0.571832 -0.00949871 0.740533 -0.237161 -0.969289 0.908001 -0.758551 -0.963564 0.000277494 0.00117638 -0.013409 -0.807581 0.209288 0.879128 0.663374 0.586256 -0.0986162 -0.544459 -0.578809 0.488996 0.787491 0.691484 0.382143 0.926218 -0.00298982 0.145539 -0.410457 -0.325729 0.7954 -0.581874 -0.451699 0.361157 0.408251 -0.723983 -0.876504 0.457469 -0.825501 -0.641654 0.475641 0.208625 0.369034 -0.502068 0.415689 -0.430775 -0.643124 0.0558275 -0.870919 0.284574 0.4868 -0.541507 -0.273926 0.311778 -0.757553 -0.861945 0.216949 0.276327 0.267805 0.835656 0.922678 0.0523663 -0.783533 -0.484484 -0.582212 0.616726 -0.214891 -0.454317 0.0398454 -0.0480893 -0.123494 -0.479855 -0.894962 -0.783072 -0.0125318 0.531808 -0.282373 0.315152 -0.435348 -0.0308133 -0.431404 -0.963401 0.513509 0.276492 0.310349 0.771925 0.415145 -0.476945 0.0640624 -0.389688 -0.625955 -0.028333 0.684442 -0.443705 0.451513 -0.95419 -0.823389 -0.845765 -0.416111 0.167333 0.0719822 0.432614 0.691143 0.205878 0.634748 -0.372513 -0.319873 -0.590324 0.945681 0.219644 0.343694 -0.522502 0.231267 -0.139709 0.746327 -0.429965 -0.389678 0.103189 0.0771705 0.676775 0.730489 0.405141 -0.347054 0.380102 0.921846 -0.914618 0.432999 -0.949582 -0.740388 0.979052 0.215519 0.351176 0.382505 -0.119593 -0.463459 -0.00189927 0.500931 0.19085 0.380088 0.422309 -0.607818 -0.28672 0.875675 0.629487 0.556663 0.589977 -0.837677 -0.81397 -0.316766 0.237541 0.863251 -0.631237 -0.359303 -0.513505 0.763373 -0.472545 -0.421657 0.183387 -0.42982 -0.197035 0.137801 0.788525 -0.810233 -0.477551 -0.347827 -0.290498 0.52527 -0.836178 0.921048 -0.0852831 0.632618 -0.680408 0.649874 0.46215 0.952971 0.180963 0.072678 -0.899289 0.368106 0.731643 0.352038 0.211653 -0.834244 0.998391 0.734987 0.938601 -0.470844 -0.699834 0.0774541 0.0928751 0.159213 -0.761036 -0.145703 0.321635 -0.228129 0.491251 -1.01717 -0.712733 0.68263 0.932315 0.215201 0.285667 -0.757028 -0.159087 -0.304427 -0.812834 -0.960136 0.766705 -0.679272 0.428301 0.420393 0.638788 -0.390552 0.594161 0.642557 -0.627671 0.511066 -0.88268 -0.3414 -0.365532 0.179535 0.764745 -0.205112 -0.971941 0.0890573 0.515431 0.533247 0.206715 0.824971 0.196543 0.10036 0.0482621 -0.578985 0.258232 0.860463 0.130651 0.393756 0.845373 -0.128563 0.671024 0.231378 -0.633889 0.305194 0.864766 0.943811 -0.0935464 -0.811647 0.43914 0.0104979 -0.12754 0.957783 -0.820734 -0.356548 -0.262292 -0.794917 0.737995 -0.740885 0.72458 -0.172276 -0.93421 -0.0845048 0.838598 0.0652594 0.336314 0.0598962 -0.121052 -0.546658 -0.555448 -0.283217 0.317455 -0.891302 0.941203 0.651967 0.399628 0.788017 0.597543 -0.714461 0.979652 0.000540985 0.263928 -0.181514 -0.045709 0.437096 0.464664 0.661326 0.62944 0.180695 0.930632 0.354841 1.0142 0.961038 -0.766758 0.836646 0.0648733 0.5801 -0.0752613 0.92011 -0.952927 0.360349 -0.347193 0.359304 0.461605 -0.405751 0.0338626 -0.133125 -0.646683 -0.441566 0.0415671 -0.647862 0.606224 -0.568392 0.174341 -0.440989 0.892786 -0.367507 -0.73441 0.461884 0.829159 -0.850109 -0.168485 0.918113 -0.851326 0.0912146 0.65318 0.179022 -0.34204 -0.479836 0.113028 -0.2942 0.896612 0.764511 -0.939949 0.394139 -0.693592 0.0969709 -0.750704 -0.281976 0.703836 0.376303 0.115715 0.299473 0.751464 -0.758464 0.826793 0.607279 -0.100932 -0.9486 0.0574662 -0.35935 -0.813103 0.867801 -0.496611 -0.701641 -0.0776193 -0.888821 0.451192 0.513145 -0.382445 -0.442567 -0.791775 -0.500308 -0.757656 -0.783869 0.842253 -0.383195 0.280222 1.01959 0.312556 -0.0798076 0.328781 -0.628187 -0.809809 0.0824646 -0.400053 0.995471 -0.347476 0.469149 -0.963397 0.687069 -0.874121 -0.801675 0.533152 -0.407562 -0.498178 -0.574392 -0.315902 0.948106 0.94652 0.300373 -0.512581 -0.868474 0.799266 -0.25141 -0.669405 0.601278 0.342633 0.590481 0.602846 -0.359358 -0.49704 -0.0730849 -0.0118727 -0.32383 0.981456 0.590351 -0.331744 -0.383462 0.0394295 -0.326145 -0.703016 0.139791 -0.117585 0.838704 0.739939 0.373539 -0.723034 -0.579543 0.314248 -0.80815 0.729217 0.812929 -0.664321 0.510068 -0.430893 -0.329869 0.115496 0.889633 -0.753183 -0.305367 -0.461667 -0.255515 0.662166 0.517084 0.40721 0.720892 0.178798 -0.889637 -0.735886 -0.875839 -0.22191 -0.414981 0.312059 0.701769 -0.579471 0.0649894 0.061532 -0.38893 0.359237 -0.667232 -0.185806 0.18777 -0.899602 0.184284 -0.33138 -0.307218 0.804647 0.767697 -0.409307 -0.9586 -0.514228 0.11077 -0.220767 -0.850072 -0.275209 -0.768287 0.863332 0.81085 -0.6814 -0.983867 0.904458 0.0997118 -0.402862 0.267592 -0.247843 0.00395066 -0.748865 0.7569 0.665505 0.706254 -0.865233 -0.535037 -0.161279 -0.79221 0.558604 0.523291 -0.0781223 0.419871 0.296931 0.480096 0.406607 0.775231 -0.407889 -0.819453 0.895424 0.1959 -0.558409 0.670668 -0.0376043 -0.263851 0.712808 -0.114781 0.84327 -0.714993 -0.88755 -0.415171 0.248919 -0.634485 -0.640075 -0.112245 -0.92185 -0.526538 0.352625 -0.0592356 -0.280796 -0.0528696 -0.538015 0.631069 -0.664144 0.743054 0.0930884 0.744643 0.490576 0.647749 0.954719 0.368764 -0.152696 -0.615397 0.0240678 0.780663 0.104929 -0.307391 -0.357964 -0.0737986 -0.0292834 -0.26661 0.490183 -0.797774 0.0874478 0.836912 0.0843425 0.154254 -0.68679 -0.609293 -0.911038 0.0287797 0.35887 -0.432087 -0.334473 0.70433 -0.726951 0.676309 0.459964 0.755955 0.411961 0.481509 0.182241 -0.744414 0.822584 -0.790481 -0.926939 -0.083177 -0.0964482 -0.303856 0.84112 0.856835 0.410639 0.357218 -0.914848 -0.49513 0.194594 0.0958168 0.660078 0.538667 0.57355 0.654437 -0.467932 -0.0967719 -0.761051 0.199967 -0.416669 -0.494792 -0.123972 -0.953868 -0.704329 -0.722579 0.463817 0.46167 -0.497469 0.290106 0.615027 -0.451625 -0.830589 -0.456018 0.260275 0.997509 -0.657657 -0.411195 0.321798 -0.627197 0.126522 -0.542702 0.523682 -0.280438 1.00949 0.0461571 -0.56815 -0.534403 0.915723 -0.323978 0.618385 -0.490953 0.178383 -0.497932 -0.417586 0.484556 -0.242319 1.01814 -0.0798065 0.284247 0.245072 -0.473593 0.794881 0.407556 0.0238261 0.00120512 0.360678 0.365287 0.577025 -0.337358 0.733102 -0.335843 0.106457 0.229755 0.38054 0.0639625 -0.744249 0.792396 0.525208 -0.81024 -0.552858 0.138029 -0.30455 0.608642 0.6085 0.265406 0.0625492 -0.648326 0.22314 0.95209 0.586527 -0.551323 -0.546647 0.344206 0.814213 0.457672 -0.680273 0.167586 -0.2013 0.884498 0.789562 -0.472712 -0.465855 -0.11302 0.740265 0.909318 0.943414 0.996178 0.669612 0.478345 -0.834655 -0.870185 -0.406746 -0.112441 0.729958 -0.805672 -0.900862 -0.210104 -0.444174 0.330925 -0.242139 -0.836854 0.79121 0.229935 0.528851 0.618536 -0.318818 0.844939 -0.22235 0.49025 0.762162 -0.396408 -0.956573 -0.680686 0.442188 0.748068 -0.829528 0.423668 0.752294 0.853087 -0.132201 0.929691 0.83893 0.528922 -0.232371 0.719168 0.682621 -0.117027 -0.459516 -0.740246 -0.807293 0.284413 -0.651473 0.986627 -0.448581 0.902851 0.576874 0.132876 0.65381 -0.685922 -0.361571 0.451465 -0.110893 -0.342631 0.647961 -0.678073 -0.648325 0.866783 0.713179 -0.957021 0.700173 -0.379266 1.0155 0.676403 -0.888347 -0.234263 0.406181 0.745257 0.588248 0.912145 0.889171 0.775119 0.12162 -0.751956 0.707739 0.585606 -0.960936 0.295172 -0.25539 0.754135 0.531949 0.32882 0.113701 -0.479688 0.926354 -0.22197 -0.209807 -0.726675 -0.427674 -0.496093 -0.638382 -0.764679 0.0965475 -0.675932 0.878001 0.140991 0.051913 0.240354 -0.166665 -0.361023 0.0982527 -0.274698 -0.609181 -0.786191 -0.0356908 -0.907328 0.791387 0.0246784 0.338156 -0.508794 -0.247008 -0.0899649 0.802261 0.852096 0.365766 0.701849 -0.372933 -0.859829 0.942053 0.152359 -0.366453 -0.713515 0.383148 0.705816 -0.405402 0.248911 -0.143497 0.638109 -0.512549 0.681291 -0.736534 0.560354 -0.663148 -0.348942 0.786501 0.342062 -0.259054 0.602453 -0.608567 -0.909282 -0.901793 0.163985 0.0187742 0.881034 0.0193972 -0.605874 0.633603 0.641265 -0.445751 0.576427 -0.188997 0.173411 0.839533 -0.840751 -0.138602 -0.552925 0.459344 0.726297 -0.85687 1.00127 0.382081 -0.637248 0.501231 0.820604 -0.0393718 0.316127 0.134281 0.681043 -0.127501 0.47486 0.755493 -0.0233431 -0.38772 -0.267487 -0.184698 0.602757 0.140217 -0.594736 0.231561 0.601864 0.997505 1.03424 -0.220694 0.794331 -0.828399 0.571034 -0.82072 0.577382 0.30347 -0.679407 0.457847 -0.325331 -0.394977 -0.0517798 -0.546096 0.519199 -0.772245 0.527377 0.170148 0.0660287 0.00073056 -0.12611 0.98315 0.600933 0.613296 -0.168851 0.226805 -0.311185 0.176609 -0.604642 -0.754669 0.200361 -0.573999 0.0065569 -0.0313816 -0.458345 -0.415813 0.172596 -0.887176 0.87234 0.412633 0.578876 -0.454537 0.966022 -0.495311 -0.0495665 0.45793 -0.304875 -0.536859 -0.388909 0.736988 0.449091 0.467292 0.725962 0.0252536 0.0611942 -0.476247 -0.787271 0.718338 0.737769 -0.389249 0.96166 -0.096012 0.0157127 -0.0590134 0.851459 0.559198 0.516578 -0.00298449 0.662646 0.360653 -0.621229 0.219134 0.902338 -0.654538 0.714962 -0.161502 0.778644 -0.625569 0.281555 -0.634235 -0.881095 -0.272549 0.842621 0.867272 0.752775 -0.112941 -0.582161 0.988606 -0.369086 -0.859038 -0.383909 -0.416266 0.0738251 0.607584 0.551466 -0.0839491 0.187638 0.0771099 0.889743 -0.165238 -0.597815 -0.71082 -0.883503 -0.537495 -0.265382 0.726442 0.150466 -0.582823 -0.817046 -0.579936 -0.222631 -0.70515 0.15679 -0.3559 -0.863131 -0.132824 0.492018 -0.470153 -0.145748 -0.929192 -1.91758 
0.29549 -0.292409 0.609406 -0.0624393 -0.841525 -0.481236 -0.829816 0.165104 -0.625408 -0.0867572 0.434112 -0.30945 0.0391999 0.878062 0.31759 -0.328502 0.00453252 0.655262 -0.11336 0.414043 -0.572997 0.1663 -0.464814 -0.000712826 0.30643 0.39866 -0.540533 0.799017 -0.789438 -0.454847 -0.551971 0.634359 0.235778 -0.827076 -0.330945 0.426982 -0.305066 -0.166956 -0.359958 0.103427 0.803644 -0.744807 0.843201 -0.159765 -0.856771 0.181319 0.638774 0.238511 -0.168628 -0.437294 -0.346696 0.28336 0.76581 0.232126 -0.720448 0.102868 -0.365622 -0.191454 -0.0914559 -0.232039 0.377814 0.408248 -0.523373 -0.53488 0.502651 -0.0350898 0.805223 -0.738052 0.905223 -0.44222 0.521557 0.606829 -0.0424338 0.911657 -0.356862 -0.106736 -0.506129 -0.858113 -0.759909 0.119755 -0.245357 -0.249505 -0.473218 -0.362625 -0.876749 -0.435968 0.60033 -0.233305 0.328979 -0.555201 0.677685 -0.219195 -1.02491 -0.904459 0.502744 0.604257 0.251917 0.206365 1.22952 0.260792 -1.09769 0.0300785 -0.0776578 -0.126148 -0.660183 0.648896 0.913999 -0.278264 0.736277 -0.831372 0.770152 -0.179233 -0.167487 -0.668896 0.265966 0.0797914 0.0624007 0.0997856 -1.13935 -0.200423 0.589291 0.764817 0.757231 0.694989 0.846471 0.112764 0.344229 0.280887 -0.393056 0.20892 -0.538233 -0.393996 -0.633514 0.624455 0.6062 -0.310385 0.284594 0.401454 0.524217 0.291205 0.631135 0.211312 -0.991867 -0.338709 0.498027 0.412699 0.931003 -0.37382 -0.532868 -1.0178 0.333088 -0.75977 0.72963 -0.0215027 -0.953545 0.679363 -0.835322 0.456881 -0.0127775 -0.118627 -0.216217 0.591771 0.569498 0.187898 0.301642 0.125139 0.930336 -0.284107 -0.313368 0.303976 -0.959094 -0.693508 -0.496078 -0.729582 -0.0537258 -0.899025 0.600134 0.0517648 -0.266203 -0.879101 0.0724745 -0.790328 -0.510672 -0.198541 0.0310352 -0.467254 -0.43056 0.297817 0.977647 0.505089 -0.941769 -0.287727 -0.114544 0.610058 0.797101 -0.639921 -0.291594 0.853183 -0.00981754 0.467806 0.131222 0.145457 0.66842 0.707817 0.0998688 -0.370978 0.649003 -0.369359 0.67248 -0.537496 -0.0171515 -0.233253 -0.567596 0.337066 0.662954 0.540249 0.795532 -0.711439 0.0431621 0.803541 0.638945 -0.0426323 -0.572447 -0.403288 -0.39616 -0.672491 0.206204 0.293643 -0.949125 -0.800184 -0.413747 0.0509583 0.622295 -0.610294 -0.132393 -0.267019 -0.0320822 -0.600803 0.430753 -0.123318 -0.0863521 -0.864244 0.752788 0.551551 0.85565 0.425025 0.0459614 0.862338 0.637844 0.361846 0.545473 0.325307 -0.571356 -1.11195 -0.81846 0.456989 -0.705604 0.294742 -0.0358307 -0.407008 0.600575 0.736945 0.816554 -0.0782108 -0.869319 -0.402031 0.700761 0.282035 0.207139 0.186658 -0.80921 -1.03469 0.878699 -1.01507 0.466905 0.787073 0.405124 -0.548823 0.596759 0.0795253 -0.612399 0.196564 -0.604273 0.300319 0.296347 -0.437465 -0.0904325 0.803235 0.916549 0.90126 -0.596719 0.536494 0.633921 -0.769103 -0.405739 0.806459 -0.113275 -0.748233 0.166941 -0.921307 0.617131 0.519224 -0.804574 0.50873 0.532136 0.657069 0.440519 -0.00391985 -0.789277 -2.66749e-05 -0.919935 -0.446506 -0.642312 -0.356527 0.948359 0.485884 0.157765 -0.286081 0.385293 0.00987909 -0.327474 0.715264 -0.427239 -0.666903 0.969058 0.0623706 -0.924304 -0.0476363 0.691026 0.848548 -0.0700599 0.0353838 -0.287269 0.112242 -0.454042 -0.908846 -0.232858 0.753742 0.382655 -0.160623 -0.0444162 0.318087 -0.0252806 0.0465562 -1.19157 0.433613 -0.315255 0.0375354 -0.61723 -1.00393 -0.995179 -0.0342447 0.684366 -0.445537 0.0906975 0.866142 0.571337 0.156938 -0.478262 -0.00498009 -0.420384 0.184164 -0.967677 0.533406 -0.443721 -0.319115 0.748615 0.0952929 -0.401801 0.135485 -0.658047 0.58985 -0.443379 0.617795 -0.175795 -0.466193 0.259916 0.634066 0.820088 0.694331 0.626726 0.851175 -0.298766 0.654124 -0.339455 -1.0081 0.145976 -0.647937 0.550415 0.723226 0.575299 -0.606798 0.148895 0.70854 0.87537 0.667694 -0.54367 0.765258 -0.0996088 0.0784349 -0.0179734 0.149774 -0.244187 0.605287 -0.0688629 0.529207 -0.744212 -0.73225 0.150056 -0.95997 0.959013 -0.167064 -1.01013 -0.353728 -0.633833 -0.305475 -0.177888 0.602892 0.109209 -0.570281 0.376829 -0.304119 -0.173232 -0.387229 -0.536988 -0.196182 -0.737265 -0.0782747 -0.356873 0.239726 -0.859879 0.638767 -0.500435 -0.169477 0.204442 0.383106 -0.582827 0.387839 0.647867 0.6071 0.585565 0.571629 -0.627373 0.530592 -0.6617 -0.283983 -0.797832 0.119921 -0.577015 0.355469 0.653207 0.757015 -0.899201 -0.680641 -0.598287 -0.379344 -0.238117 -0.632676 0.336195 0.705393 0.986762 0.5311 0.232718 -0.765843 -0.865092 -0.539303 0.5241 -0.382453 -0.750323 0.737848 -0.620962 0.766312 -0.123761 -0.107976 0.0632325 0.306702 0.534557 0.500646 -0.493017 -1.09726 -0.123044 -0.978306 0.723267 -0.0130094 -0.716836 -1.4068 0.37238 0.0658438 -0.643641 -0.215159 0.248608 -0.499253 -0.731863 -0.533337 -0.543439 -0.424098 -0.0768081 -0.656669 0.456638 -0.0563451 0.640605 0.583179 -0.324626 -0.189982 -0.364504 1.18234 0.982624 -0.965149 0.340829 -0.57824 -0.938035 -0.539064 -0.541334 0.73171 0.535571 -0.137641 0.887453 -0.352197 -0.715003 -0.567655 0.539858 0.384767 -0.222184 0.743117 -1.08874 0.414945 -0.637148 0.0267905 0.691084 0.702934 -0.969502 0.281862 0.358113 -0.309362 0.921716 0.804754 -0.339624 0.895378 0.87514 -0.855643 -0.616268 -0.994925 -0.417658 -0.0448749 0.887803 0.871345 0.877495 0.74851 -0.449081 -0.792342 -0.696245 -0.871848 0.769845 0.176854 0.94059 0.715776 -0.357196 -0.623348 -0.191867 -0.617101 -0.854383 -0.14231 0.720206 0.480588 0.771515 0.672013 0.294141 -0.680897 0.489935 0.135231 -0.570058 -0.938262 0.560829 -0.0151041 0.0386505 0.0177357 -0.49815 -0.3546 -0.222323 0.26008 -0.172707 -0.062253 0.437288 -0.381925 -0.833035 0.386991 -0.617785 -0.133622 0.634515 0.0330912 0.214669 0.732013 -0.817388 -0.088613 0.0813324 0.539995 0.0555234 -0.477011 -1.00272 -0.614749 0.552461 -0.470865 -0.550384 0.108232 0.399878 0.304625 -0.82443 -0.797447 -1.00195 0.0665862 0.394235 0.0646024 -0.954877 -0.019335 0.506853 -0.906619 -0.584229 -0.88993 0.32641 -0.874474 0.401985 -0.652975 -0.845795 0.352897 0.556294 0.161004 0.146909 -0.763007 0.942589 0.286577 -0.421265 0.762304 0.706365 0.0142129 -0.184558 -0.0415619 -0.766761 0.056355 0.272106 -0.692554 -1.01262 -0.0379412 0.376272 -0.825164 -1.04993 0.0834598 -0.495858 -0.47524 0.179814 0.85913 -0.240099 -0.399896 -0.659984 -0.0851169 -0.962226 0.846109 -0.758684 0.224542 -0.840428 -0.823996 -0.628796 -0.186213 0.937735 -0.939262 0.870357 -0.117164 0.0347779 -0.78707 -1.00588 -0.417476 -0.356982 -0.818879 0.61071 -0.881819 -0.490737 0.741429 0.27705 0.0823642 -0.707916 -0.429961 -0.0342619 0.207317 0.157945 0.356795 -0.840415 0.258579 0.224569 -0.578198 -0.516585 0.545348 -0.426233 -0.0465067 -0.723837 -0.406602 -0.119489 -0.809242 0.516133 -0.805353 -0.594265 0.475549 -0.259025 -0.0270552 0.533331 -0.712409 0.000514887 -1.06798 -1.02204 -0.668304 0.051822 -0.721686 -0.165611 -1.13715 0.321774 -1.16847 0.0579301 0.712818 0.273751 -0.448863 0.921807 0.705813 1.02721 -0.398911 -0.427555 -0.125814 -0.230655 0.666853 -0.60226 -0.459268 0.739926 -0.387549 -1.20215 -0.446351 0.643301 0.73756 -0.184338 -0.561977 0.524239 -0.120148 0.174212 -0.037668 0.316868 -1.10346 -0.426072 -0.270634 -1.23024 -0.787209 -0.581409 0.323749 -0.452524 -0.536723 0.265239 -0.396861 -0.127744 0.59 -0.160527 -1.16488 0.318147 0.134568 -0.386788 0.311101 -1.09394 -0.0245556 0.835476 0.87639 -0.375057 -0.0917221 -0.340319 -0.372745 0.686216 0.689204 0.290573 0.30241 0.847839 -0.696461 0.600791 0.918604 -0.578551 -0.731279 0.238094 0.245155 -0.289655 -0.740718 -1.03656 0.654982 -0.929883 -0.0583856 0.799996 0.53626 -0.729729 -0.381086 -0.189644 -0.581222 0.559416 -0.259067 -0.721334 -0.793919 0.667906 -0.0367281 -0.281849 0.528556 -0.151204 -0.896443 -0.331495 -0.255108 -0.548917 -0.459431 -0.239745 -0.128481 -0.137225 -0.857688 -0.693157 0.586646 -0.537091 -0.721048 0.347824 -0.392849 0.292984 0.0845207 -0.819356 0.565383 0.75975 0.0589606 1.13088 0.665448 0.835106 -0.670928 0.652382 0.484707 0.193089 -0.735906 -0.0507548 -0.986586 -0.738715 0.520067 -0.166434 -0.301622 -0.9697 0.335119 0.550063 -0.25316 0.481877 0.798881 -0.577066 -0.938371 -0.769806 0.835559 -0.431375 0.255741 -0.166019 -0.54793 -0.537282 -0.283372 0.690253 -0.122228 -1.09972 0.776933 0.0487399 0.595081 0.281473 -0.560256 -0.919755 -0.713279 -0.65164 -0.581393 -1.04375 0.344069 0.184427 -1.09824 -0.186632 -0.211416 -0.00740933 -0.776305 -0.420476 0.326422 -0.550481 -0.125343 0.499022 0.296349 -0.66568 -0.674149 -1.27184 0.401523 0.0467884 0.749006 -0.682632 0.0527405 0.6752 0.498808 -0.0563708 0.0642036 -0.958696 -0.0635011 0.564553 -0.399501 0.390269 0.472014 0.7875 -0.522932 0.576704 -0.160454 0.543742 -0.194077 -0.0135052 -0.878024 -0.750625 0.522582 0.234562 0.73016 -0.34173 0.542166 -0.937388 -0.269902 -0.161105 0.0692628 -0.326354 0.212665 -0.676482 -0.542226 -0.16663 0.25655 0.564174 -0.0601561 -0.756316 0.164813 0.494174 0.709842 -0.328481 0.396904 -0.676228 -0.623925 -0.907782 0.824394 0.171709 0.207096 -0.980819 0.539872 -0.188469 0.19494 0.25847 0.569889 -0.230119 0.445149 -0.589169 0.719444 -0.470277 0.0668916 -0.0313576 -0.0796926 0.656006 1.00427 -0.75095 0.331348 -0.119298 -0.498282 -0.553157 -0.722481 -0.748267 0.208891 0.550323 -0.554497 0.445389 0.707545 -0.806831 -0.321034 -0.248092 -0.677031 -0.94366 0.622645 0.436991 0.308635 0.316619 -0.76471 -0.0853809 0.620415 0.695155 -0.517285 -1.00332 0.0686438 -0.760639 -0.752214 -0.303788 -0.487963 0.590469 0.492635 -0.0910476 -1.15675 0.872962 0.31947 0.196871 0.51104 0.726054 -0.148418 0.222082 -0.992717 0.541856 -0.643554 -0.748516 0.395187 0.643174 0.867479 -0.00536433 -0.107179 -0.94701 0.890803 0.188932 -1.01795 0.119197 0.408718 -0.3108 0.343917 0.845789 0.598658 -1.00436 0.481594 0.147653 -0.0579947 0.607971 0.127102 -0.526881 -0.0907603 -0.335121 -0.916104 0.866242 -0.933322 -0.904272 
0.30788 -0.67266 -0.142124 -0.117444 -0.729966 -0.266988 0.84779 0.459833 -0.15253 0.628076 -0.749146 -0.117697 -0.190888 0.854448 0.841395 -0.696153 0.774458 0.499319 -0.668476 0.432787 -0.183886 0.545915 0.230602 0.999156 0.96759 -0.695687 -0.261981 -0.768721 -0.775668 -0.135817 -0.368791 0.469489 0.117912 0.512671 -0.682247 0.429425 -0.833516 -0.787657 -0.194336 0.0429204 0.811857 0.0647232 0.982435 -0.388787 -0.0234152 0.777003 -0.178289 -0.73136 -0.1063 0.279967 -0.900038 -0.986354 -0.338544 0.326688 -0.992594 -0.455477 0.551921 -0.370844 -0.190215 0.820016 0.53053 0.45952 0.253142 -0.27813 -0.0533114 0.577581 -0.894193 0.249012 0.713996 -0.169442 -0.877767 0.513765 0.971861 -0.95459 -0.881754 -0.0900614 1.09672 0.00653139 0.534774 0.135548 -0.866524 0.607286 0.21976 -0.175013 -0.0273515 0.202839 0.393826 -0.486038 0.917736 -0.800076 -0.603132 0.468661 0.655799 0.583814 -0.768537 -0.360306 0.22706 -0.741542 0.749478 0.00341343 0.135464 -0.939099 -0.447129 0.0891167 -0.813612 -0.298007 0.946152 -0.901262 0.699079 0.426349 0.282571 0.892764 0.0913881 -0.469454 -0.256654 -1.01124 0.759018 -0.84952 -0.395557 0.746065 -0.651378 -0.00302052 0.320049 -0.978609 -0.338111 0.528416 -0.318761 0.937179 0.79543 -0.490523 -0.0705494 -0.0387656 -0.405524 0.47321 1.02051 -0.182053 -0.786133 0.943816 -0.083883 0.942428 0.440819 -0.77245 0.836752 -0.513114 -0.246572 -0.394249 -0.380242 -0.417438 -0.239173 0.249689 -0.608278 0.108052 -0.81706 0.641776 0.18555 -0.138182 0.221193 0.813923 -0.268984 0.0792135 -0.675123 0.660011 0.781714 -0.131799 0.124462 0.87148 0.685733 0.356333 0.76131 -0.365521 0.29009 0.227544 -0.100152 0.1228 0.696119 0.641356 0.721555 -0.750964 -0.776624 -0.476982 0.571425 -0.331882 0.524946 0.658085 -0.818443 -0.227484 -0.555991 0.393046 -0.391265 0.405471 -0.484455 -0.0139468 -0.0537344 -0.734182 0.888285 -0.767783 -0.937523 0.634169 0.575577 1.00416 -0.796369 -0.109395 -0.00841662 0.0354312 1.00127 -0.151784 -0.199554 0.646203 0.266424 -0.118018 -0.861584 -0.257606 0.474813 0.678523 -0.483413 0.729489 -0.601746 0.0618726 0.131769 0.114888 -0.582531 0.492472 -0.920887 0.413083 0.796313 1.00887 0.63491 0.850554 0.596912 0.196911 0.839418 0.762649 -0.917869 -0.0413549 -0.202398 -0.985626 0.87419 0.507872 0.617779 0.0881059 -0.570024 0.808105 0.783532 0.920389 0.502247 -0.753468 0.626136 -0.980281 0.302798 -0.19387 0.118831 0.721689 -0.639432 0.258709 0.139103 -0.884557 0.195734 -0.23886 -0.956705 -0.244592 0.989608 0.861779 -0.4624 -0.915975 -0.126679 0.385469 -0.928068 -0.307948 -0.141351 0.789265 0.808898 0.30042 0.622874 0.627453 0.228787 0.142848 0.859111 -0.127026 0.218588 0.174374 0.732275 -0.63595 -0.0933902 -1.011 0.515477 1.02822 -0.792785 -0.270894 -0.270884 -0.870644 0.496962 -0.30664 -0.979746 -1.06478 -0.288284 -0.133914 0.332857 -0.169425 0.433593 -0.949396 -0.320308 0.339523 0.472278 -0.742721 -0.0790647 -0.286276 0.335721 -0.177585 0.612784 -0.355633 -1.00895 0.236343 -0.0658152 -0.125099 0.295954 -0.61836 -0.122919 0.581153 0.232578 0.55669 0.623411 -0.284768 -0.525876 0.702933 -0.293501 0.288009 -0.431431 -0.912384 -0.945844 -0.976879 -0.766363 -0.293964 0.596097 0.70092 -0.150559 -0.476055 -0.592131 -0.678128 0.249833 0.933625 -0.120982 0.240376 0.23677 0.756496 -0.872171 -0.397824 -0.728501 -0.02944 -0.924097 0.423122 -0.50265 0.656318 -0.839544 0.0191797 0.402723 -0.124291 -0.801593 0.912619 -0.0767961 -0.777775 1.00081 0.0904222 -0.0917131 0.387066 -0.123702 0.838482 0.780149 0.294439 -0.844397 -0.0186686 0.27959 0.0669073 -0.714243 -0.482512 -0.135265 -0.592093 0.153072 0.157713 0.405792 0.240766 -0.360179 -0.887314 -0.0146459 -0.176309 0.109918 -0.618636 0.718991 0.305417 -0.720151 -0.29382 0.538099 -0.726688 0.839427 -0.538044 0.630336 -0.29607 -0.690559 0.365663 1.01059 -0.49079 -0.498607 0.290811 0.584884 -0.220106 0.837309 -0.515938 0.200437 -0.02972 0.609981 -0.368892 -0.760239 -0.749911 -0.322289 0.250973 0.0608092 0.789068 0.594504 -0.271184 0.0217783 0.825668 0.410996 -0.439325 -0.914104 0.242555 -0.0215531 0.642852 0.93672 0.305293 0.122427 0.951618 0.805744 0.653309 0.273063 0.44742 -0.622138 -0.0323065 0.903488 0.547337 -0.945463 0.534931 -0.915707 -0.910204 0.666711 -0.252968 0.365736 -0.187736 -0.50955 0.12145 0.496898 0.599369 -0.278035 -0.0113293 -0.852487 -0.153308 -0.721554 0.0934093 -0.520703 -1.04318 -0.503253 0.709226 -0.848459 -0.775496 0.127628 0.245306 0.713596 0.341523 -0.535428 0.587857 -0.0629036 -0.626787 0.0386146 0.0501762 -0.363664 -0.110408 0.797284 -0.898221 0.668307 -0.745003 0.0265589 0.232483 0.881772 0.774729 -0.777207 -0.913424 -0.367148 -0.503459 0.236293 0.0752552 -0.326641 0.722119 -0.291248 -0.1776 -0.9557 0.898171 -0.808367 0.903234 0.320439 -0.435707 0.50949 -0.741439 -0.0454719 -0.309517 0.328043 0.605869 0.497694 0.157188 0.642976 0.218156 0.522243 -0.284334 -0.510292 0.429526 -0.408031 -0.23807 0.523036 0.276634 0.259606 -0.226896 -0.53388 0.981627 -0.43889 0.217984 -0.187545 -0.318952 0.0875615 -0.000335178 -0.433474 -0.58752 0.606664 -1.17981 -0.307152 -0.430135 -0.286093 -0.940344 -0.855464 -0.766764 0.204296 0.678776 0.405714 -0.27401 -0.476173 0.963772 -0.802162 -0.0181363 0.0296197 0.724687 -0.626472 0.930632 -0.635341 -0.238804 0.778479 -0.102933 0.853885 -0.362701 0.544146 -0.0178016 0.653558 -0.831444 0.42681 0.170701 -0.781096 -0.857411 0.70043 -0.126412 -0.814332 0.824775 0.179982 0.292245 0.624065 -0.339958 -0.976969 -1.05255 -0.246107 -0.868384 0.20231 0.25222 0.836693 0.692113 0.195957 -0.823728 -0.631854 -0.0243206 0.0762106 -0.589005 0.739298 -0.384746 0.417586 0.240206 -0.227979 -0.122509 -0.493203 0.110019 -0.024056 -0.841738 1.00226 0.163126 -1.00202 0.0755221 -0.421899 0.637399 0.812483 -0.45973 0.858038 -0.547198 -0.27227 0.092117 0.853499 -0.439678 -0.24822 -0.152081 -0.290064 0.124511 0.79903 0.769108 0.46089 0.535207 -0.492848 -0.118058 -0.187959 0.249503 0.734124 0.241859 -0.69675 -0.221894 0.374575 -0.708673 -0.981585 0.414934 0.467922 -0.455048 0.0765793 0.245688 0.129486 -0.0920235 0.651967 0.835401 -0.998638 0.317823 -0.554303 -0.28324 -0.808737 0.264203 0.826005 -0.934448 0.0244655 0.300611 0.621673 0.555759 -0.784465 -0.581326 -0.0734767 -0.957135 0.928889 0.199977 -0.140068 0.142016 0.616816 -0.0880522 -0.482603 0.0748137 0.533015 0.649616 -0.697309 -0.547789 -0.379444 0.967414 -0.577282 -0.331334 0.290742 -0.107201 0.209743 0.417496 -0.71915 0.0803206 0.57727 0.0289101 -0.737799 0.0587839 -0.339433 -0.501405 0.415828 0.51899 -0.467512 0.161784 -0.183921 0.373529 -0.809891 -0.57325 -0.652779 -0.104826 0.498818 0.756054 -0.699417 0.655682 -0.7347 0.000912529 0.716041 -0.310934 0.547671 0.013873 0.618686 -0.134873 -0.559719 0.731003 0.900532 0.931102 -0.311517 -1.01211 -0.111838 0.527504 -0.377538 -0.526706 0.0596633 0.184806 0.593235 0.945809 -0.379068 0.810493 -0.778191 -0.218716 -0.312302 0.759657 -0.399965 0.0773595 0.56188 0.0274261 -0.890758 0.603057 0.730968 0.610812 -0.635469 0.491106 -0.737396 -0.331454 0.219899 -0.857372 -0.384835 -0.985859 -0.767869 0.590423 0.517339 -0.0248704 -0.845176 -0.461752 -0.970714 0.556005 -0.552244 -0.268119 0.467115 -0.243233 0.638515 -0.86115 -0.501739 -0.706374 0.252593 -0.895947 0.326423 0.321832 0.346215 0.141026 -0.071008 0.759614 -0.383783 0.296019 -0.481882 0.853318 0.524559 0.266488 0.936738 0.856894 -0.0765067 0.484035 -0.259844 0.00707209 -0.933789 0.00424314 -0.253234 -0.504262 0.776948 -0.781926 0.291862 0.449083 -0.647798 0.946518 0.785109 0.570708 1.01205 0.21617 -0.0743265 0.449502 -0.722349 0.871777 0.157324 -0.146089 0.107808 0.681694 -0.299096 -0.419796 -0.110048 -0.368155 -0.501548 0.809263 -0.934122 0.24921 -0.278384 -0.892682 -0.760362 0.42381 -0.400216 -0.955861 0.630563 0.797602 0.484406 0.757946 0.742536 0.0294413 0.407739 0.701937 -0.697873 -0.86956 -0.0303752 -0.329153 -0.86741 -0.771223 0.445982 0.385505 0.858502 -0.724704 1.2112 -0.268729 -0.158406 -0.426952 -0.482666 -0.239172 0.0176788 0.325531 -0.0643167 0.941748 -0.279149 0.489895 0.85629 -0.641498 0.335631 0.495689 -0.688867 0.0648278 -0.45638 0.60064 -0.309555 -0.0188261 0.854681 0.834956 0.603743 -0.819957 -0.991179 0.126245 0.442694 0.907777 0.383655 0.398995 -0.534211 -0.75542 0.86081 0.121771 0.0466678 0.401014 -0.578828 -0.962548 0.388712 0.142177 0.570773 0.247177 0.454369 -0.109516 -0.286123 0.628758 -0.886841 0.426774 0.354078 -0.0920209 -0.558473 0.307495 -0.196298 -0.880803 0.508001 -0.247984 0.212312 -0.0247122 -0.339579 -0.409211 -0.605801 0.281968 -0.205047 -0.785688 -0.552723 0.904067 0.762256 -0.0764474 0.980734 0.17492 -0.852346 0.57365 -0.373692 0.664 -0.348465 0.399325 0.394444 -0.260347 -0.184406 -0.26946 0.663674 0.315982 -0.897398 -0.577084 0.365625 0.523648 0.159998 -0.436494 -0.466462 0.833167 0.157988 -0.0928395 0.0831314 0.85382 0.0697966 0.37564 0.803603 -0.132951 -0.503528 0.785351 0.997429 -0.555598 0.290738 -0.37439 -0.768031 0.914017 0.931077 0.332783 -0.398528 -0.16732 -0.822905 -0.784367 -1.00944 -0.787932 -0.440382 0.263073 0.735539 0.6889 0.909717 -0.804246 0.562841 0.072865 0.122847 -0.381458 -0.0961744 -0.834564 -0.845514 -0.297274 0.106165 -0.34853 -0.537371 0.134095 0.194425 0.871258 0.760918 0.584705 0.599977 0.567982 0.0806646 -0.735145 -0.603571 0.271235 -0.50447 -0.551892 0.422257 -0.0511484 0.628932 0.263155 -0.213355 0.501311 0.507032 -0.524374 -0.406 -0.217759 0.229175 0.673323 0.122382 0.461228 -0.689254 -0.834938 -0.866412 -0.273381 0.265079 0.402475 -0.422215 -0.0509314 -0.068678 -0.82969 -0.458862 0.951033 -0.613734 -0.0919956 0.150891 -0.144561 0.402789 -0.357127 0.893773 0.116153 0.908707 -0.186367 -0.220899 0.524284 0.35676 0.409332 -0.67304 -0.51917 -0.024404 0.427611 0.975013 0.269682 0.654828 -0.807701 -0.943261 -0.0152339 -1.13903 
-0.331116 0.999852 -0.268369 -0.230842 -0.220759 -0.441867 0.353479 0.698766 0.826119 -0.727011 -0.0353001 -0.544796 -1.02746 -0.829786 -0.346018 0.891207 0.829801 0.754327 -0.770578 -0.48925 -0.649638 -0.308072 0.436379 0.787114 -0.177787 -0.0687573 0.346268 -0.177265 -0.25809 -0.628965 -0.362959 0.178932 -0.638681 0.281132 -1.06721 -0.292725 0.895624 0.504225 -0.231382 0.567155 0.44875 0.831654 1.06987 0.43426 0.223325 -0.532551 -0.527799 -0.245363 -0.390794 -0.275461 0.0480785 -0.263857 0.252459 -0.55207 -0.53787 1.03976 0.0637051 0.692557 -0.374277 0.699668 1.02088 0.373215 -0.25385 -0.811087 -0.607594 -0.135916 0.245456 -0.889629 -0.843723 0.500203 0.624847 0.629897 0.0846214 0.592839 0.146375 -0.271997 1.0224 0.683695 0.270334 -0.629035 -0.818634 -0.848346 -0.0315312 0.501651 -0.549564 0.278494 0.231317 0.296732 -0.0721347 0.814776 -0.307847 -0.173188 -0.0984019 0.427862 -0.0653737 0.104422 -0.793882 0.913022 0.159038 -0.762544 0.279605 -0.239457 0.882136 -0.775589 -0.774215 0.0433762 -0.0961751 -0.858131 -0.4743 -0.912351 -0.531017 -0.226619 -0.807602 0.351983 -1.05342 -0.537669 -0.398991 0.0790753 0.607254 0.537162 0.0455789 -0.575139 -0.7853 0.916963 0.7227 0.303938 0.180973 -1.25337 0.179925 -0.668668 -0.347968 -0.404003 0.0668144 -0.621366 -0.168561 0.285858 0.533281 0.587906 0.435972 1.0071 0.593838 0.937535 -0.170266 0.793216 0.230056 -0.106413 -0.825763 0.687287 0.720448 0.592897 0.369439 -0.0253673 -0.666076 0.423308 0.00762126 1.02541 -0.424972 0.536914 0.654082 0.518705 1.16779 -0.651043 1.06154 -0.238127 -0.15598 -0.42771 1.01678 -1.19954 -0.709177 0.242533 1.33637 1.03124 0.124263 -0.275275 0.419241 -0.446798 0.11611 0.89553 -0.804873 0.0343891 0.639781 0.50471 0.635353 0.68671 0.0414198 -0.642638 0.659849 0.214314 0.951522 0.682643 -0.224204 0.87161 0.899532 -0.368309 -0.434248 -0.27103 0.280923 -0.451154 -0.397502 0.666255 0.774671 -0.406806 0.624825 0.0149838 0.10581 0.212824 0.5845 -0.716957 -0.0744353 0.496251 0.361142 -0.564261 -0.101696 0.0767841 -0.863357 0.480936 0.360942 0.626524 -0.345494 0.242351 0.0947983 0.224134 0.0380613 0.0247637 0.962758 0.582002 0.491174 0.308415 -1.00257 -0.929479 -0.103436 0.696792 -0.512673 -0.67273 -0.261702 0.712634 0.640507 0.991678 0.895059 -0.504377 0.402426 0.149805 -0.110172 -0.772132 -0.761226 -0.00863622 0.543776 0.561467 -0.515276 -0.844 -0.222904 0.837429 0.633218 0.868406 -0.436698 0.572572 0.599376 -0.664645 -0.175724 0.645554 -0.638335 1.01036 0.461214 -0.0815116 -0.667649 1.0547 -0.125497 1.27067 0.917551 -0.385067 -0.585757 0.415986 0.780708 0.220596 0.754762 0.846099 -0.871209 0.011153 0.370437 -0.211104 0.245143 -0.85081 -0.603463 0.056125 0.994949 -0.303603 -0.82808 0.669703 0.198528 -0.0576783 -0.33191 0.396953 -0.324716 -1.19333 -0.861321 -0.200675 0.982668 -0.0778046 -0.24681 0.850609 -0.208807 0.0577504 0.458235 -0.493284 -0.714938 -0.126842 -0.456491 -0.485715 1.07785 0.844516 0.0928461 0.348366 0.862425 0.223747 0.975948 0.871934 -0.862125 -0.710521 0.55886 0.370573 0.169017 1.03146 -0.468175 0.780516 1.03391 -0.246277 -0.375502 1.04674 0.461141 0.495811 0.935009 -0.255239 -0.739249 0.172597 0.453734 -0.575513 0.954584 1.01956 -0.247442 0.818899 0.617608 0.757024 0.0260607 0.45845 -0.175125 -0.10312 0.237154 -0.165152 0.00227397 -0.779537 0.90648 -0.959909 -0.766058 -0.624004 0.723319 -0.766077 0.115027 -0.858114 -0.786299 -0.445214 0.468492 -0.941304 0.305125 0.735445 0.161994 -0.122254 -0.906918 -0.00931855 -0.505862 -0.164699 -0.205592 -0.875402 -0.50065 0.730456 0.562615 0.378436 -0.309143 -0.289075 -0.867093 0.688572 0.098527 -1.01886 0.763335 0.332637 -0.566664 0.60483 0.702742 0.672612 0.820226 0.981055 -0.762736 0.300607 1.03406 0.735118 0.0698783 0.221437 -0.704164 0.156632 -0.827375 -0.327926 0.828566 -0.230219 -0.119552 -0.319769 -0.509379 -0.543759 0.659671 0.0760238 0.308038 1.17815 0.0548855 -0.603028 1.05863 -0.550863 0.692665 -0.989114 1.11389 0.171965 1.2019 0.712369 0.0272181 -0.754315 -0.206504 0.0550843 0.939498 1.26962 0.956607 -1.11079 -0.217967 1.2331 0.0349591 -0.0666078 -0.128395 1.29031 -0.118115 0.359557 -0.432807 -0.152211 -0.400257 0.701893 -0.430461 0.069627 1.02698 -0.675591 0.549993 0.78419 -0.163759 0.526991 -0.163618 -0.0719039 0.120372 0.646578 0.0918341 0.818176 -0.417821 0.0314178 0.624133 -0.49869 0.0693538 -0.710109 -0.595853 0.881491 -0.139187 -0.180362 0.868038 0.897691 1.05457 -0.661324 -0.382303 -0.772017 0.9463 0.0623502 0.430501 0.83862 0.500296 -0.18284 0.30824 -0.859394 -0.839187 1.00123 -0.268168 0.0949166 0.593163 0.638606 -0.115649 -0.925715 -0.641173 -0.674492 -0.645397 0.258391 -0.448868 -0.438637 0.167742 0.397902 0.381108 -0.00412917 0.173558 0.99173 0.265705 0.742984 0.744976 0.0926351 -0.10904 0.127444 -0.0359991 -0.383781 1.05883 -0.745749 -0.503438 -0.954399 -0.855059 0.52744 -0.551406 0.71972 -0.106337 -0.785829 1.16397 0.415308 -0.182845 -0.457288 0.0271041 0.237625 0.0745664 1.07759 -0.439673 -0.581564 -0.0575933 0.923403 0.834755 -0.915986 0.770296 0.685157 0.153771 -0.385355 -0.441778 -0.696279 -0.103483 -0.616813 -0.510906 0.790409 -0.990482 -0.236968 -0.425752 0.622088 -0.532098 0.132454 0.649227 -0.48893 -0.373436 -0.671865 -0.0432972 0.0556873 0.196949 1.06538 -0.00297246 1.12572 -0.610346 0.762596 0.677495 -1.12551 0.902452 0.488899 0.492691 -0.0305324 0.963482 1.28871 -0.167943 -0.252754 -0.672704 0.412636 0.739822 -0.479655 0.971098 -0.818887 -1.2144 -0.671617 0.307867 0.844339 -0.130547 0.893809 1.24274 0.861805 0.0964375 0.400257 0.538881 0.983788 0.322551 0.927358 0.691964 0.0996364 0.855806 0.361784 -0.479397 0.234191 0.99196 -0.713078 0.0991288 -0.111261 -0.119748 0.415506 -0.884983 -0.368301 0.992421 1.02236 -0.248886 -0.863417 -0.826189 -0.91745 0.865164 -0.297011 0.934023 0.86794 -0.498572 -0.0672007 0.173612 0.921165 -0.22066 -0.521321 0.524357 -0.781062 -0.119342 0.414193 0.404453 0.76946 -0.698341 0.276623 -0.858398 0.412328 -1.00899 -0.130191 -0.130918 -0.382848 0.292816 -0.194942 -0.701532 -1.03504 -0.0627888 -0.579226 -0.49057 -0.0225159 -0.196092 -0.697603 -0.415079 1.00273 0.538718 -0.872477 0.692736 -0.769142 -0.209246 0.339793 -0.536128 1.03215 -0.474563 0.889134 1.0574 -0.171437 -0.0271746 0.686897 -0.815693 0.172285 0.0705651 0.446715 0.608002 -0.850046 0.809825 0.796378 -0.60816 -0.342169 1.07374 -0.539481 0.559321 0.162567 -0.181711 -0.757488 0.340494 -0.212952 -0.339018 -0.576466 -0.539202 -0.279597 0.700023 -0.207098 -0.244683 -1.05639 -0.577764 -0.343886 0.125909 0.766035 -0.694967 0.0772351 -0.257465 0.091807 0.852427 0.78903 0.0585689 -0.149825 0.562715 0.476316 -0.933468 0.194602 -0.602933 0.962277 -0.668648 0.220533 1.09867 0.279957 0.648496 -0.654576 0.743425 0.730174 -0.206388 0.462181 -0.214677 0.999448 0.429879 -0.0527373 -0.677352 -0.816892 -0.671518 -0.433985 0.199585 -0.178573 0.470932 -0.0995019 -0.404102 -0.440021 -0.421842 0.868198 0.948241 -0.536357 0.0333976 1.02805 -0.920631 0.24253 -0.0270146 0.767529 -0.730073 -0.761633 0.87818 0.845765 1.13263 -0.214252 0.149367 -0.714074 -0.742567 -0.411728 0.0696751 -0.472703 -0.386629 0.267446 0.0734535 0.408524 0.986797 -0.384366 -0.641491 -0.688141 0.0772617 -0.334932 -0.655833 -0.0234778 0.290631 0.44701 0.154017 0.34464 -0.291289 -0.767346 0.266733 -0.0190331 -0.722872 0.102826 -0.0495682 -0.553211 1.17138 -0.841211 -0.280936 -0.520136 -0.280491 0.726989 0.0175573 0.588217 -0.0291084 -0.380864 -0.0907702 0.459173 0.00110202 0.33521 0.652658 1.50662 -0.552232 0.566584 0.169783 0.363825 0.227488 0.828986 -0.233695 0.552702 0.42051 0.996107 -0.36066 -1.08664 0.123042 0.830661 1.04792 -0.0562844 0.748205 0.16859 0.441023 -0.475208 0.115189 -0.673887 0.748524 0.633423 -0.606295 -0.460449 -0.023414 0.58957 1.06677 -0.85309 0.744127 1.0066 0.8931 -0.743498 0.475993 -0.19752 -0.756316 -1.03968 -0.698591 -0.812859 1.32048 -0.166291 -0.683431 0.0140734 -0.520489 0.183366 0.972733 0.967016 1.18125 0.302131 -0.749947 0.224402 0.678668 1.00837 -0.1484 -0.685418 -0.84655 0.309586 0.531153 0.892995 0.303442 -0.0669736 0.60036 -0.123241 0.0455775 0.0671633 0.700383 0.16145 -0.035421 0.938844 0.215543 -0.167956 -0.235828 0.544167 0.649423 -0.0138725 -0.725369 0.366214 -0.206135 -0.694985 -0.613723 -0.0834821 -0.0596394 0.845722 -0.602196 0.534023 0.869569 -0.426658 -0.159722 0.39533 -0.607488 -1.02759 -0.861526 -0.919496 0.0307541 0.372809 0.168091 -0.233122 -0.584441 -0.882746 -0.346817 0.741405 -0.00274862 0.677155 0.403301 0.0517689 -0.47056 0.534187 0.889978 0.280786 0.970977 -0.216183 -0.620438 -0.103631 -0.704988 -0.0948619 -0.309299 -0.10153 0.556887 0.376367 1.00893 1.02241 0.593142 -0.677769 -0.731083 -0.171594 0.551426 0.461595 0.308719 1.17443 0.400121 0.789775 0.685721 1.36802 0.470592 -0.0465826 -0.103025 0.946029 -0.678535 -0.248421 0.344081 -0.897774 0.171378 0.197976 -0.129087 0.0334942 -0.499151 0.776526 0.32857 0.661125 -0.0649617 0.291284 0.655603 -0.5939 0.587628 1.12083 0.290667 -0.187727 0.0923295 -0.4324 -0.391195 1.03531 -0.831084 0.877084 0.984399 0.135781 -0.702824 -0.373796 0.176298 -0.304548 0.209769 -0.546487 -0.207232 1.21882 0.750751 0.809829 0.299065 1.12272 0.411252 -0.246543 0.920778 -0.547588 1.11018 0.583381 -0.473637 0.427101 0.32209 0.478762 1.07063 0.975501 0.474427 -0.679221 0.766591 0.51884 1.01995 0.896358 -0.147724 -0.694101 -0.637242 -0.98734 -0.229417 0.31781 -0.753148 0.311622 0.132078 0.854611 -0.0616518 -0.764762 0.931917 -1.05693 -0.0833148 0.646392 -0.826242 -0.0611801 0.00768261 -0.396845 -0.70637 -0.758202 0.932816 -0.762828 -0.545992 0.447825 -0.488057 -0.727411 0.0711544 -0.426302 -0.823961 0.896984 -0.262578 -0.81331 0.922903 0.701428 0.803112 -0.867922 -0.130309 -0.0432944 -1.30762 
