0.73113 0.650505 0.285552 -0.960561 0.220104 -0.192518 0.33176 -0.0141895 -0.140684 -0.240726 -0.973084 -0.784436 0.793275 -0.527502 0.696881 0.5967 0.311786 0.517941 0.375674 -0.465743 0.0259007 0.994757 0.257958 -0.017368 -0.281688 -0.344622 -0.160487 0.350276 -0.68452 0.585004 0.672443 -0.879232 0.301891 -0.0924798 -0.874897 -0.595924 0.731776 0.425445 0.486923 -0.552376 -0.794786 0.478707 -0.377288 0.971908 0.826479 -0.585864 0.507754 0.217079 0.691578 -0.0610043 0.63401 -0.252767 -0.184588 -0.18631 0.706906 0.476547 0.372046 -0.631646 -0.320379 0.654667 0.889235 -0.77317 0.983017 -0.404064 -0.0197042 0.152723 0.848946 -0.430297 -0.0196637 -0.120344 -0.0756243 0.0846357 -0.761322 0.518442 0.0829544 1.07525 0.647316 -0.602262 0.146231 0.317019 -0.0534051 -0.44544 0.72237 0.745238 0.0632187 0.158819 -0.164066 -0.621638 0.399319 0.308047 0.912176 0.153358 0.446854 0.311531 -0.84729 -0.795105 -0.0448971 0.560168 -0.39134 0.77122 -0.778159 0.282697 -0.285697 -0.661125 -0.418207 0.589632 -0.753169 1.01111 0.791369 0.285516 0.0832997 -0.388246 0.577722 -0.341146 -0.893577 -0.394767 0.666243 -0.12951 -0.160619 -0.0750164 -0.931142 -0.373883 0.99305 0.346493 0.926661 -0.960784 0.409481 -0.243776 0.483526 0.847937 -0.490322 0.672463 0.0595346 0.207968 0.98087 0.56323 -0.281179 -0.825803 0.502913 -0.574992 0.299359 -0.480294 -0.0495478 -0.156058 0.155916 0.0439283 0.379999 -0.217568 0.839146 -0.775986 0.7069 0.789785 -0.172994 0.608117 0.211892 -0.231065 0.725686 -0.144588 0.531252 0.240694 -0.56264 0.987471 -0.161576 0.412572 0.137876 -0.221441 -0.0859083 0.847537 -0.0543293 -0.450777 -0.475283 -0.524214 -0.205571 0.167954 0.109233 1.07271 -0.85179 -0.537834 0.0952604 1.27182 -0.516513 -0.386341 0.764525 0.515163 1.08993 -0.109277 1.19628 0.768043 0.282023 0.40479 -0.216733 0.833203 0.410635 0.645577 0.0750949 -0.533647 -0.868538 1.01442 -0.623106 0.127912 -0.66829 -0.508675 0.253422 0.522978 0.588906 1.11504 0.327361 0.614145 -0.827526 1.00408 0.0953094 -0.265557 -0.527418 -0.865137 0.788066 -0.73735 0.498697 0.575695 0.840885 -0.102203 0.0114205 -0.484831 -0.914785 1.11782 1.04198 0.0274826 -0.538046 -0.801089 -0.106685 -0.561692 0.175522 0.0758417 -0.371725 -0.824213 -0.796678 0.956669 -1.07879 0.313149 0.275096 -0.731062 0.111531 -0.588018 -0.179369 0.284623 0.062763 -0.512306 0.44626 -0.620202 1.03014 0.221741 -0.128676 -0.172063 0.712414 -0.0786408 -0.183694 0.587497 0.849276 0.102779 0.692747 -0.347577 0.482988 -0.242327 0.691668 -0.914588 -0.0993629 0.804039 0.995323 0.00313578 0.0716745 0.243329 0.18665 -0.904543 0.631853 0.941021 0.351012 -0.309862 -0.621609 -0.191233 0.0490085 -0.648336 0.951038 0.896078 0.302497 0.61504 -0.230457 1.0946 0.227123 -0.331872 0.0926721 -0.118207 0.192573 -0.483872 0.665374 0.0858637 -0.155732 -0.491596 -0.205583 -0.188571 0.357373 0.644374 0.894167 -0.395909 0.823787 0.489505 -0.411857 0.116303 1.06241 -0.108563 0.692231 0.124938 0.406217 0.933275 -0.0305031 -0.558552 0.500516 0.802475 -0.587364 -0.567579 -0.940767 0.558252 0.185871 0.388986 1.11192 -0.0963884 -0.828035 -0.467579 0.148551 -0.152124 0.134781 -0.294297 -0.519523 -0.206348 0.39936 1.15584 -0.60015 0.99296 0.186182 -0.666005 -0.406605 -0.0345084 0.261296 1.05427 -0.458431 1.02833 -0.923093 0.848081 0.516928 -0.698743 -0.936208 0.434453 0.645638 0.42194 -0.257714 0.609199 -0.685377 -0.21307 0.98505 0.45111 0.495373 0.0577124 -0.934233 0.788777 0.86889 0.303371 0.719774 0.992458 0.112664 -0.245074 -0.843367 0.591554 0.542435 0.27239 0.298059 0.903166 0.164191 0.319236 0.522244 -0.449152 0.616152 0.57581 0.968794 0.259614 -0.119918 -0.377846 -0.254618 -0.00889144 0.341011 -0.299723 -0.615864 -0.230342 0.650561 -0.557068 -0.516844 0.381408 0.79276 -0.793884 0.322634 -0.211718 -0.0713529 0.430775 -0.659583 -0.613848 -0.346614 0.536169 -0.7197 0.811227 -0.0906264 0.528927 -0.690239 -0.512898 0.378796 -0.726025 0.521707 -0.749005 0.0190972 -0.425911 0.166482 -0.833013 0.186223 0.340521 0.00347119 -0.132234 0.963295 0.35282 -0.807617 0.779024 0.6803 0.617045 -0.716482 -0.528248 0.406791 -0.295308 0.0610326 0.50539 -0.701387 0.0473133 0.212324 0.103444 -0.26446 0.569619 0.639228 1.08106 0.86949 0.369662 -1.35777 -0.516522 0.739502 0.203609 -0.524633 -0.37788 -0.311893 0.607578 0.410979 -0.457628 -0.16754 0.499921 -0.774591 -0.630194 -0.201853 -0.543038 -0.291742 0.455209 0.302695 0.439638 0.0297098 0.243015 -0.633888 0.990336 -0.774956 -0.0782869 0.364001 0.661873 -0.409763 -0.0601521 -0.0646383 -0.173382 0.274205 -0.710919 1.0177 0.758953 -0.158877 -0.550968 0.175817 -0.733326 -0.0568989 0.813978 0.67957 0.011866 1.01379 -0.731064 0.42069 -0.32841 0.689876 -0.568478 0.866558 -0.55319 0.590918 -0.888138 -0.659495 0.7133 -0.0108569 0.570146 0.332019 0.724863 -0.627805 -0.937468 -0.566501 0.609395 -0.656522 -0.71076 0.290308 0.189782 -0.294604 -0.644515 0.356308 0.586162 -0.860734 -0.10114 -0.447905 -0.924346 0.140803 0.909791 -0.369947 -0.213772 -0.768793 -0.501202 0.170527 0.730646 -0.398353 0.461955 0.433679 0.457897 -0.0239123 -0.272027 0.215909 0.320729 -0.219272 0.599446 -0.157925 0.0288087 0.860443 -0.833737 -0.763499 -0.483404 -0.573754 0.569808 -0.875135 -0.362069 -0.399366 -0.391446 -0.413212 0.517592 -0.593141 0.135261 -0.651879 -0.081306 0.246455 0.374668 -0.574487 -0.81283 -0.0209197 0.782732 0.692588 0.935007 -0.848299 -0.322375 0.138724 0.0662136 -0.598138 1.04008 -0.776872 1.3053 0.660323 -0.348241 -0.423145 -0.498921 0.103348 -0.419297 -0.20228 -0.585343 -0.00392698 0.663764 0.804658 0.453822 -0.21351 0.892022 1.05907 -0.640213 0.39566 -0.483009 -0.489729 -0.880169 0.949079 1.06679 0.822033 -0.66859 -0.251678 -0.0315515 0.401223 -0.225248 -0.412433 0.410247 -0.259962 -0.392286 0.574243 -0.0448406 -0.0663238 0.459276 0.502009 0.812424 0.664669 -0.431923 0.26775 0.243854 0.912771 1.03263 0.276223 0.953126 -0.768971 -0.387628 -0.775948 -0.375978 -0.374695 -0.837129 -0.355983 -0.616751 -0.680654 0.0803056 0.189857 0.579366 0.81853 0.751898 -0.149965 -0.509921 -0.756346 -0.628881 0.581524 0.0845919 0.675418 0.0907521 -0.169585 0.187344 0.617419 -0.912777 -0.539467 0.576098 1.01645 0.67119 0.506285 -0.777944 -0.818497 0.725715 -0.249986 -0.231532 0.778953 0.241763 0.103279 -0.867619 -0.69558 -0.750153 0.686071 -0.946938 1.01262 -0.557972 -0.439519 -0.818203 -0.312595 -0.768239 0.284155 -0.567898 0.09491 1.11799 0.564367 -0.170392 -1.00034 1.07258 -0.659918 -0.91454 0.64654 0.774383 -0.763923 0.727401 0.624221 -0.00327008 -0.277565 0.138996 -0.747293 0.505107 0.31894 -0.691766 0.741606 -0.0938697 -0.49993 0.807635 0.169962 -0.0404809 0.974783 0.847511 0.037647 -0.0266357 -0.822336 -0.6787 -0.0341353 0.678719 -0.307134 -0.022265 0.564101 -0.19318 0.264283 0.580976 -0.131502 0.620994 0.331026 -0.557891 -0.351113 0.544087 0.25864 -0.483409 -0.119227 -0.466758 -0.456879 -0.402608 0.31177 -0.00573278 -0.793106 -0.578796 1.09671 -0.654975 -0.730968 -0.0590129 0.137728 -0.51324 -0.0726979 -0.949865 -0.748363 0.74448 0.194993 1.0306 -0.358354 -0.727604 0.282962 0.520975 0.332701 -0.739622 0.604666 0.435797 0.684662 -0.0721426 0.751667 -0.398162 0.201155 -0.75466 0.292378 -0.39605 0.226245 0.476468 0.036351 0.09873 0.538588 0.242284 0.875363 -0.432133 0.724049 -0.254491 -0.408129 0.977882 -0.58338 0.630724 0.937184 0.12438 0.745915 0.215567 -0.402447 0.0776436 0.486346 -0.747044 -0.472894 0.0435644 0.175948 -0.818562 0.760068 -0.496902 -0.602113 -0.145453 0.061367 0.58433 -0.723928 1.07594 -0.353022 0.74107 0.247559 -0.501134 -0.713219 -0.153951 0.224757 -0.170759 -0.0946247 0.540807 -0.651246 -0.249084 -0.314151 -0.775933 0.958232 0.248346 0.391568 0.412727 0.493589 0.652908 -0.142023 -0.440139 0.867595 -1.11116 -0.144505 -0.694274 -0.189757 1.10268 0.960001 0.0876305 0.883243 -0.662309 -0.045256 0.365648 -0.181803 0.206329 0.945828 0.904121 0.937665 -0.0747197 0.341611 -0.740271 0.21619 0.800776 -0.469175 0.560833 -0.019382 0.658074 0.0669379 -0.566539 0.396619 0.234639 0.247131 0.247464 0.180675 0.977626 0.259018 1.1756 0.640341 0.00421562 0.29574 0.726561 0.0979342 0.79256 -0.28458 1.04872 -0.243759 -0.156523 0.686006 -0.236727 0.511077 0.000721788 -0.0916477 0.0984773 -0.119553 0.396298 -0.575841 1.04943 0.0318433 0.125665 -0.44687 -0.703921 -0.944144 0.456034 0.166458 0.166886 0.291458 -0.567122 0.103621 0.187437 0.386719 -0.872857 -0.086951 -0.528767 0.881366 0.762402 -0.670005 -0.29338 -0.425786 0.982301 0.343019 -0.848322 -0.0538821 -0.707074 0.193727 0.835896 0.663404 0.578617 0.808667 -0.400618 -0.388081 -0.693798 -0.171508 -0.283276 0.746359 -0.960786 0.92299 0.0407396 -0.520211 -0.0608656 -0.839569 0.751012 -0.0236885 0.032627 -0.814823 -0.189698 -0.217906 -0.589223 0.445564 0.216097 -0.578006 -0.204788 0.339463 0.353674 -0.00093976 -0.504629 0.0781288 -0.366116 -0.842842 0.073893 0.3202 -0.351787 0.224291 -0.824808 0.33928 -0.133263 -0.894789 0.239214 0.81614 -0.5507 1.14569 0.969521 -0.879145 0.146692 -0.0975097 -0.858336 0.900667 1.0305 -0.305359 0.249636 0.0602891 0.0311039 0.932461 -0.890689 -0.710918 0.0892407 -0.348663 0.287442 0.831874 -0.616177 -0.73659 -0.176618 0.544768 0.180966 -0.438306 -0.619786 0.86054 -0.0372056 0.724028 1.26903 0.477278 0.707092 0.781294 0.44977 -0.208658 -0.642602 0.670889 -0.614791 -0.698548 -0.800401 0.5429 -0.009831 0.100734 0.286547 0.175823 0.044342 -0.659312 0.753318 -0.582011 0.949956 -0.602811 -0.41917 0.0199743 0.633491 0.936295 0.482919 -0.805918 0.748775 -0.643312 0.873609 0.518448 0.566855 0.367125 0.268786 -0.0882977 0.98808 0.843514 -0.510393 -0.656811 1.03178 -0.326953 0.827968 -0.0136906 0.792364 0.264239 1.02617 0.0416191 0.531264 0.732473 0.495289 0.404086 0.99845 0.991195 -0.924857 0.54117 0.703442 -1.30177 
0.702608 0.520516 0.8869 0.343766 0.0458294 0.407031 -0.166034 -0.866241 -0.664494 -0.253607 0.975404 -0.208304 -0.0759685 1.10439 0.413053 -0.196287 -0.151111 0.286822 0.97554 -0.013645 1.17413 0.465114 -0.293129 0.657781 -0.186672 -0.483118 0.547898 -0.163914 0.993243 0.324772 -0.278203 0.168374 -0.570201 -1.3147 0.340269 0.603322 0.443106 0.669233 0.604862 0.688965 -0.663406 0.580132 -0.497561 0.263373 0.401278 0.734507 0.903256 -0.723814 -0.392639 0.682085 -0.0942027 -0.216951 -0.168327 0.352454 1.06071 0.571342 0.75019 0.43222 -0.689339 0.614434 -0.352392 -0.587895 0.136032 0.11119 -0.466966 1.01204 -0.473675 0.808994 0.473581 0.903678 0.359599 0.667479 0.271848 0.69735 -0.235574 -0.522474 0.245997 -0.425123 -0.517647 0.733352 0.996764 0.243014 -0.72873 -0.199147 -0.543829 -0.719418 -0.765765 -0.922726 0.601841 -0.580984 0.618525 -0.906918 -0.17588 -0.34562 0.0592146 0.236689 -0.450034 0.416604 0.043119 0.9946 0.259165 -0.594369 0.640503 -0.534363 1.02454 -0.644499 -0.126208 0.183858 -0.226988 0.290595 -0.165324 -0.263103 -0.487461 0.0951518 0.47028 -0.0656864 0.289824 0.710682 0.00413481 -0.230212 -0.895601 -0.471302 -0.05729 -0.059669 0.270381 1.28958 -0.811361 0.848725 0.385808 0.179246 0.76505 -0.444685 0.525416 0.361805 -0.0385962 0.544419 0.6985 0.973318 0.0116751 -0.215895 -0.0117841 0.516814 0.24422 0.615335 -0.456889 -0.31255 -0.15239 1.12874 -0.817764 0.623722 -0.385152 -0.472825 1.01533 0.476817 0.400047 0.264895 0.247804 0.248341 -0.108384 -0.227498 -0.548849 -0.309033 0.166848 0.914868 0.719597 1.16402 0.525441 0.538148 0.91139 1.0961 0.904465 0.252827 0.525655 -0.09775 -0.346501 0.980072 0.208025 0.0565454 0.295038 0.497907 -0.416117 0.148408 0.540509 -0.725536 0.13645 -0.480329 0.339117 -0.497787 0.814695 -0.884512 -0.35973 0.962193 -0.308872 0.665261 0.745692 -0.522976 0.678624 -0.142694 0.854723 0.435991 -0.354054 0.527584 -0.657851 0.920371 -0.921403 -0.20114 0.596984 0.451541 0.649335 -0.0520985 -0.2262 0.893697 -0.339782 -0.794932 -0.927237 0.627712 -0.293491 0.357613 0.745359 -0.691698 0.471588 -0.645702 -0.853448 0.989904 0.926543 0.718779 -0.621477 0.521444 -0.477307 -0.864816 -0.0711281 0.149415 0.62959 0.186723 0.0291249 0.883285 0.939758 -0.4027 0.255358 0.502505 0.523986 0.95827 0.368619 -0.81889 -0.8829 0.454443 0.789327 -0.233933 -0.267129 0.506459 0.19476 -0.851257 0.813885 0.314745 -0.832724 0.799987 -0.0609028 -0.491821 0.187628 0.382009 -0.333165 -0.684674 -0.21307 -0.766684 0.402111 0.803698 -1.04721 0.119236 -0.767498 0.291464 -0.281359 0.715057 0.301975 1.04027 0.796184 0.336418 0.258147 0.575498 -0.751001 -0.705183 0.0654251 0.213113 -0.588156 -0.0372724 -0.595393 -0.703592 -0.687263 0.471028 -0.317507 0.659374 -0.143264 0.419468 0.680947 0.218225 0.352643 -0.0563727 -0.179513 0.566459 1.07242 -0.196785 -0.0455045 -0.363655 -0.330389 1.26916 -0.383272 -0.692216 0.303828 0.94924 0.715912 0.659977 0.896432 -0.41514 -0.548456 1.12994 0.214009 -0.340653 -0.812214 0.403056 0.8461 0.0159251 -0.0315223 -0.436768 -0.565399 -0.485905 0.618509 0.791181 0.33912 -0.625419 0.263608 0.250285 0.215317 -0.938568 0.681227 0.602436 -0.850047 -0.849045 0.766391 0.346568 0.942124 0.358147 -0.348331 0.675735 0.816053 0.0391224 0.566703 -0.091752 0.706808 0.748957 -0.700129 0.5689 -0.336271 0.190743 -0.99008 -0.115062 0.64711 0.60906 -0.374706 -0.0667112 0.885113 0.894792 -0.88967 -0.0408289 1.01336 0.801051 -0.488179 1.03869 0.922707 -0.76769 0.348947 0.783709 0.536468 0.892332 0.448798 0.348762 -0.00382372 -0.270612 -0.800192 -0.342615 -0.240679 -0.502804 -0.982073 0.424962 0.847156 -0.673959 -0.779805 0.261908 0.841925 -0.386291 -0.733506 0.756071 -0.291331 -0.764954 -0.33113 -0.248156 1.16975 0.290878 -0.50971 0.953848 1.0049 0.934124 0.959255 -0.135331 0.913701 0.111106 -0.888612 -0.192282 1.005 -0.61435 0.517391 -0.260235 -0.117206 0.740048 0.382567 -0.706051 0.86702 -0.891398 0.415005 0.403008 -0.106546 0.819222 0.109693 0.529963 0.921561 0.669063 -0.812631 0.971421 -0.367331 -0.348385 0.807689 0.76878 -0.251494 0.421154 -0.268608 -0.709424 -0.563733 -0.423893 -0.023853 -0.754056 -0.230361 -0.702679 -0.434254 0.363407 0.942653 -0.346341 0.538443 0.427458 -0.238484 -0.040367 -0.232383 0.403141 -0.40979 0.905503 -0.124179 -0.664384 0.498309 -0.0923724 -0.844614 0.93641 0.523743 0.937304 0.6844 0.970905 0.109875 -0.866772 -0.807006 0.414802 -0.362743 0.0689186 0.631117 0.262206 0.336097 -0.627992 -0.499421 0.0865658 -0.0824746 1.01079 -0.480946 0.51952 -0.0974178 0.311772 -0.104772 0.391737 0.120148 0.714304 0.712482 -0.515573 -0.415138 0.790726 -0.60739 1.03683 0.597846 1.03756 0.903153 -0.287008 -0.888984 0.997605 -0.87191 -0.30844 0.0680476 0.618588 0.895074 -0.645918 1.0243 -0.632542 0.442743 -0.106084 -0.724869 0.857465 -0.610561 0.228917 0.191156 0.228042 -0.473493 -0.710719 -0.037367 -0.690445 -0.0806364 0.486595 0.951755 0.0699865 0.408921 0.492824 0.168865 0.598769 -1.1644 0.136296 0.38379 -0.711309 0.972858 -0.642264 0.955392 0.854332 -0.623683 0.761089 1.12615 0.961445 -0.190655 -0.523054 0.96275 0.238559 0.166331 0.394747 -0.784711 1.10691 -0.560116 0.0864 -0.933672 1.15207 -0.628058 -0.651147 0.0902073 0.842377 0.842838 -0.979263 0.127081 0.980893 0.284303 -0.431854 -0.750528 -0.0171818 -0.416579 1.1101 -0.383856 0.194619 0.875567 -0.2462 0.160618 -0.743092 -0.201137 -0.111821 0.157432 -0.674549 0.739393 0.00453165 -0.750656 0.0365881 -0.949243 -0.595506 -0.0019126 -0.485593 -0.446819 0.856618 -0.73868 -0.623741 1.02879 0.395416 -0.789907 0.256275 0.716388 -0.641427 -0.833123 -0.704099 -0.588969 -0.252441 0.325556 0.958841 0.345899 -0.660636 -0.792941 -0.866839 0.0994652 0.312487 -0.646224 -0.200117 -0.519287 -0.475523 0.700213 -0.438555 -0.115102 -0.462904 0.0454473 0.437387 -0.560198 0.360338 0.715339 -0.59214 -0.263307 0.909084 0.571495 -0.54743 -0.827659 0.704072 -0.353246 -0.573129 -0.603951 1.00248 -0.631896 0.700116 -0.673004 -0.493566 0.854622 0.331206 0.833448 -0.874387 -0.985081 -0.589743 -0.326036 0.777095 -0.259673 0.554771 -0.743693 0.90992 -0.218269 -0.258317 0.194355 -0.436729 0.051736 0.868915 -0.598174 -0.468992 -0.526279 -0.389994 -0.515412 -0.174185 0.0459929 -0.45976 -0.113058 0.168043 -0.75486 0.12931 0.821669 1.15145 -0.720478 0.581636 -0.769571 -0.725009 0.854748 -0.332468 -1.01736 -0.252475 -0.906186 -0.811708 -0.774492 -0.0756311 -0.285953 0.217771 0.67768 1.1731 0.41959 1.30355 -0.280255 0.782301 -0.0720882 -0.311402 -0.675584 0.580763 0.0561833 0.19061 -0.554911 0.275592 -0.795301 -0.767578 0.228028 -0.586725 0.974178 0.702381 -0.296903 0.622897 -0.859067 -0.280653 -0.923103 -0.815152 -0.0368372 -0.547679 0.264674 0.925702 0.778742 -0.219629 0.769001 0.211843 -0.551709 -0.848628 -0.31999 -0.214769 -0.264819 0.0881512 -0.851102 0.854025 -0.96142 -0.447544 0.2551 -0.661852 -0.200226 -0.522589 -0.212443 -0.445849 0.876482 0.451365 1.01948 0.924615 -0.821093 -0.949224 -0.903489 0.169621 -0.555301 0.218028 0.0357626 -0.690335 0.840653 -0.186869 0.48014 -0.70341 -0.00957614 -0.784825 0.106758 0.600906 0.313743 0.165479 0.577659 0.482883 0.695992 -0.3758 0.77437 -0.543543 0.049667 -0.460183 -0.026871 -0.148315 0.919605 -0.00482499 -0.248331 -1.03719 0.0082344 -0.198694 0.219572 0.337357 -1.08876 -0.831896 0.669275 0.888936 -0.026081 0.134267 -0.73226 0.927415 0.328148 0.103964 1.04954 -0.476894 -0.696038 -0.268658 0.789842 1.04771 0.474622 0.786393 -0.421458 -0.455014 -0.985981 0.291919 0.540641 1.19335 -0.773247 -0.743439 0.887252 0.110234 -0.0123086 0.216266 -0.629365 -0.128853 -0.110283 0.811077 -0.177361 -0.685353 -0.12033 -0.149992 1.40979 -0.83304 1.04226 0.591241 -0.00154164 -0.664833 -0.545933 -0.327172 -0.885902 1.16734 -0.96812 -0.509506 -0.247882 -0.721522 0.527975 0.811477 -0.900332 0.931223 0.834005 -0.814391 -0.215718 -0.121107 0.148156 0.135805 0.646223 -0.526501 0.041541 -0.57488 -0.450928 -0.865699 0.241293 -0.461161 -0.594819 0.153894 0.844157 0.0634849 0.125878 -0.745915 0.61346 0.247073 -0.823886 0.92118 0.698621 -0.333664 -0.794626 0.239077 -0.552541 -0.550421 -0.00405838 -0.631308 -0.373687 0.770622 0.147236 0.864271 -0.11641 -0.146895 -0.713139 0.955985 0.265064 -0.189015 -0.973094 -0.585098 0.264656 -0.614753 0.502829 0.171599 0.439576 -0.326997 0.475783 0.0653171 0.938357 0.570409 -0.0745743 0.517109 -0.864339 0.0906939 -0.278887 -0.465033 0.539138 0.619746 -0.156998 -0.989466 0.410965 0.991209 0.844537 -0.710025 -0.252373 -0.902217 -0.867976 -1.00078 -0.00428871 -0.670968 -0.510094 -0.855606 -0.422566 1.0296 0.294613 0.910369 -0.41 -0.258257 -0.094973 -0.608811 -0.72143 0.801948 0.84861 -0.547473 -0.187118 -0.613429 -0.0555687 -0.330894 -0.847768 0.658816 -0.451919 0.499478 0.567869 -0.926511 0.683346 -0.501921 -0.765315 0.742938 -0.367723 -0.21386 1.02554 -0.201409 0.528507 -0.680136 -0.601603 -0.667422 -0.922315 0.281324 0.153293 0.543543 0.792068 0.290983 -0.0841766 0.476069 0.671811 0.349163 0.961988 -0.689307 1.01048 0.960385 0.927476 -0.831068 0.350832 0.315368 -0.64761 -0.303149 0.7958 -0.458928 -0.433634 -0.787232 0.649502 -0.520279 0.304661 -0.147539 -0.0363532 0.583659 0.341326 -0.0357275 -0.185866 -0.53284 1.00274 -0.660322 0.536106 -0.112906 0.728234 0.0750415 -0.486541 0.611674 0.385638 -0.578777 0.593575 0.278758 -0.423035 -0.0112634 -0.231769 -0.19411 0.923042 -0.482186 0.317815 -0.458827 -0.33306 -0.156848 -0.0408859 0.599175 0.611215 0.718211 0.183065 -0.182955 -0.343079 0.943468 0.173468 -0.325895 -0.751827 -0.198492 0.518504 0.994139 0.817588 0.980389 0.587564 0.13045 -0.618698 0.11439 -0.714492 -0.151766 1.01198 -0.0545831 0.723476 0.945746 0.479029 -0.193788 -0.649809 -0.885175 0.627697 0.305776 0.653247 0.290944 0.035102 -0.245932 -1.25752 
0.424327 -0.296761 0.142076 -0.791395 -0.147077 0.883505 0.659479 -0.235961 0.632044 0.592603 -0.7698 -0.325978 0.890767 0.297882 -0.0882297 -0.294484 0.294146 0.82966 -0.691199 0.103975 0.224366 0.137154 0.455882 0.240065 -0.219174 -0.261221 -0.175226 -0.985278 0.696616 0.5987 -0.931025 0.316882 -0.75113 0.276461 0.550677 0.135586 0.202239 0.267184 0.929117 -0.144693 -0.102816 -0.788609 0.561726 -0.161507 0.547856 -0.497434 0.580853 -0.126356 -0.620771 0.918091 -0.978028 0.617729 0.0878747 0.499835 -0.121415 0.895938 -0.739077 0.72869 0.930129 0.991579 0.335506 -0.978108 0.335136 0.611084 0.321141 -0.0824054 -0.2429 -0.467425 -0.800348 -0.302912 0.398476 0.117443 -0.076819 -0.0280193 0.968814 -0.513017 0.501975 0.561648 0.376151 0.888148 0.484764 0.401668 0.518167 -0.420206 -0.0885751 -0.603876 -0.525562 0.190717 -0.872616 -0.579519 0.172028 0.460325 -0.570245 -0.534988 0.0726428 0.742621 0.429669 0.837286 -0.709175 0.638985 -0.457372 0.69153 -0.229756 0.47061 -0.337736 -0.280286 0.928821 -0.848312 -0.670674 0.345102 -0.941452 0.785942 -0.243372 0.587054 -0.653806 0.625134 -0.993956 -0.158751 -0.128569 -0.88061 0.279061 -0.937946 0.603414 0.72324 -0.399038 -0.279583 0.513108 -0.971609 -0.445324 0.804379 0.699973 0.129186 0.541214 -0.526781 -0.409318 -0.77856 0.235614 -0.419063 -0.58469 0.454729 0.934497 -0.481559 0.341553 -0.275068 -0.822656 0.749504 -0.516148 -0.813774 -0.366218 0.474398 -0.623344 0.96578 0.471406 -0.957002 0.730515 -0.927015 -0.230839 0.27058 -0.795137 0.384983 0.108548 0.934852 -0.465674 -0.33861 -0.562823 0.192477 -0.0870028 0.702494 0.823769 0.380461 0.273743 0.811394 0.989596 -0.340334 -0.409359 -0.87647 -0.550397 0.0756774 -0.65423 0.1272 -0.520373 -0.250452 0.11627 0.986803 -0.193399 -0.134528 -0.87232 0.613898 -0.850686 -0.655494 0.0253206 0.285027 -0.700408 0.591691 0.966082 -0.243983 -0.202729 -0.0972084 -0.532443 -0.370822 -0.707825 0.75965 -0.549407 -0.765332 -0.571818 0.0458086 -0.625481 -0.108058 -0.872751 -0.269399 -0.974479 -0.390765 0.490399 0.137956 -0.400792 -0.694408 -0.982077 -0.269126 0.898243 -0.825366 0.0833466 -0.0713149 0.456924 0.373739 -0.461699 0.427883 -0.847215 0.338519 -0.674875 -0.413618 0.933335 -0.372166 -0.636943 -0.606563 -0.11367 -0.174998 0.462347 0.253623 0.709501 0.593847 -1.01708 0.753296 -0.765823 0.483778 -0.0732791 -0.182501 0.759766 -0.0956143 0.57721 0.716028 0.0965319 -0.342871 -0.335441 -0.397945 -0.909086 0.211946 -0.937442 -0.765805 -0.45688 -0.620791 -0.122822 -0.445549 0.0566062 0.25525 -0.0129222 0.921169 -0.906769 -0.507154 0.170309 0.833462 -0.911334 0.165104 0.60835 -0.66141 -0.300737 -0.48875 0.20821 -0.524194 0.488714 -0.172721 -0.742317 -0.373734 0.5356 -0.0388453 0.264346 0.662167 -0.801261 0.292266 0.91707 -0.218211 0.690879 -0.182318 0.366826 -0.248617 -0.89041 -0.625925 -0.305712 -0.752133 -0.123449 0.900167 -0.872792 0.0115768 0.0991624 0.764584 0.390942 0.82218 -0.675449 -0.3649 -0.648736 0.853525 0.492217 -0.378658 -0.483677 0.0560414 0.589948 0.787453 -0.270961 0.801028 0.108318 -0.333798 -0.391771 -0.16915 0.500678 0.986903 0.596093 0.62733 -0.617499 -0.702755 0.889888 0.282044 -0.805164 -0.98247 -0.695374 0.31201 0.788254 0.704492 0.142428 -0.872393 -0.651293 0.50835 0.982412 0.83977 -0.874408 -0.465729 -0.0960168 0.718136 -0.713795 0.633641 0.564945 0.398321 -0.709847 -0.880217 -0.763439 0.811287 -0.882692 0.859831 0.427068 -0.503321 -0.86308 0.335538 0.789771 -0.670213 0.340816 -0.919508 0.680533 0.150378 0.734216 -0.183001 0.251611 -0.834598 -0.680302 0.287427 -0.972754 -0.529119 0.799509 -0.0680985 -0.81158 -0.898669 -0.438583 0.711049 0.577672 -0.0935452 0.861955 0.784286 -0.247149 -0.966766 0.637715 -0.832121 -0.442246 0.804545 0.527772 -0.63057 -0.845667 -0.0941777 -0.500211 0.863552 -0.90839 -0.646526 -0.330181 0.39612 -0.475856 0.0538453 -0.281802 -0.408949 0.546852 -0.451331 0.562642 0.773929 -0.279263 -0.824721 0.510413 -0.753906 0.115536 0.448545 -0.948436 0.877248 0.50337 0.743119 -0.918395 -0.930712 0.562536 0.654166 -0.540529 0.753551 -0.399875 0.0057039 0.63243 -0.288137 0.377576 -0.650277 -0.847151 0.947668 0.426854 -0.107991 -0.430757 -0.0029324 0.458911 -0.843543 -0.212979 -0.831896 -0.640378 -0.661471 -0.559091 0.488238 0.795959 -0.476891 0.3827 0.309388 -0.724829 0.488728 0.399955 0.852165 0.155779 0.885024 0.617149 0.769657 -0.103831 0.257788 -0.50244 -0.717607 0.629223 -0.347338 -0.757704 0.0696055 0.549323 -0.181198 -0.927488 0.0276957 -0.0160028 -0.136814 0.19145 0.346999 0.209766 0.640894 -0.150504 0.0187757 -0.828738 -0.772385 -0.676264 -0.546838 0.730798 0.724 -0.698444 -0.123321 0.59651 0.931484 -0.339943 -0.480608 0.207294 0.178343 -0.197026 -0.20524 0.88636 0.069762 0.905122 0.388641 0.866144 -1.01478 -0.584473 -0.142221 -0.0845447 0.651932 -0.768426 -0.896606 0.278687 0.0768902 0.113881 0.438344 0.404699 0.41282 0.939248 0.0650441 0.276524 -0.729806 0.996844 -0.200319 -0.769606 -0.367577 0.34256 0.440259 0.824585 -0.803907 -0.710854 0.671319 0.25787 -0.799783 0.0774773 0.164579 -0.750217 0.521582 -0.931431 0.132749 0.190089 -0.687695 0.246965 -0.476993 0.458202 -0.61552 -0.96541 -0.193835 0.865317 -0.967995 0.903193 0.0599225 -0.683389 0.899228 0.905303 -0.446532 -0.425571 0.289956 -0.981283 -0.590971 0.478348 -0.670779 -0.884391 -0.250537 -0.427494 0.224958 0.948419 -0.166887 -0.229541 -0.958304 -0.996793 -0.989284 -0.614309 0.273634 -0.446829 0.857129 0.689662 -0.393836 -0.312335 0.574463 -0.368621 -0.385712 -0.330328 -0.0430905 -0.466364 -0.400454 0.521537 0.116199 0.892167 0.540059 0.545946 0.383207 0.874467 0.670261 -0.845063 -0.548637 -0.086595 -0.888589 0.305272 0.707375 -0.840685 0.303056 0.72051 -0.446153 -0.413605 -0.715333 -0.585805 -0.710929 -0.112246 0.111104 0.887181 0.508943 0.722427 -0.454729 -0.500183 -0.745402 0.149436 -0.996301 0.401506 0.0362091 0.550417 -0.0620818 -0.566625 0.443213 -0.376956 -0.389082 0.882428 0.541252 -0.306182 0.223753 0.245592 -0.103208 -0.475246 0.0102588 0.459478 0.129172 0.275463 0.866556 0.448922 -0.807455 -0.029816 0.333651 0.733705 -0.241718 0.89659 -0.798685 0.0351759 0.0669681 -0.715732 -0.552824 -0.874742 0.880904 0.352852 -0.480651 0.302351 -1.01184 0.132447 0.184302 0.528216 0.907338 -0.520413 -0.160029 -0.162255 0.018539 0.898847 -0.693534 -0.814398 0.189379 -0.785908 0.651404 0.369779 0.185154 -0.0122594 0.140529 0.97097 -0.109268 0.412538 0.0235102 0.950034 0.694676 0.450912 -0.930628 0.582805 -0.143592 -0.349382 -0.105726 -0.0742027 0.849042 -0.842067 -0.46632 0.785387 -0.360477 0.410764 -0.368617 0.715514 0.322087 -0.0605531 0.894271 -0.470941 0.164782 0.55031 0.945185 -0.603422 -0.436744 0.11974 -0.607243 0.467002 -0.451715 0.428179 0.43071 -0.737862 -0.0872968 0.516464 0.842132 0.794176 -0.826124 -0.251757 -0.276021 -0.972724 -0.0977509 0.261389 0.833021 0.549294 -0.307983 -0.549801 0.249393 -0.978239 0.420169 0.151777 -0.441948 -0.406035 -0.293975 -0.490787 0.00320595 0.280933 0.64096 0.399185 -0.236083 -0.811879 -0.163564 -0.815496 -0.537263 0.761476 0.717034 -0.698943 0.544439 0.890851 0.0630945 -0.746089 0.923478 0.964597 0.554235 0.727722 0.530524 -0.756354 -0.73296 -0.191805 -0.735919 0.67934 0.942799 -0.187609 -0.720092 -0.308374 0.366099 0.26899 0.946943 0.00279242 -0.322073 -0.246631 0.216031 0.540618 -0.0601083 0.70293 0.313061 -0.28742 -0.954645 -0.141829 -0.41106 0.129164 0.159886 -0.483869 0.0993847 -0.28922 -0.687046 -0.394342 -0.0396171 -0.419639 0.454575 0.282857 -0.744031 0.462943 -0.859996 -0.452248 -0.861694 0.55268 0.886199 -0.845071 -0.44793 -0.389436 -0.107616 0.829489 -0.854913 0.885991 0.550635 0.488797 -0.422156 0.597771 -0.636303 0.198713 -0.291943 0.535527 0.763622 0.815259 -0.72697 -0.86334 -0.512687 0.306979 -0.252244 0.965352 -0.399681 0.0465989 0.406562 -0.240695 0.640656 0.55738 -0.671128 0.541277 0.702912 -0.0748093 -0.846328 -0.386132 -0.229876 -0.667298 -0.499913 -0.666218 0.825605 0.0915041 0.940866 -0.798472 -0.695889 -0.330315 0.756031 -0.912705 -0.501953 -0.955919 -0.777696 -0.00710948 0.348036 -0.0317172 -0.035922 0.952176 -0.966464 -0.615785 -0.270194 0.686507 0.950811 0.0665774 0.23663 0.660519 -0.989002 0.404708 -0.712355 -0.226332 0.734 -0.204424 0.113575 0.572856 0.894931 0.0716694 0.786222 -0.812671 0.709191 0.52341 -0.703793 -0.763021 0.564203 -0.472977 0.246363 -0.0666801 0.498643 -0.771539 -0.0913188 0.53719 -0.387346 0.648059 0.223093 -0.414581 -0.254516 -0.524815 -0.793208 -0.263023 0.883023 -0.471614 0.528374 0.641557 0.358329 -0.341728 0.213469 0.261002 0.747219 -0.00491433 0.503351 0.491102 -0.430861 0.752535 0.79061 -0.791307 -0.638424 0.0757604 0.106074 0.848506 0.219596 -0.977789 0.425402 0.912823 0.703407 -0.344745 -0.454082 -0.551938 0.187108 -0.225076 0.223472 0.103119 0.359442 -0.21113 -0.202485 -0.269766 0.514116 -0.967065 -0.984042 0.273008 0.0647951 0.510795 -0.216655 0.615856 0.317916 -0.449859 0.849598 0.660172 0.639653 -0.00973485 0.529994 -0.0564118 0.0647186 -0.00954436 -0.127062 -0.202081 0.693324 0.409637 0.274911 -0.0988548 -0.785501 -0.479844 -0.965591 0.594347 0.320192 -0.174661 -0.645799 -0.182651 -0.11901 -0.611749 -0.906567 0.964884 0.92689 -0.0974665 0.635801 0.266194 0.498405 0.49439 -0.0454554 0.150674 -0.501631 -0.495011 -0.897765 0.573091 0.491467 -0.0127832 -0.626973 0.201418 -0.591341 0.657584 -0.883575 -0.368555 -0.808945 -0.827407 -0.754562 0.526499 0.0157236 -0.409636 -0.658215 0.895981 0.0111148 -0.543125 0.867915 -0.0564178 0.361648 0.512046 -0.803802 -0.135972 0.0252542 0.15544 -0.988175 0.480495 0.658712 -0.861694 0.0914602 0.169077 0.121803 0.454864 -0.609838 0.540536 0.129974 -0.437549 -0.796938 0.324554 -0.301084 -0.513064 -0.100783 0.714491 0.0755381 0.238825 0.653771 -0.915273 0.721821 0.516501 0.0265718 0.11601 0.0566933 0.220029 -0.999425 -0.881897 -0.538277 -2.10926 
0.673308 -0.841574 -0.759471 -0.232983 0.33521 0.357862 -0.731303 0.745148 -0.0724834 0.474441 -0.707121 0.138399 -0.131831 0.0427525 0.608576 0.772475 -0.233399 -0.315557 0.0603024 -0.565693 -0.222566 -0.183038 0.981071 0.82405 0.941597 0.0699363 0.0926343 0.953405 0.18574 0.531195 0.998828 -0.16946 0.6594 -0.805187 0.60131 -0.0137293 0.541759 0.8725 -0.270487 -0.543361 0.33002 0.0126967 0.579638 -0.823902 -0.986805 0.172859 0.925536 -0.228584 0.853668 -0.0146313 0.185188 -0.376419 0.792317 0.170086 -0.55129 0.698413 -0.764225 0.5077 0.672235 0.423804 0.0662879 0.734084 -0.743358 -0.264463 0.857919 0.841799 0.698024 0.3721 0.703535 -0.582249 0.807941 0.025932 0.425535 0.437926 0.277835 0.528422 -0.485189 0.127534 -0.778379 -0.577312 -0.905745 0.410267 0.0859301 0.985752 -0.465497 0.522391 0.589664 -0.167514 0.000449056 0.25315 -0.775644 -0.936012 -0.130522 -0.603394 -0.259733 -0.230156 -0.730602 -0.540382 -0.90349 0.954051 -0.193681 0.932718 0.0060682 -0.755169 0.305054 -0.816937 0.680576 0.974418 0.272959 0.841654 -0.689885 0.34499 0.142526 0.321733 0.108852 0.709643 -0.176143 -0.514789 -0.585564 0.725569 0.890981 -0.45736 0.74984 -0.202355 -0.0251979 -0.530882 0.376312 0.158719 -0.102159 0.444532 0.0833926 0.725845 0.338501 0.982476 0.941945 -0.390376 -0.915654 0.558842 -0.536496 0.304672 0.281402 -0.276807 -0.413864 -0.481941 0.994565 0.71535 -0.814614 -0.276842 -0.627861 -0.422224 -0.56591 -0.77953 0.122405 -0.829018 -0.0920817 -0.956959 -0.352811 -0.711318 0.173973 0.502971 0.714116 -0.784786 0.203811 0.0347951 -0.810484 0.122857 0.640773 -0.728531 -0.321796 -0.916815 0.567102 -0.957127 -0.202534 -0.851717 -0.462984 -0.232254 0.857525 -0.292443 0.484024 -0.771201 0.268785 0.923258 -0.557579 -0.627662 -0.92773 0.34272 -0.543857 -0.300422 0.620636 0.621842 -0.791845 0.345407 0.805833 0.399467 -0.652287 0.977777 -0.463752 1.05355 -0.685293 0.195788 -0.899307 0.885721 0.189913 -0.159464 0.993432 0.752085 0.64023 0.845204 -0.522947 0.10534 -0.970916 0.730375 -0.0272078 -0.49075 -0.842991 0.132993 0.831278 -0.453648 0.820222 0.476865 -0.858622 0.948448 -0.280176 0.956292 0.328802 0.10947 0.968967 0.894627 0.0760193 -0.81962 0.00888084 0.152569 1.01046 -0.721056 1.00696 0.935482 -0.925004 0.598697 0.820606 -0.45152 -0.30321 0.829751 -0.78705 0.70061 -0.717008 -0.607607 -0.254982 -0.941958 -0.169377 -0.482144 0.456959 -0.0701689 -0.575681 -0.860936 -0.152085 0.810447 0.226774 -0.221595 0.710322 -0.720788 -0.0807322 -0.268159 0.405836 -0.0764612 -0.00708102 0.364358 -0.112104 0.0306057 -0.0845087 -0.362 0.55292 0.581784 -0.564819 0.744321 0.244177 -0.317934 -0.944028 0.941339 -0.286972 -0.116268 -0.595674 -0.860357 0.819337 -0.169291 -0.721761 -0.329085 -0.381342 0.490576 0.421562 -0.726347 0.756645 -0.659031 -0.00533187 0.149247 0.241528 0.995491 -0.501319 -0.910738 0.0459313 0.420029 -0.284065 -0.433311 -0.00675034 0.139846 -0.696985 -0.783502 0.810224 -0.667126 -0.84213 -0.473134 0.228418 -0.520299 -0.349533 0.0382376 0.389004 -0.0739879 0.631464 1.01124 -0.544305 0.147685 -0.737734 -0.847008 0.473981 0.196938 0.323551 -0.280243 0.243585 0.793131 -0.20315 -0.700688 0.238874 0.55427 -0.213499 -0.79915 -0.235001 0.115063 -0.517316 -0.550868 0.469255 -0.447114 -0.0468941 -0.325982 0.0983292 0.623506 0.731978 -0.518673 -0.433053 0.448853 -0.663672 -0.0801922 -0.458954 -0.303805 0.0251477 0.940959 0.938989 -0.606772 -0.355697 0.154463 -0.849998 0.429579 0.435653 0.358916 -0.118911 -0.785218 0.535323 0.478272 0.390616 0.929725 0.9687 -0.237994 -0.535301 -0.157358 0.420038 0.51688 -0.584418 0.0972306 0.882799 -0.100258 -0.470903 -0.631756 0.780176 -0.0250082 0.0652931 -0.189335 -0.0949864 -0.066883 0.160263 0.573261 -0.917186 0.266878 -0.0213905 0.488434 -0.408648 0.819382 0.706847 -0.88062 0.295046 0.0237288 0.994782 0.182681 0.776301 -0.567141 1.01134 0.171157 0.9428 -0.606638 -0.731091 0.88027 0.267624 -0.253177 -0.777867 0.0460869 0.728288 0.244733 0.844858 -0.355813 -0.826811 -0.0181834 -0.808636 -0.754642 -0.754496 0.137817 0.72649 -0.18171 -0.0469325 0.420087 -0.0862629 -0.759016 -0.583697 -0.0888656 0.407149 -0.831157 0.343877 0.399739 0.337479 0.248969 0.77906 0.599303 0.137787 0.0428898 -0.659507 0.348397 -0.944616 -0.959495 -0.416548 0.913354 -0.305911 -0.25801 -0.129731 -0.116467 -0.000627541 0.135445 -0.950784 -0.29389 0.920228 -0.047412 -0.898541 -0.191868 0.206012 -0.410833 0.582084 -0.423218 -0.296626 0.061176 1.01824 1.02949 -0.669209 0.798345 0.520829 0.40384 -0.188793 0.915212 -0.196209 -0.107622 1.003 0.413571 -0.344109 -0.238351 -0.899632 0.659432 0.343972 0.0521899 -0.297392 0.602361 0.723343 -0.265747 -0.475149 0.845245 0.536597 0.667349 -0.635118 0.257654 -0.719318 0.0821817 -0.673592 -0.762013 0.0193078 -0.3796 0.975378 -0.380198 -0.966022 -0.198115 -0.454193 -0.26 0.59422 -0.497733 -0.946593 -0.630474 0.137091 -0.96017 0.987895 -0.306346 0.105874 -0.270473 -0.761312 -0.142849 0.404057 -0.291705 -0.326233 -0.0491237 -0.578345 0.0326486 -0.819677 -0.300938 -0.944448 -0.515928 -0.0779882 0.0814511 0.104634 -0.104159 0.66209 0.0717737 0.668151 -0.821241 0.81451 0.262699 -0.347715 0.861055 0.605493 0.777161 0.957376 0.5758 -0.563571 0.0736898 -0.704465 -0.356287 0.923347 0.702253 0.366019 -0.385062 -0.369672 0.777731 0.646795 -0.191205 -0.545568 0.706643 0.268877 0.368208 -0.244882 -0.666908 -0.746365 -0.571742 0.404039 0.912225 -0.392179 0.202917 0.180857 0.230537 0.0636361 -0.235629 -0.0245334 0.0542455 -0.649411 0.430659 -0.939763 -0.360118 -0.940434 1.01036 -0.716428 0.439782 -0.384545 -0.0619546 0.194163 -0.757965 0.725641 0.621237 0.988366 -0.00362697 0.0668398 -0.333861 0.346058 0.215901 0.116833 -0.31672 0.139986 0.700879 0.925928 -0.677681 -0.119907 -0.0309792 0.0991906 0.861293 0.986846 0.375814 0.277538 -0.905742 -1.00087 0.321685 -0.987057 -0.717851 -0.279003 -0.435334 0.30361 1.02492 -0.112765 0.108909 0.660161 -0.139757 1.13112 -0.416137 0.452107 0.353423 0.770079 -0.421035 0.946008 -0.0859575 -0.757488 0.879897 0.199109 0.11367 -0.0956731 -0.630581 0.00137998 -0.161468 0.698414 -0.701006 -0.143318 0.683499 0.642654 -0.0987238 -0.957907 -0.561766 0.490521 0.2944 -0.622903 -0.602625 -0.788736 0.953283 0.177548 -0.838677 -0.486278 -0.336833 0.457647 -0.692658 0.162629 0.404845 0.25795 0.453771 0.294575 -0.533523 -0.408887 -0.857995 -0.237979 0.580959 -0.0572325 -0.557598 0.878453 0.792208 -0.870022 0.535032 -0.319031 -0.869624 0.959652 -0.798637 0.383266 -0.655823 -0.409001 0.603531 -0.693517 0.785148 0.772046 -0.210551 -0.547374 0.205948 0.136411 0.663403 -0.392683 -0.662259 0.106973 0.891788 -0.209487 0.691664 -0.972628 0.533853 0.256185 -0.0299351 0.969267 0.0967643 -0.250522 -0.914565 -0.343117 0.400273 -0.807984 -0.409062 0.609346 0.593441 -0.0692606 -0.81075 0.239503 0.228604 0.978851 -0.0647491 -0.925097 -0.60576 -0.849261 0.0430619 -0.989541 -0.227451 0.418863 0.163125 -0.309835 -0.773848 -0.219138 -0.350796 0.801047 -0.882787 0.613446 0.77051 0.144337 -0.663149 0.833104 0.822788 0.708362 -0.978689 -0.696163 0.275487 0.640783 0.344465 0.444075 -0.180307 -0.391564 0.430723 0.781657 -0.433975 0.911821 0.947456 0.653309 0.894022 -0.34776 0.144714 -0.0630837 0.293776 0.399913 0.791288 0.875006 0.0661011 0.80185 0.551576 -0.226083 0.00716586 0.800683 -0.359984 -0.226352 0.510439 -0.365131 0.162992 -0.187295 -0.714363 -0.545983 -0.675527 0.103859 -0.0303861 0.779565 -0.132369 0.457975 0.595053 -0.288167 0.0982467 0.455012 0.374987 -0.812109 -0.516995 -0.33984 0.512163 -0.713929 -0.456013 -0.416148 -0.858961 -0.962058 0.390511 0.147125 0.841403 1.00697 0.938857 0.353679 -0.335064 0.100386 -0.823263 -0.0525677 0.551998 -0.512494 -0.967777 -0.499835 -0.745612 -0.114332 0.974138 0.850547 0.616641 0.0880652 0.310031 -0.00305184 0.257472 0.77688 0.626244 -0.25209 -0.943635 -0.837275 0.32592 -0.8111 -0.824962 -0.300262 0.305591 -0.977311 -0.291632 0.23357 0.374166 0.344843 -0.677645 0.514877 -0.711291 0.892776 -0.93807 -0.657222 -0.631591 -0.725237 0.238225 -0.663137 -0.905496 -0.171073 0.426317 0.374843 0.777236 -0.331184 0.166445 0.387684 0.440427 0.184756 0.509871 -0.254652 0.507291 0.734074 0.414667 -0.255422 0.737939 -0.902578 0.88151 0.091224 0.491478 -0.756719 -0.40481 0.829512 -0.949205 -0.355607 -0.905577 -0.445384 -0.159892 0.206991 -0.245226 -0.114378 -0.868601 -0.771099 -0.559924 0.948645 -0.149405 0.496903 0.302254 -0.718086 -0.398477 -0.150531 -0.0540841 -0.925082 -0.45743 -0.644813 -0.280469 -0.743489 -0.589337 -0.352004 0.239867 0.9062 -0.118093 0.884641 0.675755 -0.0100463 -0.486462 0.852994 0.46529 0.398843 0.0218029 -0.719358 -0.713653 0.134855 -0.504911 -0.396901 0.00573254 0.293938 -0.909312 -0.712503 0.539416 -0.244398 0.118131 -0.507122 -0.193444 0.669177 -0.161727 0.523187 0.942058 0.300264 -0.86155 0.269182 0.197949 0.0123721 0.180592 -0.139063 0.975714 0.677222 -0.392408 0.420143 0.0247782 0.634685 0.666413 0.305112 -0.24381 -0.866826 0.909285 0.753962 0.454049 0.988703 -0.951388 -0.0221721 -0.266861 0.165137 0.447031 0.533395 -0.184257 -0.746128 0.0260947 -0.267071 0.528101 0.187045 1.00932 -0.269483 -0.865836 0.151541 0.579852 -0.901461 -0.174254 -0.821296 0.539166 0.853874 0.785442 0.207918 0.161695 -0.379587 0.354625 0.0211724 -0.689337 -0.227218 0.0230918 -0.623156 0.713651 0.774419 0.51866 0.0667751 0.241774 -0.650963 0.408846 -0.779687 0.0103729 -0.0572608 0.416181 0.0294873 0.624738 0.570606 -0.875423 0.220002 0.69423 -0.0642751 0.356271 0.28639 -0.239712 0.101041 -0.666998 0.944757 0.649025 0.700784 -0.0422599 1.03058 -0.505879 1.02984 -0.681085 -0.777036 0.728822 0.830891 0.326279 0.00641696 -1.04934 -0.292097 0.274397 0.0755122 0.650312 -0.283011 0.975464 0.16052 -0.736154 -0.918705 -0.60601 0.912365 0.0525694 0.733258 0.158542 0.793661 -0.0647178 0.578108 0.74519 -1.8141 
0.247025 -0.27943 -0.485511 0.709913 -0.321156 -0.219501 0.894113 -0.675158 -0.49814 0.174591 0.323217 -0.4787 0.88745 -0.42593 0.481736 0.529628 0.299183 0.483346 -0.21261 0.55455 0.471426 0.132156 0.426703 -0.341756 -0.039069 -0.422273 -0.546307 0.855941 -0.84054 -0.895928 -0.597336 0.491473 -0.189769 -0.0890569 -0.0924099 0.457028 0.866038 0.0768823 0.888959 -0.70245 -0.847456 0.366502 -0.180618 -0.858027 -0.777992 -0.481179 0.631609 0.276981 -0.782185 -0.351556 -0.168756 0.652649 -1.2233 -0.611403 -0.77108 -0.0898029 -0.0232197 -0.384649 -0.122802 0.320797 -0.453839 0.430898 -0.145415 0.950573 -0.770522 -0.920168 0.329841 -0.853417 -0.0667026 0.187426 -0.668356 0.502105 -0.519776 0.410518 0.655224 -0.28855 0.762664 1.12666 -0.91996 0.834914 -0.62264 -0.116851 0.415493 -0.298177 0.714123 0.77959 0.704465 -0.247977 -0.43919 -0.545572 1.07865 0.300064 0.950043 -0.311414 -0.0853209 -0.823209 -0.34502 -0.767242 -0.654894 -0.994665 0.608958 -0.221832 0.64801 -0.789921 -0.811356 0.75626 -0.203025 -0.900296 0.566523 -0.0458795 -0.982795 -0.865172 0.932197 0.558145 -0.191305 0.341119 0.427374 -0.487617 -0.920475 0.874813 0.095783 -0.919773 0.203485 0.0415528 -0.0811564 -0.699193 0.250114 0.800585 -0.398315 0.592533 0.846701 -0.801431 -0.648256 0.459261 -0.553197 -0.470438 0.0122092 0.333153 -0.273254 -0.448272 -0.702197 -0.260898 -0.264807 -0.706118 -0.616796 0.573089 0.768593 0.925496 -0.786324 0.92524 0.753792 0.478158 -0.926949 0.0578401 -0.594606 -0.0612279 0.293522 0.766326 -0.413411 -1.16892 0.235169 -0.27966 -0.726803 0.559768 -0.858046 -0.452679 -0.656931 0.0463934 -1.0548 0.107206 0.804834 -0.393887 -1.36801 -0.250221 -0.358689 -0.444266 -0.911183 -0.377298 -0.478249 -0.542408 -0.457676 -1.03535 -1.03669 -0.350192 0.227367 -0.615205 0.729517 -0.40042 -0.939425 -0.446649 -0.0911743 0.552847 0.0769704 0.230875 0.501993 0.0477022 0.766686 0.849493 -0.541314 0.93713 0.184714 -0.637086 -0.843428 0.150369 0.0496183 0.910481 0.520388 0.353546 -1.07908 1.07591 0.905526 -0.229647 -0.816016 0.604061 0.48661 0.481886 -0.33086 0.304755 -0.898208 0.05343 0.594739 -0.154858 -0.17406 -0.150039 0.897156 -0.819884 -0.802087 0.635545 -0.901048 -0.202293 0.622471 0.300866 0.0321595 -1.04201 -0.750394 -0.876424 0.305049 0.890215 0.417194 0.294121 0.838086 0.333434 -0.96052 -0.978049 0.286739 0.487318 0.509546 0.892322 -0.301188 0.697375 -0.170556 -0.549469 -0.363346 0.583367 0.408487 -0.384864 0.81172 0.670227 -0.673851 0.919558 -0.533182 0.939231 0.170616 0.572508 -1.12369 0.539007 0.788267 0.316607 0.502056 0.164498 -0.303799 0.333081 -0.455053 -0.274169 0.393158 -1.03874 -0.768791 0.0257548 0.871788 -0.0704367 -0.24147 -0.214222 0.527994 0.49476 -0.672686 -0.0575393 -0.95185 -0.76468 -0.409099 -0.737881 -0.846474 0.218991 -0.63195 0.389962 -0.209908 -0.643726 -0.14945 -0.146905 0.491055 -0.496597 1.16571 -0.718614 0.94789 -0.424453 0.294812 0.328796 -0.45173 0.497693 -0.601902 -0.686768 -0.260918 -0.0132031 0.176749 -0.844306 -0.353759 0.433338 0.161093 -0.0415781 0.701682 0.667616 0.141705 -1.13326 -0.167178 0.685384 0.384631 0.769756 -0.911036 -0.736088 -0.561657 0.725318 -0.0173119 -0.719618 -0.905432 0.285374 -0.160867 0.600207 -0.908697 0.478986 0.105497 -0.0573711 0.759392 0.787666 -1.2006 0.0700521 -0.941983 -0.17495 -0.318053 0.0987801 0.587126 -0.610227 -0.147446 -0.312468 -0.347672 -1.01235 -0.715163 -0.765251 0.924982 -0.568221 -0.367408 -0.665641 -0.897027 0.604463 -0.345382 -0.569509 -0.337595 0.526501 -1.07032 -0.0511325 -0.227736 0.189014 0.790839 -0.405624 -0.0308827 -1.0441 0.600066 -0.0132791 -0.213592 -0.591159 -0.82602 -0.602922 0.0587454 0.250768 0.170592 0.83451 0.298604 0.521544 -0.939521 0.189836 0.945824 -0.265263 0.536198 -0.923292 -0.583831 -0.777253 -0.434206 0.103898 0.766486 -0.41282 -0.8001 -0.327878 0.807058 -0.984718 0.285458 -0.150603 -1.07431 -0.0784892 0.8716 -0.115094 0.33883 -0.874703 0.214062 -0.471317 0.166775 -0.502488 -0.655919 -0.507386 -0.911336 -0.521028 0.80551 -1.03157 0.327083 0.286275 -0.698241 0.74419 0.82595 -0.187249 0.124879 0.582732 0.864759 0.233029 -0.56592 0.443194 0.388898 0.557985 -0.920428 0.361133 -0.548928 -1.19553 -0.978224 -1.1971 -1.02064 0.485714 -0.777179 0.621068 -1.31814 -0.289258 -0.677148 -0.743055 0.271934 -1.16563 -0.843201 -0.512848 0.468015 -0.549369 -0.832151 0.103685 -0.00772317 0.241354 -0.238001 -0.543942 -0.521959 0.215075 0.909061 0.934115 -0.477132 -1.0307 0.0878656 0.315155 -0.894861 0.435178 0.406672 -0.663478 0.0492522 0.867709 -0.798393 0.272536 -0.15091 -0.623234 0.198043 -0.797857 -0.399469 0.360996 -0.237713 -0.857485 0.786889 0.210777 0.379813 -0.0942243 -0.47959 -0.547232 0.462659 0.0290954 0.613782 0.316621 -0.203325 -0.648385 0.460665 -1.00756 0.732298 0.699792 0.495547 0.117306 -0.847939 -0.393382 0.0554921 -0.643503 0.762808 0.872562 -0.190079 0.0653307 -0.957675 0.408816 -0.456458 -0.148708 0.590358 -0.652053 -1.00947 0.130209 0.239785 -0.458888 0.626858 -0.225672 0.636275 0.136516 -0.866652 -0.405569 0.679146 0.705099 -0.284686 0.556756 0.49338 -0.693292 -0.235533 0.805348 -0.130075 0.802823 -0.867887 -0.261491 0.653488 -0.0627484 0.767352 0.739295 -0.50583 -0.509368 -0.289048 -1.02314 -0.209945 -0.284245 0.275722 -0.838427 0.304187 -0.0549618 0.0238542 0.163045 -0.543616 0.192681 0.551958 -0.8649 0.171242 -0.463027 0.696178 -0.301822 -0.064784 -0.314894 -0.509005 0.860689 -0.725794 -0.663007 -0.726233 -0.903125 0.531222 -0.838487 -1.05058 -0.64033 -0.230952 -0.475601 -0.710969 0.419701 0.350203 0.557386 0.729973 -0.298434 -0.500876 -0.0615814 0.542724 -0.244604 -0.982198 0.381708 0.376804 0.108061 0.864733 0.0175447 0.86454 -0.448679 0.55084 -0.664598 -0.34674 -0.786081 -0.107196 -0.172933 -0.627575 -0.364141 0.186922 -0.529078 0.0176565 0.941408 0.186987 0.267959 0.495191 -0.455695 -0.0562299 0.369511 0.259822 0.620913 -0.903942 0.00393977 -0.403125 -0.803973 -0.579013 0.887882 0.451571 -0.798188 -0.0455165 0.371666 -0.16039 -0.396578 0.634712 0.161655 -0.29727 -0.427444 -0.963318 0.0812471 0.342491 0.282494 0.434558 -0.729919 0.319616 -0.351652 0.563969 -0.0680318 0.297927 -0.467648 -0.720902 -0.498981 -0.798179 -0.511972 0.483193 -0.133163 -0.245585 -1.00662 -0.0977128 -0.692702 -0.748868 -1.02329 0.723725 0.195912 -0.312135 0.389895 -0.556287 0.512924 -0.902835 -0.428382 -0.471342 0.381104 -1.14507 -0.846987 0.687782 0.254539 -0.191301 0.421975 -0.817715 -0.790711 -1.06684 -0.439301 -0.435575 -0.782649 0.0535278 -0.894825 0.0743597 -1.08786 -0.747258 -0.706154 -0.647396 -0.150116 -0.55149 -0.942635 0.453007 -0.054919 0.825578 -0.45249 -0.429068 0.989506 0.144713 0.196346 0.495547 0.133059 0.33157 0.582445 -0.66576 -0.974489 -0.368491 -0.122151 -0.781484 -0.26717 0.418819 -0.16905 -0.0418787 -0.355046 0.029434 -0.978579 -0.395406 0.486944 -0.97782 -0.0712946 0.77017 -0.527066 0.461292 1.0362 0.836144 -0.17329 -0.98817 -0.683114 0.145293 0.200561 0.418146 -0.611029 -0.823951 -0.571815 0.675154 -0.0616009 -0.0262245 -0.365082 0.506332 0.040812 0.241361 0.0390805 0.848675 -0.65273 0.712564 0.0401166 -0.364297 -0.668902 -0.669208 0.168759 0.423727 -0.729303 0.906406 -0.210434 -0.871708 0.642349 -1.00074 -0.870528 0.956039 -0.000500107 0.683934 0.292444 0.42699 -0.939892 -0.864 0.374579 -0.0358399 -0.12951 0.927026 -0.327479 -0.968681 0.199593 0.80056 -1.02493 0.55872 0.549329 0.0349202 -0.879378 -0.946009 0.625355 0.371035 0.450991 0.90005 0.0917882 -0.633448 -0.966619 -0.274508 -0.63383 -0.49029 -0.321954 0.543107 -0.76796 -0.889279 0.105465 -0.800296 -0.90196 -0.500551 0.369259 0.153364 -0.641725 -0.756979 0.148485 0.724544 1.0061 0.242867 0.308004 0.421757 -0.616586 0.60873 0.546141 0.830386 -0.338278 0.03658 1.05294 0.632298 0.548097 -0.810809 -0.436805 -0.969829 -0.552214 0.623921 0.599504 -0.0949554 0.695894 -0.467414 0.333436 -0.960948 0.655277 -0.359171 -0.00777777 -0.669318 0.0266531 -0.550345 0.613157 0.0181033 0.731693 0.393376 -0.516646 -1.34866 -0.320272 -1.28915 -1.227 0.546004 0.00485258 0.496668 0.67341 -0.0711291 0.794489 -0.834026 -0.0799705 -0.622817 0.895936 -0.570579 0.337672 0.323166 0.170513 -0.213343 0.499633 0.0309666 0.492269 0.107595 -0.0305185 -0.385359 0.36402 -0.125671 0.067277 0.24499 -0.853732 0.898207 0.0116578 -0.128207 -0.976733 0.221502 -0.452838 0.0638242 0.071269 -0.977744 0.892807 0.0687894 -0.549771 -0.310486 0.637778 -0.622927 0.342251 0.058457 -0.924081 -0.242252 0.894955 0.824857 0.76855 0.392703 -0.207602 -0.226516 -0.989295 -0.705574 0.747735 0.612245 0.441478 0.857129 0.607031 -0.233333 -0.133509 0.762759 -0.934684 0.423484 -0.26781 0.188133 0.636362 -0.230236 -0.620491 -0.841091 0.606225 -0.950884 -0.383351 -0.0502244 0.139818 -0.198312 0.929888 0.108564 -0.226959 0.722558 -0.259531 0.715948 -0.381312 -0.147894 -1.21698 -0.732535 -0.606461 0.546553 -0.674781 -0.950762 -0.705204 -0.00279198 0.559883 -0.70858 -0.243046 -0.500155 1.55117 -0.628591 0.414112 -0.941342 -0.4396 0.164521 -0.665644 0.382908 -0.618197 0.47789 -0.965805 -0.648685 0.220834 0.0943629 -1.36677 0.748007 -0.300201 -0.2289 -0.514944 -0.299503 -0.112867 -0.27672 -0.609528 0.151795 0.114225 -0.758681 -0.314714 -0.550297 -0.268491 0.599079 0.420096 -0.494665 0.609561 -0.0656623 -0.457146 -0.663779 1.03848 -0.0794548 0.520148 -0.987105 -0.630475 0.486039 -0.72013 -0.00541304 -0.273099 -0.521548 -0.111599 0.292703 0.0984343 0.223634 -0.824665 -0.507838 -0.87472 -0.642384 0.876718 0.0152996 -0.17636 -0.522009 0.820571 0.724416 0.724035 0.290175 -0.755498 0.522552 -0.94614 -0.0356513 0.815213 0.923798 0.753735 0.357315 -0.902295 -0.787073 0.162346 -0.488847 0.088233 0.916579 -0.0167252 -0.974264 0.334697 -0.814976 0.148485 0.37638 -0.34102 0.249406 0.587834 -0.531532 -0.731484 -0.64906 -0.11102 -0.872837 -0.936062 -0.162706 0.360036 -1.15457 
-0.838162 0.101771 -0.721558 -1.07281 0.543917 -0.0365295 0.442899 0.224138 -0.364711 -0.0131533 -1.3434 -0.870512 0.665903 0.205299 -1.04855 -0.941097 1.09982 -1.16763 0.281189 -0.797037 -0.318487 0.0597239 -0.563597 0.562451 0.186449 0.275323 -0.977471 0.815854 -1.71681 0.738177 -0.54947 0.553186 -0.356664 0.914323 0.278107 -0.760368 -0.97652 -0.376999 0.103058 -0.893797 0.357846 0.678107 -0.622824 0.101132 -0.620951 0.1768 0.427916 -1.05529 -1.50751 -0.39142 -1.15915 -0.821909 0.219174 -0.266534 -0.978929 -0.192911 -0.399415 -1.39834 -0.603134 -0.466946 0.577128 -1.0623 -0.084753 -0.940965 -1.7177 -0.880229 -0.601831 -0.264442 0.367314 0.848081 0.365847 0.153573 0.534401 0.242429 -1.15163 -0.586183 0.373703 0.527347 -0.340307 0.677511 -0.478035 -0.0571224 -1.19504 -0.230594 -0.970818 -1.11604 0.332231 -0.751886 -1.00986 0.499701 -0.0909133 0.607369 -1.03456 -0.511185 0.814976 -0.930785 -0.136411 -0.792859 -0.0296907 -0.773884 -0.994892 -0.754581 0.535315 0.536859 -0.15469 0.675656 -0.700133 -0.847114 0.270951 -0.0406162 -0.991521 -0.966559 -0.783922 -1.06384 0.228079 -0.340726 -0.72547 -0.152274 -0.249826 -0.113453 -0.415439 -0.990032 -0.932958 -0.643828 -0.731229 -0.723842 -1.12369 -0.0218231 -0.922879 0.927371 -0.979162 -1.00292 -0.972545 -0.0585637 -0.615083 -0.493176 -0.162325 -0.184745 0.40751 0.387206 -2.09117 1.08341 -0.44256 0.235216 -1.71935 -0.459236 0.979244 -0.912961 0.375467 -1.33679 0.0673854 -0.853986 -0.5835 0.324147 0.0412255 0.0327361 -1.68211 0.777076 0.62864 -0.807004 0.0461186 0.837174 0.63682 -0.491806 -0.204465 -1.04144 -0.732927 -0.590461 0.6692 -1.0337 -0.495454 0.890652 0.957437 1.82268 -0.536746 0.983216 0.33159 -0.535238 -0.577446 0.80653 -0.280251 -0.386164 -0.848151 0.358798 1.18329 0.454076 -0.578987 -0.446405 -0.662829 0.490061 0.500209 -1.04169 -0.350635 -0.39002 0.487967 0.30791 -0.173346 -0.758139 0.923912 -0.413224 -1.16649 0.0347513 -1.20838 -1.06208 -0.982775 -0.355752 0.719374 0.625869 -0.247092 -0.805326 0.365381 0.475875 -0.96553 0.418765 -0.119564 -0.980993 -0.408013 0.643006 -0.811159 0.494537 0.466108 0.488623 0.861516 -0.559709 -0.731908 0.591176 -0.95713 0.184665 0.855901 -1.05228 0.617998 -1.05127 -0.0826515 -1.15805 -0.764234 0.436169 -0.231204 -1.16277 0.374621 0.509985 -0.793195 -0.278771 0.122036 -0.290755 -0.792899 -0.583889 -0.200141 -0.200164 -0.784321 0.300177 -0.158816 1.04978 -0.355294 -0.292879 -0.728044 0.312922 -0.757021 -1.05398 -0.551829 -0.373225 -0.538709 -0.697679 -0.389339 -1.20304 -1.13067 0.807525 -0.355768 0.152376 1.10587 -0.687274 0.0342939 0.9293 -0.944704 -0.810037 -0.279885 -0.740651 -0.273763 0.13781 1.14837 -0.56969 -0.265104 -0.383387 0.0755122 -1.84618 0.513198 1.53464 -0.433486 -1.37844 -1.00326 0.118682 -0.895943 0.0689893 -1.12135 0.119893 0.0317653 -1.18125 -0.679067 -0.738618 0.834906 0.401953 -0.142452 1.16122 0.339561 0.676192 -0.514647 1.39103 -1.07615 -0.189659 0.411643 0.821699 -0.352537 -0.340524 -0.192673 0.152555 -0.549555 -1.03037 -0.241893 -1.95432 -1.21635 -0.401307 0.509701 -0.197681 0.368762 -0.940055 -0.465718 -0.432317 -0.611627 -0.199263 -0.403736 -0.849895 -0.607545 -0.72536 0.499625 0.881905 -1.38232 -0.323885 0.481236 -0.897248 0.180595 0.155565 -1.03558 0.293907 0.631478 -0.287427 -0.474605 -0.443283 0.0186183 0.404707 -0.450229 0.57202 -0.679943 -0.481446 -0.368669 -1.08972 -0.430268 0.0841646 -0.501103 0.13092 -1.05419 0.203772 0.573149 -0.524742 0.712528 0.179841 -0.583873 0.668818 -0.628827 -0.634314 -1.09818 0.657814 0.618132 -0.850241 -0.217229 0.357233 -0.0314202 -1.08342 -1.04041 -0.726743 0.11707 -0.0366904 0.130232 0.833332 0.432398 -1.1316 0.97548 -0.748073 0.387375 -0.733496 0.764131 0.15633 1.36801 0.360635 -0.275037 0.846016 0.471942 0.0705927 2.07984 0.580582 1.10034 1.22359 0.706092 0.149906 -1.26163 -0.243236 -0.52207 -0.817943 -1.08754 -0.468517 -0.336209 -1.10474 -1.86539 0.534644 -2.28601 0.0867644 -0.843483 -0.525054 0.740999 -0.348735 -0.480752 0.0974134 -0.0423004 -0.225701 -0.708606 0.0652073 -1.20163 -1.37039 -0.510703 -1.37813 0.273215 -0.318294 0.957391 0.302034 0.0182067 -1.35956 0.312787 -0.302002 0.0744926 -0.624921 -0.784978 -0.377452 -0.285821 -0.8199 0.0100109 0.342879 -0.866026 -0.353125 -0.376043 -0.880542 -0.452236 0.106874 0.455215 0.740528 0.822327 -0.292774 0.28586 -0.93979 -0.391408 -0.157632 -0.950013 -0.979626 0.378914 -1.13387 -0.220497 0.181501 -0.845426 -0.488895 -0.848438 0.70173 0.156382 -0.671182 -0.240442 -0.844407 -0.220923 -1.18538 0.144525 -0.111052 -0.245878 -0.841496 -0.0647647 0.325951 0.691025 -0.409074 0.240269 0.601908 0.0824199 0.0991947 -1.33553 -1.16602 -0.875538 -1.01819 -0.886164 0.213027 -0.987922 0.462718 0.0251662 -0.443307 -0.560268 0.686619 -0.422933 -1.07687 -0.66062 0.910755 -1.05678 0.0726716 0.627727 0.468396 -1.09714 -0.633896 0.514914 -0.0201614 -0.772385 0.850712 0.962177 0.103117 0.219486 0.128635 -0.214594 0.391027 0.195386 0.0618891 0.763588 0.999042 0.546324 -1.20421 -0.183625 -0.423121 0.308612 1.21291 -0.670643 1.07096 1.54181 0.470415 0.912611 -0.383888 -1.17244 -0.3859 -0.0235935 -0.65063 -1.0716 -0.0410983 -1.27399 0.30059 0.274158 -1.63319 -0.659521 -0.91661 -0.0945475 0.0790014 -1.01641 -0.768424 -0.848152 1.37309 0.195514 -1.88978 -1.24493 0.0616491 0.411441 -0.139441 0.0976953 0.49119 0.0910954 -0.309624 -0.533389 -0.0200306 1.23536 0.636553 -0.637145 -0.112427 -0.822073 0.0285548 -0.420319 -0.542243 -0.564114 0.747258 -0.53674 -0.444083 -0.682823 0.364269 -0.946603 -0.237066 0.646254 -0.162058 -0.638617 0.589831 -0.34255 -0.549186 -0.229701 -1.23486 -1.12912 -1.36641 0.463386 0.234577 -0.275744 -0.709338 -0.972525 -1.12867 0.57056 -0.36866 0.00402561 -1.16939 -0.835871 -1.16302 -1.09224 -0.682 -1.02482 -0.495233 0.0137333 -0.304022 -0.751462 0.187865 0.420416 0.74071 -0.76671 -0.783419 0.264815 0.181341 -0.0527167 -0.637443 0.453209 0.170723 -0.788464 0.348922 -0.421501 0.299661 -0.950976 -0.277674 0.455821 1.05294 -1.17849 -0.202571 -1.35012 -1.20004 -0.368572 -0.769206 -0.731635 -0.0960995 -0.223745 0.842956 -1.40459 0.44262 -0.0212531 0.326944 -0.372863 0.496523 -1.40839 -0.907365 -0.369621 -0.119198 -0.0686094 0.2456 -0.429694 1.40987 0.207937 0.0341719 -1.16581 -0.465246 0.154056 0.450363 0.00237989 0.177585 -0.663867 0.0121757 0.403275 0.460721 0.288881 0.130921 -0.796507 -1.31101 -1.17829 0.108697 0.369246 0.459586 -0.543931 -1.00171 -0.0699732 -0.36687 -0.64347 -1.53502 -1.2806 1.13671 -1.40772 -0.750345 -0.40319 -1.9594 0.0270458 0.172703 0.0501883 -0.450886 -0.357961 0.774591 -0.062195 0.194954 -0.384012 -1.45354 -0.87894 -0.314438 -1.32258 0.85546 1.19005 -0.401951 -1.09728 -0.259529 0.480983 -0.268527 -0.399169 -0.10181 0.462487 0.527887 0.348071 0.283794 -0.030202 -0.120705 -0.86042 -0.767437 -0.177216 -0.171674 -0.174687 0.553649 -0.248471 -1.50434 0.368812 0.238325 -1.04551 0.677782 -0.00141701 -0.155661 0.845033 0.659861 -0.357115 0.273724 -1.00445 0.283349 -0.506262 0.625388 -0.654031 0.452483 -0.398746 -1.01375 0.0902803 0.729782 0.889602 0.00305578 -0.062904 -1.03726 0.298122 0.169292 0.220569 -0.837028 -0.294172 -0.998199 -0.129669 -0.925368 -1.13541 -0.0112117 -0.754854 0.344575 -1.46973 -1.39102 0.0607534 -0.125199 0.529865 -0.143653 -0.116446 -1.11959 0.0616826 0.104739 0.781121 -1.24606 -0.356632 0.229784 1.11717 -0.272728 -1.37122 -1.04349 -0.0530967 1.02047 -0.272542 -0.4358 -0.412872 -0.822042 0.0829955 -0.361138 0.664043 0.0537027 -0.550646 -1.28349 -1.22254 -0.254899 -0.81668 0.0548822 -1.49915 0.0171677 0.0426568 -0.0857188 -0.904443 -0.357505 1.16308 -0.941905 1.10754 -0.191032 -1.26757 0.11631 -0.529442 -0.53559 -1.1666 -0.673642 -1.54507 -0.630617 1.29271 -0.573137 -0.620286 0.283557 -1.47112 -0.711684 -0.97631 -0.739225 -1.7466 -0.361878 0.468319 -1.10609 -0.552301 0.253482 0.0716788 -0.846796 -0.538924 -0.513385 0.781124 -2.41132 0.0531963 0.480267 -0.444657 -1.66013 -0.246381 -0.487469 0.128298 0.0580488 0.010625 -1.20517 -0.272946 -0.0522129 -0.0765863 -1.00669 -1.14126 0.205715 -0.53056 -0.36203 -1.20629 -0.05469 -0.822824 0.479085 -1.27251 -0.416258 -0.220438 -0.635255 -0.053821 0.332236 0.391084 0.164497 0.740145 -0.837465 -0.444233 -0.344619 -0.534932 0.827156 0.683006 0.913862 -0.04448 -0.617519 -1.11042 -0.623762 -1.14961 0.259339 -0.339001 -0.790355 -0.394268 0.423335 -0.0922594 -0.482038 -0.242579 -1.1617 -0.69962 0.0247165 -0.471389 -1.08073 0.896235 -1.10128 0.598039 -0.469566 -0.239069 0.0868344 0.78898 -0.997677 -1.06384 -0.794648 0.163717 -0.225309 -1.09916 0.311015 -1.13898 1.67737 0.619571 -0.780165 0.752774 -0.612018 -0.0413362 0.142872 -0.469769 -0.236034 0.703649 -0.209791 -0.270451 1.18645 -0.214472 -1.31082 0.384551 -0.652721 0.533287 -0.309174 0.752249 -1.09529 -1.7538 1.0092 -1.33975 -0.61954 -0.295002 -0.266486 -0.566565 -1.61149 1.6404 1.05247 -0.768319 -0.0890125 -0.230808 -1.07269 0.995024 0.432508 0.235332 -1.1093 -0.253721 -0.0869472 -0.453839 0.289647 0.125823 0.868896 0.101304 0.0322892 -1.17429 -0.877551 0.215824 1.12349 0.706094 0.0934514 0.423212 -0.863299 -0.232769 -0.00238708 -0.413607 -0.509447 -0.076474 -1.05479 -0.337116 0.171627 0.594378 -0.312754 0.806587 0.490055 0.516224 -0.419476 0.425684 -0.088153 -1.14896 0.0280214 -0.276063 -0.413655 0.0125475 -1.16316 -1.12006 0.268523 -0.601461 -0.194072 0.00337519 -0.891919 0.915465 -1.0005 -0.919705 -0.257478 -0.161858 -0.474222 0.403555 0.793819 0.282828 0.900614 0.328779 0.126377 -0.589732 0.0331832 -0.153502 -0.940873 -0.666006 -0.442514 0.175147 -1.15719 -1.21366 -1.02094 -1.14658 0.0610113 -0.83837 -0.984127 -0.828974 -0.18793 -0.178376 0.43237 0.19497 -0.0571958 0.671078 0.107945 -1.29628 -0.554067 -0.619997 0.502114 -0.700678 0.0406132 0.4942 -0.315607 0.24976 
-0.786374 0.557936 0.581732 -0.442879 0.433877 -0.741672 0.757539 -1.04516 -0.620812 -0.655564 -1.1159 -0.99898 -0.242144 -0.23219 -0.204646 -0.949341 0.422037 -0.63646 0.272114 0.0861815 -0.312163 -0.265665 0.323378 0.589012 0.0246542 -0.0290749 -0.643277 -0.653769 -0.105393 -0.661599 -0.167194 0.0844236 0.666249 -0.603219 0.681168 0.562835 -0.118388 0.571061 0.719123 0.401895 0.93311 1.12128 0.323644 -0.130989 -0.416484 -0.792031 0.0347565 -0.684811 -0.281598 -0.530765 0.416023 0.095321 0.338459 -0.215526 -0.39473 -0.745543 -1.05887 -0.104212 -0.340029 -0.137695 0.418787 0.72273 -0.996382 0.36798 -0.785923 0.686736 -0.0103948 0.0915259 0.247209 -0.315768 -0.450221 0.194693 -0.394853 -1.02165 -0.820612 0.162172 -0.788996 0.229515 0.538631 0.0110144 0.801694 0.00433603 -0.740107 0.284049 -1.06422 -0.0315482 0.489034 -0.913184 0.941169 -0.734725 -0.19275 0.287166 -1.08135 -0.0543193 -0.511343 -0.930673 -0.498395 0.837574 0.459357 0.717681 -0.526968 -1.18581 0.189998 -0.0427688 -1.14071 0.418251 -0.622519 -0.517154 -0.724503 -0.885694 0.219732 -0.171695 -0.112181 0.739724 -0.823442 0.0143011 -0.297877 0.333539 0.144781 -0.306361 0.840318 -0.959348 -0.810477 -1.12439 -0.115487 -0.0501281 -0.508977 0.633225 -0.406206 0.988209 0.855832 -0.112213 0.852539 0.0550201 -0.706705 0.953963 -0.246711 -0.250518 -0.972914 0.576412 -0.139055 1.52937 -0.758757 1.02174 0.56261 -0.551318 0.173452 -0.366867 -0.980558 -0.954434 0.432738 0.951078 -0.198785 0.698352 0.852536 1.03396 -0.58739 -0.804285 0.935815 0.203537 -0.980975 0.634154 -0.556953 0.827578 -0.235084 -0.118453 0.865754 0.581378 0.539375 -0.894538 -0.0376313 -0.536768 -0.993613 0.361524 -0.563144 0.6874 0.727751 0.645677 -0.674438 0.752528 -0.903186 0.745328 0.721497 -0.154595 0.38791 0.718285 -0.233149 -1.00138 -0.95564 -0.348707 0.348745 -0.826118 -0.651757 0.877404 -0.897847 0.159961 -0.223859 -1.03565 -0.292747 -0.603815 -0.953607 0.81903 -0.0290783 -0.771993 0.285147 0.38359 -0.985433 0.0124771 0.0790456 -0.653737 -0.18901 0.328358 -0.884683 -0.320857 -0.80025 0.506639 -0.551304 0.0796804 0.690277 -0.391018 0.683935 0.0402218 -0.288615 -0.816627 -0.0978767 -0.299754 0.310238 0.837265 -0.145274 -0.896655 -0.734975 0.0542148 -1.16643 0.544268 0.0886451 0.289129 0.0594312 0.220651 -0.581197 1.05158 0.901583 0.240607 0.42429 -0.955962 -1.03059 0.487088 0.904695 -0.753497 -0.309025 0.481729 0.0539194 -0.685409 -0.4062 1.21305 -0.485872 0.427032 -0.264604 -1.09858 0.288909 0.803764 -0.851021 0.664243 -0.0957035 -0.990613 0.0409204 -0.808503 0.61363 0.815129 0.522653 -0.558401 0.896119 0.705707 0.0869411 0.447666 0.754599 0.61797 -0.0929198 0.587456 -1.30257 0.806856 0.183947 0.243241 -0.668059 0.705021 0.139669 -0.137983 0.226969 0.834242 0.218308 -0.176742 0.533995 0.594703 -0.281509 -0.460934 0.796036 0.775709 -0.30204 0.394409 0.6789 -0.477322 0.597082 0.643358 -0.868883 -0.049181 -0.157168 -0.913235 -0.514513 0.873319 0.70147 -0.331929 0.621818 -0.0972202 0.947764 -0.873875 -0.280212 0.1259 0.326434 -0.785298 0.0736574 -0.297988 0.1295 -0.294761 -0.699149 0.828793 0.2542 -0.841494 0.624797 -1.00945 0.64749 0.354403 -0.404412 0.288252 0.0219295 -0.152346 -0.593781 -0.972025 -0.0143948 -0.0675076 0.924686 -0.211327 0.550008 0.587706 0.72896 0.708102 0.741474 -0.461309 -0.233491 0.220323 -0.458911 0.965366 0.905035 0.699362 -0.252071 -0.724883 0.669167 -1.05582 -0.452999 0.250698 -0.780521 -0.77239 -0.0430664 -0.247854 0.81003 -1.0395 1.15521 -0.851546 -0.784238 -0.147944 0.248192 -1.04936 0.453963 -0.104351 0.540094 0.00540373 -0.64957 0.33519 0.640801 0.393859 -0.607336 -0.268892 0.0452006 -0.460418 -0.331594 -0.604164 -0.0461242 -0.891402 -0.738196 0.414871 0.731909 -0.532723 0.621128 -0.492775 -0.026716 0.390337 -0.369833 -0.31006 0.599718 -0.136381 0.610779 -0.0328119 -0.382726 0.0685794 0.684481 -0.448281 -0.491301 -0.604835 -0.75725 -0.542486 -1.0349 -0.0330713 0.507797 0.678038 0.796243 -0.937904 0.665458 -0.152613 -0.416019 -1.05116 -0.636749 -0.585541 -0.568172 -0.697625 0.0967294 0.552751 0.820227 -0.931847 -0.618166 0.487958 -0.0969391 -1.01903 -0.67731 0.758415 0.270683 -0.883084 -0.580325 -1.04798 -0.378319 -0.356952 -0.442835 -0.30592 0.714616 -0.907406 -0.749924 0.511464 -0.743091 -0.934241 -0.644978 -0.136515 -0.836122 -0.210301 0.341804 -0.373098 0.029702 -0.367036 -0.809872 -0.091943 -0.235267 -0.320406 -0.512653 0.592352 -0.277486 -0.000154731 0.547134 -0.871959 0.27292 -0.860438 -0.817784 -0.995336 -0.105838 -0.0618325 -0.338932 -0.402529 -0.00312058 0.0445968 -0.905254 0.256415 0.076782 -0.508557 -0.696254 0.451213 0.39936 0.513486 -1.00166 -0.520784 -0.642874 -0.648692 0.48215 0.171252 0.176184 -0.827608 0.155583 -1.10293 -0.0184043 -0.278357 -0.651364 -0.448726 -0.108568 -0.404757 -0.28174 1.06552 0.498689 0.416575 -0.586624 -0.766683 -0.881006 -0.261411 -1.20149 0.34537 0.357793 -0.537008 -0.0454017 -0.291067 -1.00255 -0.146431 0.315378 -0.657914 0.354797 -0.152443 0.518126 -0.24672 -0.304319 -0.500548 -0.445968 -0.943852 0.856159 -0.113982 -0.434789 -0.326058 0.51752 0.0028526 -0.419733 0.0567686 -0.281653 0.465429 0.547403 -0.207886 -0.703272 0.624659 -0.606849 0.886283 -0.848524 0.33113 -0.194615 -0.903913 -0.672427 -0.878987 -0.410852 0.877583 0.0239551 -0.648013 -0.579404 -0.999296 0.113011 0.10251 -0.90537 -0.119242 -0.843502 -0.383143 0.644591 0.792304 0.774628 -0.630823 -0.19625 -0.809888 0.754171 -0.532908 0.0643394 -0.8954 -0.739026 0.550165 -1.12766 -0.658156 0.0162105 -0.270205 -0.498737 0.494243 -0.00883174 0.143797 0.369777 -1.02277 0.567271 0.931895 -1.04526 -0.206079 0.12392 -0.83408 0.851025 0.406912 -0.136779 0.647165 0.263893 -0.240731 -0.846257 -0.881531 0.0433997 -0.948692 -0.270962 -0.774931 -0.907835 -0.0656923 0.778118 -0.819021 0.341264 -0.113542 -0.0662442 -0.995381 -0.621847 1.06412 0.15543 0.850195 0.865862 -0.168111 0.81302 -1.11453 0.621807 0.0608069 -0.788137 0.850444 -0.36954 0.468537 0.702328 -1.13189 -1.3346 0.611963 -0.565783 0.41189 0.811305 0.23108 0.66982 1.00892 -0.705006 0.60447 -0.759938 1.12319 -0.542735 0.0460247 0.802541 0.275263 0.225443 0.207864 0.155781 0.0905619 -0.966925 0.106305 0.0730946 0.542119 -0.711015 0.576198 0.0357234 -0.0996809 -0.523494 -0.144403 0.371612 0.0460992 0.00434164 0.282497 -1.18674 -0.260033 -0.0499115 0.57199 -0.271279 0.0181448 0.0104905 -0.398742 -0.134762 1.00205 -0.724704 0.0290166 -0.0475168 0.23876 -0.969465 -0.746992 -0.68966 -0.763959 0.464838 0.591088 -0.869452 0.81647 -0.0433645 0.860316 -0.0410152 0.666136 0.0391492 -0.744542 -0.485236 -1.04416 -0.978508 -0.634557 -0.285477 -0.163952 -0.652812 0.384912 -1.05346 0.638365 -0.511058 0.132854 0.634115 -0.465922 -0.912003 -0.154021 0.949158 -0.814193 0.219253 -0.613909 -0.576233 -0.248009 -0.982632 -0.504085 -0.24582 0.284336 -0.535123 0.733431 -0.00565751 0.336906 -0.864542 0.535246 0.304197 -0.83281 -0.714755 -0.971256 0.207641 -0.292311 0.571236 0.314191 -0.759908 -1.07995 -0.530783 -0.893857 -0.329616 -0.494037 0.187039 -0.434208 -0.131968 -0.629984 0.0937528 0.332718 -0.0415298 0.253549 -0.971048 0.81248 -0.665601 -0.858923 0.578492 0.688436 0.378856 0.911018 0.383214 -0.089083 -0.743268 0.408589 0.410101 0.495265 -0.645292 -0.0712201 -0.386646 -0.157708 0.121039 0.819238 -0.0795928 0.587061 -0.346198 -0.716514 -0.463676 0.09557 -0.25786 0.717219 -0.0218055 0.716872 -0.494972 -0.323607 0.175712 0.217018 0.0909804 0.140494 -0.412146 0.0770462 0.499212 -0.899909 -1.03055 0.770512 0.636387 0.463917 0.177206 -0.847453 -0.805449 -0.929052 0.18388 0.509669 -0.859299 -0.759102 0.806991 -0.571425 -0.339594 -0.833039 0.865114 -0.230482 -0.916163 -0.240586 -0.126536 -0.268305 0.505674 -0.406602 -0.57185 -0.210267 0.799614 0.431383 0.676356 0.226781 0.785281 -1.05124 -0.134918 0.731483 0.50881 -0.694187 -0.984285 -0.873679 -0.306489 0.284815 -1.07004 -0.152336 0.558239 0.619793 0.360903 -0.72036 -1.02472 0.389019 0.637314 -1.01337 -0.87356 -0.357731 0.0814792 0.823489 0.39295 0.620653 -0.352924 0.11767 0.117028 -0.446372 -0.485163 0.0552071 -0.395248 0.563751 -0.170141 -0.779883 -1.0948 -0.110027 -0.524472 -0.164475 -0.707327 -0.414734 0.73116 -0.867256 -0.63473 0.231205 -0.467462 -0.874202 -0.471074 -0.910845 -0.541343 -0.112334 -0.20288 0.520614 -0.5087 -1.07442 0.0816625 0.533954 0.260421 0.0983907 -0.93335 -1.04582 0.497852 -0.278521 0.708264 -0.39645 0.174378 0.888491 0.515496 0.502358 -0.229865 -0.501377 -0.598263 -0.955491 -0.588562 -0.327157 0.888331 -0.122804 0.0844685 -0.701322 -0.208144 0.716377 0.0955813 0.991477 -0.241653 -0.782649 -1.30412 -0.900737 1.0404 0.550243 -0.331269 0.63485 0.76481 -0.844741 -0.416753 0.325212 -0.162222 0.586379 -0.25331 -0.628276 0.0604713 0.483281 -0.744583 0.668686 -0.815858 -0.133509 -0.741025 -1.05983 0.618448 0.546948 -0.204525 -0.385072 0.0637807 -0.802529 -0.603015 -0.868415 -0.632312 -0.463323 -0.551455 -1.04588 -0.85256 0.140833 0.850097 0.620524 0.580608 -0.560301 -0.27831 -0.724436 -0.963767 0.697095 -0.227356 0.458925 0.366512 -0.0574994 0.191246 0.583942 -1.08949 0.584912 0.690752 0.435486 0.0408744 -0.475587 -0.91686 -1.01557 -0.30982 -0.480563 -0.925276 0.0371664 0.12853 -0.447267 0.266819 0.233271 0.828046 0.205688 -0.21203 0.378664 0.719434 0.56738 0.89037 0.863222 0.337439 -0.425997 0.407501 -0.256888 -1.02323 -0.316411 -0.549566 -1.01291 -0.766037 -0.76607 0.42659 0.36801 -0.132891 0.581872 0.438174 0.498885 -0.867903 0.503788 -0.223875 0.370978 -0.936357 0.848933 -0.374356 -0.762595 0.130295 0.570144 0.373776 -0.17355 0.182979 0.377493 0.0409053 -0.335881 -0.790058 -0.67713 0.5279 -0.720141 0.164852 -0.852661 -0.529487 0.643304 -0.636766 0.655193 0.280122 0.502612 0.332006 -0.473501 -0.214182 0.941494 -0.982602 0.576199 0.122335 -0.414563 0.5798 -1.05409 -0.461385 -0.313687 -1.30532 
-0.383918 1.02902 -0.037152 0.842223 -0.18561 0.658047 0.975901 0.35339 0.206798 -0.920385 -0.251916 0.326043 -0.445475 -0.641223 0.866311 -0.305984 0.626168 0.285106 -0.596484 -0.5223 -0.797248 -0.624519 -0.22879 0.967868 0.821139 0.444039 0.686796 0.949636 -0.790172 -0.445819 0.712093 -0.475465 -0.517854 -0.338622 -0.698665 0.292112 -0.669737 -0.695551 -0.422653 0.521052 -0.393463 0.205188 -0.286837 0.188162 0.538424 -0.435238 0.812249 0.0737986 0.734222 -0.836919 0.374022 0.786704 -0.622914 1.04317 0.79893 -1.03623 0.399771 0.362362 1.07773 0.679635 1.00353 0.646521 -0.6044 -0.461582 -0.542687 -0.726773 0.515342 -0.184461 -0.325128 -0.666827 1.02384 0.413903 0.466209 -0.297704 -0.646279 -0.457052 0.673481 -1.08431 0.925357 -0.388737 -0.638886 0.00651563 -0.687007 -0.480279 0.0484039 -0.525792 -0.530922 -0.592861 0.576395 -0.556642 0.855632 0.459117 1.23601 0.951365 0.391031 -0.613838 -0.493819 -0.126082 -0.338822 0.37497 0.154592 -0.31664 -0.699961 -0.642233 0.0574222 -0.456022 0.347825 -0.840685 -0.531007 -1.03818 -0.0693471 -0.477211 0.629362 0.199841 -0.0784356 -0.71708 0.445345 0.700274 -0.426773 -0.0572769 0.337789 -0.654422 -0.640377 0.153856 -0.386391 0.952858 0.245395 -0.108217 0.039744 -0.923085 0.877102 -0.754731 -0.334301 1.01363 -0.494681 0.678082 -0.323967 0.606026 1.05157 0.0727212 -0.861218 -0.193322 0.660171 0.640347 -0.892979 -0.46052 0.922547 0.536823 0.77238 -0.477312 -0.557214 0.166791 -0.0464932 -0.334075 -0.549268 0.347271 -0.517956 0.758009 -0.915549 0.392978 0.764925 0.86696 0.526407 -0.610742 0.858396 1.02879 -0.891114 -0.569499 0.642121 0.996467 0.367539 0.592031 -0.313655 0.0642574 0.119542 -0.2098 0.539448 0.0399667 -0.720009 0.142794 0.534723 -0.447559 -0.720275 -0.508482 0.179416 -0.383855 0.645006 0.53622 -0.568104 0.720212 0.0031275 -0.956488 0.609018 -0.33824 -0.54621 0.281366 -0.52425 -0.52268 0.685371 0.975134 -0.438004 -0.272797 0.765797 0.073792 0.593099 -0.22417 0.737885 0.296858 0.466119 1.00925 -0.58587 -0.0253188 -0.468697 -0.176708 0.0717125 0.898637 0.332471 -0.150198 0.209676 0.810575 -0.507365 -1.22472 0.835986 1.13856 -0.396455 1.20512 0.40255 -0.159241 -0.463123 -0.00621257 -0.271956 0.0770547 0.908073 -0.71066 0.81598 0.868061 -0.0414799 0.0108465 0.133211 -0.880233 0.74948 0.360305 0.0718267 0.676646 -0.741335 -0.757242 0.746516 0.38221 -0.0394512 -0.569694 -0.0498767 0.541423 -0.509918 -0.257425 0.61553 0.128078 -0.532542 -0.279678 1.06297 -0.24633 0.462491 -0.306731 0.627947 0.373934 0.0345365 0.461419 0.163386 0.676742 -0.181483 -0.766976 0.890457 -0.71109 0.910523 -0.237245 1.04779 1.04752 -0.0206797 0.267046 0.465723 0.936795 0.645875 -0.77143 0.357382 -0.908352 -0.377045 -0.325827 0.0897714 -0.0760732 0.284747 0.0448999 0.677822 -0.231393 0.717184 0.236286 -0.884161 -0.289159 -0.419115 0.21401 -0.708102 0.350425 0.419959 1.05567 0.447956 0.159808 -0.231449 0.45864 0.183608 0.639304 -0.225039 -0.394567 0.534269 -0.803808 -0.188139 -0.203534 -0.631029 0.257787 0.724214 0.328331 -0.789622 -0.0425848 -0.711954 0.806512 0.579878 1.07275 -0.0909894 0.742943 -0.5158 0.467596 -0.423538 -0.172293 -0.492357 1.02324 -0.64364 -0.961707 -0.068308 0.378148 0.32533 -0.66922 0.225524 1.00842 -0.0523826 -0.0642055 -0.54267 0.712325 0.661194 -0.466212 0.171839 -0.239908 1.19439 0.132676 0.435065 0.82733 -0.247911 0.29264 0.962384 0.807836 -0.374341 -0.534478 0.332888 0.399129 0.579674 0.859183 0.242525 -0.641475 0.85907 -0.806278 0.662574 0.0590846 -0.225272 -0.124373 0.263847 0.283944 0.378577 0.349909 -0.37595 -0.310597 0.698063 0.423626 0.105979 0.192538 -0.774471 -0.290592 0.457993 -0.116465 0.532094 0.430886 -0.406815 1.05186 0.898638 0.546467 0.268796 0.304305 0.281077 -0.849986 0.515388 0.0696326 -0.62372 0.187934 -0.729181 -0.128597 0.834528 0.403341 1.04218 0.0223438 -0.372627 -0.329554 0.548903 -0.786788 0.977007 -0.36965 0.533777 -0.814728 0.214865 -0.16175 0.0817083 -0.276156 -0.897114 0.579812 -0.295619 0.955546 0.188723 0.751451 0.253745 -0.593403 0.827448 -0.350949 0.370746 -0.726125 0.780284 0.429613 -0.0686988 0.456545 -0.338648 -0.201704 -0.634586 0.171613 0.342012 0.708442 0.433238 0.333531 -0.631355 -0.172133 0.547983 0.588671 0.710959 -0.425404 -0.880956 0.577706 -0.965794 -0.0337309 0.619745 0.173157 -0.501091 -0.314314 0.479826 -0.725903 0.187786 -0.376541 -0.871763 -0.030338 -0.740555 0.0317828 -0.915261 -0.398283 0.822029 -0.631976 0.622746 -0.132833 -0.87437 0.0126477 -0.538944 -0.211541 1.23319 0.766901 1.04313 0.759066 -0.790403 0.744286 0.142474 -0.682441 -0.28799 -0.105665 0.340179 0.223959 0.381669 -0.241666 0.46514 -0.662454 0.747155 0.806066 0.44545 0.615559 -0.870948 0.566228 -0.713694 1.05733 0.882821 -0.795049 0.0713978 0.981978 -0.109775 0.037779 -0.493601 0.194497 -0.269215 -0.748969 -0.345047 -0.282455 -1.04952 0.826584 -0.226513 -0.280292 -0.452313 -0.891088 0.763585 0.746339 -0.193468 -0.0238139 -0.645225 -0.748086 -0.532904 0.658508 0.819949 -0.277314 0.0202338 -0.841209 -0.319034 -0.219247 -0.78898 0.606799 -0.183544 0.461781 -0.247864 0.196974 -0.457473 0.431014 0.252612 0.0919985 -0.741513 0.281041 -0.232162 -0.0315346 0.939669 0.149502 -0.0949172 0.647663 -0.104032 0.755027 -0.45813 0.0822345 1.02494 -0.113335 -0.366804 0.716555 0.419994 0.516006 0.788729 0.928518 -0.762902 0.861335 0.388811 0.00765755 0.211006 0.983127 1.02898 0.633497 0.498987 0.347328 -0.277068 0.50817 -0.416174 0.387073 -0.535287 -0.681706 -0.458424 0.22008 0.969316 0.321555 0.166466 -0.600036 -0.612823 0.120756 0.304473 -0.112862 -0.341672 -0.664603 -0.758972 -1.0068 -0.959891 -0.503964 -0.461771 0.66212 -0.00504028 -0.0311428 0.500025 -0.0498668 -0.431897 -0.128481 -0.865458 0.0981902 -0.651957 -0.8093 -0.451609 -0.0653926 -0.112487 -0.38696 -0.906768 -0.416457 0.916009 0.216128 0.0387623 -0.867753 -0.761789 -0.659288 -0.107792 -0.412637 0.120928 0.16826 0.264942 0.020688 -0.0172923 -0.223424 -0.891739 -0.43795 -0.55648 0.699523 0.0596582 -0.0716716 -0.377268 0.484637 1.21205 0.370152 0.995779 -0.803948 0.651013 -0.492801 0.156264 0.974639 0.318887 -0.0795881 0.229236 -0.852505 -0.0691948 0.22734 -0.838297 0.762292 1.0398 -0.482039 -0.340202 0.0315119 0.167411 0.730732 1.00765 0.367207 0.760261 -0.59513 0.0392443 -0.0302862 -0.129629 0.728221 -0.657389 -0.224014 -0.452508 0.98179 -0.0401403 -0.549469 -0.443081 0.823072 -0.767438 0.807057 -0.402552 0.314643 0.928555 0.450645 -0.51021 -0.84136 -0.0186673 -0.816735 -0.466886 0.63318 0.170178 0.901776 0.196561 0.156014 0.265778 -0.0682011 0.141833 -0.708497 0.704288 0.934927 0.837288 0.854456 -0.1779 -0.437663 0.816159 0.533961 -0.232904 -0.556647 0.102309 0.0571574 1.04387 0.742116 -0.782507 0.941896 0.364615 -0.426069 0.864236 -0.72553 -0.033293 -0.19224 0.874953 0.753658 -0.166045 -0.148065 -0.239028 0.852707 0.610814 1.20496 0.651736 0.257066 0.847423 0.540937 0.316991 -0.593818 0.795516 -0.635626 0.990658 -0.20141 -0.607157 -0.0985526 0.447599 -0.05589 -0.440387 0.557938 -0.730736 0.895679 -0.34076 -0.48137 -0.462281 0.212686 0.0569078 0.99966 0.341584 0.219848 -0.636161 0.945761 0.0825377 0.955238 0.959195 -0.375269 0.282147 0.680273 1.42227 1.30331 0.884518 1.01528 -0.623691 0.732437 -0.9733 0.222553 -0.517958 0.655434 0.798984 0.812188 -0.00545924 -0.815887 0.21809 0.514554 -0.363913 0.192018 -0.81342 0.463091 0.107288 0.0736986 -0.120484 0.522526 -0.270934 0.629114 0.60595 -0.61795 -0.842667 -0.42843 0.908822 1.08639 -0.467545 0.693637 0.750607 -0.0959592 0.398938 0.890893 1.02701 0.833331 0.330374 0.653371 -0.0740892 -0.586952 0.85017 -0.99306 0.505045 -0.73138 0.000392845 0.567591 0.683673 -0.810078 -0.44493 -0.697395 0.507957 0.105639 0.819026 -0.111987 0.432999 0.854577 0.423733 0.280977 0.796813 0.690383 -0.128659 0.353272 -0.451888 0.959036 0.0693722 -0.57896 0.671732 -0.341269 1.17627 -0.324215 -0.306365 0.778654 -0.395765 -0.786272 -0.720953 0.908083 0.851195 0.54091 0.85412 -1.3796 0.872291 0.188213 0.261676 0.639806 0.881059 -0.577025 0.242831 -0.00269855 0.676772 0.217511 -0.362368 -1.21805 -0.769728 0.716053 -1.01289 0.409923 0.442593 0.736809 0.75787 0.709213 -0.388577 -0.717965 0.648281 -0.207224 0.0345391 0.22177 -0.0182564 -0.398114 -0.526812 -0.830474 -0.378143 -0.150071 0.0745167 0.878005 -0.742573 0.0532879 -0.79064 0.686297 -0.417837 0.851327 -0.0307309 0.266708 -0.667767 -0.0248156 -0.804962 -0.922412 -0.517053 0.824225 -1.0172 -0.953041 -0.0471233 -0.65486 -0.461477 -0.728613 0.360982 0.215252 0.564503 0.82391 0.590917 -0.493508 0.908356 -0.832217 0.0588094 0.293407 0.747962 0.357614 -0.407968 1.08623 -0.0181555 -0.0646878 0.804506 0.520059 0.982715 1.21519 -0.585916 -0.82191 -0.815863 -0.272601 0.806016 -0.754658 -0.12782 -0.270378 -0.437766 0.539525 0.0225089 0.874959 -0.205928 -0.410911 0.608835 -0.655321 -0.219821 0.555481 -0.639049 0.743983 -0.103646 -0.872602 -0.0357667 0.424461 0.944318 0.819672 -0.729107 0.852889 0.250311 -0.78756 0.558249 0.564172 -0.761841 0.636446 -0.658905 0.959095 0.882455 0.126501 -0.421981 -0.634771 -0.427097 0.665841 -0.776352 0.380879 -1.01676 0.690205 0.705145 -0.0137405 0.212302 0.676406 -0.355169 0.964116 1.09066 0.641966 0.369105 0.923585 0.0814714 0.481082 0.504239 -0.535896 0.561986 -0.00592234 0.86492 0.615723 -0.603284 0.955929 0.621042 -0.458072 -0.199183 -1.08099 -0.20467 0.593321 0.804262 -0.498496 -0.0191995 0.805919 -0.573464 -0.869772 -0.39403 0.463327 1.13496 0.29241 0.0824858 0.757907 -0.556202 -0.428166 0.68806 0.858045 0.490827 0.172629 -0.515655 0.177068 -0.945346 0.938547 0.378423 -0.328398 0.507375 -0.371882 -0.228872 -0.740011 -0.445337 0.21852 0.465321 -0.87454 0.785082 -0.544719 0.67036 0.761194 -0.573238 -0.659081 -0.16018 -0.780636 0.486899 -1.06858 -1.12189 
0.863142 -0.471931 0.714668 0.694881 -0.495123 -0.0950343 0.523937 1.16908 0.0823534 0.803962 0.45379 0.861994 0.22864 1.02701 -0.39832 0.711379 -0.186328 0.928053 0.737366 -0.142684 0.355646 0.925978 -0.386281 0.248816 -0.521447 0.11663 0.800346 -0.527108 -0.493093 -0.613239 -0.576321 0.504183 -0.281621 0.835671 0.84333 0.308441 -0.267305 0.127463 -0.380066 0.468262 -0.659519 -0.629035 -0.00176598 0.417235 1.06178 0.283435 -0.368929 -0.676622 0.292382 0.0307335 -0.397088 -0.967662 1.70185 0.760455 0.809464 1.028 1.8607 0.710516 0.122942 1.14577 0.705092 0.220239 1.47459 1.61223 -0.6523 0.270634 -0.190847 0.307117 -0.515015 1.21915 -1.42318 -0.210014 -0.0122339 -0.124721 -0.9869 1.20238 0.458389 0.208439 -1.3154 -1.01908 0.231828 -0.741697 -0.949037 0.211845 0.0821747 0.420744 0.42591 1.04287 -0.410485 0.578163 0.87999 -0.542114 -1.11548 0.585959 -0.306532 -0.75298 0.199345 0.915208 -0.013154 0.583709 0.545725 -0.491167 -0.422391 0.746529 1.34858 -0.534796 0.534448 0.0429961 0.662602 0.339709 0.202839 -0.0629142 1.28784 0.536258 -0.668989 1.08008 0.194642 0.635906 0.65596 1.0286 0.208264 0.592373 -0.431691 0.257273 0.215887 -0.306176 0.875114 -0.646732 -1.01763 0.00243174 0.379125 0.44243 0.981012 0.702522 0.0798719 1.49193 0.890039 0.91052 -0.353636 0.0706292 0.298087 0.719811 1.14097 -0.0271796 0.21207 -0.858914 -0.257004 1.08926 0.710031 -0.557706 0.793091 0.137191 0.978256 1.27836 1.08962 0.64079 -0.211618 0.750666 0.1903 -0.512416 0.6695 -0.221744 1.21534 0.0435548 -0.848119 -0.473373 -0.838818 0.961351 -1.04615 -0.00143034 -0.463197 0.462937 -0.556668 0.17426 0.333474 0.1356 -0.135943 -1.01778 0.244972 -0.548593 -0.821894 -0.919 0.138009 -0.225277 -0.28304 0.373603 0.49585 -0.276192 0.0773966 -0.747131 0.0961125 1.27525 0.348783 -0.423107 -0.356063 0.00325067 0.385381 1.45954 -0.558408 0.316984 -0.345025 0.379935 -0.316255 0.368109 -0.0700051 0.298387 -0.761053 0.224524 0.625684 -0.0245048 0.842673 -0.819783 0.245178 -0.708891 -0.940548 0.356239 0.0442474 0.673117 -0.697256 -1.04147 0.724148 0.294438 -0.106092 -0.401419 -0.955382 0.113256 0.679147 0.913286 0.271595 0.0317357 0.331183 0.21509 -0.586713 0.165865 -0.767271 -0.322502 0.085452 -0.224186 0.709912 -0.0395949 1.00815 0.165477 0.0377587 0.190648 0.949416 0.209254 -0.493262 0.133422 -0.212877 -0.177093 0.613434 -0.404373 -0.923743 0.759815 0.548747 -0.620679 -0.310597 0.351328 1.08426 0.717501 0.905262 0.366096 -0.329124 1.04561 -0.884895 -0.0880859 -0.213006 0.240967 0.558309 0.968923 0.721366 -0.13243 0.120127 -0.658862 0.856835 -0.418248 0.429896 1.28117 0.587605 -0.887966 -0.651086 0.179425 -0.367204 -0.726727 -0.727443 -0.353238 0.00659538 0.412811 0.822071 0.156855 -0.729674 0.384438 0.836084 0.327871 0.455046 1.31049 0.640863 1.25718 0.0491426 0.710881 -0.197055 -1.08492 1.14302 -0.94088 -0.172142 -0.0787977 -0.631777 -1.3964 -0.0326284 0.306806 -0.637206 1.26469 -0.0558492 -0.298131 -0.621086 0.516064 -0.297899 -0.641392 -0.810823 -0.709621 0.00580122 -0.434657 -0.121327 0.720847 -0.0201149 0.508069 -1.73154 -1.16342 0.693549 -0.216772 -0.5312 0.0841371 0.515553 -0.520683 -0.0984497 -1.45611 1.42085 0.443958 -0.576863 -0.55999 0.376645 -0.892859 -0.318345 0.490597 -0.285503 -0.433712 0.454074 0.692235 -0.446342 -0.897794 -0.46602 0.51678 0.319442 -0.263586 -0.193179 0.462172 1.12046 0.119903 0.78408 0.068187 0.819842 -0.194436 1.02936 0.519912 0.928041 0.0368582 1.03168 0.759877 -0.541802 1.02834 -0.456335 0.996394 1.107 0.125607 -0.635601 -0.187211 -0.749016 0.933449 -0.354523 -0.332062 0.700243 0.00205628 0.192105 0.0486138 -0.0130237 0.921425 -0.578634 0.487812 -0.0246625 0.991436 -0.866612 -0.326091 -0.495224 1.00163 -0.58404 1.24155 -0.166114 0.789079 0.456032 0.205973 0.776454 1.07115 0.204658 0.553264 0.486903 0.284027 -0.90709 0.309688 0.194097 0.131106 0.383938 -0.0424829 0.685766 -0.801575 1.62317 0.251534 -0.693909 1.26581 0.914442 -0.789777 0.493278 1.15618 0.292757 -0.577875 0.82156 0.0266399 -1.31814 -0.513656 -0.313111 0.142484 0.168866 -0.793959 0.0960571 -0.72381 1.1824 0.0636286 0.224091 -0.443785 -0.0746243 -0.815953 -0.412599 0.0313364 -0.220488 -0.449445 -0.989929 -0.485682 0.0669905 -1.32823 -0.295892 -0.43505 0.836295 -1.2362 -0.823765 0.335004 -0.521481 -0.822016 -0.756838 -0.154774 -0.150449 0.127428 -0.677352 0.952895 -1.3397 -0.385329 -1.46334 -0.9303 -0.870608 0.227369 -1.10696 -0.578292 0.3994 -1.0161 -0.063152 -1.36177 0.175985 -1.4686 -0.721163 -0.253842 1.15648 0.163114 0.340336 -0.118587 1.29463 0.932369 0.230272 1.1095 -0.517788 0.549853 -0.249873 0.191331 0.158172 0.262277 0.0518713 0.139168 0.492533 0.0664087 0.138451 -0.608755 -0.730273 0.16557 0.611245 0.523934 0.931086 -0.567926 0.460072 0.0523109 0.0550927 0.928982 0.0963346 -0.209188 0.022431 -0.752378 0.231096 -0.491961 0.938447 -0.582768 -0.775631 -0.824444 0.796303 -0.0331121 0.132357 -0.339054 0.203082 1.15478 0.500173 0.281725 0.432779 -0.112452 -0.187186 0.15757 0.168031 1.36984 -0.598085 0.433524 -0.652704 0.316788 1.19994 0.980247 0.229656 0.0394932 -0.707511 -0.0841551 0.505522 0.589682 -0.263167 -0.555995 0.368534 -1.05068 -0.553407 0.256423 0.0127989 0.984463 0.726706 0.267088 0.654283 0.867964 -0.259634 -0.85461 0.329345 0.140176 0.0377068 0.0562296 -0.638467 -0.177933 1.2669 0.699521 0.646319 1.50028 0.376657 0.0789395 -0.0925449 -0.402651 0.276433 -1.00388 -0.628244 0.730368 -0.928391 -0.734155 0.0818694 -0.565031 0.597621 0.430325 -0.770428 0.443563 -0.68928 0.838221 0.183359 0.893449 -0.599396 0.755529 -0.316 0.210868 0.230631 0.0407958 -0.534016 0.309208 -0.880612 -0.0671624 -1.59607 0.480431 0.453805 -0.451941 -0.695725 -0.434861 -0.801069 -0.029374 0.086577 -0.614792 0.426294 0.0545839 0.00508549 -0.242464 0.293858 1.00167 -0.439566 0.578514 0.647 0.638303 -0.170127 1.14049 0.889592 0.786221 0.486139 -0.0252818 1.52228 -0.111672 0.903949 -0.949815 0.488893 -0.374743 0.135418 -0.0996961 0.455998 0.785851 0.910744 1.19685 -0.380466 -0.690013 -0.457146 0.673931 0.33576 0.588574 -0.39832 -0.562493 0.233039 0.00485802 1.20366 -0.445144 1.19014 0.0742045 -0.119616 0.669837 -0.408492 0.958559 -0.499562 -0.405396 -0.190316 -0.1126 -0.31472 -0.334461 0.396383 0.777117 0.15429 -0.135421 0.127126 -0.121841 -0.595209 1.35742 -0.143479 -0.00254859 1.37004 1.46622 -0.562687 2.27386 -0.563772 1.11857 -0.0997795 -0.95596 1.44154 -0.288846 -0.106229 -1.27427 -1.19571 0.410781 -1.06329 -0.748743 0.289503 0.0868006 -0.536124 0.540012 0.482019 0.312954 -0.432592 -0.153592 -0.551984 -1.06184 0.00307926 -0.0329178 -0.282733 -0.217473 0.675066 1.19235 -0.590734 0.326189 0.790821 0.410326 1.61531 -0.825366 0.583306 0.626961 -0.656522 -0.350582 0.0757458 0.10047 0.199064 0.769339 -0.162829 -0.180763 0.229957 -0.201764 0.186533 0.75337 -0.899528 0.612742 -1.06348 -1.4545 -0.430146 -0.567401 -0.152695 0.109399 -1.45593 -0.863757 -0.526444 0.131381 1.09086 1.23119 -0.34199 0.147106 -1.30914 -0.517357 0.925893 0.122285 -0.0301721 0.284383 0.954906 1.13775 0.0368416 0.629606 0.0933416 0.906563 0.628477 1.3708 0.352432 0.679901 0.206855 0.643382 1.09628 0.672317 -0.84857 -0.531105 -0.57926 -0.704829 -0.479672 0.0643043 0.389652 -0.524045 -0.434222 0.989518 -0.197516 -0.217958 -0.852455 0.234728 0.657823 -0.670898 -0.495187 0.513548 -0.196125 0.457336 -1.24657 0.317629 -0.135359 -0.387537 0.0424836 -0.295189 -0.454115 -0.3535 1.15674 1.29998 1.23572 0.844922 0.0329305 -0.236458 1.37715 1.28172 0.593562 1.02054 1.10185 0.757468 0.814324 0.204892 -0.0866629 0.783983 0.823348 0.505476 1.06893 0.93421 0.287082 -0.925159 0.265271 0.857218 0.535712 0.600945 1.13 -0.964422 0.0209221 1.0085 -0.7164 1.30804 0.93047 -1.53221 0.802253 -1.50699 -0.695992 0.156169 0.703529 0.505223 -0.340105 -1.0195 0.201424 -0.106873 0.3479 -0.868546 1.18597 -0.570265 0.684904 0.573198 1.18404 1.02699 0.0812927 -0.227876 0.269049 -0.130322 -0.610377 -0.105243 -0.1869 -0.765586 0.692138 0.275772 -1.09615 -0.223016 0.414678 0.471503 0.540781 1.91808 0.617566 -0.259519 0.515131 0.535134 0.666331 -0.109078 -0.591915 0.147528 -0.99082 -1.08468 -0.763685 0.0532718 0.737703 0.109455 -0.0513764 -0.321948 1.07041 -0.556694 0.524869 -0.609989 0.398062 -0.728146 -0.0389851 -0.660106 0.42754 0.219787 0.188257 -0.193082 0.0346646 -0.759318 -0.546178 -0.840986 -0.0101936 1.04785 -0.121725 -0.526735 -0.0696738 0.57819 0.416852 -0.283418 1.21206 0.381848 0.48135 0.0386691 0.138391 -0.115214 1.05609 -0.224311 -0.30832 0.285125 0.237262 -0.723937 1.37554 0.823801 -0.379805 -0.244841 -0.400535 1.17128 0.600104 0.73304 1.17157 1.58842 1.24416 -0.10056 0.673014 -0.0381905 -0.668171 -0.873344 -0.57093 1.19864 0.250692 -0.58952 0.751561 -0.0190717 0.430207 -0.390615 0.704563 0.0138436 0.301637 1.204 -0.551039 0.918878 -1.0019 0.73312 0.687313 0.00319817 -0.675745 -1.00752 -0.764424 0.143646 0.567958 1.64274 1.28184 0.0641908 -0.164238 -1.70989 -0.216468 -0.780416 0.83753 -0.0140949 -0.506909 0.56753 -0.98736 -0.61829 -0.329287 -0.466214 -1.50248 -0.377775 -0.057992 -0.240849 0.752845 0.257609 1.19693 0.562225 -0.574886 -0.305898 -1.34584 -0.132879 -0.28191 -1.30527 -0.900863 -0.552518 -1.29433 1.01368 -1.4768 -0.903944 -0.612393 -1.1035 0.37704 0.254773 0.335646 -1.33637 0.437662 0.96674 -0.112037 1.07196 1.60202 0.178948 0.592148 -0.016473 0.35548 0.472748 -0.576617 -0.0527631 0.0474984 0.0463962 0.985646 0.535001 1.04735 0.178456 0.816239 -0.888527 0.770914 0.70714 0.0271107 0.813185 1.22866 0.901297 0.78156 0.269933 -0.0239877 -0.280915 0.962929 -0.612698 -0.372406 -0.381973 -0.462999 -0.802638 0.639072 1.11054 -0.397744 
-0.548298 0.155106 -0.500449 -0.239242 -1.0517 -0.982352 0.744247 0.403662 1.1024 0.164519 -0.219642 0.983978 -0.26682 -0.562664 1.16945 -0.565101 -1.44279 -1.32622 -0.148172 1.38335 -2.26531 -1.00421 -0.410787 -0.393627 -1.33184 -1.6243 -1.94936 -1.27751 0.312643 -1.72076 -0.958404 -1.58472 0.906801 -0.145471 -0.561765 0.297068 -0.710029 -0.559208 2.205 -0.262138 -2.14381 2.24239 0.0065521 -1.67888 -0.212644 -0.774642 0.555342 0.958631 0.839225 1.47896 1.06262 1.10959 1.39634 0.560051 -0.643288 -1.20218 1.11513 0.521544 -0.810475 0.0432668 1.53488 0.697573 0.122852 1.35463 -1.19248 -0.360937 1.66521 -0.603114 -0.578021 -1.37768 -0.359165 -0.195905 -0.183113 -1.04338 0.0161453 0.131696 -1.02185 -0.793911 -0.285591 0.69698 0.115003 -0.852897 0.402878 -1.09246 0.151226 -0.994022 -0.325204 -0.298112 0.458229 -0.379203 -1.45515 0.657548 -0.78105 0.873741 0.189252 -0.924313 0.886617 0.605399 0.581982 -0.585734 -0.786105 -0.240843 -1.57071 -2.39589 0.287013 -1.0664 0.657644 -0.698483 -0.991344 -0.406244 -1.28852 -0.549924 -0.1516 -1.17038 0.00569504 -0.264717 -1.02111 0.620922 -0.840921 -1.9939 -0.598159 -1.1454 0.291375 -1.36055 -0.847667 -0.00355297 0.358632 -0.385689 -0.414601 -0.474199 -0.577224 -0.86147 -1.00864 0.613712 0.717316 0.462158 -0.482913 -0.113768 -0.231004 -0.865983 1.1705 -1.54948 0.0129137 1.14312 -0.739044 1.1777 -0.200533 -0.399149 1.35764 0.110088 -0.485923 -1.73957 -0.86558 -1.47026 0.0205084 -0.991929 -0.576804 0.334691 -0.115218 -0.907066 -2.02049 -0.29405 0.840029 -0.815877 0.857141 -1.19669 -0.22341 -0.66287 -0.60917 -0.317517 -0.327464 -1.07726 -1.7959 0.258928 -0.397114 -0.286892 -0.319203 -0.548377 0.0255752 -0.80041 0.19182 -0.113884 0.500982 -0.488118 0.545846 -0.843142 -1.01918 1.37385 0.904391 0.0118901 -1.97902 1.10988 0.440622 0.62087 1.02097 -0.852997 -1.01263 -0.294105 -0.71091 -1.11512 -1.67095 -0.222978 -0.492571 -1.03464 -0.41076 -0.616287 0.0429104 -0.347419 -0.696802 -0.312869 -0.00307287 -1.54347 -0.623963 -0.811795 -0.96745 0.629307 -0.427507 -1.05366 -0.136268 -0.718786 0.00413276 0.489373 0.531784 0.863232 0.506595 0.270994 -0.531117 -0.981482 -0.0215157 -0.172387 -0.564298 -0.129793 -0.499316 -0.0954582 -0.40235 -0.0263395 -1.45716 -0.16494 -0.342735 0.308433 -1.44406 -0.411846 0.170702 0.00946762 0.0574782 -1.59195 -0.0682004 -1.11308 -0.0594191 -1.11582 -0.700669 1.30028 -0.213556 -0.104055 0.414961 0.290026 -0.455133 -1.20962 0.175197 1.28102 1.00864 -0.198981 0.0642586 -1.27118 -0.00588067 -1.26318 -1.12542 -1.47717 0.695853 1.5165 -1.28791 0.0588544 -1.34477 0.237609 -0.44063 1.23491 0.0379806 1.88973 -0.351252 -0.992635 0.668268 0.633343 -0.285174 -1.32313 0.847573 1.18718 -0.321371 -0.147361 -2.24801 0.656205 -2.49975 -4.20222 -1.00493 -0.00154999 1.55736 1.611 -1.85629 0.290308 1.36063 -1.51889 0.764843 1.41466 -0.0873432 2.27398 -1.74468 0.0364554 -0.664703 1.42893 -0.441713 -0.273447 -0.596956 -2.98088 -0.516943 1.1265 -0.182286 0.658758 -0.256515 -0.48919 0.148394 -1.48177 -0.362972 0.10194 0.572208 -0.59498 -0.467686 -1.28689 -0.968618 0.286087 0.107498 0.16932 -0.020169 -0.553659 -0.977971 -1.44135 -1.5369 -0.491421 -0.389972 -0.0370381 -0.828218 -0.275925 -1.34358 -0.219536 -0.235425 -0.920698 0.603595 0.265521 0.401396 -0.372565 -0.563026 0.0117822 -0.742862 0.00317066 0.715523 -1.08562 0.583816 -1.52111 -1.24802 -0.963034 0.629256 0.0709177 0.809532 -0.0899248 -0.0129733 -0.76905 -0.0918975 -1.11079 -1.06112 -1.28183 -0.058826 -1.06461 -0.573152 0.299514 -0.94277 -1.1711 1.03722 -0.341252 0.161536 -0.43665 -0.421702 0.528878 -0.442736 0.649817 -1.85736 -2.01205 0.199603 -0.605705 -0.755365 2.26541 1.10874 -1.33457 0.508278 0.0162697 0.343723 0.973073 0.370313 -0.381181 1.09597 0.336402 0.459008 0.676402 0.505043 -0.885863 -0.907428 1.87613 -0.31011 -1.48555 -0.636969 -0.649879 -0.521056 0.82209 -0.321348 -0.67754 0.721244 0.568856 -0.0732724 1.30384 -0.903777 1.15701 -1.8465 1.83606 1.65722 -0.844304 0.604048 0.770924 -0.6384 0.198959 -1.05358 1.03597 -1.00233 0.515477 -0.00816633 0.122819 0.127589 -0.506687 2.14309 -0.220871 0.388399 1.79863 0.151207 1.95743 0.334402 1.81399 0.892813 3.02049 1.08489 -1.22717 -1.28788 -1.21535 -1.35125 -1.61886 -3.15722 0.451836 0.593991 -0.19509 -0.542464 -1.21525 -0.448364 -0.388208 -0.232167 -0.981095 -0.686768 -0.0921602 0.906239 -0.677739 -1.49005 0.285818 0.134784 -0.332577 -0.672288 -0.537151 -1.09194 -1.21035 -0.431159 -1.16287 0.371722 -0.785485 -0.0578244 -1.02153 -0.900321 -0.0743706 -0.751682 -1.21816 -0.0638871 -1.06777 0.403164 -1.14669 -0.952245 -1.0544 -0.0613963 0.334254 -0.881189 0.319604 -0.0631268 -2.20749 -1.78341 -1.0871 -1.12557 0.477728 -0.498414 -0.692378 -0.437928 -1.31008 0.110404 1.30218 -0.876016 -1.78187 1.56002 -1.3301 -0.708802 -1.71088 -0.84593 -0.645667 -0.523488 0.233138 0.692222 1.14871 0.462583 0.562644 0.87357 -1.44906 0.251607 -1.23047 -1.04099 -1.99967 -0.531342 0.267593 0.884402 0.186659 0.295206 0.289984 2.8954 2.22621 -1.56339 -0.0824267 -0.825566 -1.37469 -0.072809 -0.737876 -0.565115 0.509462 0.187686 2.72952 0.409589 1.25786 0.462257 0.90648 -1.63998 0.391911 -0.262093 1.62159 0.0269183 -0.627118 0.145598 0.0750844 -1.55273 -1.19942 0.377284 -2.35188 0.686905 0.0979965 0.205037 -1.60086 2.33723 0.0132244 0.791164 -1.17775 2.67761 -0.349575 0.266018 0.563016 0.500633 -0.320066 0.763404 -0.770943 -1.68959 0.00109336 -1.26535 0.00586766 0.581237 0.463572 -1.19434 -0.0289731 -0.0469423 -0.0419093 -0.58635 -0.575746 -0.96163 -1.50064 -0.672836 0.0947725 -0.73676 -1.19315 -1.89269 0.484873 0.561909 -0.923768 -1.10621 -0.724815 0.504917 0.259386 0.130541 -0.749185 -0.0108855 -1.3174 -0.257425 -1.26204 -0.336192 0.221407 -0.273582 -0.848628 -0.695821 -0.113592 -1.13803 -1.48124 -1.58057 -0.0633551 -0.00146826 -1.65428 -0.966641 -0.816491 0.022996 0.145495 -0.695438 0.238003 -0.273403 -2.15488 -1.76136 -1.18335 -1.63503 -0.158904 -1.04368 -0.513056 1.03996 -1.62076 0.542344 -1.51455 -1.18138 -0.814068 -1.01442 -1.06183 -0.333962 -3.23199 -1.0736 -1.46653 -0.999376 -0.50192 -0.00894649 -1.06109 -0.614617 1.44797 0.399529 -1.37947 0.119803 0.842571 -0.558134 -0.0272917 1.19452 -0.338537 -1.45582 1.7977 2.11629 -2.04515 -0.288899 1.55615 -1.14603 -0.947639 -1.8641 0.978097 -0.335937 -2.19632 0.640071 -0.0185581 -0.758438 -0.647203 -2.83631 0.385999 -0.402146 -0.925977 1.39821 -0.57118 0.0689162 0.735252 0.926586 -0.600268 1.73621 0.558469 -0.477435 -1.37703 -0.715986 1.05992 -0.739589 0.697371 -0.554556 2.05337 -0.958772 0.28837 -0.743648 -1.52958 1.61835 0.770266 -0.802719 0.725101 -1.5325 -0.564378 0.696262 -0.175667 0.315259 -1.33647 -0.307306 0.329901 -0.599467 0.0735487 0.578645 -0.640272 0.466838 -0.627185 -1.39496 -0.22216 0.573776 -1.25566 0.46434 0.886393 0.0976928 0.0363206 -0.056569 0.319243 -0.837095 1.16096 0.545321 0.403554 1.05056 -1.64199 0.16027 -1.22158 0.359141 -0.087282 1.36637 0.441233 0.200031 -1.10904 0.302256 0.299719 -0.051507 0.064436 -0.0780079 -0.392707 1.48132 0.752929 -0.525842 -1.6694 -0.126987 -0.14636 -0.379386 -1.89514 -0.718637 -0.649648 -0.373268 0.446291 -1.06595 -1.07264 -0.61222 -2.53359 -1.18257 -2.02924 -1.3307 -0.960386 -0.690335 -1.60953 -2.33008 -1.10022 -0.473215 -0.691674 -1.6361 -0.56582 -0.193152 0.935228 0.318759 -1.45639 0.415468 -0.0328663 -1.39822 0.475423 -0.819531 0.611564 0.465161 -0.660855 -0.13687 1.56634 -0.246596 1.03557 1.07757 0.167406 -0.45472 -0.261867 0.186593 1.21959 -0.172961 -2.33759 0.151476 2.77401 -1.31784 2.42448 -1.19981 -0.642067 -1.16512 -0.562881 0.4487 -0.42481 0.408422 -0.79464 0.332063 0.898461 0.892909 1.00446 -1.16296 0.0878051 0.800491 -0.543652 -1.05669 1.94813 -1.36752 -1.6305 -1.02716 0.243153 -0.976905 -2.5384 0.269218 -0.530145 0.455032 -0.860882 -0.831026 1.43278 1.03164 0.224377 -0.815456 1.57724 -1.05112 0.959848 -0.35869 -0.333018 -0.744482 -0.879148 -0.602312 -0.698012 -1.61484 0.787392 0.531789 -0.578904 -0.967074 0.396984 -0.484688 -0.342208 0.456509 0.452993 -1.1606 0.202361 0.633144 -1.46371 -1.3246 -0.608311 -0.894492 -0.752731 -1.74287 -0.35606 1.02114 0.383449 -1.24252 -0.0893527 -0.451435 0.353412 -0.0640227 0.436317 -1.72156 -0.0928581 -2.9806 -1.53164 -0.333142 0.70885 -0.160923 -1.096 0.0132344 0.119632 0.072851 -1.68812 -1.19803 -1.53985 -0.387444 -1.23964 0.235001 0.289085 -0.566505 -0.634798 -0.351531 -0.828633 -0.386228 -0.83883 -1.4348 -0.0394792 -1.5676 0.174077 -0.486539 -0.212708 -0.685667 0.206721 -0.201131 -0.414681 -0.224918 -0.386295 -0.362647 -0.780266 -0.368423 0.469344 0.759322 -1.70524 -1.57623 0.192056 -0.873446 2.81061 -1.67093 2.53356 -1.10124 -0.766006 0.687222 0.862794 2.43801 -1.06438 0.514344 -0.282241 3.18107 1.65669 -0.109269 1.59926 0.642462 0.579914 -0.53609 -0.222185 0.484604 0.968892 0.322327 0.707575 1.00711 1.34227 -0.23394 0.26067 1.69696 -1.85594 1.43534 0.88114 -0.488607 1.59309 -0.0618604 -0.522059 -1.24751 2.08364 -0.113908 -1.25023 0.155372 -0.330007 -0.861256 0.415124 0.485369 -0.685629 -1.83349 -0.229815 -1.52522 -0.0400535 0.415175 -0.614276 -0.948566 -0.213574 -1.22537 -0.117992 -1.30275 -0.315294 -1.1724 -1.01935 1.05496 0.0920332 -0.191907 0.517492 0.394116 1.4392 -0.699785 0.938755 0.175405 0.257214 -1.25167 -0.235195 -1.33885 1.03167 -0.401983 0.219888 -1.51714 -1.12305 -0.0756992 -1.12465 0.250778 -1.29236 -0.234889 -0.30673 -0.959273 -0.217379 -0.664356 -1.30528 -1.32957 -0.994739 0.16685 -0.498073 -0.831708 -1.40406 -1.09385 -0.271412 -1.41131 -0.533174 -1.71034 -0.350777 -0.800257 -1.55491 -0.763789 -0.86425 -0.283256 -1.85378 -1.41793 -1.5666 0.455736 
