-0.153075 -0.34667 0.846173 0.0648545 0.894479 -0.426326 0.472777 -0.704449 -0.0603925 -0.293156 -0.573471 0.0120677 0.044414 -0.345732 0.467312 0.309538 0.289873 -0.137407 0.910357 0.769549 0.292664 -0.305557 0.0225483 -0.158375 0.477363 0.800948 0.644011 0.857846 0.221825 0.451052 -0.514977 0.800029 -0.851798 -0.947273 -0.123547 -0.995086 -0.444747 -0.698926 -0.756067 0.438885 -0.08198 -0.419493 -0.638697 0.910432 0.182593 0.77646 0.221857 -0.519737 -0.440151 0.161716 -0.798716 0.804118 0.779942 0.187736 -0.343197 0.26833 -0.00332565 -0.681582 0.142168 -0.763004 0.734105 0.233661 -0.980628 -0.984862 0.494244 0.0611193 -0.931771 -1.02389 0.290861 -0.743875 0.445857 -0.726607 -0.102238 0.868347 -0.755027 -0.858274 0.774576 0.562135 -0.255004 -0.611068 -0.229054 -0.00667666 -0.736931 -0.490222 -0.866642 0.174623 1.1616 0.338421 0.383377 0.181187 0.615406 0.212993 -0.477863 0.670644 0.167221 0.904282 -0.346845 0.16897 -1.05881 -0.751644 0.522344 0.484189 -0.638868 -0.536547 0.406107 -0.336329 -0.322854 0.184064 -0.745241 0.43729 0.577816 0.0504372 -0.545072 0.842085 0.643728 -0.232034 -0.11963 0.675887 1.07175 -0.790473 -0.277538 0.573327 0.330222 0.242117 0.26868 -0.482198 0.207069 -1.01177 1.05683 0.205481 -0.94539 0.301857 -0.21738 -0.447819 0.90192 -0.776006 0.22752 -0.42365 0.388456 0.468537 -1.00809 -0.0155355 -0.477349 -0.542081 -0.162325 -0.721185 0.193566 0.751719 0.894711 0.260145 0.871632 -0.466633 -0.248628 0.159848 0.790328 -0.958012 0.704113 0.0236308 -0.627043 0.492107 -0.726835 -0.916529 -0.260271 0.0179912 -0.36971 -0.341121 0.218809 0.835255 0.178987 -0.408737 0.287643 0.195724 0.600718 0.835245 0.692598 -0.550548 -0.961832 -0.121142 -0.844052 0.884314 -0.937214 -1.00851 -0.571196 -0.174807 0.159328 -0.763351 -0.102415 -0.103881 0.239246 -0.123013 -0.597247 0.645166 0.219554 0.326788 -0.303163 0.776302 0.91453 0.859867 0.642435 0.157899 -0.487712 -0.00879821 -0.516889 -0.757641 -0.0179051 -0.771351 -0.227488 0.0746875 0.154603 -0.0503376 -0.0112459 0.150371 0.205814 0.686795 -0.640874 -0.683467 0.869204 0.175165 0.182725 0.134167 -0.910273 0.574799 -0.295947 0.197031 -0.177077 0.335073 0.0347194 -0.128719 0.292099 -0.240078 -0.960299 0.847788 0.819317 -0.48774 -0.905956 -0.221044 -0.250705 -0.139446 0.998063 0.896964 0.829186 -0.163539 0.130703 -0.112208 -0.62737 0.35006 0.128466 -0.853592 -0.588524 -0.736634 0.254057 -0.501386 0.797149 0.912734 0.690658 -0.31365 0.632267 -0.202813 0.561327 -0.353389 0.664025 0.68838 -0.41825 0.469245 -0.77931 -0.278476 -0.682741 0.0270622 0.594694 -0.832827 -0.0846016 0.419754 0.0864298 -0.841338 -0.750331 0.37997 0.418942 0.372968 0.436764 0.680906 0.488488 -0.416849 -0.871552 0.307366 -0.477852 0.845377 -0.663384 0.87067 -0.328751 0.538697 -0.552094 -0.717555 0.25507 0.0802872 0.761955 0.477519 0.73014 -0.992606 -0.563722 0.294301 -0.855934 0.336364 -0.30124 0.102834 0.381636 -0.0446375 -0.55041 -0.250347 -0.74788 0.850153 -0.534605 0.775418 -0.534728 -0.398237 0.0892683 0.30881 -0.588217 0.0323286 -0.0786787 0.255813 -0.129271 0.554105 0.586514 -0.947926 -0.451107 0.264085 0.546478 -0.656485 0.332661 -0.887926 0.767179 0.60609 0.50965 -0.507737 -0.239375 -0.0712819 0.515149 0.251727 0.722524 0.693955 0.23182 -0.695468 0.699763 0.753051 -0.0337557 -0.163502 -0.280673 0.403741 0.906399 0.589935 -0.45579 -0.375279 0.0251387 -0.989348 -0.302249 0.681677 0.330728 -0.699716 -0.991297 -0.305282 -0.614171 0.771313 -0.68931 0.905328 -0.713668 0.0693097 -0.0073649 0.926863 -0.517186 -0.457188 0.557534 0.44925 -0.185567 0.222099 0.191908 0.685848 0.944872 0.875469 0.0647714 0.85043 0.424319 0.563618 -0.530357 -0.484629 0.981062 0.261613 -0.776981 0.0483441 0.64085 -0.708785 0.802789 -0.953791 -0.87612 -0.873146 0.954561 -0.635334 0.189936 -0.229966 -0.801182 0.497855 0.385414 0.757515 -0.0351291 -0.878686 -0.110167 -0.837835 0.717547 -0.314868 0.88804 -0.32715 -0.517184 0.332594 -0.738681 -0.0228418 0.876538 0.933756 -0.757094 -0.971839 -0.111851 0.834166 -0.649212 -0.255102 0.860341 -0.593948 -0.196827 0.746353 -0.29792 -1.01129 -0.488217 -0.175469 0.471215 0.769965 -0.483306 -0.508812 0.905633 0.389128 -0.389658 0.620376 -0.905205 -0.481212 -0.686326 -0.41447 0.857783 -0.140397 0.493669 0.659739 -0.464662 0.942083 0.979696 0.640611 0.823946 -0.761444 -0.717951 0.516018 -0.404624 0.0836464 0.377238 0.444806 0.127945 0.891047 -0.727436 -0.352488 0.734494 -0.21226 0.132244 0.633697 -0.87747 0.591483 -0.0325155 -1.07452 -0.755128 0.550995 -0.242822 1.02369 0.975352 -0.782735 0.621279 -0.599565 0.927497 0.332515 0.806288 0.539093 0.517902 -0.868442 0.127683 -0.813983 0.205481 -0.525037 0.593209 -0.616297 -0.583906 0.867968 0.0319247 -0.859035 -0.213844 -0.697378 0.923268 -0.300634 0.773337 -0.105152 -0.115125 0.949032 -0.612873 0.53223 0.858234 -0.674038 0.724111 0.478023 -0.31527 0.626345 -0.174691 -0.4229 0.551313 -0.583379 -0.296282 -0.584278 -0.285098 1.01763 -0.0011875 -0.671451 -0.551754 0.428319 -0.800459 0.434634 0.563594 -0.191462 0.624118 0.377719 0.580534 0.398498 -0.810758 -0.627618 0.257757 -0.418541 0.815003 -0.0336332 -0.24216 0.423008 -0.61479 0.456336 0.0775857 0.245347 -0.927986 -0.624363 0.714687 -0.246944 -0.25395 -0.604708 -0.197955 0.799219 -0.262716 0.215494 0.192584 -0.131492 -0.392437 -0.24887 0.65883 -0.869867 -0.95638 0.139816 0.428896 -0.729268 0.512174 -0.330728 -0.224206 0.295034 0.660373 0.558319 -0.254444 -0.939839 0.027982 1.15063 0.236791 0.0255123 -0.767724 0.156507 1.0701 0.194823 0.559308 -0.26 -0.149972 -0.839156 0.898553 -0.966732 0.0847605 -0.391905 -0.145955 -0.245195 -0.297282 -0.142283 0.886846 -0.869747 0.0550355 0.325591 -0.288472 0.679742 -0.540852 -0.79496 0.497447 0.340868 -0.588318 -0.65348 0.0494064 0.610697 0.305682 0.166731 -0.468781 0.143206 -0.905316 -1.11377 0.743297 -0.0163871 -0.91012 0.779571 0.05782 0.140392 -0.664445 0.884081 0.871519 1.92951e-05 -0.26781 0.748753 0.107943 1.03764 0.334926 0.875055 0.630096 0.702723 -0.830838 -0.112602 0.00788584 -0.464128 0.194849 1.02054 -0.868831 -0.501168 0.145241 -0.377688 0.602068 0.339348 -0.103616 0.515572 -0.594182 -0.204191 0.43511 0.594523 -0.932759 0.829156 0.593813 1.02041 -0.0892107 -0.640983 0.831492 -0.926935 -0.716608 0.0469235 1.02045 0.914535 -0.344248 -0.82807 -0.212427 0.668991 -0.371479 0.83303 0.533344 -0.356372 -0.72753 -0.301122 0.308684 0.923796 -0.908797 -1.00798 0.491906 -0.504934 -0.236622 -0.0491481 -0.878957 -0.1153 -0.238595 0.67994 -0.115518 0.618224 0.984719 -0.315046 0.646859 -0.847989 0.632195 0.581338 0.994666 -0.707587 0.695988 -0.292412 0.902941 -0.697877 -0.425202 0.463183 -0.0268033 -0.1028 -0.787131 -0.355791 -0.131182 -0.655848 -0.657749 -0.551088 -0.0123748 0.281891 0.374939 -0.0170958 1.04362 0.981011 -0.34352 -0.0852996 0.582689 -0.37948 0.586973 0.200568 -0.296456 0.151001 -0.256312 -0.346316 0.416492 -0.591326 0.336197 0.183686 -0.431185 0.763343 -0.387045 0.384815 -0.521132 -0.0826061 0.860135 0.465965 0.0576765 -0.933044 0.688114 0.759328 0.110672 -0.182378 -0.398324 0.124519 -0.226489 0.272693 -1.00277 -0.679299 0.825456 0.540501 0.493093 -0.470963 -0.285189 -0.739844 0.193347 -0.847616 -0.0712702 -0.415513 0.476965 0.405618 -0.552686 -0.837476 -0.00830292 0.183241 0.0548348 -0.0851169 -0.341607 -0.849145 0.0352601 -0.627708 0.938249 -0.820271 0.484156 -0.308786 0.368049 -0.884258 -0.835256 0.556786 -0.426682 -0.930884 0.232899 -0.831363 -0.320228 0.980823 -0.508854 0.927432 -0.751339 0.300442 -0.41577 0.726738 -0.394395 -0.00311173 0.868341 0.678317 -0.898693 -0.216094 -0.556307 -0.349793 -0.0921903 0.459302 0.030551 -0.105916 0.685432 -0.682372 0.67292 0.072419 -0.5876 0.857785 -0.291253 0.0649785 0.907061 0.87311 0.158365 -0.481801 0.785306 0.625204 -0.598714 0.917867 -0.174271 -0.0665021 0.606699 0.480519 0.879958 0.406862 0.0693518 0.93189 -0.801722 0.540115 -0.284026 0.201732 0.112134 1.08447 1.07737 -0.254312 0.990867 0.771008 0.933154 -0.462492 0.60593 -0.489459 0.434674 0.342991 -0.629679 -0.413592 0.841491 -0.932945 -0.801184 -0.745163 0.955702 -0.0242415 0.0936507 0.479697 -0.627869 -0.106628 -0.172519 0.305269 -0.317131 -0.122579 -0.189163 0.13463 -1.17446 0.926312 -0.00813222 1.04633 -0.547594 -0.223943 0.552779 -0.882903 0.0582615 -0.12165 -0.497412 -0.475782 -0.76872 -0.185335 0.0424473 -0.959502 -0.150542 0.223605 -0.730135 -0.158533 -0.83688 0.331268 -0.698164 -0.443893 -0.515197 0.249241 -0.997633 0.0756328 -0.849158 -0.103954 -0.588292 -0.841917 -0.213081 0.411275 -0.766456 0.27756 -0.75908 0.81204 0.4227 0.353322 0.0194277 -0.991587 0.873144 0.0807626 0.0515924 0.1205 0.286105 0.98017 -0.56045 0.617767 -0.137165 -0.36448 0.0113414 0.202292 0.300992 0.370578 -0.551273 0.304109 -0.647857 -0.428953 -0.824375 -0.155426 -0.274487 -0.176728 -0.893632 -0.150494 -0.926002 -0.672424 -0.472801 0.442399 0.624909 0.389546 0.56613 0.54487 -0.386961 -0.259736 -0.178826 0.919203 -0.299599 0.217864 0.52104 0.528229 0.818399 -0.491908 -0.30767 0.00944728 0.785051 0.0657452 -0.761114 -0.861411 0.568002 -0.643724 -0.0923421 -0.741821 0.318891 0.147777 0.238114 0.362434 0.490597 0.936846 -0.117253 0.156853 0.329961 -0.394552 -0.0476698 1.04394 0.285848 0.634609 0.929184 0.885754 -0.163618 0.357418 0.369778 -0.43278 0.759793 0.961807 0.511986 0.4993 -0.063803 0.648078 0.534218 -0.565997 0.945186 -0.693831 -0.137315 0.296601 0.625179 0.840065 -0.601014 -0.203395 0.54865 0.111806 0.757392 -0.304446 0.413508 -0.642594 -0.560818 -0.578791 -1.14639 -0.722229 -0.729573 -0.313203 0.544238 0.517905 0.175139 0.289618 0.457539 -0.135711 -0.109982 -0.642533 -0.677971 -0.725688 -0.188106 -0.442384 -0.279159 0.509192 0.394751 -0.884084 0.237431 0.662696 -0.123071 -0.206239 -0.18926 -0.349061 0.535658 -0.716004 0.0952858 -0.931895 -0.47579 
0.0945426 -0.610383 0.0469691 0.853535 -0.99407 -0.306098 0.11055 0.345098 -0.801909 0.830112 -0.869212 -0.377994 -0.799515 -0.546557 0.482748 -0.500718 0.161848 -0.00697407 0.908834 0.292495 -0.757695 0.6072 -0.870576 -0.0144669 -0.642356 -0.275344 -0.542583 -0.418557 0.852248 -0.443019 0.414875 0.00192247 0.00832039 -0.467823 -0.121667 0.0305044 0.286496 -0.950479 -0.563751 0.54359 -1.06119 -0.373928 -0.775289 -0.801723 0.161566 0.789765 -0.206583 -0.603601 -0.158107 -0.238669 0.793305 0.181768 -0.536387 1.13887 -0.60227 0.0121712 -0.111712 -0.128282 0.595903 -0.283878 0.343912 -0.0336772 0.673782 -0.638055 0.56732 -0.378918 0.461429 -0.0504431 -0.253035 0.974083 -0.465682 -0.253647 -0.332176 -0.173479 0.0188749 0.88082 -0.32934 0.86002 -0.682201 0.551816 -0.339507 -0.895056 -0.267403 0.175907 -0.87065 0.0215882 -0.933747 -0.127095 0.73791 0.559712 0.509412 0.0673273 -0.478412 0.178791 0.424906 -0.910914 0.839023 -0.24072 -0.158155 -0.630309 -0.225575 0.461057 0.200884 0.428897 -0.724468 -0.796663 0.286165 -0.0635443 -0.948768 0.591868 -0.518628 -0.289236 0.695843 0.219835 0.833783 0.776898 -0.81305 0.845465 -0.386664 0.893029 0.374227 -0.910515 -0.0729327 0.865078 0.239736 -0.676489 1.09522 0.0174583 0.187648 -0.0889768 0.470463 -0.993977 -0.574924 -0.221762 0.490033 -0.234262 0.0443058 -0.161002 0.765125 0.158418 -0.506336 -0.690721 0.926037 -0.767273 0.572324 0.816624 -0.924633 0.825018 0.714233 -0.256648 0.772579 0.142982 -0.113039 -0.246067 0.0718492 -0.809148 0.168028 0.0825817 0.287164 -0.591949 -0.949538 -0.177212 -0.572787 -0.511137 0.661558 -1.02219 0.31519 -0.235089 -0.124151 0.139392 -0.998497 0.447669 0.530768 -1.00911 0.757302 0.175949 0.866505 0.891748 0.0984929 0.678296 -0.103693 0.0939222 0.0514929 0.827366 0.89197 -0.847562 0.994411 0.00957771 0.124261 0.230307 0.366472 0.184306 -0.878112 0.862685 0.742198 0.850147 0.916842 0.126915 -0.314707 -0.146602 -0.659095 -0.264717 -0.643545 0.923009 -0.218195 -0.837334 0.162969 -0.313904 -0.907805 -0.76121 -0.636563 -0.132701 0.211575 0.299316 -0.439597 -0.0535361 0.288773 -0.542929 0.881208 -0.601358 0.678237 0.238643 0.573943 0.80029 0.140362 0.188983 0.482678 -0.159156 -0.636151 -0.746998 0.779322 -0.308519 -0.0139901 -0.870882 -0.399166 0.756853 -0.731791 0.718207 -0.57407 -0.640566 -1.0439 -0.204818 0.180624 0.126132 -0.953022 0.686526 -0.963772 0.299252 -0.891984 0.881855 0.662344 0.755473 0.0895611 0.205323 0.696783 -0.831236 -0.50079 0.153421 0.0928395 -0.0930724 0.459169 -0.0211386 0.653381 -0.499669 0.160713 -0.693017 -0.690045 0.491804 -0.91203 -0.201372 0.908011 -0.867116 0.685286 0.148134 0.283808 0.754542 -0.111175 0.372179 0.112744 0.0560742 0.313035 -0.172863 -0.132259 -0.374775 -0.88438 -0.519853 -0.293368 -0.332891 0.691633 0.866055 0.588566 0.164145 -0.0961835 0.300911 0.723569 -0.876358 0.667023 -0.888379 0.693522 0.835469 -0.0283519 0.656405 -1.0112 -0.325142 -0.139332 0.326642 -0.470979 0.849466 -0.0548191 0.835861 0.105977 -0.687508 -0.282697 1.02132 -0.2541 -0.219254 -0.611129 0.399484 0.394843 -0.902962 0.341188 0.0593146 0.327007 -0.689759 -0.581792 0.108417 -0.507614 -0.848856 0.273968 -0.767109 -0.962032 -0.70288 0.951829 -0.924567 0.0427566 -0.113618 0.482952 0.556079 -0.281119 -0.749055 0.282681 0.716562 -0.531159 0.84374 0.574889 0.124853 -0.44964 0.950191 -0.484767 0.936243 -0.971901 0.846553 0.0371774 0.23057 -1.00836 0.245895 -0.626647 -0.444569 0.468423 0.634122 -0.213933 0.499733 0.917563 -0.273231 0.558561 -0.0853324 0.567096 0.0114218 -0.537182 -0.721245 0.262954 0.704763 0.947725 0.684248 0.51201 0.486091 -0.227367 -0.974083 0.399792 0.259135 0.933266 0.398977 0.0795932 -0.107339 -0.282108 0.194877 -0.791733 0.135133 0.803112 0.783457 -0.17585 -0.355759 0.335838 -0.205604 0.423731 -0.042867 0.771921 0.0535602 -0.974267 -0.673798 0.430639 0.356874 -0.939944 0.400642 0.0932591 0.624483 -0.0608518 0.918395 0.702557 -0.609185 0.230765 0.855214 0.869966 -0.610757 -0.339455 -0.358514 0.642226 -0.0647025 0.789835 0.458621 -0.222359 -0.327047 -0.838048 -0.827421 0.538757 0.657071 0.201074 0.372147 -0.227841 0.288313 0.723078 -0.779477 -0.307492 0.830421 0.714233 0.878887 0.527986 -0.319014 0.997726 0.450623 0.292273 0.275933 0.114011 0.110044 0.552639 0.721566 0.696556 0.210625 -0.268162 0.562255 -0.264916 0.568553 -0.706186 -0.044444 0.806507 0.886287 -0.319828 0.0681264 0.316609 0.503766 -0.587738 0.0883758 0.79534 0.178434 -0.000574281 0.49373 0.0405057 -0.476618 -0.761495 -0.0701859 0.872654 0.367632 -0.957172 -0.103228 -0.596367 0.581911 -0.390851 -0.90819 -0.225943 0.331764 0.692216 0.38117 -0.262204 0.776483 -0.628905 -0.380125 0.738343 0.0353819 0.679018 0.0482299 -0.474492 -0.919839 -0.869751 -0.72482 0.212678 0.0897808 0.760949 -0.753963 0.606989 -1.04805 0.128301 0.432037 0.283013 0.134671 -0.707597 0.650183 -0.319907 -0.124838 0.715491 0.4253 -0.821467 0.331624 -0.10102 0.044135 0.181971 0.31818 0.717543 0.0295209 -0.590766 0.454166 -0.868668 -0.0100587 0.58706 -0.685721 0.373142 -0.0855268 0.513238 0.18626 0.205894 0.133304 0.15835 -0.64551 -0.382483 -0.506473 0.541339 -0.0379846 -0.802799 -0.726773 0.889481 -0.82479 0.78 -0.853143 0.37402 -0.268657 0.247804 -0.37874 -0.944078 -0.0288736 0.700415 -0.476601 -0.518868 0.889888 0.590751 -0.854472 -0.720955 -0.0254881 0.0638376 0.796038 -0.823556 -0.714846 -0.0237194 0.381785 -0.267653 0.686678 0.968856 -0.67832 -0.130444 -0.635505 -0.205028 -0.21518 -0.688822 -0.468371 -0.172132 0.63084 0.207866 -0.91855 -0.702061 0.317343 0.0993789 -0.935845 0.906208 0.652817 -0.976164 0.548288 0.856464 -0.63894 -0.421342 -0.030734 -0.79418 -0.193792 0.306036 0.281824 -0.705256 -0.929495 -0.0483212 -0.760873 -0.610435 0.646584 -0.504836 0.0603271 -0.685589 -0.293659 0.514744 0.118582 -0.682084 -0.302652 0.174757 -0.381243 -0.921234 -0.821124 -0.43838 0.809844 0.88497 -0.335348 0.4373 0.751587 0.03999 -0.96489 -0.260003 0.26073 -0.146165 -0.951719 -0.503333 0.101633 -0.893547 0.436808 0.323139 -0.505635 0.0817494 0.770787 0.525306 0.359699 -0.559326 0.00350069 -0.558125 -0.270193 0.678894 0.594602 0.329313 0.683991 0.865986 -0.996543 0.552299 0.799061 -0.278479 0.0995159 0.608719 0.814884 0.189837 -0.596058 0.130749 -0.907944 -0.44422 0.731075 0.293191 -0.278812 0.226831 -0.37208 0.222221 -0.684695 -0.550958 -0.202177 0.725335 -0.0582206 0.854884 -0.777882 0.773605 0.800531 1.03401 0.273291 0.351669 0.815186 0.196461 -0.0376675 0.620547 0.923932 -0.882319 0.285026 0.813567 0.375435 0.757062 -0.00666018 0.516586 -0.680637 -0.269308 -0.185869 0.0419633 -1.04062 0.489317 -0.688463 -0.632638 -0.967016 0.204648 -0.857533 0.0312231 0.0935873 -0.602789 -0.0493941 -0.168899 -0.583832 0.964792 -0.889887 -0.823048 0.166964 0.144143 0.851053 0.155746 0.326676 0.201636 0.0235522 -0.243572 0.0191661 -0.922449 -0.666394 0.387303 -0.143046 0.196438 -0.519555 -0.132193 -0.255655 -0.101393 0.267208 -0.198372 -0.921133 0.414054 0.824371 0.18131 0.843362 -0.348342 0.962117 -0.814087 -0.381206 -0.92338 -0.657761 0.779565 0.219046 -0.760983 -0.159167 -0.574588 0.278926 0.917578 0.260838 -0.629633 -0.994942 0.60856 0.776572 -0.118893 -0.180098 -0.730435 0.751211 0.559479 0.121285 0.00605094 -0.650479 0.182505 -0.588387 -0.827721 -0.634766 -0.771579 -0.205552 -0.709141 -0.622159 0.376792 -0.662867 -0.302946 0.136314 0.536146 -0.127037 -0.930006 -0.925963 -0.731479 -0.95752 0.396947 -0.301303 -0.895046 0.0564429 -0.476415 0.034618 0.924764 -0.158549 -0.110558 0.587835 -0.939255 0.954063 0.995784 0.255834 -0.627692 -0.825312 0.671409 -0.349007 0.0193939 -0.985588 0.210891 -0.422064 -0.421039 1.17824 0.801419 -0.853495 -0.226266 0.777591 -0.862039 0.0486596 0.824096 0.536835 0.794439 -1.02357 -0.34072 -0.61346 0.0796636 -0.366384 0.275224 -1.02842 -0.776462 0.337675 0.92576 -0.780276 -0.360536 -0.656016 -0.514141 -0.595801 0.0889245 0.553799 -0.526221 -0.795905 -0.963676 0.0684967 -0.798729 0.841894 -0.037384 -0.110074 0.552778 0.113133 -0.989393 0.423788 -0.28534 0.869668 0.472384 0.428232 -0.685077 -0.389772 -0.879941 0.641522 -0.369534 -0.60768 0.0278704 -0.392677 -0.329449 0.725994 0.0579362 0.227409 -0.845491 -0.877505 -0.26039 -0.373372 -0.664586 -0.238009 0.564927 -0.53281 -0.442854 -0.470046 0.361548 -0.910663 0.636898 0.370209 0.565487 -0.756461 0.105907 -0.137484 0.738473 0.506614 0.558583 0.868461 0.162206 -0.792038 -0.720126 -0.794927 -0.172198 -0.0443294 0.936342 0.848983 -0.870758 -0.926504 -1.0518 -0.149858 -0.308474 -0.715125 0.631657 -0.773015 -0.284458 -0.847652 -0.279557 -0.95319 -0.796343 -0.675318 0.381917 0.707625 -0.327839 -0.386077 -0.290597 -0.521242 -0.806685 -0.672147 -0.597608 0.406491 -0.415902 -0.269455 0.659914 0.460243 0.779818 0.689753 0.397071 0.953026 0.81731 0.353406 -0.194562 -0.488905 0.684254 -0.516941 -0.0789536 -0.422522 -0.186933 0.681963 -0.282405 0.131365 1.102 -0.858504 -0.263122 -0.309096 -0.316504 0.452743 0.17117 -0.121313 0.849002 0.641766 -0.646734 -0.520109 -0.580089 -0.939256 -1.01223 -0.798032 0.752505 0.386468 -0.844832 0.570216 -0.214171 0.00646615 -0.827215 -0.42654 0.759876 0.18148 0.2424 -0.522855 -0.235048 0.806647 0.417418 -0.302331 0.75208 -0.867181 0.306488 -0.630558 0.570596 -0.476495 0.312034 0.48558 -0.760264 0.737918 -0.977327 -0.291513 0.84993 -0.938295 -0.0384875 0.682635 0.528405 0.167819 0.282265 -0.65628 -0.76775 0.554458 -0.0686464 0.840173 -0.51027 0.996065 -0.850126 0.0674768 0.665161 0.49783 0.734421 0.372112 0.594434 0.0492644 0.76398 0.193057 0.612198 -0.0456965 -0.484328 0.669772 -0.245506 -0.373511 -0.533553 -0.383261 -0.295322 0.446888 -0.710598 -0.781093 -0.372748 0.576981 -0.432126 -0.128536 0.0490444 0.486626 -0.303852 0.520883 0.47256 -0.155741 -0.38811 0.109758 -0.694353 -0.70568 -0.570205 0.846554 0.276015 -0.869186 -0.026657 -0.129568 0.285909 
0.753989 -0.21482 -0.831588 -0.527157 0.317979 -0.160891 0.227053 -0.188014 0.17682 0.494173 0.487476 -0.197876 1.10144 -0.606169 0.885989 0.637331 0.134707 0.454006 0.127241 1.00692 -0.903763 -0.912527 -0.855924 -0.731486 -0.396942 -0.919618 0.603507 -0.207711 0.197741 -0.402584 -0.850848 -0.0940465 0.280673 -0.795547 0.265048 -0.638169 -0.0648093 -0.616501 0.192893 1.00382 0.777116 -0.432222 -0.311125 0.770578 -0.129965 -0.539316 0.286294 0.87326 0.810343 -0.663549 0.794576 0.811785 -0.46372 -0.938378 -0.83898 0.268686 -0.730574 0.887547 -0.865392 0.454687 -0.555346 -0.754798 -0.67851 0.683806 -0.839892 0.504816 -0.893058 0.275848 0.746955 0.141707 0.121484 0.472877 0.664691 0.740725 0.182084 -0.54389 -0.803672 -0.552839 -0.692373 0.96775 -0.255272 -0.941385 0.77757 0.274175 -0.911836 0.871776 -0.552397 -0.733428 0.668097 -0.517144 0.62995 -0.968445 -0.362636 0.8607 0.401729 -0.0746388 0.285552 0.623978 -0.874223 0.0660996 -0.21326 0.263725 -0.440099 -0.534408 0.0488082 0.770096 -0.0498676 0.255517 -0.772261 0.268174 0.218715 -0.0188904 0.335596 -0.0277951 -0.777133 0.408526 -0.158084 -0.347539 0.70487 -0.460283 0.19018 0.349834 -0.430782 0.819443 0.198329 -0.810635 -0.309546 -0.549666 0.757666 -0.167373 0.532368 -0.437994 1.08789 1.07139 0.00662353 0.114868 0.821125 0.936205 -0.650228 1.02854 0.172965 0.553347 -0.0185296 -0.508601 -0.479939 0.201325 0.873895 0.343784 0.627704 0.336756 0.626885 -0.231819 -0.36313 -0.844229 -0.49432 0.756918 -0.665787 0.24665 -0.75901 -0.95386 0.977216 0.633319 -0.532579 0.91672 0.596383 0.370115 -0.0646189 0.309536 0.201468 0.172742 0.221255 -0.73157 -0.365911 -0.884937 -0.45786 0.0546548 0.214536 -0.540151 -0.687228 -0.0402656 0.913389 -0.944872 0.819001 -0.310041 -0.644154 -0.557167 -0.484189 -0.322291 0.653978 -0.276772 -0.310259 0.589708 -0.907593 0.101068 0.47794 0.896235 -0.647824 -0.726411 0.0662596 0.49935 0.424667 -0.753641 0.740373 -0.983951 -0.65044 -0.6066 0.0402304 0.526544 -0.18429 0.309349 -0.504324 -0.266134 0.355858 -0.752136 0.328722 0.625544 -0.395583 0.742247 -0.790978 -0.822844 -0.617487 -0.184046 0.453216 -0.395759 0.838228 0.0479942 -0.573313 -0.774616 0.352377 0.519091 0.777057 -0.194879 0.818012 0.569874 -0.143304 -0.804664 0.991167 0.9231 0.748255 -0.179225 0.231428 -0.795144 0.533013 -0.402237 -0.549403 -0.156222 -0.791148 0.040309 -0.396083 -0.519899 0.259728 -0.185018 0.266734 -0.0686525 0.556716 0.0771027 0.906751 0.998948 0.302679 0.275629 0.523664 0.0877279 1.07445 0.321069 -0.361554 -0.0880119 0.496063 -0.398567 -0.193043 0.222165 0.420386 1.05138 0.420126 -0.0510692 -0.381202 0.849626 0.596948 -0.338106 -0.289128 -0.838716 0.0638788 0.896257 0.102586 -0.725891 -0.182945 -0.274069 0.401171 -0.311707 -0.366572 -0.410847 0.841406 -0.988115 0.582917 0.82201 0.2457 -0.889052 -0.368945 -0.368845 -0.394707 0.330775 0.755555 0.924963 0.158885 -0.0432766 -0.339925 0.827687 -0.161146 -0.541414 -0.433491 0.626855 -0.299728 0.769044 0.668059 0.92813 -0.888039 -0.527618 -0.381298 0.479494 0.133377 0.217425 0.815298 -0.0705619 0.211657 0.601219 -0.354362 -0.669396 0.564234 0.222142 -0.0760438 -0.849845 -0.474125 -0.363598 -0.946181 0.778624 0.677443 -0.208173 0.561123 -0.531171 0.256603 -0.868444 -0.912937 0.897368 0.805541 0.669007 0.739382 0.815433 -0.952592 -0.735711 0.199563 0.0853017 0.376058 0.152993 0.944827 -0.494748 -0.323534 -0.391574 -0.150157 -0.728661 0.866117 0.800912 -0.542962 -0.572455 -0.527185 -0.463449 -0.76819 -0.825333 0.354509 0.806702 -0.362614 -0.433019 0.911929 -0.265708 -0.53858 0.698276 -0.607065 -0.809522 0.503754 -0.497076 -0.490302 -0.422388 0.572014 0.872099 0.846618 0.463794 -0.682102 -0.464443 -0.926862 0.19495 -0.176589 0.977458 0.00926586 0.278091 -0.611038 0.465897 0.801439 -0.404469 0.614569 0.130801 -0.602444 -0.733506 0.697993 -0.69014 -0.0229645 -0.856518 1.0283 0.389556 -0.8679 0.294473 0.610646 -0.428024 -0.997828 0.129518 -0.526064 0.940033 -0.328288 -0.215716 -0.588142 -0.315353 0.900271 0.138087 -0.434634 -0.187159 -0.677396 -0.161863 -0.83457 1.0025 0.319756 0.671438 0.0385918 0.615164 0.71451 -0.485491 0.710564 -0.25699 -0.306681 0.730883 1.02481 -0.0695262 0.137938 0.805534 0.674169 0.292489 0.030765 -0.837584 0.224062 0.695971 -0.0534416 0.628261 -0.873411 -0.199298 -0.256403 -0.104934 0.506874 -0.0601883 0.58499 0.622871 -0.0912003 -0.114469 0.267627 0.904149 -0.527464 0.0760905 -0.495366 -0.731129 0.773747 0.172193 1.032 0.828383 -0.906213 0.110708 0.538868 0.68184 -0.704662 -0.551627 0.73119 0.420108 -0.959497 -0.420722 -0.0520892 -0.689213 0.310269 0.608951 0.128055 -0.16404 -0.437503 -0.256333 -0.506047 0.497983 0.663918 0.796843 0.435422 -0.831201 -0.130323 0.933291 -0.565993 -0.318647 0.111405 -0.569702 -0.533978 0.193617 0.517306 0.965192 -0.156144 0.802519 -0.599527 -0.364867 0.282283 -0.7055 0.197634 -0.782465 -0.251009 -0.543368 0.767765 0.890129 0.300165 -0.635842 -0.343146 0.813299 0.87264 -0.692356 0.598407 0.282613 -0.541178 -0.520618 0.231899 -0.0927187 0.162237 -0.641992 0.339778 0.630401 0.528903 -0.158385 0.581678 -0.641883 -0.591919 0.779667 -0.254976 0.654754 -0.775915 0.883431 0.895089 0.063964 -0.582537 0.660321 -0.104458 0.655847 0.942879 0.447787 0.384109 0.709594 0.665159 -0.125708 -0.120471 1.01165 0.248954 1.01095 -0.183233 -0.699028 -0.730276 -1.05886 0.723628 0.724699 -0.182771 0.330819 1.01102 0.366074 0.214798 -0.0837237 0.19034 0.597769 -0.090361 0.106415 -0.340064 0.331793 -0.228551 0.552788 -0.254373 -0.340628 -0.0277472 -0.684054 -0.737124 -0.487534 0.04394 0.10095 -0.517723 -0.742891 0.0763058 0.263508 -0.469889 0.315366 0.311937 -0.646545 0.0247875 -0.909971 0.69597 0.0417192 0.445034 -0.148539 0.870194 -0.450892 -0.634648 -0.319931 0.563778 -0.0898642 0.889843 -0.789143 -0.650065 -0.244614 -0.199319 0.23878 -0.00744316 0.0799031 0.786384 -0.911588 -0.762533 -0.696175 -0.637059 0.331572 0.585185 -0.0639025 -0.345757 -0.118126 0.277275 0.686755 -0.0353141 -0.0618214 -0.301518 -0.588278 0.744963 -0.49148 -0.0912421 -0.923521 0.154014 -0.471129 0.0309922 -0.0920329 -0.303175 0.366152 0.806862 0.473094 -0.423604 -0.180622 -0.43933 -0.647044 -0.117305 -0.224142 -0.370204 0.244682 -0.892265 -0.78238 -0.832646 -0.219887 0.10839 0.451783 -0.52795 -0.897584 -0.607981 0.172988 -0.509933 -0.85854 0.687234 0.431152 -0.763257 -0.10652 0.921861 0.0517694 0.744881 -0.619852 -0.515886 0.65799 0.931884 0.0453474 -0.598466 -0.56552 0.344553 0.207648 0.152798 0.912225 -0.618085 0.168346 -0.962262 -0.542576 0.866306 0.0719576 0.833182 -0.745453 0.101331 -0.840348 0.246711 0.544379 -0.760284 -0.013712 -0.0887733 -0.590577 0.791081 -0.209436 0.622837 0.6796 0.267814 -0.87867 0.316831 0.199577 0.171506 0.720622 0.409953 -0.525058 -0.0860414 -0.265664 -0.73629 0.153667 0.759184 -0.741485 0.567644 0.588478 0.294877 0.365332 0.815013 -0.634522 0.509584 0.161486 0.894498 0.710332 -0.838338 -0.193378 -0.888925 0.878216 0.496718 0.655294 0.471745 -0.337693 0.680391 -0.310409 0.753589 -0.272616 -0.714014 0.261366 0.119124 0.100395 0.912031 0.415686 -0.715791 0.722746 0.709923 0.887267 0.357574 0.026942 0.275042 0.191802 0.399714 -0.230767 -0.659329 0.300922 -0.528775 -0.53639 -0.923692 -0.417915 -0.702782 0.511159 -0.815131 0.735083 -0.906573 0.860075 -0.569268 0.737312 -0.351747 -0.229061 0.194749 0.726414 0.821947 0.105982 0.111961 -0.920636 -0.207967 -0.195779 0.920435 -0.882881 0.840864 0.232423 0.295984 0.249031 1.00133 0.650453 -0.444003 -0.496218 -0.880456 -0.363611 0.0633434 -0.579294 -0.847065 0.280119 -0.825942 -0.656493 0.165378 -0.584761 -0.980797 0.522 0.210083 0.292665 0.320578 -0.00471548 -0.692739 -0.619716 0.0210582 0.0207134 0.120921 -0.0955606 0.0715451 -0.139591 -0.964795 -0.712642 1.02766 0.962071 0.863896 -0.498296 -0.599261 0.91789 -0.0426441 0.40715 -0.7228 0.162742 -0.374782 -0.608362 0.417661 0.750353 -0.0388099 0.594876 0.381293 -0.815136 -0.133144 -0.29828 0.184985 0.174922 -0.147134 -0.820887 -0.804652 -0.841654 -0.0530166 0.0945145 -0.137669 -0.06075 0.360436 -0.146566 -0.13373 0.188903 0.32706 0.224612 0.0870622 -0.620285 -0.389662 0.323576 0.552391 0.240795 0.696684 -0.104397 -0.111574 -0.420712 -0.59511 -0.831863 -0.331438 0.173447 -0.215757 0.749019 -0.748202 0.740133 0.839557 -0.665514 0.803926 -0.199388 0.464196 -0.30109 0.77501 -0.142152 0.595422 -0.315693 -0.910406 -0.0583404 0.898911 0.144146 0.313311 -0.470768 -0.519121 -0.148738 0.762398 -0.82792 0.695344 -0.417743 -0.323554 -0.97138 -0.304191 0.354946 0.222895 0.520854 0.149654 0.522833 0.230247 -0.0709234 0.788673 0.0123296 0.716714 0.22437 0.647022 0.431472 -0.963243 0.219561 -0.899745 -0.856113 -0.790517 1.08278 0.329333 0.519628 -0.398711 0.810265 -0.63809 -0.647164 0.958522 1.05442 -0.274099 -0.51826 -1.06036 0.501818 -1.10261 0.233413 -0.00525034 -0.0157322 -0.293433 -0.763783 -0.986208 -0.417227 0.284425 0.688758 0.797329 -0.082556 0.10348 0.806566 -0.896719 0.172129 0.878 -0.784304 0.148585 -0.00644941 0.539006 0.667982 -0.145923 0.950651 0.956172 -0.358764 0.950454 -0.166978 0.389949 1.04502 -0.539411 0.449087 0.426474 0.613271 -0.502525 -0.801984 0.875477 -0.498884 -0.227707 0.14856 -0.989719 -0.425412 1.09852 0.303046 -0.758867 -0.978507 -0.689267 -0.931624 -0.791865 0.422687 0.142185 0.826889 0.0673713 0.955838 0.758634 0.000391631 -0.309808 0.665034 0.838319 -0.914696 0.696501 -0.770534 0.431806 0.0446 0.757368 0.872349 0.192137 0.584075 -0.631848 0.938082 -0.310103 -0.543289 -0.601126 -0.324621 0.66549 -0.340511 -0.264822 1.01113 -0.236619 -0.0219603 0.482789 0.929737 -0.169843 -0.433382 0.897089 -0.421042 0.55887 -0.391805 -0.736936 0.3885 -0.315226 0.952841 0.563967 -0.936386 -0.0604215 0.268265 0.866055 -0.903459 -0.16568 -0.771951 -0.921038 0.398185 -0.324575 -0.580829 -0.562471 
-0.697397 0.0480564 -0.096421 -0.742531 0.756786 0.827756 0.706178 0.673921 -0.351506 -0.739666 0.587528 0.243934 0.83313 -0.79041 0.517585 0.183654 -0.143613 0.447507 -0.22844 -0.0665929 -0.57151 -0.89877 -0.145607 -0.426753 -0.0219423 0.0671511 -0.404677 -0.491502 0.707688 -0.0125162 -0.319494 0.977733 -0.95669 0.575328 -0.776847 0.745307 0.419141 0.972093 0.461994 -0.958838 -0.791341 0.0286299 0.272471 1.03268 0.226219 -0.221959 0.229825 -0.901937 -0.758986 1.01689 0.0384862 -0.321222 -0.875947 0.898835 0.255555 0.09888 -0.0350461 0.846934 0.612468 -0.320031 -0.15533 -0.69678 -0.317826 -0.14442 0.863691 -0.101577 -0.389793 0.239365 -0.170695 -0.968672 0.248668 0.00672179 0.0258046 -0.514056 0.00419937 -0.783195 0.229824 -0.800157 -0.722246 0.431983 -0.822144 0.280085 -0.925931 -0.734773 0.140497 0.291205 0.334715 -0.923955 0.111646 -0.0793089 -0.272669 0.927616 0.216752 0.385793 -0.223954 0.0597409 -0.732383 0.34847 -0.748152 0.0478192 0.352219 0.471186 1.02523 -0.651307 0.928485 0.000769978 -0.463155 0.129661 0.175081 -0.21182 -0.463068 0.325135 1.0406 -0.416874 0.585833 0.167514 0.872784 -0.104348 0.227732 -0.0433531 0.788516 0.927141 -0.145781 -0.0462817 0.24229 0.560151 0.934328 0.43559 -0.142416 -0.866982 -0.557302 -0.823116 0.542157 -0.594152 -0.544296 0.429545 0.368866 -0.048515 -0.481854 -0.500214 0.697787 0.0131941 0.745162 0.670546 0.528716 0.274557 -0.218426 0.33968 -0.891609 0.947479 -0.76851 0.832273 0.809976 0.0178042 -0.28208 0.00329502 -0.469322 -0.395024 -0.595925 0.355703 -0.25425 -0.161996 0.489352 -0.766873 0.259944 0.985086 0.702716 -0.400386 -0.0838544 -0.796677 0.0901083 -0.39517 0.203932 -0.142786 -0.711731 -0.251901 -0.85277 0.0853337 -0.905192 -0.735097 0.0420861 -0.667753 -0.899309 -0.153442 0.346761 -0.184674 0.855582 0.884789 0.427642 -0.733009 0.264984 -0.859006 0.0901534 -0.252591 -0.616556 -0.693394 -0.305993 -0.951999 -0.122919 0.578284 -0.783438 0.931379 -0.852689 0.38528 -0.245591 -0.598599 -0.902789 -0.114692 0.469436 -0.845077 0.0910478 -0.546695 -0.551244 0.153328 0.270508 0.766144 0.939263 0.0966972 0.622187 0.354689 0.356466 -0.136531 0.472032 -0.574093 0.594281 0.817682 -0.315682 -0.76158 0.838316 0.533227 0.788346 1.02557 0.435957 0.907013 0.38219 -0.835382 -0.71733 0.451782 -0.00041925 0.702721 0.580843 -0.93546 -0.848513 1.01419 0.214334 0.396898 0.764288 0.125876 -0.534172 0.35872 -0.566026 0.770722 -0.84849 0.83588 -0.882494 0.672091 0.603132 -0.249767 0.870556 0.40834 -0.77945 0.596004 0.363189 0.615226 0.465061 -0.318497 0.713095 0.680984 -0.908572 -0.332532 0.303968 0.594015 -0.342724 0.424936 0.58626 0.834638 -0.243201 0.285536 -0.101168 0.158008 -0.420396 0.270455 -0.137119 -0.315633 0.0590519 -0.0668889 -0.678975 -0.370991 0.690026 -0.818266 -1.00695 0.855808 0.792073 0.394513 0.509349 0.23953 -0.910232 0.227482 -0.0777631 -0.816902 0.908274 -0.729261 0.821219 -0.387772 0.707817 0.419634 -0.539622 -0.526077 -0.28555 0.368497 0.635455 0.288555 -0.366551 -0.507153 0.976447 0.697598 0.431063 -0.697445 -0.667625 0.0869947 -0.532255 -0.666693 -0.04961 -0.783653 0.689325 -0.578441 0.415156 0.735647 0.614275 -0.697381 0.883983 0.488583 -0.460609 0.671225 -0.93637 -0.770178 0.0841274 -0.501507 -0.343806 0.740357 0.828567 -0.746775 -0.000466346 -0.56738 -0.283306 -0.0534095 -0.898475 -0.876026 0.230397 -0.584819 0.18733 0.677449 -0.268065 -0.900072 0.845593 -0.628826 -0.506094 0.232161 -0.921749 -0.92135 0.505075 0.909937 0.537327 1.01747 0.576769 0.573119 -0.803234 -0.398422 1.03395 -0.184719 -0.676064 0.835482 0.0366539 0.27008 -0.75972 0.73033 -0.806378 -0.697745 0.807535 0.372245 -0.353423 -0.0754578 -0.0308696 0.303351 -0.0274102 -0.237094 0.63456 0.434575 0.933585 0.65134 0.442743 0.3976 0.546165 -0.083559 0.348544 0.0563875 -0.552115 0.500321 0.576585 -0.594375 -0.757287 0.870001 -0.78268 0.257071 0.0915736 -0.607406 -0.0742869 0.220551 -0.369804 -0.329107 -0.473068 0.230017 0.548161 0.450008 -0.500861 -0.511213 -0.781908 -0.877632 0.876315 -0.90309 0.788043 0.36009 0.535554 0.319305 -0.709744 -0.110866 -0.622585 -0.259953 -0.596604 0.998544 0.187928 -0.309692 0.880673 0.417396 0.96087 -0.0184696 0.819258 -0.104129 -0.794396 -0.556044 0.561261 -0.277645 0.672802 0.112708 -0.819647 -0.818258 0.610083 -0.630087 -0.70971 0.496015 -0.523907 -0.962416 -0.18236 0.973473 0.327782 0.0749945 -0.16157 0.669387 0.780468 0.207228 0.645477 -0.0542236 0.882909 0.498291 -0.665702 0.785131 -0.579367 -0.904657 -0.357409 -0.412202 -0.490129 -0.825596 0.285468 -0.842023 0.26024 0.476965 -0.679027 -0.149437 0.789063 -0.409399 -0.670021 -0.772608 -0.42025 0.0972857 -0.826943 0.867523 -0.866683 -0.0255205 0.499549 0.85363 -0.858775 0.0930758 -0.229988 0.960308 -0.47079 0.0449939 0.707762 -0.0878223 0.122339 -0.676686 0.468286 0.578995 -0.529922 -0.269361 0.713857 0.690642 -0.871637 0.983729 -0.529018 0.847149 -0.506211 -0.262311 1.03454 0.0338238 0.782793 -0.836509 -0.160073 0.867173 0.077099 -0.704441 0.699508 0.139393 0.306756 -0.612374 0.0547014 0.793873 0.390943 -0.310416 -0.363513 -0.55073 -0.0108948 -0.91765 0.973164 0.387559 -0.252034 0.625529 0.0200305 -0.186653 0.546104 0.443646 -0.3874 0.993206 -0.865353 -0.397296 0.0197406 0.906137 -0.275701 0.797583 0.775194 0.82486 -0.883398 0.450674 -0.0220115 0.431314 0.846244 -0.962083 0.239136 0.248243 -0.230243 0.916496 0.709641 0.771021 1.00903 0.698555 0.174345 -0.233746 0.330927 -0.811125 0.569404 -0.133165 0.631348 -0.8129 -0.134853 0.775802 -0.198659 0.859269 0.668119 0.530323 0.661212 0.380183 0.316734 0.739686 -0.175661 -0.738194 0.146812 -0.365201 -0.735022 -0.648874 0.860373 0.0120933 -0.747008 0.543868 -0.244004 -0.796651 0.181481 0.870333 -0.0689821 -0.52618 1.02969 -0.524291 0.315975 0.636473 -0.339488 -0.804696 0.495822 0.522831 0.996779 0.0409895 -0.0658816 0.619994 -0.604688 -0.799696 0.331686 0.179265 -0.577044 -0.561668 0.773537 -0.375146 -0.251021 0.587118 0.610451 -0.0571041 0.066679 -0.694623 0.106715 -0.791355 -0.842248 1.01088 -0.349052 -0.865638 -0.557428 0.927441 0.731205 0.0571921 1.05882 0.0889362 -0.597543 0.980251 -0.949406 0.279574 0.566546 -0.594013 0.426869 -0.146705 0.521964 0.799843 0.232624 0.25451 -0.593703 0.905562 -0.242557 0.936705 -0.196547 0.782019 -0.799587 0.871814 0.921111 -0.705845 0.824364 -0.450375 -0.623261 -0.788174 -0.577847 -0.940305 0.208727 -0.574363 0.0866314 0.573432 -0.633461 0.0927832 -0.193712 0.886396 0.487519 -0.777323 -0.301414 -0.0490348 1.02629 0.956528 -0.76923 -0.589621 0.877675 -0.00198556 -0.644967 -0.313644 -0.206013 -0.433505 -0.434105 -0.244036 -0.127215 -0.597601 0.311062 0.257254 -0.374723 0.748908 0.323728 0.831827 -0.83096 -0.595133 0.408989 -0.458456 0.503602 -0.779604 -0.569184 -0.0413389 -0.571745 0.138619 0.918818 -0.569922 0.0682603 -0.877296 -0.200252 -0.0975075 0.0812703 0.120021 0.554057 0.845133 0.663838 -0.902707 -0.413521 -0.48954 -0.527432 0.84353 0.711447 0.0425712 0.55857 0.00132901 -0.150441 0.70292 0.483128 -0.664746 -0.659361 -0.00149609 -0.446209 -0.252106 0.814118 -0.147001 0.756853 0.684054 0.224063 -0.236235 0.76818 0.984407 0.627332 -0.183108 0.0668003 0.143784 -0.37847 -0.319105 0.189057 0.145979 0.127094 0.600597 -0.0499394 -0.200947 -0.374805 -0.518213 0.76883 0.421682 -0.859299 0.110871 0.615821 -0.666177 0.945092 1.02189 -0.107397 0.670355 -0.206357 -0.407513 0.318862 0.975892 0.315964 0.0564109 0.898889 -0.119151 0.798961 -0.0782035 0.980734 -0.646018 0.531001 0.102233 0.442542 -0.396465 -0.347972 -0.645749 0.333026 0.216364 -0.222289 0.0794257 -0.420224 -0.133388 -0.864623 -0.859132 0.136841 -0.976895 -0.894708 0.991677 0.654163 -0.145524 -0.462546 -0.0718344 -0.178991 0.828772 0.929327 -0.340337 -0.284896 0.755323 0.608487 -0.326344 -0.88756 0.136843 0.77138 0.560211 0.754326 -0.572947 0.918106 0.124151 0.64908 -0.292645 -0.786872 -0.759332 0.58641 -0.635798 -0.605188 -0.278905 -0.618122 -0.505371 -0.283477 -0.957978 0.331558 0.238521 -0.0503822 -0.879885 0.0513155 -0.110115 -0.174185 0.765465 -0.358383 -0.604387 -0.601607 -0.289183 0.493203 -0.864992 -0.763753 0.217432 -0.4565 -0.864221 -0.668998 -0.829558 -0.178353 -0.508905 -0.644143 -0.648178 -0.179513 -0.284141 0.150368 0.2793 0.287427 0.841316 0.315872 -0.362256 0.0985864 -0.73461 -0.345133 1.05594 0.0607301 0.4202 0.750769 0.6296 0.779568 -0.898273 -0.706556 0.228099 -0.792795 -0.49985 -0.585015 -0.299067 -0.416101 -0.316029 -0.19288 0.343584 0.134662 0.122567 0.677445 0.928907 0.824016 -0.310395 0.0790786 -0.0296505 -0.610141 -0.769062 0.443203 0.323525 -0.674405 1.02825 0.281488 0.291741 0.389731 -0.00850436 -0.146495 0.111217 0.0439696 0.124208 -0.698543 0.204345 0.580431 -0.350062 0.836485 -0.93152 0.248187 -0.410915 0.392456 -0.624295 0.673287 -0.0221853 -0.75433 0.426539 0.623251 0.255793 -0.675185 0.941181 0.422456 0.710713 0.207031 0.691046 0.68039 -0.550752 -0.056916 0.029383 0.4358 0.80682 -0.884884 -0.580491 -0.0606146 -0.553492 0.653777 -0.499477 0.102484 0.487617 -0.404292 -0.612897 -0.914257 0.9916 -0.233756 0.769329 0.00630919 0.0257024 0.207718 -0.3586 -0.708292 0.545982 -0.404133 0.712011 0.251233 0.797715 0.406905 -0.0623631 -0.770678 -0.665379 0.946566 0.650506 -0.856672 -0.909626 -0.91936 0.0634288 -0.484759 0.712979 0.523228 0.574271 0.16094 -0.916047 0.926405 0.221242 -0.943059 -0.325947 -0.019984 0.0411823 0.676016 -0.867579 0.627274 0.911482 0.643537 -0.811729 0.700896 -0.0283319 1.06281 0.103858 0.903775 -0.689837 0.435144 0.86704 0.840526 0.467206 0.828982 0.889517 -0.528201 -0.716914 0.554478 0.936218 0.798546 -0.329048 0.990642 0.695231 0.861497 0.997656 -0.682735 -0.220495 -0.0254359 0.931341 -0.128477 -0.417046 0.824866 -0.511161 -0.162409 0.48985 0.433661 -0.342988 -0.671182 0.0712751 -0.196888 0.599701 -0.248878 -0.426186 -0.0623109 -0.544364 -0.569048 
0.347764 -0.284186 0.901476 0.28802 -0.522223 -0.463753 0.232664 -0.87094 -0.673816 0.15527 -0.626445 0.0605405 -0.912152 -0.737138 0.883782 -0.403755 -0.986819 -0.687171 0.283369 0.356375 0.595887 0.862016 0.603159 -0.409066 -0.411222 0.123039 0.26859 0.0989392 -0.946568 0.716757 0.456997 0.351285 -0.655977 0.271785 -0.394325 -0.157937 0.82689 0.856254 -0.0621473 -0.853455 0.00889091 0.305955 0.202558 0.0885257 0.558591 0.0823716 0.683394 0.574299 0.397635 -0.047111 -0.087017 -0.0203381 -0.19259 -0.491505 0.54108 0.375935 0.614567 -0.190155 -0.523199 0.668959 -0.470716 0.908268 0.0810689 -0.064299 0.268467 0.743902 0.78398 0.107624 0.608244 -0.27097 0.25608 -0.381554 -0.962244 -0.538586 0.710047 0.59838 0.551084 0.400666 0.185049 -0.044227 -0.640311 -0.899957 0.937442 0.16578 -0.448704 0.44244 -0.506774 -0.799486 -0.692767 0.0218239 0.896539 -0.150224 -0.0144382 -0.00210417 0.80761 -0.723764 -0.227478 0.621089 0.406511 -0.62095 -0.652606 -0.338996 0.00782809 -0.603535 0.132475 -0.271231 -0.989113 -0.31823 -0.87479 0.193597 0.646339 -0.509137 0.307154 0.584029 0.665285 0.921313 0.103233 -0.759723 -0.792842 0.541456 0.391277 -0.858284 -0.69316 -0.692124 0.138138 -0.826777 -0.357759 -1.04658 0.962633 -0.744117 -0.448832 -0.596166 -0.031208 0.613422 -0.145121 -0.842288 -0.629028 -0.105444 -0.120448 -0.431726 -0.841565 -0.401272 0.125949 0.524273 -0.743914 -0.136229 0.542161 0.456622 0.200753 0.78954 -0.0227323 -0.412227 0.991385 0.401978 0.0127924 0.247853 0.699098 0.77894 0.335394 0.615178 -1.04535 0.805131 -1.00941 -0.108159 0.434413 -0.139726 0.063369 0.797789 0.750096 0.938278 -0.640371 0.900318 -0.473211 0.481623 0.423203 -0.2146 -0.652054 -0.0516317 -0.774959 0.531743 -0.270499 0.193736 -0.90689 -0.295338 -0.416827 0.106466 0.958738 -0.712609 -0.10388 0.269826 0.963565 -0.0957286 0.158097 -0.992683 0.849835 -0.396457 -0.124231 -0.0776108 -0.595592 -0.372805 -0.136574 -0.233203 -0.469427 0.392078 -0.744231 0.961028 -0.809948 -0.389233 -0.084327 -0.579628 -0.837366 0.665952 0.575857 -0.780227 -0.678189 -0.806809 0.351093 -0.68263 -0.507361 -0.728992 0.643257 -0.521694 0.199076 -0.175355 -0.483427 0.0788301 0.439439 0.390962 -1.00128 0.854039 -0.970745 -0.125674 -0.369053 -0.430345 -0.718473 -0.102559 -0.473549 -0.545249 0.503895 0.450454 -0.0997862 0.651771 0.109931 -0.474199 -1.06625 0.498707 -0.22192 0.369263 0.884652 0.322904 0.615605 0.517987 0.795399 -0.127258 -0.60007 -0.64523 -0.878806 -0.940429 0.96542 -0.786561 0.965607 -0.951923 0.141297 -0.345136 -0.351734 0.453469 0.579774 0.244922 0.987168 0.151366 -0.241036 -0.0607636 -0.132485 0.932493 0.566321 -0.097435 0.532453 -0.603851 -0.688223 0.473581 0.786103 -0.944182 0.119188 0.701209 0.0535493 0.644101 -0.811765 0.129344 0.619673 -0.927936 0.311106 0.555173 -0.908761 -0.527942 -0.773989 -0.220794 0.892987 0.774285 -1.0067 0.900415 -0.0559763 -0.22623 -0.15134 0.771551 -0.330616 -0.642258 -0.330188 -0.802443 -0.191646 0.0146998 0.707583 -0.420688 0.0800537 -0.171873 -0.71263 -0.860198 -0.494586 -0.480258 0.335965 -0.837284 -0.384949 -0.302523 0.775103 -0.23356 0.176699 -0.990283 0.548775 0.0955428 0.811356 0.569413 -0.00132996 -0.237551 -0.646585 0.857967 -0.402721 0.0860345 -0.725133 0.322108 0.332276 0.0797083 -0.680264 0.025066 0.634318 0.437058 0.882085 -1.04059 0.589847 -0.60987 -0.529774 -0.0585032 -0.423722 0.108589 0.670369 -0.631275 0.886244 -0.154242 -0.611448 0.446049 -1.04901 -0.788784 0.0234161 -0.0422866 -0.0177988 0.385597 -0.187441 0.561724 -0.542026 0.0998463 -0.0858838 0.819593 -0.804451 0.287492 -0.0970089 0.896835 -0.217 -0.143344 0.925041 -0.572837 0.236235 -0.612723 0.362806 0.869921 0.553149 0.0759912 -0.582823 0.656733 -0.86146 -0.101595 0.153946 -0.85567 0.163187 -0.76277 0.136231 -0.822514 0.653782 -0.978783 0.820342 -0.807854 0.182897 -0.213471 -0.930852 0.442104 -0.825275 0.0734486 0.440262 0.00952303 0.982098 0.420844 0.500863 0.319294 0.908254 -0.0441056 0.33591 0.608097 -0.815354 0.755314 0.176744 -0.757204 -0.426207 -0.695958 -0.64492 0.70451 -0.450593 0.522281 0.889611 -0.832576 0.524342 0.713955 -0.637432 -0.271244 -0.461753 -0.580537 -0.865977 -0.344249 0.48861 0.569984 0.666864 0.503937 0.0233388 0.205372 -0.142762 -0.0385174 -0.807209 -0.80065 -0.397044 -0.577225 0.972654 0.82717 -0.309726 -0.399402 -0.814974 0.107191 -0.622045 -0.235786 -0.340911 -0.694076 -0.0286208 -0.789201 -0.948647 0.368534 -0.0504746 -0.399971 0.84651 0.147315 0.31539 0.395443 -0.248853 0.0168257 -0.13261 0.76387 -0.802216 0.7619 -0.245955 -0.571889 -1.02579 0.359439 -0.158338 -1.03658 0.203798 0.565493 -0.418149 0.404295 -0.327787 -0.0445911 -0.836191 0.327817 0.256551 0.119527 0.519254 0.287971 -0.508228 -0.525079 0.883078 -0.673999 0.593805 0.195879 0.722681 -0.627121 -0.825739 -0.356639 -0.804851 -0.506774 -0.53475 0.0217005 -0.0101668 -0.507122 -0.577483 0.822837 -0.548292 0.632041 0.433893 0.0869045 0.213636 -0.676579 -0.740899 0.470309 0.702301 0.570278 -0.34441 0.291541 -0.0950918 0.181552 0.800679 -0.138216 0.576085 0.473832 -0.881726 0.351998 0.905278 -0.589728 -0.903746 -0.797771 0.00315027 -0.387485 0.274284 -0.952182 0.170584 0.745801 -1.02834 0.717439 0.523343 0.552289 -0.0428913 -0.256652 0.79055 0.130488 -0.870562 0.463089 -0.330243 -0.2474 -0.23509 0.606041 0.941966 -0.47121 -0.565015 0.51894 -0.994373 -0.412737 -0.087998 0.898864 -0.0391327 -0.0479497 -0.903135 -1.06031 0.546296 0.405463 -0.95766 -0.22863 0.181193 -0.956319 -0.480292 -0.287636 0.626765 0.516546 0.462752 0.452681 -0.335885 0.644609 -0.0178646 0.409873 -0.517879 0.776974 0.0432339 -0.538094 -0.654828 0.517926 -0.984626 -0.614673 -0.884915 -0.0624428 -0.659999 0.137251 0.925685 -0.523937 0.13171 0.548458 0.87239 0.164969 -0.701585 0.0918228 0.237381 -0.140367 0.822818 -0.129895 -0.62986 0.312367 -0.649398 0.0785247 -0.0144818 0.348615 -0.514656 0.460265 0.118138 0.52019 0.916237 0.456987 0.0317029 0.925975 0.837266 0.130997 -0.152795 -0.833004 -0.733868 -0.220656 -0.345165 0.415154 -0.708592 -0.419419 -0.373921 -0.285872 0.735442 -1.05153 0.642792 0.613705 -0.139304 -0.983128 -0.0673827 0.217566 0.140922 -1.02857 -0.256524 0.843585 0.650808 0.956736 0.419439 0.624928 0.472006 -0.487548 0.58636 0.344902 0.691079 -0.492672 0.581908 -0.974455 0.361296 -0.695981 0.500792 0.784454 -0.000529567 -0.758245 -0.387785 -0.199522 -0.7565 -0.676222 -0.533908 0.152505 -0.558876 0.518451 -0.480298 0.732862 0.642643 0.26538 0.540036 0.207824 0.137689 -0.123371 -0.198662 -0.422618 0.346796 -0.580701 0.931183 0.0540455 -0.106013 0.500679 0.0825912 -0.735143 0.858325 -0.428499 -0.962855 -0.198299 -0.190057 -0.375081 0.583226 0.0340795 -0.00967458 -0.888009 -0.74711 0.46121 0.677727 -0.207125 0.233224 0.350284 -0.934676 -0.244249 -0.400224 0.270695 0.714027 0.477499 0.920161 0.0757825 0.909558 0.886631 -0.777706 -0.157063 0.434155 0.339226 0.142038 0.30234 0.952586 0.219324 -0.859754 -0.184604 0.919994 0.799917 0.893267 -0.0861682 0.928052 -0.798994 -0.586886 0.626105 0.012543 0.655398 -0.0197605 0.104659 -0.561015 0.608787 -0.611173 -0.846195 0.0691056 -0.700261 0.276257 -0.0287517 -0.818493 0.490793 0.806515 0.608749 -0.175001 -0.0672007 -0.104958 -0.218866 -0.828975 0.0543121 0.608362 -0.89162 -0.194665 0.555023 0.0681621 -0.164692 0.817866 0.568225 -0.468332 -0.112941 0.266923 0.568693 -1.00178 0.712185 0.170807 -0.559556 -0.956686 -0.542797 -0.0407342 0.413301 0.482752 0.197246 -0.0373856 0.350831 -0.158314 0.823318 -0.668679 0.810597 -0.324318 -0.42807 -0.0717969 -0.649867 -0.260793 0.864087 -0.980124 0.922255 -0.185931 0.904685 0.544823 0.414571 -0.156359 -0.136528 0.0343947 -0.0383708 -0.27881 -0.648132 0.55486 -0.23241 -0.226745 -0.518874 -0.851784 -0.773659 0.647351 0.0797279 0.535676 -0.527376 -0.140749 0.827194 -0.757382 0.525471 -0.594605 0.184243 0.902315 0.130583 0.0342275 0.88471 0.0495221 0.824214 0.774625 -0.424718 0.276399 -0.320152 0.500548 -0.663949 0.689852 -0.756146 -0.267156 0.274228 0.01813 0.488391 0.748964 0.148103 0.731745 0.414951 -0.718714 0.295183 0.897811 0.177775 0.162729 -0.818851 -0.256129 0.600349 0.397684 -0.321375 -0.229226 -0.528186 -0.396525 0.875175 -0.666983 -0.584155 -0.505959 0.656418 0.153908 -0.947267 -0.965209 -0.137475 -0.686321 -0.223328 -0.859937 0.35461 -0.698563 0.898214 -0.449912 -0.966356 0.308341 -0.17348 0.32351 0.199742 -1.00317 -0.51981 0.373826 -0.265508 -0.924496 -0.244252 0.397347 -0.148158 0.241682 -0.980268 -0.261159 0.635892 -0.574508 0.286272 0.337497 0.679067 0.39856 0.459255 -0.388916 0.766194 -0.722741 -0.193984 0.130844 -0.423285 -0.287192 0.738406 -0.206197 -0.756165 -0.214197 -0.78723 0.498445 -0.160087 -0.248569 -0.0661918 0.610108 -0.137371 0.737255 0.0809885 0.785737 0.0535385 0.164068 -0.409352 -0.255779 0.720117 0.991647 -0.79943 0.514444 0.457259 0.714439 -0.806101 0.302469 -0.95407 0.0528729 -0.465779 -0.25512 0.91437 -0.57793 0.566258 -0.877742 0.171747 0.743302 0.586995 0.983896 -0.533432 -0.51993 0.578382 0.314695 -0.790608 -0.380489 0.0618977 0.231997 0.796024 0.679367 -0.996844 0.502197 0.633249 -0.827696 -0.00802586 0.0757425 0.867678 0.170446 -0.584278 -1.0253 -0.698374 -0.0198793 -0.233654 -0.739192 0.444882 -0.660723 -0.6339 -0.385628 -0.932604 0.977493 -0.389785 -0.412501 -0.515089 -0.793303 0.910675 -0.291969 -0.131756 0.0130684 0.978983 -0.305226 -0.275291 -1.00649 -0.763359 -0.602371 -0.779199 0.30455 0.550196 -0.866456 -0.462263 -1.01591 -0.835072 -0.10499 0.010306 -0.051787 0.150075 -0.557672 0.30891 0.538545 0.0659443 0.423664 0.524267 0.678716 -0.994809 -0.997768 0.87751 0.907981 -0.295216 -0.260967 -0.0827975 -0.321609 0.417715 0.627771 -0.319116 0.669992 -0.962689 -0.0952362 -0.00453491 0.596807 0.0955403 0.576897 0.627723 0.320015 -0.45594 -0.307274 -0.67772 0.747227 0.203148 0.654463 0.297087 -0.720883 0.137088 0.442023 
-0.874077 0.308145 0.0490872 -0.934888 0.281642 0.818464 -0.133855 -0.739055 -0.44139 -0.640022 0.962788 0.313794 -0.957899 -0.985993 -0.690249 0.181468 0.767235 0.496491 -0.150442 0.494739 -0.107347 0.457218 -0.713137 0.319116 0.296837 0.548739 0.0859052 -0.296973 0.969386 -0.6307 0.702308 -0.92272 0.665109 -0.235836 -0.840829 -0.044113 -0.403384 -0.0268368 0.164783 0.0945659 0.393912 0.188023 -0.523058 0.542421 0.270705 -0.209878 -0.310492 0.0411805 -0.72511 0.527363 -0.483167 0.172266 0.0204922 -0.191985 -0.499453 -0.73558 -0.693321 0.53624 -0.0486955 -0.768472 0.834615 -0.38673 -0.733463 0.471355 0.35324 -0.604355 -0.602297 0.943441 0.422251 0.615931 0.0783474 -0.210113 -0.22196 0.529394 -0.731436 -0.974389 -0.70358 -0.0647638 0.0418629 -0.438605 -0.551719 0.544251 0.755412 0.463058 -0.65343 -0.78615 0.715652 -0.422389 0.673014 -0.407549 -0.139106 0.582452 0.273531 0.133252 0.0599325 -0.360356 0.473964 0.402636 -0.510035 -0.129474 -0.00565928 0.562902 0.65479 0.765383 0.125738 0.956673 0.821776 0.410161 -0.121003 -0.149281 0.956546 0.302289 -0.630677 0.655138 -0.274524 -0.32466 0.82542 -0.602988 0.271715 0.518888 0.00791864 -0.911773 0.0566839 -0.755828 0.187004 -0.917774 -0.152619 -0.308025 0.492088 0.358075 0.582121 -0.472877 -0.0342963 0.286606 -0.655038 -0.882482 0.264699 -0.810974 0.530664 -0.852751 -0.0241953 0.424935 0.467328 0.428144 0.159991 -0.77924 -0.86856 0.0219472 -0.360951 0.424679 -0.439389 0.662027 0.462476 0.557021 0.913895 -0.282446 0.714718 -0.204573 0.419667 0.24165 -0.830563 0.0440465 0.809161 0.170064 -0.639611 -0.878251 0.23556 0.5643 -0.628631 -0.173441 0.780135 0.45387 -0.680184 0.25088 -0.152677 0.483514 0.460528 -0.0473505 -0.528458 -0.934973 -0.610983 0.0360319 0.736078 0.863888 -0.391685 0.599995 -0.434679 -0.69773 -0.672145 0.943471 0.496942 -0.530856 -0.0408333 0.275498 0.611049 0.291425 0.428889 -0.0999825 -0.0823228 0.795636 0.700351 -0.328078 0.185482 0.996411 0.899681 1.01063 0.45523 0.33471 -0.0522218 0.911732 0.421358 0.331595 -0.0580899 0.11531 0.183875 0.537688 -0.298612 0.735234 0.828582 0.0422264 0.686359 0.330783 0.518871 -0.341552 -0.44865 0.074933 0.878401 -1.02376 0.953071 -0.209389 0.766157 0.644103 0.497835 -0.0142239 0.671469 0.383202 -0.0184249 0.113741 -0.294821 0.906913 0.00236164 -0.930026 0.196065 0.90192 0.139833 -0.665356 0.394955 0.798249 -0.973047 0.179191 -0.204084 0.676035 -0.524376 -0.719384 -0.701676 0.0341188 0.357958 -0.807151 0.0490933 0.353726 0.00931499 -0.137834 0.0503767 -0.464977 0.856168 -0.257047 0.938962 -0.138584 0.795029 -0.402738 -0.20102 -0.10602 -0.254225 1.00847 -0.191418 0.906879 -0.636317 -0.74482 0.724152 -0.594642 0.353088 -0.537426 -0.907898 0.899454 -0.213002 -0.627737 -0.0584183 -0.789472 -0.36321 -0.939447 0.607091 0.701906 -0.0403217 -0.374508 -0.795579 -0.216725 0.439407 -0.794049 0.705047 0.294764 -0.143233 -0.507838 -0.82385 0.590259 -0.511191 -0.0270954 0.508345 -0.135781 0.208956 0.20555 0.2326 -0.440541 0.661134 0.267512 -0.564461 -0.544042 0.622714 0.360019 -0.377037 -0.770946 0.392146 -0.796995 0.905824 -0.673341 -0.14125 -0.837701 0.163345 -0.71366 -0.656626 -0.157822 0.554855 0.176172 0.312251 0.709548 -0.257266 0.780656 -0.342274 -0.76688 -0.380082 0.845422 0.379685 0.810389 -0.606407 0.0335968 0.0697627 -0.180907 0.481177 -0.293385 -0.810218 -0.887291 -0.0538185 0.597831 -0.744476 -0.208275 0.847757 0.1116 -0.0665379 0.00561799 0.392284 0.267298 0.882855 -0.020292 -0.525601 0.179965 -0.324713 0.203409 -0.0582393 0.304034 0.369509 0.499339 0.101558 -0.299009 0.258536 0.444068 0.683227 -0.721905 -0.785061 0.114796 -0.0651075 -0.637645 0.187935 0.841542 0.91854 0.473591 -0.340214 0.782421 -0.398771 0.612338 -0.188191 -0.982664 -0.0933137 -0.276499 0.0306036 0.408619 0.925603 0.728571 -0.415488 -0.179515 0.0631719 -0.964487 -0.601606 -0.821818 -0.250796 0.678184 0.643511 -0.515958 0.99911 0.877166 0.517476 -0.147374 -0.754686 -0.22396 -0.256462 -0.852025 -0.763164 0.415458 0.995386 -0.0924331 0.0939176 -0.130515 -0.017675 -1.00611 0.561859 -1.02067 0.492556 0.550029 0.768174 -0.877692 -0.575893 -0.180282 -0.838303 -0.211402 -0.0358096 -0.13904 -0.522014 -0.381264 0.326299 -0.575144 -0.547703 -0.161141 0.270119 -0.359573 0.591552 -0.982181 -0.20742 0.832501 0.435149 -0.238086 -0.290613 -0.497958 0.60628 0.666552 -0.473799 0.198564 0.67767 0.985928 -0.275619 0.420301 -0.918593 0.123867 -0.761379 -0.795492 0.931989 0.198273 0.0825332 -0.588389 0.823867 -0.585423 -0.193943 -0.747177 0.261659 -0.911251 -0.0913659 -0.132998 -0.880605 0.715656 -0.28624 0.567402 -0.511885 0.435497 -0.994316 -0.965853 0.0252521 -0.471029 0.233499 -0.281108 -0.469797 -1.03042 -0.804343 -0.333708 0.146178 -0.581053 -0.121229 0.0642486 0.604151 0.934436 0.410906 0.361245 -0.702319 -0.834604 0.56343 0.5087 -0.796522 -0.577665 -0.672612 -0.726039 -0.911691 -0.00481537 0.798249 -0.463284 -0.610968 0.834025 -0.40266 0.430473 -0.620904 0.850015 -0.826799 -0.0668423 0.846856 -0.602784 0.632756 0.0198942 -0.161087 -0.45304 -0.943359 -0.604458 -0.500736 0.549072 0.835335 -0.189921 0.727125 0.442052 -0.638111 0.981826 0.884277 -0.314588 -0.825929 0.890958 0.62635 -0.948892 -0.520318 -0.959733 0.841842 0.0644922 0.532365 -0.709726 -0.0198438 0.702222 0.21542 -0.180375 -0.866076 -0.119945 0.929878 0.0346576 0.47459 -0.968195 0.484132 0.962201 0.606956 0.307209 -0.208647 0.314739 -0.26185 0.111148 0.246657 -0.429889 0.768019 0.427778 -0.546373 0.381455 0.435034 -0.0655184 0.444528 0.302642 -0.977483 -0.027542 0.5838 -0.00610131 -0.266393 -0.141857 0.865717 -0.0775217 0.794635 0.786819 0.954574 0.2672 0.816577 0.436917 0.247622 0.381748 -0.239023 1.00963 -0.311215 0.50685 0.121581 0.935388 1.04133 -0.149152 0.359432 -0.493061 -0.752027 -0.191484 0.453532 0.705281 -0.87629 0.489389 -0.310924 0.720642 -0.577425 0.365421 -0.492659 -0.709309 -0.711312 -0.684414 -0.908657 -0.744939 0.637276 0.962036 0.745146 -0.130466 0.349478 -0.509443 -0.137251 -0.992054 0.929636 0.913912 0.888337 0.915981 -0.28651 0.187423 -0.637003 -0.0982458 0.955855 0.777439 -0.43279 -0.965654 0.22366 0.216501 0.713663 0.676684 -0.392263 -0.765472 -1.01911 -0.0837092 -0.40627 -0.904117 0.194425 -0.76506 -0.913545 -0.0319153 0.112204 0.474389 0.428835 0.941916 0.496232 0.43893 0.936288 0.397716 0.367344 -0.306939 -0.362694 0.791314 0.624417 -0.388633 0.513177 -0.882076 -0.432638 -0.210885 0.378239 -0.692142 -0.5778 0.97415 -0.395947 -0.53231 -0.0486295 0.174657 -0.439775 -0.852204 0.448528 -0.319106 0.205429 -0.35733 -0.797723 -0.318077 -0.359429 0.687498 -0.860221 -0.403845 0.104253 0.495527 0.247181 0.69978 0.23654 -0.184068 -0.773089 -0.269766 -0.0638038 -0.182529 0.475511 -0.699382 0.148135 0.92346 -0.701707 0.748097 -0.613239 0.245613 -0.0186887 0.00588259 0.441157 -0.515913 0.736529 -0.352573 0.130775 0.949325 0.327288 0.769526 0.654743 0.4327 -0.64868 -0.276697 -0.0852873 0.600429 -0.57556 -0.84878 -0.61619 -0.349774 -0.118568 0.320736 0.479664 -0.632716 0.629688 -0.360111 -0.696689 0.941322 -0.600342 -0.296778 0.126194 0.323761 0.637654 -0.426268 0.809839 0.394792 0.228911 -0.0536555 0.392596 -0.395472 -0.236725 0.028465 -0.962868 0.093231 0.73367 -0.07848 -0.374054 -0.912331 0.0179227 -0.0452747 -0.316936 0.835161 -0.788152 -0.897141 -0.837659 0.802593 -0.296435 -0.579567 0.702041 0.0648513 0.0822701 -0.142753 -0.582276 -0.262526 0.443591 -0.758192 -0.829079 -0.303408 0.209818 0.542978 0.325258 -0.983812 -0.383036 0.340149 0.0670321 -0.69778 -0.659144 0.773448 -0.529331 0.371743 -0.259194 0.20247 0.264711 0.0191005 0.334932 0.447548 -0.234036 0.983054 0.786199 -0.486919 0.0664951 -0.0874268 0.348687 0.489407 0.685912 -0.164187 0.80186 0.930551 0.557855 0.0060349 0.441775 -0.106397 0.0784091 -0.874236 -0.653853 -0.806725 -0.515556 -0.323877 0.986493 -0.0254402 -0.932716 -0.284955 -0.870418 0.284532 0.678338 0.401907 -0.361377 -0.581645 0.364881 -0.555006 -0.111188 -0.582437 0.35879 -0.758339 0.908854 0.0408129 0.0735166 0.676292 -0.0659558 -0.338425 -0.291175 -0.569993 0.610726 0.788031 -0.44019 0.961587 0.979258 0.0424353 -0.365983 0.930725 1.01911 -0.313044 -0.3677 -0.865895 0.972767 -0.689408 0.504821 -0.388395 -0.270085 -0.129633 0.0685331 0.631002 0.298227 -0.558683 0.885202 0.220373 0.493825 -0.0284902 -0.163328 -0.6283 0.562965 0.551855 -0.19634 0.188236 0.347695 0.369237 0.198301 0.375277 -0.540932 0.835103 0.308214 -0.557353 -0.499107 0.90488 -0.496303 -0.596779 -0.839346 0.953675 -0.0490892 -0.173689 -0.239779 0.968686 -0.593648 -0.991468 -0.631097 -0.743082 0.194514 0.822774 0.182999 -0.943146 -0.77979 -0.217388 0.646765 0.058877 -1.01483 0.00666557 -0.577029 0.157461 -0.641856 -0.106479 0.0279232 0.644347 0.317661 0.487564 0.580576 0.89818 0.971522 0.821651 0.867051 -0.0199069 -0.294348 -0.306058 -0.0205248 0.141573 -0.344207 0.292029 0.313835 0.897392 0.140261 -0.458247 0.930164 0.36037 0.333609 0.59198 -0.55961 0.361544 -0.393264 -0.118352 -0.484093 -0.00154758 0.859889 0.626295 -0.216391 0.23341 0.161952 -0.58794 0.145429 0.153096 -0.746667 0.000367742 -0.914484 -0.0887326 0.638493 0.0014821 0.95948 -0.731691 -0.726573 0.292878 -0.879301 0.392687 0.832946 -0.944965 -0.247009 0.162663 0.643079 0.182743 -0.478813 -0.722301 -0.899756 0.0890318 0.335304 0.948238 -0.29283 -0.889002 0.173759 0.867148 -0.481107 -0.716186 0.0220442 -0.204029 0.309163 0.0930225 0.669817 -0.0904768 -0.936672 0.63022 0.178783 -0.662549 -0.0649613 0.311782 0.740399 -0.218006 0.379355 -0.493299 0.956331 0.0351903 0.629486 -0.58445 0.242745 0.726552 0.502834 -0.411099 0.685632 -0.78425 -0.253449 -0.0941468 -0.871527 0.268542 0.192221 0.114944 -0.992449 -0.572601 -0.865351 0.605074 0.283939 -0.855205 0.173232 -0.601221 -0.580928 -0.942044 0.659561 -0.8906 -0.210366 -0.00480785 -0.418267 -0.284895 -1.00592 -0.763172 -0.392912 
0.286322 -0.985726 -0.291503 0.914688 0.737562 -0.0378491 -0.34365 -0.359473 0.0877037 0.921973 0.830583 -0.826424 0.927124 -0.72729 -0.650147 0.546926 0.56929 -0.492517 -0.258117 0.989395 -0.0609403 -0.187895 0.661231 0.0836478 0.637286 -0.311559 0.675217 -0.638059 -0.305808 0.927977 0.566947 1.0155 0.973172 -0.726083 0.928413 0.710624 0.235938 -0.41355 -0.64726 -0.674752 -0.49178 -0.816667 -0.474249 -0.564669 -0.543966 -0.185124 0.921543 0.964511 0.337079 -0.321862 0.941714 -0.742221 0.471916 0.611511 0.396999 0.262588 -0.548661 0.0236755 0.379648 -0.103349 -0.160804 -0.10038 -0.135079 -0.237578 0.277325 -0.0994043 -0.390969 -0.504481 0.427199 -0.126448 -0.267452 0.884002 -0.0363168 0.165093 -0.775672 0.366496 0.987461 -0.844788 0.340346 0.318975 -0.172182 0.303408 0.595778 -0.681263 -0.0660404 -0.0520689 0.438299 0.242352 0.972109 -0.0833511 -0.762337 -0.0925784 0.912331 0.19867 0.7659 0.0549147 -1.03717 -0.79008 0.462534 0.33716 0.10769 -0.780657 0.245443 -0.939695 0.372706 0.459866 0.416901 0.350906 0.60581 -0.252017 -0.339298 -0.575562 -0.957794 -0.750143 -0.263437 -0.03046 0.196987 -0.825937 -0.794392 0.162939 0.0845468 -0.557428 -0.93037 -0.00380832 0.640796 0.831636 -0.868599 0.681881 -0.876751 0.668523 0.0933926 0.228177 0.885067 -0.663726 0.28593 0.255854 0.794221 -0.299088 -0.395157 0.371215 0.446978 0.263626 0.820645 0.487272 0.511667 -0.44451 -0.544855 -0.292989 -0.281101 -0.344497 0.864665 0.823118 0.117997 0.954216 -0.175534 -0.236534 0.798082 -0.0361709 -0.513999 0.958142 -0.33495 0.579656 0.186342 -0.449887 0.915899 -0.526063 0.807653 0.711839 0.174665 -0.587704 0.109774 -0.378352 0.675912 -0.130336 -0.951825 0.126878 0.439895 -0.482025 0.821618 -0.859622 0.155098 0.69479 0.956269 -0.673643 0.702231 -0.167665 -0.0571737 0.349277 0.643952 0.381804 0.260152 -0.74095 0.0614715 -0.45007 -0.0587308 -0.0404603 -0.0318309 -0.335429 -0.412974 -0.908612 -0.0187477 0.602117 -0.384409 -0.39605 -0.521886 -0.327131 0.739915 0.906707 0.179574 0.57715 -0.931231 -0.643668 0.293626 -0.953444 -0.356534 -0.043282 -0.159832 0.685405 -0.594913 -0.419466 0.163603 0.761625 -0.062201 -0.903786 -0.820734 0.716315 -0.029596 0.0947868 -0.671739 0.58099 0.209775 0.377057 0.173241 0.818256 0.97415 0.644734 -0.515486 0.70736 0.550552 0.586083 0.206616 0.541422 -1.05839 -0.500557 0.6644 -0.343946 0.527091 -0.501633 -0.65928 0.931446 0.0781608 0.503595 0.69806 -0.980888 0.680091 0.95007 0.808172 -0.277292 0.118918 -0.789509 -0.698461 -0.673478 0.58563 0.472858 -0.857134 0.557868 0.115681 -0.37453 0.263414 -0.335581 -0.713156 -0.454682 -0.718867 -0.696241 0.114658 0.938332 -0.0453827 -0.358051 -0.563018 0.315119 -0.406557 0.535085 -0.176097 -0.709289 0.557483 -0.489897 -0.718335 0.402472 0.265768 0.400602 0.612968 0.567298 0.727115 0.200317 0.041861 0.871672 -0.242043 -0.842672 -0.503057 1.02136 -0.238974 -0.27696 -0.494062 0.0421706 0.0416528 0.613921 -0.026191 0.978193 -0.735529 0.419292 0.285841 -0.149562 0.00757895 -0.838719 0.0548494 -0.586005 -0.480791 0.289242 0.769185 0.735011 -0.210151 0.485625 0.434412 -0.500914 -0.369817 -0.608086 -0.713576 0.336725 -0.54638 -0.312251 0.260647 0.222167 0.418086 0.775701 -0.726584 -0.551569 0.40524 0.262828 -0.551943 0.691391 -0.296205 0.755405 -0.436668 0.672201 0.877973 0.717305 -0.814679 -0.506401 0.102952 -0.949085 -0.67499 0.839241 0.404257 0.598515 -0.822552 -1.01846 -1.06245 -0.58965 0.341846 -0.541031 0.166528 -0.404357 0.674299 -0.421979 -0.63535 0.941009 0.0255634 0.691989 0.125941 0.395717 0.382591 0.828936 0.150438 -0.981845 0.573363 0.100608 0.733451 0.756675 0.592179 -0.16432 0.812579 0.922178 -0.32191 0.289576 0.593189 -0.0701706 0.345441 0.605311 0.415437 -0.314548 -0.937553 -0.419936 0.279198 0.734834 0.156167 0.642031 0.674029 -0.820095 0.382518 -0.124626 0.651018 -0.132696 -0.22586 -0.128693 -0.121069 -0.65159 0.972895 -0.367836 -0.876856 0.583035 0.47302 0.934936 0.508394 -0.841075 0.265295 0.138656 0.121724 -0.389251 -0.256029 -0.462911 0.296137 -0.191821 0.118898 -0.422947 -0.457297 -0.72523 -0.781161 -0.783306 -0.606206 0.567359 0.0310452 -0.955343 -0.565603 0.783582 -0.182754 0.295169 -0.861249 -0.111275 0.934798 -0.730884 -0.475154 0.459024 -0.805491 0.881926 0.465748 0.335408 -0.026669 -0.462465 1.04616 0.820722 0.206718 0.324448 -0.426956 -0.75886 0.817062 0.0642644 -0.579799 0.940173 0.185215 -0.176652 0.514714 -0.776455 -0.124709 0.952634 -0.962442 0.800052 0.284094 -0.78744 -0.289751 0.239525 -0.497641 0.195049 -0.340209 -0.281132 0.176069 -0.778026 -0.84931 -0.754237 -0.144099 -0.856675 -1.06762 0.899881 0.306872 -0.545642 -0.910047 0.0751627 0.546904 -0.417312 0.0837578 -0.276549 0.397361 -0.408222 -0.0596902 -0.734051 -0.460483 -0.104136 -1.01601 0.745654 0.107632 -0.310774 -0.019094 0.682808 0.961257 0.717678 -0.598438 0.135937 0.936442 -0.450934 0.385492 -0.201942 -0.301891 0.394734 -0.225317 -0.920094 0.924286 -0.0601633 0.226214 0.465259 0.516577 -0.696039 -0.817296 -0.09206 -0.11018 0.117091 0.16797 0.427517 -0.938673 0.227262 0.243007 0.2657 0.990494 -0.696617 -0.0525625 0.952665 -0.978038 0.367404 0.106664 0.978278 0.92356 -0.485518 -0.197459 -0.353409 0.928576 0.592857 -0.257856 0.853019 -0.4674 0.969993 0.319932 1.05081 -0.726229 0.50245 -0.0416207 0.163238 -0.380824 -0.93457 -0.470261 -0.353783 0.29214 0.777723 0.91708 0.261033 -1.01762 -0.153641 0.22044 -0.896973 -0.778674 -0.665678 -0.926331 -0.864345 -0.181742 -0.235362 -0.32641 -0.37732 -0.689793 0.365804 -0.424278 -0.0537065 0.466071 0.875961 -0.0587407 0.655391 0.293974 0.848084 -0.27711 0.8174 0.87853 0.261962 -0.528916 0.178253 0.047292 -0.608001 -0.530008 0.137524 0.274961 0.727032 0.262342 0.517226 -0.917724 0.357007 0.674881 -0.0774677 -0.77928 -0.555089 0.641617 -0.37266 0.907101 -0.8362 0.516614 0.214561 0.882969 -0.666225 -0.181111 0.124062 -0.871043 0.610189 0.00988654 -0.924069 -0.136507 0.474254 0.247494 0.904078 0.861374 0.636754 -0.0391217 0.0596703 0.362948 -0.783094 -0.428664 0.438394 0.649609 -0.678087 -0.562114 0.87022 -0.235088 -0.922389 -0.498625 -0.322269 -0.75287 -0.982266 0.964985 -0.799014 -0.577341 -0.145038 0.396133 -0.454376 -0.54085 -0.599991 -0.307333 0.316639 0.868361 0.934234 0.214799 0.72792 0.639544 -0.75578 -0.143857 0.0765123 -0.459392 0.506956 -0.407793 -0.807579 0.836526 0.049807 -0.919378 -0.384145 0.134513 -0.395567 0.319779 0.406557 -0.358469 0.300101 0.623125 0.0642973 -0.844853 0.0209195 0.703474 -0.369231 0.435553 -0.618862 0.932189 0.288735 -0.684991 0.0860999 -0.0443461 0.898819 0.335218 0.816787 -0.0194869 0.854208 0.225012 0.554543 -0.946632 0.139945 -0.402886 -0.873488 0.762963 0.737192 -0.284792 0.0482879 0.0351104 0.232594 -0.775767 -0.391705 -0.60312 -0.517157 0.75946 1.06584 0.0429633 0.0957723 -0.637439 -0.0763616 -0.711257 -0.418155 0.974715 0.253728 -0.51005 0.319326 0.0799182 0.472475 0.202448 -0.589056 0.0629968 0.292424 0.586849 0.69649 0.454675 0.37145 0.455686 -0.80813 -0.557021 -0.412781 0.520872 -0.233544 0.296002 0.868325 0.192312 -0.030134 0.848585 -0.815829 -0.985466 -0.839922 0.0548943 -0.705406 -0.266757 0.0208431 0.539557 0.214669 -0.668247 -0.388935 -0.316458 0.453469 -0.0587124 0.669218 -0.254949 -0.477529 0.358882 -0.807115 0.969613 -0.110275 -0.540081 -0.590609 0.47684 0.980713 0.177368 -0.225656 0.850546 -0.634793 0.739791 0.691269 -0.456577 0.748312 0.84879 0.592311 -0.962983 -0.423861 -0.392642 0.570675 0.784901 -0.0668069 -0.824185 -0.534653 -0.544789 0.185654 -0.796879 0.274279 0.784133 0.639306 0.544467 0.759441 -0.45772 -0.973771 -0.811401 -0.945488 -0.964974 0.388404 -0.16614 0.889289 0.773075 -0.410912 0.599457 -0.683549 -0.66059 0.450259 0.925581 -0.608924 1.041 -0.482058 0.946542 0.81074 0.450772 -0.938542 -0.784812 0.85024 0.225225 -0.576786 0.129701 0.0180139 -1.03277 -0.343994 -0.215837 -0.412397 -0.32532 -0.0347042 -0.372012 -0.30601 -0.662063 0.427378 -0.525394 -1.01316 0.89232 -0.975613 -0.592318 -0.662527 0.60901 -0.701228 -0.346214 0.546668 -0.271827 -0.451182 0.261683 -0.916803 -0.424713 0.486106 0.942726 0.836692 0.918711 0.0744478 -0.116391 0.991982 0.766409 0.703723 -0.384447 -0.521248 -0.293349 0.266442 0.194735 0.0665892 -0.284212 0.764474 0.15269 -0.291388 0.889378 0.502731 -0.016275 0.408684 0.713609 0.586423 -0.0957079 -0.611109 -0.91767 -0.842724 -0.536595 -0.351144 0.634617 -0.602392 -0.522881 0.544925 0.468452 0.355848 0.454908 0.156277 -0.0177342 -0.935207 0.628191 0.682072 0.329831 -0.101377 -0.177463 -0.880483 -0.33882 0.971036 -0.17162 -0.447916 0.475276 0.807626 0.956357 0.179209 0.388094 -0.145375 0.565541 0.464431 0.00601398 -0.976944 -0.892511 -0.36527 -0.585234 -0.421289 -0.826266 0.880122 0.927276 0.698472 0.106231 -0.0151655 0.844017 -0.184811 -0.255495 0.253488 0.721775 0.588583 0.392537 -0.581568 0.586426 -0.756717 -0.0248292 0.0664131 -0.93402 -0.0530288 -0.735492 0.458136 0.803595 0.832052 -0.0754229 -0.19055 0.854925 0.0321792 0.444076 -0.730379 0.610507 0.556899 -0.911157 0.482353 0.233783 0.173079 -0.554856 0.0827043 -1.00648 0.198111 -0.657411 0.71627 -0.220859 0.727583 -0.879483 -0.648886 0.955133 0.0615279 0.309158 0.901358 0.884628 0.524271 0.464163 0.79426 0.490999 -0.630663 -0.455957 0.257675 0.312964 0.936589 0.433977 -0.169834 0.460926 0.532044 -0.678515 -0.268125 -0.257302 -0.197415 0.849192 -0.229112 -0.965777 -0.774018 -0.479299 -0.155974 0.983577 -0.342875 0.217134 0.9607 0.740608 -0.377309 0.962584 0.72574 -0.757257 0.367831 0.457636 0.64748 0.647456 0.950598 -0.150018 -0.090644 0.834284 -0.723151 0.728296 0.284031 0.797819 -0.961056 1.00377 -0.470302 -0.1715 0.839957 0.284976 -0.151219 -1.02576 0.715896 0.614311 -1.04356 -0.628388 -0.171784 0.991042 -0.813873 0.532095 0.953607 0.912118 0.774112 0.317254 0.365287 1.02197 
0.0344916 0.383857 -0.660548 0.937756 0.21062 -0.388733 0.627436 -0.542497 -0.630474 0.660481 -0.544616 -0.164935 -0.574627 -0.731812 -0.85122 0.309494 -0.677639 0.896562 0.013017 -0.63377 -0.597888 0.923844 -0.621699 -0.335939 0.516353 -0.660889 -0.518767 0.204758 0.606695 0.847829 -0.377403 -0.432819 0.145575 -0.115192 -0.516199 -0.694384 0.364575 -1.02437 -0.329517 0.711127 0.594318 0.0868316 -0.438323 -0.960683 0.350571 -0.289238 0.330088 0.63524 -0.380024 -0.706094 -1.05479 -0.0303564 -0.808708 -0.715673 0.586702 0.62638 -0.422315 -0.972333 -0.166971 -0.867873 0.872735 0.452875 -0.195949 0.0637031 -0.575752 0.295441 0.444337 0.852032 0.30101 -0.867873 0.608427 -0.116343 0.216897 -0.80785 -0.0133112 -0.383545 -0.053442 -0.618132 -0.749874 0.552105 -0.31036 -0.665471 -0.338997 0.0178563 -0.297394 -0.711531 -0.222652 0.424854 -0.42721 0.768065 0.689775 -0.575783 0.234017 -0.536564 0.5219 0.656703 0.773919 -0.050569 0.526272 0.088776 0.0973744 0.187619 -0.933335 -0.588206 0.359643 0.0310809 0.0558175 -0.612321 0.536721 0.442955 -0.923304 -0.679618 0.775332 -0.318246 0.291004 -0.52681 0.00921839 -0.944817 0.872798 0.459839 0.748149 0.553282 0.869541 -0.00867364 -0.893572 0.493966 -0.198966 1.02795 -0.475227 -0.637066 0.140123 0.645623 0.539801 0.19566 1.04344 -0.0465177 -0.755829 0.0638034 0.305665 0.727236 -0.597816 0.262069 0.98425 -0.79363 -0.956371 0.273271 -0.265162 0.11667 0.440238 -0.335497 -0.363786 0.267442 -0.710494 -0.42818 -0.72454 -0.559237 -0.944344 0.0551981 -0.604877 -0.493549 0.268093 0.394098 -0.933036 -0.242798 -0.502016 -1.03746 0.605944 -0.299075 -0.015864 -0.127637 -0.622962 0.387732 -0.836276 -0.63663 0.595391 -0.807971 0.669305 -0.717216 0.256685 0.0575201 -0.0769537 0.867692 -0.671104 0.18222 -0.59076 -0.435934 0.58246 -0.62982 0.53054 -1.11388 -0.158718 -0.138276 0.349116 -0.0141954 0.756622 0.974938 0.0526621 0.413374 -0.276653 -0.958218 -0.654645 0.170186 0.499593 -0.51174 0.567322 0.131659 -0.32091 0.200634 0.406835 -0.946841 -0.601943 -0.532547 -0.973689 -0.21232 0.803913 -0.376875 0.609618 0.542913 0.081944 0.161277 0.508859 -0.954555 -0.836244 -0.0473131 0.0593659 0.894119 -0.0728323 -0.916824 0.22025 0.694232 -0.822195 0.604857 -0.18744 0.625501 -0.930014 -0.551798 -0.162379 -0.0607988 0.82325 -0.596203 0.0118412 -0.813551 -0.15604 0.0322813 0.0142079 -0.364247 0.58828 -0.498365 -0.865441 -0.308119 0.679371 0.633273 -0.228143 0.886056 -0.292689 0.96121 0.819117 0.632104 1.03953 0.0677828 0.31698 -0.792416 -0.34081 -0.814871 0.847283 -0.255224 -0.388712 -0.32751 0.611972 -0.687865 -0.0348153 -0.379956 -0.401978 0.904092 0.71088 0.678178 -0.394372 0.355997 -0.76049 -0.224457 -0.90749 0.957832 -0.587746 -0.119168 0.805334 0.0699013 -0.259848 0.522097 -0.448021 -0.361538 -0.495273 0.816905 -0.247228 0.0184693 0.897237 -0.395781 0.768827 -0.503733 0.230304 0.311312 -0.182541 -0.792946 0.937434 0.404935 -0.899539 0.603532 0.033785 -0.343233 -0.0620234 0.25071 0.452773 0.000165514 0.178222 0.87179 0.887488 -0.0669055 -0.196841 -0.510857 -0.626807 0.392728 0.133918 -0.0421129 0.375548 -0.923425 -0.906084 0.34702 -0.298927 0.779137 0.806864 0.936713 0.192602 -0.355519 -0.769444 0.166984 -0.94468 -0.751692 -0.236489 0.207028 0.0449276 0.838448 -0.459028 -0.441451 -0.0546193 0.916591 -0.358913 -0.01014 -0.0939974 0.468164 0.555149 0.421974 0.0457068 -0.102294 -0.598191 -0.602538 -0.0730759 -0.558355 0.621203 0.662062 -0.688493 0.515287 0.553231 0.452441 -0.856315 0.767679 -0.33774 -0.653892 -0.771818 0.622211 0.615112 0.238124 0.427586 -0.833634 0.831212 -0.582426 -0.963334 -0.640928 0.363254 -0.0356939 0.843659 -0.0969187 -0.606329 -0.0924767 0.874629 -0.0865796 0.325696 -0.200871 0.350117 -0.0301936 -0.553647 0.646467 -0.533828 1.00167 0.0595878 -0.429881 0.823236 0.787829 -0.0686168 0.975461 0.295076 -0.460161 0.260646 -0.181014 -0.26119 0.155009 0.290646 -0.153499 0.566293 -0.318183 0.846455 0.4399 0.60999 -0.743402 -0.691078 0.413257 0.0680893 0.532325 -0.937587 -0.722891 -0.583002 -0.500356 0.873289 -0.21935 -0.555551 -0.0580319 0.320025 -0.826546 -0.355502 -0.772562 -0.846985 -1.00821 -0.231792 0.40189 -0.201139 0.485412 -0.534032 -1.00072 -0.732743 -0.990687 -0.257079 -0.874517 0.461375 -0.661967 -0.614183 0.773631 0.612803 0.31811 0.223877 0.766526 0.652912 0.664735 -0.663988 0.622336 -0.477058 -0.166492 -0.393559 0.824308 0.0135623 0.296861 -0.896514 0.16852 0.375394 -0.0433595 -0.389347 -0.891653 -0.548743 0.237704 -0.710669 -0.0995165 0.375643 0.0941474 0.174915 -0.0578618 0.552658 0.640841 -0.16643 0.235259 0.0311204 -0.917856 0.142627 -0.152614 0.777202 0.455143 -0.577228 -0.67723 -0.746424 0.0847326 -0.862713 0.180736 -0.770863 -0.824102 -0.670088 0.566947 0.138723 0.0500046 0.806169 0.763798 -0.646656 -0.892757 -0.365886 0.700555 0.199324 0.772976 -0.349601 -0.245858 0.402994 0.478538 0.986265 -0.558073 0.591105 0.11023 0.31162 0.434783 -0.410475 0.760322 0.704679 -0.217627 -0.21516 0.795152 0.956954 0.0726164 1.02064 -0.671087 -0.316612 0.225038 0.400766 -0.488687 -0.0184466 0.697894 -0.383943 0.661353 0.433981 0.881286 0.443082 -0.84453 -0.374125 -0.0689493 0.712817 -0.314676 0.346593 0.240376 0.731921 -0.45555 -0.426745 -0.780862 -0.873586 -0.891559 -0.0914866 -0.105703 0.859265 -0.251614 0.808649 0.805421 0.0108096 -0.52867 0.0236127 -0.612403 -0.031426 -1.00881 -0.89125 0.595247 0.614969 0.597517 0.461869 0.0434255 0.736274 -0.868399 -0.986648 0.45099 -0.171182 0.283877 -0.323581 -0.482975 0.743624 0.167654 -0.360974 0.89248 0.301672 0.589819 -0.168582 0.213322 -0.669471 -0.285342 0.0727291 0.354791 0.233617 -0.822655 0.867435 -0.859457 -0.762919 -0.88575 0.868068 0.847844 0.669648 0.490512 0.0737004 0.587834 0.731992 0.10842 0.121014 -0.457254 -0.553602 0.843693 0.220433 -0.720866 0.0966029 0.91745 -0.672429 -0.460011 0.521651 0.175379 0.746287 0.938798 0.880767 -0.111655 0.352605 0.0526298 -0.0248629 0.0677225 0.181476 0.152526 0.124462 0.0905162 0.0766265 -0.0919857 -0.315759 -0.813623 -0.504668 -0.627291 0.299103 0.641581 0.0136853 0.821004 0.512962 -0.782538 -0.903064 -0.382682 -0.834671 -0.594148 0.179671 0.747945 0.587603 -0.0659302 0.628052 0.40761 0.785419 -0.0819924 -0.556347 -0.225278 1.00827 0.634657 0.971143 0.198395 -0.200206 0.108979 -0.856109 0.478509 0.295533 -0.312502 0.838812 -0.339224 -0.69048 -0.107446 -0.529251 0.905937 0.190296 -0.357668 -0.50163 0.313777 -0.0155027 0.564293 -0.0618746 -0.53022 -0.680006 -0.603316 0.78441 -0.956047 0.200175 -0.961904 -0.293939 0.179657 0.651967 -0.340845 -0.626063 -0.551342 0.759201 -0.491159 0.886668 0.0628862 0.156417 0.777826 0.708734 0.451305 -0.345191 -0.774879 0.355105 0.805007 -0.120659 0.819653 0.127144 0.820185 0.295935 -1.00124 -0.785668 0.663636 -0.587507 -0.970865 0.792731 0.720251 -0.885455 -0.424212 -0.0426499 0.809304 0.272927 0.405499 -0.683489 0.0791421 1.00262 -0.64606 -0.798959 0.117123 -0.925462 -1.03006 -0.251838 -0.0948605 -0.647965 -0.836629 -0.218984 0.229176 -0.965086 -1.00294 0.238729 0.44471 -0.924406 0.448941 0.227648 -0.41318 0.454167 -0.0202359 -0.713325 0.570661 0.519393 0.292468 0.436929 -0.238695 -0.390392 0.640878 0.705688 -0.48789 -1.08053 0.897903 0.687676 -0.93249 -1.02102 -0.513028 0.00461955 -0.674591 -0.34162 0.878474 0.650893 -0.223603 0.914335 -0.150988 -0.780535 0.997467 -0.689867 0.405444 -0.364962 0.848949 -0.570877 -0.0453841 0.453517 0.935243 -0.767651 -0.127965 -0.324556 -0.140844 -0.462888 -0.604877 0.415111 -0.47772 -0.632321 0.179113 -0.334981 -0.615945 0.666283 0.726736 -0.294125 -0.6092 0.584437 -0.604345 0.154675 0.582233 0.306867 0.430737 0.554754 0.575168 -0.222767 -0.919279 0.305235 0.108733 -0.145194 -0.414058 -0.0988988 0.0287169 0.323769 0.412598 0.753805 0.832203 0.786959 0.150874 -0.649649 -0.848536 -0.660745 0.024477 -0.476667 -0.976147 -0.332336 0.281579 -0.600327 -0.709101 0.680394 0.60009 0.87142 -0.0715234 0.0117115 0.410998 -0.48807 0.778725 0.438356 0.73564 -0.194103 -0.705884 -0.639444 0.743263 0.357975 0.772745 0.263411 0.232578 0.73582 0.137181 -0.548059 -0.83983 0.359635 -0.0763177 0.276201 1.00677 0.018921 -0.955973 0.274007 0.430457 -0.532738 0.114206 0.190304 -0.604003 -0.953827 -0.769518 0.840131 -0.288331 -0.854296 0.346414 -0.418279 -0.00221388 0.752657 0.00111369 -0.234186 0.12714 -0.151199 -0.893626 -0.616536 -0.412562 0.240734 -0.174586 -0.309463 -0.456441 0.572662 0.898625 -0.522127 -0.459771 -1.04304 0.810947 -0.970208 -0.527373 -0.0215493 0.273407 -0.123328 0.173246 0.58892 -0.200111 0.929274 0.747535 -0.862864 -0.526631 -0.246975 0.848184 0.504058 0.60353 0.0191923 -0.640217 0.681642 0.369933 -0.071177 -0.094548 -0.825635 0.66951 0.435246 0.768746 0.589841 0.979438 -0.615745 0.623113 0.880736 -0.495699 -0.904018 -0.092676 0.786895 0.0386429 -0.940157 0.392979 0.826071 -0.932972 0.197173 1.01991 -0.484515 0.908453 0.809127 0.932025 0.393119 -0.269287 -0.888727 -0.0953892 0.959052 -0.0141351 0.677389 -1.02901 -0.507089 0.0839105 0.71934 -0.934874 0.0596203 -0.899591 0.697426 -0.0504956 -0.389276 0.811689 0.773347 -0.589888 -0.165072 -1.12809 0.805823 -0.293372 -1.06589 -0.0585924 -0.292616 -0.562862 -0.120434 -0.47501 -0.68415 -0.827576 0.14648 -0.571783 0.115967 0.150611 0.446534 -0.118244 0.20762 -0.937303 -0.94509 0.0348485 -0.801446 0.229774 0.205819 1.02595 -0.72902 0.975413 0.961647 -0.85659 -0.661438 -0.224817 -0.907737 -0.651341 0.687263 -0.843577 0.230042 -0.643578 -0.370343 -0.737284 0.000698831 -0.0517333 -0.44899 -0.746361 0.571979 0.829378 0.433907 0.0668887 -0.250398 -0.317119 0.108622 -0.19618 0.736374 0.280491 -1.02343 -0.114402 0.143474 -0.842699 -0.288083 -0.0227808 -0.685102 0.0889693 0.792041 -0.504639 0.424757 0.46785 -0.32991 -0.196661 0.908282 0.372373 0.110285 -0.0815635 -0.662052 0.612538 0.136304 0.842852 0.392104 -0.409067 0.229091 
0.966224 0.162109 0.832584 -0.280306 -0.144494 0.0982916 -0.266138 0.770984 -0.688563 -0.0169172 -0.429923 0.378938 0.384759 0.746078 0.257463 0.942282 0.217753 -0.228321 -0.344347 -0.963636 -0.306494 0.987755 0.112724 0.57486 -0.701678 -0.308683 -0.338072 -0.904565 0.980073 0.149751 -0.130995 0.933996 -0.701015 -0.297037 -0.34478 0.148468 0.802367 0.383052 -0.0908316 -0.900976 -0.643449 0.475993 0.475001 0.741653 0.220656 -0.264198 0.697156 -0.547028 0.517444 -0.641011 -0.494261 -0.767433 -0.627439 0.625616 0.807968 -0.328337 -0.687493 -0.526464 -0.230999 -0.694805 0.63512 0.653069 -0.743203 0.953528 -0.629439 -0.0727069 0.115955 -0.819002 -0.676314 -0.957772 -0.702562 -0.295969 0.537001 0.791242 -0.542893 -0.221109 -0.454178 -0.828276 0.241157 -0.929448 -0.461891 0.748313 -0.700619 -0.0927722 0.362889 -0.895306 0.569587 0.673737 -0.423344 -0.656466 0.9877 -0.778917 -0.998246 -0.751664 -0.830361 -0.631254 0.171579 0.288942 -0.446525 0.496291 0.333022 -0.14744 -0.797241 -0.127174 -0.353207 -0.328275 0.658994 0.200977 -0.154707 -0.10176 0.269378 0.385165 -0.357971 0.562742 -0.713981 -0.994825 0.666836 0.861066 0.683255 -0.752188 -0.792085 0.67771 -0.513718 -0.773462 0.957937 -0.315214 -0.374895 0.140862 0.985353 0.190004 -0.361838 0.318488 -0.950293 -0.137533 -0.785088 -0.287783 0.545896 0.883929 0.919965 -0.596864 -0.199918 0.204519 0.804671 0.458966 -0.216984 -0.894563 0.479129 -0.535001 0.981473 0.178177 -0.271539 -0.794716 -0.127391 0.220906 -0.561397 -0.181356 0.893613 0.0520364 0.947135 0.859158 -0.77842 -0.413039 0.186883 -0.727254 0.443168 0.388051 -0.0282772 -0.0229882 0.269095 -0.111206 0.376932 -0.930754 -0.908856 0.178756 0.531954 -0.120198 0.289137 0.0136832 0.359128 0.289931 -0.785187 -0.900721 0.498536 0.0866023 0.307466 0.928317 0.905722 0.211891 -0.0132766 0.857268 0.0850736 0.232025 -0.544245 -0.716664 0.510654 0.906826 0.684798 -0.504287 -0.103073 -0.0282138 0.398638 -0.712091 0.04306 0.495905 0.474606 -0.417256 -0.607829 -0.22164 0.610538 0.752955 -0.934948 0.822393 0.841144 0.556564 -0.0997449 0.153523 0.489519 -0.188385 -0.625711 -0.510402 -0.321777 0.473205 0.716414 0.130471 0.746532 0.231163 0.0410965 0.433389 0.728481 0.938826 -0.593255 0.12981 -0.770079 0.461349 -0.359089 0.723396 -0.942461 0.0269344 -0.503188 0.66609 -0.215642 -0.4441 0.482587 -0.378706 -0.888192 -0.612237 0.778751 0.605627 0.204264 -0.83863 -0.893305 0.891576 0.65301 0.857845 0.0578541 0.416853 0.0946306 -0.896582 -0.148997 -0.170682 -0.943986 0.278952 0.982669 -0.698345 -0.247626 -0.364476 -0.969149 -0.182284 0.68261 -0.459279 -0.499942 -0.520586 0.112596 0.997432 0.115968 0.239662 -0.599972 -0.0896719 -0.139103 0.618367 0.0867361 -0.020427 0.522649 -0.266421 -0.174453 -0.431732 -0.861585 0.913508 -0.334568 -0.00880154 -0.255709 -0.284601 -0.743775 -0.286693 0.00377182 0.00385928 0.343973 0.0297894 0.818144 0.0316034 0.572984 -0.680423 0.51007 -0.313625 -0.682434 -0.371944 0.928678 -0.263068 0.561468 -0.186951 -0.637656 -0.349205 0.77957 0.871182 0.380385 -0.385738 -0.553163 0.523356 -0.464708 0.127708 -0.473029 0.291573 0.850207 -0.201203 -0.981756 -0.132457 0.815186 0.379824 0.911247 0.647788 -0.591326 0.485758 0.97078 0.926446 -0.818409 -0.70414 -0.437977 -0.874729 0.0314641 -0.878188 -0.0726162 0.38282 -0.233733 -0.2827 0.265789 -0.847427 0.341284 0.72567 0.686537 0.884908 -0.149351 -0.788882 0.171517 -0.297664 0.0166428 0.1996 0.579441 -0.169425 -0.423962 0.490732 -0.516755 -0.00386192 -0.00792253 -0.529368 -0.0605423 0.179125 -0.230944 0.50316 0.307102 0.803336 0.623964 -0.764024 0.188235 -0.603714 -0.0409437 -0.540626 -0.445372 -0.692143 -0.808312 -0.736952 -0.782021 0.0755147 -0.512635 0.398189 0.790969 0.515601 -0.397414 0.370852 -0.641101 0.199318 -0.117606 -0.144673 -0.793262 0.882668 0.331435 0.15263 0.0747939 -0.886708 -0.329909 -0.605235 0.929333 -0.69028 -0.354784 0.132512 -0.278984 0.629937 0.617695 0.307807 0.941119 0.813953 0.551964 -0.846783 -0.116415 -0.960421 0.549741 -0.331866 0.548946 -0.846033 -0.959551 0.890833 0.336101 -0.0941516 -0.260023 0.537945 -0.212966 -0.930082 -0.311001 0.866046 -0.813974 0.360473 -0.74037 -0.883575 0.671215 -0.0921796 0.251267 -0.588906 -0.451157 -0.118981 0.708042 -0.507821 -0.306786 0.260514 -0.357872 0.576636 0.295194 -0.796766 -0.749695 -0.140643 -0.637138 -0.697329 -0.229996 0.717986 0.225525 0.525494 0.272513 -0.9703 0.601328 0.967331 0.88742 0.791424 0.333841 -0.845215 0.917033 0.0187415 0.0760536 0.181918 0.420051 0.620894 -0.93333 0.130982 -0.891228 -0.248182 -0.61524 -0.242734 -0.663935 0.692995 -0.0356112 -0.412139 -0.449812 0.32156 -0.107984 0.318948 0.0489058 -0.87236 -0.143881 -0.673378 -0.839891 -0.529156 -0.698318 -0.9413 -0.722363 0.657976 -0.76374 -0.793868 -0.321623 0.313675 0.39826 -0.89079 -0.0645694 0.458969 0.23617 0.0504772 -0.783999 0.626331 0.813241 -0.439671 0.326028 -0.200843 0.180169 0.908636 -0.863127 -0.918669 0.242028 0.198466 -0.785984 -0.902629 0.531925 -0.611225 -0.417102 0.846587 -0.540717 -0.132401 0.508265 -0.29982 0.0887061 -0.798392 -0.971757 -0.502043 -0.678418 -0.0241197 0.967804 0.569039 -0.959282 -0.790164 0.22162 0.885845 -0.226677 -0.448016 -0.332104 0.947162 -0.549684 -0.196689 -0.972928 0.690673 -1.00476 -0.7555 0.791323 0.522917 -0.372755 -0.639394 0.355979 0.074441 0.225335 -0.13842 0.769434 -0.680192 0.0695508 0.806415 -0.179389 0.394048 -0.211122 -0.203325 -0.028967 -0.146295 0.0156362 -0.790417 -0.265776 0.808235 -0.230272 0.405674 0.754994 0.22784 -0.787575 0.798417 -0.0625057 -0.775278 -0.956142 -0.272634 0.759946 -0.317333 0.106971 0.127118 0.774867 -0.647201 -0.99632 0.561229 -0.328106 0.0772909 0.373986 0.500226 -0.521382 -0.831677 -0.691388 0.46912 0.0247087 0.327909 0.668659 0.754878 0.128392 -0.565747 0.155642 -0.11225 0.666446 0.37656 -0.320523 -0.40521 0.599234 -0.268901 0.32951 0.35822 0.429843 -0.548606 -0.498577 0.214427 -0.188171 -0.482549 -0.211866 0.493613 0.608689 -0.822596 0.015621 -0.89316 -0.646422 0.325627 0.571655 0.382983 -0.345945 0.241211 0.133225 0.786444 0.680676 -0.706213 -0.321185 0.354571 0.677698 0.373107 0.9835 0.308735 -0.864934 0.32115 -0.318759 0.573403 0.774105 0.178942 -0.205305 -0.399622 0.710788 0.587513 -0.8962 0.326134 0.770292 0.12585 0.439502 -0.861111 -0.534305 0.0226928 0.53258 0.135598 -0.721142 -0.318449 -0.061915 0.985601 0.00161669 0.649236 0.343909 -0.31716 0.0201878 0.319953 0.981223 0.149146 -0.360345 -0.339035 -0.276033 -0.579445 0.846367 0.517727 0.0185726 0.547011 0.0973898 0.115363 -0.126045 -0.124295 -0.753188 -0.678629 0.0187683 -0.280806 0.3515 -0.444152 0.859259 0.63811 0.24503 -0.178668 0.640606 -0.736339 -0.534619 -0.00291301 -0.0452441 0.488672 -0.683727 -0.0560355 -0.354478 -0.0309017 0.613681 0.386835 0.39377 0.468489 -0.0828356 -0.576461 0.0344696 -0.975123 0.556748 0.92888 -0.0913949 0.813011 -0.749012 0.928822 -0.457524 0.616305 -0.50178 -0.592604 0.260611 0.75069 0.219217 -0.101802 -0.989441 0.686663 0.886552 -0.0385897 0.171005 -0.792781 0.909681 0.825131 0.173278 0.523522 0.217116 -0.424604 0.000507344 -0.873998 0.0145174 -0.950358 -0.833622 -0.419466 0.985106 0.0873343 -0.594035 -0.753759 0.030473 -0.0416391 0.874927 0.544651 0.3703 0.146768 0.296138 -0.402437 -0.960973 0.305895 -0.720649 0.929998 -0.727681 0.455032 -0.85787 -0.811141 0.28702 0.330094 0.746619 -0.471853 0.935532 -0.245657 -0.335772 -0.0414485 -0.196198 -0.170581 0.5437 -0.197433 0.936054 0.962929 0.0669229 -0.0249456 -0.0733538 -0.0484505 -0.476743 -0.691272 -0.893646 0.822877 -0.0888812 -0.84511 0.144338 0.206329 -0.899168 0.430806 -0.312855 -0.724346 0.646841 0.977858 0.60329 0.374317 -0.504247 0.53279 -0.877388 0.162041 -0.507315 -0.0612255 -1.00119 -0.962313 0.740137 0.927863 -1.00617 -0.198805 -0.102715 -0.0853396 0.744661 0.414824 0.217868 0.84805 0.242081 -0.866796 -0.9923 -0.602318 0.35077 -0.879443 0.852927 -0.945125 -0.593336 0.504936 -0.958086 -0.985459 -0.110045 -0.455561 0.554021 0.012185 0.710913 -0.94032 0.956181 0.722403 -0.885421 0.712189 0.661095 -0.889217 -0.476497 -0.425342 0.0419583 -0.713932 -1.00676 -0.736846 -0.85978 0.247308 -0.591305 -0.841684 0.650633 0.765368 -0.716523 0.50394 0.817149 -0.304869 -0.000355228 0.852671 -0.299313 0.882298 -0.59786 -0.73631 -0.0955421 -0.874877 -0.66742 -0.126571 0.848089 -0.561128 -0.417153 0.51456 -0.440343 0.120783 -0.902458 0.605442 0.410983 -0.898886 0.882357 0.554628 0.366142 -0.694481 0.727411 0.0215899 -0.924575 -0.981414 -0.480669 0.88611 -0.294334 0.523009 0.742251 0.40925 0.407689 -0.847953 0.680539 -0.679148 -0.69529 -0.960097 0.218401 -0.838293 -0.514651 0.816298 0.68288 0.0497861 -0.0510415 0.800982 -0.317306 -0.620247 0.921061 -0.426373 0.951277 0.290994 -0.116779 0.690831 -0.679212 -0.0360103 0.720171 -0.144046 -0.134571 -0.564464 -0.611489 -0.382467 0.872652 0.83074 -0.20206 0.569653 -0.850799 0.0835794 0.585985 0.359794 0.237801 -0.929182 0.175625 -0.0650331 0.134622 -0.869443 -0.264053 0.8101 -0.496606 -0.348772 -0.622003 -0.552995 0.934529 0.255563 -0.86563 -0.748016 -0.78273 0.853111 0.107037 0.0883338 -0.699889 0.507628 0.71862 -0.810254 0.348466 -0.467132 0.756853 0.508179 0.626469 0.361179 -0.131121 -0.136277 0.435497 -0.936308 0.817605 -0.409894 -0.785088 -0.438066 -0.595741 -0.278183 0.235297 -0.207622 0.180609 0.170192 -0.948671 0.318685 0.428487 -0.719098 0.184299 -0.454438 0.373955 0.489456 -0.941357 0.100347 0.676726 0.403802 0.628307 0.427775 -0.0955537 0.248066 -0.217875 0.781614 -0.877547 -0.775685 0.85287 0.938647 -0.199059 -0.94724 -0.503443 0.203901 -0.222158 0.723837 -0.995822 0.962174 -0.101539 -0.933974 0.294612 -0.664073 -0.635343 -0.506897 -0.109649 0.743763 0.987725 -0.0446246 -0.157032 0.657984 -0.642279 -0.524702 0.0899478 0.265603 0.726564 0.878193 0.0542033 0.855406 -0.876114 -0.072298 0.818268 -0.0618016 0.0168805 
-0.609993 -0.778828 0.846263 -0.873166 -0.809026 0.82143 0.0378187 -0.6888 0.119585 0.379869 -0.320329 0.617505 -0.716972 -0.565479 0.567668 0.206438 0.24841 0.22942 0.567879 0.728072 -0.661606 -0.14714 0.474424 -0.767066 0.923128 0.346343 -0.629997 -0.136368 0.177918 0.306096 0.857233 0.446768 0.396007 0.570256 0.499278 0.5775 0.402417 -0.452558 0.897698 -0.567414 0.86923 -0.480682 -0.978147 -0.939963 -0.154344 0.528954 0.23908 -0.917722 -0.238344 -0.189734 0.813649 0.162276 0.725327 0.350444 0.393452 0.647022 -0.304646 0.752088 -0.49502 0.86781 0.0537889 -0.649219 0.42454 -0.431183 1.03904 -0.0211441 -0.806048 0.362662 0.447937 1.01328 0.806648 0.31889 -0.465636 0.809089 0.371523 0.356772 0.335861 -0.401879 0.401666 -0.939787 0.381235 0.229462 0.177702 0.0619094 -0.450277 -0.453851 -0.316388 0.23046 -0.697486 0.186798 0.105551 0.343648 0.524612 -0.566229 0.816149 0.466729 0.372968 0.970372 -0.130344 -0.196155 0.903634 -0.424826 -0.999606 -0.621208 -0.687967 0.299741 0.694172 0.640787 0.900991 0.154774 0.752556 0.338913 -0.544552 0.00889393 -0.531642 0.0726746 0.621496 0.22343 -0.636139 -0.974195 -0.486957 0.551901 0.393027 -0.928747 -0.980725 0.242785 0.560272 0.404582 0.225588 -0.625517 -0.894392 0.0895136 -0.0426919 -0.83893 0.523336 0.352472 0.496557 0.253307 0.0361248 0.39291 -0.596041 -0.209058 -0.223307 -0.111368 0.828467 0.279545 -0.98924 0.50101 -0.455592 -0.58389 0.509377 0.0505924 0.976227 -0.0893799 0.119483 0.978141 -0.864699 -0.337818 0.326751 0.24685 -0.0293173 0.357319 -0.679893 0.912429 0.523043 0.848176 0.274387 -0.0698771 0.0427477 -0.749268 -0.65127 0.44048 0.0354864 0.112522 -0.715654 -0.187082 -0.658918 -0.708435 -0.682797 -0.0415479 -0.219366 0.914541 1.01797 -0.248883 -0.195583 0.136914 -0.271794 -0.0605847 0.80648 -0.925456 -0.692549 -0.109853 0.523628 -0.323456 -0.149769 0.0267944 -0.495267 -0.895401 0.968282 0.490266 -0.701874 -0.767906 -0.115862 0.200409 0.288308 0.14905 -0.968341 0.59199 0.424431 -0.626276 -0.483643 -0.839747 -0.75692 -0.490652 -0.113952 0.02218 0.620884 0.588874 0.955252 0.413468 0.628993 -0.813386 -0.77251 0.0758734 -0.176483 0.0380061 -0.916038 0.252273 0.00362464 0.892192 -0.37975 0.243126 -0.947923 0.432148 -0.54269 0.333178 -0.415537 -0.452083 -0.0232668 -0.945286 -0.0178142 0.560964 -0.728171 0.282005 -0.873942 0.218592 -0.63509 0.86769 -0.0707482 -0.577108 0.324933 -0.387964 -0.356885 0.586024 0.710187 0.431592 -0.410946 0.738727 -0.371582 0.600302 0.685951 0.297623 -0.10818 0.773798 -0.228426 0.39095 0.149818 0.352069 0.934902 -0.871092 0.450968 -0.054414 0.718399 0.757369 -0.722307 0.88482 0.017353 -0.315927 0.745794 0.939749 0.115194 0.078977 -0.451555 0.746029 -0.347041 -0.751878 0.160985 0.167027 0.914183 0.717296 -0.246684 0.54386 0.0317243 0.661962 0.327148 0.708287 -0.0112806 -0.588305 0.0848356 -0.0832837 -0.466286 -0.477112 0.865471 -0.77148 -0.743608 -0.927976 -0.920277 0.299335 -0.155916 0.913477 0.268242 0.958685 -0.00812673 0.81707 0.698586 0.6384 -0.933494 -0.139056 -0.072117 1.09319 -0.288655 0.752264 0.721027 0.717121 0.387271 -0.0191772 0.416085 -0.723155 0.313595 -0.584038 0.137257 0.735213 -0.173205 -0.088869 -1.04535 0.0743961 0.0428129 -0.905943 -0.62569 0.84725 -1.03207 0.603057 0.780584 -0.0655553 0.394784 0.453865 -0.433544 0.447339 -0.698446 0.399158 0.445224 -0.104318 0.110851 0.105532 -0.405731 -0.598093 0.947308 0.850265 -0.42179 0.22343 -0.805982 0.673483 -0.0275271 0.0693701 -0.356465 -0.0139289 -0.804734 0.739529 0.126047 -0.376982 0.636268 0.15073 -0.718194 0.477571 -0.854109 0.797258 0.0532359 -0.184783 0.288466 0.397902 -0.742526 -0.212372 -0.653085 0.343989 0.858179 -0.114277 0.690471 0.860515 -0.208984 -0.68293 0.0849645 0.0208086 1.03237 -0.899764 -0.867025 -0.328088 0.0812875 -0.669371 -0.551712 -0.763567 -0.017815 -0.891581 0.426063 0.304361 0.638149 0.624119 0.0949705 -0.31646 -0.553483 -0.60938 -0.904126 -0.296519 0.1673 -0.553609 -0.969178 -0.0495041 0.239263 0.649196 -0.250415 -1.02602 0.983047 0.85142 0.00429812 0.9265 0.893427 0.0640187 -0.411732 -0.0587593 0.376154 0.032621 0.179738 -0.639568 0.147799 -0.387143 0.687501 -0.106171 -0.70226 -0.17174 0.525194 -0.275453 0.19915 0.615125 0.421893 -0.639978 -0.957933 0.501452 0.432974 0.394456 0.215265 -0.767463 0.431248 0.193552 1.07808 -0.590545 0.124848 0.885636 0.367365 0.621533 -0.229991 -0.333906 -0.423266 0.878295 0.011416 0.715425 -0.49656 -0.303823 -0.472723 -0.258623 0.46461 -0.98729 0.440573 -0.361597 0.602508 -0.162836 -0.0079266 0.631201 -0.722003 -0.670149 -0.0696906 0.39717 -0.457111 -0.678093 -0.427266 -0.47452 -0.427221 0.51729 -0.71023 0.917082 0.0810967 0.0178462 -0.403002 0.706335 -0.044931 0.667293 0.473336 0.511694 -0.590617 -0.946 -0.69745 0.930746 -0.877538 0.803829 -0.370112 0.845637 -0.237214 0.724807 0.52071 0.0839022 -0.902339 -0.495049 -0.465591 -0.383588 -0.208079 0.0511155 0.0858808 0.365711 -0.430566 0.424054 0.337259 0.739702 -0.515297 0.977072 0.488868 0.43476 0.639382 -0.0354242 -0.0167118 -0.922118 0.0471314 0.3097 -0.952459 0.210025 0.21312 -0.271356 0.0479467 0.920759 -0.538294 -0.423151 0.0190126 -0.44118 0.0708186 0.556979 0.178946 0.787773 -0.437429 -0.780835 0.145503 0.129169 0.593002 -0.520597 -0.189217 -1.01123 -0.580552 -0.752415 0.432574 -0.969627 0.192689 -0.588101 -0.895127 -0.756967 0.735546 -0.813751 0.501397 0.00858191 0.00325378 -0.424073 -0.122971 0.397691 0.133018 0.890033 0.950442 -0.802516 0.462351 0.151251 -0.898869 1.04934 0.388247 0.295641 0.194019 -0.00326179 0.790424 0.998947 0.00953405 -0.877005 -0.840343 -0.64944 -0.909515 0.254773 -0.314895 -0.866238 0.481597 -0.595577 -0.705417 -0.0465041 0.324447 0.198576 0.477512 -0.830361 -0.450123 -0.435863 -0.986686 -0.531558 -0.270248 0.401971 0.540146 -0.245341 0.374995 -0.148765 1.03227 -0.470034 0.829956 0.726649 -0.630291 -0.340767 0.728322 -0.513855 -0.0479509 0.776867 0.754722 0.685657 -1.04086 0.295249 -0.858365 -0.692936 -0.705373 0.519489 0.540549 0.814398 0.730392 -0.848866 -0.56073 0.864375 -0.258624 0.29081 0.329209 -0.656464 -0.911548 -0.252689 0.248143 -0.903886 0.252595 0.0220889 0.766745 0.623308 0.682332 0.543476 -0.836081 -0.276453 0.363176 0.903398 -0.606039 0.306666 0.241013 -0.429667 0.635454 0.564193 -0.866601 0.225621 0.428772 0.914934 0.428976 0.925312 0.777642 -0.831365 0.22438 0.115048 -0.479574 0.30615 0.85663 0.7722 0.385824 0.0337615 -0.251231 0.127129 -0.350934 -0.571759 -0.379616 -0.189344 0.0947334 0.879601 -0.280926 0.493706 0.222046 0.958351 -0.903482 -0.0954358 0.555679 -0.762195 -0.846937 0.0070847 -0.819127 0.654079 -0.000347166 0.979035 0.76435 -0.84931 0.0682803 -0.721133 0.450867 -0.0819073 1.06636 -0.127321 1.02029 -0.160353 1.02363 -0.234223 0.283353 -0.340474 0.590777 -0.628772 -0.436854 -0.77704 0.778047 0.707666 -0.867558 0.750742 -0.435646 0.67623 -0.9719 -0.369575 -0.41303 -0.896485 -0.824253 0.467266 -0.969332 0.908298 0.571576 0.0525764 -0.859194 -0.00941809 -1.06125 -0.866488 0.789754 0.930219 -0.103197 0.736267 -0.321961 -0.858927 -0.607704 -0.812804 -0.646868 -0.224266 -0.710635 -0.912042 -0.574378 -0.620134 0.852522 -0.0172196 -0.97131 0.863593 0.644514 -0.35111 -0.986963 0.873681 -0.848953 -0.913994 0.823242 0.783384 0.199288 -0.915281 -0.104342 0.259836 -0.718903 -0.252532 0.233028 0.220976 -0.463004 0.886418 0.337428 -0.141059 1.00311 0.691563 0.635654 -0.706494 0.786619 -0.896901 -0.283797 0.671263 0.117974 -0.223422 0.577247 -0.202771 0.447165 0.618809 -0.285542 0.647829 0.754992 -0.411088 0.482379 0.0115449 -0.312984 -0.607609 -0.720366 -0.0387785 0.133042 0.506007 -0.823777 0.65364 0.375865 0.438166 -0.512902 0.353651 0.122023 -0.879974 0.658789 -0.0468391 -0.78711 -0.630545 -0.356482 0.34999 0.144407 -0.780909 -0.839434 -0.388486 0.857409 -0.1115 -0.71877 0.635045 0.505523 0.836661 -0.286174 -0.802077 -0.844604 -0.0800778 0.133104 0.28286 -0.579801 0.303044 -0.0753347 0.784796 -0.189995 0.436354 0.209726 0.969435 0.539958 -0.20975 -0.0977069 0.731661 0.118327 0.519282 0.0551804 -0.763803 0.696081 0.163068 -0.180959 0.541636 -0.954274 -0.0069123 0.0804954 0.4458 -0.279007 0.67487 0.591863 -0.155135 -0.37187 -0.241683 -0.839219 -0.0484728 -1.03551 -0.0203155 -0.304274 -0.287777 -0.631907 0.809332 -0.258435 0.967176 -0.305724 0.656352 0.648303 0.726448 0.0750704 -0.334037 0.890404 -0.270793 0.797431 -0.31796 -0.75658 0.826131 0.706514 0.357019 0.317871 -0.519155 0.0668145 -0.0479651 0.366968 0.676241 0.691585 0.568972 -0.265043 0.763354 -0.388489 0.49273 -0.462492 0.0416203 0.374249 0.254308 -0.0159416 0.992087 -0.165788 -0.38101 0.71111 0.916346 0.293036 0.644346 -0.311639 0.121581 -0.642517 -0.0365291 -0.00989173 -0.901331 -0.657812 -0.66352 -0.376937 0.473624 0.352691 -0.944748 0.201078 0.0875351 0.623517 0.935326 -0.140804 -0.771799 0.421238 0.390001 0.263853 -0.221172 -0.352162 -0.800692 -0.268264 0.422828 -0.189402 -0.528105 0.361612 -0.873953 -0.886607 -0.946333 0.261052 -0.530165 0.0155139 -0.750516 -0.418108 0.371058 -0.385057 0.239491 -0.14189 0.966755 0.288296 -0.882853 0.121573 -0.0358708 0.978854 0.907196 0.118902 0.394515 0.291545 -0.623546 -0.831675 0.914189 -0.382207 -0.061868 0.422309 0.439051 0.366955 -0.300136 0.539075 0.453914 -0.27283 -0.226348 0.912272 0.731173 -0.0191515 -0.55335 0.0651227 0.574437 0.639042 0.816029 0.445035 -0.178645 0.824474 -0.552843 0.686226 0.771799 -0.677252 -0.226475 0.134456 0.582415 0.118115 0.269881 0.464398 0.687958 -0.839939 -0.209267 0.172544 0.586535 0.585778 -0.275841 -0.0100614 -0.773171 0.397191 -0.150339 0.87074 -0.663948 0.24455 -0.0915387 0.883088 -0.133426 -0.244081 0.36124 0.733814 -0.36626 0.843302 0.462353 -0.553212 -0.787674 -0.717925 0.687402 0.901953 0.507425 0.005668 0.414028 0.24308 0.213242 -0.748305 -0.619978 0.987173 
