0.485722 0.244039 0.262651 0.379162 -0.788998 -0.754251 -0.301468 0.0758699 -0.552564 -0.0946888 0.199239 -0.891111 -0.309809 0.286988 0.993215 -0.922646 -0.0235417 -0.737269 0.182478 -0.050547 -0.723053 0.61038 0.120221 0.669596 -0.753138 0.612965 -0.420143 0.886941 0.0148732 0.183042 -0.632452 -0.520972 -0.596508 0.62651 0.845375 -0.40038 0.859805 -0.471856 0.663176 -0.719114 0.405544 -0.175816 -0.639884 -0.936244 -0.935608 -0.694299 -0.910425 0.0147412 -0.466882 0.240818 0.923095 -0.223494 -0.185984 0.0146813 -0.581482 0.0497469 -0.372272 -0.00147995 -0.0815195 0.603809 -0.85308 0.258278 -0.943484 -0.489461 -0.163687 0.848484 0.0686632 -0.336822 -0.661698 -0.304299 -0.0863624 0.722725 0.496579 0.252365 0.768037 0.561751 0.55707 0.855426 -0.422565 -0.913261 0.0907221 -0.492923 -0.131109 0.911326 0.519456 0.287877 -0.0493999 -0.873434 -0.732304 0.864373 0.732503 -0.592879 0.11095 0.763407 -0.097541 0.928516 0.609485 0.966104 -0.408216 0.961391 -0.322647 0.516474 0.690912 -0.821941 -0.238011 0.456812 0.742036 -0.684632 0.284535 -0.705561 -0.623212 -0.631498 -0.212292 0.222608 -0.732106 -0.696844 -0.489302 0.199151 -0.579444 -0.23531 0.0434758 -0.876868 0.138376 -0.890467 0.864101 -0.971508 -0.967853 0.461692 0.998552 -0.37764 0.398084 -0.35393 -0.882354 0.0857885 -0.191142 -0.137289 -0.462293 -0.445842 0.179671 0.829647 -0.15593 0.551255 -0.808089 0.630524 -0.223423 -0.549486 0.921285 0.277674 0.648457 -0.672599 1.02703 -0.323396 -0.564293 0.158816 -0.21946 -0.706868 0.184962 -0.186218 0.75669 0.159139 0.415065 0.152508 0.796899 0.517801 -0.773214 -0.405521 -0.633852 -0.266864 0.112132 0.505876 -0.473538 0.925652 0.0110399 -0.32758 0.510461 0.753812 0.0885701 0.393735 -0.00904488 -0.303939 0.685452 -0.0126132 0.342025 -0.898249 -0.85229 -0.873045 -0.602708 0.298841 -0.0936137 -0.882936 -0.59262 -0.724406 0.220743 -0.830949 0.753337 0.417536 -0.270214 -0.916116 -0.884634 0.816014 0.567537 -0.374352 0.727177 -0.427852 0.293416 0.232984 -0.672387 -0.62522 -0.370642 0.322532 0.0731714 -0.6869 -0.690593 -0.580101 -0.58355 -0.56112 -0.471048 -0.191891 0.731232 0.423273 -0.100443 -0.869096 0.68602 -0.885706 -0.706556 0.435812 0.525885 0.0352145 0.536273 0.654454 -0.139421 0.105504 -0.72892 -0.41655 0.679838 0.559072 0.798857 0.982421 0.906258 -0.594583 0.291685 -0.0384151 -0.29109 0.594858 0.380419 0.115721 -0.970983 0.901199 0.906481 0.734802 0.300384 -0.227012 0.834328 -0.039205 -0.125905 -0.883257 -0.599961 -0.597746 0.126699 0.904107 -0.96813 0.981632 -0.003185 -0.714791 -0.438996 -0.327442 0.83955 -0.652602 -0.349675 0.747891 -0.253399 0.940056 -0.287737 0.451063 0.526924 -0.914018 -0.440163 0.537454 0.967952 -0.556372 0.244217 0.245395 0.205416 0.0735197 -0.793184 -0.920329 0.191245 -0.416334 -0.536204 -0.681227 -0.520353 -0.52163 -0.708532 0.465874 -0.256693 -0.186316 -0.896872 -0.444497 0.131209 -0.295306 -0.750166 0.83564 -0.387954 -0.0802625 0.241918 -0.90018 -0.0396545 0.758183 0.595086 -0.0964401 -0.813699 -0.165731 -0.840683 0.391725 0.901235 -0.667723 0.43632 0.0703931 -0.133208 0.818836 0.318069 0.309908 -0.720449 0.571046 -0.2746 -0.0138875 -0.657541 -0.203869 0.509395 0.460466 0.497386 0.758837 0.298842 -0.88356 -0.299088 -0.455323 -0.77455 0.671912 -0.685848 0.829891 -0.415145 -0.498963 -0.343313 -0.273761 0.87278 -0.456046 0.03554 0.289418 0.57557 0.893682 0.128409 -0.0988276 0.202993 0.410631 -0.507207 0.954781 -0.586436 -0.152903 -0.24482 0.929667 -0.692216 -0.741846 0.691887 0.596864 -0.658405 -0.647489 -0.902662 -0.463174 -0.995079 -0.594013 -0.643193 -0.425343 -0.114633 -0.00621872 0.282798 -0.256112 0.523015 -0.703088 1.01066 0.0829053 -0.83603 0.112609 0.962713 0.352068 -0.481426 -0.55749 0.268492 -0.0966895 0.268355 -0.978132 -0.177191 0.563868 -0.719912 -0.490715 0.151378 -0.378707 -0.135976 0.259493 0.163149 -0.136711 0.66579 0.511177 0.426877 -0.466083 -0.503107 -0.305165 0.260968 1.00262 -0.0341002 0.246687 0.0640261 0.119954 -0.644832 0.0274765 -0.522209 -0.136125 0.455795 0.754645 0.754679 -0.294977 0.75964 -0.431878 -0.74724 1.00635 0.0408546 0.379046 -0.400275 0.854513 -0.418939 0.712738 -0.321932 -0.81418 0.17969 -0.926589 -0.316747 0.654551 -0.255773 0.932012 0.617303 0.675055 0.189632 -0.2991 -0.183673 0.513758 0.675831 0.260152 -0.677949 0.0916194 -0.0733998 -0.984003 0.755321 -0.328914 -0.447308 0.959422 -0.361687 0.554634 0.310295 0.21529 0.412973 0.878861 -0.0573828 -0.880733 -0.894194 -0.842276 -0.791451 -0.184853 0.805221 -0.0741111 -0.271289 0.399577 -0.404916 0.870527 -0.954132 0.378644 0.343515 0.699506 -0.406148 0.65209 -0.222477 0.535451 0.695386 -0.460758 -0.772221 -0.762819 -0.502873 -0.127419 0.815466 0.808468 -0.905152 0.22331 0.679883 0.0147314 0.294613 0.732033 0.0925575 0.440921 -0.482847 -0.148542 -0.651794 0.209197 -0.779422 -0.0824777 0.0633942 -0.74338 -0.731032 -0.615898 0.931201 -0.162006 -0.980778 -0.306722 -0.635826 0.681792 0.203834 -0.436792 0.895604 0.668995 0.418767 0.706361 0.469127 0.492907 -0.0790257 0.135666 -0.513403 -0.787146 -0.123061 0.587022 0.663 0.381895 -0.555446 1.00195 -0.420313 -0.353647 -0.0864286 0.628413 -0.107543 0.174931 0.985007 -0.199939 0.993023 0.992577 0.485616 -0.651961 0.671893 -0.329702 -0.105491 0.556403 -0.667858 -0.714118 0.240159 0.798441 0.771846 -0.84507 -0.0915669 -0.763473 -0.659514 0.721695 0.772039 0.943851 0.0761742 -0.828459 0.915628 0.630632 -0.218601 -0.204473 0.190846 0.605867 0.925708 0.156558 -0.600863 0.913382 0.179527 0.851041 -0.81374 -0.215938 -0.514792 0.0843623 -0.670989 -0.228204 0.297817 0.518825 -0.463244 0.0484617 0.635681 0.376583 0.212233 0.928503 0.0959333 -0.0275983 0.891333 -0.790681 0.175761 0.799855 0.829344 0.949219 -0.414683 0.0175947 0.551478 -0.513388 -0.855699 0.904931 -0.674968 0.278048 0.735326 -0.482069 -0.947287 -0.763636 0.594743 -0.642662 0.0272288 -0.0707154 0.891892 0.561368 0.964577 0.525292 -0.0501489 0.182852 0.418172 -0.974391 -0.871438 0.247606 -0.842146 0.237193 -0.0381941 0.897043 0.100941 0.490445 -0.166811 -0.443858 0.895795 -0.0631259 -0.573245 -0.812692 -0.829784 -0.860718 -0.311495 -0.81304 -0.658956 -0.743999 -0.473928 0.338419 0.148484 -0.611981 -0.13933 0.0738186 0.886493 0.803984 -0.756405 0.287472 0.815909 -0.639984 -0.476928 0.966978 0.592467 0.496825 0.854945 -0.327362 -0.027729 -0.336278 0.213561 -0.167719 0.586199 0.632268 0.0174637 0.752915 0.752817 0.687119 0.923537 -0.912066 0.931967 -0.55534 0.424614 0.0611495 -0.193425 -0.72833 -0.869901 -0.323961 -0.938223 -0.623651 0.964123 0.884213 -0.29474 -0.548098 0.798061 -0.719282 0.910916 0.62071 -0.087669 -0.154761 -0.721013 -0.908813 0.617595 0.776859 0.675257 -0.39257 0.50956 0.406672 -0.720746 0.428555 0.513642 -0.819777 0.815114 -0.133526 0.20299 -0.382303 0.116015 0.323418 0.260771 0.172775 0.657254 0.170409 -0.0544591 -0.74073 0.52866 -0.276874 -0.477949 0.430267 -0.672972 0.422625 -0.713565 -0.465992 0.486288 0.921909 -0.651163 0.159736 -0.500038 0.82619 -0.501723 -0.273008 0.184062 0.955025 -0.137982 -0.0244343 -0.204777 -0.930684 0.591144 0.896631 0.366517 -0.186851 0.0188966 -0.0200825 0.957457 0.95174 0.265471 0.488856 -0.38308 0.733194 -0.118598 -0.147668 0.0711375 0.0678867 0.304115 -0.541428 -0.116862 0.537455 0.521676 0.279492 0.273264 0.972351 0.951314 -0.588495 0.896372 -0.21361 0.362478 -0.334902 -0.180175 -0.090344 -0.46023 -0.841993 0.705852 0.545605 0.108429 0.614268 0.467863 -0.63788 0.0999566 -0.92232 -0.934273 0.958813 -0.0870766 0.136636 0.0449175 -0.764401 0.598267 0.910444 0.763403 0.117947 0.182186 0.0408002 0.0954882 0.139796 0.429664 -0.0227809 0.905261 -0.211399 0.626564 -0.288198 0.682652 -0.84506 -0.131813 0.357366 0.672142 0.963422 -0.0324362 0.119842 -0.709005 1.06323 0.187091 -0.640988 1.00538 -0.918367 0.455975 0.00329789 -0.733595 0.0312486 -0.112386 0.991714 -0.88355 1.04789 -0.0437613 0.10627 0.101639 -0.630926 -0.922315 0.0099777 0.13711 0.698489 0.663977 -0.234549 0.775811 -0.492833 -0.866239 0.439055 -0.528503 0.0697906 -0.446985 -0.280129 0.084489 0.666789 0.00641259 -0.0344893 0.650314 -0.61638 0.938012 0.889458 0.394649 -0.234426 0.846603 0.441794 -0.220468 -0.179235 -0.417042 0.858849 0.14309 -0.392518 -0.217721 -0.810855 -0.809684 -0.59109 -0.0616056 0.956643 -0.115744 0.0177904 0.403275 0.290749 1.02883 0.878942 0.949416 0.0228733 0.488575 -0.114322 0.947744 0.0901583 0.216019 0.815835 -0.110672 -0.491245 -0.516255 -0.376029 0.850153 0.138932 0.322052 -0.706024 -0.129235 -0.662207 -0.195565 0.590421 -0.496764 -0.0305492 0.965349 0.396945 -0.101577 -0.204928 -0.643284 -0.772181 -0.962447 -0.66861 -0.92974 0.952952 0.315384 0.499766 -0.185577 0.274321 -0.410276 1.0279 0.0601681 0.466615 -0.482291 0.550194 -0.876732 -0.611307 -0.297165 0.447794 -0.303585 0.603648 0.810785 0.518487 0.210308 -0.673735 -0.525001 0.16033 0.705861 0.361387 0.931905 -0.957617 0.577391 0.959348 -0.631128 0.621224 0.906739 0.686558 0.113486 -0.308457 -0.0764475 0.69144 -0.296889 0.991641 0.152684 0.210237 0.502557 0.224267 0.557027 -0.808699 -0.340983 -0.817963 0.701781 -0.611527 0.633216 -0.140871 -0.339957 -0.911697 1.00776 -0.614155 0.443818 0.922002 -0.602579 -0.0256815 0.842532 -0.29768 -0.420396 0.680479 -0.635322 0.649246 -0.60024 0.289865 0.308677 0.0105547 0.177195 -0.649791 -0.872749 -0.418448 0.489784 0.597967 -0.31541 1.08376 0.776627 -0.585473 -0.548244 0.398105 0.259571 0.120758 0.450609 0.206897 0.394953 -0.225238 0.0337718 0.706294 0.699937 -0.183646 -0.62991 -0.798784 -0.516918 -0.316515 0.783879 -0.218087 0.858901 -0.00602874 0.710608 -0.0322045 0.259821 0.752982 0.472775 -0.338568 0.25222 -0.920747 -0.354917 -0.0904358 -0.615023 -0.0087011 -0.811099 0.510937 -1.03487 0.499426 -0.376337 0.291844 -0.742031 0.641144 -0.0244026 0.907309 -0.584439 0.291239 -0.941369 -0.158842 0.927714 0.797832 0.59809 
0.777254 -0.226478 0.265904 -0.288652 1.01456 0.00277194 -0.818468 -0.322637 -0.736833 -0.712192 0.339745 0.195559 -0.297201 -0.63337 0.419912 -0.746523 -0.614823 -0.0352957 -0.0742503 0.697996 0.226974 -0.445861 -0.345624 0.111392 -0.0494721 0.920217 0.147915 0.781386 0.843384 -0.0636597 0.341484 0.59865 0.697997 -0.407406 -0.711049 0.665542 0.561736 -0.564006 -0.69442 0.781025 -0.32403 0.610012 -0.0750268 0.315827 0.903451 -0.715524 0.510198 -0.77932 0.188298 -0.630558 0.849778 -0.65165 -0.149941 -0.548856 0.408273 0.768685 -0.674024 -0.520244 0.469321 -0.907594 0.352425 -0.221381 0.652621 0.0133891 0.311894 0.89219 -0.374329 -0.202309 -0.758993 -0.136462 -0.484378 -0.131916 -0.576107 0.388456 -0.874613 -0.729482 0.653723 0.615776 -0.532942 -0.220068 0.943205 -0.716129 0.0963005 -0.251898 -0.328879 -0.538566 -0.515103 -0.0291279 -0.0902102 0.926416 0.0457231 -0.731075 -0.332058 -0.339184 0.231356 0.932517 -0.501137 0.808572 -0.299742 -0.283328 -0.361338 0.170555 0.560981 0.0247148 -0.479211 0.612946 0.235716 -0.892049 0.202012 0.68216 -0.114593 0.100313 0.926184 0.950726 0.8267 -0.433442 -0.643459 -0.725157 0.502385 0.247229 -0.839902 -0.503867 0.467731 -0.205297 0.11955 -0.349903 -0.323305 0.59004 -0.575877 0.332104 -0.736797 0.0281502 -0.533162 0.775969 1.01785 -0.0257711 0.378684 0.250224 0.0721531 -0.444858 -0.0883958 0.935027 0.634492 -0.197672 0.856799 0.43728 0.346225 -0.80886 0.678575 -0.19592 0.393857 0.794834 0.256414 -0.193664 -0.465918 -0.648066 0.435047 0.183008 0.92055 0.836989 -0.487199 -0.842238 -0.154993 -0.0637585 0.896266 -0.172626 0.871013 0.2341 1.0238 -0.103373 0.736036 -0.119568 -0.228579 0.313959 0.624479 -0.429511 -0.309992 -0.0911123 -0.302126 -0.690084 0.657814 1.03214 1.04727 -0.142434 -0.206819 -0.490638 0.146232 -0.849832 0.667562 0.0192411 0.948135 -0.888096 0.120056 -0.260634 0.00115074 -0.0562769 0.481007 -0.203973 -0.891175 0.465615 0.660861 0.801173 -0.709816 -0.621155 0.0915871 0.894854 -0.0607738 0.749738 -0.239531 0.587724 1.00344 -0.641495 0.564824 1.001 0.181042 -0.68159 -0.519337 -0.706111 -0.55317 -0.880236 0.285338 -0.635985 -0.81399 -0.640635 0.0524218 0.136274 0.274364 -0.487632 0.904002 0.350358 0.941013 0.530016 0.110467 -0.80985 0.870928 -0.836487 -0.95922 -0.252116 0.876224 -0.24736 -0.704411 0.835291 0.0796762 0.822461 0.794677 -0.772894 -0.891818 -0.748094 -0.501371 -0.479277 -0.673119 0.740394 -0.163794 -0.535985 -0.950643 0.860202 0.559016 0.277999 -0.67312 0.431358 -0.419046 -0.772077 -0.066324 0.692822 -0.595612 -0.221196 0.817491 -0.575349 0.514655 0.664122 0.151619 0.783634 0.479535 -0.793013 0.583109 0.243646 -0.61143 0.641166 0.442614 -0.162266 -0.896552 0.712946 -0.476639 -0.086708 -0.84056 -0.454141 -0.253641 0.694277 0.811944 0.0375935 0.1018 -0.62809 0.282069 1.00617 1.0443 0.617867 -0.255118 0.786262 0.980833 -0.805997 0.379844 0.0533822 0.912509 -0.19391 0.211834 0.436862 0.978197 0.543116 0.00502223 0.35191 -0.683103 0.0527921 0.0149051 -0.219374 0.936484 0.129884 0.314019 -0.356445 -0.218878 0.0688259 0.645572 0.847362 0.356663 -0.185455 0.78541 0.333292 -0.609015 -0.501447 0.0739865 -0.682149 -0.361967 -0.591486 0.37713 -0.448496 0.214437 -0.457762 0.940362 0.117001 1.03158 -0.0937877 -0.551039 -0.687824 0.947721 0.447041 0.0725526 0.853562 -0.454029 -0.664582 -0.537222 0.296291 0.35578 -0.936944 0.0993578 -0.314619 -0.126902 -0.138249 0.987379 0.226537 0.312586 0.00671077 0.485104 0.911213 0.388625 -0.181278 -0.593935 -0.461321 0.31848 -0.69941 0.607663 0.308207 0.177584 -0.959381 0.581407 0.0848979 0.449952 -0.383066 -0.0909576 0.963078 -0.0865895 0.342187 0.228317 -0.767221 0.352899 -0.75244 -0.142376 -0.841041 0.0896222 -0.187678 0.341708 -0.622663 0.816893 -0.154965 -0.731423 0.162797 0.618513 -0.349914 0.682378 -0.0911212 -0.0650027 0.294056 -0.800146 -0.926081 0.311117 0.715962 0.109359 -0.291506 -0.659159 0.994584 -0.397842 0.189834 0.273404 0.811863 0.409796 -0.413495 -0.95389 -0.778182 -0.261924 0.115578 0.0230777 -0.957532 0.481356 -0.163994 -0.112209 0.699382 0.926011 -0.576849 -0.769626 0.532044 0.215743 0.0793742 -0.247319 0.352474 0.0866354 -1.00476 0.0759787 -0.791786 -0.303561 0.350916 -0.859276 0.256828 -0.476735 0.393049 0.0483798 0.878748 0.94983 0.0561768 -0.927555 -0.354905 -0.885996 0.053003 -0.363019 0.557562 0.841761 0.461905 0.178426 0.742147 0.847387 0.407783 0.274509 0.0909668 -0.450738 -0.915067 -0.485472 0.677027 -0.932676 0.566815 0.857249 -0.260667 -0.0840135 0.988456 0.985854 0.40903 0.352942 -0.00319098 0.261752 0.279965 1.02996 0.293159 0.876552 -0.883883 -0.665644 -0.502676 0.633991 -0.853064 0.927642 -0.227543 0.850383 0.728571 -0.865523 0.0918489 -0.198397 -0.362199 0.10916 0.263206 -0.733496 0.143632 -0.227217 -0.918155 0.849905 0.671683 -0.965992 0.800215 0.0472398 0.353987 -0.219857 -0.724206 -0.41752 -0.240118 0.526926 -0.567814 -0.173973 0.794779 -0.126057 -0.585142 0.912895 -0.234376 0.143394 0.712733 -0.509899 0.276034 -0.208045 0.227284 0.852255 0.86614 -0.542393 -0.924311 -0.0331401 0.234007 -0.831842 -0.221041 -0.14132 -0.866695 -0.448484 0.879354 0.460726 0.341354 -0.839499 1.03456 1.03757 0.653503 -0.522975 -0.166747 0.421761 0.281833 0.190816 0.254905 0.993291 -0.700122 -0.00999538 -0.525192 0.535287 0.708347 0.666985 0.350043 0.515259 -0.894278 0.380141 -0.575431 0.27371 0.466167 0.165533 -0.922739 0.550982 0.752565 -1.00241 0.069278 0.0360397 -0.907656 0.0924253 0.0415157 0.724287 0.517998 0.850058 0.0642574 -0.26818 -0.000439439 -0.706679 -0.296219 0.265519 0.24061 0.144774 -0.233862 -0.0744295 -0.178744 -0.85313 -0.518457 -0.0495565 0.571941 -0.0199324 -0.723447 0.143161 -0.749482 -0.556125 -0.232741 1.03501 -0.515625 0.889933 0.106361 -0.393082 -0.00883734 -0.841641 -0.692225 -0.522983 0.991059 0.35432 0.181491 -0.0435579 0.621442 0.876935 -0.796472 -0.15658 0.0191288 -0.0465332 0.732654 0.807795 0.0642653 -0.822718 -0.272505 -0.399442 0.112015 -0.0608003 0.66047 0.300497 0.349448 -0.607062 0.310551 0.802731 -0.730832 -0.618451 -0.618564 0.221873 -0.486381 -0.349719 0.666411 -0.551077 0.94801 -0.196203 0.365318 0.51634 -0.37932 0.538176 -0.680073 0.609375 -0.572892 0.993043 0.349826 0.457631 -0.84353 -0.943196 -0.974311 0.226646 -0.0592028 0.638291 -0.50984 -0.744986 -0.986391 0.742634 -0.991136 -0.737265 -0.884102 -0.658595 0.45979 -0.381481 0.0126978 0.11032 0.0347859 -0.0839558 0.896807 -0.609487 -0.59405 -0.504143 0.896054 -0.301332 -0.9428 -0.722647 -0.33401 0.426337 0.754282 -0.183879 0.415812 0.753158 -1.0044 -0.677323 0.385029 -0.527932 -0.427387 0.383145 -0.76487 -0.449499 0.557707 -0.729537 -0.0949969 0.0890429 -0.0852603 0.958962 -0.828171 -1.00987 -0.13542 -0.949956 -0.66217 0.242192 -0.529373 -0.828557 0.886941 -0.502487 -0.576813 -0.444811 0.913904 -0.825195 0.339755 0.304685 0.931521 0.38072 0.683438 0.331739 0.910768 -0.682309 -0.217181 -0.788392 -0.0181029 -0.527299 -0.37995 0.975082 0.604117 0.608059 0.964687 0.819172 0.609976 -0.179497 0.866668 0.951586 -0.942553 -0.648415 -0.896462 0.912411 -0.158336 -0.472845 -0.572205 -0.275707 -0.307412 0.745584 0.977034 -0.440458 0.063524 0.640171 0.873208 -0.0543276 0.900743 -0.432442 0.0702237 -0.187523 0.00515617 0.658143 -0.266358 -0.428353 0.212819 -0.342685 -0.654658 -0.188522 0.476876 -0.806663 -0.28997 0.449685 -0.533133 -0.245469 0.330703 0.27858 0.266721 0.735594 0.961202 0.923841 0.434008 0.910917 -0.568771 -0.530592 0.505485 -0.711524 0.371497 0.366094 -0.179058 -0.556417 -0.856605 0.755966 -0.965645 -0.159868 -0.712056 0.2452 0.510121 -0.370595 -0.980364 -0.0674504 -0.237731 -0.297864 -0.646576 0.275887 0.49359 0.714874 -0.495857 -0.303152 0.427183 -0.583129 -0.432045 -0.223879 -0.71747 -0.0228973 0.251599 0.755464 0.235122 -0.389627 0.143968 -0.93371 0.0332571 0.245969 0.831565 0.0856505 -0.884304 -0.892144 -0.712984 0.555371 -0.2523 -0.581617 -0.417168 0.623669 0.194716 0.0491181 -0.147817 -0.387064 -0.308407 0.303293 0.257923 -0.977244 0.699888 0.806078 -0.178988 0.970239 -0.165069 -0.895452 0.780148 -0.886138 -0.197013 -0.024226 -0.783206 0.915429 -0.678275 -0.864152 0.116224 -0.464713 -0.633969 0.547958 -0.737934 0.253202 1.04693 -0.0844739 -0.0993233 0.204256 0.941505 0.75402 0.819289 -0.354219 0.0926358 0.121431 -0.291662 -0.210273 -0.0465125 0.556703 -0.225146 0.792912 0.684912 -0.471327 0.831289 -0.573157 0.444706 -0.964558 -0.687305 0.734243 -0.8967 0.332392 -0.819877 -0.595805 -0.161342 -0.62274 0.563489 -0.194777 0.221967 -0.614895 0.943419 0.170919 -0.85188 0.770582 0.775619 0.190236 -0.191425 -0.59095 0.912574 0.728445 0.933216 -0.33616 0.484317 0.600089 0.150562 0.277449 0.981266 -0.442628 0.253552 -0.746069 -0.747435 0.323324 0.558307 -0.595068 0.667089 -0.66389 -0.236237 0.227568 0.103108 -0.971146 0.66228 0.0907481 0.117513 0.712649 -0.266714 -0.190256 -0.122376 0.577411 0.283435 -0.185237 0.29725 0.20756 0.493117 -0.234051 -0.210924 -0.480167 0.924684 -0.291808 0.0931569 0.193194 -0.04729 0.341501 -0.472787 -0.486061 0.752093 -0.780731 -0.12206 -0.463083 0.456221 -0.999838 -0.498131 0.0371363 0.0091957 0.709547 -0.131523 0.929397 -0.328981 0.820948 0.499794 0.902878 -0.416773 -0.268863 0.0641014 -0.9925 0.468544 0.854699 -0.434452 0.468774 -0.402483 0.743538 -0.279004 0.639339 0.183529 0.346746 -0.752026 0.0422492 0.66023 0.215418 0.688075 0.208921 0.312608 -0.692981 -0.598978 -0.514634 -0.885832 0.318039 -0.581426 -0.267398 0.109567 0.902756 -0.354683 0.722794 -0.314791 0.753931 0.767741 -0.826606 0.623353 -0.631747 0.628921 -0.767668 -0.876939 -0.658467 0.83448 0.282342 0.660748 1.03353 -0.746052 0.240924 0.169398 0.864087 -0.62396 -0.593462 -0.925239 -0.348783 -0.217705 -0.903969 0.899207 0.14118 -0.18102 -0.0104833 0.0379354 0.436316 -0.301003 0.659702 0.141399 -0.614554 0.781835 -0.299954 -0.303759 0.3986 
-0.270927 -0.368133 0.511386 -0.471778 -1.21227 0.0533918 -0.511975 -0.971355 -0.716645 0.661526 -1.08436 -0.277182 -0.857029 -0.931336 0.428543 -0.0784974 -0.826733 0.33319 -0.944356 -0.0768819 -0.737462 0.0101159 -0.678985 -0.0711988 -0.313145 0.492053 0.355118 -0.535095 -0.812146 -0.965105 0.846648 0.0426018 -0.161033 0.483423 0.759317 -0.104331 -0.158233 -0.503934 0.186898 0.350261 -0.683977 0.241994 -0.803383 -0.467438 0.397299 0.711914 0.545825 0.64083 0.100585 0.645997 -0.347183 0.485599 -0.21863 0.0809088 -0.508525 0.519484 -0.421561 0.816518 -1.04048 -0.226625 -1.0254 -1.09267 -1.04664 -0.0919809 0.623164 0.91032 0.927003 -0.55159 -0.554704 0.221948 0.927689 -0.184489 -0.473058 -0.814957 0.410876 0.969394 0.94176 -0.0042037 0.653265 0.100825 -0.295314 -0.631267 -0.369617 0.52998 0.511672 0.182212 0.109938 -0.804752 0.125221 0.205628 0.0878003 0.188356 0.232016 0.178751 -0.766256 -0.161675 0.072206 -0.782792 0.344837 0.502182 0.428448 0.258685 -0.694136 0.929095 0.417583 0.690579 0.882413 0.34356 -0.402602 0.446824 -0.645031 0.251361 0.764931 -0.0656457 -0.266931 0.228228 -0.933716 0.855644 0.436348 0.221395 0.148092 -0.356091 -0.454288 -0.638482 0.780407 -0.285195 0.0969733 -0.241003 -0.215344 -0.642708 -0.852583 -0.802055 0.531736 -0.610458 -0.902104 -0.0155155 -0.875738 -0.992355 -0.611417 -0.134093 0.601733 -0.127866 -0.729606 0.468822 0.914155 0.143865 -0.162331 -0.941224 0.0470804 -0.66059 0.402043 -0.738516 0.0189887 -1.01592 -0.345948 -0.162835 -0.303991 0.829196 0.708996 0.64369 -0.64093 -0.992685 -1.01323 -0.832514 -0.280464 -0.657622 0.371608 0.0259925 -0.51661 0.874553 -0.985018 -0.841872 -0.167006 -0.627802 0.700292 -0.197919 0.569907 -0.39889 -0.0181875 -0.26101 0.0485698 -0.507849 0.0776552 -0.864953 -0.472617 0.797435 0.0130499 0.239314 0.669086 -0.234159 0.00947869 -0.879681 0.0049085 0.227888 -0.606496 0.689521 0.609104 0.872994 -0.157788 -0.853587 0.810445 -0.079872 -0.6337 -0.312566 0.336862 -0.873784 0.549529 -0.0350553 -0.209941 -0.407723 0.766899 0.900758 0.14602 -0.095029 -0.895879 0.7384 -0.27257 0.176936 0.0868649 -0.496792 -0.919903 -0.767568 -0.239904 0.0690237 0.444216 0.211009 -0.184214 0.0373391 0.0724555 0.646116 0.171981 -0.143308 -0.459978 0.51315 0.528947 0.787424 0.549642 -0.0124112 -0.263841 -0.712469 0.527439 -0.547306 -0.859248 -0.373909 0.338352 -0.742247 -0.591996 -0.885717 0.589101 0.62716 -0.24728 0.60204 0.78254 0.431273 -0.418749 0.127407 -0.528159 0.300819 -0.921263 0.527515 -0.118229 0.194294 -0.635691 0.449823 -0.275168 -1.06378 0.366048 -0.566881 0.0703406 -0.707006 -0.0987625 -0.307801 -0.213274 0.13213 0.455992 -0.809386 0.47106 -1.08585 -0.592903 0.0601094 0.531497 0.131831 -0.346008 0.306175 -0.451723 0.318286 -0.425598 0.20615 -0.22723 -0.241711 -0.0903772 0.946715 -0.764782 0.492444 0.580836 0.127109 0.54652 0.0526564 0.669478 -0.311463 0.361491 -0.409723 0.43433 -0.803058 0.77503 -0.0284251 -0.507872 0.331246 -0.0437559 -0.0244351 -0.550532 -0.462071 -0.840391 0.189545 0.938079 -0.196154 -0.450248 -0.491642 -0.960317 0.434368 0.498194 0.144066 0.468031 0.698981 -0.32222 0.157973 -0.0451305 -0.701939 -0.705726 -0.325048 0.018472 0.683157 0.312887 -0.484887 0.943509 0.146024 0.549732 -0.500495 -0.459349 -0.450859 0.536238 0.0505064 0.155483 0.761248 -0.735149 0.132271 -0.399956 -0.0837505 0.758888 -0.225839 -0.501562 0.246765 0.897076 -0.981192 0.00284824 -0.441506 0.165892 0.945535 -0.173101 0.416437 -0.404378 0.861598 0.125869 0.81912 -0.752865 -0.0591676 -0.0509032 0.756164 0.387554 0.439025 -0.741715 -0.0611364 -0.497018 0.429114 -0.315884 -0.215979 -0.330949 0.41101 0.84101 -0.603536 -0.9858 -0.839523 0.50324 0.887607 -0.897626 -0.570831 -0.621293 0.251726 -0.643719 0.144972 -0.314705 -0.0212297 0.0422508 0.779378 -0.127824 0.442968 -0.00181184 -0.924014 0.344378 -0.608365 0.498619 0.620656 0.419775 -0.989452 0.104239 -0.926732 -0.104499 0.702969 0.419943 -0.298641 -0.910428 0.558599 -0.0301166 0.714044 0.614761 0.239496 -0.662611 -0.883886 -0.305051 -0.154377 0.498731 0.542309 -0.984595 -0.322475 0.45745 0.0142302 -0.853986 -0.62021 0.0394116 0.45906 -0.222582 -0.418016 0.133396 -0.783589 -0.273684 -0.713156 -0.620551 0.724801 -0.911811 0.916525 -0.48998 -0.710163 0.585731 0.5763 -0.905474 0.246795 -0.083558 -0.496325 0.519321 0.749902 0.441464 -0.00334581 0.343962 0.566663 0.781115 -0.135593 -0.346462 0.982646 0.276755 0.719833 0.489569 -0.882731 -0.628717 -0.333598 -0.599475 0.163147 0.0166916 -0.176789 -0.0505047 0.173298 -0.191717 0.525474 0.483496 -0.570831 0.139237 0.637392 0.757105 -0.858279 -0.759007 0.260779 0.870441 0.734008 -0.686089 0.197664 0.290588 -0.950365 -1.00302 0.901305 -0.916241 0.327143 0.647649 0.442697 0.314387 0.888778 -0.90815 0.671581 0.0312237 0.117184 -0.481968 -0.91244 -0.631904 0.309437 0.468457 0.747772 0.856598 -0.219154 0.561437 0.456868 -0.257685 0.593121 -0.341035 -0.384969 0.335836 -0.0179201 0.73577 -0.430589 -0.03771 0.690379 -0.493967 0.0865961 0.0588905 -0.810935 -0.25496 -0.402442 -0.72723 -0.0484536 -0.619583 0.255376 -0.979107 -0.151039 0.3057 -0.686273 -0.809636 -0.178511 -0.866971 0.942237 0.403726 0.546214 0.379782 -0.765306 0.242453 -0.838703 -0.0560526 -0.335018 0.250302 -0.209775 0.375133 -0.628458 -0.31892 -0.997088 0.589668 0.824919 -0.810033 -0.726138 -0.655283 -0.673022 0.122197 -0.383774 0.560049 0.097085 0.444496 -0.137249 0.425043 0.600541 0.676748 0.566758 0.549994 0.179085 0.189795 0.0398395 0.534816 -0.469467 0.280335 -0.460222 0.286471 -0.387982 0.466566 -0.191045 0.0680299 -0.887618 -0.152771 -0.235476 -0.953324 0.089579 0.101336 -0.559928 0.443458 -0.766139 0.103267 0.0678508 0.395924 -0.407565 0.990412 -0.170337 -0.792921 0.659778 -0.538895 0.827284 -0.0823732 0.768066 -0.062194 -0.46557 -0.665136 -0.706186 0.1561 0.702901 -0.00465798 -0.393958 -0.505119 -0.880239 -0.224568 0.325849 -0.133461 -0.194745 -0.620543 0.930055 0.151326 0.732936 -0.923376 -0.761149 -0.228033 0.44337 -0.188435 -0.260901 -0.558669 0.204292 -0.452758 -0.111123 -0.00783624 0.457169 -0.361251 0.950819 1.07285 0.0678175 -0.699613 0.139496 -0.323658 0.206777 0.655189 0.0427346 0.313086 -0.542019 -0.569518 -0.829416 0.207678 -0.22627 -0.983178 -0.611127 -0.399297 -0.670823 -0.132474 0.499785 0.868173 0.765148 -0.597814 -0.797231 -0.190494 -0.208102 0.0803651 0.802907 -0.763197 0.71944 0.712975 -0.803385 -0.399152 0.825872 0.192874 0.156312 0.048297 -0.0875199 -0.607737 -0.54801 0.47317 -0.188326 -0.341363 -0.258541 0.673487 -0.188213 0.270447 -0.71065 0.0665912 -0.936376 0.753032 -0.162179 0.745725 -0.984454 -0.0128632 -0.488203 -0.230426 -0.975318 -0.729517 -0.0465306 0.669298 -1.01415 0.15094 -0.707784 -1.02157 -0.458455 0.619793 0.159549 0.592571 -0.900964 0.749057 0.149193 0.0681617 -0.444789 -1.03573 -0.295464 0.40232 0.357843 0.116607 -0.48029 0.443732 -0.107485 0.388415 0.223054 -0.0263274 -0.546227 0.799806 0.787269 -0.474598 -0.867619 -0.192887 -0.724522 -0.778056 -0.879897 -0.312877 -0.654434 -0.325969 -0.583316 0.583954 -0.616352 -0.428242 0.382568 0.581572 0.622819 0.920723 0.603031 -0.647927 0.301017 -0.0749844 0.467414 0.792449 -0.655277 -0.665727 0.161704 0.481958 0.205096 0.481885 0.265987 0.106914 -0.856477 0.539029 0.955097 -0.632418 0.724961 0.974031 0.0419623 -0.991869 -0.340121 0.514544 0.654261 0.0708955 1.0454 -0.00768546 -0.318604 0.546899 -0.21456 -0.837101 0.958223 -0.882315 0.0681785 0.447822 0.906312 0.424501 0.731302 0.126342 0.0509547 0.0561463 -0.326053 -0.593844 -0.834971 -0.147768 0.880104 1.0043 0.137052 0.580676 0.935534 -0.855558 0.567419 -0.435585 0.50431 0.0245321 0.461487 0.430725 -1.10674 -0.891823 0.0949831 -0.0885295 -0.6428 0.147341 -0.00537307 0.440269 -0.431752 -0.0484626 -0.155258 -0.715676 0.936032 0.801586 0.311981 -0.42756 -0.89324 0.382864 0.272479 0.88835 0.313046 -0.644726 0.367977 0.201674 -0.567763 -0.129629 0.760724 -1.01308 -1.0551 0.380476 0.616723 -0.966548 0.565562 -0.230793 -0.101745 0.92794 0.918629 0.96891 0.436786 -0.518229 -0.197974 -0.704112 -0.11286 -0.139996 -0.847716 -0.778728 0.457104 -0.702055 0.663703 -0.187451 -0.735904 0.0420753 0.213827 0.665713 -0.708213 0.726041 -0.34443 -0.791353 0.895305 -0.266953 0.694632 0.564305 -0.154394 0.304246 -0.592449 0.7946 0.278824 -0.624183 0.746421 -0.302151 -0.0853211 -0.392425 -0.0243864 0.767376 0.404068 0.0942653 0.954924 -0.144042 0.34994 0.520989 0.562194 0.475878 -0.46013 -0.0942743 0.310104 -0.0603836 -0.364934 0.9196 0.112832 -0.537559 -0.361071 -0.254026 -0.993792 0.49543 -0.926351 -0.51387 0.298389 0.406022 -0.186338 0.00519045 0.917491 0.544719 0.556892 -0.0959072 0.38539 -0.0142501 -0.984373 0.364497 0.827178 0.496243 0.0707147 0.598881 0.0929101 0.673028 -0.569569 -0.649181 -0.387019 -0.00710712 -0.807969 0.646762 0.446436 -0.265554 -0.719226 0.331163 -0.877716 -0.64116 0.802383 0.376167 0.605746 -0.46936 -0.588302 0.654002 -0.800074 0.993215 -0.412324 0.621021 -0.00385487 -0.335913 -0.0335529 -0.194533 0.959696 0.914675 -0.70066 -0.096086 0.483099 -0.369632 0.084447 -1.02258 0.550052 0.186499 0.552359 -0.0896791 -1.11732 -1.10914 -0.699097 -0.900286 -0.724905 -0.863938 0.626972 -0.99064 -0.303029 -0.940415 0.676626 -0.0861887 -0.939747 -0.650829 -0.398082 0.0501005 -0.104824 0.585226 0.959904 -0.0420472 0.531216 -0.699779 0.906433 0.0822994 -0.0057333 0.0501684 0.12343 -0.372589 -0.671348 -0.26342 0.559801 -0.72814 -0.270681 -0.975753 -0.456281 0.169601 -0.752727 -0.748617 0.267202 0.0295111 -0.598023 -0.00373352 0.993449 -0.485746 0.359006 -0.394927 0.621923 -0.69334 -0.821488 0.508433 0.196949 0.658353 0.802817 0.0964953 -0.365939 -0.298962 -0.938556 0.711782 0.286566 -0.538776 -0.422099 -0.0239527 -0.207662 0.333876 -0.00965684 0.367038 -0.510094 0.217149 0.521159 0.778825 -0.720544 0.962104 -0.177632 -0.728597 -0.601143 -0.984129 -0.267051 0.933212 
-0.731366 -0.144182 0.395328 0.464937 -0.484888 0.206154 -0.429198 0.226776 -1.0163 -0.265961 0.0549326 0.364138 0.154116 0.595822 -0.696427 0.907486 -0.0783647 0.284771 0.20262 0.415589 -0.493902 -0.278542 0.149265 -0.268246 -0.411633 0.858764 -0.0728409 -0.0748788 0.893443 0.701984 -0.154304 -0.80899 -0.387333 -0.708929 0.704236 0.172803 0.545212 -0.67819 -0.572089 0.558844 0.0898653 0.533865 -0.0276113 -0.705043 0.178688 0.326223 -0.748155 -0.849524 -0.340544 0.499482 0.611219 0.211006 -0.729523 -0.190433 -1.01082 -0.0882355 -0.274951 -0.0269294 0.89259 -0.329252 -0.272387 -0.208124 -0.0846143 0.389613 0.133688 -0.328942 -0.388349 -0.27377 0.0446213 0.108023 -0.648987 -0.824896 -0.317107 0.349007 -0.499 0.891651 -0.285053 -0.207121 -0.916821 0.413379 -0.666782 0.735166 -0.329639 -0.351287 -0.411446 -0.295333 0.605553 0.360207 0.725967 0.555765 -0.911444 -0.495614 -0.609109 0.0458192 -1.06456 0.558478 0.755236 -0.410681 -0.669026 -0.154441 0.734887 -0.278446 0.0661961 -0.529091 -0.846661 0.654765 -0.548571 -0.0497159 -0.480993 -0.393996 -0.565746 -0.0740023 -0.580062 0.181544 0.651778 0.0785589 -1.04301 0.330169 -0.500447 0.740931 -0.0665765 -0.348522 -0.687823 0.405846 0.786046 -0.66026 0.0721815 0.637468 0.0246884 0.455009 -0.462724 -0.174397 -0.735942 0.68883 0.378691 -0.515903 0.403174 0.908648 0.507209 -1.00089 -0.447662 -1.02065 -0.0382102 0.0248507 0.21566 -0.330716 -0.835521 0.233906 -0.941515 -0.266496 0.0443087 0.0635088 0.458863 0.430793 -0.477571 0.284842 0.81351 0.616324 -0.0454431 -0.132871 0.125133 0.545423 0.740966 0.435285 0.28347 0.15211 -1.04953 -0.284969 0.109876 0.506832 -0.236702 0.710497 0.534335 0.776029 -0.215848 -0.199609 -0.506212 -0.00499318 -0.920737 -0.402363 0.777574 0.172642 0.708013 0.283273 -0.35024 -0.719659 -0.37614 -0.484474 0.949244 0.631958 0.436218 0.124872 0.230415 0.230607 -0.388489 -0.440327 -0.551042 -0.37198 0.33841 0.580691 -0.84265 -0.872161 0.337894 0.735397 -1.05657 -0.836837 -0.421497 -0.524237 0.201225 -0.298843 0.122321 0.0214829 0.916039 -0.124673 -0.646598 -0.38535 0.203591 0.031149 0.185736 0.205263 -0.30106 -0.342257 -0.625264 -1.02642 -1.07006 0.0243667 -0.424051 -0.565966 0.695482 -1.03768 -0.927723 0.910827 -0.832842 0.492695 0.736411 -0.808461 0.738111 -0.618559 -0.261106 -0.00304453 0.163305 0.932542 -0.902803 0.150247 -0.122028 -0.480372 0.818423 -0.865837 0.597635 0.0672056 0.415189 -0.616784 0.814839 0.859339 -0.540295 0.84039 -0.0259102 0.0838605 -0.682395 -0.277334 0.121715 -0.534565 -0.287935 0.348784 -0.986529 -0.4753 0.607798 0.812951 -0.0558 -0.622195 -0.155571 -0.841226 -0.638369 -0.0059874 0.365327 0.295186 0.56882 0.252024 0.496136 0.235426 -0.609315 -0.029927 0.674972 -0.743049 -0.127617 -0.847129 -0.879505 0.875405 0.283409 -0.51415 -0.361185 -0.54882 -0.00223019 0.389234 0.838565 0.0495221 -1.03547 0.495514 -0.0895127 -0.0398924 0.924712 0.805885 0.166585 -0.665993 -0.151325 -0.420334 0.673941 -0.537842 0.879128 0.219166 0.744469 -0.683256 -0.764391 0.466019 -0.380459 0.160328 0.671252 -0.2066 0.0893929 0.0141033 0.33679 0.788448 0.521966 -0.609687 0.245853 0.427312 0.502936 0.230446 -0.0568881 -0.538238 -0.737968 -0.0859555 -0.708999 0.454359 0.291538 0.177269 -0.929409 0.0107295 0.695292 -0.996406 -0.733888 0.456409 -0.656809 -0.442449 0.0220288 0.0512835 0.777559 -0.287832 0.87715 -0.0752044 0.792074 0.274509 -0.25149 0.340869 0.68824 -0.965855 -0.202036 0.234875 0.320982 0.827352 0.764512 0.651737 -0.171244 -0.861059 0.184076 -0.809877 0.380086 0.319728 0.27863 0.12952 0.387325 0.606708 -0.348872 0.777154 -0.813705 0.681574 -0.1491 -0.980703 -0.526852 -0.198951 -0.00139731 -0.692881 -0.867757 0.80983 0.717242 0.849418 0.871966 -0.437006 0.143447 0.260191 -0.553674 -0.0559922 -0.0514053 0.322453 0.11208 -0.83023 0.515269 -0.511625 0.487177 -0.196013 0.636859 -0.110466 -0.562768 -0.666711 -0.281742 -0.312645 -0.919917 0.633787 -0.235543 -0.400348 -0.531363 0.794435 -0.0514655 -0.365779 0.638573 -0.308481 -0.477129 0.5539 0.296331 0.714479 -0.152678 0.781912 -0.302077 0.846827 0.152526 0.856977 -0.93787 -0.281074 -0.604473 0.598652 0.571971 -0.917517 -0.461303 -0.943479 -0.538301 0.301297 -0.210744 -0.412429 -0.0175966 0.600622 0.227084 0.507968 0.451399 -0.772355 -0.812249 0.138833 -0.0331801 -0.231988 -0.249597 -0.678736 -0.460063 0.667396 -0.827751 0.304611 0.576065 0.36252 0.222038 0.708854 -0.845051 0.644346 0.333263 0.769895 0.816189 0.946578 0.847125 -0.702084 0.270964 -0.307896 -0.0866031 -0.741248 -0.686213 -0.827007 0.83508 0.824828 -0.535811 -0.935528 0.0147195 0.483499 -0.110265 0.820989 0.86156 0.479196 0.522388 -0.933585 -0.215291 0.135977 0.473235 -0.931613 -0.115447 0.669078 0.792823 -0.723487 0.479619 0.615686 -0.753385 0.401916 0.95114 0.546494 -0.879354 -0.101915 0.863115 -0.540636 0.0750352 0.692744 -0.709532 0.575546 0.819636 0.361039 0.123959 -0.235237 0.22943 -0.00691404 -0.741998 -0.225589 0.102704 0.128452 0.957986 -0.37461 0.236686 -0.139196 -0.6943 0.0344057 0.139001 0.790109 -0.356889 0.373138 0.158241 -0.422359 -0.099176 0.272471 0.476057 -0.228312 0.749524 -0.4021 -0.495641 -0.914775 -0.7744 -0.623682 0.501262 0.375059 0.16555 -0.244739 -0.58903 0.468392 0.560656 0.547602 -0.372282 0.555422 -0.788831 0.917424 -0.532435 -0.433762 0.000466118 0.654214 -0.594441 0.699927 0.0794776 0.620763 -0.669577 -0.969075 -0.0587782 0.847356 -0.155396 -0.270984 -0.508681 0.406956 -0.126392 -0.235821 0.830023 -0.572079 -0.808529 0.0480412 0.226902 -0.350235 -0.433796 -0.151713 -0.743598 0.252886 -0.541154 -0.475788 0.225108 -0.0174672 0.145196 -0.729319 -0.320819 0.602088 -0.975615 0.827309 0.301679 -0.553005 0.961872 -0.695696 -0.642185 -0.1583 0.0678062 -0.143093 -0.724071 0.962032 0.663695 -0.880488 -0.561559 0.900194 0.237838 0.711971 -0.405554 0.845051 -0.401359 -0.108105 0.143741 0.122368 0.467249 -0.601583 -0.910209 -0.373984 -0.301929 -0.163153 -0.741582 -0.238869 -0.284013 0.603209 0.219865 -0.344471 0.908351 0.579546 0.495113 -0.00569007 -0.543562 0.773002 -0.0490483 -0.892322 0.870536 0.377034 -1.00752 0.112963 0.110499 -0.381879 -0.000869833 0.749636 0.559871 -0.849762 -0.119238 0.0344536 -0.415976 0.0242746 0.696451 0.323543 0.911732 -1.0005 -0.898739 -0.384993 0.588999 0.313297 0.262 0.464305 -0.14083 -0.272671 -0.583488 0.281157 -0.518675 0.365553 0.393222 -0.624046 -0.239377 0.416408 0.553306 0.924284 -0.917363 -0.419311 0.703713 0.666702 -0.222783 -0.384058 -0.266069 0.402128 0.68448 -0.534763 -0.241684 0.629525 -0.498213 -0.0956902 -0.697987 -0.861046 -0.7268 0.618954 0.66577 0.191511 -0.598578 -0.866886 -0.471621 -0.0725373 0.543181 -1.03605 0.364209 -0.634926 0.439631 -0.028108 -0.656733 0.600061 0.621722 -0.887731 0.313571 -0.55029 -0.221341 -0.922729 0.883255 -0.504754 -0.408253 -0.313184 -0.823528 0.154687 0.651182 -0.47539 0.346212 -1.00544 -0.787805 0.093532 0.264672 -0.288473 0.316301 0.854064 0.682134 -0.111295 0.843358 0.053584 0.273686 0.342619 -0.896502 0.675307 -0.0433976 0.747198 0.809068 -0.717246 -0.803427 -0.420742 -0.619623 -0.89838 0.129238 0.0360315 -0.142783 0.35187 -0.789317 -0.483879 0.901516 0.581372 -0.46865 -0.88753 -0.337143 0.795913 -0.152466 0.988355 0.653474 -0.464332 -0.135043 0.501934 0.610348 -0.854865 -0.192432 0.673792 0.765385 0.7161 0.379011 0.560209 -0.987821 0.589734 -0.838634 -0.591239 0.737274 0.294097 0.449488 -0.412316 -0.33816 0.665487 0.126819 -0.409899 0.283554 0.689814 -0.25675 -1.02903 0.469092 0.577296 0.929832 0.0907954 -0.932302 -0.243371 -0.452117 0.642968 -0.129107 0.338737 0.310953 -0.359184 0.0741243 -0.273459 -0.764785 0.116135 -0.653788 -0.57538 0.550236 -0.901354 0.760608 0.0302157 -0.284629 -0.542249 -0.260309 0.878366 0.0863003 -0.932794 0.607924 0.880128 -0.904445 0.13923 0.508758 -0.913083 -0.700981 0.640139 -0.0936208 -0.0908165 0.344542 0.831516 -0.694644 -0.283675 -0.466337 0.440675 0.491219 -0.177492 -0.388447 0.910856 0.311975 -0.770396 -0.941617 0.123774 0.30423 -0.196329 0.612716 -0.922895 -0.270601 -0.256202 -0.806193 -0.60956 -0.322517 -0.654176 0.588345 -0.732644 -0.494108 0.978256 0.98885 0.50522 -0.0628574 0.351809 0.344798 0.272639 -0.881622 0.921965 -0.243923 0.706036 -0.170828 0.445787 0.615776 -0.844793 0.692821 0.689239 0.270818 -0.0330352 -0.50644 -0.110867 0.0891773 0.276517 0.727738 0.353421 0.720089 -0.595352 0.704789 0.319185 -0.318214 -0.778327 0.308697 -0.32605 0.715124 -0.760907 -0.950981 0.0912674 0.522283 -0.829127 0.0272312 -0.706574 0.821906 0.787452 0.659481 0.363444 0.888108 0.319403 0.0606874 0.158097 -0.685517 0.562685 -0.911549 0.411278 -0.165996 0.795791 -0.235256 -0.444874 -0.772434 -0.493986 0.894981 -0.0722514 -0.274988 0.175146 0.56063 -0.574276 0.395817 0.579415 0.472423 -0.119277 0.709995 -0.549873 0.135991 0.500094 -0.773449 -0.209056 -0.111576 -0.864511 -0.840149 -1.01393 0.338334 -0.498601 0.575747 0.458558 -1.03837 -0.541757 0.2962 -0.225067 0.0602568 0.56108 0.31781 0.00280292 -0.485029 -0.916685 -0.749837 -0.836306 -0.40956 0.707637 0.807188 -0.870937 -0.348239 0.588446 -0.356854 0.846443 0.152176 -0.0692441 -0.288024 -0.886922 0.126765 -0.0679408 -0.819953 -0.455561 0.50043 0.802398 -0.946332 0.511087 -0.698295 0.391997 -0.690478 0.389142 -0.00426519 0.688112 -0.536531 0.580866 0.853865 -0.232974 0.804058 -0.505115 -0.477925 0.677526 -0.293099 0.245241 0.318074 0.386141 0.138944 -0.488258 -0.637438 0.90471 -0.300424 0.571576 -0.0948825 -0.103412 -0.874809 -0.602871 -0.293261 -0.836635 0.88263 -0.0251607 0.544514 -0.779778 -0.594858 -0.441964 0.956201 -0.0846753 -0.822267 0.807128 0.687634 -0.997105 -0.676414 -0.77595 0.693528 0.0220438 0.489651 -0.0285849 -0.588749 -0.352506 0.51812 -0.239821 -0.464094 -0.814899 -0.733099 0.366121 0.000136827 -0.679986 0.709492 0.667378 -0.519834 0.609207 -0.323625 -0.98302 0.834658 0.0801123 -0.400991 
0.853255 -0.933833 -0.15211 0.672762 0.769145 -0.139634 1.00233 1.00877 -0.458611 0.00792433 0.484099 0.524228 0.383638 -0.910095 0.00928001 -0.891097 -0.413817 0.159011 -0.64073 0.942391 -0.829103 -0.302236 0.673918 0.862273 0.190157 0.305087 -0.44401 0.24631 0.183078 0.685178 0.889604 0.0192397 0.734258 -0.276213 -0.321703 0.486315 0.567043 -0.337249 0.477221 -0.909439 0.654373 -0.0583522 0.595096 0.0175346 0.0144643 -0.412726 0.10934 0.584277 0.729163 0.451477 0.509566 0.883721 -0.863696 0.15425 0.716761 0.293844 -0.55697 -0.743555 -0.476161 0.608995 0.92456 -0.589928 -0.388814 0.641707 0.103081 0.273133 0.11172 -0.342788 0.922975 -0.411055 -0.255607 0.573176 0.51686 -0.674988 -0.436682 -0.495305 -0.100648 0.669205 -0.915222 -0.400725 0.0948734 0.568515 -0.517047 0.227744 -0.277261 -0.800321 -0.478456 0.178626 -0.543925 0.0445979 -0.213174 -0.619421 0.44172 0.398722 -0.977732 -0.4552 -0.328921 0.133216 0.197854 -0.410102 0.705051 0.925145 -0.854014 0.204846 -0.766171 -0.294888 0.704563 0.11608 -0.639383 0.77564 0.71377 0.455442 0.344126 -0.816217 -0.330533 -0.934716 -0.630239 0.177315 0.23097 -0.187849 -0.791039 1.00483 0.179037 0.636991 0.389881 0.187621 -0.831899 -0.952733 -0.689484 0.352263 -0.376517 0.99849 0.267109 -0.240818 0.193038 0.487246 0.451355 -0.115323 -0.410384 0.799039 -0.352632 -0.709557 0.240789 0.977782 -0.540239 0.895771 -0.970636 -0.184183 0.0593687 0.246617 0.614257 0.255395 0.238531 -0.220437 -0.121311 -0.385304 0.954234 0.0330938 -0.35174 -0.752346 -0.628397 0.258012 -0.767591 0.621617 0.999308 0.40756 0.0909827 0.433584 -0.727471 0.660913 0.212926 -0.0971761 0.934267 -0.563407 -0.136485 -0.62233 -0.684756 -0.12426 0.176386 0.35827 -0.906879 -0.238591 -0.416337 0.31454 0.524659 0.445258 0.912152 0.461795 -0.525904 -0.443795 0.692346 -0.184276 0.784195 0.908409 -0.578977 0.767961 0.299683 0.511998 0.201557 0.557775 0.142961 -0.612159 -0.548975 0.0669058 -0.189258 0.313713 0.443765 0.113053 -0.836382 -0.405672 -0.545024 -0.733792 0.365204 0.0386246 0.567817 -0.110175 -0.50329 0.492824 -0.648447 -0.0421033 -0.963947 -0.956172 0.773587 0.820254 0.951479 -0.806148 0.587449 0.250397 0.688795 -0.228074 -0.191844 -0.169818 0.154792 0.254207 0.892876 0.961317 -0.449181 0.319537 0.0701536 -0.28976 0.910426 0.525083 -0.0364722 0.261928 -0.43711 -0.47024 -0.861964 0.0493137 1.00963 -0.524113 0.990097 -0.967972 -0.493954 0.750009 0.8386 -0.556163 0.933574 0.412374 0.680547 0.608686 -0.82602 -0.521611 -0.574057 0.31585 0.71967 -0.69411 0.264229 -0.742438 0.612492 -0.678556 -0.0451176 0.509224 0.832072 0.90392 -0.243304 -0.618728 -0.579234 -0.118964 0.413471 -0.583286 0.34398 0.390628 -0.564216 0.83556 0.126161 -0.739315 -0.733557 0.0434217 0.65936 0.933301 -0.36499 0.816258 -0.606203 0.0430443 0.114191 -0.903603 0.329251 -0.641267 -0.665769 -0.0753208 -0.336884 0.272034 -0.583195 -0.521146 0.158849 0.156396 -0.169886 0.550368 -0.991814 -0.772751 0.95074 0.335068 0.613686 -0.617657 0.167188 -0.276517 -0.374097 0.40365 0.736937 -0.744738 0.3198 -0.644442 -0.944836 0.698054 0.382314 0.153075 0.778153 -0.302876 0.497363 -0.897925 0.612226 -0.849093 0.360395 -0.984685 -0.371052 -0.480813 0.171673 0.455627 -0.946788 0.163522 0.682822 -0.9798 -0.498073 0.274062 -0.610405 0.669055 0.994133 -0.000792469 0.0692739 0.731005 0.254436 -0.610952 -0.914204 0.308835 -0.913664 0.467345 -0.538878 0.863697 -0.835568 0.957693 0.960815 0.7717 -0.895597 0.316996 0.782812 -0.282984 0.819852 -0.0626347 -0.841847 0.871482 -0.89994 0.827275 0.874586 -0.401439 0.101327 -0.74874 -0.746074 0.0817587 0.233375 0.306105 -0.204318 -0.525885 0.681474 -0.132195 0.772648 0.75412 -0.678563 -0.779913 0.60752 -0.524428 -0.83515 0.555405 -0.765666 -0.743676 -0.140519 1.00421 -0.0403485 -0.334379 -0.0713238 0.104887 -0.476591 0.01503 -0.0815343 -0.614912 0.599908 1.00268 -0.38075 0.836738 0.0680891 0.839666 0.129895 0.85004 -0.699936 -0.202338 -0.295883 -0.944385 -0.461924 0.0118804 -0.741382 -0.87149 0.469571 -0.594397 0.666006 0.686781 -0.357828 -0.494207 0.671315 0.571859 0.154351 -0.417094 -0.327451 0.661422 0.580845 0.573909 -0.983503 0.151497 0.547339 -0.367692 -0.0152133 -0.388785 -0.545112 -0.902412 -0.555828 -0.26214 -0.121892 0.118262 -0.236548 0.386181 -0.874095 0.00574166 0.498344 0.567005 0.394999 0.148059 0.236723 -0.97724 0.639395 -0.105632 0.594564 -0.206319 0.480609 -0.730317 -0.555235 0.0356112 0.817736 -0.552445 -0.816355 0.361642 0.0643053 0.171786 0.963291 0.509607 0.256415 -0.592588 -0.752581 -0.881787 0.522253 0.00746401 0.50438 0.635261 1.01239 0.00196647 0.201526 0.406648 -0.850768 -0.561771 0.42937 0.787826 0.331793 0.0223605 -0.432211 -0.204695 0.274952 -0.0037571 0.827448 0.0892511 0.439557 1.0095 -0.550703 -0.49696 0.16759 -0.591589 1.01263 -0.592301 -0.197083 -0.757033 -0.487774 -0.69192 0.233361 0.999535 0.929668 0.232097 -0.00879332 0.117497 -0.374971 0.126745 0.54541 -0.955911 -0.098354 -0.135709 0.0535321 0.456482 0.646636 -0.684469 -0.560996 0.460397 0.391085 0.864882 0.456219 0.826697 -0.644988 -0.39249 -0.777801 -0.649445 -0.00191958 0.00794838 -0.422862 0.493957 0.303085 0.796022 0.479789 0.21906 0.0151663 -0.546083 -0.677901 0.626519 0.563564 0.85119 0.652764 -0.552673 -0.302441 -0.314251 0.884051 -0.675482 -0.0149884 -0.693997 0.767824 -0.641003 -0.845434 0.207747 -0.831394 -0.520417 0.785238 -0.638451 -0.173334 -0.220106 0.366081 0.386751 -0.743182 -0.347876 0.16649 0.719543 0.841182 -0.848345 -0.856575 -0.853062 0.76106 0.703528 0.981772 0.39824 -0.878389 -0.32484 -0.916799 0.99122 -0.0269331 0.0423998 -0.715696 -0.272019 0.387669 -0.561947 0.921988 0.545935 -0.0926934 0.709801 0.921087 0.721789 -0.522478 0.260561 0.0922345 -0.282009 0.910006 -0.737953 -0.562527 0.751165 -0.589724 -0.415735 0.898093 -0.82866 -0.729261 0.882493 0.568823 -0.608397 -0.459387 0.638351 -0.617952 0.513672 -0.320073 -0.334452 -0.758395 -0.932449 0.0906845 -0.837209 0.610035 0.994512 0.869133 0.513249 0.711346 -0.654912 -0.229619 -0.197231 0.0622884 -0.329897 0.0511313 0.483445 -0.595043 0.445109 -0.949369 -0.710624 0.602769 -0.692302 -0.841821 0.161293 -0.311011 -0.31414 -0.213285 0.0581217 -0.813402 0.453703 0.710715 -0.585499 0.507541 -0.212303 -0.436405 0.103905 -0.231473 -0.58171 -0.396545 -0.533851 -0.25297 0.360896 0.255997 0.792997 1.01466 -0.709204 0.263473 -0.593324 0.722941 0.300411 -0.317656 0.31201 0.594394 -0.177348 -0.54457 -0.733707 0.492242 0.22508 0.306581 0.66098 -0.338315 -0.0032167 -0.944273 -0.850533 0.768133 -0.397736 0.236316 -0.480402 0.00424009 0.823433 -0.0442092 0.721288 0.15434 -0.804528 0.510852 0.168988 -0.517157 -0.24274 0.555232 -0.811254 -0.972272 -0.792388 0.470799 0.605026 0.0139301 0.90988 0.854242 -0.510184 0.119396 0.145256 -0.865559 0.763947 -0.871666 -0.824283 0.899734 0.883548 -0.234924 0.123137 -0.610532 0.76846 -0.0542518 0.344432 0.476794 -0.91287 0.553507 -0.0124025 0.252693 -0.989494 0.71901 -0.217925 -0.797407 0.750078 -0.00696464 0.65705 0.3517 -0.996467 0.579812 0.218842 -0.494513 -0.301574 -0.636695 -0.360828 -0.53839 -0.509128 -0.185887 -0.638659 -0.626345 0.578372 0.484426 -0.236899 0.333902 -0.583552 -0.89254 -0.19013 -0.497243 0.647252 0.787131 0.744373 0.6596 0.504597 -0.474361 0.845116 0.247091 0.511834 0.498743 -0.401235 0.514582 0.0648939 0.803911 1.00637 0.752999 -0.843091 -0.364747 -0.798321 -0.365145 0.436441 -0.449906 -0.00440402 0.00189929 -0.979185 0.744962 -0.677924 -0.576437 0.83873 0.118268 -0.0873388 0.471542 -0.112488 -0.360112 0.114792 -0.624216 0.149205 -0.0563979 0.609967 -0.352647 -0.570608 -0.804223 -0.851753 0.480567 0.985984 -0.858312 0.216478 -0.874199 -0.240132 0.401062 -0.257205 -0.821567 0.933294 0.722047 0.160602 0.934381 0.446478 0.465526 -0.659162 0.268148 -0.433287 0.236397 -0.289536 0.424252 0.846296 0.808152 0.783714 -0.00792296 -0.251695 0.390226 0.610199 0.147714 0.556016 0.745503 -0.388829 0.524905 0.866665 0.810495 0.633554 -0.390606 0.195221 -0.639235 -0.227746 0.112163 -0.935068 0.918335 0.0320337 0.498496 0.370946 0.359928 -0.247032 0.923972 -0.417373 0.462594 0.360301 -0.571142 0.270703 0.131853 0.420888 -0.981037 -0.490874 0.0181656 0.153741 -0.934911 -0.239771 0.768245 0.593332 -0.369746 0.578728 0.239801 0.252545 -0.213915 0.59639 -0.979384 0.897443 0.661316 0.938947 -0.0746852 0.158271 0.308352 -0.715525 0.910425 0.232304 -0.132934 0.372972 -0.420349 0.295095 -0.357152 0.710661 -0.29433 -0.348496 -0.778382 0.722258 0.800269 -0.716722 -0.520962 0.564324 0.872428 0.105123 0.139648 0.0951542 -0.659432 0.908623 -0.32217 -0.652516 0.788972 -0.671157 -0.723867 -0.295243 0.474191 0.571558 -0.0236872 0.371682 -0.209839 0.829644 -0.269052 0.356094 0.111062 0.359337 0.0522687 0.798835 0.993715 0.257553 0.504766 0.781051 0.527133 0.970097 0.333229 0.386651 0.0622685 -0.540882 -0.531956 0.38912 -0.645934 0.132213 0.722929 -0.870659 0.443193 0.981221 -0.183759 -0.099711 0.536445 0.77281 -0.74776 -0.69391 0.585348 -0.0339037 0.645084 -0.320702 -0.690913 -0.331844 -0.551851 -0.727176 0.908627 0.936602 -0.94955 0.419454 0.890383 0.353665 -0.210995 -0.0644218 0.799114 0.243373 -0.689007 -0.867347 -0.644961 -0.98658 -0.755128 0.782644 0.979048 0.0455385 -0.333412 0.497604 -0.196157 -0.0948925 0.790741 -0.623763 0.85745 0.422154 0.0418777 -0.834247 -0.898373 0.502104 -0.56147 0.99807 0.426532 -0.523966 0.417486 0.316877 0.816754 -0.793567 -0.734709 0.612428 0.446369 -0.440021 0.745059 0.801386 -0.426598 0.989939 0.596169 -0.435423 0.0476125 -0.738019 -0.937821 0.854836 0.166326 0.852162 -0.773832 0.0222482 0.272761 0.267991 0.17508 0.362208 -0.24284 0.599885 0.359469 -0.813749 -0.935165 -0.220468 0.498142 0.877394 -0.0190083 0.750511 0.489801 -0.572679 -0.690306 0.234083 -0.77208 -0.117691 0.223227 0.810398 0.436568 
-0.806785 -1.04718 0.389756 -1.00162 0.114991 0.255918 -0.528215 -0.714338 -0.391641 0.575097 0.176386 0.971103 -0.664977 0.0321318 0.357422 -0.471531 0.0989246 -0.855495 1.02675 -0.264434 -0.109539 0.836511 -0.496579 0.594435 1.02943 0.694912 0.713303 -0.256443 -0.372613 0.195601 -0.968399 -0.194427 0.269231 0.538161 -0.101585 -0.507118 -0.112217 0.265983 -0.240938 0.52128 -0.127587 -0.803936 0.474568 0.286146 0.207197 -0.221989 0.722593 -0.739145 -0.148693 0.67443 0.0823382 0.798586 0.238705 0.300405 0.111292 0.196828 -0.137591 -0.284073 -0.99584 0.595632 -0.825467 -0.643861 -0.317175 0.621612 -0.927572 0.762832 -0.686791 0.154189 0.230494 0.214387 -0.21078 -0.838634 0.432684 -0.693951 0.393706 -0.38639 0.076617 0.0652707 -0.220707 0.862926 -0.297438 0.811504 0.634676 -0.9986 0.21289 -0.161965 0.307174 -0.820422 0.683336 0.483937 0.945165 0.920723 0.902682 -0.299128 0.617409 -0.943251 -0.486523 -1.08286 0.224817 0.77319 0.181728 -0.957517 -0.98257 -0.326651 -0.588936 0.43537 0.313062 0.519563 -0.449886 -0.855364 0.435369 0.313544 -0.954631 0.16956 0.408052 0.354719 -1.00068 -0.290052 0.513185 0.739253 -0.768612 0.552633 0.742048 -0.754694 -0.718042 0.390754 -0.682471 -0.0961601 0.414755 0.568354 -0.332102 -0.403958 0.665138 -0.0624476 0.510341 -0.785205 -0.726852 -0.268259 0.522571 -0.129286 -0.0679499 0.319556 -0.685548 0.0608206 -0.512812 0.714639 -0.57209 -0.625515 -0.702941 0.778144 -0.854913 -0.221838 0.622583 -0.769155 0.0999063 0.821698 0.440483 0.203222 -0.31356 -0.156972 -0.152348 0.452405 0.562787 -0.269553 -0.616057 0.11295 0.0681662 -0.257405 0.888884 -0.119534 0.682558 -0.0333949 -0.855279 0.974664 0.939104 -0.360362 0.61779 -0.718698 0.0823024 0.968494 -0.856422 0.327129 -0.363003 0.629753 0.389906 0.632519 0.462906 -0.100068 0.0757295 -0.596093 -0.963578 -0.830515 -0.930443 0.824339 0.120155 -0.360588 0.119885 -0.702385 0.502643 0.0754007 0.209778 0.219197 0.972538 0.338227 0.13683 0.82183 0.856836 -0.337684 -0.932736 -0.0963927 -0.392242 -0.784422 -0.723818 0.322623 -1.03316 0.807678 0.0887673 0.590465 -0.17127 -0.780213 -0.924518 -0.0311788 -0.501175 -0.766015 -0.164627 0.607868 -0.111096 -1.01292 -1.04446 -0.580764 0.0786209 0.169308 0.694265 0.121337 -0.428663 -0.140722 -0.00159304 -0.501307 0.565739 0.128094 0.499622 -0.724092 0.452501 0.841499 0.655596 0.389073 0.65101 -0.241287 0.0459704 -0.395925 0.0853656 0.213126 0.558785 0.599789 0.452703 -0.499205 0.373735 -0.563901 -0.42758 0.312234 -0.1457 0.848209 -0.321401 -0.29365 -0.138144 0.210442 0.311747 0.897916 0.817199 0.296741 0.257907 0.445375 0.58253 -0.329131 0.340376 0.115016 -1.07319 -0.202416 0.846017 0.204056 0.564112 0.325593 -0.452259 0.0699257 -0.307575 0.715255 0.503493 -1.04018 -0.886352 -0.901489 0.370818 0.169367 -1.0355 -0.895323 -1.04017 -0.0862069 0.413325 0.617603 -0.073099 0.340804 -0.169421 -0.974148 -0.455271 -0.707476 -0.386567 0.759061 0.458732 -0.430099 -0.412077 0.406417 0.666342 -0.949704 -0.532254 -1.02238 0.121047 0.17487 0.8878 -0.085912 0.419767 -0.744575 0.221449 0.0052167 0.658897 0.362575 0.290431 0.727239 -0.640418 -0.238733 0.367018 0.28795 -1.01464 -0.851436 0.291001 -0.474528 -0.58346 0.802923 -0.816093 0.788995 -0.642939 -0.211821 0.216723 -0.926487 -0.0325684 0.756996 -0.875351 -0.762312 0.133365 -0.873405 0.205212 -0.357998 -0.533798 -0.481035 0.692961 -0.892497 0.891283 0.0243693 0.894549 -0.708619 0.795098 0.265047 0.627311 0.851763 0.472831 -0.0521665 -0.607888 0.919514 -0.174309 -0.331844 0.817334 0.298206 0.594095 0.119648 0.427903 -0.500129 -0.0612119 0.62417 -0.176902 -0.829178 0.82774 -0.923661 -0.196802 -0.696258 -0.401676 -0.410252 -0.490546 -0.429544 0.689464 -0.526343 0.14416 0.667982 0.932053 -0.375047 0.234918 0.15553 0.387985 0.886936 0.382713 -0.430125 -0.219343 0.294717 0.958935 -0.685989 -0.491976 0.253211 -0.275084 0.276416 -0.219264 0.654025 0.575747 0.00992447 0.907489 -0.668094 0.126087 -0.810089 -0.198445 0.551852 -0.108601 -0.363901 -0.803924 -1.06489 -0.672706 -0.797573 -0.296167 0.903061 0.655515 -0.591306 0.801245 0.100414 -0.0795089 -0.526524 -0.771454 -0.236634 -0.339874 -0.438006 -0.97269 0.363461 0.803553 -0.0280775 -0.0257315 0.289185 0.77791 -0.363979 0.600806 -0.104532 0.0659806 -0.298117 -0.231453 -0.888061 0.494515 0.140603 -0.772329 0.941197 0.438577 -0.0356354 0.83519 0.0794543 0.381139 0.641203 -0.955673 -0.728995 -0.967473 -0.803709 -0.0154983 -0.395985 -0.375924 -0.0711331 -1.0978 -0.558729 -1.03252 -0.132872 0.770298 0.780774 0.630352 0.494676 -0.128233 -0.212153 -0.685335 0.73602 0.00496672 0.886609 -0.0834576 0.212762 0.835237 -0.60034 -0.748129 0.710341 0.488834 0.636521 0.394069 0.581492 0.955462 0.453334 0.804095 -0.0260257 -0.896195 -0.479649 -0.967525 -0.86184 0.0512709 -0.936042 0.114121 -0.0953866 0.925921 -0.155349 -0.496469 -0.133167 0.599006 -0.238638 -0.418201 -0.304949 -0.31559 0.556888 -0.967521 -0.327013 -0.896931 -0.637692 -0.370007 0.796385 -0.790821 0.924951 0.0682785 -1.1534 0.228061 0.147405 0.186886 0.681978 0.858813 0.301812 0.864708 -0.0728194 0.420369 -0.175434 0.689084 0.209322 0.852881 -0.63843 -0.815487 0.643454 0.305985 -0.182183 -0.691981 -1.12985 -0.729781 -0.801492 -0.420955 -0.535608 -0.283297 0.205356 -0.699803 -0.0106266 0.266161 0.682173 0.137779 -0.246721 -0.138809 -0.691618 -0.673613 -0.429505 0.459014 -0.914764 0.446462 -0.169052 0.0394624 0.14154 -0.976349 -0.230909 0.392622 -0.88612 -0.75681 -0.467778 -0.140339 -0.516732 -0.431258 0.448764 0.00323233 0.351478 -0.916086 0.889659 -0.282761 -0.502603 -0.0478414 -1.00503 -0.793883 -0.902469 -0.252056 0.0522109 -0.623061 0.065469 0.626365 0.84005 0.120216 -0.0221114 -0.466415 -0.992631 -0.972767 -0.4441 -0.204541 0.408612 -0.317384 0.0762213 -0.960004 0.634209 0.738612 -0.286634 0.185298 -0.194121 -0.866109 0.339191 -0.285013 -0.136451 0.853174 0.702938 -0.117732 -0.932797 0.811921 0.636144 0.127737 -0.766149 -0.254416 -0.182316 -0.900844 0.893472 0.835031 -0.266713 -1.00642 -1.06885 0.328674 -0.114472 0.526701 -0.908695 -0.972053 0.627351 0.879674 0.882963 -0.700038 0.040133 -0.344671 -0.466519 -0.566409 0.442765 0.402325 -0.705013 0.240716 -0.636238 -0.554806 0.31301 -0.694654 0.755781 0.417204 -0.0661643 -0.636965 0.611093 -0.0141751 -0.41307 -0.505549 0.0748293 -0.369305 0.864667 1.00944 -1.03167 0.796523 1.14935 0.809576 0.907803 0.940286 -0.683212 0.0209209 -0.338248 -0.172491 0.270385 -0.982855 -0.818897 0.692232 0.325016 -0.286144 -0.647208 -0.349904 0.0282167 -0.789517 -0.841016 -0.94178 -0.143791 0.771897 -0.0158114 0.351787 -0.871836 0.929946 0.860076 0.860142 0.891434 0.959081 0.759773 0.862126 0.660561 0.513091 0.695707 0.806004 -0.615384 -0.732681 -0.493313 0.819385 -0.490886 -0.0349504 0.70877 -0.999846 0.816929 -0.799197 -0.239469 -0.0576141 -0.585376 -0.0747017 -0.0068689 0.279148 -0.317988 0.969328 -0.378349 -0.198533 0.897759 -0.531995 -0.357971 0.67575 -0.70163 -0.667284 0.500577 -1.03819 0.812757 0.214137 0.775719 -0.728579 0.544282 -0.554956 -0.797862 -0.850832 0.443507 -1.04395 -0.799358 0.343919 -0.852884 -0.0523441 -0.759691 -0.429675 0.873126 0.245324 0.850749 -0.429719 0.267336 -0.469728 0.441899 0.191983 0.02595 -0.916878 -0.0720472 0.410671 -0.487014 -0.498843 0.484954 -0.504973 0.844706 0.31539 -0.143653 0.536586 0.882467 0.086449 0.663886 0.308958 0.0457465 0.865109 -0.401316 0.238771 -0.136946 -0.0614514 1.09237 0.0236708 -0.542825 1.02634 0.525429 0.599989 -0.58279 -0.00160319 -0.385553 0.355154 0.236198 0.880296 0.0761188 0.8563 -0.692718 -0.581298 -0.749196 -0.807014 1.0263 0.230465 0.868312 0.740934 -0.678468 0.533104 0.0711254 0.449271 0.281874 0.540822 -0.340821 -0.728546 -0.335999 -0.296643 0.255644 0.0874884 -0.315043 -0.10753 -0.256844 0.202563 0.925034 0.6457 -0.259359 0.103741 0.430973 0.669241 -0.170528 0.800495 -0.829058 0.12874 -0.942628 -0.962198 -0.752395 0.781169 0.702578 -0.486248 0.209512 -0.291944 0.915025 -0.262177 -0.414266 -0.149851 0.168143 0.437104 0.682281 -0.50762 -0.438692 -0.573536 0.384336 0.278125 0.581429 0.298553 -0.113671 -0.696918 -0.626586 -0.691688 -1.01403 0.20136 -0.894107 -0.911499 -0.780568 -0.90743 -0.886279 -0.522936 0.825313 0.776447 -0.0330411 0.101697 -0.43123 0.0387641 0.884776 0.189535 0.860116 0.0229048 -0.440943 0.518001 0.476649 0.0462712 0.869353 -0.127311 -0.651837 0.457986 -0.824434 0.248453 0.769348 -0.429491 0.627215 0.786749 0.797973 0.722163 -1.02494 -0.87862 0.900047 -0.793299 -0.311988 0.79932 -0.958355 0.67698 0.0205854 -0.243456 -0.129664 -0.0207442 -1.05923 -0.240481 -0.922084 -0.413225 -0.706696 0.631175 0.648519 -0.80369 -0.228183 -0.655031 0.990215 0.0365584 0.484058 0.650206 0.51074 0.138667 0.296243 0.224777 0.0117117 0.638509 0.664906 0.0275854 0.694676 -0.788204 -0.252233 0.828371 -0.693248 1.04034 -0.169864 0.129828 0.0655515 -0.181124 0.794429 0.152207 0.185753 -0.956818 -0.240431 0.00669671 -0.567849 0.462531 0.309954 -0.706473 -0.605062 -0.132963 -0.980829 0.963933 -0.939385 0.548535 0.362762 0.0110754 0.129278 -0.117194 0.909979 -0.0915228 0.217074 -0.211216 -0.168685 0.347512 -0.297579 0.510713 -0.651457 0.719068 -0.760369 -0.870641 -0.169856 0.712434 -0.514271 0.852072 -0.0876556 0.0603434 0.437409 -0.682712 0.427587 0.887247 0.225995 0.443843 0.781216 0.24185 -0.00220276 0.120631 -0.780848 -0.889007 -0.982373 -0.873851 0.0130709 0.171958 -0.183626 0.776064 -0.496254 0.471793 0.270114 -0.127788 0.158416 0.489631 -0.000332433 -0.850109 0.259141 0.536507 -1.00074 -0.862123 -0.471534 0.341241 -0.629938 0.891565 0.180783 0.563269 0.31504 -0.0401596 -0.221663 -0.699531 -0.928595 0.0186875 -0.50972 -0.864827 0.192149 0.471318 0.367777 -0.938822 0.29502 -1.11225 0.587253 -0.355178 -0.165517 -0.114207 -0.718287 -0.979989 0.158522 0.586772 0.582061 0.210714 0.800458 -0.817867 -0.401602 -0.690845 
-0.86716 0.838539 0.861829 0.620982 -0.0424507 -0.270038 0.874342 0.12233 0.933493 -0.528699 0.401157 0.240631 -0.781114 -0.103258 0.458546 0.554323 -0.188206 0.0645503 -0.659491 0.905652 -0.975729 -0.453435 0.767547 0.147945 -0.951672 0.281078 -0.649828 -1.06219 0.581095 -0.0558359 -0.846269 0.848691 -0.00498693 -0.672989 0.358 -1.07148 0.00325237 0.322241 0.00093071 -0.0315358 -1.22048 -0.736118 -0.955028 -1.25426 -0.111776 0.322614 0.133626 -1.2138 -0.672895 0.351685 0.495304 -0.699118 -1.09005 0.3684 0.583629 -0.802277 -0.101611 -0.9087 -0.676475 -0.330301 0.281678 -0.236369 -0.347829 -0.585671 0.164794 -0.743351 -0.442939 -0.578151 -1.16609 0.675458 0.424814 -1.28932 -0.762751 -1.22392 -1.16961 0.529172 0.446576 0.385478 0.643664 -0.856721 0.17969 0.588421 -0.193087 0.420462 0.179852 -0.360357 -1.15588 -0.705851 -0.085522 -0.616833 0.296929 -0.455643 0.440656 -0.822055 0.255359 -0.0387232 -0.242575 -0.966471 0.509675 -0.291673 -0.941036 0.329851 -0.191086 -0.438201 0.453868 0.0710332 -0.531281 0.210474 -0.250694 -0.571279 0.65859 -0.87678 -0.842224 -0.359338 0.662847 0.508449 0.378994 0.507544 0.850995 -0.424365 -0.617571 0.590944 0.322194 0.882818 0.715017 -0.470767 -0.235945 -0.521384 -0.441964 -0.618548 0.317088 -0.238281 0.854989 -0.742174 0.351654 0.380133 0.361466 0.84798 -0.299633 -0.883985 -0.607461 -0.65559 -0.817686 -0.625073 -0.287074 0.665709 0.852728 1.10591 0.269955 0.614088 -0.58805 0.235606 -0.0898074 0.381616 0.0576893 -0.378674 -1.0289 -1.20804 0.0509851 -0.347892 -0.597497 -0.391536 0.387641 -0.743255 -0.155888 -0.233965 0.682463 -0.765542 -0.367976 -0.794163 -0.862239 -0.310055 -0.710491 -0.847826 -0.0396267 -0.0646345 -1.20227 -0.274661 -0.124851 -0.0419246 -0.594591 0.358689 -0.580849 0.53281 0.0154587 0.6338 -0.692709 0.154203 0.663507 0.667364 -1.00578 -0.815527 -0.55013 0.626703 -0.339183 0.526958 -0.384522 -0.595791 -1.20922 0.394597 -0.0973608 -0.730545 -0.489538 0.498409 -0.207078 -1.07406 -0.22495 -0.0382337 0.127312 -0.86167 -0.674183 -1.15733 0.776855 -0.00106177 0.604237 -0.0285853 -0.2541 -0.813742 -0.589613 -0.127367 -0.865716 -0.299174 0.303207 -0.116763 -0.274336 -0.772816 -0.281083 0.628372 0.00785952 -0.237536 0.237129 -0.871569 0.388887 -0.827581 0.856523 -0.6703 -0.687764 0.00678173 0.774831 0.8501 0.447279 -0.762448 0.780445 0.345921 0.352699 0.382891 -0.708236 -0.779933 0.882559 0.11506 0.441188 -0.807293 0.99675 -0.209782 0.00931824 -0.484966 -0.207692 0.642748 -1.03134 0.764754 -0.605694 0.252965 0.833422 0.776515 0.483862 0.963525 -0.489794 0.99426 0.0520789 1.03323 0.523355 -0.728193 1.07955 0.107827 0.303973 0.187672 -0.519536 0.622048 0.342393 -0.871902 -0.52022 -0.636541 -0.805731 -0.808194 -0.0388738 0.175382 -0.326197 0.819462 -0.132426 -0.211174 0.638352 0.31253 -0.860071 0.558857 0.0548456 0.555035 0.343388 0.272311 0.38165 -0.766069 0.230668 -0.096311 -0.674728 0.0372901 -1.1651 0.566805 -0.853747 -0.674937 0.208677 0.55631 -0.365141 -1.16562 -0.852222 -0.0491375 -0.801095 0.271118 -0.751734 0.0935518 0.28658 0.276661 -0.954313 0.091542 -0.221972 -0.655537 -0.229815 -1.00315 -0.891046 -0.544481 0.658284 -1.1737 0.0038426 0.0879878 -0.0168685 0.685359 -0.509613 0.282515 0.725336 0.111804 -1.00724 0.25888 -0.062235 -0.172299 0.300632 0.247641 -1.08751 0.766092 -0.122372 -0.400108 0.153672 -0.624014 -0.848475 0.519527 0.813827 0.148715 -0.830175 -0.0312167 0.595194 -0.430957 0.661783 0.345566 -0.404819 -0.0596892 -0.290394 0.792014 -0.0285219 0.5675 0.509551 -0.0670291 -0.0238508 0.657609 -0.619021 0.996311 -0.493154 0.697859 0.374953 -0.338435 0.872246 -0.45917 0.588601 0.0999407 0.0511512 0.593295 -0.564626 -0.313331 -0.371182 -0.492605 0.43076 -0.879855 0.0663827 0.212384 0.505217 0.788204 -0.77712 -0.571014 0.802703 0.300405 1.08897 0.0916194 0.999248 -0.163581 -0.537412 -0.824667 -0.515028 -0.241541 0.707678 0.760994 0.225662 0.291816 -0.954383 -0.65672 -0.804755 -0.281888 -1.23661 -0.469164 0.444606 -0.533748 0.121225 -0.013438 -0.415742 -0.815733 -0.936203 -1.08914 -1.29178 -0.823631 -0.801169 0.255884 0.261323 -0.895349 -0.804193 0.157289 -0.347402 -0.639087 0.122977 0.16537 0.0816422 -0.0325425 0.11399 -0.527114 -0.62527 0.254873 0.0372265 -0.303434 -0.776765 0.0208493 0.420896 -1.14962 0.701714 -0.274528 -0.00153591 -0.556898 0.0770944 0.283766 -0.397355 -0.0179163 -1.22617 0.214159 -0.404295 0.296114 0.566889 0.0175777 -0.243034 -0.3725 -1.22009 -0.644687 -0.717755 0.312549 0.604457 0.632336 -0.933494 -0.785012 0.150295 0.183636 0.0716113 0.552571 -0.422105 -0.107703 0.802566 -0.374274 0.817948 0.0267419 0.329367 0.204007 -0.399011 -0.790158 -0.317973 -0.209208 0.781332 0.369399 -0.805948 0.403533 -0.410783 0.189522 -0.47041 -0.232732 0.879232 0.0480657 -0.58699 0.783258 -0.0721715 -0.495187 1.03229 -0.899164 1.08618 0.523134 1.11356 -0.0465707 -0.393833 0.856014 0.688875 -0.49 -0.178055 -0.14099 0.448582 0.334858 -0.104646 1.04306 1.01058 -0.275491 0.427545 -0.807231 -0.653027 -0.801913 0.663016 0.0167152 0.155286 0.470156 0.894503 0.337723 -0.023755 -0.397047 0.611612 -0.164065 -0.61328 0.323407 -1.11248 -0.90611 -1.04998 -0.913958 0.695028 0.192383 -0.744222 -0.688405 -1.05622 0.788073 0.723071 -0.0750183 0.803779 0.554443 0.578733 -0.0228827 0.664671 -1.22978 0.0228689 0.104093 -0.425984 -1.00891 -0.643816 -0.786242 -0.0732082 0.12041 -0.286035 -0.451785 -1.10389 0.283882 -0.905141 -0.990056 0.515839 -0.823114 -0.711194 0.371498 0.595318 -0.232926 -1.08675 0.748006 -0.240844 -1.1977 -0.171039 -0.290458 0.612158 -0.454745 -1.10919 0.436164 -0.361811 0.376839 -0.0911338 0.487511 0.601331 0.54287 -0.894118 -0.0178375 0.0186006 0.320506 -0.993071 0.292616 -0.199284 -0.642417 0.672798 -0.349789 -0.140898 -0.7436 -0.705236 -0.240944 0.184739 -0.468172 -0.267751 -0.755542 -0.435239 0.780332 0.0887431 -0.693461 -0.339423 0.522057 -0.737641 0.724989 0.0928894 0.43657 0.365049 -0.243859 0.01463 0.651621 -0.702661 -0.47777 0.302095 -0.537953 1.08422 -0.648178 -0.0317718 0.744873 -0.132292 0.836393 1.0429 0.337618 -0.162991 0.496264 0.967566 0.59393 0.858838 -0.552269 0.338208 -0.0899034 -0.296921 0.936945 -0.856083 -0.197497 0.364644 0.225875 0.981606 -0.359321 -0.866516 0.0528839 -0.685147 -0.626881 0.650259 0.492289 -0.326528 0.409724 0.460245 0.417818 -0.0656546 1.14008 -0.0862101 -0.357529 -0.0314468 0.341958 0.727098 -0.431029 -0.355394 0.186792 -0.30645 0.747822 -1.06199 0.387988 0.522257 -0.968772 -1.02175 -0.302273 0.109209 -1.3268 0.0681636 -0.0358563 -0.23959 0.221375 0.134289 -0.873688 -0.666959 0.454182 0.160921 0.594263 -0.288381 -0.937888 0.632105 0.709553 -0.169836 -0.207484 0.202346 -0.258009 0.53898 -1.04872 -0.90967 -0.581924 -1.15724 -0.814626 -1.09458 0.517078 -0.639376 -0.993721 -0.600095 0.555954 -1.09802 0.647339 -0.156938 -0.00375175 0.255536 -0.779615 0.327451 -1.06231 -0.956234 -0.110342 -1.14212 0.197603 0.406232 -1.06327 0.189217 -0.402449 0.0879172 -0.277097 0.701497 -0.0717021 1.53444e-05 1.03073 0.638342 0.183055 -0.460529 0.750894 -0.164922 -0.0797662 0.857823 0.429586 -0.257135 -0.660694 0.56167 0.980329 0.568154 0.0712658 -0.512407 0.00569582 0.188448 -0.37204 -0.827817 0.363436 1.12169 0.847677 0.615771 0.482891 -0.5356 -0.435078 1.07148 1.00369 0.521251 0.139394 1.12178 0.273785 -0.57091 -0.429514 -0.0365693 0.123709 0.419778 -0.118828 -0.448865 1.21926 -0.0360612 0.956933 0.960182 -0.668646 -0.17635 -0.753463 0.24475 0.78469 -0.0788681 0.462508 0.263831 -0.0658727 0.093279 -0.516784 0.947686 0.221538 -0.257248 0.791499 -0.119497 -1.07475 -0.358227 -0.263558 -0.149479 -0.291651 0.0591 0.592544 0.602001 -0.757834 -0.637865 -0.902769 -0.610814 0.0810972 0.735643 -0.837958 0.149645 -0.822025 -0.921704 -0.719884 -0.997434 -0.225449 0.385539 -0.201871 0.290727 -0.958197 -0.0830861 0.0950099 0.249752 -1.30137 -0.0789464 -0.756386 -1.24321 0.705921 0.109466 -0.234578 -0.435768 -0.716463 -0.565385 -0.753079 -0.356429 -0.226559 -0.697813 0.0311051 -1.11581 -0.95211 0.18551 0.0941688 -0.595243 0.405766 0.480521 -0.466502 -0.604904 0.0764809 0.586174 -1.02901 0.482397 -0.135047 0.450458 0.141815 0.0155213 -0.275885 0.751357 0.122447 -0.242351 0.161239 -0.828853 0.674079 0.937941 -0.04499 -0.772003 -0.17383 1.06024 -0.223422 0.995477 -0.925355 -0.00965606 0.365218 0.354915 0.783846 0.30939 0.282866 -0.339478 0.815782 -0.429351 -0.52425 1.14152 -0.699326 0.461545 0.757511 0.75781 -0.225842 -0.443365 0.544964 0.965771 0.427968 -0.203347 1.24244 0.119826 -0.354499 0.264379 0.424608 0.481954 0.178934 1.178 0.300744 0.153971 0.174802 -0.333601 -0.483847 -0.153484 0.716705 0.483782 0.067635 0.329111 0.786059 0.301934 0.178768 1.12813 -0.148438 -0.0851758 0.708762 0.401359 0.193348 -0.132745 0.0541932 -0.577739 0.370939 -0.157407 0.142078 0.486275 0.696458 -0.824898 -0.484049 -0.388657 -0.928574 0.633994 0.432839 -0.0381026 -0.832687 0.743345 0.462282 0.584602 -0.0344479 -0.629232 -0.331466 -0.304814 0.4876 0.795894 -0.441514 -1.02641 -0.777903 -1.20682 -0.0418605 0.121893 -0.558964 -1.03763 0.46446 0.690851 -0.236076 -0.394657 0.299687 -0.429486 -0.0429057 -0.959497 0.211782 0.0869208 -1.24678 -0.300909 -0.9299 -1.13377 -0.611635 0.523527 0.481252 0.449597 -1.15562 -0.801053 -0.888713 0.347981 -1.00896 -0.2082 0.492271 -0.524009 -0.173504 -0.242718 -1.09287 0.527436 -0.0851115 0.668743 0.509495 -1.03899 -0.334803 0.250706 -0.0329225 -1.02644 0.603604 -0.378471 0.46005 0.705011 0.588208 0.773917 0.809322 -0.771949 0.470764 0.472643 0.833557 0.663525 0.997973 -0.609782 0.334478 -0.603843 0.340664 0.15356 0.0359276 -0.687492 0.911402 0.183681 1.13139 0.097114 0.0871441 0.752668 0.348796 0.941896 0.232285 -0.663393 0.849234 -0.170824 -0.0238343 0.326614 -0.472162 -0.492635 -0.0343237 1.25421 -0.421811 -0.537384 0.795967 -1.1509 
0.665274 0.371367 -0.58165 -0.201241 0.698319 0.557521 0.734661 -0.628798 0.736715 0.516144 0.507723 0.644369 -0.582662 -0.650896 0.253083 0.490468 0.974252 -0.805155 0.608061 0.593001 -0.259688 -0.75788 -0.432064 -0.0918173 -0.617933 0.250344 -0.129342 -0.33753 0.365038 -0.701219 -0.258696 0.00776199 0.622997 -0.00386297 0.775646 0.167579 -0.623829 0.34059 0.515585 0.973978 -0.284807 -0.116234 0.476639 -0.00885087 0.0979856 -0.402653 -0.650131 -0.248635 -0.554956 0.618448 -0.803847 0.0436904 0.88223 -0.159751 1.05949 -0.796166 0.968633 -0.222234 -0.427808 -0.0303734 -0.303169 0.0813742 0.81338 -0.778558 -1.07057 0.608076 0.56395 -0.509693 0.0350087 0.0110584 -0.551356 0.689229 0.841951 0.849603 -0.407581 -0.20247 -0.708927 -0.234389 0.587744 -0.198322 -0.494952 0.88595 1.00042 -0.704631 -0.472774 0.817582 -0.673944 -0.643309 -0.513982 -0.0545266 0.40819 0.149509 -0.988392 0.268964 0.574241 -0.888334 -0.118623 -0.0456046 -0.501204 0.702598 0.758164 -0.316211 0.144798 0.346621 -0.681905 0.489234 0.89177 -0.62253 -0.953078 0.304556 0.044632 -0.622883 0.0226977 -0.159041 -0.587189 0.331109 -0.410228 -0.219424 0.764656 -0.0166188 0.615313 0.0825499 -0.810264 0.64984 -0.609823 0.777808 0.789157 0.239098 -0.441381 -0.898116 -0.0645139 -0.705525 -0.0724423 1.04234 0.568311 0.0267534 0.499723 0.595626 0.5441 0.547108 -0.123753 -0.458415 0.872699 0.839959 0.310919 -0.661288 0.20803 0.785508 -0.00167805 -0.163793 -0.365275 -0.555288 0.781053 -0.313315 0.991429 1.0001 -0.706738 0.61603 0.0798082 -0.167103 0.674643 0.855441 0.0999223 -0.570044 0.720278 -0.354799 0.470462 0.0873928 1.09949 -0.137465 -0.482002 -0.164756 0.312628 -0.732243 -0.428758 -0.699129 -0.74073 0.442451 0.884343 0.0627098 -0.910713 -0.568918 0.590062 0.967677 0.114498 0.417305 0.61009 0.0288929 -0.265944 -0.476444 0.769912 -0.720096 -0.790983 -0.284765 -0.412426 0.911367 0.541079 -0.693179 0.181661 0.613117 0.112149 0.594079 -0.659486 -0.705999 0.722967 -0.23482 -0.401971 0.952397 -0.756324 -0.435504 0.164601 -0.612537 0.00434454 -0.367122 -0.81211 1.02916 1.01854 0.843435 0.112391 -0.243536 -0.499365 -0.00649194 0.173996 -0.125032 0.933254 1.00225 -0.0764402 0.327724 -0.887834 0.892355 -0.239299 0.0358381 0.288958 -0.133864 0.0407957 -0.266568 0.413001 0.47744 -0.386032 0.554217 0.942986 0.667252 0.887869 -0.123643 -0.801811 0.988837 -0.345407 -0.894993 0.859398 0.946492 -0.0826919 -0.605524 0.0410325 1.00995 0.17294 -0.0576379 0.967437 -0.940301 -0.879701 -0.941002 1.0786 -0.0334106 0.00935574 0.127036 0.816479 -0.783259 1.02844 0.265728 0.689291 -0.405888 -0.2273 0.569279 -0.794629 -0.387233 -0.62671 -0.708346 -0.485041 0.0453007 -0.757538 -0.784016 -0.146965 0.0231116 -0.483045 0.763403 0.0403126 0.67259 -0.452816 -0.013144 0.692693 -0.341308 0.0186107 0.585794 0.439563 1.00824 -0.267702 0.129217 1.12321 -0.391145 -0.718708 0.673458 0.112912 -0.0671373 0.100199 -0.0499906 0.160133 0.0948339 0.0019196 0.449623 -1.04814 0.202912 0.744729 -0.0944812 -0.729004 -0.906624 -0.691306 -0.0507327 0.45773 -0.281787 0.785055 0.0154407 0.339875 -0.170696 -0.375647 -0.340068 -0.107979 0.498299 0.921521 -0.0724334 1.07082 1.1173 -0.558985 -0.0130881 -0.150058 0.381115 0.953742 1.10243 -0.474222 0.0707245 0.653957 -0.446254 -0.705207 0.28099 0.341651 -0.51247 0.397457 0.861996 0.601189 -0.145306 -0.442054 0.380811 -0.965204 0.979992 -0.704482 -0.212603 -0.33136 -0.0466969 1.00031 -0.625916 0.67051 0.813178 -0.732382 0.913658 -0.424929 -0.0444527 0.118728 -0.604124 -0.106278 0.525009 0.355305 -0.61307 1.01461 0.562139 0.589522 0.248927 0.764517 -0.20073 -0.0444318 0.360622 0.64136 0.536447 -0.191633 0.590774 0.363837 0.0166718 -0.72576 0.98876 0.818567 -0.741918 -0.490134 0.599042 -0.967813 -0.423908 0.49127 -0.224826 0.675467 -0.3796 0.161138 -0.477057 1.10259 -0.504588 -0.11369 1.06601 0.959479 -0.647937 0.184344 0.745372 0.00664773 1.01824 -0.0210699 -0.446327 0.430571 0.656583 -0.849597 -0.203376 -0.488237 -0.596728 -0.254866 -0.679278 -0.359708 0.0684241 0.732948 -0.347567 0.663143 0.0965944 0.326537 0.238282 0.607627 -0.662308 0.620249 0.582906 -0.338091 -0.861722 0.247304 -0.69007 -0.671126 -0.66895 0.874656 0.22185 -0.759177 -0.136051 0.778988 0.638466 -0.682999 0.75333 -0.738563 -0.332386 -0.989958 -0.127578 -0.148121 -0.524993 0.800125 -0.579061 0.0118511 0.407075 0.620603 -0.560644 -0.260848 0.175284 -0.38096 -0.852152 -0.479983 0.121445 -0.668913 0.889199 0.460139 -0.254831 -0.727033 0.272948 0.963746 -0.511585 -0.878832 0.702561 -0.833341 -0.561216 0.506241 -0.638306 -0.0554871 0.326884 0.243349 0.893156 0.975319 0.226532 -0.596674 -0.0423762 -0.429081 0.87891 0.233893 0.169866 -0.119621 0.726381 0.136403 0.27564 -0.284615 0.41095 0.0837577 1.0396 1.00944 0.193704 0.267915 0.888402 0.654213 0.30027 0.541973 0.717455 0.652222 -0.128141 1.06158 -0.315259 -0.699268 0.31815 -0.387633 -0.94118 -0.630638 -0.158736 -0.00967564 -0.0898892 -0.280164 -0.614801 -0.952424 0.577165 1.08041 0.356376 0.0102414 -0.210466 -0.266035 1.01873 -0.221132 -0.276813 0.18883 1.0169 -0.459747 -0.277476 0.237863 0.94346 -0.690731 -0.271798 -0.308148 -0.709022 0.328223 -0.129051 0.497458 0.788196 -0.0867317 0.844765 -0.379826 0.900621 -0.252758 0.345498 -0.856664 -0.185018 -0.0581816 1.09585 1.0764 0.849578 -0.217259 -0.330671 0.733593 0.425307 0.218586 -0.363005 0.123564 0.460469 0.164117 -0.834981 0.201477 0.337591 -0.238894 0.850691 0.593536 -0.985129 -0.388007 -0.0765982 0.648498 0.32999 -0.425482 -0.856796 0.149356 0.217766 0.349869 0.106274 -1.0687 -0.781408 0.300781 1.1019 1.17564 1.04394 -0.377208 0.711043 0.228279 0.688437 -0.668508 -0.616581 0.102766 0.531168 -0.330229 -0.689583 -0.0928399 0.356198 -0.807439 -0.487388 0.479613 -0.176296 0.495377 0.0513279 -0.935697 -1.02732 0.242239 0.285984 0.33158 -0.274693 -0.51306 0.292852 -0.0347672 0.653864 0.260269 -0.0310787 0.509976 0.75883 -0.455622 -0.365862 0.314939 -0.23513 -0.0525209 -0.630998 -0.749806 0.463701 -0.336854 0.0765758 -0.198893 -0.195353 0.488893 -0.851293 0.487095 -0.171718 0.18752 0.61258 -0.103258 -0.494082 -0.22872 -0.949856 0.0619001 0.233182 0.338516 -1.00993 -0.138593 -0.254786 -0.0339784 -0.620218 -0.511232 0.665268 0.146717 0.767858 -0.610221 1.05791 1.06861 -0.409361 0.466743 -0.31848 0.557066 -0.858419 0.36694 -0.0610926 -0.817566 -0.244886 0.728566 0.333985 -0.695119 -0.509099 0.703416 0.0797956 -0.447812 -0.239013 -0.710516 0.896706 -0.245645 0.18055 -0.481829 0.738333 0.579193 -0.122729 0.262714 -0.392081 -0.476831 0.529316 -0.468901 -0.532099 1.02421 0.699082 -0.169024 0.227511 0.682485 -0.95988 -0.953935 0.733517 -0.383943 0.551012 -0.0539562 -0.131077 -0.969382 -0.480282 0.74995 -0.61568 0.115168 -0.997499 -0.781232 0.795399 0.0411986 -0.416492 0.422791 -0.473115 0.404446 -0.190607 0.271717 1.05725 -0.781337 0.685417 -0.642355 1.03442 0.397336 0.24051 0.348452 0.138342 0.376484 0.401987 -0.0093832 -0.927839 0.227653 1.04388 0.0408539 0.290362 -0.461506 -0.182798 0.564036 0.668688 -0.143807 0.872911 0.559696 -0.979482 -0.377333 0.105998 -0.347215 -0.972123 0.734241 0.77423 0.93104 0.844367 0.295309 -0.815981 0.817588 -0.400621 0.375677 0.0631166 0.674594 -0.355664 -0.551708 -0.442843 -0.315509 0.54506 -0.559727 0.615394 -0.341071 -0.0836956 -0.581889 -0.742583 -0.412881 0.309861 -0.98447 -0.991518 0.331571 -0.367722 0.118243 0.829726 -0.314523 0.0280467 0.639153 -0.360465 -0.267271 0.0981998 -0.031209 -0.307381 0.711147 -0.677212 0.722968 0.331815 -0.0955569 1.12083 0.794952 0.479465 0.541106 -0.845094 0.048286 -0.846272 -0.00234625 0.38889 -0.647511 0.541424 -0.347503 -0.555805 0.632137 0.91931 0.118512 -0.201251 0.824568 0.817165 0.685257 0.463747 -0.513612 -0.552204 -0.55353 0.35074 0.0103963 1.02748 0.549403 -0.324852 0.136252 -0.769576 -0.568009 -0.235246 0.541555 0.836994 -0.0644519 -0.396047 0.9608 0.735412 0.700469 -0.767994 0.0934934 -0.776467 -0.655777 -0.447391 -1.01549 0.389187 0.266029 0.719985 0.107989 -0.165639 0.042357 0.474809 0.189671 0.473693 -0.0503673 -0.68213 0.522397 -0.603339 -0.221496 -0.376493 -0.4028 0.3053 0.513669 -0.790424 0.196976 -0.736145 -0.335467 0.121358 -0.8409 -0.455507 0.308898 0.330771 -0.17075 0.686441 0.801718 -0.187236 0.154511 0.174681 -0.397736 -0.655919 -0.946507 0.741985 0.904039 0.359302 0.278531 -0.256936 0.516119 -0.325335 -0.0262159 -0.796431 0.229372 0.509851 0.432516 -0.343933 0.617576 -0.447107 -0.0529438 -0.72542 0.631223 -0.00702177 -0.311318 -0.136272 -0.817484 0.420218 -0.408237 1.06789 -0.741664 0.769801 0.273052 -0.129211 -0.863807 0.24455 -0.5074 0.904641 -0.382203 0.880172 -0.342403 -0.810307 -0.535652 0.668692 -0.430911 0.872647 0.316888 0.984262 -0.506934 -0.0927486 -0.642207 0.364297 0.0961053 1.04315 -0.684877 0.74716 -0.130964 -0.571608 0.0698564 0.351515 -0.595284 0.254351 0.04855 0.578504 1.03188 0.0822066 -0.126686 -0.418833 0.00743512 0.505867 -0.648331 0.705743 0.728193 -0.152828 0.260186 -0.962773 -0.560819 -0.546444 0.889314 -0.052344 0.278938 -0.69175 -0.909474 -0.599812 -0.646828 -0.596343 0.9905 0.0669762 -0.378092 -0.181031 -0.844245 -0.222203 0.875197 0.184966 -0.632757 0.807348 -0.987717 -0.0469213 -0.768397 -0.0760014 -0.642075 -0.525391 -0.509993 -1.04164 0.248214 0.867793 -0.869743 0.919259 -0.497249 -0.778913 -0.234432 0.750895 -0.490795 -0.1334 1.10148 -0.224931 0.146091 0.867996 0.712792 0.683584 -0.176679 0.993305 -0.410572 -0.194931 0.123943 -0.225351 -0.538647 0.0565615 0.804883 -0.214207 -0.907133 -0.693306 0.377919 -0.328089 -0.675393 -0.312747 -0.375419 -0.468591 -0.50635 -0.0328195 -0.424308 0.098806 -0.322955 0.0392502 0.927457 -0.317753 0.703911 -0.0145796 -0.426447 0.404273 -0.34127 0.290183 0.285648 0.169673 0.844329 -0.853879 0.846891 -0.463431 0.432344 0.86319 0.395681 0.530436 -0.823715 
-0.923987 -1.48106 -1.08697 -0.122232 -0.79449 -0.694231 0.258879 0.157133 -0.0166244 -0.545895 -1.1374 -0.755481 -0.2685 -0.100951 -1.32789 0.263276 0.103314 0.0438205 -0.84398 0.0688623 -0.122916 0.521637 -0.0367127 0.247594 0.700172 0.515885 -0.231866 0.831355 0.0342565 1.34786 0.599033 0.418308 -0.76608 1.07376 -0.217397 0.237185 0.364544 0.0547778 0.169522 -0.187889 1.39722 0.290617 0.313781 -0.341307 -0.63655 0.444722 -0.187261 1.04974 0.244381 0.567569 0.32155 1.8729 0.192785 0.773757 0.0900126 -0.381473 0.60063 0.540379 0.616684 0.53299 0.942284 0.591902 0.305138 0.918318 0.28344 0.80747 -0.39578 0.880431 1.22244 0.142138 1.3121 0.468526 0.749478 -0.473756 -1.10399 0.663518 -0.729612 0.108219 1.36075 0.586883 1.00459 -0.054419 0.776776 -0.293039 -1.28888 0.35432 -1.32719 -0.995394 -0.270998 -1.03957 -0.974442 -0.872415 -0.252659 -0.339535 1.19626 1.13491 -0.704276 -0.583149 0.441285 1.33776 0.615523 0.633019 1.26319 0.383736 1.40975 1.04597 -0.0505365 -0.855181 -0.827944 -0.905709 -0.215991 0.71465 -0.426583 -1.12967 -1.14869 -0.497246 -1.2998 -0.554127 0.390917 -0.0304903 -0.498997 -1.41378 -1.2235 0.365018 -0.705411 -1.30267 -0.0799737 -0.717802 -1.41727 -1.11812 -0.658694 -0.44079 -0.114758 -1.58634 -0.0870494 -0.336595 -0.0646353 -1.59775 -0.371688 0.405314 -0.794495 -1.22428 0.127977 -0.465225 -1.10816 -1.73484 -1.02085 -0.444333 0.0175082 -0.906558 -0.854622 1.1547 -0.625121 -0.24039 1.08402 0.52464 0.0872685 0.830029 1.22482 -0.0409455 1.14104 -0.208777 1.06164 0.755653 -0.102173 0.848061 -0.0539602 -0.576173 0.940221 1.07745 1.29154 1.52669 -0.504637 0.841598 0.547547 -0.276428 0.608377 0.742339 0.918499 0.565623 1.74461 1.83277 0.476284 1.49185 -0.0588772 0.112997 -0.0474781 0.0733078 -0.436796 -0.011657 1.26882 1.57179 0.802523 1.36382 0.796346 1.24452 0.281784 1.1428 1.30216 -0.721623 0.490597 0.648865 -0.819177 0.40276 0.640412 1.11299 -0.0442662 1.09532 1.31993 1.49011 -0.0812595 0.796061 0.725879 -0.0534809 -0.370356 -1.42203 -1.06677 -0.904483 0.216765 -1.12327 -0.0682952 -0.215489 -0.339376 -0.457187 -0.547297 0.52834 1.25636 0.873421 0.636706 1.55636 1.62886 -0.121358 1.37022 -0.185501 1.16617 0.65565 -0.670828 -0.870008 -0.115492 0.296378 0.571679 0.170332 -0.422743 0.174096 -0.605038 -1.37641 0.224793 -0.555983 -1.14783 -0.739463 -0.243726 -0.393266 -0.136449 -0.321795 -0.226651 0.211559 -1.23549 -0.551858 -0.530679 -0.241883 -0.755746 -1.06458 -0.355836 -1.06926 -0.798902 -0.63382 0.132796 -0.780767 -0.375199 -0.70782 -1.04401 -0.787459 -1.38257 -0.430805 -0.730829 0.274548 0.365958 -0.770508 -0.947963 0.678102 -0.169013 0.46792 0.362461 -0.0194344 0.344369 -0.12919 1.60263 0.543093 0.711795 0.191132 -0.559389 -0.629817 0.602579 0.905731 -0.102869 -0.142874 0.140431 0.0212709 0.999433 1.67777 1.0374 1.06103 0.271857 1.03206 0.386704 0.13879 0.3184 0.680716 1.41839 1.42172 0.277159 -0.0967231 0.239564 1.57621 -0.0463997 1.09324 -0.416812 0.407404 0.124969 0.911588 1.27627 0.206967 0.761768 0.460693 -0.465601 1.48295 0.43378 -0.556153 -0.578731 -1.01337 -1.23654 0.0604026 -0.869535 0.0832554 0.894107 1.2554 1.27452 -0.0119677 0.160365 0.7654 0.867652 0.0177185 0.331379 -0.843842 0.755932 -0.294389 -0.624194 0.666669 0.497149 0.0061634 0.418016 0.137192 0.943067 -0.507722 0.860097 0.938921 -0.256589 0.693479 0.0147544 -0.000828438 0.865048 -0.0149339 -0.189195 0.853381 0.246459 0.49485 -0.0317586 -0.562869 -1.34559 -1.55608 -1.11783 -1.32684 0.226634 -1.37876 -0.269177 -0.121365 -0.864192 0.0338197 -0.506356 0.245688 -1.21711 0.371783 -1.09362 0.351372 -1.38421 0.410558 0.0165944 -1.04303 -0.771786 -0.45032 -1.24151 -1.87234 0.363464 -0.498733 -0.00917899 -0.651871 -0.810341 -0.54479 -1.59326 -0.761592 -0.347365 -1.1907 -0.316734 -0.377047 -0.769915 -1.1245 -0.867692 -0.206007 0.610669 0.707981 -0.193172 0.858001 0.889801 0.741957 1.3741 0.982819 0.567147 0.485615 1.00528 0.731619 -0.199377 -0.368869 1.44775 0.00782771 0.824374 1.13863 1.23438 0.395833 0.785946 1.82395 0.947824 1.19268 -0.797626 -0.661646 0.338347 0.296266 0.20804 1.51618 1.32972 1.75089 0.150758 -0.0995052 1.7658 1.42119 0.993953 1.43866 0.350008 -0.57557 0.109829 -0.0219221 -0.694306 0.691157 0.662677 -0.369294 1.10061 -0.596437 0.495869 0.0432094 -0.764996 -1.18005 0.264015 0.725111 -0.582255 0.866041 1.27916 0.656162 1.11593 1.52107 -1.00055 -0.429175 0.641136 -0.332599 0.794589 1.09283 -0.0983717 -0.137277 0.859592 0.959783 0.179312 1.26378 -0.648697 -0.102838 0.184366 0.161698 0.562735 0.754806 1.41269 0.0747735 -0.0653533 -0.23927 0.0371488 0.271216 0.568912 -0.514068 -0.968886 -0.211543 0.089612 -1.62532 -0.327888 0.347365 -0.391856 -0.533804 -0.75289 -1.04528 -0.998993 -0.504771 -0.722944 0.0675542 -1.17222 -0.066708 -0.226149 -1.14564 -1.45971 -1.40855 0.0808441 -0.364909 -0.629214 -0.955282 -0.629043 -1.00442 -0.315395 -1.64415 -1.28402 -0.748605 -0.879339 -0.721911 -1.4039 -0.896388 -0.355053 0.095107 -0.865676 -1.27994 -1.22478 -0.406938 -0.748601 -0.460931 1.06831 0.496184 -0.750558 -0.729245 0.1248 1.00588 0.124185 0.396345 1.1867 1.35638 1.22858 -0.22711 -0.00851428 0.659126 0.971132 -0.317842 0.91485 1.30652 0.612653 -0.103805 0.731296 1.00006 0.468328 1.18021 -0.672399 -0.688778 0.783528 -0.135485 1.03938 -0.0723784 1.10304 1.22014 0.611272 0.661175 1.49748 -0.142369 1.05634 -0.207635 0.30036 -0.161294 1.68527 0.208675 0.408964 -0.204457 0.828996 -0.348294 0.424134 0.0402587 -0.188346 -1.23763 -0.269709 -0.207468 0.584509 0.822623 0.314702 -0.255195 0.00508385 1.14464 0.51183 -0.451627 0.150993 -1.14081 0.534612 -0.322697 -0.816892 0.771394 0.711784 0.65789 1.22573 0.12099 1.19594 1.15103 0.218602 -0.362574 -0.483735 -0.126823 0.694822 1.19356 1.53468 1.49716 1.01766 0.297859 0.322192 -0.190635 -0.738239 -1.10714 -0.68829 -0.874394 -0.144881 0.0127247 -0.695499 -0.417044 -1.32023 -0.853258 -1.03779 -1.23116 0.573923 0.25089 -0.274108 0.0996957 0.440422 -0.806044 -0.433556 -0.654956 -0.227682 -0.0234045 0.138929 -1.20256 -0.755971 -0.274235 0.262365 0.394123 0.611413 -0.767655 -0.680763 -1.71262 -0.846163 0.04308 -0.545498 -0.798349 -0.024226 0.434334 0.503388 -0.0336782 0.415396 0.19579 -0.0950051 0.672097 0.472074 -0.355131 0.488487 0.420007 0.539164 0.0534334 1.67494 -0.158619 1.32843 0.858485 -0.425963 -0.382716 -0.221738 0.00544379 0.0965985 -0.201352 0.713656 0.575549 0.213251 1.70022 -0.0630673 0.905536 0.258944 1.09973 -0.507097 0.375832 -0.0715839 -0.445396 0.662979 -0.420159 -0.212307 0.303661 0.0255292 0.869921 1.34269 1.3363 1.69255 1.1126 -0.29688 0.770603 0.684304 0.560077 1.10923 1.09834 0.285553 -0.361682 0.0173168 1.11041 0.749835 -0.169726 0.39922 0.508073 1.30057 1.64775 0.915715 0.448645 1.08116 1.53981 0.036744 -0.267909 -1.34516 -0.00893428 0.328459 0.126498 0.237619 0.441835 0.223534 0.0678769 0.410696 0.853858 -0.399005 1.0472 1.10913 -0.806211 0.696628 -0.230551 -0.011526 1.6251 0.430168 1.39893 0.456907 -0.244779 0.392716 -0.264266 0.943899 -1.22244 -0.296873 -0.022856 -1.23835 0.576246 0.523388 -1.19825 -0.454021 -0.371887 -0.225476 0.048035 0.56637 0.604573 0.565486 -0.884448 -0.349304 -1.40033 -1.07971 -0.512919 -1.24285 -1.3359 0.334634 -0.956253 0.599959 -0.896613 0.538538 -0.861586 -0.960653 -0.572646 -0.0331431 -1.24532 -0.660356 -1.0854 0.693171 0.283581 -0.398785 0.673358 0.765189 0.707473 -0.467851 -0.487377 -0.0592771 -0.695756 -0.427061 0.163891 0.183877 0.887565 0.494352 0.552263 0.083211 0.834269 0.859318 -0.29191 0.913759 0.549639 -0.272591 1.22036 -0.225695 0.288828 0.302163 1.71573 1.07841 1.39458 0.0468331 0.387387 0.462422 0.934744 -0.198035 -0.635469 -0.100557 0.396323 0.177694 -0.61915 0.901689 0.785111 0.353157 -0.294354 -0.00827486 -0.498121 1.70224 0.496841 0.916393 0.449123 0.969511 0.446826 0.156215 -0.131617 0.671737 0.940824 0.882015 0.777203 0.605031 -0.74094 0.12406 0.649542 0.35873 1.30954 0.406529 1.51765 1.86492 1.00338 -0.269911 -0.151189 -0.106469 0.99991 0.988395 -0.0675368 0.340682 -0.055114 0.397167 0.467425 1.93073 0.0604249 1.38062 1.02077 1.0868 0.0801336 0.794275 -0.308215 -0.173347 0.777772 -0.0387386 0.900201 0.786503 0.639932 -0.274285 -0.467061 -0.103601 -0.61038 0.456458 -0.697673 -1.19956 -0.911667 -0.0883313 -0.0577814 -1.11067 -0.347543 0.48937 -0.599494 0.176984 -0.762262 -0.101509 0.195632 -0.469492 -0.14702 -0.286295 -0.75627 -1.14946 -0.383639 -0.0103879 -1.18824 0.413178 0.16746 -0.59217 -0.909046 -0.846758 -0.111719 -0.230682 -0.194622 -1.70379 -0.380352 0.908302 -0.634269 1.0435 0.567479 0.978392 0.843935 -1.04569 0.357411 -0.467735 0.851852 1.11171 -1.423 -0.0552776 -0.148711 0.327639 -0.69188 0.844501 0.685857 0.461328 0.324112 1.02102 0.170372 -0.247108 0.848484 -0.299466 -0.255482 -0.889092 0.568731 1.22396 -0.325292 -0.143976 1.30859 -0.132655 -0.459181 0.0819133 1.00061 1.11763 -0.362805 0.283078 -0.111342 -0.226047 0.760523 -0.135842 0.836419 -0.484385 1.49673 0.939602 1.25636 0.685622 -0.0263239 -0.026577 0.614166 -0.794494 0.160713 -0.0445049 0.273989 1.60045 -0.255407 0.717337 -0.114882 -0.938854 1.0389 -0.148612 -0.258873 1.4825 1.1373 0.018169 1.32056 -0.279529 1.35538 -0.392028 -0.45522 0.138218 0.430376 1.48043 -0.0325046 0.237469 1.12941 -0.0642257 -0.0617273 -0.165679 0.532659 0.925685 -0.52983 0.91196 0.974713 0.43658 1.43514 0.0292263 1.77885 0.432761 0.0630097 1.39903 0.944166 0.226491 0.549122 -0.283976 0.0400472 0.181132 -0.0145454 -0.117477 0.634764 0.547307 0.505158 -0.256424 0.399796 -0.93584 -1.27262 -0.152071 -0.545695 -0.890922 0.342613 0.370272 -1.10031 -1.04479 
0.77509 -0.776797 -0.0347218 0.245318 -0.817444 -0.161288 0.969135 -0.39906 -0.286524 0.711919 0.716075 -0.444419 -0.0953378 0.281792 -0.823365 -0.703613 -0.631724 -0.846071 -0.775022 -0.924812 0.189421 1.02266 -0.40754 0.263105 0.234196 0.352124 0.793309 0.0704522 0.109075 -0.972182 0.285925 -0.18764 -0.777841 -0.79263 -1.02384 -0.625895 0.0367933 0.928877 0.0398794 0.853303 0.638696 -0.291082 -0.699391 -0.532069 0.885569 -0.505264 -0.185905 -0.728392 -0.398226 -0.0277753 -0.744782 0.68738 -0.106531 -0.200886 -0.0706366 -0.853376 -0.935192 -0.433472 0.0774269 0.230789 -0.308899 -0.566315 -1.00522 -0.147301 -0.349135 -0.932478 0.421725 0.770039 -1.02712 -0.646041 0.505527 0.573022 0.0759632 0.895258 -0.848372 0.0687961 -0.645192 -0.0828002 0.287289 -0.119711 0.820428 0.547525 -0.41402 -0.303235 -0.679304 0.435263 -0.230759 -0.617841 0.974579 0.82304 0.555841 -0.329672 -0.697303 0.589419 0.585303 -0.0308568 0.638132 -0.0648117 -0.308545 0.651524 0.317677 -0.76091 0.285285 -0.595966 1.077 0.353105 0.384222 -0.662193 -0.837933 -0.424232 0.1394 0.896675 0.986173 0.580779 -0.598389 -0.880678 -0.182687 0.0250048 -0.618373 -0.328585 -0.31544 0.744411 0.1845 -0.12817 0.251056 -0.351188 0.733491 -0.197642 0.522026 -0.634043 -0.632049 -0.262054 -0.561027 0.463505 0.00386976 -0.565045 -0.265167 -0.668562 -0.272959 -0.190026 -0.235448 0.762504 -0.381704 -0.369632 0.216009 -0.089757 -0.324437 0.943535 0.871627 -0.0232664 -0.396004 -0.408899 -0.271726 0.716219 0.42028 0.944073 -0.661255 0.0733436 -0.398438 0.761038 0.352294 -0.116735 -0.55784 0.78802 -0.593898 0.40693 -0.749125 0.196142 0.760727 -0.0950782 0.887319 -0.536366 -0.390651 -0.48557 0.0537266 0.770667 0.31679 0.656908 0.636699 0.0708675 -0.453692 -0.829309 0.673933 0.251135 0.826875 -0.00534552 0.112587 -0.757839 -0.919737 0.771135 -0.99743 0.459455 -0.260069 -0.497921 0.348174 0.0922221 0.903042 0.522446 -0.826153 0.656982 -0.550833 -0.868665 -0.863047 0.0772304 -0.377636 0.210885 -0.138122 0.966441 -0.170683 -0.516004 0.0985301 0.44481 -0.335451 -0.231146 -0.308561 -0.49154 0.747448 0.805702 -0.307826 0.866885 0.606535 -0.297293 0.330881 -0.686545 0.169005 -0.365734 0.439734 0.137871 -0.798621 0.682833 -0.176357 -0.333463 0.811016 -0.0775355 0.733235 -0.596948 1.05429 -0.510756 -0.771657 -0.210196 -0.143761 0.242912 1.08078 0.32956 0.819752 -0.40455 0.71322 0.422156 -0.704064 -0.784451 0.139928 0.749205 -0.194348 -0.634277 0.928512 0.881468 -0.07883 0.286878 -0.0647265 0.0288671 -0.157444 0.588164 0.578362 -0.420487 -0.545236 0.199479 -0.132738 -0.624205 0.567384 0.0730677 0.0613307 -0.726541 -0.855596 0.0846853 0.582487 0.871015 0.593009 0.217202 0.325563 0.875894 0.449861 -0.597847 0.563469 -0.858791 -0.288193 0.379758 -1.03533 0.539764 -0.354023 -0.176328 -0.459718 0.518986 -0.510229 -0.926413 -0.928362 -0.0710112 0.269574 -0.0862997 0.229236 -0.182497 0.921981 -0.683868 0.074531 1.03259 0.311083 -0.469235 0.826633 -0.185496 0.696518 0.0751159 -0.381266 0.0166079 0.367404 -0.896875 0.163254 -0.899312 0.552973 0.163156 0.676456 -0.71933 -0.929893 -0.719308 0.851428 -0.48267 -0.724302 0.794521 0.333207 0.559013 -0.228275 -0.366721 -0.647906 -0.29768 -0.0610933 0.41193 -0.312781 -0.767589 0.961529 -0.448107 0.0762234 0.707426 0.615457 0.674167 -0.301626 -0.0256418 0.801163 0.880203 0.0598586 0.38577 0.0820414 -0.235555 0.65738 0.133352 -0.0196189 0.443898 0.657324 0.325946 0.339535 0.0976787 -0.0519173 -0.850144 0.736243 0.266304 -0.171382 -0.359394 -0.355852 0.427718 -0.240896 -0.493052 0.867499 0.744675 1.04756 0.305324 0.270774 -0.398072 -0.878574 -0.0793283 -0.662898 0.0413478 -0.82209 0.299476 0.661497 0.725146 -0.704056 -0.433123 0.0694285 0.878621 0.82942 -0.633808 -0.104543 -0.357693 -0.657905 -0.500652 0.836914 0.0733256 0.0435451 -0.689013 -0.597847 0.744364 -0.282674 -0.884692 0.321122 -0.331116 0.349067 -0.501193 0.222706 0.432903 0.44526 0.546797 -0.500652 0.636693 -0.236391 -0.902859 0.283324 -0.0226611 -0.401118 -0.702871 -0.127384 -0.636699 -0.406108 0.777796 -0.0252728 -0.143188 -0.849484 -0.236941 0.932658 0.171835 0.0515029 -0.688648 -0.136565 0.7717 -0.580034 -0.755555 -0.658317 0.661992 -0.309873 0.491553 0.084826 -0.921692 -0.0746406 0.475755 0.615755 0.72069 0.548235 -0.129904 -0.280674 -0.833372 0.2188 0.730363 -0.348002 0.827956 0.419416 0.57638 -0.344999 0.508531 -0.710076 -0.391665 -0.245793 0.343323 -0.113918 0.681471 0.102562 0.341386 0.87578 0.45096 0.00763782 -0.391757 -0.0163076 -0.853612 -0.286029 0.942926 0.58687 -0.688255 0.689151 0.159862 0.23212 -0.525688 0.35717 -0.53721 -0.853539 0.940727 -0.739423 0.540292 0.501394 -0.0546229 0.145391 0.838299 0.579644 0.973671 0.161506 -0.531003 0.603085 -0.775638 0.70649 0.405495 0.563515 -0.401105 0.904933 -0.548202 -0.392191 -0.53593 -0.712697 1.053 -0.352668 0.798743 0.0487605 0.744954 -0.856741 -0.698202 -0.966279 -0.832145 -0.889594 -0.762803 0.626399 0.55192 0.11068 -0.251504 0.316622 -0.429325 -0.460471 -0.675847 -0.0997743 1.02894 -0.519654 -0.51164 0.359476 0.97204 -0.0111047 0.103863 -0.686953 0.529322 0.546055 -0.469167 0.525927 -0.887661 -0.711933 -0.433041 0.871851 -0.566349 -0.169604 0.860501 -0.441122 -0.140751 -0.947147 -0.863591 -0.599808 0.0828638 -0.192915 0.698282 0.693966 0.303366 0.946645 -0.505541 0.292598 -0.60715 -0.021096 -0.379038 -0.64514 0.972852 0.739733 -0.386694 0.43073 0.106832 0.0444932 -0.147742 0.174063 0.26046 0.308137 -0.0266398 0.638968 -0.885334 -0.19578 -0.872848 -0.0532556 -0.126481 -0.619981 0.507369 -0.883 0.162043 0.141104 0.698594 -0.591031 0.0608176 -0.801128 0.751504 0.514524 0.218075 -0.631213 0.895258 0.169195 -0.937829 -0.516068 -0.441404 0.225578 0.593648 0.452987 -0.537178 -0.134266 -0.243833 0.402823 -0.516178 -0.135882 -0.814359 -0.336424 0.890228 0.110682 0.0560285 0.356247 0.157982 -0.788822 -0.528031 -0.156764 -0.310745 0.59208 0.0757722 -0.541093 0.138178 -0.739198 -0.170106 -0.0129938 0.431781 -0.142828 0.413321 0.868898 0.947798 -0.10518 0.225104 -0.719373 0.647745 0.90203 0.584427 1.01622 -0.37884 0.670421 -0.453874 -0.619295 -0.379535 0.437816 0.57244 0.660861 0.562667 0.993239 -0.501213 -0.734465 0.586422 0.489438 -0.41563 -0.474512 0.618205 0.274508 0.41645 -0.064272 1.01295 -0.216166 -0.221082 0.860498 0.519493 0.907201 -0.891666 0.100212 0.699601 0.590446 0.0654851 -0.702717 0.235355 0.610037 -0.326809 0.854458 0.0145787 -0.788276 0.478262 -0.405165 -0.787082 0.954602 -0.24555 0.728978 0.398309 0.313223 -0.753888 -0.0931932 -0.46252 0.530157 0.805349 -0.419951 -0.673835 -0.353015 -0.585337 0.822799 -0.541698 -0.52289 -0.124819 -0.873814 0.987087 0.838632 -0.684533 0.164566 0.437465 -0.0521993 -0.0341441 -0.631901 0.174321 -0.482862 0.0975305 0.510579 -0.414335 0.847757 0.148446 0.894669 0.209627 0.328882 -0.163842 0.781357 -0.046625 -0.262801 -0.673779 0.276407 0.381039 -0.280142 0.0965529 0.817684 0.168058 1.01602 0.98904 0.208478 0.883517 -0.654709 -0.631966 0.297092 0.307005 0.354312 0.712171 -0.521152 0.904044 -0.226451 0.975515 -0.579574 -0.357834 0.123636 -0.69407 0.819557 -0.506892 0.180684 0.583193 0.451235 0.955953 0.889304 -0.260873 0.281935 -0.380356 0.798778 0.0568399 0.692012 0.673202 -0.0571708 -0.185986 0.450144 0.182336 0.0968229 -0.365192 -0.61372 -0.666772 -0.764381 -0.290631 -0.955377 -0.17645 -0.463061 -0.662634 0.358798 0.59428 -0.400413 0.129447 -0.962443 0.715428 -0.34451 0.395549 0.533249 -0.556629 1.01304 -0.301131 -0.0396049 0.709888 0.728435 -0.377783 0.284059 -0.483973 0.293055 -0.350134 0.61345 -0.644289 0.208408 0.956617 -0.378379 0.41691 -0.327623 -0.315724 -0.733486 0.2085 0.00867885 0.568926 -0.235076 0.600106 -0.306032 -0.220554 0.233868 0.306541 -0.875093 -0.302414 0.638829 -0.948712 0.354686 -0.379335 0.797107 0.128945 0.300305 0.107956 0.627118 -0.425891 0.686296 0.193147 -0.147162 -0.192709 0.0935857 0.369188 -0.817419 0.69641 -0.969802 -0.604277 -0.115168 0.064187 -0.948265 0.758576 -0.254662 -0.123594 -0.481263 0.919417 -0.854375 -0.269463 -0.339496 0.859727 -0.142631 -0.887433 -0.406955 -0.372197 0.184161 0.845378 0.71701 -0.191863 -0.597741 0.401548 1.0491 0.315974 -0.687972 0.161213 -0.238548 -0.475931 -0.152609 -0.210025 -0.0227551 0.737311 0.833466 0.0355014 0.46721 -0.459834 0.875144 0.998549 -0.547227 1.01305 -0.324283 0.132917 0.913191 0.511808 0.249311 -0.475984 -0.865489 -0.539795 -0.654347 0.854793 0.239513 -0.301383 0.171331 0.177435 0.925611 0.407968 -0.770126 -0.432693 0.855199 -0.0169841 0.279421 -0.297877 -0.405112 -0.0369278 0.580941 0.873378 0.336393 0.366562 0.779994 0.708815 0.322225 -0.635044 -0.222731 0.151898 0.840374 0.871134 0.53081 0.914391 -0.711385 0.771271 0.633518 0.411469 -0.591842 -0.278344 -0.4862 -0.836314 -0.97857 -0.36912 -0.333668 0.846801 0.574696 0.905236 -0.505584 -0.876868 -0.157636 -0.894314 -0.972682 -0.836403 0.38768 0.743716 0.872081 -0.280082 -0.840793 -0.411425 0.813676 -1.02804 -0.511504 0.203185 0.740395 -0.30413 0.0401891 0.459294 -0.78957 0.433051 -0.788515 -0.284333 0.571952 -0.759503 0.318356 -0.794178 -1.04837 -0.213829 -0.933386 -0.571379 -0.0992363 -0.138793 -0.492959 -0.0116961 0.0603359 0.972447 -0.212652 0.0287498 -0.198729 0.00826303 0.598855 -0.436435 0.00674886 -0.751626 0.848603 -0.208769 -0.0239841 -0.107225 -0.750231 0.141554 -0.671667 -0.511193 0.828755 0.887998 -0.333864 0.197754 -0.833888 -0.251747 1.06126 -0.719818 0.218555 0.0173152 0.147054 0.729659 0.961127 -0.807801 0.730696 -0.227038 0.193414 -0.514181 0.773444 -0.201108 0.0416084 -0.241515 -0.0410507 -0.0688691 0.597674 0.925281 0.861071 0.915494 0.0652509 -0.821037 -0.673173 -0.129227 1.00655 -0.041665 0.960485 -0.943695 0.624281 0.968537 -0.727452 -0.263844 -0.097689 0.317345 -0.576039 -0.229218 0.402793 0.941405 0.346996 -0.615082 -0.710436 0.0502341 0.0980682 0.253561 0.810726 
