-0.88625 0.21906 -0.420745 -0.518858 0.966697 0.557177 -0.672852 -0.492662 0.733984 -0.15778 0.0441076 -0.88795 0.819619 -0.37202 -0.95143 0.512628 0.765043 0.0511739 -0.182681 -0.0185725 0.377056 0.921515 -0.332168 0.192348 -0.545893 0.848077 0.0489858 -0.484626 0.895562 0.407273 0.942665 -0.936872 -0.319838 -0.428018 -0.408829 -0.325427 -0.843401 -0.051097 0.2124 0.921071 0.818293 -0.720811 -0.939713 0.660851 -0.0699511 -0.86891 0.19322 -0.289045 0.198239 -0.969789 0.710011 -0.407077 0.965545 -0.608335 0.79693 -0.568691 -0.7486 -0.142423 -0.0484565 -0.848344 -0.730459 -0.10246 -0.782009 -0.0470952 0.47272 -0.187477 0.630685 0.632525 0.761654 -0.156629 0.553883 0.580507 0.123119 0.614729 0.241941 -0.946258 0.746503 -0.566513 -0.233076 -0.0530302 -0.536943 -0.525266 0.537693 -0.572539 -0.136305 0.327165 -0.148689 0.107118 -0.821337 0.796777 0.256227 -0.551479 -0.308016 0.468168 0.395359 -0.84176 -0.721751 0.02366 0.791447 -0.961323 0.862526 0.340803 0.612149 -0.0181661 -0.0482726 -0.145826 0.0357345 -0.301601 0.289127 0.804128 0.646826 0.75741 -0.714724 0.190936 -0.810057 0.154431 -0.471683 0.0514489 -0.72153 -0.275432 -0.140098 0.538868 0.179431 0.566817 0.0321333 -0.400074 0.75324 0.339933 0.660882 0.581962 0.420215 0.563637 -0.0177278 0.094136 -0.395756 -1.02649 -1.01192 0.679749 -0.283858 0.322798 0.531629 -0.593706 0.12271 0.85811 0.638372 0.353255 0.0557094 -0.784223 -0.546122 0.383209 -0.0143719 0.367081 -0.0169108 -0.773908 -0.00499987 -0.917746 -0.106804 -0.186832 0.483924 -0.389046 -0.548032 -0.0487357 -0.78448 0.461929 -0.921214 -0.1468 0.46287 -0.9057 -0.439874 -0.798233 0.439823 -0.887423 -0.371228 -0.417387 0.990514 -0.71692 0.951914 0.0659522 -0.483458 -0.576596 -0.53702 0.515995 0.802142 0.45773 0.753745 -0.193445 0.544845 -0.348362 0.624415 0.0320991 0.262875 -0.923428 0.989499 0.484604 0.538792 -0.931513 -0.661973 0.00194233 -0.836884 -0.101234 0.20426 0.603499 0.0119441 0.833609 -0.813218 0.00287544 -0.87899 -0.856967 -0.931812 -0.366775 -0.43789 -0.472097 -0.853482 -0.643204 0.978178 0.892451 0.157427 0.517103 -0.458627 -0.218004 -0.453292 0.798066 -0.147499 -0.470262 0.280149 -0.61114 -0.401095 0.616955 0.386278 -0.242504 -0.486897 -0.413201 -0.642736 0.520708 -0.579499 -0.455856 -0.475728 -0.457814 -0.312143 -0.405798 0.180467 0.25504 0.127174 0.332458 0.622051 0.115557 0.241649 -0.2031 -0.349904 0.793123 0.591179 0.211721 0.610382 -0.537103 0.763735 -0.0799439 -0.11098 -0.60008 -0.421374 -0.684456 0.216931 0.115688 -0.0723519 0.580228 -0.290458 0.4213 -0.797986 0.277993 -0.990104 -0.0681584 0.914781 0.231574 -0.771975 0.0825586 -0.392802 0.899156 -0.752716 0.897883 -0.258653 -0.0552322 0.746113 -0.612374 -0.788328 0.42349 -0.0823047 -0.959666 -0.594707 0.863609 -0.502909 0.0310438 -0.779924 0.741728 -0.786486 0.214537 0.382758 -0.0496405 -0.337081 0.607411 -0.748834 -0.306344 -0.440024 -0.813861 0.945153 -0.195959 0.284741 -0.427911 -0.279104 0.549638 -0.516223 0.476052 -0.493947 -0.758464 0.875337 -0.272865 0.669885 -0.202273 -0.227854 -0.92149 -0.338382 0.269383 0.115632 -0.112157 0.0114398 0.329472 -0.897307 -0.605502 -0.719765 -0.233664 -0.997431 -0.467901 0.460691 -0.437824 -0.282164 0.405207 0.370538 -0.993093 0.977694 -0.911849 0.553281 -0.541792 0.558016 -0.951606 -0.311198 0.429033 -0.2269 -0.643749 -0.775962 0.545406 -0.567731 -0.120545 -0.191229 0.541488 0.764849 0.817774 -0.128435 0.866306 -0.79226 0.147278 -0.369976 -0.79343 0.675629 -0.913626 -0.230122 -0.605377 0.493322 -0.857837 -0.596727 0.472759 -0.764627 -1.03836 0.936045 0.805408 -0.973219 -0.361465 0.248099 -0.185779 0.0121974 0.489823 -0.620499 0.466997 -0.611512 0.207477 0.0307318 -0.817127 0.0587348 0.935811 -0.913008 0.306711 0.138723 -0.262907 0.534715 -0.17962 -0.103389 -0.622253 0.292644 -0.565814 -0.435865 0.737961 0.94953 -0.157039 0.740721 0.926172 -0.311539 0.813513 -0.386137 0.983471 -0.329099 0.671344 0.52081 0.0979161 0.188056 0.973867 -0.629859 -0.720827 -0.78912 0.478913 -0.735034 -0.661848 -0.177277 0.431461 0.142069 -0.575628 -0.687249 -0.933916 -0.170763 0.628044 -0.477003 0.416399 0.386702 -0.50726 -0.720888 0.143293 -0.565004 -0.0124538 -0.0252604 0.0667343 -0.012792 0.661837 -0.248152 -0.478212 -0.226475 0.9493 -0.502533 0.145312 -0.769896 -0.291371 -0.375492 -0.504648 0.0529696 0.453539 0.927151 -0.80476 0.878124 -0.759889 -0.738288 -0.291986 0.868808 -0.214539 -0.875088 0.254926 0.277842 -0.596115 -0.596962 0.717168 0.391829 0.374494 -0.219625 -0.624489 0.0298783 0.521021 -0.113892 0.798826 0.46737 0.380598 -0.0591201 0.697368 -0.91353 0.558944 -0.835243 0.111058 -0.011953 -0.910938 0.326301 -0.113838 -0.654134 0.585132 0.591313 -0.789344 -0.633427 0.711879 0.466718 0.645311 -0.882751 0.871236 0.363953 0.510558 0.250523 -0.850855 0.890878 -0.707834 0.686664 -0.209605 -0.895606 0.168372 -0.811568 0.0629532 -0.114401 -0.702583 -0.358902 0.0911172 0.452301 0.680263 0.201816 -0.219413 -0.429163 0.587921 -0.578365 -0.784359 0.853416 -0.172636 -0.999335 0.393283 -0.449684 -0.837845 0.308746 0.956318 0.715292 -0.397272 -0.853404 0.646767 -0.0650186 0.87927 -0.513677 0.0862791 0.0908075 -0.279984 -0.803239 -0.976749 0.0664541 -0.0982438 0.179131 -0.420172 -0.363214 -0.534974 0.443783 0.281237 -0.876594 0.926236 0.563726 -0.95628 -0.185532 0.591936 0.4643 0.38761 0.776839 -0.203917 0.364656 0.512323 0.418497 0.527059 0.17513 -0.626281 0.424524 0.679343 0.475928 -0.468718 -0.586869 0.686473 -0.431008 0.489671 -0.409282 0.750446 -0.928883 0.227837 -0.784203 0.515203 -0.484604 -0.654402 0.441879 -0.920574 -0.610344 -0.743295 0.671774 0.854554 0.643875 0.448162 -0.349736 0.00916672 -0.0388815 -0.930604 -0.459219 -0.8594 -0.556995 0.961514 0.816141 0.915407 -0.510185 -0.778448 0.594161 0.0507229 0.705023 -0.821333 -0.201834 0.776018 0.403726 0.00748603 0.263237 0.893799 0.331702 -0.294706 -1.00986 0.738277 -0.0213411 0.661991 0.592995 -0.380431 0.107176 -0.763294 0.626583 -0.93383 -0.692448 -0.831145 -0.79175 -0.247693 -0.864554 -0.97052 -0.327208 -0.366208 -0.735706 -0.71978 0.701257 -1.01326 -0.523686 -0.482891 0.779546 0.899491 0.540739 0.0835347 0.834052 -0.0795154 0.807437 0.826182 -0.334866 -0.174759 0.541043 -0.693358 0.494686 -0.315646 -0.379053 0.198919 -0.171825 -0.0317391 0.409778 0.078484 0.763162 0.586428 0.149099 -0.523444 -0.739684 0.459406 -0.197142 -0.994593 0.486228 0.321366 -0.433726 0.3126 0.269879 -0.828403 -0.5391 0.164996 0.146862 -0.647577 0.0745374 0.883691 0.246158 -0.323623 -0.742839 -0.192257 0.421606 -0.0988614 -0.97059 -0.727392 0.892165 0.460057 0.371838 0.675533 0.0661712 -0.459374 -0.828003 0.346448 -0.985911 -0.0113829 0.368075 0.516526 -0.675983 0.948808 -0.156415 0.603981 -0.877108 0.306808 -0.229405 0.270015 0.659483 0.845436 0.160078 -0.0878825 -0.477726 0.41768 0.720356 0.944385 -0.680859 0.702194 -0.831788 -0.789155 0.209993 0.588655 0.886764 -0.72345 -0.870057 -0.940769 0.623415 -0.859236 0.0445671 -0.0120553 0.654309 0.360866 -0.0709673 -0.510185 -0.0413584 0.0437975 0.791714 0.70755 -0.713586 0.420072 0.546504 0.447741 -0.662596 -0.911339 -0.125577 -0.933223 -0.970047 0.201426 0.825029 -0.754424 0.411486 0.0289851 0.830687 0.294723 0.306713 -1.03814 0.35516 -0.0681379 -0.892311 -0.595175 0.924914 0.770533 0.778955 -0.132797 -0.725967 -0.248039 0.930355 -0.911614 -0.499069 -0.737168 0.460936 -1.00199 0.655186 0.840494 -0.827983 -0.364405 -0.982408 -0.755018 0.88991 0.891136 -0.461752 0.33535 -0.0028012 -0.553945 -0.292804 -0.656308 -0.550096 -0.895577 0.318163 -0.401205 -0.449619 0.283675 -0.591269 -0.625341 -0.803716 -0.270354 0.169765 -0.831167 -0.137526 0.718218 -0.518625 -0.521735 0.872598 -0.705518 -0.530912 -0.869418 0.0121538 -0.440954 -0.555143 -0.0364506 -0.482991 0.0498999 -0.640294 0.537133 0.517956 0.0896622 0.903583 0.989349 0.214827 0.241953 -0.392101 0.785212 -0.454132 0.0375574 -0.825371 -0.243399 0.783834 0.361031 -0.0601077 -0.339231 0.0937078 0.431353 0.141448 -0.0327984 0.726712 0.611422 0.09868 -0.260205 -0.823203 0.549855 0.703815 -0.305725 -0.399731 -0.93597 -0.816269 -0.928677 0.104963 -0.865086 -0.891501 -0.631245 0.37741 -0.2832 -0.845895 0.92347 0.754482 -0.674797 -0.323471 0.534776 0.683253 0.608702 -0.812176 -0.231121 0.0338478 0.321223 0.731409 -0.241251 -0.0750539 -0.181479 0.491974 0.103069 -0.626333 0.196021 0.789773 -0.0336579 0.256963 -0.973624 0.0884431 -0.590642 -0.839426 0.196234 -0.222661 0.537498 0.911139 -0.0703982 0.459114 0.667364 0.259891 -0.859261 0.207218 -0.0483331 0.762703 0.40831 0.73425 -0.189085 -0.251132 0.488132 0.591287 0.70025 -0.760505 0.0141687 -0.271717 -0.364339 -0.704434 -0.382894 0.705413 0.591667 -0.295285 -0.147016 -0.942912 -0.100749 -0.881234 -0.0959972 -0.493673 -0.930328 0.873377 -0.993181 0.778942 0.176034 -0.811309 0.0267631 -0.832187 -1.00259 -0.518833 0.948945 -0.148533 0.272236 0.481525 -0.509729 0.0221934 0.875872 0.660826 0.90841 -0.338134 -0.957637 -0.388527 -0.556365 0.707312 0.37331 0.358854 0.826591 -0.671228 0.500549 -0.247137 -0.141869 0.593242 -0.350035 -0.113643 0.393135 0.846445 0.0955057 -0.584445 -0.990037 0.0826816 -0.0638717 -0.999489 0.975757 -0.777177 0.496495 -0.519586 0.255034 0.374784 -0.857846 0.164332 -0.962466 -0.814539 0.776795 -0.512612 0.898994 0.150401 0.846733 0.726117 0.479763 0.298531 -0.569117 -0.710902 -0.0596219 0.129266 0.223873 -0.666258 -0.0237851 -0.680409 -0.22576 0.0109946 0.425823 0.708952 0.00796301 0.396476 0.921931 -0.503316 0.868812 0.167713 0.860371 -0.993635 -0.666641 0.899021 -0.813961 -0.898237 -0.6199 -0.925104 0.244616 -0.784057 0.799838 -0.269009 0.573643 -0.714296 0.0672851 -0.486902 0.414327 -0.709466 -0.153857 -0.611635 -0.391785 0.618545 0.401099 -0.96302 0.330457 -0.58584 0.442003 0.265651 -0.0758491 0.324572 -0.549141 -0.193034 0.353473 -0.191947 -0.271113 0.447607 -0.178599 0.0146579 0.554728 -1.30982 
0.458675 0.580629 0.04972 0.0736936 0.913772 -0.840947 0.618266 0.357972 -0.51521 -0.49729 0.788387 0.133496 -0.838362 0.234355 0.208049 0.531333 0.682108 -0.311 -0.171682 -0.361413 -0.949315 0.311185 0.479519 0.438121 -0.832105 -0.747954 0.0456593 0.156932 0.440286 -0.223134 0.429944 -0.105926 -0.667762 -0.550197 0.923721 -0.775541 -0.415348 0.520448 0.554556 0.0415681 0.993906 0.313519 -0.843709 -0.856285 -0.472702 0.34964 0.647893 -0.812672 1.00975 -0.537994 -0.19851 -0.955943 0.772359 -0.727321 0.451428 0.914741 -0.485364 -0.498815 0.0599756 0.940645 0.264408 -0.531809 -0.19409 0.592825 -0.0847276 -0.273444 0.802751 0.47931 -0.77367 0.336642 -0.489004 -0.788133 -0.358207 -0.361996 -0.688848 0.12875 0.940679 0.92722 0.284206 0.921642 -0.641625 1.05967 0.930632 -0.915073 -0.695301 0.357655 0.968188 -0.208319 0.841574 0.00927258 -0.293198 0.0707564 0.45531 0.491541 -0.362717 -0.679786 -0.758314 -0.536374 0.813405 -0.598552 0.672439 -0.8051 -0.510611 -0.748441 -0.228411 -0.264665 0.315529 -0.356827 -0.387359 -0.502147 -0.546815 -0.152746 -0.509222 -0.698269 -0.139968 -0.286224 0.583413 -0.246675 0.434055 0.343486 0.677638 -0.941412 -0.667186 0.0335083 0.445637 -0.134382 0.249818 0.50844 0.24721 0.00183823 0.857183 -0.170725 0.102592 -0.752063 -0.0187495 0.770793 -0.102121 -0.882867 -0.765892 0.32354 -0.423714 -0.345407 -0.864161 0.0338623 -0.0766133 -0.0320782 0.721613 -0.51787 0.696785 0.123478 0.799257 0.348072 0.166435 -0.888585 -0.65022 -0.421641 -0.046158 0.589492 -0.916138 -0.899729 -0.529765 0.813784 -0.204758 0.45534 0.944689 0.662119 0.101415 -0.282125 0.750033 0.306528 1.023 -0.685097 0.940598 -0.855735 0.321731 -0.158041 0.0833047 0.0291454 0.309378 -0.236292 -0.848209 0.090623 -0.918958 0.287593 0.186875 -0.560447 0.879476 -0.858782 1.03018 0.953785 -0.777616 -0.5034 0.768874 0.0185781 0.937403 0.692945 -0.339971 0.0278581 -0.599542 -0.598323 -0.683704 -0.60528 -0.327766 -0.783431 -0.50918 0.960928 0.0254984 0.546549 -0.0395626 -0.699687 -0.724811 0.076125 0.372984 -0.668175 -0.672399 -0.472429 -0.250425 -0.821432 -0.36635 -0.255468 -0.880185 -0.155519 0.224495 0.838374 0.882084 0.180889 0.540595 -0.524457 1.07121 0.829266 -0.229448 -0.668369 -0.864559 0.360336 -0.523818 -0.431705 0.272105 0.400973 1.00742 -0.886656 0.63277 -0.799481 0.109544 -0.0774594 -0.5417 0.360777 0.377302 0.134459 0.463955 0.935155 0.804088 0.484386 -0.321712 -0.0727923 0.218105 -0.608539 1.03602 -0.291311 -0.180425 1.02212 -0.568864 0.473253 -0.753672 -0.523257 -0.242695 -0.447497 -0.130158 0.846911 0.919304 -0.160562 0.920764 0.519412 -0.00701988 -0.0136992 -0.60248 0.421536 -0.680936 0.755992 -0.471723 0.753882 0.666571 -0.677509 0.227697 -0.676406 0.223558 -0.568325 -0.293068 0.164416 0.0137568 0.39352 0.0456638 0.31729 -0.247952 0.180438 0.671132 0.375372 0.694435 -0.497407 0.19933 0.596243 0.325175 0.118788 0.105885 -0.677864 -0.919313 0.494658 0.734856 -0.598844 0.256157 -0.730094 -0.849267 -0.0922706 -0.416364 0.3866 0.255213 0.828448 0.824334 0.957302 -0.0219368 -0.161397 0.356457 1.02944 -0.850302 -0.910641 0.200651 0.811562 0.460054 -0.117569 -0.698434 -0.363674 -0.558516 0.58924 0.700063 0.50614 0.869893 0.756603 -0.0240919 0.574432 -0.882549 -0.805957 0.820238 -0.747764 0.0764519 -0.617624 0.617028 -0.698802 -0.826271 0.404182 -0.754038 0.140238 -0.773856 0.552101 0.189454 -0.604442 0.651464 -0.68643 1.07093 0.00132833 0.0804652 -0.683374 0.548642 0.449955 0.833597 0.190572 -0.0936633 0.60216 -0.16683 0.762771 0.107833 -0.115914 0.882245 -0.149788 0.062277 -0.117669 0.159778 -0.39411 0.110094 0.259616 0.937067 0.257704 -0.700409 -0.937074 -0.292894 0.322271 -0.611435 -0.690001 0.589632 -0.625105 0.201932 -0.435823 -0.416209 -0.335275 0.936604 -0.657076 0.775949 -0.24272 0.910914 -0.422375 -0.617916 -0.124065 0.308178 -0.791428 0.685317 -0.661374 0.0644426 -0.17725 -0.074918 -0.84486 -0.93158 -0.14619 0.403257 -0.651768 -0.108527 -0.913795 0.651939 0.182363 -0.720638 0.117189 0.416177 0.365788 0.570319 0.888248 0.902173 0.377375 -0.892046 0.551119 1.02093 0.905249 1.01361 -0.609891 -0.227039 0.31558 -0.412318 -0.540768 0.65881 0.656767 0.292104 -0.397272 0.818223 0.357365 0.453761 0.235654 0.73491 -0.6316 0.342171 0.3946 0.55341 0.637393 -0.467453 -0.0222283 -0.023738 -0.920368 -0.153214 -0.130805 0.43757 -0.0664131 -0.610548 0.415087 -0.208541 -0.632845 0.761445 0.525245 0.653528 -0.683181 0.951425 0.292665 0.95414 0.216691 0.863673 0.758521 -0.440095 0.303761 -0.0295088 -0.737528 0.633344 -0.727678 0.642517 0.169191 0.88707 -0.879763 1.16225 -0.107395 -0.791144 -0.0674639 0.623493 0.51896 0.732807 0.951116 -0.145739 -0.547731 -0.753998 -0.442433 0.927755 0.798199 -0.229398 0.763607 0.0221045 -0.331344 -0.0677879 -0.171929 -0.646932 0.41575 -0.940983 0.250203 0.594333 0.613256 0.444312 0.140597 -0.329599 0.21716 0.24425 -0.256615 1.02261 0.295128 0.519524 0.550401 -0.298334 0.133934 0.391788 0.355654 0.404462 0.44847 0.834104 0.246753 0.212739 -0.436474 -0.0254368 -0.810605 0.184972 0.853465 -0.0220886 0.506308 0.24121 0.0088376 -0.277043 -0.187588 -0.403518 -0.852813 0.934853 0.245063 0.339168 0.0539783 0.869479 0.265028 -0.766436 0.26755 -0.316307 -0.176353 -0.696422 0.958949 -0.832658 0.693186 0.387205 0.990339 -0.0589066 -0.385778 -0.434063 0.926513 -0.188721 0.7431 0.761376 0.783534 0.244759 0.00227464 -0.195583 0.988447 0.820203 0.401155 -0.867156 0.777558 -0.315465 0.507546 -0.13862 -0.429588 -0.221356 0.103413 0.848827 0.451723 0.914699 -0.868197 0.384034 1.05179 0.796741 -0.246234 1.00206 -0.307781 0.317529 -0.473393 -0.438531 -0.926209 -0.769044 -0.711616 0.822078 0.45384 0.269064 -0.405574 0.405259 0.0672123 0.972448 0.518781 -0.184618 -0.382499 -0.014086 0.63626 0.172075 0.750534 -0.268019 -0.0192224 0.211907 -0.344963 0.0984402 -0.489535 -0.42707 -0.21454 0.149166 -0.481917 0.397837 -0.609008 -0.0307643 0.901116 -0.585039 0.0987923 -0.903835 -0.868064 -0.505672 0.298714 -0.334501 0.829088 -0.704943 -0.432026 0.281456 0.0435403 0.130489 -0.793657 -0.380388 -0.806277 0.827778 0.217215 0.145064 -0.0593697 0.779002 1.09276 0.30813 -0.743783 -0.223749 -0.653817 -0.338958 0.973243 -0.458163 0.434856 0.775791 -0.131985 -0.500326 0.829996 -0.0393984 -0.053761 0.080012 0.580137 -0.257348 0.344025 -0.885758 -1.00091 -0.636927 0.209469 -0.830203 -0.0584079 0.371361 0.959492 -0.872671 -0.610339 -0.222311 0.803918 -0.641961 0.973485 0.932953 0.00914271 -0.80264 -0.522146 -0.0375391 -0.0701008 1.11444 -0.25675 0.606435 -0.572227 -0.417987 -0.420698 0.379125 0.661133 -0.848383 -0.874753 0.00554817 -0.725339 -0.868708 0.3909 0.490498 -0.709578 -0.67617 -0.115687 -0.712153 -0.495023 0.378133 0.161357 -0.641069 0.676066 0.0565611 -0.785245 -0.271024 0.291985 -0.312072 0.612522 0.952004 -0.433575 -0.685587 0.522936 -0.0442882 -0.153196 1.04705 -0.723323 -0.533058 -0.836382 -0.638516 0.446041 -0.588441 -0.538243 -0.204989 0.876072 -0.274988 0.0955223 -0.279052 -0.0361343 0.530272 0.963827 1.03147 0.830595 0.642414 0.0485488 1.04688 -0.710405 -0.759377 -0.362943 0.75754 1.07221 0.0883408 1.00527 0.50561 0.958827 -0.222431 0.494738 -0.814064 0.143363 0.564946 -0.557684 -0.468896 0.91024 -0.157465 0.254938 0.714771 0.490744 -0.722789 -0.637148 -0.611573 0.741177 -0.738737 -0.700517 0.432388 0.744948 0.190796 0.27848 0.842304 0.274956 0.748983 0.499604 0.224573 -0.267026 0.387574 -0.357885 -0.379664 -0.924093 -0.951971 -0.295173 0.185024 0.571741 0.106056 0.664909 0.430993 0.891659 -0.120402 0.109891 0.352696 0.13295 0.446019 0.706201 -0.168537 0.662993 0.964974 -0.778222 0.387356 0.148497 0.502019 0.226014 -0.609756 0.230517 -0.311345 0.603661 0.952843 -0.934155 -0.568842 -0.241153 -0.655048 -0.705589 0.268817 0.336966 0.862774 -0.627626 0.00718075 0.29998 -0.727222 0.900144 -0.589075 0.631943 0.0389071 0.87763 0.342017 0.87005 0.541366 0.335249 -0.874426 -0.0522986 -0.44911 0.688312 -0.785435 -0.130689 -0.15025 -0.143099 -0.477402 -0.163637 -0.103911 -0.316943 0.311231 0.000743964 -0.0708942 -0.457553 -0.70412 -0.258243 -0.125759 0.254572 1.00517 0.111938 0.114187 -0.610592 -0.27696 -0.877999 -0.774616 1.03301 0.960432 0.735731 0.324268 1.04035 -0.364798 0.756874 0.653071 -0.2022 -0.364659 -0.540194 0.636514 0.0830774 0.203189 -0.563598 0.619912 -0.608397 0.320382 -0.517704 -0.139909 0.5362 0.154702 0.676395 -0.258777 0.0639664 -0.299834 0.755506 0.39531 0.35101 0.810721 0.544288 0.307251 0.694354 0.206788 -0.44134 0.668739 0.769931 -0.755632 0.195707 -0.570896 -0.271418 0.509033 0.871973 0.620964 -0.450483 -0.861684 0.112141 -0.176826 0.348603 0.496743 0.595102 -0.188755 -0.432054 0.191053 0.450362 0.582353 0.829871 0.160332 -0.0801209 0.199242 -0.000274673 -0.49156 -0.587473 -0.41508 0.612801 -0.0648405 -0.784617 0.343907 0.134307 0.364769 0.725343 0.83565 -0.134698 0.591239 0.446941 0.375992 0.702881 -0.463681 -0.813716 0.0406726 -0.983334 0.962158 1.03868 -0.213823 -0.045536 0.304229 -0.818017 -0.205228 -0.538192 0.100063 0.932246 0.382924 0.54672 -0.664148 0.969801 0.167592 0.29144 -0.760054 -0.446933 -0.515334 0.640188 -0.688167 -0.667887 -0.486725 0.911578 0.724932 0.835645 0.616617 -0.687561 1.06014 -0.380212 -0.764444 0.732679 -0.621836 -0.208234 -0.344409 0.638623 -0.077188 0.396952 1.05272 0.979164 0.292358 0.400244 0.485333 0.60739 0.349231 -0.382878 -0.150004 0.505477 0.0861752 0.24515 0.0472246 0.300087 0.480488 0.447258 0.151071 0.199307 0.270591 -0.357859 0.424996 0.239771 0.164314 0.57223 -0.169252 0.416418 -0.756052 0.416535 -0.0220351 0.0865095 -0.255871 -0.0272422 0.021358 0.940565 -0.719751 -0.598741 0.483762 0.552241 -0.0737744 -0.744679 -0.0251857 0.941921 0.410634 0.94588 0.177302 -0.182883 0.319048 -0.810407 0.869958 -0.560992 -0.316321 0.102013 1.58601 
0.718807 -0.449209 -0.736338 0.0541387 -0.307907 0.548971 0.918123 0.687149 -0.788192 -0.190406 -0.404441 -0.922315 0.0406075 -0.0321039 0.546215 -0.441643 0.874329 0.766537 0.515382 0.787862 0.148691 0.429537 -0.0454306 0.955239 -0.261376 0.125422 0.801449 0.152596 0.783162 -0.123859 -0.386677 0.454351 0.383378 -0.186403 -0.571935 1.0197 -0.674527 -0.689952 0.662603 -0.514602 0.067775 -0.757014 -0.435877 -0.919501 0.177932 -0.932412 -0.403738 0.0180699 0.79974 -0.924639 -0.217126 -0.0690271 0.486273 0.713284 -0.143672 -0.805996 -0.190725 -0.355995 0.335624 -0.417485 0.50315 0.931774 1.00362 -0.144878 -0.321204 -0.633961 -0.189662 -0.032298 -0.371665 -0.568019 0.405927 0.660102 -0.364698 0.933875 0.704189 0.782416 0.952939 -0.741875 -0.240939 0.717364 -0.709664 0.508371 -0.390204 0.737454 0.191804 0.435281 0.902029 0.964077 -0.968675 0.18439 -0.503359 0.456562 0.0389375 -0.57784 -0.720528 0.742382 -0.161094 0.120372 -0.270025 0.463064 0.548232 -0.865436 0.130859 -0.819504 -0.956421 -0.215981 0.925032 0.962381 0.0385085 -0.320836 0.69266 0.332553 -0.786857 -0.698065 0.069468 0.37629 0.71603 -0.0496438 0.331254 0.741997 -0.865494 0.820052 0.227136 0.207493 -0.755022 0.483531 -0.079626 0.0546804 -0.42145 0.606414 -0.497584 -0.892531 0.687962 0.551389 -0.782718 0.679951 -0.679845 -0.875352 0.62564 0.318266 -0.227762 0.270615 -0.389376 -0.0847671 0.516013 0.625623 -0.767226 0.166599 -0.48889 0.492885 -0.140971 -0.403834 0.260193 1.01467 0.727796 0.454425 0.447477 -0.414355 -0.551639 0.977843 -0.852492 -0.113611 1.00435 0.779726 -0.59932 -0.822489 0.41673 -0.334759 -0.74545 0.00539378 0.967709 0.00268246 -0.757487 -0.459849 0.879849 0.723589 -0.868833 -0.915735 -0.132836 -0.383184 0.550521 0.702032 0.191102 -0.212156 0.687357 -0.094775 -0.768641 0.124939 0.473787 -0.337513 0.0693435 0.589748 0.484235 0.0101652 0.307055 0.84829 0.147865 -0.319661 -0.531106 0.374925 0.65293 -0.598331 -0.663406 0.852307 -0.106656 -0.825951 0.539188 -0.0127587 -0.786778 -0.627209 0.573228 0.733034 -0.955285 -0.266482 -0.509246 0.697077 0.592719 -0.325666 -0.224484 -0.0134316 0.254014 0.761275 -0.473231 -0.256345 -0.197508 0.879864 -0.372777 0.961825 -0.444647 0.0934161 0.341338 -0.789833 0.480606 0.632747 1.0281 -0.660783 0.800578 0.551507 0.322325 1.00268 0.949604 -0.098475 0.736445 0.961349 0.610662 -0.793081 0.658584 0.20425 -0.115966 -0.582607 -0.79212 -0.835963 -0.819248 -0.267536 -0.104478 -0.0110076 -0.391116 0.500544 -0.0808633 0.128168 -0.479182 -0.828932 0.250832 0.938554 0.777321 0.270629 -0.752203 0.531916 -0.231637 0.517257 0.483437 -0.361414 -0.637257 0.170338 -0.457796 0.912684 0.320053 -0.865303 0.058894 -0.854693 -0.506086 0.198777 -0.768233 -0.381745 0.880558 0.0648125 0.525311 -0.580539 -0.500871 -0.62475 0.461654 -0.0366443 -0.502136 -0.334945 -0.142284 -0.771148 0.868825 0.0672931 0.738114 -0.389987 -0.443976 0.188352 0.218392 -0.112135 -0.671936 0.742465 -0.217615 0.621928 0.85027 0.814287 0.743706 -0.680346 -0.0162702 0.949913 -0.0848455 -0.157515 -0.00232982 -0.576795 0.228507 0.465246 -0.262373 -0.369625 -0.630088 0.209418 0.259603 0.185662 0.401043 0.100969 -0.77962 0.0982632 0.672479 -0.2578 -0.754207 -0.142356 0.595821 -0.459458 -0.442486 -0.658188 -0.868198 -0.622802 -0.874009 0.844174 -0.333768 0.0742001 0.759982 0.54748 0.88459 -0.293427 0.914571 0.0557235 -0.865527 -0.350462 0.709057 -0.475852 0.902129 -0.0134465 0.729068 0.300994 -0.905611 0.95501 -0.608491 0.758982 -0.308081 -0.369789 -0.400368 -0.727987 0.130495 0.13122 -0.379149 0.285789 0.516483 -0.286579 0.104624 -0.826579 0.780983 -0.139937 0.703922 0.645997 0.566536 0.624876 -0.315069 0.685699 -0.731948 -0.596546 -0.780107 -0.855886 0.356674 0.901549 0.361118 0.355341 0.773375 0.692182 0.0765144 -0.575636 -0.74169 0.603606 -0.379188 0.35852 -0.310494 0.1694 -0.415689 -0.851561 0.814117 0.622304 -0.751925 0.53507 -0.569467 0.897711 0.114414 0.920591 0.439077 0.749797 0.546736 0.636772 -0.945522 0.691106 0.710885 0.353648 0.536784 0.0331706 -0.322061 0.272446 -0.30126 0.703788 0.654148 -0.0568565 0.293975 -0.746068 -0.728719 0.951728 0.390914 -0.170428 -0.925403 0.188127 -0.568651 -0.699465 -0.300851 -0.170211 -0.838387 0.784951 -0.275062 0.579042 0.512137 -0.740426 0.207949 0.565352 0.933217 -0.0995189 -0.137191 0.407917 0.881948 0.514637 -0.355373 -0.459996 0.183737 -0.734306 0.443846 -0.56325 -0.518817 0.680894 -0.652275 0.838853 -0.52729 -0.61454 -0.0155866 -0.138272 -0.358616 0.638987 0.662067 -0.228332 0.393318 -0.649223 -0.677732 -0.122516 -0.415791 0.486752 -0.605105 -0.536909 -0.628516 0.275351 0.893238 -0.753754 -0.220042 -0.463397 -0.214764 0.987078 -0.170724 -0.769382 -0.605528 0.278525 0.903745 -0.267303 0.0979332 -0.631314 0.110926 -0.910982 0.260042 0.77319 0.73378 -0.10422 -0.460766 0.126232 0.245737 -0.157457 0.985009 0.808712 -0.676955 -0.618842 -0.744487 -0.346464 0.623771 -0.843699 -0.100942 -0.605603 -0.340027 0.653713 -0.702399 0.40943 0.831868 -0.339493 -0.320023 0.730715 0.367109 0.718339 -0.959429 -0.560692 0.770029 0.225047 -0.850366 0.433668 -0.946057 -0.386351 -0.501174 0.233322 0.401547 -0.574777 -0.0126464 0.656123 -0.286438 0.174123 -0.758901 -0.72628 0.244661 0.0606199 -0.42975 0.818424 -0.354374 -0.142937 0.208837 -0.556446 0.479071 0.834761 -0.873075 -0.159877 0.559191 -0.847326 0.248083 0.299548 0.350981 0.392147 -0.262029 0.406674 0.981761 0.211112 -0.37968 0.355639 0.604117 0.57558 -0.0185259 -0.694265 -0.263726 0.210114 -0.430105 0.96995 -0.740455 0.151647 0.786173 -0.11085 0.955085 -0.0243621 0.335083 0.462046 -0.156968 0.465725 -0.712997 -0.611495 0.605984 0.521427 0.669283 -0.0557137 -0.130116 -0.637015 -0.697724 -0.184823 0.535536 -0.115763 -0.860941 0.106359 -0.573115 0.0812949 0.37465 0.12877 -0.74047 0.901331 0.059038 -0.521571 0.0505884 -0.129257 0.389835 0.0292095 0.875674 -0.276114 -0.51578 -0.292152 -0.806929 -0.246905 0.078485 0.796521 -0.701684 -0.243171 -0.276725 0.160214 0.119058 0.0287532 0.997904 -0.339172 0.915592 -0.890897 0.763433 -0.658926 0.191602 0.119219 0.454964 0.439554 0.0252922 -0.477612 0.902113 1.05323 0.385572 0.301665 0.064527 0.209605 0.990923 0.527762 0.870755 -0.866092 -0.720441 0.029594 0.994806 -0.462138 0.657104 -0.427475 0.641856 -0.276238 0.564621 0.570958 0.308282 0.406399 0.616912 0.00619439 0.685391 -0.257833 -0.922565 0.08974 -0.860812 0.0377046 0.531428 0.975558 0.0246584 -0.160778 0.192271 -1.01061 0.956805 0.109711 0.442738 0.780193 0.21108 0.682487 -0.302033 0.0794381 -0.824167 -0.660912 0.645016 0.807873 0.036606 0.184944 0.354632 -0.66731 -0.401015 -0.0234331 0.34795 -0.725855 0.716119 0.412006 0.324976 0.810428 -0.568054 -0.135924 0.788365 0.435607 0.715803 0.00467046 0.463383 0.684286 -0.923277 -0.117498 0.412857 0.271736 -0.42886 -0.857002 -0.620006 -0.245085 -0.527576 -0.983558 -0.450514 0.492872 0.180162 0.888866 0.802364 0.734844 -0.183207 0.111352 0.966239 -0.509688 -0.512608 0.269918 -0.719864 -0.124921 -0.909066 -0.967318 -0.72178 0.73177 -0.0341191 0.669254 0.356332 0.0409956 -0.451613 -0.205181 -0.668054 0.122121 -0.0604887 -0.2786 0.886613 0.419616 -0.270594 -0.570029 -0.0933627 0.913431 -0.683149 -0.283752 0.655535 0.157278 0.852367 0.630794 0.632135 -0.68449 -0.103324 0.910821 0.188423 -0.0271513 0.932801 0.459632 -0.296576 -0.0999516 0.0970752 -0.947861 0.935699 0.673176 -0.141977 -0.723183 -0.192743 0.814572 -0.0181913 -0.329101 0.307272 0.808001 0.187013 -0.889259 0.603359 0.364101 -0.219461 0.208811 -0.527771 -0.444965 -0.23179 -0.963259 -0.178253 0.599186 0.886409 0.951048 -0.472607 0.772028 0.363988 0.17382 -0.394694 -0.573654 0.186765 -0.499776 -0.957782 0.964872 -0.304877 -0.233243 0.683753 0.613355 0.414872 -0.115517 0.325176 -0.522228 -0.0433781 -0.1108 0.821036 0.712992 -0.910572 -0.714007 -0.724377 -0.154496 -0.669869 0.10736 -0.53835 -0.790771 0.0533152 -0.02853 0.942512 -0.622438 -0.872399 -0.449128 -0.196904 0.291645 0.0625985 -0.140585 0.285002 0.762859 0.600588 -0.0367995 0.342636 0.00246821 0.853887 -0.300476 0.507585 -0.181536 0.589153 0.336218 -0.465731 0.662439 0.599499 -0.205055 -0.514997 0.887054 0.851187 -0.0966819 -0.946696 -0.138392 0.838483 0.974461 0.216896 0.921745 -0.517237 0.99258 0.187853 0.477096 -0.219075 -0.610008 0.164001 -0.637174 0.342632 -0.47058 0.383669 0.20531 0.231229 -0.0937828 -0.967167 -0.171436 -0.765726 -0.44161 -0.520464 0.830203 0.334478 -0.0222812 0.739606 0.227126 0.880516 0.770113 -0.945459 0.718891 0.765008 0.287861 0.637895 -0.76738 0.251364 -0.199575 0.696093 1.0521 0.185592 -0.135203 -0.607403 -0.459742 0.403663 0.793531 0.750967 -0.352397 -0.282426 0.801267 0.569747 0.0163714 -0.574996 0.937726 -0.273999 0.619428 -0.138444 -0.588982 -0.199278 -0.299573 -0.854339 -0.181627 -0.631111 0.847347 -0.950631 0.950697 -0.971263 0.254731 -0.313712 0.651908 0.226341 0.837541 -0.482128 0.609155 -0.630353 0.855501 0.308827 -0.978804 -0.583741 0.924018 0.765773 0.845056 -0.156227 -0.954969 0.740575 0.54304 0.659757 -0.40498 0.961736 -0.531485 0.303049 -0.904717 0.271708 0.685798 0.957964 0.336876 0.629459 0.975021 -0.437251 -0.697383 0.633589 0.797942 -0.859766 -0.898128 0.399345 -0.493953 0.973171 -0.283069 -0.522889 -0.651646 -0.397673 -0.778253 -0.802817 0.482593 -0.699448 0.951162 0.0321731 0.972492 -0.450974 -0.0222372 -0.581425 0.83708 0.0520622 0.670602 0.470001 -0.0352019 -0.0353521 0.0567284 -0.096478 0.505779 0.336924 -0.507396 0.261131 0.45814 -0.423954 -0.408141 0.868008 -0.542143 0.224783 -0.662407 -0.201603 0.852403 -0.420403 -0.00773731 0.337215 -0.103728 -0.0378899 -0.626126 -0.143553 0.506045 0.345971 0.270031 0.353516 -0.593601 -0.0534793 -0.170437 0.366518 0.904801 0.863792 -0.717975 0.436278 0.204688 -0.243477 -0.32587 -0.363734 0.311467 0.2537 -0.47021 0.764606 -0.522653 -0.162136 -0.426615 -0.574348 
0.34112 0.479097 0.58498 -0.76981 -0.565389 -1.04635 0.0774496 0.924815 0.285718 -0.66528 0.236084 0.661402 0.257825 -0.983158 0.00125156 0.14239 0.842219 0.237288 -0.472804 0.000896435 0.939373 0.147062 0.589064 0.195557 -0.650574 -0.953547 -0.081643 -0.209444 -0.143719 0.449771 0.0943578 -0.742042 -0.000764788 -0.250296 -0.434684 0.506159 -0.216866 0.72059 0.503852 -0.865732 -0.87753 -0.192904 0.86287 0.447518 -0.10996 -0.0594266 -0.331067 -0.186698 -0.762895 0.252779 0.871027 -0.766689 -0.543316 0.516175 0.489096 -0.132935 0.624779 -0.530383 0.722213 -0.481646 0.957057 -0.148905 -0.161828 0.0357333 0.681068 0.477053 -0.417427 -0.503245 0.229372 -0.881697 -0.337261 0.383557 -0.0437167 -0.444378 -0.13891 0.873822 0.51413 0.545367 -0.295184 0.76889 -0.184181 -0.413358 -0.986983 0.2833 -0.885687 0.51361 -0.838864 0.749858 0.993994 0.890973 -0.696815 0.981367 -0.227618 0.171638 0.0238838 -0.541252 -0.345997 0.61192 -0.0386465 0.886173 0.733002 0.626986 0.275674 -0.303916 -0.809769 -0.855612 -0.422261 0.700774 0.686127 0.271998 0.481979 -0.485715 0.870914 0.490669 0.79326 0.980915 -0.00154569 0.941613 0.717991 -0.0250704 0.819069 -0.992358 -0.0416835 -0.403563 0.176786 -1.02017 0.0534754 0.825971 0.58696 -0.985572 0.725385 0.333077 0.650266 0.00990824 -0.961841 0.845618 0.159417 -0.381594 0.564195 -0.136612 0.910862 0.0552028 0.386706 0.790824 -0.440289 0.205224 0.796999 0.585555 0.169766 0.537919 -0.400205 0.0269548 0.583684 0.59595 0.665393 -0.190068 0.62567 -0.231244 -0.303607 0.273165 -0.150717 -0.51212 -0.320844 -0.432409 0.573308 -0.21578 -0.520964 -0.208927 0.468298 -0.891104 0.720177 0.442093 0.230179 0.183314 0.311936 0.87094 -0.552219 0.165578 0.513311 0.674387 -0.239669 -0.830805 -0.238429 -0.595041 0.827279 -0.510899 0.279461 0.490233 0.29553 -0.989624 -0.17473 -0.775739 -0.421476 0.577983 -0.167471 -0.81563 -0.603291 0.34601 0.00972688 0.896517 0.485785 -0.240083 0.368628 -0.256334 0.961371 -0.303886 -0.367704 -0.573191 0.87937 -0.84359 -0.887973 -0.349486 -0.662887 -0.114906 0.0662471 -0.824834 0.38497 -0.646672 0.700347 -0.289196 -0.605988 -0.444095 -0.0581681 -0.0223019 -0.860923 0.779712 0.168034 -0.45825 0.128818 -0.819139 -0.558632 -0.378391 -0.051394 0.81783 0.373108 -0.0936217 -0.489705 -1.00517 0.345495 -0.597998 -0.836474 0.453195 0.0481869 -0.503688 -0.667558 -0.898381 -0.341343 0.711298 -0.547154 -0.654515 -0.587307 -0.15959 -0.101115 0.352146 0.816517 0.0332489 0.127181 -0.0158581 0.585191 -0.730874 0.173854 -0.964589 -0.100275 -0.872411 0.858359 -0.72465 0.0517802 -0.613484 -0.70935 -0.59367 -0.202438 -0.536775 0.873367 0.871018 -0.0152116 -0.761844 -0.999465 0.6664 -1.0276 -0.524872 -0.949993 -0.57664 0.357967 -0.00120791 0.825402 0.224374 -0.907456 0.0131173 -0.725786 0.74342 0.354748 0.516115 0.854312 -0.678647 0.709491 0.771019 -0.337637 -0.173066 -0.77676 0.015944 0.2962 0.0972348 0.558196 0.253757 0.0274852 -0.400365 0.543776 0.0798979 -0.67713 0.569853 0.612852 -0.56858 -0.945095 0.032513 0.496741 0.947322 -0.675706 0.651131 0.0218739 -0.349857 0.447011 -0.577624 -0.793103 0.333865 -0.221773 0.950833 0.139162 0.472102 -0.191347 0.393242 -0.481108 -0.863471 -0.491384 -0.907368 0.40023 0.546011 -0.290881 -0.0382547 -0.356331 0.0436351 -0.453674 -0.72875 0.488227 -0.385596 0.316939 -0.00741339 -0.4311 0.643763 -0.353749 0.593288 -0.699326 -0.900905 -0.978484 -0.486411 0.438923 -0.194964 -0.530093 -0.416432 -0.719762 0.282511 0.980764 -0.193866 0.425214 -0.515885 -0.105701 -0.177371 -0.949801 0.615749 0.796641 -0.310463 -0.345778 -0.662188 -0.0458957 -0.866931 -0.0571706 -0.731633 0.121881 0.496539 0.901051 0.760861 0.0864887 -0.801485 0.847455 0.0923889 -0.303479 0.280199 0.911778 0.180793 0.878137 -0.799826 -0.528532 0.863187 0.0105922 0.899197 -0.634878 0.921921 -0.258545 -0.576463 0.545889 -0.453683 0.126079 -0.775457 -0.091449 -0.888293 -0.619591 0.869231 -0.602089 0.519776 0.399622 -0.667031 0.318794 -0.468245 -0.422897 0.221274 0.689774 0.339304 -0.426207 0.664603 -0.410174 -0.480028 0.941095 0.13094 -0.548273 0.0119698 0.0958017 -0.117493 -0.000403839 0.900202 0.36898 -0.37808 -0.474458 -0.420744 -0.0943061 0.490745 -0.257178 0.33798 0.416808 0.194416 -0.0844236 -0.125024 0.58908 -0.703946 0.473239 -0.766812 0.584731 0.224877 0.634762 -0.786221 -0.055286 -0.727708 -0.223649 -0.0797063 0.437758 0.262519 0.96656 -0.435758 -0.824897 -0.00382226 -0.504717 0.57576 0.636237 0.036373 -0.834219 -0.447337 -0.455207 -0.0728347 0.909223 0.973235 -0.864521 -0.161303 -0.138613 0.737732 0.147941 -0.657738 0.978111 -0.264782 0.569674 0.614562 -0.045059 -0.479778 0.892705 0.737305 0.446474 0.335736 0.00530565 0.418503 0.906939 0.185169 -0.58057 -0.593216 -0.231457 -0.948126 0.439508 -0.06932 -0.376242 -1.00319 0.868628 -0.472829 0.964047 -1.00105 0.359195 -0.183942 0.727311 -0.495553 0.155373 0.69105 0.229419 -0.282231 0.302269 -0.818845 0.225489 0.189954 0.913472 -0.32362 -0.470559 -0.0774504 -0.890747 -0.547915 -0.873524 -0.467019 -0.136647 -0.113678 -0.408567 -0.690513 0.836806 0.223597 -0.685487 0.71449 0.764622 -0.696174 0.738699 0.156152 0.143501 0.48962 0.684235 -0.678679 0.214521 -0.0523447 0.0722913 -0.442514 0.169481 -0.647177 0.802478 0.138038 0.0909263 -0.605022 -0.869614 0.257689 -0.0872148 -0.684142 0.848591 0.825844 0.267872 -0.494266 -0.798961 0.167572 0.795384 -0.408017 -0.038917 0.641047 -0.0449598 -0.243574 -0.150937 -0.849572 -0.702069 -0.417974 -0.475387 0.566047 0.586413 0.658591 -0.80996 -0.177084 -0.921192 -0.945619 -0.97677 0.224988 -0.495407 -0.798745 -0.474783 0.45187 -0.448366 -0.591733 0.312008 0.850149 -0.0590345 0.543056 0.0485597 -0.232077 -0.846823 -0.974806 -0.580266 0.118983 -0.200671 0.286523 0.28712 0.108023 0.883281 0.826464 -0.311922 0.482883 0.498244 -0.114247 -0.687006 0.579595 -0.0573396 -0.662206 -0.189582 0.453092 -0.454981 0.341758 -0.0890823 0.102592 0.756158 -0.770942 -0.0366998 -0.364774 0.703909 -0.98358 0.484069 0.94043 -0.951449 0.91074 0.0671777 -0.15107 0.198295 -0.64984 0.952629 0.076414 -0.830049 -0.372934 -0.454336 0.66124 0.509874 -0.155855 0.23045 -0.564325 0.131049 -1.0099 0.875277 0.71867 0.374495 -0.189742 -0.176389 0.133208 0.0439399 0.799265 0.856964 -0.174847 0.816627 0.330656 -0.240825 0.858813 0.243757 0.828743 -0.290064 -0.553155 -0.811517 -0.316434 0.544262 -0.613492 0.334254 -0.886456 -0.956401 -0.161215 -0.00832392 0.33597 0.345032 -0.788763 0.387655 0.259015 -1.04178 -0.182596 -0.851208 -0.127291 -0.95194 0.250277 -0.262296 0.964021 -0.867371 -0.396694 0.35778 -0.0450777 -0.474762 -0.335562 -0.150288 0.311615 0.190306 0.119237 -0.94558 -0.208788 0.557591 0.440535 -0.0433853 0.677693 -0.640028 -0.998107 0.0704001 0.766702 -0.720352 -0.448006 0.120034 -0.673344 0.457747 0.323266 0.253758 0.553466 -0.38375 -0.974029 0.551989 -0.216826 -0.339495 -0.0618156 0.765871 0.216585 0.633466 -0.355876 -0.453667 -0.160684 0.777182 -0.38458 0.652125 0.353348 -0.926334 -0.380476 0.0449524 -0.55245 -0.365393 -0.871453 -0.772557 -0.0781094 -0.312283 0.349996 0.251053 -0.852141 -0.320076 -0.488524 0.708102 0.302958 -0.455786 0.266858 -0.906911 0.214727 -0.857044 0.796889 -0.630792 0.859723 -0.474826 -0.000281435 -0.290972 -0.690709 0.621224 -0.638625 0.662841 0.689914 -0.0242636 -0.297368 -0.869207 0.596708 -0.182456 -0.648722 -0.484351 0.49075 0.690898 0.75911 0.596983 -0.670687 -0.742905 0.347683 0.674905 -0.183894 -0.381777 0.771884 -0.964538 -0.161368 0.643745 -0.52107 -0.300696 -0.827706 0.482 0.412565 -0.526644 0.0950131 0.765548 -0.859016 -0.205493 -0.237719 -0.135389 -0.0466316 -0.617384 0.70578 0.300503 -0.10708 0.230521 0.0533155 -0.28666 -0.0932587 0.434956 -0.000126293 -0.726518 0.155855 0.895511 -0.0280316 0.0145498 -1.01151 0.876412 -0.279478 -0.475319 -0.375306 -0.054716 -0.940826 -0.910248 0.481539 0.217081 0.931718 0.701533 -0.904229 -0.246766 -0.37721 0.101004 0.187727 -0.619549 -0.521981 -0.838699 0.664567 0.588081 -0.0636659 -0.362165 0.11697 -0.969462 0.000113776 -0.638824 0.980489 -0.973489 0.423426 -0.988285 0.937389 -0.821583 -0.429347 -0.40673 0.152118 -0.341571 -0.285305 -0.334666 0.907206 -0.335435 -0.614499 -0.983176 0.431648 -0.0569844 0.0525771 -0.445892 0.417226 0.627487 -0.187701 0.0949844 0.228759 0.761827 0.740462 -0.647087 0.799039 -0.252768 -0.279257 0.7863 -0.219482 -0.849054 0.804798 -0.275327 -0.663871 -0.617589 0.327956 0.421881 -0.0256741 -1.02388 -0.826582 -0.0358081 -0.276655 -0.43785 -0.012025 -0.838921 0.587493 -0.877139 -0.204413 0.00195556 0.745188 0.598818 -0.919096 -0.0500813 0.343297 0.780248 0.260539 0.127805 -0.456498 -0.991191 -0.0860175 0.326981 -0.837224 -0.278909 -0.948929 -0.501684 0.103918 0.380171 -1.00227 -0.847442 0.429868 -0.831626 0.120125 -0.843406 -0.266121 -0.901 -0.690556 -0.68702 -0.773353 0.112208 0.333534 -1.00716 -0.260899 0.438058 -0.0232469 -0.911352 0.251132 -0.690534 0.288761 0.870493 -0.633587 -0.793763 0.198854 -0.469447 -0.0258898 0.340913 0.119878 -0.828241 -0.225168 0.186308 -0.60679 -0.731349 0.40366 0.565808 -0.522288 -0.809968 0.727704 -0.14997 -0.420574 -0.966641 -0.953559 0.972199 -0.917147 -0.162564 0.462153 0.111489 0.00256891 -0.206069 0.474543 -0.651924 -0.274889 0.903323 -0.3382 -0.971951 -0.464428 0.73784 0.426958 0.713444 0.963962 -0.748795 -0.065778 -0.608363 -0.448737 -0.630722 0.986064 0.0604237 -0.409225 0.745234 0.942169 0.188374 0.797227 -1.01284 0.159098 0.799484 -0.240696 -0.444033 0.00471753 0.874056 0.462077 -0.492261 -0.764695 -0.802785 -0.581313 -0.0957116 -0.767411 -0.0384186 -0.351217 0.66632 -0.318198 -0.380479 0.924309 0.622795 -0.0584281 -0.590986 -1.07449 -0.0627655 0.479284 -0.473888 -0.231149 0.507168 0.797131 -0.43069 0.513533 -0.0215466 -0.532744 -0.629553 0.632072 0.483679 -0.760658 0.0822963 0.964993 -0.549376 0.262166 -0.647048 0.340391 0.480038 0.330556 -1.01107 0.156806 -0.984677 -0.388536 -0.596835 
1.23499 1.22627 1.15593 1.22206 0.223966 0.695775 -0.176392 0.993162 0.202206 -0.376992 -0.435233 -0.280185 0.605589 -0.131568 -0.162715 -0.126997 1.15771 -0.0252963 0.944952 1.1337 0.432542 0.288176 -0.405493 -0.257958 -0.311491 0.788047 -0.279517 0.824153 0.84266 0.371229 -0.0603022 0.526996 0.0371928 -0.464397 0.210235 0.881327 0.703114 0.489033 0.186254 -0.740417 0.574869 0.105845 -0.55825 -0.455608 0.609126 0.00416032 0.254934 0.48287 0.767911 -0.116813 0.226562 -0.327531 -1.25814 -1.16855 0.743216 -0.252348 0.743077 -0.524637 -0.433995 0.614491 -1.09654 0.641102 0.381594 0.188329 -0.974876 -0.706647 -0.264441 0.71004 -1.22636 -1.27656 -0.888317 0.387786 -0.112733 -0.424157 -0.800722 -0.147652 -1.26769 0.352928 -0.481666 -1.11182 -0.228577 -0.63404 0.0179454 -0.0694763 -0.620146 0.175048 -0.793854 -0.606934 0.48638 -0.383819 -0.95338 0.555833 -0.7486 0.154728 -0.427782 -0.633222 -1.19337 0.372626 -0.232794 -0.907185 0.583301 -0.0251829 0.676345 -0.109895 -1.11357 -0.947031 -1.00475 -1.02256 0.569321 -0.400614 -1.1125 -0.740461 0.083438 0.161715 -1.24261 0.713641 -0.616125 -1.09697 -0.798857 -0.733819 -0.079606 -0.336378 -0.702644 0.626785 -0.55719 0.425135 -0.371128 -0.282648 0.800225 1.06728 0.538403 0.631437 0.288683 0.4317 -0.246656 0.467489 0.672257 -0.107788 0.720973 0.633072 0.78533 0.832458 1.24893 -0.209749 0.176927 -0.777027 -0.241055 0.892582 -0.572235 0.353832 -0.469225 0.4883 -0.891584 -0.182476 0.189161 -0.412674 -0.745369 0.830007 0.308446 0.494011 0.33648 -0.70351 -0.403235 -0.827815 0.275041 -0.120543 0.0946313 -0.698895 0.13158 -0.824956 0.396591 -0.616247 0.642359 0.370626 0.0115389 -0.464675 0.30823 0.378869 -1.03309 0.516012 -0.365623 -0.407769 0.0995533 -0.196211 0.460361 -0.679598 0.330247 0.732308 -0.777222 -0.166331 0.525066 0.698833 -0.0912267 -1.07642 0.614155 -0.896331 -0.429984 -0.509214 -0.544046 -1.23077 -0.407854 -1.19676 -0.651895 -0.481347 0.251597 0.180922 0.239489 -0.0568641 0.0948334 0.793273 -0.351379 -0.926662 -0.258478 -0.855535 0.0758279 -0.735887 -0.739434 -0.715637 -1.07051 -0.629291 -0.189494 0.0870434 -1.27248 -0.991728 0.274297 -1.35949 -0.235183 -0.834965 -0.542067 0.268574 -0.688074 0.520853 0.458843 -0.167999 -0.710487 0.0691696 -0.821091 0.406928 -0.991618 0.223188 0.286552 -0.122543 0.546128 -0.989536 0.00388642 -0.443796 -0.660216 0.447595 0.200714 -0.329151 -0.663936 -0.388519 -0.602062 -0.243855 0.179709 -0.92084 0.444333 -0.286545 0.252081 1.20136 1.27978 0.780941 0.954049 1.031 -0.219658 1.37965 0.353423 0.350739 1.18906 0.669359 -0.103823 0.501141 -0.307733 -0.321107 0.872757 1.05725 0.596436 -0.382952 0.953074 -0.0376783 0.393297 -0.677589 0.692188 0.873648 0.18815 -0.028664 -0.945329 -0.927879 0.133642 -0.244042 0.738232 -0.0395 -0.922408 0.227588 -0.553734 -0.759513 -0.0210107 0.18672 0.0811962 -0.337735 -0.539565 0.728926 -0.963037 -0.0951223 -0.841143 0.528711 -0.488376 0.546124 -0.823211 -0.280616 -0.393895 0.509102 -0.0594929 -0.696787 0.396716 -0.784833 0.438462 0.626533 -0.463973 -0.324166 -0.773665 -0.924613 0.37492 -0.717883 0.239497 0.779106 -0.42008 -0.866932 0.13059 0.696439 -0.0208755 0.468753 0.255878 -0.0666803 -0.406857 0.789993 -0.0672242 0.675991 0.668446 0.61351 -0.255519 -0.300693 -0.0297404 0.808294 -0.329372 -0.830354 0.594272 -1.0477 -1.47606 -1.12144 -0.6594 -1.2193 -0.84866 -0.962241 -0.306318 0.633477 -1.10292 0.201144 -1.04465 0.083769 -0.13564 0.0223829 -0.414861 -0.701441 -0.952409 0.116656 -0.582288 0.059568 -0.128443 -0.95039 -0.467558 0.47763 -0.377878 0.471384 0.112281 0.513202 -0.88448 0.262459 -0.987592 -0.814509 0.674613 0.00520945 -0.345033 -0.709064 1.00422 1.08801 -0.15422 1.1991 0.52837 0.115824 0.521583 -0.193885 1.48727 1.45167 0.666084 0.0871957 1.11662 1.38221 -0.53016 0.134767 -0.301624 0.313462 0.0481332 0.756202 0.220781 -0.350884 0.75815 0.501446 1.0145 0.816248 0.817781 0.816142 -0.0756087 -0.434493 -0.797723 -0.631748 -0.897582 -0.502748 -0.967884 0.171759 0.153784 -0.0139353 0.335756 0.0236664 -0.0717856 -0.508189 0.600758 -0.452406 -0.512694 0.831371 0.615729 -0.0710254 -0.113176 -0.785974 -0.518333 -1.07591 -0.0981785 -0.745615 0.497468 -0.149733 -1.02807 0.320153 -0.302378 0.057854 -0.908876 0.0785037 0.431477 -0.72097 0.653344 0.657325 0.172218 -0.497161 -0.519214 -0.428804 0.529336 0.36352 0.227806 0.247741 -0.983909 0.585839 -0.0976799 0.617027 -0.323768 -0.78362 -0.777822 0.591091 -0.616155 0.569874 1.13399 -0.662862 -0.574203 -0.65537 0.449399 -0.207085 -0.164858 0.235509 -1.41668 -0.830235 0.281169 0.0252289 -1.27811 -0.582468 -1.20731 -0.586224 0.305621 0.642132 -1.11286 -0.467801 -0.168792 -1.15816 -0.998332 -1.15796 -1.48102 -0.176773 -0.626682 -1.20558 -0.484633 -0.197831 0.224785 -0.521361 -0.0400168 0.452138 -0.476644 -0.518412 -0.336889 -1.15834 -0.777609 -0.271418 -0.526716 -0.966377 -0.636482 -0.336637 0.654551 0.208311 0.998458 0.25801 0.0896402 1.20714 1.08379 1.35719 -0.447967 -0.369871 -0.150659 -0.330142 0.937907 0.567595 -0.199657 -0.320668 -0.391906 -0.661085 0.583055 1.00381 -0.783723 -0.466891 -0.0412482 0.0398085 -0.460338 0.231405 0.903299 0.143012 0.371019 -0.639922 0.901524 -0.683055 -0.0559047 0.27604 0.268698 0.65391 0.10323 -0.285 0.37384 0.0425817 -0.164474 0.71306 0.211397 -0.613752 -0.106006 0.763448 -0.000651169 0.380504 -1.02962 -0.730753 0.174928 -0.971938 -0.0841816 -0.839529 0.141158 0.323571 0.312733 0.0676065 -0.416786 -0.152614 0.637059 -0.323147 0.189431 -0.39808 0.97646 -0.381466 -1.01536 -0.216112 0.147819 0.441774 -1.17847 -0.782012 0.209465 0.157758 -0.614254 -0.79596 -0.138767 0.370149 0.465702 -0.0135623 -1.13097 -0.0566654 0.290855 0.126544 0.3068 -0.370799 -0.809836 -0.678245 0.298444 -0.425073 -0.0615164 -0.52603 -0.176665 -1.13311 -0.187216 -0.20728 -0.50685 0.123017 -1.42974 -1.46758 -0.568296 -1.56389 -1.52309 -1.45669 -0.462338 -1.06263 -1.30222 -1.37646 -1.30365 -1.36193 0.104301 -1.33117 -0.380128 -0.737239 -0.248693 -1.21751 -0.27048 0.012196 -0.756703 -0.805107 -0.983766 0.538824 0.222697 0.414054 -0.90907 -0.333883 -0.425208 -0.101908 -0.222478 0.301576 0.638 0.741974 0.370547 0.82588 1.02066 -0.266978 -0.436843 -0.481635 0.159246 -0.129924 -0.40763 -0.391571 -0.0274607 0.535885 0.140173 0.980552 0.686424 -0.705025 0.417996 -0.694787 -0.0773127 0.59463 1.00887 -0.830186 0.0741308 -0.890865 -0.0580573 0.742129 0.102418 0.0108263 -0.579927 -0.882858 -0.655721 0.410224 0.459435 0.82972 0.505884 0.512827 0.838477 -0.844999 0.881842 -0.956365 -0.623234 -0.450988 0.456203 0.395649 -0.592865 -0.147714 0.493759 0.78437 0.259334 -0.549454 0.281292 0.156205 -0.468157 -0.577885 0.325205 0.63757 -0.444969 -0.180132 -0.326584 -0.176328 -0.21214 0.283178 -1.02147 -0.945514 -0.0756428 0.459687 0.518428 -0.136983 0.704548 0.578285 -0.347695 -0.84866 -0.801272 -0.656042 0.61251 -0.392918 0.316108 0.311959 -0.458664 -0.0871396 0.864481 1.16928 0.878478 -0.862196 -0.926305 -0.0717957 0.517066 -0.97052 0.390164 -0.782935 -0.232679 -0.82846 0.300908 -0.0561736 -0.762281 -0.655758 -0.49205 -1.36656 -0.0618859 -1.02715 0.168238 -1.25529 -0.791648 -1.49299 -0.412683 -0.79825 -0.379724 -1.19788 0.389139 -0.121908 -0.285332 0.189293 -0.220993 -0.480329 0.506789 0.0331064 -1.12054 0.398097 0.586283 0.557856 -0.919588 -0.174281 -1.04564 0.79093 -0.416182 0.0239955 0.0414692 0.353904 0.232844 -0.421926 0.980314 0.144075 0.100957 -0.149417 0.313449 1.08714 0.337056 1.12738 -0.677075 -0.00748963 0.274398 0.250614 -0.397673 -0.521312 -0.80919 -0.510598 0.944615 -0.764531 -0.89639 0.555427 0.90302 -0.754791 -0.571649 0.966075 -0.852746 -0.621815 -0.708897 -0.509877 0.248273 0.0412971 -0.414693 -0.305953 0.650921 0.176458 0.0349733 -0.545503 -0.23715 -1.01521 -0.805008 -0.219779 -0.0886758 0.348157 0.908319 0.228021 0.639458 -0.93639 0.819692 0.611054 -0.799102 0.810737 0.0755091 -0.829844 -0.883434 0.667722 -0.547659 -0.473819 -1.00364 -0.410443 -0.35459 0.20534 0.44817 0.388089 -1.00025 0.1067 -0.550737 0.15831 0.651872 0.407975 0.0701649 -1.05205 -0.822439 -0.978346 0.230862 -0.862793 0.31811 0.106294 -0.731398 0.380892 -0.0195556 -0.244805 0.143612 0.673749 -0.439689 0.0836312 0.126504 -0.648054 0.216414 0.0270666 -0.304297 -1.22883 -0.810845 -0.594842 0.212206 -0.463021 -1.33839 -1.03433 -1.38155 0.455936 0.565347 -0.223877 0.390655 -1.2426 0.156753 0.0274997 -0.859757 -0.706486 -1.02776 -0.783568 -1.21749 -0.212679 -0.147233 -0.0940059 -0.339169 0.590249 -0.868151 -1.01229 -0.626364 -1.31476 0.72725 0.910901 -0.809326 -0.42556 0.324035 1.48356 1.05567 0.394917 -0.162486 1.10917 0.269414 -0.301522 0.378539 0.153274 -0.146565 -0.204148 1.37129 0.132696 0.465886 -0.387294 0.675503 0.562384 0.820553 -0.0511428 -0.111041 -0.13829 -0.0232847 0.385298 0.216808 0.526084 0.331495 0.00469263 0.4867 0.633251 0.69562 -0.811763 0.325812 -0.039319 0.0988526 0.783791 -0.321218 0.822525 1.06276 0.673789 -0.407592 -0.592734 0.969737 -0.422062 0.210996 0.187844 0.124658 -0.360669 -0.498712 -0.379955 0.491812 0.355371 0.497053 -0.591442 -0.35729 -0.399616 0.882669 -0.936564 0.667416 0.410555 0.926394 0.498614 0.618714 0.0608142 -0.658595 -0.342242 -0.206568 0.0955294 -0.456704 -0.258941 -0.521831 0.136208 0.123564 -0.559158 0.589436 -0.662061 0.662542 -0.411094 -0.0989458 -0.771287 0.500742 -0.333939 0.637936 0.158945 -0.103839 -0.586881 0.357724 -0.299605 -0.761006 -0.0139288 -1.02271 0.804341 -0.845517 0.402053 -0.36438 -0.563603 -0.81893 -1.21718 -1.25277 0.195045 -0.120967 -0.124704 -0.478386 -0.666353 0.552199 -0.925495 -0.514998 0.131663 -0.149963 0.683351 0.524975 -1.24029 -1.06218 -0.112828 -0.194294 -0.00337591 0.383144 -0.676226 -1.17066 -1.30556 0.411764 -0.93857 -1.24113 -1.04198 -0.760741 0.148378 0.0978225 0.00528983 2.36018 
0.419964 -0.427681 -0.560431 -0.721102 0.177533 -0.289928 0.836823 0.422792 0.525526 0.129889 -0.666374 0.0898496 -0.276222 -0.36947 0.657691 -0.697928 -1.13423 0.098447 -0.971178 -0.362136 0.230266 -0.89996 -0.61675 0.7822 -0.786379 -0.419826 -0.97782 0.20881 0.619535 -0.0335142 -0.512145 -0.0626141 0.473256 -0.130295 -0.0452162 -0.336674 0.681739 0.062053 -0.921308 0.0203352 -0.647726 -0.671115 -0.82162 0.0282849 0.154033 -1.1278 0.380702 0.215332 -0.0093262 0.449915 0.86223 -0.515714 0.816031 -0.445048 -0.616073 -0.850562 0.385721 -0.264968 0.814657 0.421174 1.04424 -0.380495 -0.396255 0.779962 0.791299 1.03522 -0.403841 0.473833 0.0779514 -0.286136 -0.362034 0.408752 0.272556 0.0139262 -0.254437 -0.288513 0.131025 1.24239 0.9826 1.2658 0.842607 0.879497 -0.331227 0.533519 -0.628552 0.0220279 0.681909 0.703097 0.637028 0.367029 -0.0235675 0.522086 0.843549 0.44629 0.139813 0.424535 0.147341 0.416292 -0.408129 1.05031 0.916263 -0.0805608 0.150831 -0.115824 0.633467 0.48583 0.151404 -0.63921 0.338201 -0.254912 -0.742043 -0.172756 -0.614146 -0.365515 1.07511 -0.527588 0.36173 0.478433 1.0724 -0.204251 -0.335629 -0.309419 1.00196 -0.836812 0.884851 -0.123764 0.353626 -0.148057 -0.751486 0.845264 -0.168 1.06434 -0.263311 0.921577 -0.140813 -0.76722 0.313499 0.834619 -0.541915 -0.654206 -0.523191 -0.374999 0.199687 -0.166082 0.225501 0.102748 0.137587 -0.61031 -0.545892 -0.144689 -0.0698439 -0.0521996 0.402039 -0.235751 -0.146951 -0.12121 0.484191 -1.06599 0.536762 0.466991 0.635521 -0.749663 0.478358 -0.578192 -0.757525 -0.721811 -0.299978 0.517798 -0.751336 -0.0811289 0.874322 -0.342253 0.662697 0.0788994 0.474273 -0.197279 -0.751988 -0.274788 0.315084 -0.0035727 0.862366 -0.45428 -0.972384 0.36654 0.533158 0.200118 -0.291782 0.343686 0.45815 -0.399604 0.0872219 0.374624 0.170911 -0.256575 0.839659 0.392211 0.00501816 -0.516188 -0.079916 0.209816 0.637023 -0.0372199 1.11739 0.577392 1.28528 0.7219 -0.460955 -0.293326 -0.435048 0.877416 0.586813 1.28718 -0.634366 0.591435 0.665419 0.860825 -0.328016 1.23549 0.0543581 0.992757 -0.298966 1.00936 0.225333 0.667949 -0.610319 -0.253149 -0.283316 0.197379 -0.0590457 0.323292 -0.897485 -0.622303 1.02239 0.845544 0.579145 0.936116 0.200461 0.70113 -0.795906 0.339191 0.262462 0.500087 0.334977 0.336708 -0.211693 -0.275735 0.0969833 0.265185 -0.236925 0.759421 -0.0757392 0.102923 0.494934 0.930855 -0.534335 0.787465 -0.427309 0.135422 -0.122491 0.496347 -0.510275 -0.0759986 0.744817 -0.669144 -0.351779 0.110145 -0.897275 0.566084 -0.396565 -0.898025 -0.227643 0.748798 0.563289 -1.05055 -0.0543737 -0.822143 -0.459885 0.656326 0.170556 0.118676 0.306047 -1.05819 -1.01127 -0.606816 0.522355 -0.680677 -0.975722 -1.14799 0.118707 -0.447705 0.438579 0.69834 0.591415 0.101581 1.00976 -0.885791 -0.84642 0.774483 0.50858 -0.424082 -1.039 -0.6701 -0.651479 0.476883 -0.669751 0.369708 0.764364 0.140701 0.303901 0.222293 -0.643805 0.0185794 0.69537 -0.00601371 0.548353 0.324094 0.211308 0.751488 0.509514 -0.318347 -0.328708 -0.0517854 -0.585904 -0.808119 0.943665 -0.640815 -0.697763 1.02487 -0.671308 1.01118 -0.243306 -0.506334 -0.426019 0.343587 1.23687 0.0800382 -0.145608 1.03615 1.13192 1.0729 0.218582 -0.518993 -0.234985 -0.448158 0.0185771 1.14197 0.704337 1.08881 0.778552 0.0632616 -0.360017 1.23478 0.680408 -0.272349 1.0824 0.426568 -0.223408 -0.932305 0.133413 -0.0972328 0.804132 0.691042 0.117319 0.997093 -0.408157 -0.0693563 -0.366189 0.0111682 -0.358174 -0.53666 -0.246794 0.55747 -0.370408 0.233964 1.00157 0.452634 0.155041 0.296431 0.19018 -0.444696 1.07948 0.580694 -0.456808 0.513816 -0.916342 -0.469304 -0.0472449 -0.0365209 -0.406749 1.00499 0.742325 -0.736381 0.5839 -0.314517 -0.902991 0.888811 0.383592 -0.473651 -0.203183 0.934035 -0.0928599 0.450108 0.378898 0.410844 -0.54944 0.0515992 -0.407416 0.429332 -0.837788 0.670336 0.714938 -1.13607 -0.0847471 -0.905443 0.30623 0.0143405 -0.594148 -0.97576 -0.931313 0.107884 -0.760528 0.736857 0.381728 0.709956 -0.63568 0.110702 0.426432 0.586445 0.767088 -0.721158 0.640707 -0.293158 0.723907 0.0429874 -0.844162 -0.622722 -0.755947 0.0259502 1.28892 -0.0228394 0.289902 1.34842 -0.1852 -0.765792 -0.578741 -0.600585 0.499351 0.17063 -0.220798 0.535452 -0.709243 -0.0139331 0.158729 0.579241 -0.302582 0.466361 -0.106215 1.31231 0.232393 -0.170073 -0.237689 0.0154068 0.708047 -0.430822 1.11066 0.880247 -0.150404 1.25466 -0.114628 -0.230512 -0.237686 0.717562 -0.339721 0.375406 0.742186 -0.0974177 0.652942 0.0824728 0.90965 1.24989 -0.721913 0.86268 -0.108276 0.240617 0.121796 0.255627 -0.624515 0.7578 0.270978 0.377462 -0.655982 0.690344 0.942506 0.593872 0.767795 0.610962 0.146972 -0.691966 0.540052 0.701523 -0.259923 0.97077 0.288716 0.182777 0.147735 -0.381403 0.692817 -0.600595 0.420878 0.418468 -0.577378 0.429679 0.10171 0.209439 -0.290561 -0.75201 -0.534409 -0.00546033 0.908446 0.5257 -0.769592 1.07808 0.0651732 0.957619 0.424851 -0.351164 0.410193 -0.57148 -0.114173 -0.157116 -0.874455 0.580988 -0.334618 -0.000190591 -0.621819 0.557445 0.464516 -1.04043 0.670814 -0.556063 0.0275476 -1.03927 -1.10811 -0.983494 -0.0638498 -0.684255 -0.50442 0.588225 0.583986 -0.702572 0.149911 0.723033 -0.683121 -1.09843 0.478285 0.525745 -0.366129 -0.0800606 -0.923241 0.534194 0.734308 -0.806681 0.0839625 -0.467 0.359645 0.700218 -0.766863 0.0373872 0.965976 -0.691063 0.925488 0.423963 -0.34948 1.09721 0.744978 0.893211 -0.31476 1.07709 0.434636 -0.732719 -0.749891 -0.520994 0.913631 -0.585351 -0.480324 0.516211 1.09413 0.30626 -0.425069 1.33704 0.00767104 1.39494 -0.40996 1.07485 -0.17374 0.85146 0.763519 0.0479937 -0.231932 0.58621 0.225684 -0.56433 -0.250501 0.617071 -0.701189 1.27553 0.333947 -0.168638 0.998456 -0.591089 -0.374557 0.934575 -0.452732 -0.740591 -0.932666 -0.196586 0.474327 0.859661 0.825071 0.707398 0.819615 -0.569939 0.62278 0.982706 -0.818229 -0.861993 0.506927 0.624458 -0.14829 0.95681 -0.006603 0.862012 -0.794306 0.436221 0.010368 -0.878348 0.38047 -0.797245 -0.326187 0.144428 -0.60725 0.211793 0.135711 0.0483546 0.508654 0.170649 0.725924 -0.149538 -0.0439262 0.43084 -0.603187 -0.445363 0.738436 0.88036 -0.601996 0.717275 0.911186 0.821487 0.388588 -0.327694 0.680321 -0.951293 -0.847289 0.537072 0.134055 0.184302 0.43445 -0.741024 0.0374221 -1.06721 0.388562 0.402262 0.00317916 -0.679499 -0.29707 -0.161218 0.778505 -0.675536 0.615514 -0.692311 0.381515 0.672015 -0.0376375 0.145043 0.580893 0.366035 -0.147458 0.45589 0.128199 -0.784268 -0.866014 -0.162685 -0.658225 -0.467149 -0.492965 0.787771 0.948047 -0.645843 -0.545017 0.443266 -0.422811 1.13791 0.159331 0.850633 -0.258078 0.703345 -0.385132 -0.534351 0.916251 1.11228 -0.018129 0.457843 0.942597 1.07818 -0.274859 0.640317 0.582955 0.829868 0.298002 -0.219832 1.09758 0.400888 0.517647 -0.649455 0.913754 1.01028 1.028 0.756702 1.14389 1.24276 -0.0548772 -0.53912 1.134 0.889557 1.16396 -0.317207 0.195307 -0.621933 -0.359867 -0.251076 -0.86392 0.331186 0.902875 0.786441 0.0968696 -0.673509 0.155313 -0.733156 0.782004 1.07342 -0.330679 0.435968 0.128069 0.855446 0.47296 -0.271788 0.538764 0.262909 -0.73233 0.467247 0.210301 -0.195393 0.477506 -0.0280499 -0.561409 0.46224 0.375368 0.429341 0.612291 0.851874 -0.766085 0.841206 0.321239 1.10194 0.543804 -0.689944 -0.630976 -0.442474 -0.570614 0.913504 -0.487476 0.00637377 0.316924 0.442486 -0.312739 -0.389669 -0.830726 -0.895122 0.646819 -0.901894 0.20408 -0.53237 -0.360779 -0.384075 0.351201 -0.0983383 -1.18554 -0.482506 -0.745036 0.413985 -0.68238 -0.663989 0.418966 0.818881 -0.264613 -0.0553834 1.11614 -0.367945 0.131944 -0.8152 -0.390135 0.675821 0.143704 0.795529 0.0448733 0.781329 -0.681995 0.180139 0.918837 -0.904692 0.395983 0.447777 -0.209289 -0.599518 -0.702494 -0.496384 0.687193 -0.425027 0.317004 -0.693622 -0.625077 0.884638 -0.148358 0.65167 0.745752 0.500416 -0.48863 0.710121 -0.699929 0.793621 1.01154 0.0315206 0.566604 0.276395 0.0109064 -0.145782 0.259672 0.430651 1.1188 0.131493 0.422006 0.434595 -0.506746 1.19159 0.724079 -0.307112 -0.498837 0.175648 0.0196946 0.552905 0.191057 0.090391 0.272089 0.849004 -0.64699 -0.422469 -0.179774 -0.514565 0.894041 -0.179555 0.966812 0.609623 0.541257 0.241024 -0.401014 -0.895358 0.632427 0.381488 0.16851 0.373343 -0.749761 -0.73001 -0.505626 -0.570061 -0.866324 0.907025 -0.0827731 -0.676799 -0.228298 0.522693 0.497825 0.671478 -0.653937 -0.400934 0.223209 -0.437442 -0.119367 0.791916 -0.10862 -0.120738 -0.1764 -0.0584338 -0.561429 -0.712999 1.1179 -0.0235995 -0.71372 0.590792 -0.735052 0.38069 -0.0056361 -0.537457 0.417906 0.261613 -0.271316 0.48035 -0.00435034 0.299359 0.421292 0.395229 -0.425734 -0.0707448 0.0422944 -0.20984 0.269259 -0.937558 0.123422 -0.821498 -1.07534 -1.0053 0.0166346 -0.313193 -0.126703 0.403207 -0.0551174 0.002342 -0.592839 0.181064 -0.550386 -0.471339 -0.518597 0.354514 -0.204126 0.884127 -0.486412 0.501552 0.381437 0.707616 -0.0384561 0.195704 0.32412 0.83414 -0.604937 0.0399906 -0.0881339 1.13487 0.175958 -0.534065 -0.288897 0.356498 -0.32073 0.895175 -0.645671 0.847086 0.520176 0.439462 -0.067617 0.928754 -0.323373 0.559604 -0.351355 0.386566 0.0981426 0.578281 0.370038 0.719293 0.168143 -0.301617 0.246582 1.01023 0.822592 -0.455177 0.74134 1.14805 0.112611 -0.552101 1.04551 0.996509 -0.389807 -0.552453 0.131026 0.0533486 0.876824 -0.029518 -0.702278 -0.0153715 0.985217 -0.115636 -0.421557 -0.625212 -0.872492 -0.189544 0.348203 -0.220156 0.953557 -0.727648 -0.92554 -0.241137 -0.291545 0.0664094 -0.544485 -0.771377 0.294511 0.867338 1.12382 1.06799 0.996297 0.733173 0.652589 -0.836997 0.823259 -0.475087 -0.0634058 0.526732 1.27019 
0.451779 -0.268766 0.538159 1.33995 0.277305 0.890316 -0.720793 0.989115 0.0384391 -0.0823942 0.712081 0.0995712 -0.184861 -0.7051 0.714516 0.686446 -0.378004 0.744017 -0.0608682 -0.650966 0.696873 -0.0696132 -0.713016 0.323628 -0.458041 -0.542065 0.110088 0.00121345 0.352889 -0.472967 -0.859804 -0.618066 -0.11778 0.347438 -0.640168 0.87043 -0.0742901 -0.559748 0.592633 0.758167 0.215274 0.216827 -0.177791 -0.983358 0.478636 -0.522595 0.763863 -0.923275 -0.78622 -0.317154 -0.570324 -1.09551 0.602584 -0.319942 0.239936 -0.877289 0.0954607 -0.688729 0.0915019 -0.579962 -0.140634 0.301335 -0.128921 -1.14585 -0.283841 0.30777 0.793008 0.741621 -1.10993 0.542964 0.642096 0.214447 -0.113754 -0.400938 0.373191 -0.500749 0.190128 0.257066 -0.289528 0.580391 -0.908337 0.273591 0.637686 0.826636 -0.920881 -0.000607147 -0.957091 0.273279 0.399351 0.267033 0.825069 -0.56506 -0.245319 -0.1119 -0.477972 0.721809 -0.576133 -0.509871 0.622005 -0.539355 -0.841436 0.419902 0.825698 0.190594 -0.859584 0.30975 0.768946 0.445269 -0.356648 -0.402419 0.142342 -0.147451 -1.06687 -0.130711 -0.191391 -0.766356 -0.996768 0.0127195 0.626464 0.582515 -0.633632 0.557764 -0.776035 0.420932 -0.24474 -0.0835896 0.333571 0.330965 0.590043 0.0734312 0.88019 0.859122 -0.446555 0.782664 0.0394816 -0.335869 0.0341093 -0.161298 1.07538 0.599891 0.408664 0.196375 -0.442649 0.452875 -0.860411 0.311318 0.652894 -0.853448 -0.621276 0.317976 0.764148 -0.154579 -0.130693 0.903754 -0.861423 0.47919 -0.397003 0.133209 -0.54788 0.781509 0.879255 -0.98894 0.331535 -0.853729 0.502368 -0.831823 -0.374945 -0.664219 -0.143484 -0.379601 -1.08441 -0.756864 0.80958 -0.580662 0.678982 -1.08606 0.736996 0.320575 -0.931247 -0.867507 -0.375943 0.793624 -0.0786487 0.481904 0.652471 0.0287717 -0.0790681 -0.764332 -0.807834 0.4134 -0.897013 -0.831638 0.493691 0.51299 -0.610093 0.101104 0.820059 0.168129 0.573947 -0.216441 -1.08565 0.624428 0.16807 0.857349 -0.841319 -0.0455818 -1.08077 -0.926799 -0.557232 -0.87666 -0.666286 0.194847 -0.961952 0.374885 -0.242061 0.779725 -0.517848 0.811742 -0.855477 -0.153079 0.410326 -0.566137 0.244252 0.136616 -0.829852 0.816048 -0.588934 -0.862777 0.10594 -0.863969 0.0751373 0.161195 0.872372 -0.641514 0.101533 -0.878647 0.389432 0.136188 -0.672778 -1.05093 0.301934 -0.264544 0.257728 0.543279 -0.744093 -0.812224 0.45141 -0.116188 -0.93065 0.689401 0.882078 0.815633 -0.536719 0.378886 0.112997 -0.231617 0.359479 0.626283 0.00607476 -0.46255 0.837349 1.04946 0.67555 0.619925 -0.634783 -0.208378 0.780619 0.728845 0.89513 -0.945228 0.740003 0.373735 -0.0651781 0.0351452 -0.0885378 0.218084 0.302984 -0.579252 -0.871265 0.405751 -0.949335 0.979234 0.0557879 -0.645639 0.153668 0.851934 -0.219854 -0.858602 0.198475 0.453631 -0.637985 -0.301203 0.275714 0.828214 -0.823337 0.508892 -0.467773 0.869936 0.220812 -0.567062 -1.03352 -0.0324395 0.762702 -0.158615 -1.02885 -0.363521 -0.998636 0.207689 -0.0249294 -0.91474 -0.417374 0.0475927 -0.954966 0.620199 0.383367 0.192274 0.459958 -0.847332 0.327664 -0.278036 0.727046 -1.18253 0.547541 0.124522 0.816314 -1.12286 -0.229278 -0.551944 0.865467 -0.883856 0.0202653 -1.04781 0.186348 -0.110774 -0.078961 0.314621 0.673081 0.0577415 -0.34966 -0.223852 0.26408 0.340877 -1.10417 0.397107 0.0443528 0.405195 -0.288418 -0.271215 0.79494 -0.682056 0.734019 0.769266 -0.646168 0.457372 0.0521121 -0.722271 0.45929 -1.0253 -0.11253 0.473285 -0.789479 -0.966284 0.509415 0.482938 -0.00210184 -0.468758 -0.0958824 -0.210598 0.673767 0.643592 0.629639 0.080616 0.122796 0.67932 -0.387627 -0.684338 0.219181 0.403511 0.233469 0.354706 1.05664 0.204167 0.279741 -0.504551 -0.176234 -0.579218 -0.104104 -0.640879 -0.530439 0.754 0.76689 -0.415091 0.739253 0.324569 -0.879124 -0.28514 0.805526 -0.0306656 0.531959 0.625687 -0.228052 0.259929 -0.245451 0.952872 0.108645 0.452958 -0.658211 -0.614421 -0.157569 0.52385 0.544879 -0.2585 -0.475563 -0.493328 -0.0830403 -0.0205835 -0.350347 0.480687 0.0239876 -0.216438 0.00436695 -0.387819 0.227145 -0.388757 0.853865 0.257192 0.312549 0.705128 -0.697716 -0.111826 0.324745 0.0436815 -0.847483 -0.935845 -0.029219 0.19949 0.442537 0.259475 0.533116 -0.693082 -0.23171 0.0713507 0.0356248 0.28697 0.568812 -1.05586 -0.739624 -0.720331 0.541072 0.408056 0.190022 -0.34009 -0.811158 -0.431659 0.413672 -0.84502 -1.03637 -0.129853 -1.0015 -0.630352 0.85946 0.431247 0.549933 -0.836197 0.63445 -0.352299 0.491507 0.200323 -0.966839 0.150613 0.584478 -0.113196 -0.720149 -0.258649 -0.69937 -0.920287 -0.0797682 -0.207607 -0.363387 -0.275202 -0.538036 -0.983574 0.53367 -0.236851 -0.297409 0.102378 0.0733502 -0.140676 -0.86583 0.203713 0.260726 -0.960801 -0.292114 -0.083416 -0.696589 -0.549276 0.633076 0.851544 0.64991 0.736298 0.0578826 0.408081 -0.200965 0.549816 -0.709199 0.224237 0.785578 0.583233 -0.634874 -0.31295 -0.524858 -0.0569325 -0.13251 1.07652 0.801395 0.66569 0.172424 -0.2325 -0.622376 0.23547 0.989987 0.697174 0.333481 -0.303836 -0.408675 0.592281 0.212265 -0.621737 0.628245 0.0234857 -0.750691 -0.187027 -0.356576 0.159935 -0.52208 -0.0499214 -0.688482 -0.804696 -0.635197 -0.483509 -0.313995 -0.422738 0.190908 0.303144 -0.580403 -0.304017 -0.364861 0.340006 0.336656 -0.139336 -0.534139 0.234122 -0.495966 0.74797 -1.0415 0.134594 0.388135 0.164488 0.484024 -0.00271513 -0.780487 0.727203 0.802275 -0.186285 -0.152001 -0.753297 0.831022 0.259825 -0.491329 -0.711307 0.861517 0.285758 -0.114031 0.0820973 -0.424509 0.36654 -1.09274 0.332462 -0.158642 0.366453 -0.64779 0.457119 -0.250906 -0.0451245 0.316917 -0.180553 -0.798869 -0.186283 -0.898957 0.801279 -1.06019 -0.536194 0.682993 0.885186 0.421815 -0.347979 -0.742124 0.378819 -0.99318 -0.148103 0.725428 -1.0223 -0.710171 -0.154896 0.3005 0.0880182 -0.494893 0.47039 -0.330087 0.533431 -0.0304048 0.129906 0.0948755 0.870005 -0.730928 -0.401478 -0.181453 -0.437 0.449259 0.0217575 -0.601832 0.500766 0.553615 -0.7943 0.434582 -0.00978351 -0.170809 0.758918 -0.540334 -0.012307 -0.196319 -0.590917 0.165442 0.193678 0.426941 -0.214281 -0.352021 -0.798444 -0.575776 0.453506 0.854555 0.41392 -0.362494 0.0380186 0.325197 -0.23297 0.494079 1.1012 0.365811 0.00893159 0.120506 0.754636 -0.512754 -0.306625 -0.871047 -0.883237 0.909268 0.117073 -0.978983 -0.45772 -0.640433 -0.0587535 0.0422859 0.518807 -0.889706 -0.63313 -0.850956 -0.453805 -0.627108 -0.6955 0.68087 -1.05857 0.488713 -0.978763 -0.313775 -0.427597 -0.362411 -0.971473 -0.410735 -1.07009 -0.000923993 0.723833 0.766441 0.543793 -0.575997 0.829563 0.601308 -0.681877 -0.0302755 0.607063 -0.164978 0.288837 -0.486023 0.847402 -0.123268 -0.295615 -0.682193 0.111798 0.328899 -0.214657 0.445358 0.0258068 -0.265569 0.0186658 0.2032 0.568694 0.782941 -0.997844 0.777914 -0.456501 -0.926663 -0.131633 -0.643175 -1.06344 -0.491143 -0.0974692 -1.12578 -0.782798 0.347679 0.020304 -1.00304 -0.665098 -0.561346 -0.359731 -0.68793 0.430569 0.434934 -0.284979 -0.364289 -0.103774 0.656498 -0.727441 -0.848021 -0.385199 0.606706 0.620149 -0.553153 0.569753 0.741482 -0.695131 -0.806336 -1.00602 0.377862 -0.238008 -0.957371 -1.02435 0.709045 -1.03916 -0.734742 0.100713 0.0358904 -0.692827 0.551917 0.551013 0.00562583 -1.02428 0.105181 -0.395311 -0.162307 0.92617 0.640705 -0.397286 -0.649914 1.04954 0.589256 -0.756049 0.909471 1.24054 0.970476 0.750452 -0.393091 1.29997 0.70659 0.835315 -0.121979 0.694982 0.805259 -0.336764 0.716736 -0.987699 0.798733 -0.158611 -0.419103 0.542418 -0.428583 0.682935 0.594501 0.84116 -0.514597 -0.460093 0.863147 -0.904676 0.12108 -0.856482 -0.904917 -0.467743 -0.807324 0.723452 -0.616038 0.842085 0.185158 -0.356712 0.796921 -0.381343 -0.727112 -0.476829 -0.763114 -0.997391 0.139853 -1.02487 -0.873307 -0.0289646 -0.179819 -0.370826 -0.513209 0.432751 -0.645185 -0.900613 0.275173 -0.176377 -0.350463 0.133994 0.0322941 -1.11613 0.374443 0.212492 -0.507629 0.66288 -0.0225286 -0.102049 0.525035 -0.759569 0.692395 0.483881 0.0714875 -0.866244 -0.792202 0.482523 -0.709663 0.445768 0.549748 -0.483651 -0.456894 -0.50244 0.255284 0.154564 -0.93494 0.774635 0.403486 0.486538 -0.272229 -0.817461 -0.24972 0.877045 -0.844706 -0.764118 0.197504 -0.225256 -0.97616 -0.65778 -1.09202 0.781319 -0.102568 0.845003 0.521362 -0.853882 -0.873595 0.806715 0.730228 -0.406425 0.436454 0.425161 0.171513 -0.955304 -1.0415 -0.542019 0.249964 -0.947647 -0.755104 -0.309284 0.684291 0.0565537 -0.0733122 -0.463226 0.114675 0.29231 -0.0459417 -0.480122 -0.781596 0.071436 -0.0166471 -0.627891 0.217014 1.20367 -0.522161 -0.12549 -0.547413 -0.261765 -0.196871 1.31073 0.230123 1.1126 0.586893 -0.632962 -0.828024 0.605596 -0.0487202 0.395955 0.750186 0.332729 -0.618857 0.647252 -0.36155 0.444815 -0.763292 0.887219 -0.0832907 0.256137 -0.503926 0.102743 -0.700307 0.40398 0.435724 0.317535 0.333836 0.580442 0.805984 0.474963 -1.05307 -0.760933 0.421799 -0.053903 -0.81151 -0.106238 0.270312 -0.688683 -0.458975 -0.785311 0.809698 -0.680073 0.548556 -0.873431 -1.06533 -0.777559 0.616799 -0.794463 -0.870324 -0.468381 0.487403 -0.381265 0.748155 -1.09813 -0.931296 0.220124 0.246478 0.557347 -0.0459933 0.198651 0.183269 0.0675416 0.676916 -0.142745 -0.730591 -0.931173 -1.00342 0.728704 -0.454871 -0.371538 -0.955028 -0.529932 0.0785734 0.725339 -0.291515 0.130214 -0.92417 -0.516205 0.483334 -0.651142 0.14522 0.100332 0.0976347 0.0246562 0.097669 0.34232 -0.588843 -0.49047 0.0630656 0.539352 -1.05231 -0.497848 -0.0887376 0.888148 0.611945 0.362416 -0.929493 0.686539 0.197085 -0.175792 -0.501502 0.387896 0.369442 0.666982 0.17694 -0.898477 -0.166843 0.298946 -0.350996 -0.606945 0.720737 -1.10294 0.584323 -0.0592272 0.0383026 -0.187892 -0.518482 0.625694 0.495544 0.640531 0.292994 0.733236 -0.497878 -0.51894 0.789227 1.22831 0.573117 
0.666395 0.645881 -0.0864782 -0.481724 -0.810653 -0.64502 -1.06297 0.905916 0.630252 -0.787673 -0.109188 0.0832998 0.0169588 0.404928 -0.0558834 0.0893658 0.126949 -0.975009 -0.730635 -0.909033 -0.447134 -1.03139 0.660752 -0.75681 0.321442 0.328866 -0.42747 0.641593 -0.127384 -0.520151 0.319927 -0.385227 -0.756439 -0.648694 0.250509 -0.470908 -0.194158 0.332438 -0.431005 -0.445841 0.643607 0.558981 0.737106 -0.222678 0.0737374 -0.189732 -1.00316 -0.661633 -0.0620561 -0.631478 -0.456794 0.604595 -0.539122 -0.662097 -1.01747 0.895203 0.76672 -0.326078 0.651677 -0.178296 0.360468 0.178165 0.638841 0.74927 0.66787 0.0206898 -0.601206 -0.411258 -0.567019 0.0526348 0.237088 -0.844247 -0.318194 0.0811737 0.0257414 0.86026 0.939739 0.0820473 -0.729914 -0.0882701 0.499967 -0.110272 -0.372269 -0.937243 0.302422 -0.309372 -0.946301 0.197375 0.482529 0.775409 -0.899567 -0.124542 -0.037839 0.728315 -0.366387 -0.316368 -0.18972 0.0985941 0.398286 0.364515 -0.736556 -0.304811 0.578493 0.00576257 0.787786 -0.414396 -0.168909 0.698841 0.678404 0.12271 -0.328582 0.227911 -0.958956 0.304801 0.309095 0.380423 -0.923212 0.361134 -0.427817 0.532954 0.159898 -0.333086 -0.574726 -0.844372 -0.554101 0.0999637 -0.122393 0.283039 -0.786067 -0.760751 -0.377869 -0.530466 -0.0723389 -0.809067 0.454711 -0.29452 -0.175794 -0.638259 -0.514942 -0.424796 0.528747 0.20352 0.850766 0.651874 -0.397161 0.241092 0.105264 -0.232637 -0.306786 0.763507 -0.649198 -1.11567 -0.514438 -0.146165 -0.889445 -0.0192474 -1.02838 0.00239265 -0.718236 -0.738693 0.345041 0.00269015 -0.166166 -0.631084 0.330462 -0.566485 0.208363 -0.764535 -0.105088 0.793162 -0.126088 -0.496781 0.0696591 -0.158896 -0.677431 0.850319 -0.762218 0.533069 -0.282236 0.031067 0.406621 0.199539 0.0394611 -1.00263 -0.877972 0.245298 0.0664208 -0.73842 -0.560256 0.540534 -0.289874 0.929558 -0.320833 0.675825 -0.584332 -0.91431 -0.814518 0.710613 -0.582846 0.162136 0.575039 0.407024 0.757519 -0.215071 -0.626813 -0.798338 -0.27907 -0.339488 0.772088 0.485708 0.764469 0.225133 -0.242302 -0.108053 0.327219 -0.0105907 -0.757977 -0.525101 0.33783 -0.264758 -0.931974 -0.950499 -0.331496 -0.201896 0.832216 0.160634 -0.0375259 -0.913919 -0.0337871 0.443757 0.314967 -0.389908 -0.113556 0.0876985 0.371496 0.255759 0.291187 -0.914032 -1.05158 0.0802623 0.609569 0.763835 -0.614164 -0.561996 -0.278554 0.724326 0.404062 -0.0644894 -0.808278 -0.25775 0.68082 -0.747302 -0.154966 -0.624689 0.0342203 -0.356472 0.554231 -1.00687 -0.273773 -0.478273 0.433065 -0.982276 0.111672 -0.662788 0.170056 -0.451093 0.650897 -0.480192 -0.320273 0.646946 0.647898 -0.628303 0.478218 -0.91223 -0.152072 -0.727626 0.875671 -0.662052 0.265755 -0.896372 0.145247 0.026089 -0.56434 -0.957714 0.379538 0.441184 -0.342881 0.00987623 0.585508 0.534555 0.687006 0.115843 0.702973 -0.0563909 0.574087 -0.0501472 0.588266 0.283622 0.532761 -0.648621 0.0443628 0.300955 -0.109571 -0.299693 0.54421 0.843609 0.0764905 0.519966 -0.708396 -0.530156 0.747232 0.536718 0.567418 -0.728946 0.660207 0.167275 -1.04388 -0.438493 -0.583282 0.684808 -0.768028 -0.76787 -0.0767611 -0.983132 0.260673 -0.415526 0.0648438 -0.064438 -1.01682 -0.286074 0.390477 0.178204 -0.832395 -0.616046 0.910231 0.733209 -0.747961 0.0567535 0.325905 -0.396879 0.605494 0.162606 -0.753884 0.293203 0.536336 0.985694 -0.454578 0.546152 -0.3986 0.000441763 0.274137 -0.117382 0.308857 -0.730621 -0.027706 -0.371573 -0.113251 -0.923311 0.603415 -0.0684917 -0.174205 -0.00905295 -0.928516 -0.039067 0.376904 -0.989235 -0.27384 0.659249 0.116475 -0.883263 -0.625192 -0.17714 0.357982 -0.374076 -0.912285 -0.155008 -0.416643 -0.362515 -0.583814 0.190744 0.646944 0.671367 -0.950166 -0.0793111 -1.06666 0.0255179 0.550332 -0.162689 0.118924 0.150797 0.78224 -1.01704 -0.773066 -1.07595 0.0228332 0.683203 -1.00194 0.817751 0.411024 0.21754 -0.988198 0.843869 -0.906075 0.435752 -0.489196 -0.74729 -0.652586 0.142727 -0.0448653 -0.153284 -0.583486 -0.335281 -0.488679 -0.5472 0.561323 -0.492019 0.621305 0.262844 0.500682 -0.16644 -0.439593 0.410916 -0.0624553 -0.131841 0.438592 -0.973063 -0.382098 0.515332 -1.03878 -0.854248 -0.0990134 -0.858245 -0.869946 0.0851037 0.679385 -0.257642 0.451977 -0.826131 -0.987128 -0.492221 0.0730732 -0.48275 0.256438 0.799563 0.205737 0.0618778 -0.452966 -0.0305709 -0.543015 -0.831039 0.922584 0.106852 0.676163 -0.0407638 -0.919784 0.198534 0.1013 -0.19321 -0.183006 0.192094 0.102299 0.820736 0.37497 0.237836 -0.0754825 0.119101 -0.936985 -0.564517 0.338761 -0.861102 0.048571 -0.438088 -0.210383 -0.610195 -0.559717 -0.953114 0.506772 0.0241718 0.0663805 -0.97409 0.282011 0.0678598 0.197853 0.0100537 -0.94682 0.30769 -0.755954 0.179303 -0.885632 0.0663313 -0.618421 0.222499 -0.110974 0.786074 -0.489688 0.847439 -0.0424784 -0.360457 -0.605647 -0.579097 -0.110825 0.447877 -0.0303679 0.660765 0.833203 0.398566 0.7054 0.34548 -0.58175 -0.250425 0.345237 0.668615 0.800712 -0.463388 -0.309113 0.88156 0.871897 -0.0611441 0.111051 -0.938745 -0.911978 0.561004 0.360781 0.0544071 0.405357 -1.0656 -0.0307272 -0.531762 -0.361767 0.415123 -0.0724589 0.592964 -0.0626267 -1.03564 0.306759 -0.184084 0.424551 0.0935766 -0.768133 -1.09418 -1.17455 0.570824 0.568304 0.707381 -0.742257 -0.589674 0.781984 -0.739357 0.495492 -0.0162465 -0.590403 0.668167 -0.351716 0.870098 -0.178019 -0.864723 0.885062 0.872402 -0.239906 -0.305786 0.443298 0.805196 -0.583582 -0.519508 0.88201 0.868552 0.422119 0.405529 0.0146187 0.752864 0.406288 0.066233 0.559743 0.21908 0.0105025 -1.0405 0.760503 -0.121693 -0.697954 0.346205 -1.04058 -0.192816 0.117034 -0.308878 -0.244876 -0.990348 -0.0706524 -0.195774 -0.989312 0.767103 0.506978 0.478998 0.62805 -1.0145 -0.973228 0.55666 0.90005 0.515298 0.0905358 0.0406118 0.377171 -0.46105 -0.821237 0.0629789 0.846735 0.278726 0.0365148 0.670512 -0.779816 0.394643 0.0585662 -0.76984 -0.750523 -0.774544 -0.0255288 0.0223345 -0.764603 0.912665 0.808887 -0.728597 0.719879 0.356677 0.804356 0.387043 0.420746 -1.08893 0.0644868 0.445416 0.550809 -0.851052 -0.490356 -0.0534513 -0.256245 -0.278432 -1.03077 -0.445565 -1.01029 -0.0183117 -0.78999 -0.797463 -0.618846 0.282238 -0.545639 -0.343162 0.520224 0.454027 0.735386 0.846506 0.441336 0.628748 -0.791659 0.25156 0.030897 -0.939122 -0.311048 -0.472676 -0.966731 0.801316 -0.972187 0.6516 -0.988716 -0.409359 -0.346931 -0.207945 0.388094 -0.298698 0.427562 0.440855 0.67817 0.632028 0.634262 -0.871572 0.0653838 -0.752464 -0.0208719 -0.26284 0.842927 -0.18811 -0.332581 0.365003 -0.472537 -0.0372793 -0.29676 0.677262 0.103984 0.472853 -0.65986 0.324074 0.433385 -0.514026 0.0921944 0.561165 0.203456 0.8883 -0.523376 -0.309511 -0.320635 -0.997272 -0.774346 -0.466431 0.870998 -0.907784 -0.110969 0.0671868 -0.516222 -1.03307 0.894267 -0.587472 -0.131539 -0.296144 0.879894 0.479677 0.697229 -0.318681 0.24953 -0.0693835 -0.709402 0.640552 -0.716323 0.713776 -0.818056 0.43824 0.341903 0.433257 0.374812 0.886882 -0.764234 -0.819759 -1.00026 -0.480508 -0.253783 0.959562 -0.28835 0.733465 0.085099 0.257931 0.761892 0.0373925 0.756585 -0.282937 0.737872 0.641661 -0.800761 0.440097 -0.703213 0.443151 -0.600097 -0.422164 0.124109 -0.274306 -0.654072 0.35875 -0.750934 0.770079 -0.136085 0.703369 0.740839 0.108925 0.904046 0.813654 0.734057 -0.314038 0.748574 -0.604261 -0.590306 -0.189308 0.635105 -0.832464 0.854891 0.370512 -0.13625 0.615638 0.0345315 0.101632 0.125087 0.409238 -0.38016 0.609839 -0.922441 0.821571 -0.619008 -0.528335 0.242917 -0.300128 -0.685849 -0.823281 -0.506973 -0.852561 0.381459 -0.544935 -1.00291 0.137628 0.19865 0.811271 0.600983 0.675922 -0.364767 0.25245 -1.15296 -0.445716 -0.233553 -0.133205 -0.635584 -1.06037 -0.890011 0.582967 0.432654 -0.1894 0.279613 0.596902 -0.268374 0.779818 -0.813514 -0.907508 -0.372667 -0.362891 -0.621929 0.228592 -0.0989304 0.876058 0.810521 0.0408775 0.139704 0.128844 -0.045411 -0.151067 -0.0909195 0.769411 -0.665899 -0.0157161 -0.460974 0.231979 -1.00384 -0.00103037 0.26047 -0.808698 -0.327952 -0.16992 0.104826 -0.971617 -0.542608 0.924903 0.899604 -0.265142 -0.894131 -0.445242 0.36489 -0.55795 0.854902 -0.631305 -0.577733 0.710077 0.456381 0.627375 -0.0451174 -0.458593 -0.41243 0.91727 -0.660463 -0.0263679 0.0113354 -0.0184819 -0.698704 0.0637185 -0.965179 0.621124 0.344005 -0.198089 -0.504721 -0.55817 -0.168853 -0.0830887 -0.643889 -0.281496 0.684701 -0.546976 0.334018 0.142239 -0.00665974 0.25029 0.5918 0.493599 0.0357115 0.139612 0.208859 -1.00702 0.698597 0.855246 -1.00061 -0.966084 -0.153397 -0.0250746 0.000950881 0.10381 -1.01035 0.0317093 -0.269041 0.303889 0.802523 0.198033 0.769558 -0.329818 -0.765556 -0.743327 0.519872 -0.993252 -0.203981 -0.0730003 0.195103 0.836359 -0.763507 -0.125897 0.408957 0.341726 -0.912769 -0.288073 0.432167 0.843615 -0.396825 0.474228 -1.08808 0.484723 -0.547831 0.0105378 -0.308071 -0.451678 -0.859412 0.522515 -0.964218 -0.860797 -0.035971 -1.01401 -0.0138215 0.290269 -0.683728 -0.423659 0.385249 0.19882 0.602589 -0.300441 0.154514 -1.04187 0.745525 -0.303277 0.405782 0.900819 0.526049 -0.0446998 0.872161 -0.708155 -0.441165 -1.03295 0.939044 0.18388 0.146535 -0.185134 -1.0311 0.519873 -0.442076 -0.863153 0.804968 0.617978 -0.787421 -0.117191 0.0049193 -0.335164 0.555049 -0.505855 0.921864 0.246423 0.252004 0.130391 0.283512 -0.0105716 0.83525 -0.337416 -0.0354027 0.466814 0.725871 -0.112958 0.805417 -0.6509 -0.0309497 0.878882 0.681484 -0.800647 -0.288015 0.664213 0.792391 0.376836 0.905602 0.662338 0.0505992 -0.83118 -0.377181 -0.856827 -0.122355 -0.828823 -0.395885 -0.26344 0.407284 0.843859 0.908343 -0.309413 -0.106342 0.836762 0.452484 -1.07747 0.392827 0.262284 -0.100039 0.281227 0.694575 0.859362 0.177048 0.39731 -0.884665 0.918674 0.0772673 0.874645 0.2546 -0.0671217 0.486082 -0.702541 -0.372954 
-0.934043 -0.595713 -1.04002 -0.720378 0.0639198 -0.216728 0.770695 -0.011383 -0.238186 -0.461416 -1.03976 -0.304578 -0.89785 -0.986346 -0.780346 0.486807 -0.0184558 0.57321 0.264962 -0.062652 -0.171007 -0.266627 0.0747143 -0.209544 0.857679 0.0704637 -0.816761 -0.0472279 -0.31291 -0.39028 -0.825114 -0.104016 0.16492 -0.723133 0.288454 -0.68207 0.145169 0.154829 0.408061 -0.993228 0.787888 0.472788 -0.161127 -1.00559 0.547483 0.0917967 0.517565 -0.408866 -0.266439 -0.113264 0.637498 0.622377 0.649807 -0.233103 -0.485565 0.612466 0.89289 -0.280703 -0.431339 -0.412072 0.318832 -0.190416 0.596879 -0.370673 0.15988 -0.0767527 -0.0392627 -0.659603 -0.884465 -0.547984 -0.562671 -1.02547 -1.0253 0.292305 -0.956172 0.584402 -0.511299 0.680074 -0.69232 0.328743 -0.32987 -1.01259 -0.00106728 -0.655385 -0.2148 0.542153 -0.960054 -0.214489 -0.617381 -0.290773 0.491264 0.828921 0.613684 0.118031 -0.502054 -0.228022 -0.977462 0.45511 0.139097 -0.830539 -1.11586 0.578551 -0.758123 -1.02729 -0.0104747 -0.640158 0.630726 0.479724 -0.94584 -1.03021 -0.124324 -0.232057 -0.990797 -1.03243 0.227903 -0.0840261 0.591113 0.351613 0.772616 -0.944742 -0.949307 0.274382 0.890008 0.720194 -0.591769 -0.622698 -0.459888 -0.487684 -1.08498 0.762029 -0.211501 -1.06919 0.453805 0.0803373 -1.03878 -0.525405 0.461059 0.629603 -0.975727 0.566824 0.6642 -0.00259866 -0.557247 0.767309 0.0114711 0.705354 -0.27153 -0.328791 0.117787 -0.440164 -0.251651 0.264442 0.903453 -0.22438 0.13464 -0.522134 0.291324 0.81865 0.120425 0.34311 0.709957 -0.956091 0.385765 0.26872 0.221011 0.437217 0.833311 -0.240267 0.169584 -1.0377 -0.552036 -0.0559841 0.0206863 -0.0680543 -0.272853 -0.917393 -0.306318 0.548508 -0.150751 0.861083 -0.872219 0.634052 0.21112 -0.891702 -0.555512 -0.64831 -0.413318 0.746133 -0.80861 0.805535 0.190712 -0.98851 0.900762 -0.380872 0.278452 0.139599 -0.909673 0.146828 -1.03427 0.300344 0.167447 -0.552112 -0.698305 -0.756165 0.46696 0.140735 -0.549185 -0.66269 -0.152068 0.419496 -0.763636 0.014087 0.0742928 0.49646 0.208575 0.636288 -1.02159 0.922231 0.500439 -0.748924 0.80067 -0.265584 -0.69992 0.6867 0.332827 0.593441 -0.114183 0.470336 -0.240667 -0.110497 -0.107473 -0.917811 0.484307 0.302129 -0.570838 0.0220969 -0.447914 0.00973856 0.423078 0.440847 -0.526667 0.754454 -0.439723 0.669235 0.345536 0.856698 0.374161 0.37198 0.824415 -0.0543123 0.634894 0.622433 0.632181 -1.07118 0.374071 0.0593682 0.60244 -0.654896 -0.363938 -0.507719 0.342833 0.59951 -0.353935 -0.123986 -0.0416554 0.161045 -1.01614 0.556766 -0.77182 0.460369 0.105591 -0.204582 0.295147 0.700557 -0.490177 -0.314136 0.618064 0.942762 -0.920268 0.476624 -0.070223 0.84555 0.243446 -0.305561 0.919566 -0.244272 0.891133 0.641973 0.223118 -0.34795 -0.760402 -0.32989 -0.649997 -0.0236718 0.635222 0.380966 -0.769136 0.714028 0.0417029 -0.444601 0.266212 -0.794096 0.419689 -0.386382 -1.03682 -1.03017 0.382541 0.644003 -1.05629 0.492078 0.183181 -0.0775826 0.392968 -0.578198 0.621967 0.331924 0.223506 0.579839 0.0439625 -0.457003 -0.738713 0.302052 0.219112 -0.350144 -0.663249 -0.108907 -0.896505 -0.357722 -0.345107 0.200919 0.234592 -1.01385 0.483783 -0.26514 -0.288136 0.603046 -0.156442 -0.784814 0.294117 -0.169143 0.762753 -0.451444 0.870296 0.272056 0.101085 0.583265 -0.320431 -0.609493 0.235662 0.771343 0.0155681 0.566058 0.147417 -0.741474 -0.733621 0.507152 0.139147 -0.578491 -0.772888 -1.05054 0.684579 0.556221 -0.981391 0.284428 -0.633896 -0.144075 -0.0526254 0.31317 0.155008 -0.639179 -0.758469 0.0154236 -0.00883577 -0.805291 -0.624774 -0.855822 0.844718 0.149568 -0.429906 0.0974552 -0.108751 0.56252 -0.306984 -0.914655 0.871075 0.0201101 0.678276 0.135982 0.509556 -1.03057 0.154383 0.280524 0.590723 0.270711 -0.334559 -0.932294 -0.793601 0.669894 0.456297 0.453961 -0.889409 0.756748 -0.460375 0.147716 -0.975237 -0.0213131 0.318959 0.89547 -0.829485 -0.976603 0.14084 0.196832 0.731634 -1.02078 0.41602 0.715881 0.125701 0.219098 -0.0362865 -0.293647 0.264113 -0.815804 -0.920917 -0.0717719 0.572634 -0.17023 0.0965846 0.870207 -0.393686 -0.376953 0.398138 -0.242348 -0.592718 -1.03969 -1.0073 -0.491616 -0.0144301 0.348715 -0.52974 0.216618 0.439909 0.636212 -0.585587 0.184288 0.646112 0.879489 -0.0469387 -0.163073 0.137547 0.953997 0.601969 -0.57951 -0.840952 0.720171 0.472246 0.828336 -0.386344 -0.380536 0.745862 0.285732 0.322261 0.205632 -0.837143 0.893825 0.345445 -0.705635 -0.55208 -0.627956 0.718456 -0.0068716 0.695969 0.241265 -0.249745 -0.813146 -0.505224 -0.54559 -0.82015 0.549096 0.408969 0.331524 0.447171 -0.0317959 0.841156 0.737132 -0.213733 0.390641 0.621566 0.481618 -0.888797 0.456317 -0.124715 0.539895 -0.185953 0.195273 0.507645 -0.739732 0.575664 -0.935959 -0.26453 0.373005 0.14279 -0.504006 -0.319 0.919826 -0.246071 0.254513 -0.600971 -0.0677656 -0.260861 0.782323 -0.674915 -0.708788 -0.16344 -0.744932 -0.893086 0.688793 0.728459 0.824241 0.265911 -1.08443 0.391804 -0.758979 0.540098 -0.699098 0.520773 0.0961833 -0.366194 0.173157 0.224247 0.395893 -0.41587 -0.619322 -1.02107 0.342894 -0.651448 -0.22601 -0.33959 -0.103336 0.870179 0.535482 -0.176712 -0.670554 -1.04326 0.769239 -0.292733 -0.800211 0.581226 -0.450265 -0.870396 -0.0714422 -0.457074 0.58014 0.254468 -0.835173 -1.0319 -0.087652 0.383486 -0.277654 -0.82211 -0.33565 -0.838831 -0.177485 0.17458 -0.725261 -0.737771 0.607678 0.102719 -0.0521513 -0.405105 0.0776701 -0.388499 0.480124 0.479357 -0.382878 0.315486 -0.729845 -0.114352 -0.0374438 -0.121175 0.0383909 -1.10559 0.445142 -0.297857 0.267256 0.711593 -0.209027 -0.68337 0.211607 0.600777 -0.455491 -1.01809 -1.08119 0.507691 0.241593 -0.774461 0.817574 -0.0469122 0.471719 -0.0507772 0.631457 -0.337532 0.584067 0.124298 -0.827092 -0.617461 -0.405867 -0.386223 0.256487 0.508056 0.46625 -0.628046 0.552209 0.0428941 0.225812 -0.0326134 -0.134612 -0.874315 0.354011 -0.825296 0.829228 -0.93096 -0.640772 0.888751 0.735979 0.722299 -0.731066 0.672628 -0.241951 0.837701 -0.319701 -0.552166 -0.457191 -0.641119 0.693537 -0.158064 -0.205721 -0.700633 0.39659 -0.936888 0.856083 -0.0551184 -0.483025 0.479202 -0.970096 0.826264 -0.457403 -0.00849728 -0.969097 -0.991463 0.266543 -1.01646 -0.817169 0.672976 -1.08066 -1.0203 0.460738 -0.747694 0.705605 -0.716603 -0.855939 -0.510078 -0.167005 -0.241192 -0.0840215 -0.397445 0.712864 0.816991 -0.020175 0.253778 -0.983759 -0.0287177 -0.687866 -0.317212 -0.39019 -0.51091 -0.35092 0.284159 0.589556 -0.207412 0.402213 -0.0314623 -0.125755 0.687437 -0.214407 -0.0237803 0.817783 -0.64957 0.292563 0.56041 -0.272428 0.564543 -0.833461 0.622483 -0.609599 0.144506 -0.713004 -0.802054 0.0902279 0.388105 0.530403 0.166925 -0.624252 0.853718 0.915339 0.0662582 -0.550648 -0.364452 -0.61049 -0.946918 0.441655 0.844102 0.13946 -0.571076 0.703752 -0.941805 0.5098 0.557445 -0.480014 -0.0848757 0.281312 0.371317 -0.433534 0.520003 0.0885601 0.0602172 -0.201199 0.571302 0.404763 -0.972946 -0.00548211 -0.0241383 0.21974 0.551337 -0.0180202 0.288169 -0.38087 0.408856 0.900305 0.0907719 0.597965 0.470503 0.0748903 -0.130849 -0.954814 -0.129427 0.0359099 0.667723 -0.449329 0.768694 -0.200898 -1.02254 0.260987 0.464052 0.598783 -0.515533 -0.327743 -0.481301 -0.93932 -0.917247 -0.445353 0.109585 0.124401 0.871877 -0.297914 -0.88305 0.108305 0.325632 0.559882 0.0749369 -0.513569 0.229632 -0.353483 0.652762 -0.799635 -0.21424 -0.397252 0.34911 -0.424054 0.266936 0.175136 0.423443 0.279779 -0.502232 -0.0139413 -0.0250738 0.020935 0.70039 0.548623 0.186547 0.885826 -0.82481 -0.636678 0.0869037 -0.840151 0.170724 0.278838 0.409529 -0.366072 -0.0218342 -0.371377 0.269692 -0.637123 0.420376 0.0728644 -0.293053 -0.65989 0.803351 -0.816701 0.0369139 0.17492 0.450637 -0.406688 -0.389971 -0.943536 0.671921 0.652997 0.150636 0.488558 0.356137 -0.517072 0.456232 0.603367 -0.0919839 -0.403891 0.857852 -0.776705 -1.0113 0.333773 -0.102585 -0.0311988 -1.03633 -0.780151 0.439249 0.52004 0.377317 -0.852285 0.857973 0.190733 -0.597297 0.00641448 -0.525427 -0.968023 0.789824 0.266351 -0.785003 0.539518 0.0240749 0.519544 0.169379 -0.536473 -0.914016 -0.287385 -0.832185 0.149799 0.492781 -0.835789 0.465347 0.549874 0.58208 -0.555238 -0.298463 0.705593 -0.226302 -0.882517 0.168035 -0.869904 -0.624666 0.170321 0.434024 -0.110153 -0.683587 -0.901409 0.021332 -0.822516 0.416667 0.364314 0.943643 -0.337627 0.0156597 0.218184 0.207976 0.244496 -0.913293 0.52243 -0.534847 0.580317 0.676418 -1.07394 0.151944 0.312073 -0.574761 0.891185 0.0110152 0.20912 -0.937921 -0.730385 0.343627 -0.552263 0.45141 -0.101019 0.466972 -1.12616 0.0810792 -0.405235 -0.842347 -0.384968 -0.931637 -0.843251 0.308456 0.140274 0.456066 -0.397306 -0.553255 0.572683 -0.833657 -0.0251549 0.272501 -1.02907 -0.0156244 -0.494311 0.372349 0.53189 -0.490558 -0.541617 -0.183903 -0.349624 -0.195336 -0.686387 0.258438 -0.573795 0.374984 -0.11959 -0.554751 -0.411235 0.5916 -0.279637 0.327366 0.766229 -0.0195126 -0.220473 0.0582555 -0.467336 0.472841 0.585924 -0.809693 0.711094 -0.3149 0.577524 0.758121 0.729832 -0.766183 0.279483 0.409362 -0.177227 0.786896 -0.718143 0.505321 -0.401164 -0.399956 -0.251383 0.0778688 -0.958052 0.741076 0.531744 -0.299224 0.399294 -0.625891 -0.878883 0.278888 0.517822 0.0464706 -0.493674 -0.797795 -0.331262 -0.751115 -0.455563 -0.460333 0.0588338 -0.72521 -0.564066 -0.0645302 -0.390412 0.852363 -0.527881 0.524236 0.711561 -0.17061 0.139484 -0.543852 0.547252 -0.919499 0.605743 0.600084 0.817507 0.259698 -0.579672 0.322839 0.764337 -0.288627 -0.196058 0.377032 0.832936 0.388998 0.705173 -0.291078 0.858018 -0.607521 0.334209 -0.00917383 -0.209323 0.916456 -0.964001 0.454425 0.753633 -0.507813 -0.0284006 0.477663 0.35295 -0.875814 -1.02618 -0.0807296 -0.819663 0.601044 -0.372179 -1.41287 
0.0961139 0.314779 0.660966 -0.0559521 -0.85902 -0.418045 -0.534693 -0.895018 -0.903006 -0.742051 -0.153802 0.956846 -0.275707 -0.754529 -0.019654 0.545972 -0.87311 -0.0982203 -0.0696685 0.919333 0.480003 -1.04812 0.47464 -0.0518478 -0.80868 0.542139 0.951379 -0.517025 0.268729 -0.227456 -0.253644 -0.610134 0.982899 -0.701842 0.228586 1.03584 -0.232482 0.586119 1.03541 -0.264164 0.762649 -0.20127 -0.414241 -0.655445 -0.0963922 0.460689 0.782413 -0.0199225 -0.59554 -0.279939 -0.0842009 0.90435 -0.293759 -0.615604 -0.112847 -0.0692096 -0.951661 -0.12416 0.39403 0.237454 0.588815 -0.94194 0.49804 0.382599 -0.813361 -0.398787 0.340894 -0.0953362 -0.865773 0.323525 0.608302 0.82642 -0.910003 -0.786075 -0.769583 0.0190918 0.662306 -0.969597 -0.94423 -0.797998 -0.168947 0.0217237 -0.832597 0.59097 0.491424 0.0976255 -0.447115 0.518344 -1.07317 -1.08075 -0.294808 0.456251 -1.09638 -0.798687 -0.117942 -0.827213 -0.147202 -0.719985 0.156629 0.131196 0.800489 -0.0475502 0.156623 -0.995773 0.29353 0.492383 0.128005 0.118492 0.63449 0.266937 0.460803 -0.372893 -0.55241 0.718426 -0.680412 -0.957512 -0.0733322 -0.0337633 0.652336 -0.00563668 0.0164894 -0.484172 -0.422733 0.0964847 -0.0752282 0.71103 0.490621 1.05523 -0.750951 -0.100071 0.412033 -0.772779 1.02963 -0.275164 -0.6124 0.475004 -0.630462 0.681351 -0.275389 -0.864595 0.0640255 -0.736067 -0.209857 0.541748 1.00551 0.120268 0.591076 -0.0994496 -0.945619 0.214981 0.858314 0.0446251 0.705711 -0.541977 -0.84099 -0.375108 -0.79867 0.76585 -0.224237 -0.513012 -0.426548 1.04373 -0.423185 -0.48114 -0.340185 -0.174689 0.856537 -0.117933 -0.589679 -0.481017 -0.00585491 0.415304 -0.300233 0.705397 -0.120661 -0.349815 -0.184001 -0.537786 0.535113 -0.104541 0.723022 0.480822 -0.982994 0.491283 -0.955099 -0.777903 -0.856948 -0.805445 0.956639 -0.189461 -0.450509 -0.66132 -0.304802 0.0039988 -0.226539 0.30922 0.809531 -0.41296 -0.799841 -0.818175 0.0841195 0.192776 0.637963 0.869043 -0.083494 -0.452938 -0.432348 0.872663 0.111837 -0.776873 -0.183857 -0.132569 0.753852 -0.136129 -0.620913 0.79395 0.0594995 -0.504288 -1.03883 -0.0245001 0.274231 -0.51131 0.340529 -0.954756 0.542327 -0.820638 0.441888 0.494905 -0.00552144 0.829488 -1.12435 -0.753213 0.151031 0.621374 -0.776408 -0.778296 -0.709736 -0.103525 -0.765324 0.56367 0.28076 0.141029 -0.467396 0.136373 -0.884476 0.0054591 0.0218251 0.31404 0.649209 0.134056 -0.587883 0.0768351 0.821684 0.978365 0.342973 0.632887 -0.541498 0.054546 0.352879 0.597551 0.0265958 0.385298 0.999552 -0.670191 0.158208 -0.611827 -0.31738 0.579847 0.402216 -0.040556 0.207494 -0.251888 -0.805324 0.71398 0.856587 -0.755767 -0.30174 -0.141159 0.53328 -0.705153 0.944597 0.938578 0.391521 0.772327 0.9322 -0.189732 0.491127 -0.578323 0.737891 -0.315411 0.878883 -0.318265 0.961747 0.768115 -0.0941765 0.00485311 -1.00371 0.495137 -0.472058 0.37212 -0.604652 0.621658 -0.993275 -0.464757 0.349048 0.858491 -0.242083 -0.93775 -0.224938 -0.632493 -0.581711 -0.242792 -0.649646 0.77065 -0.511228 -0.743159 -0.440392 0.903176 -0.380328 -0.816553 -0.556249 -0.676714 -0.280618 -0.668659 -0.95405 0.59354 0.317545 -0.943407 0.0784197 0.808084 0.415052 0.553668 0.496902 0.501349 -0.889939 -0.0362986 0.465943 -0.022971 0.0463758 -0.759316 0.368484 0.44784 -0.0184364 0.720385 0.284337 0.527058 -0.966957 0.851207 0.40097 -0.374868 -0.947059 -1.07036 -0.00510253 -0.153673 -0.659007 0.198132 -0.342878 -1.1431 0.447947 -1.11861 0.842543 0.0196931 0.538372 0.494153 -0.356768 0.754003 -0.401746 -0.738355 -0.11293 0.739864 -0.387437 -0.639518 0.340567 0.729451 -0.786048 -0.232962 0.407738 -0.598677 -0.292483 -0.0710615 0.202206 -0.00356281 0.0894546 -0.558739 -0.85644 0.69995 0.889991 -0.0872263 0.667544 0.460924 -0.0510706 0.661287 -0.367737 -0.370153 0.299794 0.407012 -0.505126 0.899549 0.705796 0.392257 0.677339 -0.705907 0.779465 -0.0150436 -1.01932 -1.04738 0.74557 0.376688 -0.653709 -0.496456 -0.610277 0.638224 0.597138 0.531729 -0.860388 0.719676 0.140405 0.879974 -0.46266 -0.274534 0.234044 0.408446 -0.653888 0.805387 0.901886 0.539051 0.208747 -0.525617 0.493094 -0.125506 0.880427 0.211604 0.224715 0.697024 -0.741064 0.248317 0.736748 -0.887042 -0.214488 -0.780759 -0.234677 0.176751 0.775797 -0.732898 -0.305091 0.846408 0.939009 0.719387 0.598375 -0.682843 -0.652918 -0.256733 0.633316 -0.37825 -0.449428 0.56454 -0.793381 0.733165 -0.937722 0.760286 -0.338775 -0.994165 -0.00602813 -0.998544 0.806722 0.362281 0.325819 0.597992 0.532475 -0.90757 0.798521 -0.731801 0.30496 0.630049 -0.409739 -0.995467 0.448695 -0.498411 0.7414 0.11738 -0.151357 -0.854472 -1.02704 -0.330985 0.00731893 -0.255471 -0.526107 0.359775 -0.342503 -0.307004 0.222433 0.469925 -0.182124 -0.678917 0.610705 -0.224067 0.838144 0.0306472 -0.516744 0.474441 0.275945 -0.582874 0.883852 -0.276926 -0.801574 -0.37968 -0.18297 0.79168 0.289131 -0.241886 0.0712004 -0.654167 0.183018 0.300804 0.276757 -0.638928 -0.784063 0.906898 0.874713 0.0221698 -0.27075 0.239769 -0.363649 0.666036 0.637442 -0.750977 -0.485451 0.552962 0.317647 -0.0481093 0.000292755 -0.425102 0.33622 -0.135315 0.255958 0.501437 0.519899 -0.802485 0.39076 -0.172727 0.00374022 -0.471381 0.227469 -0.77664 0.788993 -0.564416 -0.478696 0.952888 -0.707967 -0.689825 -0.0739635 -0.0770419 0.397576 0.442432 -0.342538 0.16939 0.768408 0.131773 -0.29417 0.122817 -0.843391 0.705434 0.722718 0.555741 -0.285531 0.182083 0.293784 -0.638432 0.434645 -0.351453 0.0949064 -0.624524 0.177586 -0.668818 -0.419109 -0.119886 -0.329 -0.0342886 -0.261641 -0.151754 0.167385 0.597285 0.812065 -0.385675 0.0846315 -0.556545 0.817088 -0.0602884 0.627253 -0.402291 -0.911398 0.903933 -0.545821 -1.05197 0.532233 0.217944 0.141492 -0.254136 0.499814 -0.472598 0.432816 -0.337851 -0.0296984 -0.384446 -0.0342464 0.522761 0.515551 0.706389 -0.503944 -0.689002 -0.330834 -1.14724 -0.876619 -0.327177 -0.31497 0.380495 0.29483 -0.342132 -0.577172 0.0734749 0.362081 -0.383928 0.116721 -1.03247 -0.281116 -0.256897 0.295017 -1.00655 0.686173 -0.017524 -0.322827 0.26116 0.787787 0.792872 -1.01025 -0.102764 0.482808 0.695486 -0.234235 -0.813082 -0.771918 0.648764 -0.706562 -0.43675 -0.464878 0.142941 -0.871293 1.01138 0.960908 -0.322859 0.22204 0.469786 0.476107 -0.534418 0.566821 -0.732754 0.240349 -0.153981 -0.734118 -0.0934423 0.786231 -0.0768504 -0.872086 0.553047 -0.250751 -0.782342 -0.462649 -0.776294 0.918222 0.34051 -0.516575 -0.787832 -0.0184368 -0.310645 -0.224497 0.531582 0.847061 -0.168941 0.494386 0.715348 0.457695 -0.286259 0.280092 0.0430565 0.193792 -0.189997 0.325917 -0.553391 0.694195 0.611841 0.406605 0.602479 -0.317574 0.738564 0.382292 0.562097 -0.988101 0.91419 0.751502 0.960206 0.252356 -0.777075 -0.879408 -0.827128 -0.148932 -0.220344 0.622828 -0.412925 0.531047 0.0794541 -0.633234 0.0384218 0.809054 0.646269 -0.848918 0.134703 -0.434012 0.53944 0.560818 -0.619308 0.30327 0.129206 -0.919745 -0.93876 -0.119274 0.379603 0.540853 -0.156168 0.300333 0.327895 -0.192739 -0.442162 0.522632 -0.0884448 -0.235527 -0.554247 0.701123 -0.553291 0.147407 0.421572 0.740732 0.70571 -0.322158 0.722373 0.530662 -0.0281118 -0.085672 -0.786533 -0.359353 -0.393386 -0.243725 -0.880234 0.892367 -0.070986 -0.71116 -0.0938452 -0.494176 -0.982745 0.906237 0.948246 0.512733 -0.11669 -0.359616 0.151502 0.929071 0.568117 0.776031 0.860318 -0.744548 0.123976 0.497886 -0.805125 0.0418541 -0.632142 -0.895005 -0.24307 0.463834 0.143282 0.107299 -0.713115 0.963721 0.986516 -0.469154 0.893847 -0.0500826 -0.19316 -0.193135 0.436123 -0.171156 -0.273412 0.376736 -0.750587 0.583342 -0.937684 0.484837 0.509642 0.639382 0.308905 0.432331 0.923002 -0.595903 -0.132991 -0.890619 0.432617 0.249825 -0.825527 -0.827631 -0.368642 0.261272 0.27103 0.0153646 0.289167 0.262135 0.508189 0.220104 -0.756797 -0.624496 -0.952708 0.731992 0.279432 -0.110287 0.25664 0.755126 -0.394407 0.39975 0.241699 -0.910399 0.0748706 -0.464207 0.519643 -0.0333136 -0.123931 -0.702009 0.000363026 -0.749466 0.481656 0.118514 -0.582213 -0.80788 -0.565619 0.707489 0.210751 0.788825 0.101045 -0.171798 0.0707224 0.319092 0.345316 0.264734 0.210963 -0.276514 -0.765568 -0.492126 -0.60408 -0.252911 0.848069 0.632654 -0.119968 -0.065852 -0.821993 -0.637421 -1.10997 0.0882434 -0.245088 -0.100646 0.40674 -0.672626 -0.815798 -0.983927 -0.3037 -0.186227 -1.12447 -0.914324 -0.254669 0.0313541 0.0533232 -1.05483 -0.516549 -0.508318 0.320401 0.783902 0.378034 0.73285 -0.534014 0.95017 -0.342928 -0.494796 0.751594 0.69715 0.585603 -0.959798 -0.824041 0.60842 0.290484 0.109956 -0.261879 -0.0272428 0.671789 0.14994 0.184629 -0.423578 -0.816083 0.233708 -0.201955 0.0537547 -0.588611 -0.9546 0.217644 0.108654 -0.26946 -0.309404 -0.0111685 -0.868911 -0.622406 0.486279 -0.92205 0.0601577 -1.03918 0.8309 -0.247655 0.604575 0.9462 0.00210421 0.237631 0.273045 -0.804368 -0.955746 -0.757589 0.806926 0.144593 0.416365 -0.633944 0.337093 -0.37359 0.197715 -0.679348 -0.00674099 0.246432 0.585088 -0.844644 -1.02905 -0.759699 0.164876 -0.866257 -0.244486 -0.251538 -0.728537 0.852386 -0.162442 -0.746906 -0.19671 -0.449275 -0.7315 0.823513 0.768909 0.584194 -0.998784 0.833495 0.835329 0.806351 -0.0782119 0.1955 -0.890132 -0.792637 0.780532 0.317153 -0.38533 -0.163953 -0.387023 -0.772537 0.056788 -0.329942 -0.438492 -0.699029 -0.198026 0.394579 0.144106 0.23257 0.358428 -0.951698 0.52386 -0.911105 -0.472879 0.752802 -1.08063 -0.666692 0.34214 -1.0758 -0.865765 0.158652 0.732879 0.149636 -0.636823 -1.08923 0.455491 -0.68218 0.427487 -0.75307 0.348922 -0.830058 -0.36821 -0.451644 -0.0802597 0.322434 -0.0215717 -1.14528 -0.189944 -0.768853 0.174539 -0.668643 -0.54235 -0.127388 -0.40354 0.151463 -0.185616 -0.325837 0.644818 -0.705564 -0.301198 0.909743 0.600429 -0.385117 0.221723 -0.786817 -0.757914 
