0.398238 -0.837159 0.591802 0.441856 -0.65779 0.76523 -0.00392153 -0.513731 0.254651 -0.774528 -0.0343278 -0.341503 0.775819 0.787642 0.640757 -0.67741 0.652438 -0.103273 -0.566893 -0.135204 -0.93816 -0.383244 -0.732799 -0.18205 -0.305374 -0.158275 -0.539931 0.135333 0.814197 -0.257127 0.181712 0.212435 -0.0942857 -0.226486 -0.34571 0.247924 -0.461255 0.650369 0.734193 0.793396 0.875841 -0.300134 -0.548107 0.65166 -0.512492 -0.90735 0.974249 -0.860055 -0.0106221 -0.592644 0.00474186 0.0512176 0.0241129 0.271943 0.869167 0.718739 -0.886332 -0.670763 -0.145928 0.927864 0.07211 -0.964216 0.140299 0.977824 -0.190701 0.794589 0.225748 0.348043 0.444957 -0.0400583 0.141439 0.320798 0.659807 0.593333 -0.0275423 -0.852685 0.685983 -0.0532931 -0.71274 -0.324639 0.354063 0.292002 0.726578 -0.621824 -0.436055 0.595746 -0.903085 -0.322387 0.924983 -0.0490129 -0.394523 -0.00290721 -0.0132289 0.745776 -0.0250829 0.79607 0.540365 -0.799335 0.144113 -0.014678 0.160607 -0.714448 -0.69388 -0.179586 0.878885 0.278578 -0.0322706 0.564868 -0.774715 0.25499 -0.759771 0.579348 -0.453008 0.966807 0.957524 0.110937 0.562553 -0.94556 0.78855 0.487536 0.0054266 -0.605973 -0.515371 0.992198 -0.860198 0.459546 0.788267 0.680167 0.660211 -0.0676195 -0.334511 -0.179182 0.217933 -0.0283911 0.641233 0.0968177 -0.749813 -0.391038 -0.338314 -0.524529 0.863952 -0.0980855 -0.94518 -0.589056 -0.131278 -0.987656 0.521881 -0.568725 -0.933217 0.310431 0.918811 0.07221 0.704457 -0.59656 0.0644078 0.844259 0.862986 -0.147325 0.524426 0.523198 0.785056 -0.810085 -0.655984 0.00298845 0.161524 0.985249 -0.900194 0.411711 -0.405789 -0.238508 0.887182 -0.541837 0.663406 0.942002 -0.130893 -0.467872 0.954346 -0.609012 -0.0365969 -0.978871 0.701419 -0.117786 0.0933393 0.405876 0.285655 -0.842253 0.250136 0.148641 0.0104223 -0.225438 -0.328162 -0.204522 -0.0355229 0.0158542 0.798466 -0.873999 0.00110295 0.898273 0.537712 0.595314 -0.340236 0.424894 -0.946523 -0.676829 0.366896 -0.0774158 -0.144701 0.321242 0.313573 0.818702 0.342372 0.0149915 -0.299084 -0.564289 -0.579132 0.986571 -0.406542 0.671003 0.135211 0.60388 -0.554435 0.80705 -0.600642 0.410042 -0.177096 -0.802175 0.536044 0.824007 -0.903903 0.0737558 0.419321 -0.244138 -0.50135 0.472798 0.0790322 0.865547 -0.604618 0.934331 0.186789 0.708955 0.753032 -0.470839 -0.276054 -0.546052 -0.0351284 0.144814 -0.559481 0.55833 -0.184183 0.575731 0.16221 0.261383 0.38278 0.561568 -0.328575 -0.794316 0.759393 -0.792531 -0.970309 0.85549 0.281224 0.449012 -0.388648 0.779875 -0.0781899 0.690384 0.645421 0.317192 0.624715 -0.16779 0.0261469 0.377747 0.361371 0.750093 0.831696 -0.673757 -0.105093 -0.727785 0.884572 0.710724 0.847945 0.046782 -0.0278932 0.230726 -0.39165 0.643532 0.43641 -0.632257 0.851 0.466101 -0.776766 0.132225 -0.0848864 -0.165414 -0.0879007 0.836924 -0.47503 -0.442479 0.154116 -0.850315 0.389731 -0.819737 0.527432 -0.248898 0.930356 0.359127 0.0773444 -0.174737 0.631342 -0.0380835 -0.464013 0.479288 -0.991301 0.508094 -0.289986 -0.382951 0.151626 -0.853576 -0.0152079 0.002626 0.612525 0.208026 -0.865149 -0.472361 -0.957389 0.04695 -0.635438 -0.432419 0.604471 0.518678 -0.282734 -0.0057985 0.698941 -0.755302 0.745303 0.629297 0.603825 -0.177352 -0.54544 0.235167 0.784564 -0.00945274 -0.285545 0.793263 -0.501359 0.424469 -0.589688 0.650267 0.570892 0.395104 -0.347107 0.183417 -0.39687 -0.212256 0.711056 -0.354259 0.834694 -0.924382 0.213322 0.439164 0.594297 0.930588 -0.566634 0.293238 -0.824715 -0.821331 -0.0774654 0.77911 0.00131679 0.377095 0.0142779 -0.214119 -0.632358 0.728733 -0.420856 -0.133717 0.153202 -0.0105444 -0.48345 -0.275906 -0.615441 0.169443 0.907511 -0.0123111 0.957187 0.618567 0.63343 0.79188 0.694185 -0.153248 0.231044 0.288482 -0.22266 0.66441 -0.418281 -0.0473748 0.843079 0.504254 -0.268264 -0.155604 -0.118651 0.746014 0.630277 0.248991 0.474746 -0.790579 -0.884726 -0.372052 0.198876 -0.368176 0.352042 0.583436 0.801267 0.259553 -0.428875 0.758453 -0.12188 -0.795445 0.550334 -0.427695 0.0513065 -0.218622 0.860787 0.828646 -0.554212 -0.557494 -0.218729 -0.711133 0.94676 0.513007 0.133262 -0.171891 0.259021 -0.236461 -0.922901 -0.266233 -0.0270401 -0.807627 0.361715 -0.828164 -0.175803 -0.286243 0.755272 -0.374537 0.97331 -0.673603 -0.616083 -0.14857 -0.469049 0.93425 0.423735 0.582258 -0.284372 0.284522 0.410904 0.161416 0.727028 -0.807825 0.450283 0.673788 0.705182 -0.416455 -0.498103 -0.0357969 0.347084 -0.421004 0.69797 -0.679956 -0.228631 0.0596853 -0.508119 0.595566 0.773442 -0.752847 -0.778971 0.746752 -0.426451 -0.395054 -0.401818 0.104501 -0.460804 -0.978083 -0.313242 0.254824 0.306439 -0.902338 -0.58376 0.0334667 -0.710162 0.866523 -0.292745 0.99502 -0.549932 0.209152 -0.0407765 0.797153 0.788148 -0.342806 -0.882803 -0.440483 0.716879 -0.390923 -0.844918 0.490321 -0.14377 -0.623889 0.237074 0.429779 -0.0189431 0.835256 -0.46572 0.520253 0.857172 0.221038 -0.224923 0.163611 0.318701 0.191318 -0.802922 0.608539 0.057841 -0.0956673 0.603559 0.507909 -0.886516 -0.437218 0.305062 0.901632 0.219976 0.422258 -0.538851 -0.063145 -0.968664 -0.383769 -0.572824 -0.112435 -0.00765812 0.66425 -0.682655 0.973399 0.499505 -0.148376 0.493652 0.356678 -0.927338 -0.731271 -0.479711 0.391363 0.460047 -0.282633 -9.85134e-05 -0.482112 0.6217 -0.39654 -0.974203 0.735184 0.166243 0.330859 0.636816 -0.613781 -0.246883 -0.902035 0.323074 -0.215547 -0.285804 0.75025 0.672018 0.706537 0.4145 0.989363 0.679936 -0.085995 -0.159013 0.173588 -0.729317 -0.0863503 0.442317 -0.209028 -0.694987 -0.0976359 0.508339 0.304914 0.420252 0.130038 0.908375 0.446049 -0.134778 0.0746172 -0.223092 -0.497962 0.460836 0.530025 -0.399997 -0.21609 -0.685522 0.314199 -0.465841 0.986497 0.0207361 0.948659 0.97586 -0.299328 -0.137336 -0.183153 0.87426 0.133347 0.730497 0.316577 0.924319 -0.96449 -0.781059 0.432658 0.340424 0.639193 -0.437304 0.248798 0.0852425 0.427918 -0.676585 0.862151 0.929957 0.784251 0.392176 -0.47004 -0.431839 0.706654 0.844159 0.10232 0.693151 -0.135105 0.0509796 0.669011 0.565567 0.913644 -0.514142 0.439827 0.0469908 -0.783645 -0.243596 -0.0286902 -0.748136 -0.0246545 -0.596033 0.592288 -0.385461 -0.0333366 -0.158914 0.699781 -0.605418 0.164502 0.561932 -0.675461 -0.0512468 -0.0458921 -0.145501 0.516914 -0.339238 -0.301342 -0.380765 -0.646087 0.563552 0.670214 -0.977076 0.129119 0.583858 -0.491218 -0.431054 -0.369151 -0.274863 0.325351 0.602158 -0.0229983 -0.699304 -0.993874 -0.43071 -0.0847649 -0.0272107 0.410376 -0.384984 0.367371 -0.425122 -0.823052 0.69191 0.523631 0.131056 -0.453591 0.040545 0.791819 0.245066 0.659779 -0.854268 -0.191381 0.329994 -0.831344 0.937738 -0.0861485 -0.322561 -0.493316 0.5447 0.402576 0.832035 0.146859 -0.620422 -0.867269 0.152984 -0.0511326 0.0479664 -0.874226 -0.640757 0.662983 0.493145 -0.0658788 0.839931 0.185055 -0.542248 -0.0290125 0.731463 0.498297 -0.237194 -0.0234703 0.158077 -0.091462 0.785148 -0.51193 0.0771944 0.722886 0.401922 0.754633 -0.77043 -0.0533782 0.157209 -0.938395 -0.90652 0.536787 -0.805663 0.246465 -0.514346 0.242303 0.372239 -0.155102 -0.0947142 -0.134616 0.779019 -0.254783 -0.949562 -0.763229 0.716204 0.781902 0.735068 -0.52099 -0.241568 -0.106855 0.387549 -0.45642 0.381215 -0.535257 -0.733534 -0.216864 -0.780624 -0.503964 0.729758 0.376585 -0.442358 0.823239 -0.0866278 -0.248022 0.0697034 0.399027 0.994281 -0.558058 -0.756076 -0.100433 0.307326 -0.977057 0.644784 0.357764 -0.740286 0.360988 0.139666 0.994782 0.839999 0.898098 -0.112073 0.227547 -0.558322 -0.730858 0.69229 -0.291857 0.052278 0.911666 0.20418 -0.217964 0.288251 0.761821 -0.394725 -0.798376 -0.486201 0.674978 0.60065 -0.491919 -0.88308 0.844574 0.407648 0.424246 0.867518 0.0524315 -0.21799 -0.872768 -0.58658 0.921676 -0.877986 -0.746581 0.819774 0.00994087 0.480966 -0.738549 0.279083 0.173256 -0.0304054 -0.668639 0.0849222 -0.826226 0.113397 -0.626826 0.935596 0.718672 -0.425203 -0.550605 0.39365 -0.824553 -0.0425242 0.51057 -0.979979 -0.634877 -0.0651841 0.887539 0.417555 0.716826 -0.985229 0.830975 0.638502 -0.863215 -0.915607 0.458275 0.146726 0.565359 0.719727 -0.574192 -0.261385 -0.310679 -0.242831 0.823537 -0.136905 0.870566 -0.803289 -0.201309 0.589237 -0.228492 0.248086 -0.0171131 -0.0530448 -0.794438 -0.506543 -0.0330233 -0.429315 0.428273 -0.145484 0.98824 0.145099 -0.130713 0.819215 -0.216399 0.00607136 0.903608 -0.758124 -0.847203 0.468967 0.961603 -0.421395 -0.792417 -0.349076 0.335774 -0.96888 0.514019 0.20634 -0.772169 -0.68729 -0.204423 -0.000660958 0.560796 0.778464 0.946294 0.766358 -0.728079 -0.0867291 -0.662956 0.700193 0.767787 -0.674716 -0.154708 -0.362927 -0.855501 0.628893 0.643144 -0.951893 0.870769 0.795942 0.517075 0.832371 -0.625453 0.724657 -0.516705 0.710321 0.755777 0.997314 -0.0833396 0.983608 -0.689976 0.712237 -0.0170527 0.870821 0.490701 -0.0707585 0.637179 0.762621 0.842512 0.974223 0.462815 0.610299 -0.700493 -0.691893 -0.752628 -0.555994 0.936999 0.890517 -0.507887 0.807768 0.686458 -0.990812 0.640139 -0.938995 0.733845 -0.876566 0.771326 0.489622 -0.879252 -0.312014 0.47323 -0.569227 -0.599777 -0.543822 -0.698406 0.890924 0.385419 0.938773 0.653545 0.227932 0.912996 0.11636 -0.161769 -0.787497 0.424467 0.0856028 -0.343491 0.361466 -0.0238806 0.148622 0.169234 -0.337422 0.15781 -0.190626 -0.276417 -0.108345 -0.067192 -0.505092 -0.618723 0.0535565 0.182895 0.854507 0.484329 0.583118 -0.689315 0.785923 0.474042 0.696104 0.724696 0.127588 -0.0759645 0.637693 -0.756052 0.762266 0.850196 0.668415 -0.152131 -0.493295 0.0298811 0.823988 0.655327 -0.800884 -0.513434 -0.186863 0.00848924 0.210148 0.704792 0.941297 0.705057 -0.913932 -0.00514631 -0.112049 0.940575 -0.520817 -0.528931 -0.74874 -0.734894 0.945112 0.947364 0.989803 0.0726992 -0.128601 0.627495 0.316647 -0.366334 0.477691 -0.0149383 0.481534 
1.01976 -0.949178 0.34538 0.681995 -0.742253 0.835323 -0.503173 0.266802 0.045605 -0.804007 0.199967 -0.256792 -0.717083 -0.795805 0.639872 -0.771102 -0.317194 -0.889085 -0.520501 -0.0790509 -0.97372 -0.617047 -0.0472167 0.144001 0.31526 -0.473805 -0.583858 0.906913 1.00479 0.391923 0.375613 0.990618 0.406228 -0.319766 0.627296 0.625878 -0.517394 -0.908712 -0.148097 0.485892 -0.762822 -0.951563 -0.775841 -0.476546 -0.791424 0.80799 -0.303319 -0.161558 0.880047 0.136353 0.742088 0.896361 0.519874 -0.359319 -0.0180307 -0.216378 0.180894 0.399751 -0.313436 0.158174 -0.229231 0.977795 0.0335396 -0.941079 -0.39794 -0.350633 0.712293 0.115939 -0.227159 -0.434991 -0.422498 -4.87373e-06 -0.449021 -0.240249 0.480786 -0.289342 -0.472214 -0.889314 0.514754 -0.659637 0.207093 0.184846 -0.809562 -0.313812 0.768649 0.114821 0.361934 -0.166964 -0.601328 -0.981454 -1.01126 0.160172 -0.987098 0.0185578 0.227377 -0.371193 0.901825 0.124234 0.91773 -0.309532 0.698202 -0.477994 0.71884 -0.732837 0.29805 0.21475 0.00273966 0.851172 0.378141 -0.508768 -0.80564 -0.40955 0.768602 -0.519597 0.372529 0.602791 0.656801 -0.159528 -0.460018 -0.840013 -0.0685175 -0.413517 0.381167 0.00736174 0.732143 -0.27097 0.750819 0.599496 0.817692 0.639162 -0.743828 0.480366 -0.871302 0.936602 0.718943 0.39478 0.117719 -0.314757 0.204859 -0.545865 0.185872 0.406836 0.0528642 -0.0825601 0.851649 -0.614715 -0.523648 0.506559 0.165463 -0.00770424 0.602245 -0.90514 0.485155 -0.104206 0.0220076 0.19914 0.596032 -0.262783 -0.248651 0.379095 -0.659389 -0.0321522 -0.17651 -0.561597 -0.128609 -0.498196 0.790147 0.946637 0.133249 -0.0189436 -0.610602 -0.686162 -0.660462 0.389223 0.17783 -0.856301 0.732512 0.612546 0.567815 -0.121262 -0.454341 0.114804 -0.0866758 1.05497 1.02722 0.940316 0.21982 0.612858 -0.323139 0.970333 -0.137544 -0.112181 -0.174924 0.692229 0.366385 0.738862 -0.780213 0.131498 0.646205 0.331172 -0.947484 -1.00771 0.596317 -0.653175 0.340533 -0.295688 -0.543192 0.0023326 -0.720138 -1.04601 0.837115 -0.216578 0.0220252 -0.295255 -0.285789 -0.0751421 -0.476403 0.925112 -0.482335 0.174135 0.848802 0.385082 -0.929894 -0.318429 0.281824 0.588361 -0.427042 0.501235 -0.271134 -0.751652 -0.147718 -0.198219 -0.740215 -0.530428 0.173512 0.621393 0.224013 0.605856 -0.37056 0.512452 0.65335 -0.435346 -0.612295 -0.272148 0.316627 0.208885 0.75438 0.938867 0.205777 -0.662314 0.177515 0.116531 0.849711 0.366853 0.916651 0.091638 -0.0795077 -0.543251 -0.443615 0.617174 -0.326647 0.376428 -0.612055 -0.100909 0.801191 0.514848 -0.525887 -0.0141007 0.124704 0.109971 -0.442693 -0.20314 0.634667 -0.130016 0.417855 -0.139403 0.948965 0.116952 -0.205049 0.0984483 0.388155 0.901331 -0.802134 0.169707 0.177878 -0.915034 -0.756823 -0.952162 -0.44857 -0.178178 0.690219 0.146814 -0.883379 -0.978969 -1.01731 0.842204 0.502145 -0.510573 -0.152389 -0.335954 0.568435 0.339988 0.355926 0.161521 -0.846931 -0.246583 1.07123 -0.853423 0.888138 -0.213552 0.255654 0.27731 -0.212427 0.572884 -0.512666 0.934921 0.593383 -0.34071 -1.02129 -0.967842 0.476328 0.750427 0.288355 0.639277 0.853686 0.288212 0.483252 0.360856 0.763664 -0.679153 -1.01713 0.289319 0.625582 0.31344 -0.576353 0.743804 -0.968875 -0.591693 0.814897 0.829657 0.155582 0.0511552 -0.00297334 0.782261 -0.547775 0.460862 0.74465 -1.01198 -0.908556 0.728421 -0.807919 0.672333 0.677353 0.551902 0.367761 0.526509 -0.134772 -0.107703 -0.0830338 -0.358518 0.226519 -0.0818132 0.948088 -0.173635 -0.793176 -0.668423 -0.423959 -0.696927 -0.202109 -0.534362 -0.851072 0.966878 0.577556 0.268788 0.806646 -0.96291 -0.285648 0.617803 -0.840644 -0.0609528 0.45898 -0.613138 -0.363496 0.100202 0.921522 0.97841 -0.406339 -0.25451 -0.162903 0.478156 0.343061 1.009 -0.65854 0.253459 -0.150271 -0.436076 0.611181 0.483971 -0.14489 -0.554757 0.853945 -0.0347248 -0.662986 0.382903 -0.977258 -0.906899 0.270694 -0.324002 0.578502 0.362458 0.457301 -0.138918 0.60599 -0.943045 -1.11851 0.467466 -0.97087 -0.414126 -0.726056 -0.190043 0.984881 0.577788 -0.16039 -0.719051 -0.20528 0.607291 -0.228435 -0.64501 0.00373472 0.59805 -0.296854 -0.13587 -0.466699 0.0419591 -0.80042 -0.344867 0.0424428 0.397901 0.20305 -0.479588 -0.204875 -0.208223 0.490877 -0.451128 -0.0453215 0.495784 -0.926367 -0.0224281 -1.03313 -0.634445 0.914093 -0.911986 -0.938812 -0.294487 -0.668907 -0.145372 -0.626434 0.165812 0.173301 0.350289 -0.320033 0.817847 -0.877692 0.0880776 -0.309048 -0.795338 0.528543 0.577809 0.534279 -0.323417 -1.01317 -0.766229 0.352698 0.456936 -0.244145 -0.806874 -0.141845 -0.212461 0.294869 0.0107055 0.363756 0.252796 0.144882 0.38657 0.97253 0.486767 -0.791005 -0.692533 -0.392074 0.375236 0.658772 0.305826 0.206805 0.801284 -0.592028 0.919992 1.014 0.952535 0.516266 0.630787 -0.295171 0.636496 0.864712 -0.943313 0.103206 -0.298904 -0.603383 -0.948787 0.583555 0.732968 0.112703 -0.0665589 -0.0507931 -0.759692 -0.735882 -0.116611 0.697906 -0.541088 0.179085 -0.742857 0.763897 -0.223327 0.508785 0.0197826 -0.404799 0.826649 -0.205999 -0.493652 0.795968 -0.638674 1.16543 -0.578338 0.781493 0.800241 -0.688891 -0.231443 -0.532871 -0.300665 -0.231095 0.863153 -0.760817 0.726258 -0.289632 0.132389 -1.01155 0.0934669 -0.957933 0.581224 0.362112 0.193678 0.810213 0.0383359 0.831598 0.283464 0.953959 -0.630563 0.107996 -0.183236 -0.157693 -0.205666 0.0666004 -0.122639 0.176971 -0.0825904 -0.299872 0.504919 0.556311 -0.0223552 -0.945205 -0.68143 -0.0331779 -0.599094 -0.795655 0.77043 0.627528 -0.82488 -0.341614 0.422254 0.673498 -0.947646 -0.235015 0.516476 0.15302 -0.427302 -0.215984 0.165944 -0.143326 0.800688 0.84893 0.616343 -0.473298 -0.19564 -0.638337 0.553197 0.487297 -0.153296 -0.113972 -0.0391574 0.771343 -0.116841 0.213917 -0.436397 0.137502 0.204436 -0.799106 -0.288634 0.381959 -0.0501839 -0.615675 0.199925 0.112218 0.0906203 -0.285512 -0.733644 0.628748 0.456686 0.374364 -0.523571 0.228615 0.230904 -0.895151 0.749889 1.03676 -0.551348 0.299085 0.523283 0.368654 -0.73776 -0.437177 0.100228 0.116471 0.73485 0.786088 -0.637274 0.101483 -0.920879 0.109861 -0.448539 0.121184 0.467648 0.699619 -0.818675 -0.476784 -0.612597 -0.562188 -0.868729 0.806679 0.755851 -0.466326 0.0461783 -0.0761033 -0.382456 -0.30584 -0.125862 -0.00528622 0.992361 -0.436041 -0.598361 -0.810448 -0.206418 0.234384 -0.0184097 -0.584732 -0.101173 0.367443 0.512192 -0.0149626 -0.685266 0.827425 -1.114 0.756234 0.542032 -0.952873 -0.808699 0.853798 -0.569097 -0.795562 0.559404 -0.870091 -0.212121 -0.52794 0.0209408 0.357593 0.0914108 0.861434 -0.677983 0.0754025 -0.78143 -0.448363 0.193473 0.0844594 0.865018 -0.77553 0.543243 -0.26259 0.504925 -0.0607511 0.689078 0.903467 -0.144175 0.702115 0.773358 -0.561183 0.811672 0.898536 -0.874772 -0.85468 -0.851159 0.856801 -0.636458 0.031738 -0.612978 0.369808 -0.715116 0.474951 0.197094 -0.437752 -0.549926 0.324539 -0.0106326 0.420549 -0.75482 -0.329928 0.485493 0.588249 0.302846 -0.0742084 -0.549252 -0.0720402 -0.291526 0.206095 -0.493525 -0.618151 0.63947 -0.671735 -0.636166 0.968168 -0.368467 -0.342229 0.81955 -0.0153725 0.650109 -0.839189 -0.682067 0.93336 0.615376 0.477484 -0.543579 1.03722 -0.212589 0.442596 0.472922 0.0430973 -0.848416 0.0399094 -0.306888 0.439494 0.925307 0.14644 -0.579334 -0.250862 -0.579959 -0.0198296 0.19712 1.06553 0.280182 0.514643 0.930234 0.863395 -0.841748 0.75719 -0.160389 0.864539 0.933855 0.178544 0.73633 0.515854 -0.400115 -0.863732 0.450499 0.326704 0.474927 -0.105807 -0.654374 0.645299 0.862592 -0.0581797 -0.0202321 0.633843 0.816628 0.203222 -0.767483 -0.810367 -0.800963 0.422626 -0.852271 0.327657 -0.174223 -0.883465 0.364799 0.0700889 0.813816 -1.02294 -0.237475 0.669835 0.140162 -0.520945 0.0633337 0.598795 -0.511489 -0.49042 -0.119962 0.97467 0.399044 0.246798 0.549393 0.186201 1.0677 -0.539747 -0.188301 0.947786 0.704845 -0.0116249 1.04899 0.760689 -0.608938 -0.750878 0.177945 0.282511 -0.617857 -0.531609 -0.652875 -0.865318 -0.572963 0.0185781 0.724467 0.592611 0.463731 -0.101786 0.314638 1.01006 0.398016 -0.831853 0.876607 -0.312946 0.29435 0.322326 0.679737 0.237418 0.664317 -0.698466 0.00207836 0.19317 0.238858 0.00273378 -0.104889 0.541131 0.118476 -1.05403 -0.244746 0.45915 -0.62631 0.0131629 0.584208 -0.109606 -0.86394 0.44521 -0.532942 0.598722 -0.712097 0.678188 0.529452 0.608691 0.800147 0.383568 -0.777973 0.0542372 -0.317347 0.895955 -0.700144 -0.58058 -0.705492 0.345943 0.536743 0.476281 -0.685852 -0.504477 0.056281 0.525481 -0.464431 0.823902 0.00209097 -0.161729 -0.219495 -0.470605 0.673964 -0.100232 0.971475 -0.861148 -0.5138 -0.675261 0.860092 1.01421 0.91628 0.639717 0.364002 0.992888 -0.394893 1.04073 0.973812 -0.109367 -0.634458 1.04602 1.04645 0.774207 0.40066 -0.774326 -0.936558 -0.683096 0.671265 -0.384226 -0.85458 -0.351969 0.408492 -0.0689875 0.133296 0.208774 0.843072 0.0808159 0.185101 -0.76397 0.247338 -0.00705473 -0.854176 0.0830294 -0.5169 0.391905 -0.0350908 0.00688048 0.308982 -0.255596 0.733094 0.557321 -0.301055 0.733554 0.302453 -0.836928 0.991007 0.357046 -0.541309 0.596802 0.847909 -0.506791 -0.778347 0.349881 0.466809 0.435823 -0.625904 0.127271 -0.562468 0.476652 0.179188 0.553203 -0.728405 0.346523 -0.437925 -0.318449 -0.256085 0.593454 0.732343 0.965748 -0.692073 0.397164 0.450009 -0.0755397 0.00154142 -0.42917 -0.0714813 -0.122551 0.816512 0.274782 -0.580693 0.644912 0.647775 -0.49041 -0.204239 -0.0669328 0.828181 0.0748005 -0.97802 -0.837248 -0.511986 0.307718 0.819019 -0.128773 -0.398444 -0.60814 0.577051 0.246094 0.896073 0.209064 0.146836 -0.882734 -0.508668 -0.511399 0.0326956 0.506254 0.0874154 1.00318 -0.569175 -0.0305665 0.22913 -0.179737 -0.418195 -0.0318323 0.416537 0.425986 0.957935 0.262929 -0.454949 0.994859 0.376704 -0.03269 0.186191 0.180097 
0.841997 0.797459 0.526711 0.372833 -0.00420765 0.380964 -0.460807 -0.89512 0.456247 0.0155396 -0.420181 -0.576942 -0.535793 0.602472 -0.696277 -0.224156 -0.552776 0.46191 0.512084 -0.0524468 -0.664049 -0.173238 -0.703726 -0.781047 1.00114 -0.247936 -0.846539 0.356604 0.725682 0.337303 -0.522363 0.502488 0.0840501 0.961 -0.167222 -0.966226 0.273117 0.307462 -0.929628 -0.287819 -0.700371 -0.37077 0.0880537 -0.28605 -0.841709 0.31919 0.443012 -0.414453 -0.240121 -0.0888631 0.486559 0.0495525 0.692942 0.735112 0.222549 0.645887 -0.55963 0.328513 -0.0782723 -0.921397 -0.374498 0.40061 0.582657 0.677564 0.347876 -0.599434 0.693636 -0.388053 0.693788 0.754415 0.288293 0.958084 -0.649668 -0.659684 -0.363043 -0.502444 0.64677 -0.954655 0.0486592 -0.62309 -0.0724679 -0.493687 0.398501 -0.409158 -0.788106 -0.427965 -0.812005 -0.396475 0.868365 0.114329 -0.350314 -0.570659 -0.547563 -0.749704 -0.874052 0.802349 -0.397941 0.781668 -0.621835 -0.728277 0.505999 0.632145 -0.807589 0.818779 0.936447 -0.204945 -0.718082 0.557212 -0.183957 0.304618 0.904413 0.72437 0.791436 0.284499 -0.71794 0.972384 0.843713 -0.542203 -0.436409 0.702794 0.562881 0.240346 -0.832034 -0.949152 0.475083 -0.727955 0.831499 -0.927037 1.03906 -0.808896 -0.677491 0.518461 0.796736 -0.511914 0.313535 0.714355 0.260346 0.571509 0.240647 -0.953091 -0.148385 0.119968 0.73072 -0.397124 -0.635506 0.971827 -0.467314 -0.831895 -0.607801 0.0566276 0.828009 0.91587 -0.740488 0.950317 0.913671 0.694992 -0.816666 0.706999 0.709162 -0.844462 0.835008 0.989455 0.633799 0.587726 -0.592814 -0.120243 0.230664 0.647704 -0.571897 -0.549863 0.649694 0.229464 0.496633 0.307919 0.785354 0.837591 0.259531 -0.725486 0.961285 0.604295 0.286703 0.745796 0.449143 0.477088 0.649351 0.343305 0.14962 0.781327 -0.00271911 -0.175259 0.900858 -0.20015 -0.203691 0.518034 -0.631678 0.193248 -0.616806 0.588307 -0.202444 -0.231835 0.997031 -0.581204 0.970453 0.486298 0.71425 0.721146 0.294847 -0.0578032 0.965689 0.231835 -0.472616 0.232115 -0.0570469 0.943891 -0.361646 -0.494158 0.257151 0.79215 -0.747456 -0.808216 -0.439336 -0.826665 -0.00395154 0.343514 0.643023 0.324803 -0.490159 0.977903 -0.117315 0.284546 -0.260568 -0.138735 0.663889 -0.324144 -0.681895 0.316024 -0.671444 0.580567 -0.737449 -0.691437 -0.213014 -0.240435 0.511807 0.708266 -0.301223 -0.825017 -0.761836 0.943829 0.960609 -0.480548 -0.841171 -0.454601 -0.319892 0.155134 0.884447 -0.678315 -0.522185 -0.622092 -0.702267 0.346391 0.633348 0.0130848 -0.82032 0.274208 0.663978 -0.52717 -0.397404 1.00338 1.03251 -0.158214 -0.714967 -0.208925 0.570305 0.754032 -0.544175 -0.771833 0.8925 -0.349304 -0.869644 0.813396 0.137605 -0.744282 -0.689884 0.768525 0.357042 -0.870094 1.02974 0.771727 -0.525545 -0.719737 0.0626754 -0.949549 0.208316 0.18276 0.256561 -0.147308 0.630138 0.843054 -0.208753 0.594643 -0.389507 -0.0115267 -0.67353 -0.876881 -0.237076 -0.224881 -0.659576 -0.395088 0.379045 -0.575912 -0.652713 -0.556746 -0.395353 -0.360871 -0.846356 0.904119 -0.255635 -0.81577 0.681167 0.185651 -0.554723 -0.266098 0.222684 0.650741 0.896997 -0.536203 -0.528067 0.505866 -0.724478 0.245905 0.0854817 -0.120063 -0.736948 0.413187 0.00969283 -0.00593269 -0.832795 0.333058 0.574448 0.509415 0.666078 0.855038 0.886128 -0.74748 -0.490551 -0.937507 -0.891599 0.12867 -0.826386 0.811363 -0.658851 -0.372666 -0.45961 0.581168 -0.706657 -0.565899 1.01941 -0.298246 0.872755 -0.726501 0.943555 -0.0749426 0.122798 -0.834444 -0.692404 -0.894565 0.142162 -0.534195 0.390778 -0.323438 0.948841 0.0815154 -0.437388 0.86097 0.358436 0.0542938 0.92961 0.541059 -0.735628 -0.829221 0.394378 -0.365767 -0.173194 0.945583 -0.794872 0.0765583 -0.658231 -0.826471 0.734928 -0.811732 -0.590173 0.63244 0.10253 0.503715 0.768157 0.423445 0.583177 -0.116519 0.849134 -0.0609664 0.50241 0.731684 0.951254 1.01664 0.539972 0.261001 0.0238942 0.431353 -0.236592 0.240029 0.561679 -0.888731 0.823723 -0.698421 0.975593 0.944619 0.306371 -0.76158 -0.937256 -0.0393536 -0.644425 -0.594964 -0.428807 0.437149 0.895832 -0.695011 -0.217584 0.389096 0.0962632 -0.476431 -0.755246 -0.471354 -0.73501 -0.808634 -0.456439 0.765897 0.403725 0.515056 0.162073 -0.890074 -0.311751 -0.370227 -0.852585 -0.541047 -0.0774954 -0.865889 -0.574354 -0.800167 -0.643411 -0.528187 0.174422 -0.299057 -0.139587 0.70896 -0.888691 -0.276506 0.981532 -0.114506 -0.894738 0.0640194 0.438096 -0.648228 0.602287 0.683366 -0.491289 -0.898143 0.403682 0.88411 0.556685 -0.521627 0.924744 -0.792504 0.121709 -0.945123 -0.366341 -1.06753 -0.892672 0.0488576 -0.812848 -0.49854 0.511464 0.350597 0.213286 -0.601495 0.0220905 0.27445 0.113161 0.0224232 -0.817493 0.158148 -0.984907 0.547328 0.455186 0.616906 0.235469 0.98249 0.69658 -0.39039 0.830126 0.258591 0.104726 0.772179 0.50281 -0.771819 0.865541 -0.79279 -0.749849 -0.93283 0.320999 -0.496625 -0.372993 -0.122652 0.825073 0.780782 0.213615 -0.188208 0.0410914 -0.737897 0.760264 0.147219 0.374413 0.76163 -0.302759 -0.159745 0.350948 0.876338 -0.241491 -0.00820824 -0.577244 -0.444899 -0.77465 0.483394 -0.739882 0.65658 0.655416 -0.94569 0.800782 0.849898 -0.930212 0.0508836 -0.762063 -0.403751 0.838207 0.966823 -0.697407 -0.0454686 -0.313486 0.226622 0.125223 -0.626997 -0.650146 -0.523822 -0.88701 -0.00923667 0.23534 0.386052 -0.216513 0.895385 -0.696698 0.135454 -0.56181 -0.507524 -0.419296 -0.384862 -0.940344 -0.824958 -0.362964 0.822744 0.98 -0.329439 -0.178132 -0.822694 0.258538 -0.337415 -0.856905 0.523953 0.61939 -0.164619 -0.232055 -0.26287 0.19723 0.0878747 0.192137 0.292757 -0.947617 -0.58219 -0.329324 -0.174186 -0.654029 -0.0199997 0.966978 -0.249273 0.435889 -0.477326 0.348707 0.493586 -0.30199 0.983943 0.307653 -0.338264 -0.378281 -0.941751 -0.228642 0.806682 -0.28739 -0.0829657 0.338555 -0.694615 0.690815 -0.954028 0.0581855 -0.0745239 0.165314 -0.729921 -0.751694 0.22615 -0.371376 -0.171773 0.963436 -0.0909245 0.787421 0.93763 0.671856 0.205102 -0.558587 -0.013995 -0.350751 0.0990601 -0.0591322 0.93348 0.750656 0.56372 1.03292 -0.413568 0.431374 -0.185563 0.573298 -0.167263 0.160449 0.308792 -0.0770763 -0.798546 -0.792028 1.03757 -0.638069 -0.647623 0.203557 -0.0548008 0.145898 0.153243 0.848666 -0.0857454 0.059428 0.459875 1.05799 0.447511 -0.592541 -0.313686 -0.475802 0.305302 -0.455665 -0.803635 -0.219283 -0.476185 -0.297611 -0.856444 0.246882 -0.820335 -0.125363 -0.681852 0.397049 0.688199 -0.590734 0.488377 0.611506 -0.345371 0.744613 -0.256301 0.556132 -0.139644 0.880023 0.342702 0.701638 -0.145877 -0.271808 0.694064 -0.731425 0.0866708 -0.670228 -0.281634 -0.684489 -0.186986 -0.15025 0.0258247 0.288663 0.516338 0.137657 -0.521046 0.595593 0.937653 -0.231171 0.0246677 0.648374 0.164821 -0.495302 0.269821 0.833886 -0.754598 1.01772 0.372746 0.0938528 0.87463 -0.298599 -0.21406 -0.276249 0.42151 -0.523614 -0.0426982 -0.523396 -0.235488 0.624901 -0.261687 0.518806 -0.572763 0.746237 -0.19426 0.947527 -0.115918 0.277902 0.526212 -0.216936 -0.98697 -0.4661 -0.56558 0.173792 0.028175 0.677835 -0.0332511 0.24469 0.664797 -0.650569 -0.620674 0.605685 0.0740153 0.117815 -0.794111 -0.613634 0.516738 0.13654 -0.134974 -0.707008 -0.224758 0.582437 0.798436 0.180207 0.305642 -0.40999 0.102496 -0.827929 0.874194 -0.34287 0.0234875 0.952914 0.256605 0.527728 0.165265 -0.688967 0.202754 -0.848349 0.563019 -0.113768 -0.543944 0.83847 -0.617515 0.474289 -0.0891553 -0.432501 0.842006 -0.607196 0.706446 -0.350665 -0.386197 -0.587343 -0.822219 -0.629791 0.556092 0.436988 -0.0917973 -0.408767 0.549868 -0.284526 0.197796 -0.521608 -0.434069 -0.632119 0.907909 0.645801 -0.416216 0.021441 0.713053 -0.951621 0.801571 -0.934222 0.77337 -0.92182 0.471616 -0.385762 -0.370302 0.25884 -0.0422026 -0.75357 0.816456 0.484638 -0.390829 0.950592 0.805639 -0.905682 0.316403 -0.352835 -0.381951 -0.195838 0.3118 0.780657 0.235985 0.832943 -0.920111 0.0524461 0.399777 -0.362326 -0.919407 0.104625 -0.358443 0.885384 0.191475 -0.559688 0.961524 -0.358503 0.036952 -0.438445 0.869394 0.963866 -0.20292 0.678824 0.439316 0.378081 0.594701 0.213961 0.455692 -0.114968 0.793956 0.951961 0.584745 0.0821209 0.774367 -0.10549 -0.0768081 0.834894 0.952267 -0.6834 -0.567795 -0.974618 0.391672 0.0819798 0.865549 -0.407987 0.531899 0.83397 0.187513 -0.463965 -0.59701 0.113983 -0.491272 0.140891 -0.28073 0.837369 -0.56203 -0.722918 0.068791 0.882607 0.14005 -0.109258 0.887816 -0.278328 0.910593 0.606195 0.570754 -0.202918 0.431847 0.508608 0.140377 0.901336 0.534938 -0.402085 0.0537964 0.460108 0.181135 -0.447788 0.245087 -0.627028 0.0334212 0.552483 0.372039 0.50216 -0.348058 1.03388 0.336494 0.0636388 -0.745115 -0.666033 -0.114693 0.303531 0.122689 -0.292042 0.986662 -0.00823845 -0.740975 0.492498 0.73796 0.636339 -0.0535174 -0.21414 0.456155 -0.560156 0.323763 -0.579733 0.775526 -0.607775 -0.115794 -0.0624492 -0.346911 0.815617 -0.626164 0.927746 0.248703 -0.0330211 0.93016 -0.493413 0.966284 -0.934234 -0.264588 -0.245769 0.328944 0.816247 0.410137 0.248991 -0.255554 0.609257 -0.330328 -0.589974 0.183422 0.571983 0.170406 -0.382988 0.940897 -0.652766 -0.0646596 0.66959 -0.258133 0.811378 -0.441981 0.398611 0.650493 -0.0427459 0.311174 -0.133894 0.896768 0.19851 0.340341 0.826919 0.262077 -0.924745 -0.420843 -0.432404 0.861824 0.977909 0.795272 -0.416276 0.479187 -0.642994 -0.113889 -0.342305 0.938275 -0.924643 0.255785 0.89573 -0.507107 -0.752895 0.543009 0.22077 -0.987336 -0.917717 -0.474918 0.612061 0.0163696 0.841683 -0.531931 -0.12295 0.0423599 0.858995 -0.265647 -0.712527 0.848537 0.213162 -0.227995 0.6619 0.135752 -0.470575 -0.798462 -0.303489 -0.0636421 0.122792 0.317443 -0.148481 0.187679 -0.461879 -0.300129 0.598331 -0.271497 -0.7632 -0.176625 -0.234499 -0.688088 0.37696 -0.608486 0.239721 
0.100928 -0.229415 -0.937744 -0.955981 -0.497299 -0.306854 -0.714399 -0.691341 0.877821 -0.0255233 0.884952 -0.052357 0.428735 -1.00381 0.521646 -0.728309 0.0796958 -0.243829 0.0362027 -0.816064 0.259684 0.701842 0.734702 0.890021 0.819186 -0.529413 -0.45147 -0.9858 0.729349 -0.160073 0.212568 -0.189169 0.595685 0.270664 -0.12516 -0.929698 0.929902 0.11618 -0.638315 0.809696 -0.906267 -0.723265 -0.213451 0.594932 -0.626768 -0.575056 0.966665 0.530413 0.198567 0.0327395 0.680299 -0.634437 -0.350959 0.442095 -0.71411 -0.480041 0.928175 -0.15335 -0.472344 0.657297 0.697725 0.758099 -0.516879 0.26081 0.0188434 0.342448 0.341798 -0.0467844 -0.541942 0.705904 -0.248596 -0.422565 -1.03176 0.526299 -0.835249 -0.685916 0.822399 -0.984057 0.719075 -0.0879447 -0.0713857 0.334967 0.249487 0.480262 -0.285448 0.473459 -1.00978 -0.452239 -0.707529 -0.504757 -0.830636 -1.04996 -0.77141 -0.353939 0.237184 0.194054 -1.04389 -0.43732 -0.848489 -0.567102 -0.712256 -0.0744984 0.00623581 -0.73778 -0.560804 0.214722 -0.386332 -0.66993 0.25989 -0.614001 0.298717 -0.769162 0.764303 -0.415513 0.83013 -0.476502 -0.887175 0.875554 0.139879 -0.558492 -0.606099 0.347274 -0.551163 -0.342528 -0.972757 0.718933 0.954253 -0.935667 -0.625896 -0.827647 -0.430808 -0.287967 0.169113 0.683717 0.0999129 0.673773 -0.068449 0.740517 -0.945047 -0.749396 -0.841173 0.348451 -0.496033 0.979634 -0.997957 -0.616961 -0.464436 -0.837617 -0.662753 0.756225 -0.328765 -0.226145 0.148748 0.169059 0.473054 0.217873 -0.0712128 0.429183 0.302239 0.303962 0.649131 0.927528 -0.958286 -0.220855 0.580118 0.108942 -0.515839 -0.459468 -0.124056 -0.458824 -0.217946 0.0783715 0.99925 0.402197 0.151856 1.0457 0.803242 0.685861 -0.826125 -0.938064 0.400886 -0.114932 -0.143741 -0.385984 -0.941122 -0.670925 0.809718 0.00387941 0.788032 0.161855 -0.665939 0.395837 0.0719323 -0.622745 -0.770886 -0.363242 0.450984 -0.31862 0.138262 -0.685758 0.19111 0.936575 0.396398 0.152488 0.232737 -0.564202 0.0581527 -0.0765701 -0.959351 0.200239 -0.0764167 0.414868 -0.933924 0.833768 1.02015 -0.919229 -0.916542 0.785529 0.0552907 0.876136 -0.083019 0.357189 0.329107 0.992079 0.713804 0.511856 -0.403641 0.18239 -0.793313 0.856622 0.503644 0.489341 0.69603 -0.108959 -0.449796 -0.0740798 0.340971 0.655805 0.876345 0.380777 -0.104227 -0.164918 -0.189085 -0.0894411 -0.425971 -0.230276 -0.00440934 -0.344288 -0.521919 -1.06081 -0.46447 0.426746 0.327596 0.860389 0.313641 0.00985921 0.298446 0.916007 -0.870873 0.426822 0.611874 0.59977 -0.172974 0.298939 -0.540929 0.410046 -0.769894 0.794676 0.0359813 -0.952349 0.177247 0.946671 -0.0971317 -0.996265 -0.0936453 0.598955 -0.119739 0.933836 -0.683528 0.432098 -0.985448 -0.0916408 -0.119485 0.362 -0.232743 -0.746395 -0.637932 -0.926887 -0.783877 -0.451765 0.592048 0.849529 -0.834287 -0.51596 0.171392 -0.327075 0.916635 0.408103 -0.493052 0.0294731 0.569347 0.745914 0.0218299 -0.498262 0.802306 0.91341 -0.944506 -0.336534 0.878326 -0.67146 -0.962317 0.913158 0.24993 -0.0838383 0.287105 -0.911335 0.205569 0.640753 -0.85651 0.398942 -0.838047 0.754014 0.212253 -0.723111 -0.879708 -0.694805 -0.0575099 -0.964842 0.745274 0.433091 0.054924 0.202337 0.0479691 -1.15172 0.50823 -0.293586 0.784328 0.644088 0.369637 0.638662 -0.82961 0.524731 0.669553 0.407855 -0.600173 -0.233486 0.518491 0.756358 -0.441103 0.65544 0.193 -0.174299 0.508362 -0.533882 0.168609 0.735976 -0.0935582 -0.771854 0.937733 -0.320073 0.638766 0.036148 1.06823 -0.133493 0.169193 0.84175 0.804085 -0.023129 0.545818 0.190973 -0.425539 0.506558 -0.335787 -0.82761 -0.194559 0.0232725 -0.0965067 -0.800929 -0.374186 0.309599 0.833748 0.74633 -1.0168 0.197582 -0.921849 0.0100608 -0.18792 -0.152798 0.0327415 -0.370602 0.50293 -0.269318 0.63354 0.541261 0.593158 -0.307249 0.29065 0.31484 0.63597 -0.211569 -0.49265 -0.691556 -0.626989 0.248508 -0.399352 0.332 -0.645516 0.609104 0.746378 0.185487 0.12121 0.722738 0.0704067 0.274599 0.0553718 0.272955 -0.51929 -0.962805 -0.726133 0.715873 -0.149229 0.97194 -0.41137 -0.422103 0.588625 -0.748645 0.339362 -0.0556419 0.619467 0.00724589 0.778041 -0.853666 0.354974 -0.82415 0.401103 0.862318 0.478334 0.653844 0.471036 0.190295 -0.104014 -0.363711 -0.0132775 -0.945675 0.944291 -0.995021 0.298851 -0.648281 -0.970587 0.57973 -0.918648 -0.150305 0.461603 -0.389757 0.29888 0.0300522 -0.161561 -0.334583 -1.04468 -0.681952 0.567114 0.673328 -0.582655 -0.136229 0.756672 0.802551 -0.279082 0.27273 0.658473 -0.622041 -0.409521 -0.374828 0.0107227 0.493994 -0.312507 0.105237 0.672265 -0.908916 0.48831 0.779322 0.643447 0.583304 -0.21501 0.392789 -0.499936 -0.716849 -0.352681 0.451844 0.126324 -0.288154 1.09543 -0.126417 -0.443048 -0.414753 0.870305 -0.6082 -0.555291 -0.339351 0.730763 -0.917872 0.0570646 -0.758671 -0.349431 -1.06198 -1.17318 0.357473 0.0866926 0.498982 0.488017 -0.474443 0.159769 0.135968 -0.788654 -1.04174 -0.577646 -0.415091 -1.00896 -0.0893635 -0.990624 0.0765538 0.558063 -1.0719 0.932518 -0.933864 -0.472274 0.70327 -0.55019 0.0143134 -0.589147 -0.765307 0.196886 0.587192 -0.315038 -0.927967 0.768703 -0.287966 0.678922 0.0503217 -0.600764 0.289423 0.761045 0.760601 -0.467179 -0.910078 0.84389 0.158288 -0.139021 -0.931039 -0.727672 -0.012655 0.289803 0.997869 0.00127975 0.279213 -0.842304 0.572369 0.0304011 -0.330548 -0.381484 0.501811 0.000478295 0.880397 0.107361 0.641825 0.840961 -0.231367 -0.715907 0.488355 0.809384 -0.25251 -0.171105 0.612295 -0.511073 0.238346 0.727383 -0.643895 -0.528305 -0.391873 -0.651772 -0.327566 0.475784 0.568814 -0.391465 -0.486287 -0.170298 -0.233727 -0.919057 0.790147 0.389823 -0.408692 0.188627 -0.714745 -0.709635 -0.756453 -1.08685 -0.667588 0.208411 -0.428334 -0.85506 0.341533 0.357976 -0.0565349 -0.0988815 0.904369 -0.581571 -0.121977 -0.701901 -0.000104729 0.56569 -0.0915458 0.937612 0.313271 -0.33783 -0.232748 0.990432 0.618819 0.792172 -0.732794 0.728297 0.374535 0.00815656 -0.0981343 0.685354 0.511899 0.4656 0.750145 0.798815 -0.459875 -0.824773 0.798522 0.790097 0.519452 -0.123679 -0.0332976 0.436695 0.196032 0.647951 0.568985 -0.96218 0.0653718 -0.675039 0.895404 -0.752588 -0.243662 -0.578184 -1.00502 -0.878824 -1.13853 -0.962002 0.69608 0.0949003 -0.119582 -0.357167 -0.190718 -0.627466 -0.980295 -0.408478 -0.737077 -0.258157 -0.0735492 -0.715315 -0.255168 -0.443369 0.222803 0.691764 -0.999696 -0.521983 0.420206 0.663051 -0.399252 -0.455193 -0.990606 -0.43431 -0.0864426 -0.123257 0.0918438 0.0645694 0.180509 0.186752 0.255806 0.00628687 -0.613133 -0.717642 0.709733 0.248916 -0.275222 0.819643 0.911949 0.0898949 -0.410356 -0.187725 0.232986 0.257502 0.27085 -0.540995 -0.0884735 0.274012 -0.0984407 -0.659801 -0.0975064 0.430243 -0.156586 0.0124896 -0.817458 0.853917 0.894119 0.247029 -0.0866059 0.0297147 -0.683434 -1.01316 -1.08677 -0.395331 -0.689614 0.681165 -1.05461 0.0940398 0.495092 0.721352 -0.977947 -1.06259 -0.417049 0.446697 0.369535 -0.889741 -0.859219 -0.410473 0.582351 0.174716 0.0677532 -0.344046 -0.124576 -0.860053 0.841115 0.246962 -0.868603 0.769126 -0.415264 0.351878 0.118427 0.0738797 0.432195 0.0975414 0.928269 1.04827 0.0850409 1.10951 0.217247 -0.294562 0.967901 0.422395 -0.188972 -0.400078 -0.138822 -0.87105 -0.492321 -0.129377 -0.30498 -0.719374 -0.695975 0.990255 -0.0894461 0.176727 -0.99752 -0.384727 -0.817169 -0.98646 -0.759017 -0.429302 0.0779662 0.115253 0.492335 -0.641282 -0.909725 0.25404 -0.872439 0.0838539 0.251736 0.372636 0.638439 0.091138 -0.396192 -0.669 0.677757 0.496532 -0.434328 -0.553137 -0.29592 0.507896 -0.26798 -0.0310295 0.446479 0.68645 -0.880775 0.528706 -0.673147 -0.66631 0.609144 -0.376506 -0.0227915 -0.217622 0.857333 -0.380231 0.297899 -0.864825 -0.929753 0.68859 0.304299 0.445111 0.121 0.0566358 -0.376414 0.850723 0.487547 -0.593945 0.509949 -0.849888 -0.0542171 -0.734372 0.642147 0.61259 0.123904 -0.0472857 0.185497 0.239073 -0.531029 0.522159 0.559 -1.00161 -0.817745 -0.335854 -0.0290434 -0.947589 0.204047 -0.762006 -0.85472 0.200773 -1.21922 0.34608 -0.507798 -0.160505 -0.632654 0.186821 -0.274914 -1.10172 0.484333 -0.734066 -1.00126 -0.536547 -0.376318 0.881244 -0.728016 0.897462 -0.0788528 0.656001 0.324522 0.593413 0.321206 -0.0539149 0.752854 0.609424 0.756022 -0.0292391 0.99451 0.10829 0.356404 -0.772594 -0.463852 0.26596 0.829881 0.256351 -0.602671 -0.591254 -0.242063 0.425496 -0.465329 -0.417902 0.906278 -0.357973 0.0553803 -0.538994 -0.549102 0.348081 -0.544175 0.554737 0.188828 0.898858 0.155997 -0.41521 -0.0918569 0.0714821 -0.798046 -0.386767 0.938429 -1.00559 0.56667 0.0985124 -0.869608 -0.890037 -0.606549 0.773644 0.351907 -0.221789 -0.772081 -0.938092 -0.904469 -0.300455 -0.541753 -1.12713 0.294929 0.635297 -0.584808 0.773309 0.0147288 -0.0831394 0.427559 -0.705307 -0.208068 -0.396357 -0.151823 0.70708 0.703735 0.206826 -0.612066 0.659501 0.233785 -0.964697 -0.133781 0.496254 -0.727118 0.42782 0.523701 0.785221 -0.686362 0.860305 0.966926 -0.458989 -0.3407 -0.400504 -0.427859 -0.902744 -0.701892 0.0948258 -0.934691 0.381805 -0.911058 0.49243 0.704872 -0.190385 -0.992384 -0.521586 -0.601759 0.587754 0.560561 -0.310415 0.249768 -0.176053 -0.194125 -0.872169 -0.600478 0.123509 0.655531 -0.99697 -0.0289254 -1.03103 -1.18244 -0.190279 -0.55686 -0.67846 0.429936 0.00993269 -0.490799 0.681036 -0.869862 -0.428011 0.228934 -0.67727 -0.771275 0.107639 0.220877 -0.744402 0.743313 -1.19445 -0.853303 0.611171 -0.216799 0.670742 -0.290766 -0.991058 -0.73362 0.428187 0.366165 -0.846901 0.671465 -0.34393 -0.660749 0.706004 0.62191 -0.0293001 -0.61006 0.337427 -0.550752 0.206147 0.305025 -0.329306 0.91458 -0.382785 0.0654883 -0.803465 -1.06148 -0.337616 -0.17916 0.931598 -0.351078 0.131455 0.651196 0.658338 0.00132359 -0.509603 0.651782 0.222466 0.856946 -0.119518 0.197893 0.588857 
0.641724 0.71684 0.264036 0.320299 -0.197774 0.659811 -0.316107 0.173621 -0.143836 -0.951768 0.933462 -0.162576 -0.178892 0.130991 0.148826 -0.166752 0.743471 -1.02104 -0.239558 -0.628372 0.119881 -0.575833 -0.978545 -0.866263 -0.0541876 0.742909 0.43259 -0.0880309 -0.117303 -0.13276 -0.455414 -0.417613 -0.347859 0.880624 -1.01634 0.526488 0.613426 -0.264717 -0.2359 -0.477099 -0.159358 -0.240281 0.46032 0.781519 -0.987172 -0.286681 -0.2857 0.814899 -0.253662 0.505225 -0.752235 0.932337 -1.00987 -0.710705 -0.916023 -0.0700586 -0.941522 0.52753 0.842004 -0.052811 -0.590713 -0.576815 0.576044 0.125889 -0.636938 0.613814 -0.288498 -0.976734 -0.582859 0.534232 -0.367844 0.323591 -0.638822 -0.878868 0.123992 -0.620456 -0.134682 0.835832 -0.782958 0.639966 0.387239 -0.50903 0.575088 0.391829 -0.174094 0.700938 -0.648539 -0.0857103 0.268489 -0.741543 0.941979 0.791588 -0.24076 0.58272 -0.0297059 0.184912 0.249657 0.711135 0.266672 0.722021 0.299394 0.940234 0.0862282 0.693882 -0.885529 -0.734211 -0.864623 0.0243729 -0.83912 -0.593725 -0.29291 0.590907 -0.0539629 -0.662879 0.0181968 0.813198 -0.908757 0.417987 -0.221971 0.410309 0.715761 -0.249044 0.228279 -0.48589 -0.629645 -0.74931 0.755042 0.687382 -0.995701 0.0501272 0.435439 0.368817 0.0525629 -0.425304 0.116804 0.22184 -0.0859417 0.319592 -0.696331 0.11607 0.764629 0.0422616 -0.260175 -0.245506 0.450562 0.838276 -0.36058 0.589082 0.313496 0.482725 0.0734657 0.0954307 -0.694933 -0.608432 0.699745 -0.256198 -0.309373 0.506635 -0.510898 -0.230537 -0.379412 -1.01147 -0.79884 0.753046 -0.345575 0.378792 0.0294583 0.603126 -0.245759 0.392192 -0.170569 -0.360596 -0.444331 0.664328 0.482139 -0.943305 0.553637 -0.829586 0.720847 -0.0811728 0.687354 -0.200108 -0.947459 -0.989048 0.200746 0.725419 -0.262865 0.881681 0.236868 0.263676 -0.309263 0.923731 0.313546 -0.0580268 0.728919 -0.984784 -0.607655 -0.189619 0.673688 0.204099 -0.748973 -0.465829 0.856521 -0.185932 -0.779772 0.349817 -0.115962 0.76609 0.53121 -0.39171 -0.309302 0.238514 0.4363 -0.222019 0.286987 -0.318703 -0.43617 -0.901598 -0.351265 0.898044 0.442831 0.380402 0.880942 -0.198837 -0.604369 0.638206 -0.154052 -0.188191 -0.513765 -0.427903 -0.949528 -0.226366 0.144293 -1.04585 0.626101 0.387544 0.347448 -0.437841 0.203945 -0.0766001 0.20815 0.943281 -0.806076 -0.320289 -0.245848 0.510175 0.390077 0.340898 0.627825 -0.953271 0.260208 0.0956648 0.473609 0.183205 -1.05164 0.918046 -0.139464 -0.170791 -0.237205 0.406781 0.459123 -0.134075 -0.768685 -0.346968 -0.106154 0.924372 -0.909698 -0.718527 -0.47765 0.338206 0.243731 0.782185 0.35652 0.526289 -0.460119 -0.842299 0.0984081 -0.988834 0.553564 -0.22677 -0.889293 -0.0878806 0.959674 0.653889 -0.846058 0.964635 0.622176 0.0791176 -0.138421 -0.538559 -0.436282 -0.605648 0.398983 -0.148661 0.113905 -0.649584 -0.153898 0.278088 -0.276632 0.46558 -0.284807 -0.936849 0.328307 -0.887092 0.607422 0.910439 -0.663701 -0.258116 0.918177 0.928155 0.559473 -0.950998 -0.167633 0.520835 0.698351 -0.0276511 0.485126 0.346792 -0.909455 -0.609103 0.865468 -0.305905 -0.151807 0.310343 0.598663 -0.987839 0.706415 -0.521719 0.337258 -0.529146 0.949658 -0.938649 -0.45934 0.295184 -0.794043 -0.834681 0.209274 -0.471091 -0.0786339 0.151186 -0.539059 -0.499382 0.244358 0.345473 -0.926176 -0.000502333 -0.610015 0.646001 -0.598117 -0.468587 -0.902689 -0.687929 0.275365 -0.02081 0.665854 -0.0919564 0.0620619 0.42578 0.436734 -0.58939 0.910718 0.412896 -0.495946 -0.532267 -0.262946 -0.254419 -0.328598 -1.0076 0.309209 0.624815 0.1702 0.806619 -0.836546 -0.565436 0.170717 -0.745709 0.443675 0.57608 0.921644 0.883096 -0.861515 -0.944034 -0.767826 0.45219 0.0736974 0.92218 -0.612049 -0.835864 0.387295 0.8597 -0.378165 0.344264 0.336852 0.188888 0.864025 -0.882278 -1.02758 -0.414345 -0.843096 0.353425 -0.71938 0.411181 0.221726 -0.501617 0.924266 -0.52484 -0.188279 0.401912 -0.924079 -0.198815 0.341534 -0.71357 -0.0661838 0.649917 0.788943 -0.929627 0.671212 -0.732406 -0.676185 0.111707 -0.821655 -0.0150854 -0.487879 0.565374 -0.762436 -0.570032 0.763709 -0.695787 0.125182 -0.969586 0.715136 0.439496 0.465195 -0.0220053 1.00763 0.409851 0.456616 -0.170759 -0.165042 0.550234 0.6309 -0.781783 0.834472 -0.43207 0.863988 0.659883 -0.344808 0.540032 0.946475 -0.00444958 -0.321089 -0.820347 -0.964493 0.244499 0.788953 -0.685662 0.716726 0.603204 -0.358865 -0.14081 0.63171 -0.626544 -0.681191 0.1147 0.361757 -0.686289 -0.477071 -0.169693 0.145964 0.383357 -0.578273 -0.170167 0.631022 -0.700938 0.44485 0.537866 -0.995274 -0.832319 0.146822 -0.995366 0.204763 0.873033 -0.759402 0.292518 0.155977 -0.957043 0.634365 -0.103352 0.661836 -0.71226 0.776051 0.320946 -0.286906 -0.866696 -0.527844 -0.893886 -0.522023 0.0266504 -0.0287598 0.661319 -0.558758 0.417195 -0.484697 -0.906588 0.741964 -1.01621 0.657111 0.772393 -0.830645 -0.165336 0.8044 0.408494 -0.293445 -0.963722 -0.294564 0.88357 -0.883209 -0.623403 -0.174916 0.838201 -0.270758 -0.342738 0.198046 0.477593 -0.171195 0.717181 0.626781 0.380017 -0.170298 -0.320123 0.0988162 0.313774 -0.837985 0.678404 0.464222 0.946977 0.694165 0.169039 0.780818 0.932252 -0.938565 0.650382 0.423121 -0.143956 0.778109 -0.789766 -0.183638 0.948541 -0.371949 0.670887 0.821941 0.401068 -0.605616 0.0919634 -0.035377 0.311743 -0.091378 -0.303822 -0.258204 0.762161 0.409948 0.875428 0.122698 0.5914 0.573289 -0.39874 0.545445 0.292358 0.796281 0.340704 0.244813 0.875436 0.0159798 -0.312406 -0.261554 -0.219627 -0.119303 0.571398 -0.247159 0.561898 0.293003 -0.388308 -0.00789517 0.721094 0.745194 -0.997145 0.0582776 -0.314668 -0.293458 0.834336 -0.551464 -0.884261 0.714774 0.577095 0.69604 0.30001 -0.797202 0.28383 -0.350722 -0.944431 -0.32766 0.930918 0.967139 0.684787 -0.362015 -0.234999 -0.469671 0.590661 -0.630461 0.315329 0.175288 0.700039 0.954789 -0.797345 0.462205 0.722574 -0.786538 -0.457775 -0.583803 -0.0581285 -0.606016 -0.107068 0.0851402 -0.865038 -0.493445 -0.180201 0.466765 -0.256864 -0.868779 -0.870182 -0.189475 -0.186693 -0.923567 -0.209002 -0.47879 -0.264675 0.576958 0.0787964 -0.663663 -1.03643 -0.619471 0.506658 0.675033 -0.638674 0.732367 0.171002 -0.876349 -1.0085 0.751302 -0.419157 -0.0310406 -0.823162 0.513598 -0.909309 -0.640509 -0.914305 -6.38228e-05 0.896066 -0.0965614 0.18917 -0.908729 0.760456 -0.957463 -0.793784 -0.416217 -0.386245 0.0240741 -0.760675 0.778208 0.433099 -0.732539 -0.775976 0.01493 -0.9827 -0.37102 -0.232267 0.219343 -0.192339 -0.172537 0.0173851 0.445944 0.85644 0.284651 0.0350154 -0.965359 0.700373 0.170003 0.0561865 0.626326 -0.906978 -0.715085 0.763784 0.891052 -0.643439 -1.00738 -0.505311 -0.02638 0.00950421 -0.284552 -0.262316 -0.566537 -0.00713056 -0.049642 0.422457 -0.0110708 0.614507 -0.762026 -0.75573 -0.545341 0.0980843 0.285853 0.916003 -0.00450968 -0.413461 -0.0264179 0.0455514 -0.700368 -0.820843 -0.872666 0.959307 -0.704104 -0.581512 0.712561 -0.815622 -0.22069 0.740874 -0.29409 0.808315 -0.205835 0.458858 -0.441665 0.220308 -0.532716 0.56867 -0.281841 0.495138 0.227479 -0.00200858 0.769814 0.68697 -0.876098 0.0914824 0.655318 0.113706 0.682694 -0.342896 -0.8194 -0.992305 -0.132031 -0.657547 -1.0077 0.188243 -0.213569 0.734891 0.38518 0.59407 0.503266 -0.904635 0.384672 -0.726592 0.559082 -1.04726 0.521305 -0.968049 0.531071 -0.752455 0.54039 -0.244349 0.233477 0.313752 -0.532923 0.373373 -0.585056 -0.862649 -0.474752 -0.869585 -0.173601 -0.255952 -0.825962 0.727057 0.127958 -0.762665 -0.0382152 -1.03202 -0.973419 -0.60478 0.620306 0.591651 -0.42099 0.0696458 0.893647 -0.83677 0.0587033 0.47028 -0.712141 -0.31639 0.803021 0.867264 0.497978 0.116385 0.272652 -0.976894 -0.460006 0.718075 -0.793046 0.114123 0.909325 0.0808697 0.920211 -0.84343 -0.107541 0.129651 -0.552839 0.899924 0.136245 -0.510092 -0.662448 -0.223234 -0.889882 -0.0505369 0.864466 -0.9617 0.107857 -0.06088 0.511422 0.398008 0.61268 0.326764 0.297776 0.111344 -0.55566 -0.46236 0.13627 0.00418275 -0.712436 0.3764 -0.831941 -0.763502 -0.507294 -0.883623 -0.586741 0.384342 0.250918 -0.139334 0.305087 -0.601388 0.375799 0.658142 0.199844 0.496452 -0.380959 0.0713908 0.541255 0.765673 -0.942727 0.120889 0.202065 0.702255 -0.547148 -0.511422 -0.140924 -0.0475332 0.0828929 -0.958785 -0.975417 0.421578 0.445672 -0.817909 0.672134 0.961532 -0.661593 -0.910976 0.352046 0.604324 -0.040937 -0.309891 -0.957173 -0.613635 -0.616187 0.277641 0.907204 0.0103234 -0.649937 0.456586 -0.215094 -0.584993 -0.436713 -1.02879 -0.868196 0.0264108 -0.526823 -0.0127779 -1.01256 0.568805 0.0333739 -1.00342 -0.0264388 -0.524643 -0.804078 -0.34092 -0.562301 -0.464184 -0.220869 0.834545 -0.829676 0.776008 -0.451404 -0.754038 -0.792059 -0.00119255 0.562792 -0.837282 -0.950634 0.983619 0.678945 -0.103374 -0.539953 -0.707003 -0.0994003 -0.377532 0.357194 0.434978 0.691297 0.428683 0.0661209 -0.231527 0.473429 -0.881769 0.33691 0.74566 -0.176923 0.813329 -0.669571 0.668398 0.703664 -0.451373 0.486751 -0.695847 -0.15709 0.754762 0.348207 -0.53871 0.939098 0.404222 -0.542567 0.614243 -0.679102 -0.0565418 0.932779 0.229302 0.581107 0.307475 -0.344915 0.251082 -0.28734 0.731235 -0.950718 -0.796575 0.855604 0.368572 0.931915 -0.285293 0.215807 -0.728402 -0.595806 -0.0439517 -0.131672 0.936599 0.293863 0.736788 0.713724 -0.354292 -0.77749 0.67998 -0.936795 -0.31783 0.314592 -0.603255 0.641065 0.263673 0.628726 0.245151 -0.402127 -0.666666 -0.473435 0.349811 -0.911417 -0.404946 0.584105 0.988066 -0.983154 0.57297 -0.242908 0.29688 0.880215 0.185819 -0.736213 -0.229427 0.134574 0.555544 -0.473981 -0.132637 -0.781754 -0.242332 -0.43421 -0.686124 0.465118 0.913666 -0.279924 0.109907 0.164357 -0.656112 -0.643407 0.775672 -0.316521 -0.124798 0.124584 -0.229535 0.483602 -0.288188 -0.230063 0.519561 -0.716514 0.520626 -0.204134 
-0.775834 -0.231077 0.141755 0.0334536 0.942981 -0.206605 0.607501 -0.182633 -0.0453266 -0.667966 0.398552 0.298555 0.821444 0.354698 -0.946145 0.0146281 -0.389965 -0.489015 0.482516 -0.509409 0.271261 -0.613036 0.65566 1.1152 0.972298 -0.534757 -0.0294101 0.550177 -0.175197 -0.463433 -0.622857 -5.45314e-05 0.241277 0.466836 1.00523 0.183669 -0.772647 0.532623 0.968563 0.173355 0.876161 0.401713 -0.524895 0.679966 -0.299589 -0.497449 -0.367345 0.259439 -0.0576253 1.00836 0.636509 1.11948 -0.685713 0.168141 1.0929 -0.876191 0.551382 -0.0464873 0.543084 -0.850699 0.308042 0.786222 0.0467595 -0.522414 0.210285 -0.0458513 0.555521 0.315952 -0.620974 0.497191 -0.570438 -0.817006 -0.248549 -0.238889 0.717175 0.335059 0.134109 -0.763597 -0.522274 0.96628 1.11157 0.984021 0.957824 -0.724634 0.0459489 0.956024 -0.703824 -0.552217 -0.197431 0.752654 -0.478347 0.997614 0.413009 0.459474 -0.626424 -0.502764 -0.700486 0.839687 0.695436 -0.43062 0.194585 1.00513 -0.36646 0.80211 -0.411756 -0.816349 0.00767155 0.587204 -0.71985 0.385821 0.439394 -0.70724 0.234187 0.291815 -0.541851 -0.899665 0.021683 -0.466122 -0.598312 0.637243 -0.886966 -0.232246 0.459852 0.346194 -0.990951 0.642389 0.61097 -0.816715 0.386543 0.226428 -0.330768 -0.547814 0.092315 0.146275 -0.885788 0.495696 0.0723912 -0.100383 -0.0907723 0.223725 -0.794072 -0.713275 0.441457 0.30397 0.437293 0.759905 0.396224 -0.547628 -0.738104 0.714865 1.06704 -0.668125 -0.54598 0.500206 0.665209 -0.493846 0.245137 0.378695 -0.322589 -0.447045 -0.50256 0.253793 -0.0705769 0.62083 -0.610631 0.0604633 0.119628 0.502706 0.986637 1.06584 -0.236787 -0.801039 -0.677834 -0.833034 0.460036 0.754402 0.878686 -0.198184 -0.833304 1.0936 -0.584794 1.08289 -0.674367 -0.231535 0.533386 0.89778 0.134027 -0.436484 0.0739467 0.712751 0.0536803 0.60504 -0.107407 0.906437 0.0683357 0.139412 -0.147549 -0.819397 -0.36093 -0.168152 -0.827546 0.261121 -0.0783035 -0.589537 0.315488 -0.726766 1.07625 0.115945 -0.0746781 1.09344 0.0934851 0.216791 1.07987 0.342976 0.889201 0.480015 0.195217 -0.0153006 1.01043 -0.807593 -0.436299 -0.0668525 0.659138 0.341646 -0.228787 -0.271021 -0.544146 0.555872 -0.207926 -0.017411 -0.701938 -0.138478 1.08076 0.0612036 0.168889 0.294113 0.225489 0.0698654 -0.751854 0.992019 0.0450319 0.235544 0.0917241 -0.0334837 -0.634533 -0.227632 -0.728527 0.374608 0.571008 -0.882216 0.411296 1.00597 -0.194408 -0.0946262 0.159046 0.440561 0.518178 0.497075 -0.111984 -0.843181 -0.699424 0.0464377 -0.159799 -0.773313 0.884482 0.83064 0.333821 -0.0482678 -0.233993 0.561981 -0.12339 0.724636 -0.283842 0.885393 -0.380052 0.0434231 -0.368461 -0.167656 -0.627237 -0.782263 -0.102817 0.733806 -0.829701 0.786126 -0.253544 0.44747 0.231233 -0.728217 -0.168788 -0.918358 -0.645752 0.166687 0.138152 0.205026 0.42205 0.0563244 0.00796036 -0.283746 1.01174 0.766268 -0.713921 -0.0824146 0.462613 -0.00470149 -0.187706 1.06212 0.982223 0.390235 -0.174654 -0.746848 0.467522 0.6191 0.934929 0.589391 0.309695 -0.461912 -0.146733 -0.467921 -0.283641 0.663996 -0.54026 -0.0463824 -0.291861 0.497693 1.04858 0.999947 -0.480914 0.0466995 -0.166812 -0.485298 -0.221581 0.0866239 0.353129 -0.838103 0.958751 1.0262 -0.877558 0.829678 0.315804 -0.146913 0.994531 -0.258251 -0.567693 0.865423 -0.712489 0.719924 -0.614433 0.0707467 1.08041 -0.0769726 -0.438864 -0.536576 0.829718 0.247402 0.937872 0.831181 0.233834 -0.623788 -0.229075 0.951715 -0.24037 0.422398 -0.085427 0.985668 0.479953 -0.281036 0.866291 0.403123 -0.614453 0.0202896 -0.882089 -0.748458 0.584567 -0.656998 0.928741 0.707195 0.949829 -0.840222 -0.426464 0.843281 -0.118228 -0.0380696 -0.855196 -0.428869 -0.954581 -1.03973 -0.73629 0.154332 -0.806855 -0.0675161 -0.0365054 -0.0998491 -0.803839 0.719634 -0.375226 0.495878 -0.759277 -0.610315 -0.182213 -0.428812 0.389505 -0.0790872 -0.282136 -0.0918354 0.333042 -0.325895 -0.352457 0.244921 -0.194991 0.170065 0.0843794 0.748221 -0.771042 0.305553 -0.642499 -0.70438 0.271772 -0.377356 0.483702 0.507851 0.584828 -0.54004 -0.634845 0.789534 -0.917892 -0.0186136 0.252172 -0.644019 0.449112 -0.827417 -0.0521281 -0.142469 0.0870501 0.718127 0.77088 -0.655833 -0.681512 -0.717962 0.461641 0.019479 0.433664 -0.513576 -0.305893 0.546249 0.707982 0.0213989 0.835248 -0.0374755 0.50044 0.160819 -0.677251 -0.0137488 0.518472 -0.368935 -0.263297 0.643062 0.676309 1.00253 1.00194 0.0989718 1.07498 -0.0629068 0.873152 0.0698791 -0.479909 0.504848 0.271982 -0.253752 0.73592 -0.305956 0.738354 0.115724 0.121252 -0.652102 -0.402828 -0.239541 0.241235 -0.710357 0.577646 -0.332452 0.456846 0.885253 0.612502 -0.0368369 -0.503288 -0.686653 -0.489075 1.01332 -0.823749 -0.604208 0.02541 1.09415 0.161973 -0.278954 0.0248398 0.528387 1.02958 -0.898518 -0.871866 0.642167 -0.37364 0.655248 -0.473398 0.606249 0.880665 0.0375214 -0.840143 -0.07015 0.192809 0.67055 0.522285 -0.482674 0.446136 0.0205552 0.293185 0.728812 0.178056 0.693473 0.736536 0.271841 0.927255 -0.409781 0.179103 -0.063647 0.11843 -0.950031 -0.610753 0.146538 -0.817925 -0.504888 -0.292722 -0.272988 -0.852565 0.292452 -0.59529 -0.928329 -0.59687 -0.310635 0.0647963 0.578784 -0.641651 -0.423862 -0.930051 0.83151 0.654409 0.377386 0.646457 -0.117108 0.112169 0.396205 -0.894096 -0.02215 0.88344 0.257668 0.937895 0.0410198 0.404354 -0.557397 -0.707712 0.63308 -0.0473472 0.021985 -0.580471 0.109492 -0.711383 -0.261571 0.0314743 -0.466127 0.305561 -0.9606 -0.946596 0.681206 -0.34661 -0.891678 0.462337 -0.759473 0.407017 0.0060313 0.0313392 -0.570601 -0.682846 0.0936039 0.474645 -0.732082 -0.544092 0.437727 0.367115 0.873807 0.886826 0.645331 0.403519 -0.302275 -0.469266 0.71172 0.699381 -0.263679 -0.611752 -0.274892 0.259303 0.716986 -0.232922 0.279318 0.342149 0.352073 0.326641 -0.266127 0.533744 -0.301784 0.738093 -0.466079 0.0885176 1.05249 0.63011 -0.492772 -0.765884 0.946579 0.857225 0.4963 0.720954 0.560939 -0.0664191 0.000576325 -0.850716 0.291696 -0.505341 0.667692 0.873916 -0.273224 -0.804589 -0.0214982 -0.753181 -0.188775 -0.878603 0.475704 -0.971425 0.310036 -0.877955 0.460359 0.88493 0.688155 0.831302 -0.186884 0.552102 0.316243 0.227768 0.675894 0.191111 -0.0348176 0.0300086 -0.22911 -0.633327 0.85757 0.576649 -0.602219 0.0644807 -0.980148 -0.987041 -0.0753249 -0.265676 -0.807209 0.92464 0.0466552 0.0853945 -0.887829 -0.344546 0.194705 0.48313 -0.221169 -0.358038 0.346772 -0.506459 -0.476251 -0.748633 -0.932374 0.871092 0.517269 0.787344 0.0532145 -0.568775 -0.217223 0.767908 -0.224974 -0.345867 0.403586 0.286019 0.875857 0.55828 0.333501 -0.155174 -0.666733 0.570536 -0.226935 0.374025 -0.397737 -0.144306 0.924122 0.72742 -0.726103 -0.293299 -0.596936 0.640084 0.15653 -0.170305 0.832652 0.139691 -0.386367 0.249619 -0.124794 0.643652 0.673696 0.710938 0.520403 -0.396248 -0.57176 -0.00865883 0.866259 -0.724397 -0.538509 0.0808602 0.00854163 -0.279379 -0.371428 0.706596 1.00184 0.171166 -0.442636 1.00123 -0.0515558 -0.149962 -0.345288 0.260087 -0.553537 0.752045 1.04743 -0.772502 -0.117912 -0.308725 0.443671 0.719196 -0.699773 0.089179 0.396359 0.765063 0.557684 0.719988 -0.396098 0.248304 0.824924 -0.0736036 -0.780113 -0.343388 0.465873 -0.385395 -0.793757 0.32629 0.63802 -0.423852 0.147591 -0.510331 0.341043 0.644588 0.597296 0.666702 0.353252 0.544196 0.733537 -0.939472 -0.969814 0.0207497 0.612546 -0.86326 -1.02149 -0.081684 0.843121 0.438165 -0.48663 -0.697371 -0.448906 -0.865388 0.0803204 -0.403886 -0.282164 -0.560951 0.195017 -0.124456 0.7869 -0.137626 0.492729 0.00964138 0.339416 -0.105348 -0.254532 -0.00991474 -0.404627 -0.870547 -0.449747 -0.650342 -0.780595 -0.391272 0.418819 0.856896 -0.224289 0.414844 -0.177539 -0.410052 -0.125293 0.300861 -0.0767444 0.356932 0.443896 -0.975864 -0.979288 -0.753757 -0.32871 0.350726 0.226597 -0.505673 -0.764217 -0.24184 0.516747 0.564473 0.592778 -0.759898 -0.504149 -0.856837 -0.687631 0.053392 -0.522423 -0.569016 0.577534 0.815248 -0.746254 -0.741789 0.155007 -0.0412318 -0.164012 0.960511 -0.777299 0.779614 0.436027 0.846278 0.927122 0.541336 1.01131 -0.512138 -0.22558 0.176019 -0.0788975 -0.0450991 0.882329 -0.597833 -0.53424 0.440838 -0.396524 -0.0413598 0.625126 -0.093819 0.984334 1.05382 0.327575 0.509642 0.838929 0.540234 0.772253 0.0191626 -0.482605 -0.401912 -0.0314997 -0.274869 -0.63473 -0.6489 -0.598334 -0.836893 0.712474 -0.703281 -0.500386 -0.663203 0.285251 0.221311 0.0726712 -0.0351591 0.435826 0.383815 -0.728235 0.872293 -0.834588 0.776485 -0.369903 -1.00723 0.687159 0.88332 0.516533 0.427137 0.277218 0.101421 -0.746683 0.611338 0.484972 0.0540298 -0.825454 0.785638 0.316516 -0.528979 0.810046 -0.121497 -0.403791 -0.898014 0.0776228 0.744806 0.244171 -0.902775 -0.311622 -0.304051 0.508032 -0.0115861 -0.377304 0.750531 -0.201211 0.333721 0.89645 -0.418742 0.280746 0.420502 1.01656 -0.408209 -0.491558 -0.720109 -0.798947 -0.967849 0.33563 -0.60238 0.857375 -0.353247 -0.0926637 0.645882 0.569574 0.493516 0.807793 -0.31252 0.359709 0.187605 -0.0219217 -0.78377 0.978709 -0.489013 0.266286 -0.35934 -0.726916 -0.920408 0.954065 -0.833529 -0.3901 0.230814 0.504214 -0.391035 0.760436 0.930134 -0.189629 0.907039 0.961108 -0.926367 -0.744348 0.729889 -0.326625 0.122617 0.41345 -0.691575 -0.247958 0.297537 0.0456588 1.13966 -0.511027 0.932661 -0.724741 -0.580083 -0.595179 0.51922 0.0454587 -0.322652 0.55594 -0.0381478 -0.221891 -0.839861 -0.818922 -0.744812 -0.26566 0.91666 -0.801992 0.483259 0.788265 1.11452 0.541939 1.06265 0.863802 -0.761436 0.188663 0.198596 -0.536697 0.806857 -0.609069 0.392998 0.778764 -0.248862 0.213685 0.926399 -0.0224703 0.405612 0.185589 0.825136 0.910076 -0.392352 -0.361061 -0.530439 -0.37794 -0.365651 -0.371619 0.178184 -0.535999 -0.180582 -0.36651 -0.824153 -0.239777 -0.950793 -0.945882 -0.385403 
-0.987971 0.00493903 0.452359 -0.614933 -0.225412 0.7441 0.702327 -0.544117 -0.62283 -0.346961 -0.732259 0.345744 -0.655423 0.445094 0.343086 -0.739287 -0.954231 0.740993 -0.552463 -0.37529 -0.758339 0.00158503 -1.27079 -0.120722 -0.920522 -0.472629 0.240371 -0.0615804 -0.294642 0.335332 0.518168 -0.148112 -0.356619 0.14059 0.506951 0.452147 -0.115688 0.0833844 0.746871 0.204814 0.94911 -0.84558 -0.231813 -0.739581 0.531231 0.526384 -0.77044 0.497992 0.533027 -0.162869 -0.771974 -1.09929 -0.996093 -0.916879 0.0249883 -0.738798 -0.260413 -0.669883 0.195885 0.42837 0.702843 -0.348079 -0.731743 -0.77365 0.572271 0.503974 0.406686 -0.683227 -0.439243 0.115384 0.568494 -0.626659 0.152841 -0.869877 -0.534582 -0.376484 -1.10874 -0.350308 -0.916171 0.455754 0.553555 -0.616633 0.635794 -1.05535 -0.155588 0.079495 -0.465754 -1.15268 0.674258 -1.00441 0.488851 0.566214 -0.209341 -1.03692 -0.986992 -0.449778 0.610381 0.594827 0.11345 -0.571719 0.0713046 0.0243963 0.158663 -0.450067 0.419819 -1.0844 0.50791 0.622202 -0.0942599 -1.08472 0.375505 -0.152961 -0.368975 0.371213 -0.0882749 0.63588 -0.309919 0.7775 -1.21285 -0.445822 -1.05851 0.581453 -0.664231 -0.110531 0.761053 -0.362663 0.891861 0.776115 -0.397923 0.349107 -0.357305 0.989423 -0.325574 0.913808 -0.317889 -0.666245 -0.901764 -0.51775 -0.949185 0.183926 -0.386415 0.950343 -0.548386 0.494418 0.16451 0.217417 -0.0165089 -0.946996 0.1668 0.110264 -0.125053 0.603568 0.0438329 0.666905 -0.135325 0.155245 -0.449333 -0.226828 -0.080862 0.12897 -0.499937 0.745769 0.227634 0.057471 0.644708 0.936335 0.122623 0.367424 -0.765478 0.315147 -0.234984 -0.276619 -0.118496 -0.308883 0.873904 -0.812659 -0.762709 0.168584 -0.570534 0.659772 -0.702334 0.275208 0.30348 0.48275 -0.132142 -0.974697 -0.594945 0.167952 -0.130984 0.326881 -0.803342 0.0874794 -0.244343 0.153858 -1.1581 -0.923393 -0.18121 -0.127627 0.557366 -0.0370377 -0.821339 -0.850306 0.551395 0.0262789 -0.0439789 0.534662 0.351449 0.358048 -0.162354 -1.21101 0.0939732 0.388314 0.448753 -0.285304 0.165933 -0.496406 0.0277145 -1.17363 -1.08514 -0.945464 0.344433 -0.63608 0.412023 -0.692504 0.705886 0.411001 -0.396633 -0.147511 -0.306086 -0.468134 -0.805822 0.109834 -0.0758305 -1.00358 -0.559613 -0.722543 -1.07352 -0.905607 -1.06815 0.0736923 -0.857912 0.224992 -0.305167 -1.06674 -0.719919 -0.874149 -0.214863 0.54858 -0.788867 -0.0321941 0.77487 0.690875 0.511604 0.432912 -0.749966 0.555865 0.254394 0.341887 -0.118727 -0.704465 -0.944241 0.119995 0.525792 0.212233 0.389772 -0.738123 0.544102 0.661698 -0.287184 0.669073 -0.0582699 0.00216734 -0.0624704 0.457666 -0.154529 0.481484 0.792012 0.834371 0.356326 -0.608861 0.15067 0.338065 -0.727607 -0.080056 -0.0869788 -0.447796 -0.438299 -0.805317 1.20221 0.532643 -0.266542 1.25551 -0.314174 1.1438 0.101981 0.644961 -0.905479 -0.174595 0.360948 -0.305885 -0.678006 0.937259 0.391481 0.367308 0.50706 -0.550172 0.0848956 0.501169 -0.723495 -0.874608 0.637586 0.423365 0.403795 -1.15516 -0.865889 -0.833606 -0.639628 -0.438123 -0.724138 -0.699753 -1.20731 -0.373146 -0.74333 -0.842096 -0.552273 0.315278 -1.12316 -0.472055 -0.908333 0.0869493 0.0581115 -0.626362 0.0226226 -0.476735 -1.05231 -0.226176 0.103804 0.0041472 -0.728386 0.628608 0.462646 -0.721245 0.319006 0.0582765 -0.714636 0.661663 0.490321 -0.0523192 -0.513396 -0.919336 0.545976 -0.467453 -0.0699495 -1.03985 -0.137037 0.679989 0.680904 0.151884 -0.446639 -1.05454 -0.474992 -1.08527 -0.24034 -1.05621 -0.1392 -0.0327555 -0.054813 -0.848182 -0.806454 0.439357 -0.860212 -0.896961 -0.915895 0.74691 0.445735 -0.3436 0.571502 0.22233 0.745177 -0.68734 0.508672 0.530506 0.144158 -0.204675 0.886067 -0.523791 -0.25802 0.848233 0.815986 0.540052 -0.932039 -0.468253 0.599427 -0.0902301 -0.39524 -0.251888 -0.833592 0.803206 0.175902 -0.560707 0.169079 0.199921 -0.502876 0.382657 0.131283 -0.872572 -0.700183 0.0732849 0.669219 -0.834168 0.425622 0.197255 0.796483 -0.225854 -0.941519 0.822557 0.479008 0.0485104 1.00092 0.423755 -0.472985 0.709771 0.509997 0.903849 -0.612338 -0.769518 -0.392994 -0.429328 0.994429 0.596319 -0.126295 0.145321 -0.0771562 0.555164 -0.148856 -0.829565 0.866225 -0.0960069 -0.0322895 0.380465 0.0543306 -0.476456 -0.4763 -0.146201 0.345563 -0.304335 -0.389316 -0.423925 0.31494 -0.836198 0.566187 0.572018 0.648926 0.0893345 0.447734 -0.87794 0.296012 -1.04669 -0.465202 0.0661035 0.484927 0.5497 -0.513089 -0.404731 0.369301 0.225655 -0.284741 0.235067 -0.649186 -0.990663 -0.105988 0.612541 -0.287744 0.577339 -0.356401 -0.717501 -0.582061 0.449141 0.071375 -1.04075 -1.2051 -0.208125 -1.23981 -1.23359 -0.749864 0.56168 -0.821501 -1.2126 -1.16573 0.0245399 0.291923 0.685791 -0.0544625 -1.02629 -0.410189 -0.54437 0.454649 0.49778 -0.952951 -0.748271 -1.01281 0.216737 -0.976022 -0.114943 0.00719152 -0.179003 0.279032 0.728308 -0.426423 -0.287854 -1.01358 -0.208653 0.969975 -0.720814 -0.220153 -0.54169 -1.0242 0.202567 -0.486428 -0.920404 -0.554413 1.00837 -0.937428 0.808986 -0.694462 -0.0775013 -0.576686 0.881286 -0.685789 -0.573401 -1.03259 -0.658689 0.786999 -0.805721 0.507846 0.184738 0.430324 0.0964801 0.0529759 0.872212 0.728874 0.124838 -0.298032 0.931972 0.640041 0.733455 -0.393835 0.784024 -0.044231 -0.177981 0.591197 0.263924 -0.290112 0.676506 -0.0187758 -0.054528 -0.597148 0.00884046 -0.341559 -0.308788 0.74756 -0.193047 0.273171 0.660359 0.154518 -0.347208 -0.339445 -0.71405 0.642698 0.730121 -0.788646 0.49078 0.00416626 0.0587779 0.261361 -0.653928 -0.572413 0.442785 0.756715 0.0906525 -0.960453 0.218194 -0.807539 -0.348291 -0.246547 -0.0590766 0.411129 -0.0514025 -0.983556 -0.835601 -1.10775 -1.08715 0.153226 0.101899 0.482629 -0.666827 -1.03644 -0.544496 -0.158411 -1.1465 -0.701285 0.156487 0.470549 0.486857 -0.580415 -0.0386432 -0.952652 0.0826521 -0.418127 -1.00014 -0.638938 -0.12846 0.528598 -0.107089 -1.16803 -0.531316 -0.970461 0.530465 -1.10452 -0.532899 -0.887259 -1.01856 -0.320867 0.494217 0.425069 -0.622906 -0.968336 0.751301 0.15742 0.0863841 0.73176 0.700175 -0.536639 0.398278 0.347571 0.181225 -0.237232 0.907537 -0.273535 0.660631 -0.783959 0.360296 -0.161185 1.00727 -0.443609 -0.0768714 -0.252161 -0.277397 -0.386423 -0.116401 0.570618 0.101137 0.139989 -0.672667 -0.434581 -0.283107 -0.110767 -0.285486 -0.596331 -1.04562 1.00641 -0.778533 0.945097 -0.178963 0.964478 0.456472 0.916911 -0.294253 0.226414 -0.303108 -0.626412 0.621695 1.31215 0.219215 0.609842 -0.293558 1.15457 1.18398 0.400748 -0.43873 0.0646728 -0.117793 0.51777 0.931174 0.0346431 0.983827 -0.520757 0.816833 -0.21483 -0.0240074 1.0252 -0.151415 0.350742 0.653591 0.167801 -0.0806674 -0.0657991 0.0510454 0.556204 -0.831165 0.683331 0.717916 0.477505 0.621032 -0.411076 -0.357296 -1.03624 -0.684051 -0.429125 0.130793 -0.392226 0.277718 -1.223 -1.0171 0.124954 -0.358461 -1.24268 0.611007 -0.500372 -0.500032 -0.370268 -0.65247 0.165948 -1.13232 -0.908192 -0.462631 -0.0182425 0.235931 -1.23516 -0.297163 0.541197 0.65772 -0.352919 0.284592 0.527224 0.543958 -0.811366 0.689393 -0.976514 -0.0442866 0.0397458 -0.087424 -0.57295 0.0458238 0.0672187 -1.16734 -0.910839 0.243636 -1.12408 -0.0985337 -0.848208 -0.23143 0.575285 0.508614 -0.174894 -1.09251 -0.629876 -0.862079 0.423586 -0.682799 0.0617868 0.170952 -0.784188 -0.974614 -0.038208 -0.768543 0.931933 0.427332 -0.749068 -0.761427 -0.379285 0.599123 0.471309 0.393907 -0.127424 -0.191138 0.530218 0.19992 -0.634662 0.659284 -0.69767 -0.549685 -0.681774 0.953333 -0.859561 0.375111 0.933405 -0.378352 0.589522 0.452375 -0.116613 -0.230202 -0.178763 0.498368 -0.0920779 0.719602 0.525132 -0.454684 0.0814501 0.798382 0.113151 0.692995 0.326967 -0.607004 0.00484626 1.14127 0.223777 1.25568 0.195542 0.313645 0.682599 0.294851 0.823507 1.06324 0.0780393 0.826929 0.381862 0.0866172 -0.589191 -0.189659 -0.494349 0.224977 0.380895 0.0217212 -0.688507 -1.06255 -0.404467 0.735473 -0.503338 0.351565 0.164106 0.188979 -0.456004 -0.953797 0.152368 0.0711995 -1.23615 -1.07857 -0.0336246 -0.38893 -0.0792948 -0.614165 0.689159 -0.637868 -0.821304 -0.232994 -0.867776 0.398901 -1.15627 -0.618837 -0.894134 -0.769751 0.596318 0.575888 0.485782 -0.806505 0.746946 -0.728142 -0.980873 -0.617693 -1.18201 0.450561 -1.17434 -0.298861 -1.23356 0.206522 -1.08121 -1.35797 0.258185 0.105793 -0.443286 -0.55639 -1.29703 -0.497299 0.114535 -0.724714 0.746238 0.644628 -1.04696 0.700089 -0.789368 -0.731231 -0.714076 -0.815739 -0.895361 -0.987145 -0.458363 -1.04062 -0.450723 -0.0361401 -0.267962 -0.326059 -0.192709 -0.0948313 0.690881 -0.182815 -0.598491 0.935074 -0.155768 1.05745 0.326495 0.674329 -0.317063 0.392796 -0.522625 -0.807773 0.884504 -0.625757 0.980365 0.863599 -0.80277 -0.611102 -0.63732 -0.278477 -0.416105 -0.479204 -0.192965 0.27823 -0.228952 0.457144 -0.618348 0.501228 -0.755125 0.156049 -0.614278 0.835642 0.800334 -0.193205 0.847697 -0.251481 -0.265304 0.0357768 1.16008 0.382968 1.2648 -0.30846 0.54132 0.990307 -0.0451672 0.344155 0.922774 0.164482 0.566216 1.25767 0.73401 -0.844187 -0.328748 -0.524157 0.592822 0.239646 0.802355 0.541493 -0.577377 0.742187 -0.579804 -0.477131 0.245443 -1.03347 0.0110729 -0.284619 -0.745359 0.400812 0.29889 -0.922589 -0.629053 0.242886 -0.63142 0.495142 -0.00360249 -0.0154353 -0.477187 -0.397665 -1.14306 -0.926033 -0.370932 0.528797 -0.789277 0.12444 -1.16765 0.575528 -0.616036 0.651195 0.303096 -0.0677677 0.537354 -1.08498 0.583482 -0.109523 -1.0034 -0.134804 -1.15142 -0.542923 -0.56212 0.314162 -0.347509 -0.102266 -0.268789 0.255427 -0.28789 -0.990883 -0.470091 0.573401 -0.107411 -0.250382 -1.01571 -1.17713 -0.546512 -0.629071 0.129069 -0.491271 -0.777246 0.894952 -0.540443 0.705604 -0.176332 -0.884995 0.912594 -0.0805339 0.528092 -0.678953 1.09621 0.655712 0.0777683 -0.365007 -0.0857233 
0.906029 0.860576 -0.752312 0.488463 -0.109541 -0.398225 -0.604506 -0.172107 0.831189 0.430933 -0.0104052 0.784818 -0.933847 0.552612 0.128293 -0.270752 -1.04765 -0.00514878 0.256131 0.79721 -1.00702 0.471226 0.722718 -0.205184 -0.114861 0.879992 -0.287194 -0.608375 -0.249458 0.301288 0.549697 -0.326662 0.171063 0.8439 -0.783389 -0.925343 -0.547211 -0.370288 -0.116906 -0.71023 -0.947934 -1.10601 -0.926805 -0.922355 0.507022 0.24466 -0.155231 0.569925 -0.673822 -0.794338 0.457335 -0.620562 0.749245 0.274626 0.308337 -0.268538 0.210212 -0.938157 0.174644 -0.928928 0.468645 -0.124243 -0.179668 -0.278757 -0.210155 0.148453 -0.0806268 0.372491 -1.06534 -1.0225 0.809258 -0.915954 -1.0074 -1.00322 -0.721156 0.569918 0.299551 0.19829 0.193295 0.703463 0.470192 -0.249934 -0.785843 0.328661 -0.938151 0.555829 -0.836153 0.376296 0.752767 0.517106 0.549428 0.306736 -0.525913 -0.500856 -0.846593 0.387691 0.790598 0.233229 -0.0567784 0.84962 0.277358 -0.232305 -1.02508 0.289699 -0.187458 -0.663363 -0.0525523 -0.811059 0.632193 -0.731401 -0.919074 0.244959 0.0771521 -0.698489 -0.390831 0.233934 -1.01088 -0.0982215 -0.295673 0.834628 -0.464716 -0.602186 0.263399 0.0998073 -0.0251932 0.514627 -0.41868 -0.157565 -0.184256 0.605923 -0.243982 -0.867737 -0.516822 -0.150681 0.5523 0.356484 0.253866 -0.390859 0.634791 -0.072739 -0.106463 0.701768 -0.878773 -1.02971 -0.919887 -0.199386 0.213841 -0.89007 0.77706 -1.0221 -1.01875 -0.708401 -0.66667 0.2545 0.395475 0.321458 -0.215527 -0.9941 -0.79689 0.643836 0.614255 -0.0253864 0.846937 -0.945314 0.78693 0.357669 0.402543 0.0165599 -1.06525 0.0415595 -1.0735 -0.187979 -0.215922 -0.900177 -0.181801 -0.0222735 0.00866771 -0.853782 0.166486 -0.180988 -0.836564 0.270278 0.251311 -0.428119 -0.450186 -0.278701 -1.03538 0.485882 -0.188493 -0.70485 0.192064 -0.50696 0.333364 0.0810314 -0.324756 0.272019 -0.39254 -0.748332 -0.544652 -0.330389 0.412841 -0.514268 0.597816 -0.726181 -0.34861 -0.534916 0.281079 0.727223 -0.312474 -0.440053 -0.302821 -0.0249957 0.836691 -1.02395 0.619194 -0.472903 -0.206317 0.738496 -0.911178 0.709787 -0.871639 0.371603 -0.676307 0.626755 -0.360681 0.170935 0.0429199 0.343963 0.499707 0.571244 -0.878964 -0.0624348 -0.920273 0.742056 0.311127 -0.153228 -0.677823 -0.3048 -0.300196 0.137071 0.330738 0.4249 -0.825951 0.324307 0.592624 0.932739 0.937763 -0.560361 0.727062 -0.893874 -0.759046 0.947353 0.560506 -0.343663 0.680369 -0.69269 0.94778 -0.153347 0.74615 0.496823 -0.561091 0.9041 -0.469985 -0.4163 0.724942 0.941142 0.50311 -0.897615 -0.320171 -0.73932 0.221909 -0.972361 0.726824 0.389816 0.323847 0.297513 0.356212 0.314209 0.782193 0.0737083 0.41206 -0.962737 0.0412534 0.0180349 -0.257195 -0.254657 0.35157 -0.311995 0.544099 0.0815408 -0.820022 -1.04189 -0.0519398 -0.314687 -0.466139 -0.356144 -0.387834 -0.967614 -0.280858 0.246086 -0.708641 -1.02089 0.354807 -0.869799 0.491952 -0.22024 0.521863 -0.0497947 -0.817747 0.405597 -0.846078 0.641303 0.511087 0.187201 -0.249328 -0.704451 -0.943508 -0.804146 0.0917634 0.65846 0.375452 0.344472 0.721236 -0.566789 -0.820224 -0.59257 0.271282 -0.0355677 -0.419919 -0.933104 -0.748616 -0.0535688 -0.883958 0.683221 0.149298 0.679111 -0.48431 -0.278303 -0.316551 -0.216555 -0.821577 -0.148614 -0.508044 0.771253 -0.842858 0.382977 -0.779968 -0.700344 0.643306 0.374638 -0.934738 0.148972 -0.0916191 -1.03013 0.737543 0.229826 -0.511568 0.0888504 -0.72998 0.117444 0.178721 -0.453144 -0.837126 0.453505 -0.634685 0.413242 0.265103 -0.0329199 -0.806874 -1.0317 0.826906 -0.476858 0.0167727 -0.572667 -0.612705 0.267179 0.845386 -0.335204 0.611469 0.566954 -0.938658 0.771568 -0.197654 0.10103 0.854273 -0.294781 -0.514458 -0.515502 0.796533 -0.287739 0.576212 0.032782 0.318925 0.816351 -0.471731 0.75698 0.32635 0.842062 -0.287518 0.479419 0.821048 -0.459098 -1.00047 -0.154677 -0.00608819 -0.641653 -0.914427 -0.171359 0.0078304 0.732802 -0.584047 0.115821 0.542395 0.253572 -0.765722 0.409207 0.894621 -0.351002 0.816343 0.648464 0.31513 0.381118 -0.340198 -0.340131 0.210198 0.173501 -0.618718 -0.542197 -0.0233332 0.145988 -0.967446 -0.0847402 0.808609 -0.897232 0.800299 -0.102678 -0.428965 -1.00628 0.824917 0.679182 0.800229 -0.699553 -0.170139 0.430755 0.569838 0.0873799 -0.0995967 0.557927 0.865537 -0.208004 0.308196 0.287906 -0.696577 -0.833194 -0.880458 0.661432 0.459514 -0.409037 -0.791635 -0.466159 0.844817 -0.681455 0.506016 0.682341 -0.516107 0.367592 -0.364614 0.137365 0.459003 -0.454882 -0.203167 0.309913 -0.142884 0.743917 -0.129086 -0.42864 -0.0511419 0.855516 -0.741675 -0.0702366 -0.167271 0.780845 -0.628224 0.252048 -0.980715 -0.426408 0.0527842 0.554368 0.217228 0.302672 -0.846442 0.167555 0.729302 0.741672 -0.0626114 -0.698144 0.179051 0.681162 0.499836 -0.266241 -0.698801 -0.567459 -0.816163 0.258468 -0.784969 0.060893 0.862414 0.194478 -0.0340756 -0.769336 -0.789319 0.866553 -0.922569 -0.327746 0.244933 -0.76898 0.355417 -0.698619 0.784782 -0.399888 0.684239 0.970407 0.803708 0.440563 0.810136 -0.224341 0.757679 -0.0104748 -0.556853 0.260056 0.725467 -0.23411 0.70545 0.874519 -1.04362 0.865435 -0.0763752 0.842037 0.0913118 -1.08815 -0.914018 0.333611 0.807578 -0.806245 -0.987476 0.0087057 -0.633366 0.307423 0.253066 -0.878134 0.881589 -0.0871813 -0.871143 0.665701 -0.674206 0.884711 -0.562163 -0.886963 -0.0682093 -0.0127748 0.471147 -0.270996 0.80113 0.285066 -0.320115 0.871816 0.238921 0.725338 0.753385 -0.644959 0.678846 0.923688 0.780787 0.578756 -0.862321 0.853764 -0.366903 -0.416198 0.25356 -1.00903 -0.182372 0.339024 0.0702816 0.0785332 0.0396902 0.452827 0.064797 0.60449 0.691868 -0.897246 -0.301904 0.31037 -0.103931 -0.498307 -0.449963 0.651452 -0.591056 0.853605 0.372815 -0.837887 -0.727972 0.164597 -0.821989 -0.914127 -0.24817 -0.624164 -0.956542 0.49734 0.128402 0.476598 0.642185 -0.914301 -0.136986 -0.190586 0.316466 -0.997819 -0.692336 -0.579721 0.708846 -0.854444 -0.362825 -0.540336 0.422741 0.622003 0.0732357 -0.865581 0.361695 0.520068 -0.976314 -0.16446 0.78306 -0.66906 -0.977412 0.990426 -0.529459 -0.146761 -0.555476 -0.335169 -0.542624 0.665715 -0.8266 -0.872341 0.841866 0.157559 0.0519706 0.19527 0.215607 0.409403 0.705118 -0.0552962 0.557607 -0.669772 0.423736 0.0560399 0.984429 -0.489702 0.142325 0.32636 -0.96779 0.181704 -0.83442 0.800877 0.470292 -0.867671 0.760937 -1.04381 -0.0215753 -0.781963 -0.392414 0.422224 0.89307 -0.205695 0.554919 0.70729 0.911459 -0.441171 -0.165109 0.0345214 0.869425 -0.52703 -1.03416 0.424512 -0.201356 0.38968 -0.554655 -0.202293 -1.05192 0.666703 -0.823349 -1.00023 -0.102674 -0.541213 0.890129 -0.541843 -0.359671 0.743382 -0.556284 0.691975 -0.988832 0.11038 0.176202 -1.0007 -1.0328 -0.208849 0.753177 -1.04118 0.410344 -0.269054 0.100881 0.427351 0.30154 0.15665 -0.0846591 -0.815999 -0.32115 0.49676 0.13119 -0.225649 0.279324 0.450508 -0.129845 -0.826698 0.868961 -0.231242 -0.345245 -0.416408 -0.437584 0.154345 -0.668879 -0.381627 -0.667579 0.535954 -0.341282 -0.597347 -0.584649 -0.480617 -0.526211 -1.02124 0.35001 0.70594 0.53653 -0.166657 0.0761988 -0.426119 0.0737657 0.774667 -0.808983 -0.662555 -0.338243 0.512554 0.80247 0.578519 0.765287 0.825413 -0.54461 -0.478724 -0.561627 0.0290731 0.671979 -0.218443 0.703011 -0.898869 -0.634423 -0.540222 -0.40994 -0.0919355 0.0801846 0.175978 0.00735314 -0.438183 0.0295724 -0.397215 0.403692 -0.916444 0.25359 -0.463415 0.892512 0.416554 -0.146146 -0.443377 -0.0263488 -0.26012 -0.838623 -0.316022 -0.529064 -0.491666 0.151786 -0.13154 0.542619 -0.178796 0.623848 0.20582 -0.115134 -1.00962 0.644142 0.463182 -0.0969941 -0.284433 -0.367826 0.872635 0.198202 0.563469 -0.561944 -0.430511 0.565496 0.566982 -0.0119067 0.432641 -0.0303271 0.819695 -1.03512 0.857694 -0.514353 -0.902301 -0.401508 0.0127227 -0.340437 0.798192 0.942359 -0.695593 -0.330119 0.6601 0.575268 0.669058 0.703863 0.286573 0.187758 -0.316725 -0.920358 0.892549 -0.429276 0.34623 0.537532 0.0972537 -1.04072 0.169473 -0.249688 0.0838262 -0.259641 0.80407 -0.0227958 -0.20814 0.791414 0.609721 0.0499338 -0.421064 -0.239414 0.845503 -0.594558 -0.3194 -0.850285 0.113975 -0.675749 0.778853 -0.149386 -0.907424 0.0942654 -0.952329 -0.217428 0.207649 -1.02118 0.445767 -0.363885 0.617348 -0.299067 -0.190792 -0.00743166 0.590748 -1.03038 0.844862 0.54291 0.127314 -0.248279 0.433024 -0.132646 0.947117 -0.928435 0.617365 0.798388 -0.49549 -0.575306 -0.929411 0.703701 -0.173671 0.918914 -0.443484 -0.10166 0.0199321 -0.370003 0.758091 -0.703131 -0.308595 0.330289 0.0490603 -0.600425 -0.921677 0.938366 0.505216 0.761667 0.958716 0.35012 0.303405 0.06937 -0.875949 -0.288907 0.904517 -0.923612 -0.204186 0.544684 0.912923 0.252774 0.888429 0.925949 -0.0787114 -0.3568 0.746373 0.437556 0.528577 -0.256751 -0.987456 0.250624 0.0232607 -0.294348 -0.438322 -0.931919 0.10662 -0.365969 -1.05112 -0.488273 -0.697325 0.830579 0.815264 0.535553 -0.166084 0.897291 -0.764966 -0.282825 -1.07686 -0.0284685 -0.806398 0.776582 -0.771785 -0.912892 0.697526 0.173827 -0.25535 0.521839 -0.306641 -0.653087 -0.674268 -0.199224 0.696595 0.406487 0.556951 -0.728832 0.556953 -0.262585 -0.00421734 0.546218 0.333119 0.389761 0.467447 0.216591 -0.0194558 -0.597292 0.235273 0.336918 0.205266 0.229844 -0.588096 0.521937 0.144132 -0.245007 0.778364 0.00106357 -0.901883 -0.461713 -0.492629 -0.18352 -0.0970909 -0.150938 0.659919 -0.366555 -0.616584 0.246478 -0.00493453 -0.990781 -0.921986 -0.954067 0.61167 0.470295 0.540688 0.273313 -0.121763 -0.27024 0.803073 -0.791779 -0.859984 0.161772 0.639422 -0.286008 -0.193779 -0.151036 0.599173 -0.385924 0.876104 0.757443 0.208535 -0.548476 -0.355199 -0.827864 0.434399 -0.674357 -0.221043 0.721656 0.594906 0.805959 0.765465 0.678252 0.898339 0.503794 0.260779 0.507928 -0.23014 -1.00504 
-0.616468 -0.260261 -0.547059 -0.533863 0.796082 1.00405 -0.0339838 -0.520666 -0.22884 -0.357736 -0.0252654 -0.447846 -0.820078 -0.806115 -0.106884 -0.266019 -0.886276 -0.873343 -0.0790081 -0.202256 -1.02399 -0.393531 -0.270033 0.675529 -0.916424 -0.504652 0.297693 0.666712 -0.688992 -0.81623 0.860589 -0.457712 -0.379346 -0.91709 -0.416164 -0.684392 0.9358 0.716494 -0.270905 -0.271329 -0.532847 1.04013 0.205033 -0.503708 1.17451 -0.849335 0.432128 -0.710488 -0.61976 -0.275202 0.550936 -0.4712 0.412344 -0.737498 -0.718802 0.685074 -0.0306726 0.625334 0.208181 0.0779426 0.718168 0.00234241 0.560935 -0.761414 -0.0989789 -0.867239 -0.389071 -0.00488409 1.04509 0.471601 0.647621 -0.610096 0.310256 -0.24066 -0.0891454 0.274851 -0.309181 -0.712282 0.49003 0.0548846 -0.259925 -0.20387 0.345019 0.972068 -0.0910786 0.525529 0.563129 0.813465 0.0161083 -0.352309 -0.258115 -0.514341 0.502969 -0.731731 -0.292206 -0.45529 -0.493051 0.1528 0.320105 -0.728258 -0.655165 -0.381108 -0.65176 0.396415 0.109245 -0.018999 -0.616754 0.605381 -0.00211593 0.611811 -0.579977 0.582242 1.16187 0.557742 0.304849 -0.203155 -0.0616222 -0.290492 -0.478776 0.818738 0.304645 0.244433 -0.769739 -0.249004 0.379216 -0.248141 0.0668104 0.620943 0.709155 1.13136 0.613821 0.813412 -0.509789 0.524154 -0.193971 0.28054 -0.588477 0.0648091 -0.439235 0.105815 -0.609133 -0.132399 -0.547129 -0.856092 -0.717958 0.586916 -0.0434383 0.177308 -0.671797 0.558257 -0.308554 0.16846 -0.734766 -0.339486 0.900167 0.577681 0.275593 -0.181119 0.325642 -0.0620665 -0.141331 -0.52272 -0.759547 -0.154856 -0.855387 0.277759 -0.815091 -0.419895 -0.793274 0.179908 0.695362 -0.319478 1.2458 -0.477987 0.339638 -0.793242 0.962494 -0.577303 0.502714 -0.753772 0.804913 1.02436 0.448688 -0.803236 -0.351112 0.184723 0.733599 0.836288 0.939204 -0.158353 -0.325147 -0.518493 0.294253 0.0867085 0.477977 0.527715 -0.587299 0.963355 1.13117 -0.287775 0.0150508 0.89202 0.475138 -0.103751 0.994009 -0.482408 0.0192953 0.953275 -0.365722 -0.776988 1.02225 -0.656831 -0.780631 0.351546 -0.56601 -0.124537 -0.438005 -0.846367 -0.39267 -0.744719 -0.235651 0.324711 -0.0798592 -0.678218 -0.556021 -0.560758 0.727934 -0.339701 1.16303 0.608801 0.0460722 -0.196881 0.226311 -0.722798 0.460924 0.0377512 -0.460957 -0.728303 -0.19763 0.0448936 -0.740035 -0.480008 0.145152 -0.757514 0.830534 0.429758 0.0308477 -0.7427 0.465676 0.615879 -0.464622 -0.728278 -0.208074 0.247662 -0.634009 -0.0361901 0.432252 0.860748 0.340319 0.271105 0.126067 -0.97014 0.779485 -0.793288 -0.728729 0.104877 0.0681446 -0.384699 0.147455 0.633752 0.402388 0.0478764 -0.973957 -0.654177 0.306542 0.823807 0.901959 -0.567815 0.865793 -0.0241734 0.618085 -0.938896 -0.243169 -0.846036 0.156228 0.108491 0.184521 -0.619127 -0.242244 -0.853915 0.58074 0.833249 -0.735347 0.0457345 0.823601 -0.674075 -0.806448 0.158618 0.210286 0.451384 -0.0238921 -0.238236 -0.0700267 -0.177119 -0.0422507 -0.674061 -0.483634 -0.412491 -0.398545 -0.841708 0.315475 -0.862143 -0.847945 -0.837646 -0.640592 0.305454 0.273192 0.41827 0.65578 0.99348 0.536744 0.134284 0.852392 0.88428 -0.571191 0.986738 -0.579724 -0.268215 -0.0517568 0.586116 1.26439 0.595507 0.923301 -0.304699 1.0699 -0.369018 -0.175781 -0.67375 0.012214 0.287188 -0.515801 -0.738642 0.298509 -0.349156 -0.510992 0.626177 0.828488 0.549962 -0.0942972 0.498705 0.820475 -0.321426 -0.251793 0.675519 -0.376235 0.0730385 0.392248 -0.257436 0.356223 1.01693 0.94972 0.315146 0.275947 0.616903 0.854123 0.202326 1.0785 -0.472052 0.372768 -0.0979831 0.51925 0.55432 0.0293186 -0.214952 1.12349 0.362001 -0.634418 0.930661 -0.0185694 0.279699 0.330716 -0.449518 0.774629 0.804549 0.979364 1.04962 -0.503259 0.0676445 -0.575895 0.528804 -0.203533 -0.75821 -0.23644 0.963607 0.63793 -0.619025 -0.142862 0.423905 -0.222511 -0.956581 -1.09651 -1.07307 0.248149 0.0374108 -0.223591 0.434219 -0.771549 -0.236408 0.183538 -0.0463197 0.964772 -0.706707 0.21409 0.433959 0.930811 -0.0215278 0.145569 -0.968509 0.886873 0.469461 0.644301 -0.479456 0.696991 -0.676771 -0.344452 0.469832 0.128755 0.531824 -0.0377408 0.576466 0.576929 -0.0510414 0.545959 -0.0157818 0.873755 -0.779431 -0.455022 0.856582 -0.141685 0.339204 -0.499103 -0.250092 0.777989 0.938832 -0.722112 0.628385 -0.0387175 0.400208 0.641863 -0.322922 0.169667 0.438332 0.501904 -0.000145894 0.847628 1.12494 -0.581965 -0.305403 0.647252 0.1608 1.0018 -0.127545 0.716032 0.366821 0.844179 0.404804 0.355277 1.18906 0.276944 -0.790969 0.636637 0.973493 0.00949796 0.330379 0.743759 0.149833 0.0087541 -0.361506 -0.264878 -0.161064 0.608381 1.06657 1.33889 -0.0698903 -0.213665 1.00332 -0.210821 -0.0999906 -0.586953 1.16097 0.73302 1.08331 -0.22447 0.361893 0.28643 -0.467657 -0.34095 -0.573632 -0.530771 0.614308 -0.57946 0.99282 0.494672 0.398609 0.256399 0.140108 -0.567486 1.06877 0.635886 -0.0521418 -0.367867 -0.0643613 -0.402808 -0.393905 0.596459 0.0669827 -0.844385 -1.01907 0.593416 -0.472075 1.02678 0.288147 -0.518952 -0.201792 -0.641516 0.4442 0.0394573 -0.186148 0.601438 0.256523 -0.78307 -0.978351 0.249779 0.723553 0.350993 -0.850879 -0.360584 0.592765 -0.84598 -0.977808 -0.797896 -0.486761 -0.263877 -0.270016 -0.166813 -0.980105 0.527764 0.0857312 -0.840891 0.223638 0.320584 -0.71204 -0.355271 1.09235 -0.00842749 -0.139909 0.567552 0.991658 0.785416 0.169926 0.0783302 -0.94343 0.313116 -0.693038 0.78406 -0.484706 -0.617103 -0.677506 1.00562 -0.529142 -0.654358 -0.723469 -0.0369061 0.202572 0.199986 0.838114 0.15603 -0.491327 -0.0888953 0.509687 0.973465 -0.436164 0.677966 -0.45731 -0.53885 -0.451021 0.406216 0.87394 -0.630437 -0.0300803 -0.265414 0.280759 0.0873599 1.08978 0.564465 -0.265844 -0.552475 0.951125 0.0396784 -0.516206 -0.610747 0.407735 -0.262812 0.285073 -0.47328 0.754625 0.177753 0.900452 -0.513432 1.18149 0.44179 -0.580885 -0.438428 0.00770987 -0.312835 -0.156855 0.337142 0.945907 -0.630392 0.307869 -0.315622 0.0597095 -0.387886 0.679442 -0.131539 0.901482 -0.762357 0.0494008 0.679602 0.11858 0.409096 0.997023 -0.621814 0.985053 0.160336 -0.269342 0.533688 1.11014 -0.639461 0.705882 1.04228 0.481377 0.838538 -0.705965 0.978942 -0.87435 -0.17735 0.307507 0.984477 0.2529 -0.391678 -0.28771 1.08688 -0.13999 1.0561 -0.326982 -0.470334 0.881515 0.385707 -0.873553 -0.0456137 -0.33583 0.962989 0.142942 -0.437167 -0.113624 0.613944 0.74181 -0.330041 0.650672 0.173675 -0.446786 0.0158273 -0.186953 -0.281587 0.057754 0.00975693 0.487539 -0.81784 -0.0518547 -0.384858 -0.421671 0.526438 -0.432554 0.383532 0.250541 0.164311 0.87217 0.0260652 -0.30085 0.809085 0.940702 0.165431 0.824121 0.133923 0.719829 -0.232744 -0.360084 0.563511 0.53577 -0.489808 -0.126232 -0.734416 0.391278 0.660535 -0.112061 -0.70681 -0.334718 -0.334099 -0.361219 0.462268 0.255389 0.0775195 -0.296546 0.713453 -0.684353 0.732902 -0.307659 0.701467 -0.422619 -0.00629828 0.623218 -0.491413 -0.690475 0.38768 0.452663 0.883895 1.02428 1.07105 0.341146 0.464888 -0.540353 -0.803252 0.711005 0.961147 1.13047 -0.329406 -0.620854 -0.337137 0.139394 -0.194041 1.0377 1.27147 0.803606 -0.468544 0.582718 0.682343 0.817557 0.991782 0.336909 -0.502802 -0.00443933 -0.240866 -0.274401 -0.0839725 0.94778 1.05799 -0.268745 0.867784 1.06089 0.994537 0.353659 -0.538565 1.01391 -0.32167 0.976921 0.721981 0.0514011 1.09784 1.14601 0.917923 -0.355991 0.691053 0.693482 1.00091 1.19802 0.193955 0.670513 1.04064 0.154145 0.0176245 -0.658769 0.756912 0.363094 -0.226866 -0.270795 0.245186 -0.326692 -0.0118343 -0.430566 -0.754997 -0.218015 0.869724 -0.423724 -0.223229 -0.57994 -0.526155 -0.848361 0.0433677 -0.802611 -0.877037 -0.19805 -0.251247 0.855149 -0.536367 -0.493997 0.617758 0.612829 -0.693185 0.590539 -0.39631 0.0914413 0.694171 -0.859987 -0.775343 -0.569971 -0.238628 0.426645 -0.115806 0.723744 -0.888495 0.282301 -0.546887 0.786887 0.854235 0.0897709 -0.788417 -0.637109 0.489498 0.482408 -0.154429 0.645881 -0.579229 0.542135 0.338564 -0.236178 -0.718792 0.272654 -0.594949 -0.51992 -0.293075 -0.135193 0.276879 -0.6675 0.13172 0.585496 -0.511229 0.494588 -0.491855 0.236007 0.0839209 -0.489818 -0.54303 0.654582 -0.42843 -0.420576 0.0721329 -0.126533 -0.0716174 -0.468725 -0.611588 0.92449 1.19628 -0.0632146 0.422117 0.646371 0.595944 0.602987 -0.254692 1.02058 1.08044 0.456418 -0.27142 0.121741 0.398953 0.388676 -0.621994 0.827354 -0.104508 -0.212052 -0.161159 0.94799 0.287966 0.29223 0.568915 0.798984 0.803437 -0.472349 -0.47315 -0.221817 -0.0287615 -0.281752 -0.723368 -0.184642 0.310908 0.399039 1.08292 -0.293745 -0.236992 -0.275927 -0.594567 -0.599971 0.811782 -0.0062866 0.515436 0.0333036 -0.711702 0.694296 -0.122691 0.192929 -0.69156 0.321065 -0.0394793 0.704443 -0.145344 -0.61023 -0.0558552 -0.943878 -0.588781 0.272809 -0.378202 0.195 1.01097 -0.233071 0.832979 -0.0555991 0.681836 0.610857 0.544032 -0.464903 -0.641056 0.685351 -0.250397 0.823718 -0.648659 -0.805237 -0.0629854 -0.202374 0.741849 0.493885 0.650847 0.672553 -0.0915852 -0.484346 0.463764 0.453397 -0.417626 -0.753818 0.519118 -0.0209874 0.536338 -0.953446 -0.81813 0.350555 -0.00600429 -0.821767 -0.478408 -0.135064 1.02991 0.889615 0.205838 -0.810444 0.637464 -0.930452 -0.832017 -0.641032 -0.729537 -0.00737237 -0.025927 0.971222 -0.665866 -0.426245 0.727981 0.141606 -0.223501 -0.341279 -0.907616 0.195322 -0.124134 0.498136 -0.75776 -0.632887 0.644991 -0.429728 0.976686 -0.358945 -0.245931 -0.574713 0.431798 -0.188924 -0.499372 -0.0708688 0.155098 1.31786 -0.162138 0.0994134 -0.618906 0.129749 0.94869 0.361879 -0.0760094 0.929338 0.372878 -0.826871 -0.115287 -0.813104 -0.199846 -0.251179 0.189369 0.677466 -0.665923 0.359927 1.01376 0.890538 0.925844 0.893604 -0.668781 -0.489896 1.24614 0.689877 0.0742506 -0.638197 1.1874 0.853529 -0.701474 
-1.15639 -1.28475 -1.40031 0.133254 -1.22845 -0.198429 -0.909474 -1.00217 -0.515039 -0.933663 -0.805841 -1.26361 -0.771738 -0.523429 -0.445056 -1.66984 -0.821251 -0.452565 -0.57535 0.265173 -0.529024 -1.21106 0.306826 -0.365871 -1.45629 -0.606576 0.620044 -0.846318 -0.205224 0.711241 -0.477091 0.883354 -0.765416 -0.498902 0.323137 -0.256299 1.02452 0.088224 -0.0854514 -0.00700153 1.22316 1.20641 0.947705 0.324155 0.401751 0.496207 0.502956 1.36026 0.856838 0.644396 0.295433 -0.0227961 0.547149 -0.0900359 0.645897 0.944413 0.960514 0.84943 1.59403 -0.0996944 0.719205 -0.584961 1.23956 0.602422 0.0752107 0.164167 0.991932 0.391625 1.52116 1.72443 0.79363 1.152 1.35084 2.49309 1.64193 1.36668 0.586414 1.79205 0.848222 0.340315 1.01369 -0.157339 1.03402 0.958063 0.821443 0.246631 0.340903 -0.217272 -0.581774 -0.431119 -0.378667 0.600199 -0.0241947 -0.581935 -0.144585 0.864382 0.273631 -0.448594 -0.492109 -0.209591 1.13198 0.252217 0.471069 -0.293966 0.306549 -0.399491 0.307869 0.689529 -0.680583 -0.749301 -1.00525 0.449923 -0.718434 -0.361367 -0.854407 0.330606 0.217324 -0.207357 -0.242773 -0.05319 -0.255819 0.462022 -0.52163 -1.41683 0.462851 -0.0820011 -0.0946935 -1.00506 -0.404243 -0.162851 -0.97516 -0.291398 -0.346494 -0.60063 0.800144 -0.984946 0.00767687 0.515424 -1.15241 0.329619 -1.28143 -1.17123 0.055446 -1.29926 -0.605793 -1.04036 -1.05736 -0.158316 0.29712 0.126169 -0.906935 -0.959687 -0.4735 -0.20218 -0.541281 -0.0240779 -0.388946 -0.32966 -0.744227 -0.398299 -0.281573 0.496675 0.647664 0.808386 -0.896222 1.04978 1.27505 0.720461 1.07941 1.35607 1.28255 1.25506 0.133259 0.490815 -0.366359 1.29125 0.648132 -0.732596 -0.214037 0.493157 0.704734 0.404217 1.19908 0.384543 0.185044 0.367481 -0.312034 0.648533 0.75543 0.119989 1.51026 0.859853 0.861951 0.615152 0.492942 1.4189 0.515574 0.29056 0.108301 0.497214 1.91977 1.33667 2.22843 2.05422 1.94688 1.76751 1.18484 0.609534 1.18389 -0.403051 -0.279289 1.47951 1.54384 1.81562 0.340626 1.25314 0.290771 0.0730192 0.315613 -0.631914 0.760036 0.0921191 1.2651 0.589876 -0.394661 0.807611 0.550546 0.152802 -0.195925 -0.443471 0.189695 1.02498 0.262065 -0.37278 0.360029 -0.416784 -0.995302 -0.693 0.663562 -1.42692 -0.467359 0.332251 0.15443 -0.926107 0.815352 -1.11941 0.268659 -0.445411 -0.108036 -0.501495 -0.605815 -0.979909 0.280087 -0.85842 0.034024 0.457781 -1.45332 -0.786868 -1.03646 -0.980118 -0.359914 -1.71407 -1.16042 -0.656919 -0.446847 1.06728 0.204454 -0.433782 -0.664832 -0.298063 -0.56602 -0.13658 -0.695882 -0.747198 0.0455651 -0.210115 -0.275005 -0.251785 0.295067 0.0561685 -1.33146 -0.606028 -1.04303 -0.763531 0.306979 1.15611 -0.350475 0.588808 0.0289033 0.316313 -0.605075 -0.689327 0.427291 0.40378 0.178535 -0.517506 -0.237426 -0.598951 1.01515 1.18329 0.959719 -0.209971 0.529925 -0.321051 -0.162112 -0.612615 0.590716 0.835131 0.998852 0.184505 0.411997 -0.787388 1.00424 1.21813 -0.450169 0.0933926 0.677125 -0.181175 0.112332 -0.271493 -0.309435 0.703134 0.252619 1.07926 1.67664 1.18608 0.874732 0.637081 1.87911 1.13387 0.607902 1.77972 1.76784 0.924283 1.00752 0.975051 0.714479 -0.0221619 0.833256 0.475701 1.127 0.126438 0.495728 0.252201 1.10375 0.0909895 -0.744915 0.275717 1.20344 0.0180899 0.765646 -0.575484 1.13296 -0.521788 0.952904 0.813615 0.780089 0.329162 -0.489471 0.0919458 0.859286 -0.649013 0.865373 -0.620264 -0.128993 -0.996634 -1.27295 -1.3366 -0.82321 -0.148352 -0.511763 -0.638961 0.625468 0.55064 0.0740134 0.409938 -0.047796 0.201165 -0.521444 -0.315637 -1.44839 -1.37565 -0.345527 -1.00611 -1.04247 -0.676707 -0.0308186 -0.0666921 0.0987926 -1.68267 -0.49993 0.755199 -0.392485 -0.191636 -0.401031 0.232548 0.0124762 -0.470445 -1.07256 -1.13948 -1.27762 -0.705838 -0.518418 -1.11012 -0.0872901 -0.83866 -1.37345 -1.12567 -1.38446 -0.383198 0.0633719 -0.219962 0.499763 -0.167926 -0.398116 0.210759 0.128736 -0.800602 0.431742 -0.122011 -0.0485454 -0.161824 0.44423 0.320038 -0.23163 0.658436 0.260216 0.0084253 -0.10423 0.311242 0.785084 0.342866 0.627556 0.742687 0.599477 -0.0748978 -0.364364 0.560676 -0.164313 -0.0686637 -0.442239 1.53898 0.488914 0.345526 -0.547453 0.841691 0.244128 0.824954 -0.618356 0.347831 0.24833 0.120214 0.534398 0.946539 0.752258 1.49188 0.44556 1.67421 2.28625 1.74085 2.43225 0.911392 -0.0710211 0.887698 0.597447 1.13405 0.0553613 1.26833 0.355586 0.312781 -0.314866 0.494449 0.296549 0.596231 -0.725071 -0.463623 0.183818 0.692047 1.30677 0.377528 -0.858186 -0.569263 0.575164 -0.111325 0.445202 -0.562151 -0.622914 1.04275 0.921882 -0.439112 0.0971299 0.885108 -0.0798329 -0.554863 -0.213982 -1.50493 -1.44228 0.353447 -0.22397 -0.462012 -1.21344 0.161182 -1.1899 -0.308135 -0.258445 -0.988286 0.135633 0.276969 -1.42925 0.0502001 -0.537646 -1.16961 0.547932 -1.07264 -0.826986 -0.244523 -0.973582 -0.371284 0.0910522 -0.642403 0.655503 -0.612374 -0.19087 -0.476623 0.266011 -1.33761 -0.471016 0.321574 0.047223 -1.29471 -0.802822 0.0590811 0.495638 -0.796768 -0.479176 -0.294102 -0.0445935 -0.721392 -0.74051 0.625335 -0.193048 1.02534 0.98211 -0.638212 0.850589 -0.808172 0.398203 0.169092 1.22806 0.46733 0.601986 0.243088 0.342235 -0.519788 -0.359659 0.183698 -0.2462 1.01918 0.0850916 0.879033 0.564723 0.673809 0.711679 0.443764 -0.694452 -0.356645 -0.9766 1.12323 0.604797 0.418077 1.2177 1.13594 -0.481551 -0.0368617 -0.71396 -0.344348 0.907285 1.46551 1.43589 0.978754 0.714037 0.184626 0.175289 -0.0410036 0.424195 0.860376 1.17087 0.678412 0.0185728 2.07664 0.480766 1.21127 1.36406 1.44304 1.12318 0.204109 -0.1963 0.269325 1.71837 1.62809 1.11704 0.73474 0.218816 0.616251 -0.625841 0.785863 -0.583762 0.881586 0.68935 0.506421 0.189044 -0.246883 0.795846 0.44684 -0.0319366 -0.365289 -0.369373 -0.540888 0.149001 -0.579989 -0.992545 -0.280099 0.330723 0.110796 -0.747758 -0.709782 0.108605 -0.5277 -0.46352 0.341272 -0.0889663 -0.574888 -0.548622 -1.70805 -1.19303 -0.603933 -0.239173 -1.03886 -0.83607 -0.018182 0.898574 0.529614 0.272107 -0.111266 -0.952015 -1.21003 0.359285 -0.209558 -0.686478 -0.652019 0.210169 -0.363131 0.138019 -0.244273 -0.944023 -1.25565 -0.647569 0.243662 -0.899049 -1.91087 -0.32489 0.281689 -0.399253 -0.605546 -1.10682 -0.266653 0.131946 0.965919 1.03647 -0.361782 0.231527 0.185954 0.225372 -0.923952 -0.144108 -0.612842 0.755674 -0.626348 -0.184739 0.369705 -0.649251 -0.771072 -0.572591 1.2538 0.861596 0.704675 1.0206 0.966604 -0.0375237 0.0702455 -0.731307 -0.600116 -0.0245752 0.0649281 -0.0831896 0.263532 -0.290417 0.0724832 0.615592 1.2388 0.115457 0.740867 0.249813 -0.680965 -0.161728 1.80313 0.622345 1.55449 0.40266 0.969425 1.3802 0.427352 1.55315 1.82762 0.037313 0.386785 0.647058 2.25733 2.23385 1.67793 1.23141 -0.272515 1.86831 2.09779 0.492059 0.0995024 0.892949 1.09416 0.333934 1.24429 -0.0978543 0.242135 0.887661 -0.642087 0.766495 -0.524317 1.38682 1.02152 1.0614 1.39628 -0.0839815 0.328302 -0.137413 -0.222279 0.12091 -0.00279775 -0.305072 0.335998 -0.12758 -0.797256 -1.04479 0.336017 -0.937428 1.15 -0.156687 -0.593123 -1.13608 -1.04982 -1.0228 0.0591803 -1.15245 -0.454405 -0.749911 -1.22384 -0.358914 -1.65351 -1.29083 -0.106829 0.448675 -1.00134 0.0893503 -1.03761 -0.466643 -0.114389 -1.38513 0.120844 -1.29227 -0.712201 -0.833035 -0.210738 -0.565725 -0.340378 -1.05439 -0.38043 -0.56157 -1.65718 -1.70613 -0.428239 -1.0194 -1.10334 -0.973606 -0.0308297 0.335261 -0.372553 -0.153071 0.145178 0.787034 -0.856018 -0.418897 -0.681029 -1.10293 0.885843 0.577064 0.208091 0.870815 0.928951 -0.611191 -1.31224 -0.504189 0.32825 0.0928105 1.31559 0.481076 1.395 -0.307964 0.178802 0.58006 0.386158 0.011191 -0.537144 0.805406 0.697195 0.919652 0.982857 0.548 1.4015 0.794101 -0.0824571 1.20577 1.01589 0.417478 0.930844 1.21698 0.346355 0.843136 1.17197 0.286691 1.43097 1.35565 0.876351 0.855567 0.396926 0.72165 1.32749 2.01067 1.99361 0.724587 1.97372 0.745206 0.886625 2.07687 0.662642 0.497489 1.67397 0.503572 1.5301 0.539333 0.646099 0.699219 -0.418796 -0.209015 -0.149669 1.20739 -0.635615 0.669123 0.00150977 0.543553 1.1183 1.37907 -0.139657 0.442894 0.15842 0.0794902 0.901439 0.868883 -0.290762 0.268703 0.893761 0.473162 0.459428 0.0316108 1.11633 -1.26475 -0.292399 -0.101502 -1.22542 -0.672723 -0.390198 -0.00487227 -1.34264 -0.387997 -1.4075 -0.987085 -0.973047 -1.64714 0.0567567 0.135491 0.00541774 0.284613 -0.379124 0.028654 -1.32354 0.0496796 -1.20248 0.283462 0.207658 -1.00674 -0.56958 -0.363948 -0.679085 -1.04886 -1.55799 -1.08386 -0.879632 -0.323329 -1.78637 -0.366298 -1.70538 -0.836544 -0.618821 -1.24045 -0.178576 -0.613029 0.0784405 -0.298928 0.342355 -0.170482 0.331887 -1.20851 -0.937061 0.395892 -0.45742 -0.0518895 -0.164089 -0.864478 -1.12114 -0.739093 0.380069 0.187748 1.6921 -0.0859831 0.63652 0.498661 -0.513176 -0.390481 0.395902 0.0235782 0.782049 0.323946 0.642514 -0.0675479 0.980147 1.00485 1.69046 0.860824 1.82494 0.683715 1.26286 1.39125 1.07375 0.0756115 0.961638 1.84902 0.978539 -0.151996 0.604013 1.20416 0.65922 2.19489 0.518652 -0.0596395 1.82562 2.22026 1.98844 0.959099 0.46614 0.913996 1.26097 2.26106 0.827978 1.41694 0.941902 1.9917 1.99934 1.22297 -0.152463 0.663369 -0.212094 -0.693142 0.478896 -0.74685 -0.483053 0.100842 1.42176 0.865133 0.0348964 -0.286473 0.0260874 0.730372 -0.257839 0.235034 0.638954 1.45014 -0.0770482 0.130039 -0.374262 -0.216488 0.298448 0.781662 -0.462383 0.33983 -1.3668 -0.652732 -0.290388 -1.26678 -0.152251 -1.35786 -1.3814 0.530723 -1.23069 -0.0560392 0.138663 -1.25468 -0.139087 0.951193 
