0.578333 -0.22961 -0.878276 0.142156 -0.42137 -1.02552 -0.711521 -1.28344 -0.291339 -0.353779 -0.717748 -0.575445 -0.0427742 -1.62357 -1.09173 -0.730807 0.157476 -0.600429 -0.352575 -1.39056 -0.705771 -0.922739 0.214904 -0.917594 -0.324795 -0.463198 0.620148 0.489963 -0.525463 0.265697 -0.0257661 -0.66583 -0.435758 0.56507 0.757793 0.633197 -0.905619 -0.759611 0.738152 -0.0120701 0.410742 -0.619284 0.622185 -0.255036 -0.437097 -0.76756 0.753266 -0.28322 0.582566 0.334393 0.0356196 -0.13617 -0.893476 -0.284022 0.137116 0.142655 0.787664 0.366736 0.649983 0.108354 0.347761 -0.271216 0.746106 1.23145 -0.519784 0.43991 0.68668 -0.115629 -0.572208 1.01623 1.1638 1.24522 -0.639031 0.928794 0.0416042 0.566697 -0.483901 -0.411065 -1.14513 0.903782 0.986114 0.0771152 -0.491725 -0.768929 -0.878248 0.823787 0.391857 1.05118 0.299147 0.0652253 0.138489 1.06003 0.352166 -0.894596 0.669177 0.76299 0.393124 0.132728 -0.715952 0.665514 0.0445825 -0.737518 0.181385 0.260166 -1.08565 -1.09482 -0.480442 -0.997805 -0.556873 -0.366728 -0.981075 -0.483731 -1.12295 -0.492161 -0.0844213 -0.835722 -1.02263 -0.927355 0.863932 -0.1012 -0.45514 -0.514657 -0.279896 0.787923 -0.417661 -0.601868 0.356962 -0.666079 -1.22865 -1.11236 -0.808874 0.174315 -0.71339 0.530243 -0.358057 -0.751771 -1.17939 0.397912 -0.470343 -0.53572 -0.896588 -0.766078 -0.0681505 -1.06939 -0.171554 -1.58329 -0.991356 0.360041 -1.25149 -1.12011 -0.908172 -0.78731 -0.463444 0.221623 -0.611788 -1.31741 -1.07028 -0.89169 -0.782607 -0.903089 -0.674645 -0.302354 0.563288 0.138982 -0.220137 -0.488989 0.775824 -0.205914 -0.780137 -0.340638 0.583339 -0.267586 0.636186 -0.192891 0.257476 0.237051 0.0629071 -0.94407 0.182895 0.672634 -0.401025 0.93419 -0.898819 0.857481 0.762286 0.139079 1.10502 1.25144 0.644513 -0.427458 -0.597837 -0.218313 0.540764 -0.910768 0.934024 -0.041512 -0.0207433 0.880928 0.902851 0.822847 -0.317658 0.158135 1.14201 -0.689205 -0.949501 0.158178 0.483871 0.220587 0.333502 -0.129689 -0.532841 0.886064 -0.181281 -0.258284 0.687659 -0.336133 1.17342 1.07373 -0.468362 0.686776 -0.572365 -0.219442 0.862224 0.833565 -0.167465 0.742394 -0.605194 0.774494 0.20465 0.68203 -0.444316 0.621017 -0.406694 -0.484778 0.737287 -0.400434 0.592649 0.381519 -1.06507 0.0745989 -0.54738 -0.53023 0.339379 0.489193 0.122493 -0.0778816 0.637513 -0.0452105 -0.555768 -0.910718 -0.544311 -0.425564 -0.25636 -0.53742 -0.52899 0.784037 -1.19542 -0.570556 0.63212 0.281922 -0.788478 -0.872757 -0.278147 -0.222118 -0.330411 0.0200221 0.925246 -0.274051 -0.630846 -1.62908 -1.41748 -0.234546 -0.974437 -0.242509 -0.850152 0.180433 -1.42395 -1.22036 -0.636075 -1.08794 -0.969096 0.358059 0.1828 0.584357 -0.750013 -1.35249 0.0599515 -0.917358 -0.645813 -0.375217 0.434651 0.21331 0.465231 -0.0960912 -0.427795 -0.417015 -0.928925 -0.70425 0.336759 -0.120446 -0.741245 0.264167 -1.17818 -0.230659 -0.448607 -0.264012 0.0406095 -0.164381 0.123154 -1.18962 0.257376 0.626283 0.782114 -0.132887 0.220601 -1.17472 -0.279164 -0.256542 -0.62999 -1.30242 -0.840743 -0.570112 0.440415 0.937741 0.577797 -1.52204 -0.592943 -0.0523562 -0.79737 -0.973937 -0.336077 0.211885 0.554731 -0.415062 -1.11411 -0.833773 0.0752825 0.282598 0.151585 -0.273643 0.601671 -0.155924 -0.739875 0.896481 -0.44761 -0.00614137 0.604009 0.264462 0.239907 -1.14395 0.399913 0.521075 0.0250902 0.107115 0.723544 -0.379017 0.447326 -1.00317 0.883721 0.570477 -0.669459 -0.759902 -0.554055 0.544112 -0.201826 -0.109035 -0.741034 -0.551397 -0.294166 0.655722 0.162302 -0.998105 -0.708112 0.847958 0.427639 -0.29015 0.486943 -0.265358 0.866967 -0.329619 -0.250313 0.232491 -0.350981 0.644554 -1.04412 -1.07275 1.02006 0.0602124 -1.01565 0.57688 -0.201637 -0.928565 -1.34339 0.51451 -1.11799 -0.436557 -0.804169 -1.25521 0.0274092 0.0466939 0.47257 -0.375749 0.0895373 -1.41089 -1.27481 0.0515056 0.0779089 -1.23186 0.926328 0.170007 -0.644397 -0.55907 -0.0516226 0.64888 -1.00167 -0.923147 0.0597685 -1.55433 -1.21445 0.737399 0.790852 0.1226 -0.622481 0.973226 -0.618818 -0.883 -0.303251 0.392562 -0.614611 -0.744628 -0.102217 -0.213853 0.0426013 -0.544649 0.252744 0.427233 -0.492405 -1.42701 -0.324587 -0.92214 -0.359792 -0.897077 0.0906357 -0.0209767 0.379431 0.365 -1.23002 -0.388219 0.276983 -0.940246 0.260608 0.245944 0.096372 0.160839 0.176214 -1.05271 -0.835692 -0.651537 0.689915 0.293918 -0.157959 0.282975 0.610899 -0.357385 0.253721 0.681467 2.13179 0.524665 0.989603 1.37898 1.64431 1.03047 2.16588 1.82726 0.82472 2.23167 0.599506 1.18724 1.99272 1.05366 1.33715 1.056 0.762831 1.36476 1.7166 1.96003 1.0052 0.55069 -0.2235 0.221744 0.836808 0.961792 1.37914 1.08916 0.908354 0.123562 -0.462169 0.386954 0.49453 0.563112 -0.631058 -0.409464 1.28409 -0.251825 0.476588 -0.868116 -0.902852 -1.0839 -0.107942 0.997387 0.268313 -0.448524 -0.463158 0.614244 1.10311 0.417031 -0.000844145 -0.630562 -1.37021 0.265965 0.21899 0.377871 -0.343931 -0.242086 -0.39639 -0.999839 0.481609 -0.00366133 0.35106 -0.490192 -0.750075 -0.825608 0.334473 -0.117604 -0.19084 0.0129534 -0.049625 0.469432 0.409211 0.785091 0.408698 -0.697746 -0.710139 0.574154 -1.31916 0.82666 -0.370417 0.301155 -0.193987 0.10813 0.471235 -0.627381 -0.236873 -0.616763 0.406277 0.816042 -0.352049 -0.26861 0.0607065 -0.53897 0.580753 0.382586 -0.235583 -0.394037 0.392569 -0.115945 0.391437 -0.88974 -1.01089 0.0667973 -0.835536 -0.206406 -0.337821 -0.31101 0.224421 0.0367972 0.213558 -0.456472 -0.0215358 0.18423 -0.483274 -1.24156 -0.273845 0.629203 -0.909233 0.119655 0.844632 1.37336 2.03593 1.40386 0.316369 2.4745 1.06828 1.20263 1.14476 1.77471 1.2924 1.88802 2.58089 2.69372 2.80885 2.6889 0.849062 1.55741 -0.127753 2.10445 1.35404 0.672204 1.05817 0.807857 0.930201 1.51006 3.69482 2.89037 0.663284 0.687509 1.12537 0.434928 -0.154332 1.52823 1.49226 0.0342969 0.66425 1.42322 0.961898 1.10927 -0.0778882 0.7884 1.25918 0.0811915 1.03851 0.243686 -0.764943 -0.935466 -0.671772 -0.807971 0.835731 0.332414 0.290076 0.533608 -0.532001 0.478149 -0.727447 -0.67427 -0.0562259 -0.15554 -0.23737 -0.981016 0.664551 -0.174175 -0.568332 -0.202964 -0.00720599 0.0823578 -0.0143966 -1.14848 -0.643964 0.204234 0.291327 0.0199116 0.134221 1.30974 0.0392313 0.916858 1.62181 -0.340586 0.690375 1.04031 0.960571 0.00052229 0.302473 -1.26583 -1.07953 0.209132 -0.566753 0.59606 0.121809 0.705341 0.860231 -0.723381 -0.219952 0.0392672 0.429636 -0.866632 -0.416882 -0.299139 -0.549117 0.0244628 -0.343714 1.14359 0.882066 -1.01123 -0.210745 -2.01095 -0.526242 -0.931597 -1.50642 -0.608695 -0.572924 -1.28103 0.221566 -1.29071 -0.734213 -1.80945 -0.212081 -0.464934 0.0520569 -1.85076 -1.13636 -0.31134 -1.08761 1.05152 -1.78662 -1.08602 -1.2581 -0.350519 0.244242 0.690437 1.63106 0.96085 0.45975 1.64938 2.56769 3.40716 2.33515 2.66492 2.54561 1.58769 0.985815 -0.478421 0.75095 0.599486 -0.00815462 2.62463 0.885171 1.78941 0.703057 -0.331298 1.82572 0.480936 2.10405 1.32722 1.0024 2.27967 1.00912 0.272284 2.6132 3.55469 1.79614 1.73419 1.44406 1.36266 0.899733 1.5965 1.14274 0.110708 0.195019 0.0128151 0.37369 0.645359 -0.0774442 -0.914974 1.08989 -0.0691649 0.938299 -0.281221 -0.465447 0.314613 -0.409478 -0.787206 0.613743 -0.902176 -0.531487 -1.05746 0.469987 0.141403 -0.745562 0.761177 0.0329049 -0.162182 -0.104066 -0.929976 -0.741136 -0.978538 0.480483 1.34598 0.0409905 0.413773 0.444741 1.96984 1.71901 1.62225 2.1395 1.67347 1.36158 1.65595 0.307054 -0.180908 -0.025686 -0.308523 -0.792011 -0.317618 0.0378368 0.109335 -0.0831082 -0.299018 -0.474564 0.236876 -0.549349 0.143131 -1.22809 0.231149 0.532219 -0.395799 0.8975 0.271605 -0.330824 -0.775757 0.211815 -0.290843 -1.62887 -0.655171 -1.69172 -1.69505 -0.465008 -1.48672 -1.83046 -0.176351 -0.818851 -0.262685 -1.21202 -0.899006 0.16466 -0.424516 -2.7136 -2.01375 -1.19092 -1.03373 0.847391 0.629341 -1.48156 -0.98523 -0.67579 -1.16026 0.381358 0.518405 1.62077 -0.186903 0.845724 1.26609 2.28016 1.38885 1.42116 0.168559 0.204299 0.544246 -0.0257471 0.231832 -0.916341 0.717088 1.42168 0.644644 2.23698 1.1952 0.370929 0.401182 1.26531 2.36752 1.9786 1.50487 1.02357 1.66086 0.377504 0.639184 1.53253 1.07444 2.68747 1.54485 0.44342 1.5794 1.30228 0.433878 0.773283 0.981208 -0.583047 -0.0427903 1.74597 -0.302967 -0.0310116 -1.17016 0.0762666 -0.483018 -0.044883 0.401398 -0.302221 0.68026 0.644542 0.262008 -0.131679 -0.648997 0.834765 -0.361781 0.309695 -0.458609 0.882786 -0.237961 -0.662886 0.345101 0.573794 -0.505843 -0.33806 -0.775194 0.212534 -0.601002 1.05697 0.486682 0.101888 1.79657 2.18187 1.78296 1.84385 1.0776 1.55741 0.198246 0.159442 -0.0758591 -0.803266 0.437527 1.00661 0.173935 -0.505674 1.08775 1.25799 0.886952 -0.641893 1.20453 -0.682712 -0.746346 -0.354002 -1.25543 0.433246 -0.686023 -1.11651 -0.473165 -0.885028 -0.186237 -0.810784 -1.21448 -0.820961 -0.981591 -0.0843205 -1.36518 0.0553124 -0.0220216 -0.428258 -1.05386 -0.48192 0.615434 -1.07634 -1.79384 -1.12759 -1.36747 0.635351 -1.32944 1.19318 0.473071 1.11244 0.205025 -0.381105 -0.155979 -0.881726 -0.86734 0.130986 0.134665 0.906872 2.24516 0.406641 0.196208 0.618547 1.40959 0.343324 -0.733942 -1.22414 1.09889 0.0885357 1.04026 0.950514 1.14716 0.971409 1.34478 1.26688 1.67141 2.64212 1.81922 2.03574 2.70285 2.38559 1.97463 0.959331 1.41067 1.64313 0.993075 2.01098 3.25486 2.39836 0.495025 1.41754 2.23358 1.8667 2.29108 1.1962 1.13188 1.37959 0.947423 0.692188 -0.682549 -0.192038 -0.481764 -0.616985 0.27873 -0.908817 0.668788 -0.395767 -0.821699 -0.68846 
0.260568 0.48834 -0.570655 -0.841493 -1.2183 0.540304 -0.824471 -0.529913 0.0846697 0.554458 -1.03458 0.0682073 -0.584944 0.649743 0.456096 -1.01076 -0.0978029 0.251927 0.902696 -0.765934 -0.764781 -1.05685 -0.028166 -0.0871122 -0.21762 -0.395263 0.241741 -0.636555 -0.0448365 0.096071 -0.555066 -0.456135 -0.0280844 0.178219 -0.041387 0.110666 0.248241 0.586935 0.911087 -0.492621 0.0651495 0.902817 0.635465 0.844678 0.794586 0.0470134 0.718857 -0.380704 -0.561005 0.781292 0.0473753 -0.0917469 0.939153 -0.891668 0.893431 -0.155906 -0.131714 0.308866 0.251121 0.692448 -0.651605 0.564996 -0.80188 0.39437 -0.239989 0.129511 -0.581818 -1.00064 -0.380152 -0.788632 -0.803834 0.817092 -0.865857 0.881735 0.593604 0.790789 0.00310894 0.462023 -0.390792 0.634202 0.407953 0.67363 -0.334223 0.499605 0.676998 -0.534517 -0.866722 -0.605234 0.529328 0.143939 -1.09788 -1.2208 -0.240662 -0.793215 0.321119 0.784057 0.452945 -1.24589 -1.24304 -0.695906 -0.909404 -0.909494 -0.765416 -0.754982 -0.795704 -1.03625 -0.718215 0.41113 0.536699 -0.130346 0.0128234 -0.0509058 -0.382369 0.55093 -0.570463 -0.341109 -0.786452 -0.298263 0.0451933 -1.20844 -0.942063 0.255704 -1.19281 0.0594571 0.68534 0.272952 -0.127405 0.347933 0.210011 -0.110098 -1.08761 -1.23541 0.432235 -0.513106 -0.536715 -1.11599 -0.160119 0.106523 0.616238 -0.377266 -0.7031 -0.198463 -1.15682 0.296393 -0.226828 -0.324256 -0.876725 0.235219 0.567371 0.389542 0.17345 0.890442 -0.152671 0.280795 0.217732 -0.128942 -0.118724 -0.588213 -0.474763 -0.397281 0.691956 -0.186476 -0.33329 0.621935 0.664091 0.33163 0.813046 -0.178369 -0.442371 0.305047 0.347501 -0.0304507 -0.669196 0.289523 -0.735472 0.0793111 -1.00323 -0.4658 -0.631272 0.665161 -0.981795 0.634849 0.63058 0.0976113 0.188804 0.115459 -0.999301 -0.899344 0.614973 -0.371157 -0.392628 0.272078 0.445881 0.296815 -0.190338 0.205071 -0.491056 -0.70673 0.594061 0.00501151 0.612822 0.00864963 -1.00148 -1.13051 -0.764594 -0.659539 0.143721 -0.580326 0.049003 0.541948 -0.67643 0.253825 0.264796 0.99981 -0.88788 -0.719648 -0.137617 -0.917548 -0.72735 -0.721934 -0.311205 0.00539819 0.736236 -0.625352 -0.809704 -0.724477 0.446876 -0.11509 -0.282205 0.15834 -1.11432 -0.626875 -0.716991 -0.815055 -0.43053 -0.153651 -0.351842 0.636458 0.161598 0.677278 0.359481 0.482781 -0.0457634 -0.188412 0.500698 0.178745 0.131007 -0.675683 0.526484 0.812891 -0.0519283 -0.591249 -0.0676898 -0.339585 -0.354627 0.314129 0.199455 -0.751261 -0.611593 -0.607492 -1.07209 -0.169739 0.283798 -0.401796 0.376437 -0.926598 0.549214 -0.858615 -1.02048 0.0226754 -0.943746 0.670724 -0.224365 0.376729 -0.259928 -0.434695 -0.287741 -0.925228 0.0532345 -0.592444 -0.873686 -0.717137 0.0576612 0.345512 0.245264 -0.943401 -0.0207645 -0.0308523 0.0955832 -0.965639 0.839507 0.280661 0.180366 0.168743 -0.850161 -0.491385 0.532415 0.824713 -0.0931365 0.835169 0.147286 0.333642 0.619503 -0.94497 -0.231152 -0.381151 -0.295294 0.778768 -0.0367846 0.920152 -0.717913 0.509641 -0.319769 0.953337 -0.136047 0.923698 -0.995806 -0.885378 0.159581 0.12894 -0.607519 0.119291 -0.327083 0.732205 -0.13681 -0.203349 -0.767266 -0.891823 -0.282175 0.259307 -0.966277 0.745524 -0.492916 0.746084 0.963608 0.405356 -0.410178 -0.30045 0.216548 0.579033 -0.440367 0.642765 -0.220195 0.00958061 0.0207323 0.590518 -0.165125 -0.00307021 0.725078 -0.924744 -0.501488 -0.702298 0.123512 -0.210575 0.549986 0.670349 0.554107 -1.14685 -1.10348 -0.838277 -0.0292517 -0.90074 -0.81973 0.613583 -1.08336 -0.943937 0.114995 -0.354611 -0.139799 -0.524593 -0.777116 0.489257 -1.1119 0.241187 -0.344655 -0.0164777 0.0737417 -1.13434 -0.971657 -0.281413 -0.862701 -0.219028 0.0495884 0.356287 -1.3777 -0.483535 0.324842 0.569138 -0.164046 -1.25548 -0.748358 -0.691868 -0.794389 -0.312855 -0.921025 -0.738353 -0.0942414 0.46685 0.426159 -0.580332 -0.719734 -0.896117 -0.533131 -0.28534 0.227295 0.22947 -1.21743 -0.760054 0.086303 -0.535116 0.431597 0.45504 0.279752 -0.238369 0.256417 0.44974 -0.967359 0.317051 0.870285 0.262134 0.489852 -0.665447 1.06101 0.796318 0.172515 -0.81114 -0.492495 -0.130441 -0.632657 -0.299875 0.488805 0.118809 -0.605273 1.01792 0.961303 1.33247 0.53141 0.978848 0.0455902 0.317231 -0.145615 -0.0452662 0.232618 -0.457468 0.725725 -0.118147 -0.572253 1.35212 1.18102 1.28058 0.723433 0.957853 0.17702 0.749831 0.79398 0.905086 0.734174 -0.651763 -0.392326 0.959287 -0.433126 0.935634 -0.335325 -0.169414 0.669217 -0.848235 -0.222122 -0.0977851 0.532292 0.162668 0.614924 -1.00841 0.417557 -0.959307 -1.15155 -0.179095 -0.444279 -0.826958 0.0161256 -0.300512 -1.13537 -0.921598 -0.849291 -0.73169 -0.0230747 0.257164 -1.40489 -0.397423 0.419257 -0.816138 -0.379711 -1.0567 -1.01763 0.20155 -0.240482 0.643791 0.299269 0.427572 -0.51614 0.168122 -0.2598 -0.709 0.00617222 -0.774173 -0.364511 0.348934 0.317998 0.0478583 0.391958 -0.798471 -1.2376 0.500911 -0.744536 -1.2406 -1.23415 -1.10298 0.539168 -1.07919 0.123982 0.395355 -0.546973 -0.914199 0.540193 -0.400353 0.336641 -0.721462 -0.46327 0.00026376 -0.909891 0.506065 -0.434283 0.0495906 -1.27347 0.632787 0.469013 -0.667383 0.0563462 0.090765 -1.2986 -0.544606 -1.59065 -1.17065 -0.388823 -0.305436 -0.339954 0.288463 0.317944 -0.776455 0.212108 -0.415787 0.845469 -1.07174 -0.190632 0.908146 0.329825 0.166901 0.15531 -0.223412 -0.40951 0.554279 1.17397 0.15764 -0.230509 1.5579 0.117884 -0.178283 0.211691 1.6848 1.33509 0.287963 0.405556 1.1447 -0.0267902 1.21718 0.195614 0.509475 -0.027536 0.989089 0.920126 -0.327284 0.654881 1.29557 -0.464114 0.818416 0.598985 0.644062 -0.543615 1.33213 0.541286 -0.627328 0.0539103 0.0846991 -0.0557285 0.26787 -0.260146 0.235418 0.144164 -0.195645 -0.271453 -0.529166 0.143772 0.391627 -0.963718 -1.28357 0.127993 -0.239118 0.04429 0.878986 -0.461342 -0.515409 -1.19178 -0.016464 -1.22642 -0.957244 -0.668736 0.11303 0.575011 -0.468465 -0.0703228 -0.0927056 -0.31951 0.700149 -1.02726 0.332043 -0.333733 -0.49487 -0.407896 -1.00539 0.646817 0.520364 -0.343212 0.0329477 0.320203 -0.250189 -0.085361 -0.601947 0.5826 -1.06712 -0.848531 -1.09376 -0.518159 -0.974873 0.165189 -0.510005 -0.250183 -1.24219 -1.05121 -0.789656 -0.554678 0.188573 0.134386 0.346678 0.0199389 0.371363 0.0436122 -0.97505 -0.417434 -0.876584 -0.787225 -1.37505 0.323113 -0.682845 -0.386021 -0.613314 -1.61713 -1.14779 0.160485 0.397252 -0.887384 -1.11157 -0.636237 0.287624 -0.338682 -1.14803 -0.663746 0.318378 -1.03203 -0.346738 -0.819656 0.303969 -1.07488 -1.03152 0.363108 1.0068 1.25513 0.151086 1.45196 -0.0789878 0.188486 -0.280038 0.29658 0.471032 0.885924 1.6475 1.32785 0.984516 -0.245533 0.41432 0.635447 0.287667 0.436351 1.28174 -0.269278 1.23404 0.930253 -0.10018 0.829352 -0.263249 1.37113 1.77781 1.23 1.60757 1.36894 0.100487 1.22386 1.80947 0.840073 0.892628 -0.201696 -0.568093 1.02854 0.508728 -0.0101122 0.230042 0.0959642 -0.74072 -0.637744 0.196441 0.358141 0.515544 -1.01768 -0.641223 0.172514 -0.580862 -0.662015 -0.00223325 0.164748 0.773344 0.0055616 -0.17641 0.646961 -0.384041 -0.308634 0.519454 0.319638 -0.456758 0.580119 -0.367108 -0.96251 -1.0809 -0.167144 -1.17632 -0.0122823 0.633829 0.0698606 -0.76223 -1.11014 0.676801 0.562486 0.646799 0.624193 0.892758 -1.15816 -0.298446 -0.754622 -0.792108 0.518106 0.211383 -0.75364 0.0195965 -0.636914 -1.19015 0.664225 0.169123 0.494644 0.117109 -1.23206 0.0115498 -1.4911 -1.28581 0.0767364 -0.28706 -0.802636 -0.379487 -0.269416 0.42197 -0.290323 -0.472691 -0.0785089 -0.968368 -1.19147 -0.690689 -1.00638 -0.861615 0.536497 -0.334089 -0.319863 0.701647 -0.54283 0.202859 -0.105314 0.164656 -0.0894324 -0.743954 -0.249317 0.237246 -0.679053 0.163987 -0.134029 -0.314479 0.591432 -0.169639 1.20826 -0.679398 0.973334 0.194237 1.01657 0.0344998 1.522 0.958711 0.915724 -0.283484 -0.705768 1.34624 0.0373683 1.31745 0.166312 1.13196 0.780432 1.18873 0.732767 -0.276311 0.202617 -0.0265629 1.03473 1.78102 0.00488326 1.89703 0.957756 0.799181 -0.087979 -0.0548678 -0.530972 0.279829 0.140813 1.10963 0.926482 -0.278479 -0.17789 0.854902 0.679047 0.76231 0.840723 0.889866 0.848511 -0.390044 0.666152 -0.44306 -0.966509 -0.0159108 -0.941729 0.109794 0.649928 0.113468 0.822906 0.286278 0.0541135 -1.07286 0.354935 -0.834822 0.178743 -0.921272 -0.0458904 0.356444 -0.205798 0.625223 0.0576003 -0.657515 -0.992453 0.511713 -0.964125 0.714234 0.122912 0.688046 0.43102 0.175898 -0.239427 0.491895 0.915703 0.0686448 -0.676634 -1.22705 -0.859747 -0.791372 0.138169 -1.12756 1.02821 -0.288044 -0.642628 0.301148 -0.1606 0.369639 0.185996 -1.25513 -0.392997 -1.14611 0.0899101 -1.41813 -0.229505 0.99803 0.512531 -0.172917 0.45254 -0.537708 -0.863214 -0.329012 -1.316 -0.0426694 -1.04145 0.303292 -0.88176 0.0263462 -1.15672 -0.297911 0.681944 0.476587 0.383531 0.67015 -0.563129 0.653682 0.194948 0.0417306 0.653151 -0.441974 0.296384 -0.35537 0.0439774 0.160538 -0.0712926 -0.781 -0.01797 -0.296697 0.588402 0.240168 1.02653 -0.472113 -0.357663 1.07169 0.653719 -0.204161 0.652651 -0.496672 -0.490573 1.31125 0.710351 1.51778 0.919303 0.130994 1.18135 1.35954 0.0053745 0.484876 0.712126 1.55575 1.56352 0.145545 0.0650466 0.262635 0.793675 0.773621 0.351974 0.512638 1.44019 1.32477 0.639298 0.881099 -0.238309 1.00915 0.53806 0.654312 -0.711128 0.058071 -0.929356 -0.59145 -0.0450512 0.281854 -1.11527 -0.913336 -1.22504 0.593063 -1.08795 -0.771092 -0.471011 0.0452481 -0.981673 0.740039 0.211307 -0.526642 -0.450999 -0.247729 0.908756 0.479721 0.303403 0.610072 0.421148 -0.344095 0.0242247 0.419332 -0.632333 -0.450288 0.238575 -0.441838 0.650508 0.404601 -0.0102073 -0.443216 -0.145989 0.160174 -0.176649 -0.465167 -0.252954 -0.0995276 0.0726822 0.241101 -0.95703 
0.231693 0.394162 0.4232 0.806696 -0.972153 -0.782703 0.647816 0.495516 0.525434 0.346551 -0.0669729 -0.818906 -0.453844 -0.566771 -0.628443 0.0433232 0.695389 -0.0780431 -0.390843 0.0327577 0.895021 0.132797 0.750123 0.100149 -0.939277 -0.527736 -0.924764 0.0773229 0.545992 0.524557 0.145077 -0.22064 -0.0796627 -0.429995 -0.412259 -0.0501613 -0.211067 -0.762738 -0.552854 -0.683902 0.585514 0.381883 -0.501154 -0.866628 0.8168 -0.128009 0.17837 0.513848 0.795765 0.789297 -0.451683 0.692444 -0.0762465 -0.699859 -0.205734 -0.0138823 -0.226009 -0.12884 -0.934731 -0.678291 -0.602571 0.212 0.102711 0.319452 0.783757 0.692215 -0.728901 -0.425601 0.931147 -0.28005 -0.107808 0.518395 -0.896461 0.392685 0.653376 0.921859 -0.733668 -0.166704 0.43731 -0.936261 -0.375735 0.987353 0.757823 0.549775 -0.710864 -0.446075 -0.462251 0.0649244 0.426798 -0.395239 0.388414 0.826004 0.818499 -0.507125 0.147081 0.603893 -0.813237 0.419814 -0.820062 -0.880513 -0.858654 0.0736507 0.639395 -0.753602 -0.532088 0.294216 -0.830176 -0.264168 -0.870679 0.608887 -0.198725 -0.24496 0.597718 -0.439497 -0.693578 0.888397 0.115898 -0.15438 -0.0452058 -0.455744 0.451829 -0.655294 -0.628323 0.271709 -0.161102 0.520171 -0.123098 0.0269509 -0.0586899 0.0582133 0.147836 0.0840377 -0.866602 -0.211391 0.331857 -0.397287 -0.915627 0.503171 0.340042 -0.784934 0.113343 -0.85721 -0.0283906 -0.287362 -0.295088 0.279708 -0.397338 0.822561 -0.872936 0.559208 -0.631521 0.580555 0.905542 -0.25826 -0.146147 -0.25391 -0.736388 0.732574 0.774849 0.206617 -0.207518 -0.0756655 -0.707532 -0.0724764 0.714756 0.626026 0.53202 0.800787 0.130801 -0.126291 -0.982484 -0.754051 0.01814 -0.00920162 -0.0397878 0.724828 -0.72772 0.564646 0.549043 -0.598995 0.125452 0.91918 0.983214 0.0326263 -0.337419 -0.161269 0.780506 -0.0721906 -0.42701 0.556997 -0.863776 0.367185 -0.516935 -0.569659 -0.703486 -0.800504 -0.941863 0.830273 -0.997977 0.190576 -0.294349 -0.978852 0.438155 0.725411 0.0134797 -0.599974 0.45184 0.287452 0.966317 0.00247784 0.690139 0.0933904 -0.0766898 0.675158 -0.872011 0.587819 -0.484337 0.910232 -0.482544 0.0902994 0.468839 -0.34472 -0.540757 0.953576 0.0873132 -0.242654 -0.845282 0.146894 -0.410875 -0.84178 -0.660904 0.29632 -0.819159 0.778761 0.023254 0.195967 -0.8195 -0.52308 -0.514749 -0.851706 0.480933 -0.823227 0.243244 -0.594099 0.853409 0.372741 0.995197 -0.629511 0.284356 -0.486005 0.462209 -0.245416 0.170669 0.92284 -0.290466 -0.740615 -0.318439 -0.134402 0.407692 0.272111 0.0251664 0.749527 -0.430182 0.208805 0.528392 0.59462 -0.59497 0.71025 -0.925756 -0.107114 0.860078 0.55541 0.069953 0.104926 0.962938 -0.0750102 -0.520583 0.959763 0.297151 0.765435 -0.52458 -0.239008 -0.478335 0.647774 -0.31448 0.232885 0.908817 0.36878 -0.899752 0.318131 -0.357444 0.127071 0.0679163 0.214031 -0.663681 -0.402007 -0.189678 -0.257038 -0.690053 -0.115121 0.636295 -0.828318 -0.557982 -0.292046 0.278308 -0.593391 0.634727 0.759427 -0.631967 -0.0665064 0.526516 -0.15496 0.696299 -0.950114 -0.505457 -0.61648 0.28444 -0.594998 0.753985 0.386333 0.724826 -0.601766 -0.484838 -0.205466 0.614103 -0.146806 0.394242 -0.573876 0.597891 0.705829 0.312644 0.235631 0.879055 0.756246 0.945334 0.15898 -0.8355 0.581703 -0.0799249 -0.465826 -0.483078 -0.551563 0.381091 -0.78494 -0.499934 0.8774 -0.399697 0.786189 -0.715981 -0.644045 0.174183 -0.989485 -0.244236 0.690987 -0.19348 -0.628642 -0.454241 -0.797621 -0.201005 -0.854826 0.909674 -0.8868 0.382419 0.790347 0.871159 0.329466 -0.049113 -0.962806 -0.0873434 0.872684 -0.427121 0.431104 -0.677401 0.955467 0.647637 -0.176087 0.834159 -0.750617 -0.388402 -0.880358 -0.393378 0.78708 -0.868675 0.363648 0.480694 -0.0607503 0.736512 -0.973267 0.14447 -0.461654 -0.82544 0.0555187 -0.348393 0.557122 -0.153979 -0.474542 -0.110789 0.799888 -0.435923 0.803487 0.6728 0.137216 0.234861 0.996968 0.0942478 -0.115882 -0.177496 -0.0699606 0.135072 0.435711 0.0512269 0.743385 0.224444 0.184313 0.108725 -0.294361 -0.874603 -0.153065 -0.266058 0.270122 0.38558 -0.0912401 -0.673949 -0.961114 -0.532399 0.173699 -0.435348 0.357185 -0.0261144 0.129094 0.160987 -0.351621 -0.731907 -0.602366 -0.352996 0.364048 0.283458 0.471236 -0.704131 -0.5797 -0.0913941 0.348803 -0.834654 -0.865135 -0.465171 0.275755 -0.157882 -0.33813 -0.875549 0.577821 0.933755 0.511842 -0.511567 -0.738454 0.552373 -0.0424028 0.436816 -0.881395 -0.683592 -0.58758 0.249307 0.479053 0.0623996 0.519105 0.878372 0.711162 -0.115206 0.163487 0.184054 0.182443 0.585651 -0.905393 -0.467002 0.752639 -0.768881 0.0694491 0.0299849 0.0748912 0.733131 0.156105 -0.345634 0.668408 -0.330583 0.144221 0.931439 -0.776672 -0.896494 0.369874 -0.656411 -0.578453 0.784001 0.594601 0.902286 -0.151935 0.115104 0.782193 -0.439209 -0.998287 -0.0527356 0.746483 0.185634 -0.465597 0.842528 0.720122 -0.71151 -0.924854 -0.208909 0.319923 0.151319 -0.473231 -0.521207 0.808521 -0.803262 0.149726 -0.0456413 -0.8702 0.374724 0.0593721 0.501249 0.719816 0.481098 0.285367 0.314523 0.386173 -0.863676 -0.567312 0.16985 -0.30139 -0.564064 -0.881159 -0.553221 0.623216 -0.345181 -0.710377 0.343578 -0.0564658 -0.633658 -0.863656 -0.734756 0.519451 -0.336435 -0.255531 0.328403 -0.13926 0.894699 -0.716801 -0.00913284 0.269727 0.342893 -0.507504 -0.0102096 -0.174387 0.77952 -0.693943 -0.787849 0.916111 -0.261017 0.382381 -0.384913 0.175229 0.501591 0.0621464 -0.201231 -0.843215 0.353471 -0.855892 0.101988 0.721509 -0.717891 0.368926 0.242558 -0.0527001 -0.884903 -0.427358 0.809808 -0.988576 -0.142567 -0.197692 0.282802 -0.797832 0.296584 -0.725584 0.0293792 0.0776762 -0.418047 0.243089 -0.00471668 0.322573 -0.372865 0.612131 -0.500474 -0.869587 -0.324037 0.30002 -0.711128 -0.968808 0.445772 0.392507 0.754346 0.729559 -0.236701 -0.00128655 -0.321321 -0.119997 0.573011 -0.509871 -0.106858 -0.567785 0.294115 -0.822495 -0.364244 -0.407827 -0.546595 0.666755 0.671468 0.0369842 -0.0884595 -0.331455 -0.638651 0.540406 -0.717678 -0.137517 0.672324 -0.0401881 -0.835903 0.962858 -0.00739438 0.611508 0.357006 -0.251384 0.342674 -0.878157 0.748802 -0.977206 0.0032624 0.323278 -0.484358 0.899117 0.758203 0.809946 -0.923086 -0.604355 -0.594865 -0.466767 -0.935985 -0.921802 0.570593 -0.0242051 -0.253006 0.933364 -0.482335 0.0320417 -0.201349 -0.807021 0.993548 -0.0357251 -0.842612 -0.0123326 -0.423986 0.51464 0.737995 0.920324 0.638065 0.487039 0.944748 -0.357028 -0.188033 -0.539192 -0.457469 -0.429325 -0.72745 -0.378821 -0.0333697 -0.321979 0.154755 0.0309739 -0.243479 -0.273056 -0.991532 0.505159 -0.33807 -0.472246 -0.462505 0.460919 -0.278983 -0.468627 -0.574401 -0.121333 0.519499 0.00324004 -0.604962 0.257779 -0.0747556 -0.965242 -0.253482 -0.128343 -0.320605 0.560412 0.334312 0.223602 -0.86741 0.60836 0.846502 0.100853 -0.711965 0.00284961 -0.866402 0.0462797 0.731655 -0.856194 -0.446901 -0.604768 -0.326921 0.0921298 0.857679 0.39571 0.6252 -0.715053 -0.72388 0.146283 0.289897 -0.327192 -0.594167 -0.783152 -0.290831 0.153935 0.0901798 0.390234 -0.283983 -0.57377 -0.384286 -0.149774 -0.963832 -0.536128 0.952861 -0.674156 0.46837 -0.912014 0.373604 0.201481 -0.766703 0.928278 0.598275 -0.0920656 0.0220313 0.457582 -0.694475 -0.350958 0.744284 -0.416694 0.796855 0.0355997 0.257601 -0.795638 0.254154 0.96849 0.359993 -0.654023 0.360364 -0.922492 -0.226394 0.977506 -0.0695604 -0.187514 -0.555908 -0.11533 0.139808 0.912744 -0.0270933 -0.484922 0.117147 0.20922 -0.554972 -0.282946 -0.882453 0.467355 -0.824955 -0.575408 -0.880734 0.922009 0.0105127 0.917688 -0.0408165 -0.730229 -0.876408 -0.785026 -0.760225 0.485047 -0.437511 0.60036 0.562862 0.336404 0.579518 -0.506314 -0.850632 -0.975959 0.378823 0.289619 0.938523 -0.646454 0.805131 0.0560277 0.563132 -0.74952 0.773528 0.682301 0.719485 0.95011 -0.891558 0.838984 0.872415 0.119279 0.756988 -0.168056 0.389373 0.880881 0.0471961 0.629492 0.366291 0.610133 0.231449 -0.0692369 -0.0518521 -0.187376 0.426141 0.0993473 -0.161509 -0.193402 -0.609463 -0.221525 0.161772 -0.802704 0.836261 -0.273457 -0.550606 0.611499 -0.589374 -0.829381 0.563171 -0.479433 -0.988864 0.437192 0.641536 0.769713 -0.729186 0.0325389 0.65223 0.319625 -0.336333 0.0201791 -0.0685255 0.896882 0.952696 0.881382 -0.288818 0.380476 -0.0176298 0.551407 -0.811015 0.374585 -0.668435 0.352416 0.573567 -0.830546 -0.919385 -0.975512 0.782426 -0.507272 -0.803388 0.347161 0.0148384 -0.790645 -0.214026 -0.341892 0.980824 0.0585451 0.692454 0.634742 -0.620148 -0.642337 -0.343669 0.312926 -0.743767 -0.389284 0.195943 -0.0310566 0.992898 -0.820083 -0.478181 -0.815448 0.557189 -0.143901 0.538485 0.130808 0.0256887 0.619299 0.156906 -0.188938 -0.885052 0.355166 -0.840056 0.131429 0.566155 -0.0538033 0.789944 0.548509 -0.992297 0.485035 0.185853 -0.610936 0.842989 0.84389 0.703611 -0.897941 -0.543784 -0.0989254 0.072623 -0.549304 0.0812588 0.59484 -0.365724 -0.360992 -0.548485 -0.826724 0.771639 0.478991 0.794164 -0.0698799 -0.709577 0.909522 -0.712934 -0.549284 0.0412227 0.854853 0.398574 -0.16725 0.404876 0.406529 -0.681762 -0.408853 0.795953 -0.83713 -0.564632 0.499857 -0.734795 -0.108221 -0.598667 0.338164 0.342826 0.484277 -0.065392 0.978803 -0.87512 0.387854 -0.846232 0.898048 -0.131783 0.94943 -0.170188 0.160268 0.86057 0.118477 0.61276 -0.096458 -0.0249215 0.0129328 0.737996 -0.618405 -0.578914 -0.942177 -0.025762 -0.781402 -0.777751 0.411259 0.720046 -0.510931 -0.695218 -0.876924 0.828969 0.649317 0.609005 -0.234799 0.62977 0.735534 -0.845189 0.785179 0.635384 0.0246608 0.736216 -0.533088 -0.813326 0.598427 0.587061 0.800914 -0.49655 -0.436367 -0.184643 -0.756886 -0.053231 0.23805 -0.697456 0.922915 0.458484 -0.473502 0.335824 0.180144 0.0170678 0.642213 0.304658 -0.152355 0.293178 -0.0846558 0.614623 -0.0754504 -0.347461 0.770937 -0.287555 -0.709336 -0.201756 -0.54989 -0.242439 -0.0149309 -0.951277 -0.652454 -0.212363 
-0.380854 -0.0313337 0.683589 -0.119271 0.931618 0.00476727 0.169985 0.862541 -0.61662 0.709093 0.194539 0.521319 -0.301104 -0.140477 -0.127778 0.581931 -0.866177 0.789566 0.215343 0.0660908 -0.572283 -0.0342928 0.782379 -0.264187 0.764539 -0.775833 0.48879 -0.252558 -0.742868 0.851134 0.545792 -0.149835 -0.340698 0.062398 0.498418 -0.513316 0.86053 -0.470459 -0.798375 -0.96003 -0.812738 0.374695 0.62116 -0.0973331 -0.85734 -0.664916 -0.676464 -0.851568 -0.939403 0.406845 0.22586 -0.401478 -0.531294 -0.0691149 0.228335 -0.895357 0.0694124 -0.422502 -0.254365 0.233118 -0.651896 -0.874665 -1.06925 0.00360086 0.177678 0.536517 0.565781 0.224816 -0.715987 0.942916 0.481368 -0.407843 0.382441 0.163844 0.478036 0.524806 0.608899 0.90884 0.818228 0.794562 0.49474 0.162567 -0.498483 0.996081 -0.884397 0.710658 -0.893293 0.212704 -0.625965 -0.0449574 -0.415374 -0.146892 0.220385 -0.320171 0.939912 -0.375521 -0.746842 0.507543 0.827921 -0.367457 0.542626 0.412734 0.258014 -0.0021953 -0.403548 -0.233923 -0.420995 -0.689155 -0.26387 -0.569596 -0.86554 -0.804877 0.550051 -0.30539 -0.719329 0.691248 -0.598958 -0.584946 -0.0177734 -0.103954 0.420717 0.582558 0.58753 -0.380618 -0.792095 0.481509 0.137145 -0.579531 0.0418859 0.0729085 0.0821715 -0.379904 -0.596292 -0.78523 0.388124 -0.153294 -0.181765 0.893722 0.0675817 0.432188 -0.731875 0.229145 0.679228 0.807367 0.850504 0.869004 0.489355 -0.772605 -0.811745 -0.63077 -0.0221152 0.46881 0.818451 -0.458948 0.966623 0.899869 0.968773 0.0718363 -0.735095 -0.0245804 0.87622 0.0442004 0.279429 -0.919876 0.00578485 -0.492901 -0.274468 0.695751 -0.657792 0.812842 0.152181 -0.408151 -0.0869447 -0.296263 -0.745324 -0.330241 -0.499941 0.698133 -0.0599495 -0.211563 -0.92319 0.811004 -0.834892 0.745548 -0.750429 -0.986842 0.573111 -0.866006 -0.0236421 0.610233 -0.071565 -0.204158 -0.337453 -0.720066 -0.0406581 -1.03542 0.100787 1.02553 0.916537 0.621003 0.880147 0.0991962 -0.818556 -0.201031 -1.10613 -0.469664 0.581127 -0.535883 -0.697423 -0.380791 0.474973 -0.545748 -0.549081 0.445731 -0.880094 -0.237167 0.637877 0.820966 0.0285403 -0.245506 0.669338 -0.79069 0.740247 -0.537247 -0.525823 -0.231819 -0.497915 0.721035 -0.155358 -0.510872 0.345867 -0.333272 0.60793 0.628307 0.612929 0.683786 -0.725501 0.293398 -0.766939 -0.474174 0.839168 0.767471 0.100518 -0.545115 0.449824 0.374466 0.269742 0.241935 0.331042 -0.607653 0.8766 -0.0948685 -0.549409 0.591134 0.532534 0.117101 -0.39854 -0.759611 -0.0210557 0.391026 -0.282848 -0.795758 0.949167 -0.788399 0.774257 0.519083 0.833293 0.928504 -0.224857 -0.846348 -0.410431 -0.274425 0.894246 0.528491 0.0280615 0.204355 -0.222143 -0.781338 -0.729609 0.969038 -0.572068 -0.876891 -0.146315 -0.140557 0.692684 -0.674455 0.94047 -0.874919 -0.72828 -0.358827 0.162718 -0.298998 -0.36393 -0.00958783 -0.194397 -0.708172 -0.629448 -0.424884 -0.815467 0.110986 -0.38802 -0.409862 0.593181 -0.629407 -0.988466 -0.34671 0.620627 -0.187962 -0.189507 0.860566 -0.231264 0.11516 0.897838 0.55434 0.882188 0.459026 0.777038 0.78152 0.516279 -1.00555 -0.688207 -0.324223 -0.205258 0.173505 0.941926 0.991116 0.779149 -0.532191 -0.490247 0.986752 0.60508 0.36138 -0.363049 0.478229 0.97941 0.102025 -0.672647 0.641063 0.953626 0.0493227 0.278197 -0.578126 -0.94526 0.0427346 -1.09322 -0.8942 -0.318581 0.939422 1.01905 -0.714975 1.07923 -0.606062 0.219147 -0.203545 0.572835 -0.0416639 -0.416 0.249078 0.400492 0.236395 0.313735 0.0728455 -0.523104 1.06806 -0.453329 -0.579427 -0.227481 -0.482913 0.600258 -0.306513 0.614083 0.213604 0.353679 0.866433 -0.554662 0.49149 0.930714 0.124284 0.278545 0.765115 0.354954 0.225719 -0.765634 -0.482534 1.09652 0.796171 0.551816 -0.191531 0.158402 -0.0128235 0.967066 -0.658898 0.950653 -0.57511 -0.623462 -0.539465 -0.271848 0.180302 -0.0506407 -0.655395 0.719794 -0.518325 0.314221 -0.181848 1.00127 0.529117 1.07758 0.751546 -0.543391 0.176689 0.408809 0.735772 -0.700899 0.472671 -0.861755 -0.714321 0.0478415 0.485926 -0.0922176 -0.997535 -0.848841 -0.375894 -0.914668 -0.992178 -0.0201233 -0.650378 -0.562623 0.592405 0.41752 0.278006 0.741485 -0.0349961 0.536628 0.0132022 0.710549 0.511818 -0.474094 0.882183 0.291056 -0.0602052 0.00329507 -0.381902 -0.441494 0.194611 0.995284 -0.375909 0.362276 3.10824e-06 -0.906036 -0.785458 0.0311475 -0.558603 0.17593 0.585132 -0.271249 -0.868983 0.885716 0.188491 0.720763 0.236942 -0.525187 0.530296 -0.407315 -0.410192 -0.00132623 -0.523427 1.01693 0.32156 1.14694 0.113731 -0.711098 -0.0907698 0.434093 -0.381525 0.935885 0.542693 0.173221 0.31816 -0.367457 0.418324 0.665291 0.697361 0.977165 -0.337386 -0.235764 -0.840405 -0.542475 -0.534451 0.363539 -0.670811 0.86007 1.01944 1.04616 -0.743431 0.98957 -0.464324 -0.668528 0.697215 0.791149 -0.492896 -0.160813 0.910596 0.281151 1.19121 -0.615186 0.153272 0.550474 0.577251 -0.604986 1.00125 -0.0570355 0.990439 0.487637 -0.453212 -0.467407 -0.723727 -0.0557451 0.189438 -0.223363 -0.754042 0.511912 -0.388808 -0.75301 0.418564 -0.271784 1.11324 0.734058 -0.099902 0.78801 0.343489 0.0234134 -0.885032 -0.146486 1.01437 -0.875075 0.0837956 -0.0235667 0.517456 -0.485359 0.309639 0.396617 0.297998 0.229315 -0.185896 0.794667 0.660581 -0.120132 -0.452111 -0.40084 0.548823 -0.271331 -1.06622 -0.890961 -0.1849 0.230522 -0.289302 -0.163662 -0.20094 0.421051 -0.694437 -1.15071 -0.639777 -0.595778 -0.25503 -0.550521 -0.340798 0.92826 0.448715 1.13854 -0.633855 -0.358145 0.387013 0.589274 0.894125 -0.817746 0.213854 0.408781 0.00984929 0.862936 -0.860966 -0.311402 -0.252693 -0.712486 -0.245424 0.602695 0.470654 0.407328 -0.524616 -0.619791 0.388164 0.292882 -0.341666 1.1116 0.999718 0.559254 -0.729265 -0.802341 0.0591151 0.714063 -0.811646 0.427334 -0.87385 0.46192 -0.221677 0.909919 0.487349 1.145 0.124628 -0.587208 0.756024 0.334097 0.0203745 -0.372306 0.515346 0.54044 -1.0674 -0.377086 0.201194 -0.526215 0.162072 -0.484938 0.574176 0.529471 -0.930421 0.0871118 -0.321532 -0.786982 0.266855 0.775703 0.715706 0.171333 -0.00338091 0.714887 -0.625182 0.634683 0.551463 0.774444 0.536945 -0.23827 -0.793055 0.310831 0.893229 0.0217321 0.741983 0.336056 -0.182284 0.81194 -0.835443 -0.803712 -0.581228 0.462762 -0.333215 0.894788 -0.186759 -0.409509 -0.170127 0.485077 -0.263594 0.865525 0.023796 -0.812978 -0.245234 0.878853 0.806093 0.147564 0.457707 0.280976 -0.242996 -0.154511 0.843098 -0.20072 -0.864689 0.654466 0.74657 0.759422 -0.14597 -0.651482 0.425623 -0.114516 -0.683353 0.690816 -0.77214 -0.0616671 0.497141 -0.0469524 0.340602 -0.907125 -0.818211 0.821486 0.931549 0.324185 -0.862783 -0.216934 0.275375 0.908049 0.912492 -0.343053 0.117454 -0.418525 0.477616 -0.174807 0.179022 0.393343 -0.691753 -0.165031 0.0952242 0.184026 0.203036 -0.446391 -0.694745 0.781833 -0.6569 -0.381817 -0.120678 0.909549 0.678143 -0.810858 -0.633477 1.29884 1.36933 -0.471044 0.608437 -0.695878 0.045505 -0.693559 0.768702 -0.529861 -0.123169 -0.150118 0.0487135 1.0754 0.402732 0.96222 0.315184 0.600048 -0.357821 -0.693137 -0.18301 0.689776 -0.430865 -0.148882 0.41932 0.00288381 0.515602 -1.09224 -0.312484 -0.207945 -1.06945 -0.136733 -0.168985 -0.906618 0.170773 -0.783861 -0.868747 1.04842 -0.495722 0.870329 -0.622928 0.225827 -0.483343 0.198983 0.321731 0.9054 0.0962209 -0.562913 0.398636 0.735032 -0.236464 -0.822915 0.383471 0.371867 0.140231 -0.110923 -0.504391 -0.360498 -0.0927124 0.335452 0.671665 0.152297 -0.563948 -0.399537 0.138625 0.443048 -0.297674 0.2853 0.380596 0.0912674 -0.103984 0.604663 -0.675268 0.394515 -0.264541 0.531743 0.188486 0.733175 0.822832 -0.537538 0.216433 -0.581339 -0.408789 -0.468114 0.737336 0.601215 0.291536 -1.02627 -0.97698 -0.88834 0.229553 0.619513 0.0879327 0.546727 -0.847782 -0.838061 -0.174238 -0.406618 0.0620136 -0.98516 0.710625 -0.932189 0.650851 -0.972546 0.486016 -0.509368 0.604925 -0.464721 1.12023 0.402805 -0.0259028 0.170804 0.60889 0.314559 0.538822 0.364294 0.0954592 -0.0478161 0.357288 0.036835 -0.00451286 -0.348926 -0.0752439 -0.687233 -0.639608 0.058527 -0.303382 0.302467 0.907867 0.861838 0.408221 0.725989 0.796289 -0.0285186 0.571009 0.0369641 0.0759097 -0.113656 0.262881 -0.0848095 0.974423 0.948242 0.91859 0.480608 0.215462 0.248999 -0.570151 0.951432 -0.898915 0.792507 -0.0871361 0.0984948 -0.768404 0.518192 0.188492 -0.786564 -0.966705 0.144375 0.00946976 0.476982 -0.173537 -0.749024 0.0695454 -0.63081 -0.086647 -0.727469 0.0618058 0.883887 0.000317605 -0.86238 -0.388043 -0.096779 -0.881564 -0.558228 -0.730972 0.260276 0.739385 -0.109545 0.276386 0.858199 -0.491171 0.939427 -0.255256 -0.20251 0.378321 0.832188 0.0135705 0.532528 0.255652 -0.685991 0.386836 -0.846672 -0.446344 -0.756357 -0.556194 0.532763 -0.326786 0.590173 0.36209 0.675762 0.842341 1.01133 -0.460185 0.888921 -0.66273 -0.37491 -0.0173987 0.936558 0.308419 1.02476 0.60346 0.633224 0.803658 -0.874398 -0.887418 -0.0825151 0.857701 0.0192772 -0.633184 0.0702473 0.194018 0.643924 0.15067 0.693313 0.803572 0.449072 0.0730428 -0.568611 0.145221 -0.471076 -0.852349 0.00341071 -0.450515 -0.330975 -0.223742 -0.071501 0.404426 0.943604 -0.201221 -0.463358 0.777057 1.35243 1.05302 0.533904 -0.657116 1.16847 -0.693833 -0.802821 0.0696914 -0.284791 0.295322 -0.427858 -0.456487 -0.290787 1.27202 -0.544355 1.45072 0.649078 0.0296563 0.406531 0.829858 -0.172551 1.13594 1.1819 0.265583 -0.259296 -0.318 1.35851 1.21185 0.0458364 -0.653722 0.390746 -0.0984914 -0.913693 -0.214466 0.0434473 1.03309 -0.0292029 0.119298 0.0541915 0.570514 -0.64419 0.180317 0.764109 -0.761314 -0.140671 0.682738 -0.910552 -0.971164 -0.53252 0.219048 0.627625 -0.241656 -0.10737 0.298239 0.830897 0.290234 0.844738 0.904562 0.330076 -0.366402 -0.871596 -0.128288 0.548721 -0.753088 0.743804 -0.394392 -0.837784 
-0.746731 0.219389 -0.115242 0.761637 0.298537 -0.985169 0.527929 0.666466 0.051915 0.402939 -1.09789 0.14518 0.805494 0.12733 -0.21453 -0.210615 -0.863182 -0.823233 -0.350071 0.475359 -1.04714 -0.460512 -0.192817 -0.411845 -0.400855 0.606886 -0.994946 -0.287516 0.105202 -0.589257 -0.211907 0.46196 0.784932 0.847348 0.367158 0.181269 -1.04153 0.0351478 -0.02098 0.125941 -0.460875 -0.0137349 -0.586157 -0.542265 -0.78411 0.243441 0.313165 -0.564616 0.597965 -0.900606 -0.935176 0.642269 -0.233224 0.0643758 -0.566296 0.580053 -0.112587 -0.331245 -0.508315 -0.833088 0.257452 0.489199 0.818087 0.192015 0.444064 0.349371 -0.543199 0.437819 -0.580667 0.541335 -0.309037 0.0925695 -0.3342 0.272732 0.734618 0.0942956 -0.352567 0.102782 0.653675 -0.613259 0.356397 0.814107 -0.870451 -0.811961 -0.0845014 -0.417315 0.792934 0.841772 0.274154 -0.711017 -0.97838 -0.447488 0.750712 0.883268 0.820052 0.295689 0.310386 -0.569935 -0.0845423 0.846784 -0.970769 0.651059 -0.0501016 -0.178983 -0.00194981 -0.309031 0.902718 0.680627 0.79331 0.446378 -1.01872 0.152736 0.305561 -0.914203 0.348519 -0.74141 -0.322856 0.128118 -0.895724 -0.978488 0.488637 -0.788549 -0.3539 0.348246 -0.840465 -0.482748 -0.331045 0.46338 -0.102913 0.527604 0.254808 -0.0656316 0.183471 -0.800766 0.719855 -0.857735 -0.142896 0.584542 0.790315 -0.322873 0.12334 0.827919 0.895975 -0.472214 -1.00069 0.238025 -0.210054 -0.310281 -0.550215 -0.0169328 -0.168345 -0.984813 0.243163 0.521368 0.410119 0.479685 -0.838798 -0.79944 0.0523505 0.167563 -1.13827 -0.55483 -0.784658 0.159003 -0.222477 -0.90097 0.438222 0.735921 0.771753 0.334522 -0.448433 0.0566725 0.265974 -0.439435 0.634561 0.358516 -1.03354 -0.408502 -0.787095 -0.479475 0.714585 0.217119 -0.24245 0.147594 -0.0683706 -0.605782 -0.146082 0.287894 -0.199989 -0.914091 -0.391096 -0.206976 -0.342761 0.0218241 -0.863822 0.526537 0.162509 0.591455 0.332956 0.0633766 0.120049 -0.88723 -0.725767 -0.499638 -0.289717 -0.988829 0.999458 -0.180059 -0.280703 -0.735561 0.42601 -0.473425 0.589546 -0.791232 0.658339 -0.428396 -0.380585 -0.471534 0.823779 0.43382 -0.38936 -0.555014 -0.730667 0.329919 0.590715 -0.472013 -0.038665 -0.197085 -0.853697 -0.632313 0.849212 0.279986 -0.487846 -0.883622 0.76028 0.175391 -0.897679 0.701498 0.953381 -0.178674 -0.990067 0.37453 0.314615 0.612773 0.589899 -0.0505922 -0.8387 -0.715718 0.512701 -0.939802 0.782947 -0.81633 -0.415502 -0.891553 0.529531 -0.879864 -0.466769 -0.571852 -0.143469 -0.357751 -0.242317 -0.322301 0.87556 0.179777 -0.242689 0.603884 -0.646114 -0.0815415 0.356469 -0.642732 0.788097 0.475976 0.817522 0.0761048 0.0721664 0.43905 -0.935664 0.316853 0.808844 0.657508 0.404012 0.635278 -1.0695 -0.901501 -1.12133 0.549657 -0.670397 -0.497388 -0.921269 0.262835 0.260755 -0.016641 -0.905475 0.299282 -0.706653 -0.0513606 -0.00159309 -0.225105 -0.987391 -0.513388 0.225365 0.87697 -0.971004 0.117108 0.0634761 0.246738 -0.285431 0.307557 -0.253497 -0.270786 0.14677 -0.655534 -0.445122 0.277283 -0.381274 -0.415494 0.0088829 0.0825587 0.252784 0.272667 -0.45108 -0.304271 -0.591089 -0.270298 -0.93948 -0.262459 0.825469 0.174517 0.671714 0.987908 0.822998 0.0182294 0.922502 0.874782 -0.727237 0.0831855 0.240928 0.0185768 -0.518993 -0.898821 0.824874 0.639116 -0.58697 -0.554529 -0.0329424 0.0243578 -0.00833333 -1.04896 -0.891377 -0.755491 0.274051 -0.249177 0.0494706 0.712542 0.527868 0.153344 -0.438273 0.406421 -0.643604 -0.798574 0.336135 -0.893337 0.177309 0.20578 -0.977925 0.404111 -0.723582 0.297047 -0.480528 -0.258166 0.349453 -0.634257 -0.606164 0.759593 -0.282407 0.376805 -0.182833 0.749019 0.371334 -0.015573 -0.962127 -0.338644 0.719562 0.0390629 -0.655832 0.177854 -0.868269 -0.209038 -0.510047 -0.611188 -0.0654088 0.747406 -0.545768 -0.920563 -0.0366186 -0.486255 0.528693 0.269325 0.858525 -0.91827 -0.931795 0.217491 -0.587299 -0.5164 -0.0119049 0.190403 -1.08714 -1.16549 -0.0443079 0.334539 -0.0446249 0.101428 -0.875499 -0.227175 -0.731161 -0.45726 -0.942215 -0.531632 0.446711 -0.34557 -0.0242226 -0.516849 -0.496992 0.532942 -0.284425 0.605191 -0.792814 -0.587233 -0.0157093 -0.871332 -0.43431 0.142952 0.472162 0.0990775 0.794094 -0.342135 -0.50431 0.868791 -0.313082 0.640682 0.398897 0.807055 -0.11707 0.652572 -0.274298 0.307738 -0.622504 -0.0323228 0.904179 0.95676 0.735776 0.0488371 -0.415303 -0.623177 -0.25324 0.43196 -0.867242 0.00841186 0.908639 0.237994 0.218656 -0.465182 -0.531457 -0.231626 0.773273 -0.741711 0.499654 -0.654433 -0.78036 -0.782433 0.975302 0.637564 -0.997124 -0.127231 0.256691 -0.282605 -0.840733 0.635898 0.738341 -0.814555 0.691243 0.489931 0.268552 -0.616769 0.984921 1.00189 0.795542 1.07345 -0.0275373 0.614725 0.181772 -0.826116 -0.750639 0.629827 -0.0511214 -1.05159 0.933053 -0.520136 -0.65948 -0.807529 -0.287521 -0.725356 0.768822 -0.29326 0.164089 0.0830105 0.464602 0.35436 -0.241158 0.219676 0.51986 -0.56707 -0.313754 -0.305141 -0.290087 -0.473365 -0.394977 -0.604351 -0.483761 0.520255 -0.980799 0.720084 0.727158 -0.745095 0.406133 -0.224485 -0.649633 0.403386 0.301353 -0.309428 0.581273 -1.02945 -0.00626599 0.370077 -0.307388 -0.816658 -0.489886 -0.745907 0.647454 0.38048 0.570795 0.243012 -1.07412 -0.651619 -0.940637 -0.274954 -0.00637712 -0.227881 0.235348 0.599392 -0.552342 0.379592 0.488447 -0.675457 0.805543 0.0405067 0.225302 -0.718837 -0.453588 -0.410398 0.05678 -0.756479 -0.265829 -0.772152 0.874573 0.627259 -0.471342 -0.451232 -0.945032 -0.639835 -0.895293 0.795222 0.765302 -0.819876 -0.698416 1.02048 0.0700653 0.435863 -0.11975 -0.619338 0.172366 0.482756 0.935609 -0.176668 0.923137 0.821729 0.953734 0.256395 -0.862306 -0.473489 0.843195 0.206572 -0.157185 -0.386178 0.487353 -0.273483 -0.709294 -0.920038 0.334356 -0.672078 -0.568325 0.438615 -0.872146 -0.833634 0.577388 -0.498582 -0.761757 -0.279104 0.94706 0.170901 0.167105 0.214483 -0.271092 0.128553 1.02464 -0.372456 -0.0402013 0.859186 0.705945 -0.0199485 -0.614226 0.550025 -0.770093 0.25975 -0.822445 0.74218 -0.938012 -0.439534 0.863483 0.417259 -0.141267 -0.766259 -0.201356 0.0299407 -0.564891 -0.577453 0.514987 -0.338143 0.111713 0.426192 0.771516 -0.806911 -0.444889 -0.658283 0.213459 -0.553051 -0.158071 -0.962034 -0.733651 -0.432883 0.0461488 -0.315775 -0.850198 0.337185 -0.969417 -0.596637 0.103108 -0.931094 -0.057497 -0.017749 0.495186 0.829859 0.204188 -0.671385 -0.11151 0.718936 -0.165961 -0.521911 -0.544959 -0.963369 -0.991639 -0.672724 -0.628299 -0.356627 -0.210954 0.678697 0.237507 0.799782 0.881765 0.644785 -0.522912 0.0740842 -0.514754 -0.206846 -0.461188 -0.336199 0.349493 0.769007 -0.149494 -0.585992 -0.133194 -0.504224 -0.58177 -0.728986 -0.0492706 0.449894 -0.864749 -1.00151 -0.871929 -0.228988 -0.793137 -0.69867 0.283058 -0.269234 0.137311 -0.739577 -0.45729 -0.526479 -0.811957 -0.418214 -0.715083 -0.293512 0.712831 -0.160297 0.669486 -0.645677 0.470457 -0.014258 -0.903675 -0.606932 0.441899 0.0142476 -0.0345911 0.894186 0.329188 0.947996 0.363005 0.510376 0.937908 0.494263 -0.76036 -0.860879 0.805816 0.627257 -0.0637685 -0.0013578 0.918886 0.524607 0.510707 1.04798 1.14252 0.811616 -0.147873 0.804629 -0.433317 -0.619521 -0.945734 -1.0026 0.32668 -0.810786 -0.574286 -0.177558 0.234221 0.388437 -0.257192 -0.381674 0.397945 -0.868345 -0.944276 0.214493 0.539938 -0.702996 0.366407 0.338169 0.884163 -0.751752 -0.736768 0.708726 0.668522 0.644877 0.687175 0.648969 0.320512 -0.633696 0.349976 0.743715 -0.320478 0.386143 0.769488 -0.965483 0.588862 -0.754305 -0.108632 -0.145708 0.656966 0.614128 0.468026 0.0324265 0.74068 0.532522 -0.713467 0.326607 -1.12442 0.716453 -0.259754 -1.1906 -0.977179 0.103226 0.65103 0.823049 -0.142996 0.398222 0.590969 -0.705569 -1.05654 0.0794225 -0.837632 -0.256514 -0.371937 -0.90117 -0.0718988 -0.645952 -0.480726 -1.0114 0.365723 -0.713129 0.76752 -0.071041 0.440706 0.615742 -0.375429 0.898838 0.108017 -0.382589 0.727984 -0.985276 -0.336078 0.960992 0.298871 -0.546215 0.941882 -0.687537 -0.937247 0.729609 -0.252586 -0.881562 -0.0433099 0.0958485 -0.0323574 0.603921 0.252152 0.965332 -0.904883 0.858195 0.950294 0.467967 -0.877409 0.722427 -0.550247 0.621115 0.442719 0.115911 0.591122 -0.416347 0.819913 0.345871 -0.42771 -0.55164 0.296289 0.865602 -0.0789766 0.289447 -0.763476 0.0505638 0.0753296 0.0146685 0.128885 0.96614 1.12593 1.1239 0.676847 0.333312 1.00015 0.711698 0.117221 0.929321 0.14921 0.275602 0.691601 0.650188 0.0125583 0.142372 -0.201176 -0.47051 0.703776 -0.435259 0.852257 -0.846169 -0.0820064 0.0678049 -0.98302 0.81482 -0.666684 -0.793061 -0.238096 0.297054 0.108633 0.767222 0.172622 0.0668819 0.747383 -0.272585 -0.71819 0.638443 -0.666585 0.362891 0.544971 0.458495 -0.373195 0.253301 0.140356 0.605354 -0.612853 -1.11088 -0.846634 -0.923303 -0.55797 -1.03487 -0.711922 0.475289 0.0814672 -0.664623 0.272237 0.474851 -0.390012 -0.860156 -0.123548 -1.14884 -0.974473 -0.863859 0.0295244 -1.07951 -0.00213775 0.487576 0.694267 0.487489 -0.0285494 0.379819 0.0915121 0.772818 -0.217842 -0.646092 0.52223 0.351445 -0.578814 0.753238 0.525105 -0.0104129 0.852556 0.956022 -0.423468 0.0777347 -0.57132 -0.954776 -0.244761 0.250035 -0.620859 0.797629 0.287789 -0.369839 -0.811678 -0.473672 -0.338841 0.315244 -0.854716 -0.522565 -0.116386 0.219454 1.00403 -0.960277 0.0791929 -0.186968 -0.524001 -0.392182 -0.838918 -0.10214 -0.591149 0.741368 0.970841 -0.692448 0.753415 -0.441859 0.501902 -0.749003 -0.398009 -0.826797 0.472785 -0.0042022 -0.962953 -0.171179 0.599349 -0.731341 0.415044 -0.633109 0.552201 0.509591 -0.261652 -0.583097 -0.32317 -0.3091 -0.582147 0.730987 0.457075 -0.167483 -0.678586 0.680215 0.774993 -0.154567 0.503978 0.689817 0.120428 0.180633 -0.754831 -0.430406 0.378917 -0.253889 -0.340174 -0.215522 0.699887 -0.305599 0.561074 0.270387 -0.140832 -0.165446 0.463021 
-0.717756 -0.861528 -0.936772 -0.35224 -0.265981 -0.442406 0.0514809 -0.435148 -0.731371 0.641682 0.0554462 0.943169 0.564695 0.783589 0.612252 0.307189 -0.279556 -0.550088 0.550647 0.610007 1.22401 -0.580042 -0.763392 -0.228052 -0.822874 -0.271798 -0.923118 0.0495741 0.354345 -0.00737573 -0.236625 -1.10193 0.29489 -0.21569 -0.637699 -0.754138 -1.29676 0.600594 -0.102255 -1.21392 0.526469 -1.13505 -1.15544 0.0284747 0.700388 0.430925 -0.389331 -0.543385 -1.08818 -1.29385 -1.47677 -1.49258 -1.10526 -1.37066 -0.590222 -0.804297 -0.247577 0.00709055 -1.19229 -0.321417 -0.671326 -0.219916 0.0330365 -0.834504 -0.895707 -1.02294 -0.0660127 -0.735611 -1.03949 -1.00752 -0.568526 0.743179 -0.875172 -0.334158 0.13504 -0.973049 -0.671858 -1.30697 -0.279451 -0.506035 -1.02904 -0.313637 -0.573564 -0.767396 -0.21759 0.0409136 -0.222324 -1.22923 -0.62367 -0.185711 -0.380012 -0.0157357 -1.19558 -1.14684 0.381062 -0.882053 -1.06602 -0.70136 -0.612081 -0.969769 -0.502887 -0.054186 -1.11487 -0.150103 -0.9329 0.350391 0.0710321 -0.614907 0.147759 -1.31001 -0.252434 -1.62211 -0.188209 -1.19693 -0.561649 -0.50663 0.502864 -1.06571 -0.191596 -0.201775 0.416648 1.15648 -0.716518 0.693848 -0.539819 1.00651 -0.580647 -0.439406 -0.443082 -0.185584 0.200447 0.845851 -0.247305 0.472824 0.193185 0.149378 0.4936 -0.48014 -0.956813 0.301976 0.0204833 0.526838 0.266543 -0.385973 0.725598 -0.945249 0.369758 0.894382 -0.443021 1.3135 -0.353736 0.702406 1.02517 -0.694826 -0.388928 -1.38166 -1.08759 -0.0398914 -0.485959 -0.122601 -0.898283 0.652113 -0.403223 -0.139337 0.195406 0.419048 -1.21305 -0.317214 -0.804201 -1.10071 -1.17862 0.158499 0.789852 0.411203 -1.03171 0.448492 0.253711 -0.42239 -0.185337 0.134836 -0.694519 0.0589353 -0.426128 -0.693549 0.585046 0.833985 -0.659695 -1.10171 0.210373 0.115466 -0.109542 0.550544 0.302791 0.853228 -0.484647 -0.181719 0.747833 -0.304124 0.729567 -0.923825 -0.0324093 -0.979322 0.59749 -0.194397 0.502581 0.619602 -0.468575 0.144006 -0.333389 0.677848 -0.373685 0.447354 0.0995282 0.496967 -0.996846 -0.135199 0.420652 -0.388445 -0.187427 -0.459343 -1.08311 -1.10005 -0.821733 0.258782 -1.23411 -0.204056 -0.830109 0.548704 -1.3718 -1.04726 -1.28976 -0.245004 -0.592838 -1.30081 -1.25996 -1.02823 0.277246 -0.703484 0.309178 -0.600652 -0.380112 -0.371645 -0.279457 -0.605702 -0.420949 0.270051 0.688627 -0.42523 -0.540651 0.0742955 0.741785 -0.0514703 0.650396 -0.373447 -0.238748 0.693766 0.504557 0.0490173 0.68571 0.687467 0.543046 0.87081 0.272141 -0.375279 1.11138 0.373178 -0.026455 1.03276 -0.702657 -0.0411535 -0.292558 -0.0841721 0.523678 0.724562 0.769875 -0.394554 0.101181 0.654555 0.428941 0.235838 1.355 -0.269282 0.378599 -0.00706161 -0.398845 -1.27113 -0.276608 -0.664383 0.114363 -0.625943 -0.77007 -0.322005 -0.880835 0.181598 0.0674366 -0.86211 -0.348963 -0.778554 -1.07361 -0.2255 0.166821 -0.211366 0.982634 -0.565775 -0.839603 -0.0389928 -0.363665 -0.137293 -0.960709 0.593284 -1.05303 -0.639643 -0.462928 0.696992 0.65979 0.461749 0.869775 -0.455154 -0.945347 -0.00244914 0.157557 -0.567416 -0.938642 0.500738 0.832893 0.260195 0.674237 -0.539532 0.412405 -1.11183 0.305815 -0.524467 -0.236291 0.320693 0.132734 0.326172 -0.401664 -0.979611 -0.600624 0.000859939 -1.13637 -0.483202 0.398769 -0.676752 -0.652818 0.200585 -1.26088 -0.76434 -1.1782 -1.18357 0.480287 0.108945 -0.640977 -1.50045 -0.240391 -0.737048 -0.173328 -0.501136 -0.123891 -0.535188 -0.210862 -0.449813 0.0282039 -1.40751 -1.20015 -0.653773 0.327669 0.203489 -0.0450855 -0.60257 -0.112102 0.407997 0.50599 -0.320755 -0.658005 -0.608733 -0.682187 -0.532477 0.0658385 -0.0654609 0.0996987 0.298116 -0.133532 0.723201 0.378432 0.474429 -0.599345 -0.573121 -0.390732 0.652849 0.594476 0.686378 -0.54856 -0.117105 0.95092 0.0417093 0.906618 0.950364 -0.611312 -0.127641 -0.729744 0.617706 -0.19722 1.11037 1.05742 -0.237586 1.29565 -0.498608 0.191378 0.218756 -0.34532 0.262511 0.695527 -0.325278 -0.414162 -0.464973 -0.873892 -0.280707 -0.199054 -0.353447 -0.841924 -0.99759 -0.67407 -0.376104 -0.126154 -0.915892 0.651883 -0.221167 1.01512 -1.07759 0.644694 -1.27383 -0.268189 0.557226 0.346624 -0.327322 -0.963401 0.0625388 -0.145512 -0.0255203 0.964856 0.441303 -0.874074 0.501104 -0.839761 -0.160751 -0.858936 -0.628923 0.681268 0.131704 0.399538 -0.736614 0.36123 0.586191 -0.305066 -0.68493 -1.21182 -0.645024 -0.0762468 0.620975 -0.562568 -0.279028 0.637845 0.373507 -0.58624 0.110436 -0.714132 -0.30556 -0.65803 0.0163698 -1.43014 -0.688594 -0.434106 -1.0732 -1.09221 -0.222285 -0.19023 -0.823461 0.407492 -0.341465 0.399071 -0.312455 -0.198252 -0.282037 -0.625143 -1.31592 0.326979 -0.366397 -0.508453 -0.584649 -0.740404 -0.172837 -0.166278 -0.913151 -0.366316 -0.942139 -0.948497 0.745582 0.52056 -0.0775879 0.319156 0.453643 0.837898 -0.549696 0.806741 1.03552 0.627919 0.0866292 -0.250088 0.685809 -0.2497 -0.372064 -0.167031 0.598657 0.905222 0.545794 0.633054 0.453551 -0.446248 -0.641899 -0.753582 0.455418 0.928647 1.08627 1.26285 0.336808 1.36214 1.13867 -0.033412 0.756967 0.140947 1.45053 0.0416713 -0.316639 1.30112 -0.160618 -0.286914 0.805389 0.620787 0.118615 -0.120685 0.486105 -0.0793606 -0.0200226 -0.228434 -0.134995 -0.508487 -0.817378 -1.06805 -0.363611 -0.528581 -1.11896 0.735466 -0.913293 0.892991 0.872731 0.283704 0.87342 0.669167 0.519555 -0.189795 -0.820131 0.181959 0.663481 -0.374466 0.205967 -0.755618 0.19361 -0.152433 0.494054 0.881923 0.235891 -0.0692109 -0.0601457 -0.772161 0.574663 0.754447 -0.330446 0.951533 0.834358 0.714559 -0.558561 -1.23886 0.510457 -0.252309 0.56987 0.297465 -1.13671 0.484167 -0.0847947 0.623245 -0.580928 0.354059 0.0145833 -0.721413 -0.685025 -0.51656 -0.62098 0.357891 -0.0161559 -1.18289 0.232961 -0.806952 -0.335614 -0.797291 -0.442206 -0.654065 -0.920962 0.527201 -0.669859 -0.95078 0.146977 -0.222272 -1.04924 -0.181208 -1.17616 -1.01495 -0.919746 -1.3364 0.294506 0.0928503 0.212833 -0.925749 0.00981679 0.0887965 -0.0666197 0.858232 1.0927 1.15889 0.990198 0.597304 -0.803254 0.172258 1.03374 0.229858 1.1654 0.299032 1.40418 -0.350234 0.14868 0.157151 0.0742023 -0.525492 -0.919426 0.371122 0.893122 -0.570129 0.733794 -0.503782 -0.231036 0.706197 1.12945 -0.199705 1.13721 0.571752 0.819261 0.197519 0.352951 0.832353 0.163204 -0.238923 0.0851806 0.147708 0.774405 0.152503 1.45979 0.54986 0.503047 1.06677 0.354766 -0.984479 -0.482688 -0.938328 -0.1174 -0.235862 0.255173 -0.815291 -0.202734 -0.340967 -1.07137 -0.130994 0.64129 0.849674 0.418813 0.55297 -0.24503 -0.291984 -0.670351 0.625312 -0.700573 -0.0314922 0.914749 -0.00581823 0.839626 0.3987 0.838903 0.979009 -0.659855 -0.0254741 0.781952 0.719626 0.278338 -0.549351 0.795837 0.850406 0.110724 0.0967065 -0.786232 1.14204 0.825575 -0.751617 -0.0479354 0.484609 -0.808921 -0.426891 0.158988 0.0942412 0.53728 0.701298 -0.195177 -1.11954 -0.218048 -0.208873 0.154024 -0.0699951 -1.00382 -0.339937 -0.50507 -0.78271 -1.39667 -0.752484 -1.05522 -0.0448133 -0.308658 -1.17202 -0.0580231 -1.29753 0.00139584 0.242324 -1.13153 -0.027307 0.488612 0.0215726 -0.411591 -1.12649 0.747531 -1.25746 -0.0476669 -0.0328347 -1.49542 -0.881082 0.480221 -0.118937 0.207308 -0.0351542 -0.583238 1.11563 1.456 0.214406 -0.674395 1.19249 0.891325 0.126869 0.962291 0.255365 0.28239 0.133272 0.488016 -0.135909 -0.464983 0.547326 0.923784 -0.410896 0.0955908 0.00845411 -0.244761 0.00243657 0.285208 1.50849 0.0291664 0.551703 -0.0535687 -0.32486 -0.428884 1.40607 0.764313 -0.418363 1.00647 0.429418 0.713023 1.28386 0.593664 0.549817 -0.0756383 -0.230694 0.922838 0.635999 0.168916 -0.0534418 0.910103 0.616857 -0.278385 0.730292 0.977433 0.390337 -0.797071 -0.625184 -1.10469 0.0126111 -0.660882 -0.446572 -1.00062 -0.0944021 -0.375283 -1.05682 -0.581313 0.581158 -0.746205 -0.940912 -0.186769 0.478408 0.979027 1.00729 -0.383002 -0.619659 -0.669896 -0.661623 0.961632 0.763469 0.37205 0.804264 0.235127 0.957591 0.507384 0.451556 0.352877 1.05111 0.944332 0.41852 -0.299735 -1.14332 0.705068 -0.0785358 -0.155165 -0.526013 0.00830796 0.543218 -0.848944 0.293548 0.59161 0.0899684 -0.0566238 0.658648 -0.0600691 0.370747 -1.14176 0.0639975 -1.49282 -1.40617 -0.372956 -0.0745899 0.372672 -1.13668 -0.161396 -0.177319 0.122844 -0.929201 -0.366721 -0.14123 0.408732 0.551796 -0.111686 0.265115 -0.389394 -1.34745 -1.32448 0.386791 0.465177 -0.584538 0.300116 0.646856 0.576329 -0.576837 0.684351 0.191914 1.05544 0.978368 -0.183133 1.37068 1.35399 0.942741 0.52472 0.873264 1.19265 -0.211201 0.14858 0.850015 0.638216 1.34672 -0.00762073 0.237787 0.864275 0.908836 -0.424099 -0.716911 0.915562 -0.191245 -0.449405 1.28963 0.597072 1.13369 0.927003 0.464387 1.22234 0.270107 1.19912 0.981932 -0.264914 -0.0595084 0.986362 1.30522 1.1625 0.222322 0.644136 0.808124 0.595987 -0.625254 0.206268 -0.315429 -0.443815 0.757469 0.324681 0.805675 0.280244 0.802456 -1.1335 0.0831303 -0.636428 -0.622268 0.0917345 0.651039 0.634839 -0.821009 -0.705014 0.331787 0.269755 -0.716399 0.108243 0.650113 -0.494401 -0.411448 0.639021 -0.851921 0.411881 -0.0961565 0.917691 0.0672129 0.192694 -0.0922709 0.519307 0.382456 -0.0786858 0.330456 0.390764 -0.783095 0.0108216 0.166292 0.273606 0.367158 0.378881 -0.654784 0.0158044 0.170846 -0.22085 0.353008 -0.551996 0.789508 0.423754 0.511158 0.377279 0.971411 -1.06702 -0.279628 -1.17191 0.110642 0.415746 0.481543 -1.08474 -0.422765 -0.580534 0.418815 -1.02603 0.04195 -0.526094 0.222839 0.139846 0.455611 -0.684186 -0.411936 -0.135185 -1.22125 -0.0882306 -1.15902 0.0209247 0.737651 0.387368 0.807614 1.00612 0.233383 0.328439 0.438495 0.328114 0.927565 -0.591249 0.906547 0.696617 -0.265769 1.12387 0.903868 0.40964 -0.409498 0.67648 0.707324 1.03753 -1.28768 
-0.0645829 0.0643936 0.799845 0.670961 -1.08367 -0.0939056 0.685274 0.0501057 0.0533587 -0.0131513 0.0583226 -0.277567 -0.1546 -0.0722214 -0.962772 -0.704026 -0.775678 0.15483 -1.1827 -0.554109 -0.429887 -0.0349355 -0.287278 -0.780173 -0.298016 -0.968648 -0.545319 -0.820778 0.689203 -0.737038 -0.682143 -0.263015 0.465282 -0.746399 -0.595243 0.454184 0.331358 -0.673206 -0.241126 -0.36043 0.54546 1.00123 0.590343 -0.346313 0.181067 0.781391 0.134697 0.664574 0.18911 0.264625 -0.567194 -0.953011 -0.483561 0.250261 -0.788219 0.228068 0.25992 -0.352006 0.178291 -0.285716 -0.157345 0.678079 0.578082 -0.7231 0.993342 -0.914716 0.81958 0.334674 -0.578232 -0.448694 0.961029 0.960465 -0.46659 0.521312 -0.442677 0.661676 0.262635 0.67595 0.301689 -0.553756 -0.0773733 0.709414 -0.492875 0.464309 -0.00826714 -0.26785 -0.264423 -0.701373 0.44022 -0.786231 0.343478 -0.554075 0.962152 -0.0215026 -0.20168 0.834459 -0.123119 -0.63792 0.0582799 0.289863 -0.0626022 -0.137425 0.0569959 0.352976 -0.553769 0.673972 -0.000315052 0.643819 0.291152 -0.819012 -0.94573 -0.792675 -1.07437 -0.478974 0.59659 -0.171793 0.230183 -0.731818 0.0972549 -0.447815 -0.612356 -0.682901 -0.07687 -0.793776 0.224284 0.568427 -0.94294 -0.876332 -1.12026 0.014117 0.385336 -0.105754 -0.923984 -0.494578 -0.81531 -0.470663 -0.678434 0.354563 -0.733802 0.629759 0.645468 -0.477702 -0.863482 0.720356 0.112244 0.738226 -0.293126 -0.462752 -0.771763 -0.923153 0.370379 -0.217511 -0.317117 -0.521012 0.331149 -0.920935 -0.67634 0.407821 -0.808277 -0.732186 -0.470356 0.670731 0.181413 -0.321128 -0.690508 0.598705 0.391057 -0.266754 0.117933 0.915296 -0.349537 -0.00712646 -0.410243 -0.153392 -0.121001 0.967398 -0.159199 0.837348 -0.250914 0.302722 -0.896433 -0.778019 -0.774344 -0.205428 -0.23937 0.450712 -0.358055 -0.17996 -0.190095 0.0008535 0.239315 0.324972 -0.281454 -0.493052 -0.926133 0.0436374 -0.888438 0.470285 0.811412 0.215748 0.367884 -0.561025 -0.855124 0.930098 0.290064 0.0107799 0.898153 -0.85854 -0.133329 -0.361948 0.444062 -0.0283385 -0.0928085 0.72107 0.859341 0.775227 0.299581 -0.252133 -0.117627 -0.830107 0.82277 1.15735 0.610632 -0.434916 -0.444143 0.496061 0.209364 -0.573525 -0.277616 0.00665597 0.627555 -0.860476 0.529788 0.77232 -0.94014 -0.257519 -0.231349 -1.10533 -0.140591 0.637582 -0.49283 -0.766369 -0.451714 0.349495 -1.12725 -0.73487 0.128089 0.0902773 0.0199709 0.882467 0.0538432 -0.516918 0.681375 -0.552705 -0.0719682 -0.754375 0.832505 -0.763613 -0.194035 -0.274727 0.361252 -0.500787 -0.0986397 -0.0274057 -0.578037 0.0166055 0.771297 0.254461 -0.0151628 -0.296935 0.0547119 0.603088 0.0698701 0.682998 0.156234 0.117275 -0.928857 -0.683175 -0.705348 0.147918 -0.662555 0.535756 0.778687 -0.973002 -0.854751 -0.0944868 -0.441894 0.949593 0.120695 0.332069 -0.22363 -0.397945 0.977861 0.774895 0.633935 -0.562426 -0.0825516 0.536749 0.90007 -0.959855 -0.652374 0.0276566 0.805507 0.604975 -0.165973 0.101452 -0.126598 0.081089 0.519481 0.202432 -0.763206 0.759909 -0.279641 -0.939922 0.894353 -0.235734 -0.143179 -0.658241 -0.262813 -1.0247 0.731046 0.550743 -0.386465 0.680027 0.335165 -0.723366 -0.798847 -0.82015 0.758154 -0.97664 -0.823789 -0.883645 0.051587 0.959607 0.740032 0.907187 0.0720639 -0.371979 0.00601495 -0.396877 0.8702 0.269299 -0.500816 -0.281808 0.467692 -0.61126 0.554781 -0.623298 -0.18485 -0.693388 -0.545398 -0.706733 0.615345 -0.310895 0.832159 -0.187616 -0.110747 -0.938434 0.0238664 -0.359434 -0.949875 0.172526 -0.212072 0.100407 0.114402 -0.501388 -0.0363908 -0.864925 0.0387234 0.888679 -0.321568 -0.0428971 0.200248 0.106576 0.459293 -0.554108 0.294608 -0.196131 -0.343966 0.857925 -0.0601884 -0.128389 -0.780065 -0.361757 0.613124 -0.842606 0.47146 -0.387937 -0.748863 -0.41673 0.369128 -0.588984 0.807308 -0.844997 0.551378 0.0705679 -0.227139 -0.450717 0.23729 -1.15454 -0.416569 -0.957945 -0.110058 0.838635 0.170194 -0.58287 -0.625022 -0.48701 0.300887 0.0187238 -0.492941 -0.665306 0.900567 -0.208269 0.0771531 0.680909 -0.0313505 -0.413639 -0.592905 0.372617 0.262771 0.797167 0.889134 0.263592 -0.876693 0.490398 -0.662514 -0.0854811 -0.843823 0.717983 -0.0366551 -0.140753 0.892779 0.961944 -0.16492 0.190283 -0.57694 0.188657 0.674468 0.675891 -0.744619 -0.824526 -1.0023 -0.777068 -0.0999435 -0.0502299 0.882692 0.882279 0.566184 -0.701275 0.261779 -0.204918 -0.897719 0.104008 1.03309 -0.835387 -0.46695 -0.71603 0.0707673 -0.315153 -0.956082 -0.947274 0.574942 0.979897 1.04112 -0.577272 0.180721 -0.499253 0.712219 -0.0364114 -0.680273 1.04953 0.203012 -0.687596 -0.70577 1.14945 0.339276 -0.813923 0.942358 -0.415174 -0.796729 -0.0018898 0.330379 -0.742159 -0.945314 0.316558 -0.62005 -0.464928 0.604337 0.415861 0.228222 0.621391 0.462149 -0.240456 0.566485 0.412973 0.119163 -0.371299 0.81003 -0.218388 0.551088 1.0037 -0.460693 -0.549295 -0.934798 -0.396913 -0.552118 0.197544 -0.321598 -0.655737 0.842161 -0.116126 0.406788 0.263749 0.168287 0.482895 -0.367877 0.665949 -0.885838 -0.686131 0.157609 0.383686 -1.00906 -0.312716 -0.78041 0.598579 -0.850925 0.433413 -0.622534 -0.922532 -0.804547 -1.09887 -0.911599 -0.19221 -0.465177 -0.734091 0.538485 0.00841745 0.486722 -0.724475 0.36826 0.287102 0.0836033 -0.228238 -0.324389 -0.538413 -0.713896 0.322253 -0.882288 -0.519138 0.736436 0.401526 1.02709 0.86194 -0.856139 -0.734864 0.495097 -0.643659 0.821008 0.940637 -0.468004 -0.850121 1.00188 -0.217867 0.0578047 -0.500732 -0.000323644 -0.471333 0.498117 -0.495655 -0.239353 -0.151928 0.854727 0.898736 0.605894 -0.468161 -0.622945 0.958558 0.920668 -0.510422 -0.580918 0.631631 0.84502 -0.617637 0.409942 0.905374 -0.372709 -0.107401 -0.701023 -0.529414 -0.140247 -0.115798 -0.336268 -0.124554 0.638261 0.728279 0.515522 -0.259397 -0.611869 0.107297 0.30201 0.139575 0.982008 0.215155 0.0999011 0.404442 0.626867 0.189851 0.244261 0.385532 0.634961 0.632556 -0.057027 0.462871 -1.02604 -0.662817 0.336205 -0.418235 0.22876 0.632038 0.0956656 -0.919478 -0.51254 0.671595 -0.0928286 -0.991431 0.262186 -0.603386 -0.278001 0.517294 0.179639 0.686812 -0.612819 -0.0643395 -0.256582 0.301949 -0.600871 -0.699315 -0.488895 0.647359 0.736965 -0.73917 0.293163 -0.260284 0.767338 0.412441 0.210642 0.177636 -0.981458 -0.539288 -0.186682 0.133278 -0.386787 0.358439 -0.163714 0.640647 0.55212 -0.744207 -0.956184 -0.781342 0.764029 0.316242 -0.939325 -0.699287 -0.688233 -0.181223 0.58144 -0.362414 0.0304951 -0.917499 -0.669855 -0.27493 -0.770577 0.796861 0.71657 -0.822721 0.207677 0.0210457 0.461842 0.355915 0.600035 -0.601948 -0.44637 -0.788052 0.809224 0.5318 -1.01432 0.445721 0.86574 -0.847345 0.796228 0.762925 0.547337 0.82203 0.953308 0.795033 -0.372695 0.540942 -0.49716 0.778687 0.653829 -0.148831 -0.328052 -0.955461 -0.373354 -0.598268 -0.742261 0.806682 0.32883 0.657685 0.10566 -0.175227 0.966184 0.607529 0.0205158 0.79503 0.155465 0.040125 0.245038 -0.00525035 0.204795 0.0775553 -0.179906 -0.209888 -0.0287158 -0.28275 -0.417358 0.562277 -0.547962 0.221222 0.486596 1.12347 0.919394 1.00092 0.935515 -0.55562 -0.709354 -0.831743 -0.776791 0.570689 0.756335 0.270713 -0.53186 0.695647 -0.131017 0.372754 0.531835 -0.968398 -0.536056 -0.220701 0.184797 0.592389 0.741634 0.729154 -0.748139 -0.320127 -0.460834 -0.219371 -0.972609 -0.327157 0.755192 0.333797 -0.375623 0.666238 0.340539 -0.40047 -0.868196 0.656864 -0.192416 -0.5687 0.269926 -0.367529 0.782156 0.740102 -0.568477 -0.27207 0.152009 -1.02887 -0.20734 0.652817 -0.136563 -1.0685 0.351337 -0.282751 0.807164 0.728021 0.403545 -0.686707 -0.473091 0.552051 0.0973643 -0.593473 -0.029433 0.710154 -1.02141 -0.834367 -0.753342 -1.02081 0.74766 0.0316566 -0.531589 0.0845894 0.855644 -0.572889 0.08828 -0.553327 0.314921 -0.656195 -0.458788 -0.787092 -0.942375 0.426892 -0.815335 0.531896 -0.802694 -0.918524 0.316758 0.704768 -0.497025 0.919732 0.263359 0.54677 -0.762814 -0.868076 0.273273 -0.748436 -0.618329 0.631736 -0.581859 -0.729896 -0.191755 0.0388836 0.534323 -0.309989 0.504392 -0.449412 0.0289305 -0.278792 -0.181534 0.456933 -0.178999 -0.159647 -0.171741 -0.0120606 -0.633405 0.0519157 0.0605264 0.667327 -0.247433 0.602423 0.657824 1.06833 0.117781 0.845711 -0.794771 -0.480969 -0.697305 -0.256801 -0.734996 -0.443991 -0.130539 -0.0674781 0.528505 -0.71867 0.491013 0.00935055 -0.1864 -0.51505 0.659686 0.553942 -1.00869 -0.579079 -0.586929 -0.258276 0.492899 -0.193295 0.859631 -0.438728 -0.41569 -0.487265 -0.955916 -1.0029 -0.483671 0.175858 0.91782 -0.322948 0.591809 0.905382 0.149951 0.626403 -0.551631 -0.98383 -0.480827 -0.96485 -0.678467 -0.918266 0.122425 0.18311 -0.421034 -0.18059 -0.169379 -0.379998 0.386017 0.285939 0.385113 -0.0830817 -0.804949 0.392282 0.680565 -0.283771 -1.04335 0.835766 -0.13841 -0.409443 0.0827848 -0.207365 0.312485 -0.276129 -0.239353 -0.290643 -0.575374 0.292258 -0.476459 -0.1344 0.227583 -0.32956 -0.182181 -0.840532 -1.19888 0.597627 0.224807 -0.145188 -0.527654 -0.118953 -0.557745 1.02749 0.950778 -0.259612 0.423778 0.606518 0.553122 0.509698 0.46605 -0.46697 -0.818614 -0.369664 0.364196 0.544952 0.402653 -0.84786 -0.958611 0.764092 0.406817 -0.421983 -0.291354 -0.246127 0.44828 0.740019 0.196003 0.542309 0.502909 -0.426175 -0.441055 0.910492 0.381707 -0.053703 0.875558 0.228898 0.574614 0.244641 -0.18238 0.125083 -0.216987 -0.724823 0.58399 -0.0506937 -0.0245682 0.0323465 -0.463882 -0.608558 0.137103 -0.459386 -0.80381 -0.310021 0.35494 0.0326309 0.373472 -0.392279 -0.397647 -0.396964 -0.892478 -0.974195 0.100711 -0.392177 0.830638 -0.613713 0.503641 0.679978 0.657296 0.0189512 -0.045895 -0.592562 -0.792267 0.7351 -0.269363 0.799622 -0.240679 0.583563 -0.28729 0.0908574 -1.06312 0.894831 0.664373 -0.960397 -0.515551 -0.241496 -0.196997 0.76284 0.350817 0.455044 -0.599821 0.471705 0.501762 0.506239 -0.849114 
0.445946 -0.974837 0.818734 0.270856 0.722988 -0.084217 -0.71731 -0.799469 0.255337 -0.863693 0.0780537 0.20613 -0.0788763 -0.254273 1.02128 -0.893942 -0.284699 0.896134 0.76054 -0.21715 -0.622399 -0.516461 0.669247 -0.759718 0.861609 0.115001 -0.386943 0.29949 -0.43604 -0.865376 0.494811 -0.982038 -0.828889 0.294344 0.259429 0.847449 -0.796463 0.563419 -0.907961 0.484298 0.715375 0.0961926 -0.382861 -0.431561 0.846646 -0.416032 -0.331626 -0.379076 -0.446526 -0.503111 0.586826 0.153229 0.091008 0.246363 0.424555 -0.00555325 -0.549519 -0.831473 -0.513648 0.176282 -0.60194 -0.924778 0.294577 -0.354562 0.450021 -0.297369 -0.30767 0.894256 -0.632691 -0.247818 0.390519 -0.88027 -0.994943 -0.988601 -0.255424 -1.08988 -0.230536 0.650245 -0.280707 0.47021 -0.811678 -0.629989 -0.415824 0.305307 0.667677 -0.986537 -0.654106 -0.849385 -0.852382 -0.151965 0.395406 -0.336527 0.0250452 -0.274468 0.538902 -0.363661 0.464096 -0.811041 -0.590788 0.837148 -0.0634784 0.741846 -0.979752 0.123385 -0.925099 0.0738211 0.298791 -0.0986561 -0.231734 -0.84361 -0.445762 0.0484318 -0.443969 0.081087 -0.789124 -0.810248 0.170216 -0.267488 -0.518618 0.66433 0.681795 0.964141 -0.610996 -0.166246 -0.179281 0.862538 0.343069 -0.67149 -0.726836 0.974224 -0.673244 0.366768 0.833754 -0.591848 -0.437706 0.883114 0.557157 0.939813 -0.110923 -0.670047 -0.92621 0.325373 0.305085 -0.427764 -0.540378 0.60181 -0.148109 0.77629 -0.633447 0.326928 0.424233 -0.834359 0.337836 0.84148 -0.0399663 -0.969494 0.722522 -0.649907 -0.633291 -1.10174 -0.771937 -0.377925 0.217398 -0.982345 0.0278069 0.755341 0.898989 -0.39321 0.685005 -0.270209 -0.140712 0.691243 -0.981982 -0.893569 -0.722745 -0.367965 0.860392 0.303361 -0.435297 -0.619817 -0.31273 -1.01621 -0.364722 -0.906216 0.899844 0.688861 -0.732233 0.749893 -0.87233 -0.297846 0.79652 -0.415784 0.553659 0.155794 -0.360664 -0.323341 -0.051253 -0.45804 0.312865 -0.381884 0.363373 -0.798924 -0.599056 0.514393 -0.46762 -0.158076 -0.787053 -0.632622 -0.891032 -0.26165 -0.194453 -0.119128 -0.25963 0.376161 -0.0113539 -0.291725 0.121097 0.308826 -0.501888 0.252813 -1.02447 -0.820188 0.782568 0.653153 0.488518 -0.49362 -0.66958 -0.631542 0.0598445 0.650639 0.171601 -0.422589 -0.907451 0.754643 -0.767852 -0.256923 -0.218008 -0.483649 0.255208 -0.0455172 0.295308 -1.04956 0.79512 -0.820426 0.406664 -0.225384 -0.0224157 -0.25593 -0.864339 0.492437 0.955885 -0.719272 0.827004 0.830888 0.941948 0.279291 -0.583738 -0.657632 0.81222 0.612537 -0.780376 0.153445 -0.700673 -0.778272 -0.178745 -0.459428 -0.0205706 0.545633 0.110244 -0.890051 -0.566596 -0.568264 -0.922579 -0.799728 -0.406308 0.605213 0.0155059 0.557429 -0.76619 0.204124 0.0451552 -0.806902 0.44633 -0.195524 -1.06239 0.307981 -0.962565 -0.73878 0.603287 0.775439 0.800513 0.662738 -0.283004 -1.03105 0.900031 0.556915 -0.504454 -0.210824 0.0155758 0.49931 -0.145657 0.383514 -1.0526 0.0728693 0.713226 -0.251125 -0.149957 -0.104832 -0.617156 0.106735 -0.811807 0.544133 0.373927 0.697262 -0.59492 0.451589 0.116917 -0.446396 0.875419 -0.0620761 -0.432581 0.787301 -0.326965 0.3694 0.804154 -0.444475 -0.10164 -0.697121 0.462195 -1.01143 -1.02653 -0.552626 0.556866 -0.973268 0.573433 0.249186 -0.240076 -0.626274 -0.858961 0.174643 0.518208 -0.66241 -0.296019 -0.0677694 -1.01137 0.0663504 -0.65165 0.130042 0.577988 -0.825137 -0.970158 -0.752419 -0.966368 -0.312093 0.519186 0.866133 0.345143 -0.395327 -0.59356 -0.0910385 -0.328413 -0.623156 0.433323 -0.53074 -0.381289 0.087904 0.821625 0.356647 0.466131 -1.12383 -0.423607 0.160341 -0.621566 0.273909 -0.797132 -0.422997 -0.604252 -0.531174 0.616255 -0.889308 -0.219061 0.71798 -0.590133 -0.139381 -0.435116 1.08098 -0.0718353 1.08941 -0.151001 0.41538 -0.0400943 0.5874 0.744145 -0.594912 0.909928 -0.717068 0.573255 0.6957 0.634193 0.0247866 0.621902 -0.778976 -0.777874 -0.956228 0.549524 -0.669244 -0.571878 0.93215 -0.175212 -0.940762 -0.976491 0.530793 0.703173 -0.651621 -0.647352 -0.847861 -0.698734 0.109165 -0.990523 -0.0738925 -0.716573 -0.1553 -0.561974 -0.976237 0.222324 -0.765841 -0.831736 -0.373521 -1.14777 0.811747 0.739521 0.616749 -0.780093 -0.89476 0.791138 0.852346 -0.48521 -0.738147 0.854265 0.415449 -0.646816 0.920418 0.0255837 -0.826381 -0.610315 0.47725 -0.562757 -0.186268 -0.279398 -0.353981 0.855745 0.120328 0.528027 -0.701936 0.150107 -0.258119 -0.288624 0.463952 0.595764 -0.234593 0.49354 0.413187 -0.601625 0.663776 0.475556 -0.860448 0.482809 -1.00498 -0.56799 0.34352 0.380841 -0.114437 0.225073 -0.702744 0.0307785 0.63666 0.785704 0.490572 -0.581706 -0.47905 -0.859004 -0.630433 0.67105 0.686152 -0.304523 -0.0503692 -0.470873 0.548381 -0.482777 -0.815084 -0.502863 -0.85641 0.704166 -0.0891364 0.855047 0.0950202 -0.00878249 0.335503 0.133342 0.595649 -0.20832 -0.375551 -0.335983 -0.789506 0.0327956 0.584974 0.753167 -0.190018 0.162016 -0.708774 0.394493 0.337853 -0.269978 0.244542 0.154342 0.593826 -0.594214 0.827026 0.195645 -0.0395951 0.99619 0.607323 -0.00544471 0.616542 -0.532667 -0.187251 -0.197675 0.488905 -0.776342 -0.979048 0.208904 0.0953168 -0.351386 0.723743 0.116781 0.496144 0.231838 -0.113947 -0.734896 -0.682594 0.0563286 0.61791 0.576925 0.684862 -0.298074 -0.447821 0.103104 -0.191983 -0.856564 -0.849586 0.621472 -0.946323 0.674318 -0.48534 0.535798 -1.03999 0.26446 -0.660671 0.551583 0.566808 -0.520491 -0.179205 -0.242588 0.200488 -0.366405 0.994056 -0.160069 1.00389 -0.0667819 0.142647 -0.581853 -0.889419 -0.0825106 -0.872643 0.811416 0.65582 -0.290013 0.0651567 -0.431614 -0.0695262 0.273942 -0.718794 0.0701657 -0.0280815 -0.164252 -0.238726 0.126706 -0.722426 0.289469 -0.208046 -1.05101 0.860959 0.62989 -0.32991 -0.0401813 -0.761634 -0.373723 0.77962 -0.749307 0.503419 -0.185516 -0.518483 0.486697 0.611404 -0.393706 0.388965 0.313495 0.288344 -0.564422 -0.997776 -0.592744 0.806257 -0.663482 0.499609 -0.181645 0.220406 -0.637495 -0.896648 0.664267 0.836957 -0.0743497 0.60182 0.587576 -0.487879 -0.687047 -0.378713 -0.239325 0.0712487 -0.428538 0.221467 -0.263714 0.50563 0.751166 -0.837223 0.0188456 -0.658656 0.635598 -0.450476 0.750654 -0.787789 -0.397415 -0.768809 1.08052 0.106077 0.992174 0.112804 -0.568174 -0.631767 0.186906 1.08017 1.1157 0.989526 0.69883 0.758533 -0.400171 -0.910844 -0.524366 0.493007 0.20354 0.029299 -0.343087 0.79621 -0.737042 -0.804413 0.887091 0.299011 -0.481192 0.39963 0.733639 -0.816745 0.490529 -0.764916 -0.757109 0.392647 0.116917 -1.08472 -0.744416 0.304581 -0.940345 0.220245 0.183816 -0.966062 0.0805473 -0.247095 0.646517 0.643818 -0.162252 -0.938399 0.111679 -0.963137 0.162147 0.843247 0.89931 0.528664 -0.836479 0.865391 -0.0390623 -0.19621 0.43107 -0.202409 0.056184 -0.0645206 0.0869513 0.337516 -0.588948 -0.735041 0.36304 -0.227382 0.652043 0.511825 -0.950791 -0.0883034 0.587366 0.218686 0.8668 0.431452 0.0470168 -0.173747 0.663617 -0.75692 -0.0774137 -0.270362 -1.0317 -0.299113 -0.79699 -0.900888 -0.434299 0.150552 -0.11144 0.821223 0.807601 0.812169 -0.226063 -0.0618079 0.196517 0.17136 0.123606 -0.384726 -0.989248 -0.146869 -0.855654 -0.918131 0.868633 0.781741 0.445284 0.860653 0.451123 -0.419082 -0.404861 -0.0654747 -0.365228 0.396652 0.647661 -0.330915 -0.801405 -0.915251 -0.0732205 -0.183818 0.28952 0.839939 -0.301707 0.00909644 0.543456 0.490065 1.02438 -0.129287 -0.297938 0.248112 0.58069 -0.232698 -0.750587 0.899422 0.105525 1.23471 0.812032 -0.46939 0.946935 0.170207 -0.0565986 -0.47826 1.13384 0.632385 1.01607 0.899059 -0.53549 -0.696436 1.01182 0.375688 0.115429 0.139692 0.0314021 0.593327 -0.98588 -0.513583 -0.0461832 -1.14103 0.259647 0.568069 0.00344127 -0.276086 -0.758912 0.048499 -0.661604 0.0420228 -0.0365842 -1.10825 0.249459 -0.260543 -0.122638 -0.927229 0.161574 -0.193623 0.621184 0.156467 -0.300953 -1.00629 0.369369 -0.373452 0.391154 -0.511495 0.810565 -0.545705 -0.811182 0.91532 0.0908525 0.311376 0.875506 -0.612596 -0.0935159 -0.113867 0.150365 0.14444 -0.973459 0.623099 -0.733813 0.197392 0.635723 0.603295 -0.993623 -0.42837 0.764178 0.222822 0.48319 0.515058 -0.489954 -0.663679 0.666562 0.984854 -0.043545 -0.0778365 -0.625518 -0.293186 0.311977 -0.489894 -0.399995 -0.620244 0.743433 -0.636696 -0.377977 -0.482485 0.250749 0.836032 0.661447 0.359695 0.467966 -0.946465 -0.444703 0.173419 0.727661 -0.308133 0.926597 0.616338 -0.975806 0.498561 0.216196 -0.462121 0.805229 -0.257475 -0.588586 -0.294349 0.67589 -0.126496 0.476761 0.134012 0.427138 -0.899035 0.528244 0.249963 -0.535846 -0.891099 0.698153 0.840759 1.06879 0.477183 0.170954 0.57867 0.558975 0.995687 -0.0359454 0.504978 -0.326994 -0.1357 0.076124 -0.245822 -0.675789 -0.77615 0.178732 1.06576 0.0225066 0.72143 -0.125008 -0.168249 -0.33527 -0.621969 0.9086 -0.882955 -0.495096 0.339928 0.195185 -0.241341 0.27411 -0.239283 -0.521832 0.228328 -0.825586 0.647017 -0.262245 0.663494 0.404914 0.43876 -0.127392 -1.08779 -0.923048 0.707458 -0.639922 -0.857301 0.734266 0.443734 -0.868294 -0.37141 0.0760434 -0.0425622 0.293473 0.60818 0.250394 0.144393 0.657405 0.759593 -0.468282 -0.0775951 -0.348164 0.988136 0.8686 0.311209 0.244873 -0.931067 -0.117726 -1.0037 0.705034 -0.560037 0.586565 -0.306964 -0.592624 0.792331 -0.478278 -0.1393 -1.04307 -0.716491 -0.61166 -0.822535 -0.00664146 0.583749 0.246352 -0.539208 0.293335 -0.40649 0.630805 -0.0698564 -0.707493 -0.868594 0.850557 -0.0826831 -0.937353 0.613294 -0.883201 0.220396 0.632729 -0.0262744 0.189293 0.337556 0.360541 -0.160758 -0.920432 0.830806 -0.378411 -0.301045 -0.20483 -0.231634 0.170598 0.367456 0.157458 -0.724914 -0.0834005 -0.636784 -0.258716 -0.803773 -0.0241095 -0.672708 0.198024 0.344435 -0.503573 0.0728679 -0.755146 -0.421844 -0.256623 -0.614228 0.841581 -0.663867 0.354758 0.211869 0.802492 -0.137018 1.08284 1.00813 -0.465388 
-0.608814 -0.761335 -0.0543303 -0.0728015 0.0721557 -0.572894 -1.0261 -1.0751 0.778024 -1.22338 -0.546354 -1.07393 0.171497 -0.359866 -0.215471 -0.986708 -0.517853 -1.38302 -0.0377004 -1.27713 -0.233204 0.665116 -1.77834 -0.179426 -1.15422 -0.00750511 -0.0410593 0.852338 0.135513 -0.176413 0.00309524 0.871556 -0.347093 -1.57392 0.010907 -0.2913 -1.07831 -0.993749 0.00788474 -0.760031 -0.914761 1.133 -1.13958 -1.51861 -1.48572 -1.21761 -2.92241 -2.97958 -3.1718 -0.756133 -0.11261 -0.231484 -0.532306 -1.35803 -1.7343 -1.68186 -1.44485 -0.413273 -1.32545 -0.086232 -0.86435 -0.421684 0.160225 0.685789 -0.650367 -1.19401 -0.128227 -0.648286 -0.68588 -1.42532 0.509672 1.13231 0.265399 1.82841 1.58627 1.37539 1.6922 1.4226 -0.0568024 -0.708763 0.349464 0.194466 -0.116211 -0.0697571 -0.849869 1.08526 0.534428 0.142658 0.498524 -1.1148 -0.545842 0.213809 -0.0865984 -0.162789 0.512841 0.00249027 -0.702694 -0.119409 0.933266 0.392368 0.131348 0.519559 0.502302 1.86254 1.86915 3.30849 2.77525 0.200932 1.53452 -0.649333 -0.405822 0.714245 0.973816 1.37273 -0.0502538 1.95469 1.99332 2.23724 0.828093 0.854069 -0.122683 0.517688 0.098455 1.17635 0.175499 1.12795 0.294758 0.865869 -1.11479 -0.865114 -1.10593 -0.712301 -0.719648 -1.42364 -0.554998 0.0242983 -1.21586 -0.781868 -0.846966 0.267409 -0.356885 0.223166 -0.715911 -2.16567 -0.488083 -0.471259 -1.29393 0.324012 0.264962 -0.225663 -0.151528 -0.316863 -1.97702 -1.16717 0.0168393 -0.612539 -1.22006 -1.30944 -0.971121 -1.55605 -2.06702 -1.61767 -1.7673 -0.63539 -0.751675 -2.6252 -1.73179 -0.331393 -0.834502 -0.672711 -0.347688 -1.13293 -0.881782 -1.23703 -0.825624 -1.56204 -1.09488 -1.12592 -0.161222 -0.533001 -0.406422 -2.21578 -2.43193 -1.42159 -1.96347 -0.329581 -1.54269 -1.41116 -0.470315 -0.16019 -0.0413445 0.70135 0.705903 -1.42735 -0.516875 -0.466809 -1.27009 -1.26563 -0.610304 0.257133 0.612796 1.60502 1.2657 0.747028 -0.114509 1.37095 0.189344 1.28186 -0.383284 -0.0726961 -0.555107 -0.957756 0.422187 -0.544097 1.01192 0.113665 -0.0992759 -0.728216 0.379763 0.525146 0.583179 -0.463141 1.0358 0.974251 0.180422 0.856488 0.0818412 0.153995 0.906579 0.273772 -0.850712 2.52394 1.95955 2.91073 1.33124 1.52387 1.55486 0.863602 0.623344 1.41319 -0.701911 1.06468 -0.292445 1.67082 1.26324 0.511336 0.781807 1.2206 0.556844 -0.793394 0.478928 0.179037 0.469009 0.433475 0.0256255 1.22256 -0.949091 0.275254 -0.374067 0.0929755 -1.05935 -0.837993 -0.584327 0.0160631 -1.08905 -0.714841 -1.62752 0.229168 -1.22283 -1.11112 0.172204 -1.91542 -1.17827 -0.22892 -2.04872 -0.109268 -0.563925 -0.428342 -0.980758 0.126328 0.290292 0.425078 0.405152 0.472159 -0.724733 -1.55857 0.329063 -0.317848 -1.70032 -1.23256 -1.00027 -0.161971 -0.0395175 -1.27776 -1.36524 0.66559 0.0405907 -0.649648 0.357943 0.177938 -0.0370105 -0.336269 -2.29569 -0.732294 -0.791803 -1.1871 -1.2165 0.202193 -0.39386 -1.54661 -2.38552 -3.19208 -0.735771 -0.850943 -1.68876 -1.1479 -0.30162 0.832319 0.237072 -0.689213 -1.27321 -0.874904 1.02781 0.0737957 -1.08696 1.09863 0.50419 0.404736 -0.900607 1.51013 1.19998 1.22333 1.17585 1.02917 0.717435 -0.179292 -0.048408 0.217273 -1.13658 -0.629459 -0.512237 -0.529885 -0.613784 -0.667274 0.18932 -0.454522 -1.07578 -0.380415 -0.590593 -1.32009 -0.737461 -0.226886 -0.496539 -0.371753 0.252898 -0.0921164 1.6285 0.583394 -0.820222 0.313728 0.85696 1.99749 2.03919 2.65207 0.788275 1.49723 -0.136122 1.28266 0.39395 0.0123991 0.0487113 1.65725 1.31544 1.33567 0.286897 0.85823 1.37733 -0.561853 1.29798 -0.293617 -0.0675707 -0.751342 0.654005 0.230293 -1.0672 -1.1037 -0.0504044 -1.66019 -0.615027 -0.122136 -1.47884 -0.343796 -1.26087 -0.867871 -0.416949 -0.410669 -0.727236 -0.955315 -1.17534 -1.94909 -1.21681 -1.95504 -3.09653 -0.752814 -0.920949 -1.07875 -0.9891 -0.942259 0.00972669 -0.858473 0.15081 -0.25241 -2.10763 -0.737966 0.0307881 -1.1052 0.164923 -0.220153 -1.55028 -0.647052 -0.950346 -1.71812 -2.5317 0.114731 1.47103 0.573251 -0.32674 -0.71253 -1.48727 -0.104594 -1.22686 -0.412871 -1.46935 -1.73504 -1.49885 -0.710234 -0.27699 -1.50126 -1.56064 -1.71445 -1.38586 -0.0846032 -0.926824 -0.212327 -0.0297251 -1.04224 -0.185191 -1.19682 0.0482255 0.130108 -0.831354 -1.60111 -0.662995 -0.41255 -0.674114 -0.888022 0.145495 -0.105334 1.03363 0.27853 -0.0390974 0.504382 -0.157546 0.623809 -0.510957 -1.17711 -1.16966 -1.29877 0.327388 -1.61725 0.0921912 -0.621258 -0.235393 -1.2922 -0.96357 0.096779 -0.434627 0.316794 -0.548731 -0.569904 0.677074 1.24123 0.836341 1.39205 1.6388 0.508489 -0.29132 1.55586 1.35945 1.85666 2.4846 0.800285 0.67614 1.24043 1.31027 0.0108788 0.528892 -0.0436969 0.115497 0.587599 0.169315 0.29101 1.57811 0.454746 0.643701 1.19252 0.925169 0.42121 0.221466 -0.253818 0.919839 -0.0150647 -1.3698 -0.935235 -0.856819 0.361831 -0.314552 -0.984526 -0.110045 -0.918019 -0.502136 -0.503089 -0.608974 -0.313354 -0.893841 -1.05298 0.0827612 0.691139 -1.54455 -0.0541746 -2.44679 -0.817979 -2.06772 -0.0154677 0.859585 -0.201566 0.0777788 0.290451 -1.1422 -1.01101 -1.15404 0.196824 -1.22524 -1.31255 -1.23016 0.146248 -1.61359 0.438985 -1.1344 -1.55603 -0.866032 -1.03362 0.506891 -1.09413 0.783205 -1.31476 0.0734568 -0.742133 -1.61526 -0.968092 -1.25741 -1.17905 -0.320854 -1.10513 -1.53504 -0.446656 -0.952657 -0.537046 -0.653347 0.284813 -0.168578 -0.069458 -0.342743 -0.131596 -0.58724 0.02923 -0.779198 -1.15865 -0.352687 -0.614422 -0.181905 -0.9019 -0.0726359 -0.986509 -1.03031 -0.866264 -0.415905 0.563754 -0.0713606 0.843572 0.106566 -0.0498218 -0.0745472 -0.85607 -0.163914 0.173732 -1.74071 -0.685367 -0.690264 0.372647 -0.487214 0.051729 0.778473 -0.110049 -0.991303 -0.300735 -1.51218 -0.490689 -0.413095 0.952085 2.15353 0.760136 1.49176 0.0660406 1.3137 -0.309595 0.552788 0.450749 1.08309 1.71237 1.55315 0.528294 0.910894 0.75346 1.93339 1.02699 1.5405 0.346732 -0.00543747 0.288193 2.03699 1.33017 1.47248 0.84154 0.410472 0.698656 -0.0454831 0.315949 -0.150415 0.46594 -0.400295 -0.95412 -0.748288 -0.246383 -0.364595 0.152096 -0.624795 -0.777258 -1.07623 -1.08291 -0.817775 -0.92654 0.123841 0.0842308 0.739707 0.29409 0.410046 -1.43261 -1.07966 -0.614679 -1.58492 -1.12004 -0.000198362 0.913244 -1.40209 -2.52736 0.0839982 -1.49737 -1.71325 -2.349 -0.419703 -1.31775 0.0317074 -0.64427 -0.366851 -1.20575 -1.08969 -1.06435 -0.170517 0.463159 -0.168579 -0.0329127 0.639332 -0.810978 0.658337 -0.97303 0.136024 0.425971 -1.09494 -0.911369 -2.07306 -1.38675 -1.30727 -2.18835 -1.09425 0.511064 -0.769113 -1.27953 -1.60332 0.0744169 -0.161833 -0.383358 -0.713738 0.16674 -1.06473 -1.03319 -0.16532 -0.41212 0.976175 1.21682 -0.228023 -0.912222 -0.684617 -1.04837 -0.0566365 -0.358773 0.124683 0.823095 0.225575 -0.0936716 -0.505204 -0.592263 -1.46277 -0.611177 -0.864003 -1.41187 -1.15431 0.444022 0.949387 0.111439 0.758832 -0.145604 1.07568 -0.117261 -1.54759 -1.48346 -0.110034 1.42083 0.927279 0.638718 2.00374 0.274027 1.85873 -0.389103 0.65288 0.135454 -0.235298 1.22397 1.87243 1.96373 0.584987 1.76194 1.77851 1.44569 0.802446 0.643254 2.08711 1.16321 0.497674 1.99516 1.71118 1.06581 -0.531454 0.456971 -0.0691556 -0.759166 0.593044 0.972662 0.743838 -0.485832 -1.12989 0.498018 -0.86871 -0.333669 0.0917582 -0.294639 -0.679675 -1.08652 0.979111 -0.41614 -0.243203 0.183453 -0.969686 0.329965 0.429956 -0.705871 -0.566448 -1.59182 -1.25489 -0.766607 -0.765955 -0.191317 -1.50422 -1.90368 -1.20869 -0.487023 -1.45993 -0.405069 -0.703175 -1.23353 -1.34051 0.403915 -0.405609 0.384501 -0.302406 -1.56047 -0.906276 1.12105 -0.12734 0.191126 -0.624208 0.453782 -1.42111 -1.22453 -1.66361 -0.46834 -0.549356 0.205824 -0.748813 -1.41856 -0.071813 -2.01573 -1.07384 -0.730658 -0.817877 -0.775927 -1.52278 -1.81379 0.0595939 -1.00704 0.397243 -0.060942 0.159881 -0.286569 -1.32294 -0.436876 -0.845261 0.948246 -1.06109 -0.710789 0.0222787 -0.0470674 0.672743 1.24308 1.96659 1.45551 -0.25833 -1.17832 -0.236148 -1.08157 -0.511573 0.0117989 -1.16046 -0.860518 -1.04241 1.02441 -0.429128 0.356988 0.974205 0.428307 0.59827 0.446359 -0.863762 0.102185 -0.146496 0.517509 1.24646 0.994278 1.07304 -0.0407201 1.28855 -0.679149 0.720821 0.419923 -0.652026 1.06104 1.58753 1.56923 0.808402 1.50572 0.386768 2.33124 0.873564 1.36744 0.831305 1.26973 1.36871 0.753742 1.63476 0.322885 0.935376 0.396861 0.782346 1.37131 1.39603 -0.457127 0.0279699 0.678326 -0.0273279 1.21142 -1.68959 -0.623359 -0.000976144 0.919298 0.987562 -0.506 0.294987 0.171663 1.32504 1.17998 -0.8352 -1.15498 0.99865 1.26469 -0.675497 -1.03657 -2.38906 -0.502867 0.333219 -1.29286 -2.68946 -2.10813 -0.413312 -0.665101 -1.62403 -1.1539 -1.10453 -2.3908 -0.814406 -0.26588 -0.361071 -0.233535 -0.763333 -0.731673 -1.99202 -0.976349 0.22393 1.50945 -1.71224 -0.546605 0.354117 -1.10729 -1.48797 -0.916177 -2.07397 0.011484 -0.629994 -1.27137 -0.295572 -0.648188 -1.27209 -0.463059 -2.14728 -0.104524 -0.580346 -0.357922 -0.482468 -0.341943 0.611571 -0.169525 -1.57138 -0.949431 -1.48765 -1.31172 1.01247 -0.543173 -1.13962 -0.780035 -0.297471 -0.143161 0.433352 1.00316 1.44792 -0.723193 -1.1815 -1.72184 -1.9063 0.150279 -0.917891 0.12674 -1.22378 -0.352047 -0.225034 -0.12138 1.10275 -0.25595 0.949675 -0.602264 0.399389 0.603284 -1.07919 0.0841677 0.09098 0.320033 0.173842 0.873123 1.67333 0.729304 0.334056 0.417686 -0.348765 -0.430969 0.914229 0.223051 1.79733 0.448256 0.790777 1.44238 1.87901 2.52835 1.48155 1.32321 2.01753 1.17414 1.25029 0.704931 0.298769 0.168409 0.0614567 1.23497 1.12212 -0.099574 -0.350613 -0.129542 0.437264 
-0.234922 -0.019419 -0.22587 -0.669469 -0.536638 0.615594 0.0145739 0.544 0.494289 0.801213 0.0896766 -1.10892 -0.227707 -0.131567 0.826746 -0.565126 -0.906334 -0.853178 0.421278 -0.492282 0.0281958 0.70573 0.185493 0.642772 -0.723648 -0.0138137 0.491811 -0.0563457 0.34551 -0.986226 -0.888463 -0.800931 0.105873 -0.0229722 -0.383017 0.708873 -0.21772 -1.07797 0.482451 -0.482964 -1.02834 -0.214311 -0.402034 -0.125294 0.751645 -0.491771 0.478763 -0.962147 -0.180798 0.0569201 -0.35641 -0.990197 -0.0389876 -1.02167 0.862376 0.388632 0.157123 0.4554 -0.542902 -0.461969 0.554371 -0.369413 -0.119208 -0.152642 0.797446 0.727401 -0.257958 -0.280206 0.72757 -0.720411 0.323034 0.782406 0.188794 -1.00111 -0.238075 0.0226933 -0.43094 -0.732591 0.0353501 0.435114 0.416815 0.704114 0.486391 -0.621742 0.79812 0.421558 0.85345 -0.0552037 -0.120484 -0.745502 0.526231 -0.507033 -0.0741277 -0.553384 0.365871 -0.238763 -0.810984 -0.875104 0.542241 -1.02111 -0.512489 -0.102588 0.781072 0.69688 -0.0825409 -0.444162 -0.291498 0.548734 -0.0525075 0.850075 0.0694332 -0.55864 0.701606 -0.398867 -0.130137 0.563712 -0.914278 -0.193619 -0.414784 0.0820224 0.181031 -0.742088 0.760426 -0.715419 -0.156453 0.236553 0.14806 0.145239 0.450777 -0.189649 0.248975 -0.927897 -1.16913 0.154778 -1.09527 -0.160724 -1.10926 -0.22869 -0.454436 -0.0735847 -0.229023 0.776271 0.521072 -0.422644 -0.524937 -0.504834 -0.781552 -0.309409 0.437276 -0.0670885 -1.10402 -0.263581 0.298966 0.744373 0.150478 -0.658518 0.180569 -0.471169 0.60263 -0.219954 0.446787 -0.0192975 -0.0517393 0.407771 -0.652897 0.0809006 -0.48579 -0.512961 -0.929792 0.260578 0.544646 -0.0834189 0.0381593 0.19077 0.691237 0.721777 0.869238 -0.934886 -0.493229 0.455817 0.186673 -0.473949 -0.592076 -0.411355 -0.567613 0.614027 -0.00888788 0.663455 -0.764676 -0.291768 -0.475253 0.771091 0.80415 0.649815 0.312741 -0.801805 -0.252625 0.845644 -0.232183 -0.0125486 0.276406 -0.545315 0.924609 -0.61893 0.76333 0.688782 -0.848771 0.646252 0.807698 -0.305967 0.178218 0.0182019 0.31499 0.628995 0.724457 0.813649 0.275886 -0.29368 0.477819 0.513258 0.418457 -0.960222 0.315573 0.273321 0.707552 -0.327017 0.58483 -0.455324 -0.388564 -0.590365 0.452618 0.831798 -0.129787 0.400386 -0.753714 -0.284154 0.207898 -0.555287 -0.61284 0.103799 0.241673 0.680516 -0.808624 -0.340719 0.380818 -0.99977 -0.440126 -0.232628 -0.15332 -0.823086 -0.577384 -0.590332 -0.658198 0.839104 0.778338 -0.832646 -0.391535 0.52922 -0.125079 0.396572 -0.954234 -0.556228 0.365691 0.0341408 -0.991732 0.737452 -1.13659 0.299759 -0.652434 -0.523399 -0.421574 0.739298 -0.753018 -0.111296 -0.540397 0.705015 -0.00672757 0.118322 -0.437104 -1.09794 0.428173 0.130117 -0.476297 0.928934 0.141119 -0.543726 -0.756832 0.931373 -0.862058 0.263048 0.408711 -0.694849 0.790553 0.00517334 0.596589 -0.936642 -0.108599 0.580059 0.495306 0.425283 -0.826781 -0.751623 0.278001 -0.388049 0.209062 0.821729 -0.546847 -0.624929 0.124377 0.122375 -0.522132 -0.384922 -0.703472 -0.00105373 -0.365358 0.569089 0.566928 -0.0465569 0.495301 0.737286 -0.730879 0.0410154 -0.86867 -0.882894 -0.970854 0.761998 -0.714585 0.136289 0.580875 0.970826 -0.419981 0.838696 -0.756277 0.879902 -0.550272 0.5505 0.768523 -0.064616 -1.08437 -0.0865844 -0.877376 -0.512217 0.694487 -0.449829 0.462394 -0.71578 -0.892358 0.0689473 0.265004 0.65968 -0.166775 0.557127 -0.27383 0.0358852 0.791966 -0.129882 -0.0971343 -0.881594 -1.0454 -0.55365 -0.920648 -0.479323 -0.690287 -0.610223 -0.497675 -0.163605 -1.05626 -0.650794 0.883337 -0.997307 0.392373 -0.822466 -0.443177 0.110667 -0.238881 -0.841424 0.539123 0.0186233 0.29794 -0.0723158 -0.231035 -0.746621 -0.403384 0.583275 0.417174 -0.468918 -0.349897 -0.461076 -0.192235 -0.26503 0.048785 -0.0213351 0.370632 0.47307 0.507385 -0.98322 -0.5021 0.682454 -0.426103 -0.4745 0.78851 -0.975657 -0.287599 -0.579992 0.205509 0.570489 -0.327207 -0.141773 -0.283545 -0.904435 0.938421 0.644822 -0.501163 -0.336586 0.461623 -0.845084 0.382046 -0.793157 -0.282776 -0.704585 0.0392852 -1.02406 0.496651 -0.33986 0.589966 0.130594 -0.186534 -0.764225 -0.0644084 0.542884 -0.0755895 -0.178689 0.557653 0.722887 0.330701 -0.075336 0.455399 -0.933295 0.894064 -0.818716 -0.771739 0.859465 -1.0276 -0.0935877 -0.340036 0.421976 0.0642744 -0.901647 0.707146 0.861431 -0.595973 -0.21758 0.840065 -1.04614 0.598353 0.568197 0.242423 -0.477021 0.940497 -0.753886 -0.924148 -0.169704 0.099529 0.751833 -0.355264 -0.600005 -0.370879 -0.96855 -0.460561 -0.391563 -0.625892 -0.0785652 -0.459385 -0.609806 0.78831 0.178742 0.807473 -0.13965 0.262284 0.530836 -0.243621 0.728704 -0.574469 -0.311891 0.746299 -0.966658 -0.729613 -0.0264139 -0.426002 -0.830009 0.191733 -0.284325 0.0693739 -0.683855 -0.552068 0.71153 -0.137126 0.2425 0.880315 0.541791 -1.04994 -0.700461 -0.460127 -0.444007 -0.256693 -0.623431 -1.13023 -0.301489 0.340693 0.229525 -0.672288 -0.788779 0.105487 -0.0791501 0.127528 0.0523974 0.1427 0.528484 -0.879957 0.768741 -1.22178 0.427598 -0.344113 0.0382968 -1.06059 0.271692 -0.093587 -0.0371322 -0.317883 -0.107156 -0.425886 -0.268475 0.30156 0.188587 0.434015 -0.820385 0.714539 0.457425 0.0285824 0.216316 -0.148321 0.555465 0.7263 -0.776695 -0.338234 -0.0473885 0.359703 0.844331 -0.379047 0.650135 0.85554 -0.420621 0.264604 -0.299237 0.793892 0.392158 -0.837572 -0.136793 -0.554636 -0.0986045 0.815563 0.0846443 0.647655 0.124394 -0.637754 0.17734 0.404998 -0.810208 -0.278937 -0.458186 0.557055 0.741956 -0.781959 0.297382 0.95463 -0.100969 -0.667495 0.362833 -0.179459 -0.0852705 0.0779452 -0.250259 0.681938 -0.563202 0.605789 0.612377 0.891256 0.726241 -0.600664 -0.666229 -0.365331 -0.81364 0.450507 -0.670256 0.376731 0.816481 0.51993 -0.103514 -0.848157 -0.648004 0.534047 0.749461 -0.950035 0.690528 0.0126864 -0.990881 -0.413739 0.334586 0.390526 0.451963 -0.653292 -0.497674 -0.760218 -0.97848 -0.0668772 0.791319 0.568996 -0.220782 0.50972 -0.987384 0.140592 -0.820174 -0.72339 -0.360918 -0.414218 0.758761 -0.383041 -0.748955 -0.258221 -0.135791 -0.323043 -0.703251 -0.393113 -0.231121 -0.877173 0.735092 -0.100204 -0.155954 0.149254 -0.540208 -0.566819 0.706811 0.171932 -0.142853 -1.09037 -0.76748 -0.247268 0.517648 0.0808736 -0.608795 0.751567 -0.519784 -0.222062 -0.82831 0.206204 0.532667 -0.920854 -1.05673 0.842157 -0.0735287 -0.111872 -0.367279 0.36409 0.602235 0.585293 0.669762 0.464175 -0.392663 -0.329788 -0.109117 0.315069 0.311122 -0.240564 -0.409979 -0.797253 -0.25876 -0.0111159 0.26023 -0.496628 -0.739897 0.799915 -0.616113 -0.173248 -0.276929 -0.297224 -0.788952 -0.636494 -0.129478 -0.735186 -0.731033 0.828221 0.147917 -0.0434494 0.296405 -0.160605 -0.384313 0.0800183 -0.524908 0.398621 0.809514 0.461604 -0.251336 0.19619 -0.712994 0.416708 0.515831 0.0302329 -0.596215 -0.162826 0.692709 -0.167414 -0.347508 -0.871833 0.783921 0.459737 -0.201378 0.936333 0.8006 0.65116 -0.81384 -0.91437 0.561991 0.394069 0.0406918 -0.112618 -0.653956 0.791354 -0.985392 -0.167831 0.221012 0.837758 -0.711662 -1.05665 0.0078892 -0.469437 0.366602 -0.448629 0.604201 0.84368 0.344018 0.235708 -0.324698 -0.968485 0.345464 -0.612226 0.460786 -0.838509 -0.62448 0.240503 0.825243 -0.445069 0.421514 0.418062 -0.945009 -0.409037 -0.569201 -0.534802 -0.556086 -0.47862 0.311777 0.646312 -0.592621 0.713554 0.727116 0.53371 -0.618763 0.218868 -0.777036 -0.795104 0.267457 0.784144 0.561111 -0.91466 -1.07536 0.00815306 -0.476932 0.415284 0.270147 0.0416014 -0.0782912 0.317207 0.805878 -0.552873 -0.083866 -1.05727 0.148481 0.417923 -0.49569 0.621813 -0.976935 -1.06361 0.467006 -0.465462 0.864461 0.421358 -0.740466 -0.569135 -0.192175 -0.30317 -0.213101 -0.779225 -0.413458 -0.564535 -0.585932 -0.37527 0.662877 0.0857661 -0.712066 0.126015 -0.681476 0.314891 -0.417844 -0.795942 0.859118 0.570991 -0.793864 0.0957456 0.106456 -0.263656 -0.251167 0.119774 -0.205027 -0.665221 0.789284 -0.280212 0.824206 -0.835579 0.221315 -0.297384 -0.0390206 -0.871763 0.0190376 0.576884 -0.377293 0.423533 -0.745787 -0.580409 -0.320742 -0.34106 0.542082 0.0697749 1.0127 -0.845062 0.262421 0.818496 0.756503 0.489505 -0.0441371 -0.165343 -0.721624 0.761152 -1.02976 0.132814 -0.829639 0.88017 0.933555 -0.97601 -0.883086 0.218926 -0.266094 -0.0162349 0.286629 0.662598 -0.431939 -1.03743 0.124994 -0.125547 -0.664056 0.805479 0.538588 -1.07332 -0.17038 0.537818 -0.886387 -0.884102 0.427078 -1.12366 0.596907 -0.599606 -0.197681 -1.0583 -0.731753 -0.130486 0.147074 -0.510966 -0.202752 0.15644 -0.510776 -0.0939038 -0.588951 0.327191 -0.997325 0.780387 0.125063 -0.297657 -1.09274 -0.517135 0.805199 -0.602926 -0.63453 0.450826 -0.532471 0.307967 0.0611895 -0.385677 0.472123 -0.383372 -0.267467 0.313647 0.212911 0.647796 0.351777 0.537631 -0.382614 -0.399308 -0.900384 0.458713 0.78584 -0.208055 -0.424351 -0.655278 -0.698089 -0.250303 -0.665254 0.603134 0.654932 -0.565486 -0.74704 0.59449 -0.0484445 -0.300048 0.121182 0.537041 -0.809094 -0.651188 -0.592893 0.953089 0.181156 0.21715 0.316883 -0.53121 -0.0869198 -0.218112 -0.921655 0.682667 0.49572 -0.773001 0.172739 0.347755 0.0923067 0.862472 0.812191 0.501217 -0.284761 -0.766595 0.155272 -0.599076 -0.282501 0.502984 -0.867064 0.731638 -0.679088 0.375602 0.329561 -0.413083 0.78705 0.771951 -0.449505 0.102719 0.0538563 0.919906 0.511986 -1.02772 -0.290915 0.726301 0.734749 -0.732503 -0.992675 -0.0546306 0.654597 0.156214 -0.0755337 0.524526 -0.277982 0.658038 0.788126 0.903302 -0.85886 -0.515807 0.358559 -0.794919 -0.787841 0.661877 0.561554 0.587322 -0.696452 0.429014 0.40949 -0.143294 -0.470747 -0.495542 -0.203262 -0.888123 -0.46252 0.571858 0.793622 -0.721144 0.842755 0.835766 0.322209 0.563032 0.0598011 -0.761309 0.0983798 0.802302 -1.13433 -0.0831506 0.71323 -0.899401 0.535198 0.180016 -0.553701 -1.09157 0.0771502 -0.816005 
