0.83531 0.661313 -0.82676 -0.575378 -1.00082 -0.465383 0.256533 0.189176 -0.960753 -0.889549 -0.910609 0.117062 -0.18064 0.142218 0.807151 -0.672378 0.115016 -0.938768 -0.0923131 0.823613 -0.770601 0.893726 -0.291731 0.500641 0.814837 0.749765 -0.153227 -0.277537 0.362007 0.266349 0.215535 0.247515 -0.028329 0.432936 0.708244 0.0134841 -0.98362 0.015134 -0.746905 -0.899987 0.170344 -0.613716 0.255159 -0.973306 0.576147 0.128126 -0.581681 -0.25376 0.244573 0.377732 -0.391192 0.51232 0.315932 0.355473 0.0511557 0.169034 0.149714 0.942504 0.937321 -0.442447 0.253311 0.196164 0.842173 -0.730428 -0.326315 0.594909 0.32751 -0.271691 -0.351726 0.618884 -0.133381 0.855891 -0.956581 -0.833769 0.927038 0.654225 0.329013 -0.618261 -0.564177 -0.391057 0.795026 0.0801848 -0.84315 0.146514 -0.52878 0.243551 -0.648895 0.656486 0.221497 -0.677377 -0.751772 -0.489739 0.555215 -0.873177 -0.18474 -0.73664 0.756178 -0.821794 0.0271168 -0.560093 0.832291 0.928947 -0.668997 0.91138 -0.869153 -0.70629 0.601052 0.495205 -0.289523 -0.92809 -0.860189 -0.458537 0.188031 -0.667889 0.723438 0.694707 0.611019 -0.890107 0.386642 -0.131951 -0.531953 0.670322 0.413751 -0.942275 0.831577 -0.735813 -0.643768 0.622987 -0.542484 0.398495 -0.922076 -0.660829 0.376639 -0.54363 -0.715719 0.541217 -0.214501 0.92114 0.0724417 0.532048 -0.971485 0.247469 -0.902751 0.240249 0.603176 0.868107 -0.017708 0.268249 -0.979785 -0.596075 -0.829282 -0.483294 -0.89007 0.613847 -0.390231 -1.02312 0.913776 0.00176051 0.635473 -0.566534 -0.543787 0.76953 -0.191089 0.863509 -0.735423 0.131506 0.467157 0.106445 0.108349 -0.41662 -0.323438 0.176673 0.878483 -0.16048 -0.519056 0.536732 -0.249048 0.506565 -0.157671 -0.191423 0.955075 0.0513401 0.369463 -0.890737 -0.290343 -0.976194 -0.868049 -0.330754 0.0700301 0.810752 0.139837 0.570839 0.624872 -1.0068 0.490782 0.939671 0.174958 -0.00380808 0.0843989 -0.678392 0.617865 0.805411 0.540939 0.530981 -0.320412 -0.943555 0.103065 0.465995 0.598557 -1.01909 -0.689932 0.589087 0.0678404 0.715084 0.733892 0.81305 0.774344 0.900051 -0.483498 -0.120178 0.747224 0.692773 -0.513907 0.406542 0.720463 -0.987697 0.381658 -0.0691267 0.043723 -0.498736 0.287678 -0.302782 -0.657649 -0.13571 -0.736336 0.0573934 -0.0442267 0.401759 -0.440968 -0.409736 0.418668 -0.0954594 -0.785177 -0.478063 -0.345014 -1.01595 -0.62976 -0.535348 0.919651 -0.0775952 0.380098 0.701338 -0.350394 0.901455 0.143119 -0.594633 0.928802 -0.460256 0.351232 0.021892 0.0905354 -0.3134 0.752785 0.466488 0.586335 -0.947382 -0.43992 -0.421923 0.489745 0.154035 0.191894 -0.0681058 -0.917818 0.45414 0.501167 -0.208774 0.480421 0.90661 0.290413 0.428327 -0.125601 -0.300084 0.174969 0.549583 -0.363002 -0.656098 -1.00945 -0.371762 -0.0602145 0.397891 0.686242 -0.939317 -0.877072 0.479229 0.589556 0.765296 0.585423 -0.806904 -0.618731 0.114541 0.392728 0.637081 -0.889468 0.531976 0.136292 0.655197 -0.639924 -0.346439 0.606234 0.689923 -0.873457 -0.484922 -0.566261 0.336466 -0.892947 0.1134 0.722972 -0.855463 0.781868 -0.293152 0.58459 0.512566 -0.173539 0.760306 0.0402712 -0.545727 0.564027 -0.335945 -0.314131 -1.0102 0.821485 -0.884793 0.663387 -1.03321 0.683916 -0.163586 0.658347 -0.921521 0.525956 0.300815 0.803864 0.687289 0.850341 -0.726685 0.0594573 -1.00465 0.424341 -0.180076 -0.824385 0.241841 0.564851 0.798328 -0.20995 -0.573072 0.594233 0.86592 -0.083376 0.193543 -0.434731 0.63813 0.219033 -0.577481 0.788683 -0.082217 -0.575506 0.506739 0.788757 -0.88207 0.621549 0.349142 0.452809 0.460708 0.0717697 0.338612 0.769339 -0.833499 0.369229 0.229323 0.0220903 0.580501 -0.493378 -0.377806 0.414064 0.331932 0.0642391 0.0232462 0.212792 -0.969853 -0.735645 0.825741 0.701955 0.518882 -0.716294 0.526953 -0.526955 -0.255837 0.0689943 -0.703347 -0.102486 -0.27411 0.681193 -0.603843 -0.779475 -0.222788 0.748435 -0.975309 -0.0120066 0.162018 0.302377 -0.940293 -0.219433 0.833986 -0.29346 -0.769118 0.202217 0.833877 0.311657 -0.538326 0.889068 0.609345 -0.657672 0.652428 0.197578 -0.317552 0.222065 0.70631 0.457043 -0.682461 -0.966473 -0.606983 0.10618 0.772487 -0.163138 0.374052 -0.395361 -0.362558 0.442382 0.639799 0.85099 -0.217427 0.734486 -0.326546 -0.343584 -0.519646 -0.0538861 0.935119 -0.616176 -0.666952 -0.55068 -0.706799 -1.03792 -0.199415 -1.01558 0.190552 0.515924 0.244434 -0.0672037 0.0165196 0.616831 0.0156621 0.458605 -0.239255 -0.173464 -0.667025 -0.829685 0.465727 0.00793905 0.649482 0.141619 -0.107328 -0.53491 -0.0905495 0.601323 0.158055 0.426674 -0.413913 0.0978642 0.820153 -0.0708787 0.552256 -0.854214 -0.0760056 -0.608738 -0.834003 -0.850004 0.942433 0.446077 0.118604 -0.00533163 0.0985068 -0.830383 -0.511368 0.89291 0.0287661 -0.144972 -0.903112 -0.470667 0.897286 0.7804 0.704916 -0.175689 -0.720115 -0.351515 -0.539095 0.473165 -0.890236 0.0819448 -0.393299 0.959866 -0.959137 -0.805581 -0.85888 -0.0201902 -0.399457 -0.677752 0.179252 -0.409527 0.815569 -0.668769 0.620518 -0.0504809 -0.462838 -0.85454 -0.121597 0.601227 0.0353523 0.0107048 -0.82425 -0.0221294 -0.184825 0.895026 0.816646 0.140273 -0.40023 -0.671269 -0.345293 -0.247245 0.453046 0.302972 -0.258815 0.528296 0.52955 -0.081718 -0.428063 -0.820099 0.286822 0.768184 -0.191923 0.151108 -0.84211 -0.500225 -0.8426 -0.250065 -0.319939 0.0671983 -0.631813 0.743199 -0.886924 -0.404614 -0.232097 -0.00407293 -0.453942 -0.360535 -0.821065 0.179145 0.0102183 -0.121691 0.962124 -0.503647 -0.785061 -0.262677 -0.908761 0.812583 0.719992 -0.312187 -0.962707 0.050358 -0.491098 -0.105121 -0.761494 -0.330847 0.385084 -0.609877 0.445181 -0.902863 0.49673 0.866193 0.88842 0.658624 -0.501383 -0.306707 -0.309948 0.080062 0.368749 -0.0925203 -0.704207 -0.587457 0.819316 -0.7084 -0.0570864 -0.931527 0.0636084 0.03595 0.884194 -0.21562 0.729985 0.92878 0.837235 -0.765665 -0.179129 -0.920029 -0.0607872 -0.758379 -0.493842 -0.579825 -0.625697 -0.961662 -0.678087 -0.70198 0.730998 -0.145652 0.0253903 -0.544655 -1.03128 -0.571493 0.39688 -0.701294 -0.124847 0.250307 -0.375303 0.852207 0.353251 0.721669 -0.0784321 0.272386 -0.458354 -0.318527 0.230978 -0.585777 -0.0489063 -0.933171 -0.488908 0.907352 -0.644126 0.0633963 -0.626874 -0.234549 0.13662 -0.26929 0.0997601 -0.096158 0.620544 -0.839781 0.394654 0.635039 -0.366156 -0.163707 -1.05227 0.52378 -0.899174 -0.381352 0.428008 0.506638 -0.61809 -0.614913 -0.195637 -0.0462387 0.107592 -0.923671 0.421743 -0.90446 -0.783587 -0.995916 -0.929592 -0.365117 0.110446 -0.494385 0.4494 -0.687395 0.256674 -0.429487 0.223132 -0.104936 -0.249589 -0.358817 -0.432099 0.433861 0.521402 -0.417462 0.00836569 0.674598 0.244513 -0.523747 0.222452 0.666045 -0.0967584 -0.889533 -0.300723 -0.922714 -0.769997 -0.853001 -0.793694 -0.528018 -0.839473 -0.704063 0.114868 0.279946 -0.200129 -0.434712 0.581445 -0.950237 0.12895 -0.204947 -0.00550829 0.927942 0.481857 0.609643 0.395603 0.040032 -0.770982 -0.556089 -0.246632 0.510252 -0.0425788 -0.988025 0.212475 0.895302 -0.876102 0.912851 -1.02573 -0.644824 -0.938801 -0.826419 -0.176314 -0.777983 -0.523427 0.945007 0.503715 0.278332 -0.487773 0.0853107 0.364516 0.677801 0.917795 -0.604938 0.641309 0.435064 -0.961639 0.0705067 -0.492546 -0.696544 0.550503 0.296894 0.848039 -0.457737 0.342894 0.09486 -0.528233 0.500648 0.0419135 -0.519557 0.889237 0.13646 -0.304032 -0.246035 0.394784 0.208098 -0.265569 -0.0744395 -0.483159 0.277018 -0.952278 0.915522 -0.0115293 -0.999126 -0.654427 -0.334593 0.472183 -0.578202 0.773171 -0.983596 -0.229591 0.369414 0.358607 -0.346488 0.937441 -0.266415 0.77824 -0.550487 -0.740922 -0.151961 -0.0345945 -0.815245 -0.979299 0.687925 -0.0251084 0.460685 -0.0580144 0.749223 -0.535038 0.536165 0.109693 -0.442768 0.48768 -0.866661 -0.38833 0.89839 -0.135755 -0.880778 -0.652164 -0.339146 -0.860725 0.115712 -0.955855 0.542087 0.806655 -0.982684 -0.692541 0.626628 -0.488226 -0.378386 -0.473497 0.514807 -0.145175 -0.371487 0.286037 0.911074 -0.872748 -0.733751 0.705069 -0.403173 0.805238 -0.182594 0.154004 0.299987 -0.0424419 0.75654 0.185651 0.766509 0.833378 0.505426 -0.561161 -0.983607 -0.348711 -0.485497 0.603406 -0.492195 -0.417749 0.949543 -0.829372 0.126523 -0.395559 -0.269861 -0.323571 0.491367 0.356785 0.960714 0.401164 0.482992 -0.774712 0.0863841 -0.939902 -0.970943 0.919592 0.232888 0.329507 -0.120731 -0.0071948 -0.48282 -0.303434 -0.122823 -0.939353 0.18387 -0.0585164 -0.240586 0.744109 -0.421379 0.301352 -0.635958 -0.434404 0.509235 0.52605 0.204069 -0.726579 -0.7635 -0.270486 0.664656 -0.768573 -0.835161 0.180766 -0.510019 0.303682 0.294292 -0.445652 0.258771 -0.437577 0.910874 -0.831517 0.585792 -0.534947 -0.100709 -0.503516 -0.438809 -0.882025 0.474066 0.366676 0.900179 -0.910464 -0.295405 -0.691203 -0.299613 -0.750497 0.860902 0.930845 -0.445116 -0.872966 -0.309499 -0.753383 -0.601303 -0.0964242 0.463206 -0.075774 -0.765449 -0.204505 0.52507 0.531767 0.39486 0.501821 0.78025 0.0635732 -0.979037 -0.27361 0.596342 -0.36286 -0.088632 0.134983 -0.971836 -0.169578 0.24812 -0.272836 0.136077 0.961672 0.0212854 0.047516 0.931233 0.610132 0.223397 -0.32572 0.906078 0.669016 0.615743 0.415332 -0.327719 0.925945 -0.711027 -0.767754 0.499471 0.727472 0.749636 0.283005 -0.207313 0.771597 -0.990766 -0.605602 -0.604529 -0.105992 0.474672 -0.61897 0.681457 -0.267117 0.152267 -0.141304 -0.272674 -0.782146 0.951527 -0.293729 0.86327 0.208601 0.412398 0.801206 -0.0910381 0.0576094 0.248768 0.580568 -0.0163175 0.538132 0.813189 -0.53022 0.25267 0.548322 0.764275 -0.942702 0.33058 0.77235 -0.545544 0.730918 -0.330992 -1.0198 -0.835869 -0.598462 -0.23738 0.363284 0.30637 0.53581 0.616689 0.293758 -0.720233 0.517498 -0.460245 0.727748 0.35412 0.484341 -0.179033 -0.361305 0.100592 0.839282 -0.7888 -0.0528452 -0.652106 0.503532 -0.457391 -0.846533 0.601237 0.908784 0.961686 
-0.893709 0.690289 -0.319071 -0.877938 0.889952 0.117996 -0.0797835 0.290485 -0.537724 -0.506064 -0.0549668 0.793285 -0.191244 -0.502407 -0.63153 -0.427649 0.88761 0.888516 0.42901 -0.429264 0.033526 0.312732 -0.182624 -0.982826 0.703619 -0.637126 -0.404531 0.892976 -0.999998 -0.459866 0.890107 -0.87142 -0.74728 -0.406676 -0.72707 -0.83504 0.733636 0.215439 0.477733 -0.782222 0.731256 -0.564334 -0.976069 -0.446701 -0.0444785 -0.585731 0.147524 -0.134992 -0.675351 -0.40159 0.448624 0.37063 0.923607 -0.721533 0.400672 0.640093 -0.345799 -0.990971 0.545939 -0.332927 -0.437966 0.448906 -0.191482 -0.17238 -0.944881 0.094312 0.00544035 0.801625 -0.677347 -0.503927 -0.967728 -0.933222 -0.0464138 -0.92193 -0.358057 0.931017 -0.485806 0.811354 -0.182112 -0.139296 -0.568362 -0.7116 -0.746355 -0.622467 -0.410854 0.676615 -0.960085 0.265645 0.707934 0.608143 0.955024 -0.707735 0.0793282 -0.214169 0.142174 0.156741 0.90245 -0.830075 -0.0212667 -0.7545 -0.311701 0.0352071 -0.66353 0.664197 0.135574 0.00069135 0.617501 0.672076 -0.165661 -0.542311 -0.444929 0.288268 -0.231636 -0.168999 0.6881 0.379811 -0.470092 0.750303 -0.332247 -0.739861 0.380724 -0.354935 -0.425317 -0.517632 0.453197 0.73959 0.661835 0.377949 0.931395 -0.335642 0.647649 -0.358028 0.721882 -0.993593 -0.671535 -0.120264 0.0298055 0.968676 -0.425469 0.886468 -0.551763 0.151484 0.197027 0.239302 -0.994789 -0.0925994 -0.358585 -0.433597 -0.311003 0.340463 -0.151172 -0.90797 -0.992165 0.445811 -0.403324 0.483318 0.207262 -0.719615 -0.116446 0.160943 -0.0329826 -0.446499 0.825228 -0.2888 -0.417804 -0.824019 0.613251 0.633475 -0.833479 -0.799338 0.533235 -0.371966 0.374429 -0.247877 0.889227 0.401506 0.68142 -0.447493 -1.0196 -0.617126 0.905434 -0.15793 -0.51223 0.926136 -0.699227 0.0973074 0.422325 0.520918 0.390571 -0.681224 -0.305264 -0.629511 -0.114862 -0.467167 0.0945495 0.480223 -0.278316 -0.27932 0.126987 -0.0989334 -0.0568026 -0.317908 0.550995 -0.660477 0.456093 0.462078 0.762902 0.159374 -0.963532 0.765564 0.564549 0.96419 -0.370075 -0.925391 0.912614 -0.0470247 0.19421 0.357227 -0.503799 -0.392919 0.698301 0.213223 -0.000154862 -0.394264 0.768355 -0.883287 -0.893645 -0.489564 -0.1403 0.257545 0.435713 0.825209 0.961944 0.00898291 -0.812982 0.438411 -0.508534 0.972208 -0.378001 -0.447874 0.76006 -0.791154 -0.461395 -0.587716 -0.694257 -0.526483 0.38756 0.522254 0.853041 0.906058 -0.848368 0.573632 0.141571 0.1742 -0.797911 -0.067778 0.312793 -0.66778 0.466865 -0.805208 0.612061 -0.0751262 -0.957711 0.596292 0.956601 -0.747982 0.0593138 -0.527731 -0.753908 0.703211 0.0466812 -0.971138 0.934766 0.607594 -0.536566 -0.728207 -0.887604 0.887215 0.816334 -1.01225 0.810632 -1.00972 0.583647 -0.0255141 0.186485 0.807603 0.929192 -0.47688 -0.836186 0.419873 -0.259754 0.798186 -0.634562 -0.195145 0.416757 -0.654873 0.0786628 -0.512732 -0.16935 0.336343 -0.787258 0.897525 0.387072 -0.830627 0.527014 0.872401 -0.546389 0.651824 0.7671 -0.717193 0.652417 0.590599 -0.714071 0.248915 -0.42204 0.48512 0.0693747 -0.480145 -0.980583 0.244351 0.950923 -0.229228 0.0536658 -0.670846 0.58673 -0.518413 -0.314158 -0.32345 -0.00933115 0.536682 -0.965232 0.225279 0.456061 0.443693 0.416514 0.0048966 0.337928 0.892417 -0.320979 0.127312 -0.802488 -0.646264 -0.259796 -0.49428 0.624952 0.34046 -0.986855 -0.283377 0.882622 -0.945149 -1.01669 0.855833 -0.152102 0.0573187 -0.794636 -0.543061 0.563139 -0.0846038 0.155777 -0.423893 -0.525615 0.212832 0.823696 0.952743 -0.321174 0.262499 -0.0200706 -0.960937 0.1772 0.68127 0.188663 0.397003 -0.942707 0.951177 0.925031 0.704535 0.313925 0.960464 -0.556544 0.21883 -0.962399 -0.550549 0.0973664 -0.0922054 0.530579 0.326521 0.387036 0.11597 -0.735776 -0.434895 0.714393 -0.239108 0.800679 0.560815 -0.26365 -0.498206 -0.154826 0.738176 -0.436841 -0.949962 0.447086 0.779058 0.464403 0.530741 0.761512 0.425638 0.262629 0.0978676 0.408404 0.7252 -0.663863 0.465547 -0.803651 0.453646 -0.604653 0.749213 -0.196273 0.804776 -0.112215 0.0905428 -0.607904 -0.37548 0.873186 -0.785358 -0.792964 -0.377151 -0.270668 0.0657954 -0.618135 0.312915 0.131058 0.845836 0.108848 -0.383404 0.388647 -0.122516 -0.949932 -0.340865 -1.01681 0.466409 -0.604784 -0.670056 -0.0573667 -0.397309 0.796004 0.348989 -0.636943 -0.389127 0.164662 0.261695 0.712281 0.567762 0.897048 0.596874 0.793394 -0.884926 -0.760308 -0.457314 0.200563 -0.357035 0.877016 -0.646944 -0.489729 0.00730058 -0.00820567 0.92119 0.907078 0.0641539 -0.397485 0.912505 -0.447133 0.0200067 -0.735263 0.517821 0.645019 -0.916971 -0.110911 -0.969635 -0.283811 -0.92393 0.314348 -0.551144 0.664194 0.231762 -0.930069 0.481793 0.371046 -0.668089 -0.953215 -0.406089 -0.0028482 0.946089 -0.0307603 0.529743 -0.0243205 -1.0166 0.473212 -0.0949516 0.0698119 -0.901966 -0.160153 0.644995 0.140339 0.126874 0.185091 -0.192356 0.232189 -0.903502 -0.139707 0.97111 -0.804722 -0.802625 -0.556255 0.883266 0.452912 -0.46406 0.387331 -0.153741 -0.109864 0.456403 0.462886 0.910032 0.425202 -0.545536 0.462068 -0.571849 -0.534929 -0.0374927 0.355509 0.557174 0.0827949 -0.773376 0.228483 -0.745389 0.37596 -0.550676 0.0931951 -0.360917 -0.431534 0.970953 -0.372819 -0.219233 -0.810093 0.0861209 -0.320548 0.658597 0.644687 -0.910607 -0.472558 -0.442584 0.567647 -0.981532 -0.504104 0.0127457 -0.522458 0.962258 0.449236 -0.0354798 -0.0514182 -0.171908 -0.466681 -0.959109 0.0556635 0.774424 -0.696695 -0.560571 -0.776791 0.39554 0.0775386 -0.209358 0.37049 0.70878 0.575372 0.562787 -0.193969 -0.734357 0.234113 -0.53802 -0.63402 0.772543 0.0299227 0.944611 0.795315 0.529825 -0.0301085 -0.706006 0.513227 -0.559278 0.275075 -0.523494 0.28396 0.830284 -0.460448 -0.638196 0.626874 -0.134981 -0.176615 0.872247 -0.717139 0.923241 -0.314819 0.675648 0.654312 -0.717149 0.262627 -0.517357 -0.429227 -0.480959 -0.0335314 -0.0413846 -0.686545 -0.981713 -0.0749134 -0.869359 0.56999 0.917307 -0.553077 0.105487 -0.619683 0.744297 0.6043 0.686575 0.596869 -0.833849 -0.929333 0.246017 0.0534496 -0.0836659 0.140553 0.35861 -0.138131 0.848045 0.0565353 -0.461528 -0.846818 -0.658521 0.0433907 -0.253334 -0.116779 -0.96739 0.727168 0.223485 -0.922309 -0.320531 0.376402 0.669977 -0.38093 0.845622 -0.201828 0.0220762 0.612632 -0.575224 -0.269034 0.231806 -0.386766 -0.176067 -0.499887 0.684046 0.757638 0.667022 0.0743652 -0.342014 0.551225 -0.833441 0.225225 0.719974 -0.476306 -0.715531 -0.504768 0.435496 -0.654439 -0.754509 -0.323057 -0.563412 -0.0624238 -0.934649 -0.87682 0.573153 0.928324 -0.0616426 -0.389662 0.546883 0.369027 0.349104 -0.204393 -1.00753 -0.816715 0.305747 0.697913 0.962208 -0.0146861 -0.21534 -0.374115 -0.464437 -0.0496697 0.857017 -0.73204 0.486456 -0.852856 -0.239729 -0.087633 -0.516828 -0.00270479 0.58779 -0.07481 0.940129 0.659256 0.0521618 0.517176 0.591418 -1.00565 -0.866782 0.152754 0.377806 0.496773 0.963278 0.391875 0.701637 0.290836 0.111857 0.686003 -0.701675 0.918697 -0.66595 -0.143964 -0.108826 -0.793452 0.139478 -0.606869 -0.630802 0.917193 0.329611 -0.123539 -0.0614062 -0.0585015 0.823458 -0.0994065 -0.37739 -0.102533 -0.560378 -0.766017 -0.0882542 -0.405303 0.410942 -0.686219 -0.886224 0.396507 0.727954 0.837701 -0.290359 -0.137895 0.545993 0.0302423 -0.19691 0.902331 0.908601 0.716583 -0.868834 0.0703639 -0.867996 -0.477357 0.00983607 0.4839 0.421409 0.97076 -0.552284 0.267154 -0.10101 0.0975273 -0.808141 0.360488 0.355707 0.122862 0.972556 -0.21598 0.463869 -0.886037 -0.791815 0.214531 0.97396 -0.0598844 -0.901008 0.542278 -1.00726 -0.0805853 0.461937 0.918904 -0.330737 0.631585 0.0275221 -0.171367 -0.823549 -0.940351 -0.658385 0.626892 -0.940635 -0.188329 -0.0838191 -0.0240794 0.91896 0.124361 -0.651271 0.300243 -0.734124 -0.656835 -0.898904 0.745091 -0.527798 -0.675613 -0.0323741 -0.552702 0.265628 0.0768539 -0.99352 0.27483 -0.980399 0.489781 0.215241 -0.302209 0.126951 -0.74496 0.538848 0.315836 -0.686311 0.872818 -0.064909 -0.623123 -0.311747 0.855486 0.344733 -0.392912 -0.0269561 0.698977 0.908087 0.245184 -0.953952 -0.986896 -0.00383278 -0.476126 -0.656896 -1.02179 -0.00769908 0.629878 0.0765876 0.02035 -0.0733194 0.116297 -0.467784 -0.835964 0.836187 0.681338 -0.565445 0.390502 0.0126291 -0.229609 0.28548 0.969874 0.164623 -1.00885 0.842461 -0.466812 -0.377678 -0.160382 -0.746051 -0.447815 -0.893421 -0.678251 -0.412968 0.124517 -0.132522 -0.0480093 0.124998 0.882102 -0.395832 -0.776095 -0.0752552 0.553166 0.362499 0.479268 0.73949 0.220971 0.182889 -0.803667 -0.366226 -0.782159 -0.0109995 0.94156 -0.789573 -0.824051 0.954975 -0.925243 -0.26857 -0.400408 -0.0584151 0.0125755 0.179413 0.0704388 0.356503 0.788217 -0.782852 -0.758652 -0.242432 0.364444 -0.849333 0.38939 0.61107 0.0981218 -0.0351745 -0.00416815 -0.40029 -0.273352 -0.760586 0.800374 -0.0543689 -0.102522 -0.943704 0.974532 -0.12302 -0.704904 -0.827257 -0.145685 -0.607676 -0.0802011 0.46951 0.344631 0.9496 -0.333488 -0.568432 0.324313 -0.52789 -0.332362 0.587231 0.251488 -0.950178 0.756469 -0.342053 0.677134 -0.138265 0.624104 -0.325733 0.471844 -0.632606 -0.0702367 0.294997 0.329606 0.842072 0.355313 0.303108 -0.281733 0.649655 0.481747 0.576455 -0.954181 -0.594691 0.0450078 0.389641 -0.638777 0.723614 0.843895 0.692731 -0.797082 -0.490373 0.286053 0.46219 -0.442636 0.0404063 -0.883046 -0.759745 0.917002 0.762558 -0.0640174 0.410438 -0.848055 0.888037 -0.273728 0.504068 0.750854 -0.898126 -0.171042 -0.507231 0.775257 -0.673841 -0.91342 0.838576 -0.251076 0.155647 0.252272 0.12724 -0.103643 0.104176 -0.164905 0.114401 0.62704 -0.865645 -0.41022 -0.791508 0.198876 -0.27107 -0.529058 0.138165 -0.486224 0.429221 -0.429094 -0.31199 0.339548 0.319053 -0.786046 0.114172 0.444706 0.0651944 0.629248 0.242246 0.41365 0.738114 0.103527 -0.814695 -0.0839535 -0.622309 0.334411 0.834725 0.504173 -0.803255 -0.023664 0.160748 -0.649626 
0.557387 0.360065 0.545421 -0.691387 0.8533 -0.294111 -0.155317 0.304818 0.299091 0.554995 -0.333339 -0.359558 0.791237 0.803141 -0.892554 -0.121271 0.454676 0.371993 -0.685314 0.215279 -0.502391 -0.477943 -0.846362 -0.102418 0.878769 -0.989345 -0.575945 -0.907123 0.00473125 0.602073 -0.53451 -0.389872 0.0101788 -0.940673 -0.0328518 -0.088105 -0.186378 0.860262 -0.734863 -0.838863 0.463668 -0.0197989 -0.150014 0.303319 -0.167872 0.00620915 -0.769524 -0.665138 -0.573735 -0.406427 0.598359 -0.0279267 0.163839 0.80021 0.91789 0.0908195 0.859077 -0.609842 0.231912 -0.08834 -0.95987 0.74604 0.570432 0.0989427 0.853312 -0.414464 -0.941197 -0.284797 -0.505571 -0.62743 -0.0754036 -0.994004 0.401046 0.823229 0.357947 -0.718921 -0.122662 0.636319 -0.336167 0.351506 -0.721842 -0.689544 -0.62833 0.490268 -0.841071 -0.661999 -0.370639 -0.93374 -0.223585 0.909545 0.0261892 -0.135184 0.70348 -0.355674 -0.988531 0.605004 0.278278 -0.881313 -0.631578 0.820553 -0.460899 0.341238 0.874762 -1.012 0.212106 0.280353 -0.683283 -0.862695 -0.0349205 0.0289556 0.537026 0.291259 0.387434 -1.0429 -0.170264 0.594577 -0.656682 0.507318 0.709059 0.167955 0.465074 -0.216534 -0.919004 0.216763 0.476213 -0.85912 -0.130021 -0.1973 -0.69222 0.286617 -0.328529 -0.10491 -0.323927 -0.405552 -0.0687033 0.936802 0.923217 0.296433 -0.87768 -0.0634891 -0.626386 0.707761 -0.723807 0.809464 0.713271 0.154344 0.452657 -0.894794 -0.289717 0.210125 0.321581 -0.776226 -0.957982 0.450992 0.488955 0.566647 0.640651 -0.59228 -0.582281 -1.00356 0.742342 0.137597 -0.0600693 -0.53317 0.780468 0.91966 -0.548157 0.752099 0.264505 -0.377426 -0.262972 0.686539 -0.620879 0.0619957 0.544418 -0.859561 -0.735595 0.0452758 -0.706142 0.022889 -0.696368 0.663653 0.294885 -0.606137 0.162849 -0.16795 -0.991277 -0.14865 0.287625 -0.524927 -0.103589 0.0785906 0.660622 0.884309 0.593375 0.489351 0.852231 -0.906519 0.289713 0.164996 -0.235685 -0.924991 -0.100206 0.191331 0.184905 -0.507516 0.380037 0.497577 0.586034 0.722159 -0.431257 0.937743 0.433881 0.911889 -0.619954 -0.354814 -0.207796 -0.56296 0.544817 -0.871889 -0.0400033 -0.511069 0.254395 -0.331168 -0.578354 -0.103823 -0.793593 -0.677901 0.0378792 0.544334 0.535315 0.850424 0.667328 -0.516897 0.0897635 -0.0995288 0.0240177 -0.481775 -0.55516 -0.343358 -0.713036 0.0617871 -0.357217 0.770371 0.0208592 0.0717774 -0.5387 0.861302 0.555581 -0.945032 -0.962059 -0.435477 -0.406966 0.342913 0.283013 0.0639735 -0.713003 0.537633 0.43465 0.373429 0.130176 0.0181676 0.272065 -0.153855 0.549725 -0.589748 0.794845 -0.378034 -0.0233199 -0.710468 0.32844 0.313487 0.401148 -0.978914 0.132811 -0.523517 0.145533 0.645314 -0.614678 -0.251658 0.750853 -0.526159 0.362715 -0.60626 0.865166 -0.305908 0.506444 -0.797933 -0.718644 -0.0105028 0.622699 0.458738 -0.943895 -0.0568228 -0.646893 0.654228 0.401842 -0.803633 -0.675373 -0.573049 -0.465322 0.701866 0.788869 -1.01609 0.771019 -0.0301268 -0.49475 -0.0386054 -0.336591 -0.0612228 0.757963 -0.537521 0.460832 0.168885 -0.0955783 0.37421 0.911252 -0.540494 0.623701 -0.759972 0.496958 0.294344 0.746714 0.60133 -0.714214 -0.851916 0.303837 0.735894 -0.607286 0.676727 -0.788892 -0.0161048 0.435103 -0.95177 0.00743718 0.245748 0.066379 0.560975 -0.744578 0.777878 -0.452168 -0.938548 -0.711054 -0.942883 0.279158 0.241858 0.479379 0.246681 0.757638 0.159753 0.53561 0.303631 -0.496654 0.322103 -0.0552206 -0.169699 0.520017 -0.704196 -0.388031 -1.0415 -0.971689 -0.121124 -0.0104155 0.511643 -0.0128319 -0.94076 -0.190692 -0.900129 0.664423 0.109129 0.915912 -0.758138 0.199877 -0.755419 -0.654692 -0.473035 0.532389 0.872726 0.812571 0.346144 0.0873812 0.406804 -0.308996 0.63356 -0.223942 0.673773 -0.506832 -0.674682 -0.990288 0.152907 -0.66756 -0.921136 -0.927378 0.362321 0.622488 0.0885814 0.448101 -0.540002 0.219023 0.143051 0.61272 0.18762 0.446159 -0.136077 0.469713 0.831034 0.430296 0.0532131 0.755417 0.294864 -0.566225 -0.120814 -0.26616 0.156582 -0.45391 0.543371 -0.127509 0.0999975 0.929619 -0.0567277 -0.711615 -0.70314 0.0572693 -0.590451 0.721013 -0.258416 0.559986 0.204126 0.236936 -0.185585 -0.604341 -0.11388 -0.961722 0.878375 0.786653 0.556211 0.757637 0.265173 -0.342384 0.561261 -0.39177 0.139592 -0.511343 0.390276 -0.655555 0.0851313 -0.0193179 0.26398 -0.783313 -0.0548022 -0.757849 -0.446681 0.290321 0.347668 0.0111183 0.0461859 -0.875889 -0.39403 -0.701389 0.417582 0.476905 -0.257479 -0.656652 0.554812 -0.330833 -0.82158 0.159427 -0.524783 0.491664 0.864974 -0.915414 -0.852382 0.0527927 -0.378562 0.586652 0.454108 0.759938 -0.376098 -0.23264 -0.974166 0.618709 0.0492761 -0.381052 -0.0495347 -0.552864 0.677443 -0.953833 -0.37925 -0.65653 -0.599013 -0.913333 0.868974 0.200908 -0.51481 0.472566 0.918659 -0.285684 -0.317482 -0.566124 -0.756906 -0.41766 -0.436955 -0.570519 0.67442 0.224123 -0.940197 0.161903 0.0357198 -0.261298 -1.01275 0.104038 -0.599709 0.084282 0.76934 0.396457 0.578053 0.486279 0.469789 -0.773099 0.858489 0.907311 -0.651149 0.754859 0.135282 -0.137638 0.254129 0.0805224 0.614213 -1.02725 0.560685 0.893938 -0.407302 -0.837978 -0.629479 -0.697316 0.421668 -0.529767 0.518064 -0.495848 0.257115 0.551245 0.639675 0.679278 -0.341031 0.444407 0.119681 -0.706905 -0.0297541 -0.374959 -0.456609 -0.13612 -0.419099 -0.0457378 -0.319231 0.778223 0.865063 -1.03008 -0.10621 0.502525 -1.0207 -0.508678 0.43324 -0.391222 -0.309895 0.84036 -0.0403299 -0.840009 -0.641224 -0.474062 -0.299288 0.652452 -0.886238 -0.623036 0.378733 -0.179919 0.855341 -0.466506 0.136254 -0.139712 0.20698 0.728107 0.772634 0.836344 -0.282761 -0.511739 0.649422 -0.382825 -0.493533 -0.408519 -0.832064 -0.465992 0.13102 0.649441 0.191194 0.869545 0.538203 -0.800637 -0.921983 0.945095 -0.227384 -0.173561 0.645596 -0.0650272 0.25305 0.0752171 0.805465 0.157312 0.656709 -0.00993188 -0.934068 -0.0894963 -0.234995 0.885447 -0.205209 0.533998 -0.574813 -0.496082 -0.793739 -0.0134924 0.15238 -0.565975 0.578302 -0.669262 -0.869135 -0.178407 -0.74705 0.715738 0.0671186 -0.626276 0.699174 0.874896 0.229861 0.38282 -0.154327 -0.466746 -0.483713 -0.287484 0.745285 -0.78101 0.752989 0.860383 0.177839 -0.435448 0.793087 -0.977527 -0.857888 -0.75466 -0.454285 -0.631384 0.269208 0.725589 -0.171999 -0.12431 -0.914908 -0.0148069 0.732811 -0.62663 -0.260055 -0.174883 -0.224098 -0.523612 -0.260736 -0.946505 0.908833 0.638396 -0.380678 -0.541462 -0.614575 -0.588325 -0.287297 -0.815294 -0.681158 0.926381 -0.219887 -0.857452 -1.03252 -0.0704389 -0.588228 -0.437876 0.347136 0.743476 -0.649797 -0.762479 -0.332399 -0.529657 0.257769 -0.576341 -0.119476 -0.965474 0.28554 0.693199 -0.452316 -0.938617 0.783276 -0.508665 0.734599 -0.549158 -0.0135343 -0.843348 -0.0975759 0.735749 -0.636357 0.24023 0.697486 0.166816 0.405851 0.713073 -0.855141 0.866094 -0.676344 0.540462 0.644427 -0.291279 0.81298 -0.652968 0.227307 0.118831 -0.181246 -0.843927 0.201592 -0.847446 0.899265 0.799272 -0.736225 0.731029 -0.660915 -0.953 -0.770795 0.373232 -0.748717 0.176835 0.158632 -0.336135 -0.533998 -0.0964316 0.878583 0.920346 -0.334824 -0.929308 0.833306 0.0354609 0.660757 0.531675 0.795473 0.531851 0.940594 0.0863291 -0.292284 -0.191603 0.292906 0.959622 0.0111977 0.241137 0.80641 0.32107 0.0137351 -0.812464 0.404322 0.281454 0.59678 0.70014 -0.486544 -0.191907 -0.587927 0.0200256 0.753403 -0.663836 -0.0152872 -0.535995 -0.533066 -0.121696 0.561118 -0.8254 -0.548208 0.400348 0.733424 -0.607796 -0.51205 -0.550802 0.227305 0.806743 -0.55542 -0.72558 0.0839778 -0.724244 0.621055 -0.873062 -0.508742 0.0604418 0.445946 -0.872981 -0.200081 -1.00982 -0.018426 0.246897 0.0442915 -0.244514 0.61702 -0.923849 0.268644 -0.879981 -0.0351644 -0.160725 -0.695618 0.424629 -0.752293 -0.945482 0.879243 -0.201744 -0.43373 0.15545 -0.34556 0.0352671 0.453856 0.762409 0.347842 0.111693 0.926129 0.875862 -0.791093 0.408632 -0.960537 0.0436388 0.433634 0.042707 -0.674404 -0.487001 0.834955 -1.02065 -0.38754 0.126934 -0.876901 0.612367 -0.998715 -0.537801 0.085446 -0.702554 -0.434821 -0.000311992 0.130498 0.166389 -0.809836 0.819955 -0.750231 0.692097 0.630454 0.645856 -0.147972 0.604836 0.571565 0.110769 0.0632996 0.659684 -0.796894 -0.454357 -0.250106 -0.423684 0.106362 -0.365172 -0.394486 0.769656 0.811009 -0.224151 0.428402 0.859422 0.286996 -0.437187 -0.796245 0.898965 0.610456 0.387025 0.125858 0.866997 0.270223 0.431043 0.609148 -0.050577 0.127298 -0.491559 -0.395281 -0.253769 0.668083 0.713684 -0.552554 0.914963 -0.695001 0.238406 -0.470986 0.445837 0.921943 0.18433 0.267085 0.774116 -0.998667 -0.260923 0.677404 0.333429 0.35707 0.940462 0.292353 0.0151037 0.371926 -0.546428 -0.0998433 -0.347076 0.884038 -0.484297 0.616266 0.0468119 0.061492 -0.743031 0.817582 -0.24549 -1.00324 -0.705609 -0.304002 -0.672557 0.567458 0.260597 0.813162 0.524168 -0.508829 0.122149 0.330837 -0.486896 0.894021 0.0554737 0.89573 0.274074 0.00780183 0.198964 -0.701802 -0.599434 0.660298 0.214766 0.0905747 0.606449 0.792704 -0.243662 -0.308845 -0.121586 0.0376452 -0.46745 0.669543 0.0709759 -0.136284 -0.597478 0.435398 -0.53186 0.699893 0.283385 -0.974456 -0.787321 -0.571087 0.394744 -0.234099 -0.65372 -0.5292 -0.317997 0.643894 0.513116 0.915484 -1.02339 0.948544 0.624025 0.239624 0.0739205 0.265264 0.0672496 0.865258 -1.0086 -1.00623 -0.0490048 -0.427766 0.711739 -0.929566 0.485961 -0.83449 0.557114 -0.996197 0.913464 -0.111428 -0.922745 -0.825549 0.366073 0.517574 -0.0065026 0.777137 -0.94753 0.732796 0.469703 0.605522 0.687704 0.477119 0.594075 0.350253 -0.236037 -0.284999 -0.33234 0.890947 -0.352146 -0.276629 0.943416 0.64883 0.344751 0.70238 0.767728 -0.122601 0.913631 0.370412 -0.0738579 0.87182 -0.699763 0.04683 -0.918212 0.703866 -0.403167 0.116692 0.514575 -0.312931 -0.12677 0.0099147 -0.673891 -0.400673 -0.482996 
0.974985 -1.00728 0.34405 -0.264319 -0.292085 0.268764 0.400892 0.450125 0.24306 0.0778821 -0.173376 -0.0615612 -0.149843 0.740885 -0.0969691 -0.734476 -0.316163 -0.188206 -0.392168 0.758917 -0.120773 -0.701658 -0.603614 -0.931821 0.878242 0.110316 0.0347361 -0.0138527 0.537914 0.59027 0.475702 0.467356 0.713126 -0.0543618 -0.793367 -0.659938 -0.839124 0.655752 0.847053 0.40287 -0.239799 -0.284166 -0.603759 0.666261 -0.580484 0.261473 -1.10917 0.114492 -0.898039 -0.481453 -0.0418865 0.147104 -0.0200105 0.371687 0.212901 -0.14827 -0.510339 -0.799906 0.780826 -1.00156 0.826969 0.274835 0.482795 0.531823 -0.779663 0.790785 0.938565 -0.544222 0.514689 0.844736 0.915669 -0.684444 -0.467128 -0.681926 -1.03987 0.0284836 0.747062 -1.00415 -0.752138 -1.07172 -0.393503 0.268742 0.0994151 0.630341 -0.405349 -0.665678 -0.538137 0.220898 -0.437321 -0.712588 0.256602 -0.52387 0.671994 -0.171194 -0.953646 -0.949604 -0.258371 -0.90344 -0.45802 -0.782633 0.904094 -0.593187 -0.355533 -0.379989 -0.128953 -0.351371 0.68486 -0.338753 -0.313376 -1.03625 -0.383382 0.34305 0.318238 0.820537 0.0578431 -0.889485 -0.698395 0.633583 0.435247 0.0132168 -0.889567 -0.130776 0.651614 0.872206 0.857422 0.869483 0.967446 -0.433015 0.930083 -0.471843 -0.137156 0.913181 0.0134042 0.493129 -0.499541 0.913125 -0.815557 -0.779668 -0.416344 -0.120711 -0.767203 0.280972 -0.712365 0.590032 0.144767 0.355201 0.729392 0.443007 -0.0442923 0.133654 -0.546909 0.0615523 -1.01204 -0.914176 0.0264266 0.851879 0.959818 -0.0481321 -0.638567 0.843835 0.568649 0.30205 0.734267 -0.489921 -0.264052 -0.710833 -0.542375 -0.0586506 -0.473873 0.124589 0.879365 -0.222111 -0.683217 -0.881252 -0.631714 0.486732 0.51431 -0.8696 0.0229608 -0.407187 0.387076 0.489967 0.664945 0.34678 0.600209 -0.345543 0.14836 0.507833 0.620063 0.506968 0.325289 0.191162 -0.201234 0.153008 0.711194 0.650082 0.549667 -0.713437 -0.31621 -0.845565 0.369936 -0.525912 -0.0650905 0.811049 -0.184617 0.373536 0.373215 -0.622796 0.602138 -0.605356 -0.0306455 -0.270268 -1.30935 -0.654307 -0.951648 0.261043 0.130787 0.260658 -0.221987 -0.257757 -0.310761 -0.690671 -1.35322 -1.47231 0.301594 -1.26763 0.412825 -0.0154645 -0.948673 -1.26937 0.172547 0.29839 -0.228364 -0.574438 0.671813 0.80147 -1.12131 0.0492071 -0.818683 0.581271 0.461768 0.240237 -0.347642 0.63574 -0.754992 0.293756 0.455254 0.79699 0.0341602 -0.253911 -0.0176361 -0.572092 0.506333 0.396499 -0.463629 0.335833 0.625223 -0.55296 -0.178808 -0.877473 -0.00769815 -0.547806 -0.948116 -0.902869 0.0544181 0.790663 -0.986974 0.123034 0.0305857 -0.579794 -0.193154 -0.295322 0.967491 0.674154 -0.527397 -0.93629 -0.151125 0.927688 0.869746 0.90397 -0.372611 -0.177986 -0.704382 -0.888957 -0.712083 -0.198644 0.418179 0.850047 0.322469 -0.697264 0.960062 -0.693209 -0.218907 -0.915465 -0.627819 0.792541 0.78737 -0.576525 -0.106764 -0.148207 -0.171454 0.715024 0.544705 -0.276758 0.353036 -0.869762 -0.125095 -0.751513 -0.971105 -0.0251042 -0.648354 -0.219629 0.832587 -0.455281 -0.205461 0.919884 0.359733 -0.756094 0.759099 -0.336685 -0.434671 0.732437 -0.0242247 0.384153 0.967071 0.574917 0.190113 0.747286 0.738059 1.01568 -0.530484 -0.281349 0.904833 -0.691435 0.734217 0.731667 -0.306882 -0.298828 0.749584 -0.717315 -0.136512 0.727809 -0.197166 -0.474146 -1.02723 0.345021 -1.18905 -0.365257 -1.77418 -1.39469 -1.88104 -1.48151 -1.85835 -0.555044 0.0770212 0.45412 -1.09533 -1.10694 -0.298672 -1.2777 -0.867684 0.049231 -0.852098 -0.663855 -1.46097 -1.38455 0.436231 -0.804281 -0.845285 0.065324 -0.407024 0.763682 0.172356 0.72622 -0.634503 0.438002 0.596038 0.199617 0.0417936 0.747135 0.639987 0.29981 -0.686871 0.755537 -0.620328 -0.93817 0.625689 -0.161137 0.00703189 0.110975 -0.00471636 0.824296 0.0430185 0.833959 -0.557118 0.116557 -0.959437 -0.826194 0.302871 -0.401287 0.534409 0.895067 -0.739462 -0.449786 0.555168 -0.220508 -0.941536 0.201298 0.903264 -0.0129526 -0.229526 0.491021 -0.750207 0.0836621 0.275518 -0.342711 0.10268 -0.159983 0.586855 -0.908058 0.866979 -0.586403 0.753074 -0.135034 -0.81572 -0.889082 0.877498 -0.756427 -0.670898 0.193014 -0.187555 0.873801 0.157469 0.157613 -0.405393 -0.0503176 1.06939 -0.231422 1.08736 1.14354 0.811114 -0.0293976 0.538747 0.866122 0.93127 -0.259752 -0.402749 0.127843 0.812196 -0.72849 0.34029 0.711697 -0.316148 0.169596 -0.282164 0.00972513 0.239092 -0.43717 0.245679 0.644408 0.785361 1.01732 0.797595 0.450487 0.38838 1.39197 1.1971 0.186887 -0.388661 0.701303 0.0464104 -1.24549 -0.944064 -0.731082 0.752381 -1.23393 -0.783573 -1.22538 -0.118094 -0.978902 -1.07665 -1.07587 -1.27037 -0.303086 -0.133797 -1.01213 0.0216029 -1.17558 -0.694743 -0.637726 0.270769 -0.744892 -1.16716 -0.22987 -0.0194419 0.420326 0.286478 0.327016 -0.328827 0.638085 -0.0184549 0.780899 0.870979 0.830274 1.19021 0.979423 0.892833 0.187082 -0.82485 0.315129 0.880532 -0.392945 0.60852 0.85881 0.53789 -0.0628617 -0.421089 0.168808 0.317007 0.588499 0.90273 0.311591 -0.683867 -0.594759 -0.451766 0.792888 0.891357 0.770494 0.0672142 -0.577629 0.43353 0.838044 0.943424 0.243521 0.29018 0.883301 -0.081542 0.0635422 -0.136665 0.0402918 -0.76464 -0.346375 0.708837 0.881101 -0.39892 0.244164 -0.0887168 0.252097 -0.608927 -0.797602 -0.266437 -0.822988 0.424722 -0.0319856 -0.459355 -0.973716 -0.207517 -0.556902 0.805331 0.836863 -0.0819997 0.372414 0.85565 0.180952 -0.142206 0.404359 0.120241 0.874045 -0.455435 0.983084 -0.103497 -0.24381 -0.270733 -0.223765 -0.443091 0.174639 0.935236 0.534766 -0.322323 -0.497699 0.829298 0.439289 -0.31194 0.26218 -0.565693 0.305124 0.257437 0.2629 0.819358 0.147992 0.429514 -0.111928 -0.209617 0.178944 0.833028 -0.0439237 0.616804 -1.12882 -1.00578 -1.62493 -1.40035 0.252368 -0.483095 -0.887094 -0.156643 -1.17146 -0.129434 -0.725677 -1.58687 -1.83686 -0.52322 -0.439803 -1.03352 0.145591 -1.22621 -0.249528 -1.38974 -0.357596 -1.32261 -1.74482 -1.48145 0.0214828 -0.543252 -0.519679 -1.42732 -1.06797 0.448674 1.05782 -0.625751 -0.688705 1.04439 -0.25927 0.530185 -0.488637 0.636379 0.0667625 0.404845 0.281175 -0.628376 0.383454 0.0935612 0.773951 -0.0980949 -0.697606 0.686827 0.441756 0.674778 -0.416851 0.0467905 -0.870257 0.0657575 0.639513 0.485414 0.916045 -0.632531 0.610869 -0.675047 -0.946332 0.500592 -0.103762 -0.755399 0.500827 0.743561 0.653334 1.00122 0.169712 -0.372604 0.212497 -0.741519 -0.0224852 -0.396392 0.440715 -0.24394 0.463834 0.772301 -0.558887 -0.184944 0.422532 -0.0162216 0.757582 0.434322 -0.975133 0.419211 0.0159479 0.941393 0.737891 -0.427161 -0.782593 0.906985 -0.621161 0.401274 -0.420138 1.07549 0.37383 1.17735 1.15894 -0.377918 -0.0876809 0.394377 -0.0927393 1.04851 1.08462 1.26007 -0.382825 0.338442 1.04379 0.0971472 1.44279 0.503151 1.13388 1.2647 0.0671846 1.29824 0.611312 0.993281 1.12472 0.469924 -0.283621 -0.437764 0.353013 -0.0883348 0.476554 0.0202891 -0.885235 -1.29549 -0.409729 -1.0765 -0.887243 0.0142865 0.0350988 -0.266913 -0.516405 -0.927109 -0.804808 -0.526361 -0.0108194 -0.87477 -1.60308 -0.266519 -0.0150916 0.449063 -0.0632044 -0.800961 0.476945 -1.33318 -1.02777 0.502951 0.0452196 -1.26185 -1.71472 -0.783334 -0.472594 -0.584683 0.193277 0.399476 0.816967 -0.399539 0.429792 -1.02091 -0.784659 -0.615934 0.465473 0.572355 0.428969 -0.626145 0.06665 0.160165 -0.102554 0.167976 -0.312894 -0.369912 -0.0984943 0.969878 -0.0202421 -0.31455 -0.353677 0.160743 -0.531509 -0.528256 0.937815 -0.488365 0.402846 0.258321 0.887435 0.329144 -0.107679 0.705043 -0.727708 -0.42877 -0.926985 -0.172815 0.241681 0.396705 -0.660177 -0.620673 0.433774 0.129455 0.234693 -0.834365 -0.949875 0.682816 -0.410888 -0.0896429 0.58914 0.451062 0.551882 -0.826764 -0.403362 -0.968835 -0.329168 -0.412246 -0.429778 -0.977964 0.794631 -0.508756 0.396177 -0.0821368 -0.578616 0.902986 0.642523 -0.288013 -0.0459507 0.184426 1.22176 0.360589 0.670129 0.775936 -0.480058 -0.0733408 1.00426 -0.544134 -0.523392 -0.469609 0.498071 1.15125 1.15242 0.247218 1.45398 -0.304001 0.222425 0.170859 0.383325 0.915813 0.465526 0.307159 1.50648 -0.415791 1.10651 -0.550239 0.524418 -0.622433 -0.967604 -1.28102 0.114769 -1.08298 -0.31449 -0.588863 0.691174 0.682639 0.149074 0.15526 0.0197957 -0.244992 -0.328917 -0.888696 -0.326324 -0.438738 -0.175396 -0.348045 -0.590058 0.8974 0.394254 0.125627 -0.0363092 -0.780822 -0.606886 -0.812441 -1.29202 -1.21571 -0.215511 -1.26145 -0.348647 0.261321 -0.61659 -0.748593 -1.70161 0.378093 0.238615 0.267824 -0.186556 -0.0822126 -0.18821 -0.173267 -0.773247 1.41974 0.425815 0.402074 -0.147755 1.13801 1.09571 0.959524 0.692866 0.581333 0.584426 -0.248121 0.964355 -0.713706 0.75604 -0.44675 -0.323993 -0.133058 -0.144662 0.842622 -0.385618 0.640677 -0.238139 -0.352331 0.536937 -0.519455 -0.713839 -0.329662 0.247713 -0.157582 0.0945897 0.332853 -0.226044 -0.939023 -0.647046 0.342332 0.919132 -0.739382 -0.0148033 0.540609 0.771487 -0.442895 -0.685866 0.824839 -0.0990037 -0.905996 -0.620027 0.527737 0.0576931 0.301322 0.454676 0.956005 0.0517123 -0.598461 -0.307658 -0.0448356 0.268972 0.25734 0.795664 -0.336685 1.29872 0.0724858 1.04419 -0.0673843 0.192481 1.46744 1.41549 0.30275 1.84253 0.579463 1.5871 1.36588 0.766414 -0.265411 1.12486 0.0923389 0.0616934 -0.321814 1.35999 1.00422 0.960981 1.1963 0.646664 -0.450885 0.50164 0.309068 -0.708587 -1.12405 -1.48042 0.868116 -0.800057 0.816767 -0.0786106 1.43178 -0.245843 -0.0184158 0.552305 -0.75416 0.745827 0.387154 -0.308501 0.224445 0.498101 -0.755937 0.695734 0.129253 -0.701047 0.726516 -0.18903 -0.687976 0.391271 -0.75653 0.44878 -0.78247 -0.727142 -0.263127 0.472126 -0.153021 0.311511 -1.62519 -0.739506 0.217378 -1.48813 0.0706957 0.437979 -0.917923 -0.691846 0.217229 -0.30491 1.05752 0.301152 0.114957 
-0.376192 0.793138 0.214269 -0.930062 -0.26511 0.71152 0.802908 0.484161 -0.979477 0.0720799 0.692153 0.58958 0.392415 -0.951806 -0.368912 0.254577 0.2229 -0.48928 0.656366 -0.353577 -0.422451 0.836751 -0.667972 -0.51701 -0.745272 -0.295077 0.553943 -0.384129 -0.743459 -0.569363 0.885379 0.0709461 1.06164 0.0187991 0.0906159 -0.213378 -0.253462 0.00381102 -0.635982 -0.142372 -0.685856 -0.666407 -0.167542 -0.93985 -0.295838 0.986259 0.838642 -0.638925 -0.238808 0.615941 -0.0116555 0.344824 0.553041 0.401543 0.816962 0.836095 -0.887271 0.440452 -0.570087 -0.65583 0.424759 -1.00279 0.151422 0.405807 -0.0515111 -0.800239 -0.899134 0.676114 0.19965 -0.464722 -0.349455 0.521581 -0.147518 0.400142 0.534141 0.552674 0.357965 0.228144 0.806601 -0.923787 -0.105706 -0.117297 0.494776 -0.617703 -0.765719 0.265488 -0.845711 -0.677712 -0.373845 -0.441743 -0.306766 -0.876487 -0.328104 -1.06454 0.600423 0.697382 -0.740412 0.882094 0.538278 0.596015 -0.500093 -0.796658 0.174095 0.453069 0.872269 -0.0227902 0.127556 0.282896 -0.696714 0.0643823 0.502679 0.333166 -0.902294 0.145465 0.947431 -0.503176 -0.37617 -0.754691 0.0652356 0.3486 -0.136359 0.804676 0.59227 0.658392 0.886985 0.337972 0.49819 -0.741217 0.289291 0.129242 -1.05272 0.932033 0.53818 0.252745 0.377848 0.406472 -0.660563 -0.265573 -0.245612 -0.31548 -1.38691 -0.78952 -1.06151 -1.2463 0.381631 -1.0896 -0.49754 -0.734617 -0.667797 -1.15211 0.925827 0.69417 1.05948 0.786915 0.492684 1.04415 0.249757 0.0776206 -0.56724 -0.4233 -0.913754 -0.722966 -0.604516 0.831898 0.722103 0.947732 0.199259 -0.923652 -0.201136 -0.774358 0.0188729 -0.138891 -0.286193 0.27451 0.149767 -0.440625 0.562935 0.96439 0.0291302 -0.956917 0.965858 0.0122281 0.811166 1.02203 -0.255223 0.256879 1.0183 0.817129 -0.897334 -0.735086 -0.737991 -0.706911 -0.422386 -0.37199 -1.01566 -0.785243 -0.437868 0.142531 -0.756089 0.34686 0.278949 0.170908 -0.819024 -1.06256 -0.546223 0.259582 -0.488831 -0.999162 0.245465 0.471049 -0.923758 0.256732 -0.548856 0.853388 0.162873 0.186829 0.0629343 0.232885 0.0544345 0.206562 0.477919 0.25453 0.434428 -0.940769 -0.907669 0.518696 -0.683357 -0.313404 -0.223208 -0.412305 -0.976063 -0.934554 -1.04536 -0.571931 -0.829552 -0.496587 0.730341 -0.30794 -0.46527 0.12037 -0.70534 -0.239492 -0.561723 -0.167714 -0.193963 0.776457 -0.695865 -1.09206 0.0271863 0.347628 0.142786 -0.417455 -0.229942 -0.232593 -0.247507 -0.090331 -0.648624 0.103394 0.625847 0.182026 0.780569 0.721623 0.310046 0.933575 -0.615319 0.609195 -0.632016 -0.990731 -0.937749 -0.0220667 0.329442 -0.413526 -1.20351 -1.1233 0.58387 -0.277372 -1.07621 -0.838326 -0.147026 0.247006 0.875265 -0.714843 0.980477 -0.303873 0.148744 -0.212293 0.753922 0.638972 0.835525 0.295813 -0.263456 0.837629 0.273091 -0.816224 0.777872 0.589736 0.785805 -0.697382 1.01026 -0.670487 0.449683 0.48471 0.217536 0.594962 0.710462 0.0981114 -0.497075 0.68909 0.383414 0.483988 0.103375 0.280872 0.799022 0.0636681 0.944397 -0.169885 0.683776 0.483533 -0.622181 0.589924 -0.215276 0.0417016 0.375116 -1.01202 0.224004 0.107219 0.577176 -0.0729425 0.341827 0.552533 0.231648 -0.151464 0.129106 -0.611684 -0.602535 -0.231083 0.445066 -0.139461 -0.489241 -0.123896 -0.673456 0.542304 -0.992285 -0.982947 -0.479098 0.907282 -0.16388 -0.852235 0.327953 0.10547 0.693086 -0.9095 -0.749733 0.115729 -0.852981 0.469379 -0.667032 0.867548 -0.567732 0.687965 0.440146 0.78126 -0.389987 -0.413549 -0.836043 0.0197098 0.4078 0.713856 -1.07452 -1.04082 -0.410496 -0.73273 0.652742 -0.186528 -0.432425 -0.86521 -0.401633 0.360319 -0.653454 -0.992256 -0.399129 -0.808245 -0.74672 -0.08569 0.342001 -0.5728 -0.600474 0.68427 -0.771628 -0.141861 0.464519 0.843518 -0.181184 -1.05476 -0.853787 -0.206234 -0.0201354 -1.21019 -0.298615 0.177485 -0.97623 0.547357 0.769787 0.76747 -0.599748 -0.727228 -0.942278 0.254842 0.864221 -0.383048 0.533063 -0.294394 -0.114242 0.799534 0.65225 -0.638978 -0.571539 -0.966772 0.94652 -0.455363 -0.0817043 0.35133 -0.608902 0.773876 0.521947 -0.018092 0.103431 -0.0425413 -0.00763579 -0.969957 -0.737564 0.125645 0.801123 -0.813913 -0.00256451 -0.520546 -0.234233 0.143008 0.818387 -0.325477 0.81463 0.276055 0.32378 -0.449694 -0.068774 -0.164617 -0.209689 0.201342 -0.209338 -0.358478 0.742817 0.90642 -0.885256 -0.804112 0.735607 0.672901 0.130974 -0.229577 -0.358912 -0.797776 -0.108573 -0.0856186 0.254877 -0.368162 0.0919723 -0.748387 0.0228271 0.762981 0.404996 -0.188182 -0.603113 0.102017 0.977404 0.599819 0.582568 -0.151711 -0.663653 -0.72628 -0.988731 0.111511 0.0533792 0.852356 0.105123 0.179437 -0.930155 -0.221937 -0.142941 0.183716 0.57981 0.497287 0.358529 -0.513502 -0.451457 -0.411399 0.0832097 0.551445 -0.0930693 -0.774404 0.412601 -0.702292 0.123891 0.961957 0.617768 0.0946667 0.485069 0.183738 -1.01664 0.832339 0.533865 -0.928758 0.0418511 -0.399233 0.852539 -0.916127 0.770674 0.898957 -0.109661 -0.399961 0.104951 -0.463395 -0.846565 -0.707956 -0.294253 -0.532854 -0.126241 -1.01612 -0.678287 -0.784209 -0.263331 -0.914543 -0.198132 0.887383 -0.913165 -0.638553 0.0796992 0.60922 0.692442 0.315929 0.734382 0.425992 0.38041 -0.295256 -0.844394 0.367093 -0.105371 1.05425 0.25769 0.676102 -0.497576 -0.718155 -0.805331 -0.253097 -0.145043 0.484109 0.79274 -0.695385 0.862402 -0.673596 -0.37496 -0.35629 -0.475424 0.580297 -0.314401 -0.20536 -0.775225 0.875187 -0.509942 1.01897 0.221126 -0.873996 0.410488 -0.425255 -0.237669 0.403528 0.790286 0.591498 0.209146 -0.0315844 0.316954 0.821525 0.340034 0.6198 -0.339809 -0.662886 0.143512 -0.598592 -0.351888 0.00758321 -0.32763 0.280049 0.613505 0.115544 -0.221425 -0.751823 0.746216 -0.117106 -0.822123 -0.786992 -0.109095 0.303785 -0.754808 -0.862278 0.719094 -0.0820085 0.49825 0.463734 -0.446252 -0.236061 -0.522157 0.923644 -0.395805 0.90324 0.61282 0.19826 -0.791175 -0.307506 0.514659 -0.158937 0.684565 -0.788471 -0.877544 0.227925 0.331328 -0.106324 0.602907 0.178998 -1.1397 0.810763 0.480323 -0.199832 0.156371 0.722981 -0.0415973 -0.089599 -0.297078 -0.499784 -0.592376 0.252965 0.249679 -0.0991147 0.154245 0.838069 -0.165663 -0.257683 0.0367301 -0.0317817 0.443841 -0.451178 0.733265 0.0667941 -0.554727 -1.31281 -0.719382 -1.00662 -0.0413212 -0.744469 0.56962 0.0114172 -0.697354 0.283111 -1.00405 0.517839 0.083994 0.0705989 -0.562112 0.682262 0.652299 0.123458 0.184565 0.00880586 -0.873171 -0.48375 0.0410377 -0.00935342 0.200928 0.887776 0.905126 -0.396014 -0.573196 0.842999 0.892914 0.42025 -1.03974 -0.54337 0.761974 0.100253 -0.140746 0.637079 -0.571546 0.457067 0.0114778 -0.390229 0.144041 -0.810923 0.70788 0.744926 1.06149 0.391703 -0.213074 0.243276 -0.650906 -0.212601 0.6132 0.201146 0.674587 -0.147631 0.168134 0.62881 0.540398 0.768371 0.619571 0.508235 0.267618 0.673237 -0.824594 0.216245 -0.139175 0.13994 -0.210925 0.229672 -0.498042 0.761845 0.708493 0.576504 0.888219 0.389411 0.173666 0.853276 -0.318819 0.910301 0.0425058 -0.0462167 -0.41272 -0.358642 -0.71151 -0.658431 0.467478 0.423825 0.950684 0.0308726 0.260591 0.601707 -0.469178 -0.567648 0.136425 -0.355464 0.655154 -0.97401 0.813319 -0.417268 0.342852 -0.650693 -0.685244 0.15708 -0.959659 -0.674672 -0.41233 0.151551 -0.866102 0.22371 0.059721 0.147382 -0.762854 0.681043 0.745445 -0.558577 -1.03467 0.185071 0.801436 0.962497 -0.745593 0.0524305 0.490726 -0.237843 0.423326 -0.356525 0.301494 -0.0180507 -0.403216 0.0359144 0.519523 -0.939045 0.604473 -0.903807 0.467379 0.939052 -0.16937 -0.675133 0.409785 0.0623144 0.398346 -0.666859 -0.917563 0.692441 -0.821497 -0.978383 -0.63203 -0.686674 0.349612 -0.715711 -0.734661 0.581274 0.369184 0.771229 -0.659273 -0.188197 -0.498877 0.868283 -0.893751 0.348865 0.198586 -1.06508 0.632055 0.0482819 -0.766559 0.300119 0.245833 0.241526 0.57593 -0.383714 -0.700777 0.260161 0.0568663 -0.518822 0.0875045 0.210694 -0.495972 0.39099 0.441418 0.720098 0.620596 0.6263 0.279479 -0.0477143 0.364693 0.628167 0.868785 0.881919 0.487231 0.989092 0.275985 -0.212094 -0.911259 0.0492759 0.975866 -0.566997 -0.752436 0.0756724 0.54786 0.807189 0.570486 0.761375 -0.0894849 -0.459181 -0.861206 0.926458 0.697717 -0.412242 0.229408 0.0398848 -0.726136 -0.155352 -0.293308 0.542417 0.79149 1.0576 0.175369 0.578869 0.936875 -0.380345 0.497992 0.0814899 0.222618 0.461692 -0.942643 0.245269 -1.02181 -0.526195 -0.518294 0.679926 -0.696503 -0.957295 0.396921 0.239903 -0.429532 0.511935 0.105196 -0.787156 -0.895163 -0.65321 0.327685 -0.676465 0.115964 -1.05447 0.785577 -0.178513 0.911664 -0.130983 -0.604629 0.858076 0.427454 0.868962 -0.101144 -0.279106 0.398084 0.0476154 -1.07602 0.347344 0.511669 -0.523649 -0.0919114 -1.12178 -0.448377 -0.493725 0.473026 0.517301 -0.610201 -0.310409 0.759181 -0.524855 0.0017508 0.110758 -0.270171 -0.925153 0.202143 -0.21926 0.181438 0.271188 0.796218 0.702857 0.218096 0.261904 0.458785 -1.02179 0.893464 -0.143722 0.0797089 -1.04393 -0.67956 -0.252879 -0.470087 0.423855 -0.297293 0.228007 -0.896229 -0.878125 -0.200502 -0.44767 -0.0990068 -0.288424 0.202406 0.986641 0.853905 0.957655 -0.797193 0.0135078 -0.357256 0.274013 -0.833309 -0.724896 -0.153415 0.230341 0.474067 -0.714017 0.271549 0.393184 0.229626 -0.67628 0.359405 0.613213 0.172567 -0.954501 0.166895 0.926413 0.305992 0.304484 -0.938515 -0.997062 0.753411 -0.1048 -0.454735 -0.207578 -0.163726 -0.59889 -0.33306 -0.0522214 0.288845 0.25742 -0.806125 0.369467 0.477604 -0.0220323 -0.358017 -0.0497338 0.293192 0.865076 -0.75623 -0.61625 -0.903933 0.577181 0.964672 0.214256 0.572744 0.161613 0.262705 0.0584875 -0.44536 0.408393 0.122305 -0.699015 -0.776686 0.651701 0.0673088 0.0862079 -1.02614 0.703993 -0.985028 0.320205 -0.033273 -0.792517 -0.31993 -0.565535 0.143783 0.250331 0.218755 
-0.489209 0.105087 0.544032 -0.207693 0.230552 0.245518 -0.0646709 -0.442684 0.0072284 1.15277 0.890861 1.06267 -0.30418 0.17875 0.178548 -0.0453887 0.516842 -0.192556 -0.869812 -0.302231 -0.036181 0.875123 -0.324692 -0.916695 -0.0931022 -0.0441633 -0.188816 0.19323 -1.00022 -0.934191 -0.400192 -0.483057 0.213091 -0.861401 0.289632 -0.607291 0.387569 -0.852323 -0.0591629 -0.723327 -0.980864 -0.487574 -0.889659 -0.555952 0.654586 0.240197 0.676114 0.282742 -1.0144 0.512849 -1.17399 -0.24686 0.383345 -0.399214 0.00707119 -0.610336 -1.31911 -1.01896 -1.08357 -0.903307 -0.650523 -0.242173 -0.0262721 -1.1955 0.309949 -0.614015 -0.640944 -0.123188 -0.137666 0.516324 0.471604 0.176745 -0.687042 -1.04332 -0.935877 -0.729843 0.425031 -1.09371 0.777832 0.614978 -1.23474 -1.16459 -0.266594 0.5193 -0.178276 -1.00258 -0.742884 -0.211153 -0.729234 -0.574206 0.134198 -0.0809329 0.46397 -0.61694 0.0358907 0.120283 0.0936234 -1.28528 -0.697527 -0.74801 0.551457 -0.975951 -1.28593 -0.725183 -0.600264 -0.782008 -0.150954 -0.967253 -0.673398 -0.239025 -1.14536 -0.599355 0.000789775 -0.0812394 -0.819928 -0.937744 0.233612 -0.199709 0.313686 1.10361 0.753255 -0.176747 0.327087 0.589736 0.460549 -0.384849 0.0261125 -0.0843528 -0.326647 0.679026 0.569204 -0.540486 1.05125 0.558835 0.160373 -0.269371 1.14869 -0.737093 0.0419661 -0.2199 0.246046 0.0955515 0.293477 -0.673779 -0.956811 0.619084 -0.493056 0.388274 -0.477308 0.837428 0.297592 -0.861733 -0.461341 -0.597178 0.459096 0.725037 -0.175335 -0.52424 -0.378194 0.453795 -1.04657 -0.957046 -1.02109 -0.942934 0.643264 0.0138936 -0.567182 0.584566 -0.0579596 0.218816 -0.912644 -0.900935 -0.748243 0.356883 -0.428969 -0.638173 -0.0362786 -0.138141 0.501524 0.204079 -0.510581 -0.185792 0.47889 0.166627 0.534479 0.23794 0.00674186 -0.543775 0.797706 -1.23908 -0.897355 -1.25278 -0.862664 -0.837726 -1.18355 -1.155 0.311543 -0.491827 0.610392 -0.54582 -1.04024 -1.04072 -0.283477 -0.647063 0.439961 0.362654 -0.213157 -0.402198 -0.449567 -0.375961 -0.889746 0.364182 0.770819 0.722232 -0.337885 0.314626 -0.0437443 -1.16763 -1.04535 -0.149146 -1.08555 -0.71969 -0.0663491 -0.682644 -0.227934 0.0623137 -0.551726 -0.676433 -1.18874 -0.711071 0.0128676 -0.872603 -0.294507 -0.793014 -0.192707 -0.539188 -1.17246 -1.17098 0.269792 -0.324798 -0.0842434 0.751469 -0.621667 -0.116637 0.779982 0.48412 -0.35619 0.308399 0.645549 -0.0841131 -0.568523 0.955863 0.662673 0.736281 -0.354817 -0.321065 0.0628122 0.404103 0.375252 0.238589 0.934591 -0.394729 0.659671 0.0109344 0.251737 -0.227486 0.761352 0.321327 -0.13566 0.275591 -0.866093 0.66315 -0.214798 -0.501734 -0.260044 -0.320165 0.898079 0.312056 0.863225 0.471722 -0.893716 -0.86478 0.222965 0.36903 0.681781 0.667215 -0.957909 -0.278087 0.0450438 0.289763 0.833203 -0.0524564 0.987611 0.428154 0.768992 -0.232223 0.751819 0.198626 -1.1348 -0.482183 -0.813733 -1.01408 -0.721551 0.0910209 -0.516214 -0.241398 0.677383 -0.759129 -1.10969 0.460874 -1.1171 -0.861919 0.81536 0.28231 0.571594 0.498191 0.0648427 0.621932 -0.889506 -1.07085 0.0217312 -0.904833 -0.141124 -0.122834 0.380884 -0.272627 -1.17762 0.357378 -0.816905 -0.892926 -0.93909 -0.646666 -0.965117 -0.666971 0.438851 -0.307722 0.324133 0.34097 0.193799 0.552347 0.0079959 0.212324 -1.20698 -0.164926 -0.498432 0.565808 -0.556225 -1.36297 0.451547 -0.141628 -1.0615 -0.274453 0.169995 0.160875 -1.11042 -0.130852 -0.855292 -1.00688 -0.461518 -0.495906 -0.633848 -0.0591642 0.095736 -0.31524 0.546779 -0.154396 0.732795 0.475211 -0.321503 0.340645 0.245226 0.835708 -0.199918 0.450468 0.165658 0.63628 0.225013 0.722831 0.547346 0.0512956 0.160346 0.965717 -0.698446 -0.233647 0.614087 -0.537847 0.906869 0.878919 -0.424967 -0.459076 -0.32341 0.310127 0.819268 1.04209 -0.682708 0.618698 0.15668 1.20876 0.154985 0.661794 0.334881 -0.687656 0.638938 -0.838045 0.634884 -0.451203 0.659403 -0.132102 -0.525643 0.298009 0.872003 0.406985 0.130441 0.858219 0.842582 -0.5162 -0.790521 0.461128 -0.832666 -0.136676 -0.87778 -0.149362 0.991776 0.649853 -0.545964 -1.10216 0.0935153 0.507539 0.866036 -0.987714 0.108578 0.0917253 -0.697252 -0.533512 0.0847826 -1.23964 0.0168565 -0.306651 -0.274397 0.600261 -0.928442 -0.379905 -0.222455 -0.0207801 -0.61395 -0.342851 0.35604 -0.514427 -0.896315 0.623779 0.228369 -0.802186 -0.672576 0.101035 -1.13823 0.00592445 0.157668 0.116257 -0.420192 0.168038 0.297166 0.648315 -0.756393 0.633539 -0.602592 0.63854 0.771839 0.737752 -0.51005 -0.419967 0.325165 -0.468759 0.241848 -0.588208 -1.28158 -1.27845 0.240413 0.266082 -0.581617 0.65384 0.0507338 -1.14109 -0.927677 0.565267 0.144402 -0.829731 -0.186843 -0.288605 0.645377 0.646091 -0.956742 0.224273 0.618854 -0.355733 0.325775 -0.403758 -0.251894 0.368061 -0.494558 0.513291 -0.666679 -0.796165 -0.528147 0.866298 -0.134969 -0.658192 0.893239 -0.566221 0.993487 -0.326075 -0.232837 0.565192 -0.0917534 -0.0906603 0.353713 -0.783619 0.230898 -0.737868 0.0828104 0.164414 -0.736978 0.283959 -0.330828 -0.758583 -0.703411 1.1336 -0.176413 -0.148108 0.359851 0.179131 -0.649773 0.693952 0.483418 -0.334499 0.318837 -0.675648 0.0594152 0.173643 -0.257274 -0.129519 0.613371 0.0317569 -0.805963 -0.679502 0.844839 0.287192 -0.630705 0.180368 0.789007 0.453347 -0.781094 0.820963 -0.481833 -0.319232 0.857451 -0.344791 -0.436618 -0.567999 0.291372 0.747261 0.434726 0.408076 0.080503 -0.323029 -0.897144 -0.595867 0.118686 0.290646 0.641729 0.75444 -0.972973 0.0327017 -0.274634 -0.870319 0.224737 -0.531132 0.445153 0.507441 0.393621 0.218587 -0.0970361 0.388143 -0.0858975 0.47455 -0.914295 -0.310248 -0.931424 -0.343527 0.207332 0.461343 -0.45875 -0.197754 0.244656 -0.968437 -1.12802 0.661405 -0.334368 0.0126957 -0.164437 -0.757081 -0.168574 0.0365954 0.424776 0.633485 0.263621 -0.130109 -0.701439 -0.0129785 -0.467616 -1.16278 -0.794546 0.643683 0.56625 0.284009 0.359858 -0.914276 -0.652682 -1.22288 0.166167 -0.986275 0.757151 -0.958548 0.180595 0.446555 -0.489104 0.32084 0.313278 0.562353 -0.15842 -0.460986 1.05278 0.841036 0.619485 0.631475 0.763558 0.462059 -0.062528 -0.564821 -0.166914 0.926331 -0.32386 0.202096 0.695438 -0.684854 -0.396283 0.243645 -0.364943 0.161926 0.315747 0.854132 0.408407 0.353755 -0.675463 -0.307057 -0.130806 -0.332599 0.97688 0.97989 1.14991 -0.228477 -0.470553 1.0533 -0.651019 1.08753 0.699349 1.15092 0.39927 -0.816866 -0.768283 0.632117 0.929123 -0.264984 -0.204527 0.592217 -0.0399452 0.390032 -0.150796 0.587842 -0.388533 -1.06011 0.174519 0.696259 0.214964 0.37822 -0.788364 0.680647 0.857544 -0.953236 0.52289 0.734826 -0.610536 0.637631 0.556066 -0.213443 0.78772 0.274524 -0.122321 0.052448 0.377712 0.0669815 -0.354429 0.346956 0.70138 0.355391 -0.23275 -0.513174 -0.448533 0.538334 -1.05796 0.109713 0.480165 0.132595 -0.367893 -0.417578 -0.531512 -0.194931 -0.793542 -0.553097 -0.0383877 -1.07384 -0.626616 0.700316 -1.05237 -0.637172 -0.292686 0.625689 0.472148 0.462467 -0.353746 0.0448469 -0.388026 0.405244 -0.519773 -0.604565 -0.115217 0.426067 -0.010356 0.629137 0.0914887 0.185867 -0.15874 -0.265636 -0.457185 -1.17718 0.646907 0.500757 0.100237 -0.55611 -0.74338 -0.626349 -0.251185 0.0583018 -0.522765 -0.120619 0.607692 0.572759 0.0116085 0.511092 0.112909 0.698639 -0.324552 1.02611 0.486311 0.488961 -0.153189 -0.382912 0.35826 1.28729 -0.322342 -0.420786 0.567958 0.571683 0.448226 -0.741427 0.61612 0.26178 0.846837 -0.197649 0.96451 -0.462397 0.571534 -0.29953 0.549868 0.956074 0.489683 -0.0713676 0.220167 1.2435 1.17272 -0.621161 0.793789 -0.349559 -0.843275 0.0263338 0.912496 -0.41975 0.358745 -0.266583 -0.303682 0.932502 0.261715 -0.896018 0.331249 -0.302995 -0.528656 -0.0321164 0.931845 -0.698181 0.672936 0.648395 -0.404 -0.0435759 -0.90955 0.709208 -0.359715 0.305628 -0.528041 0.638587 0.29096 -0.766914 0.730216 -0.164125 -0.258337 0.669687 0.793726 -0.404837 -0.66858 0.141343 0.415769 -0.0155826 -0.00737201 -0.360596 0.0152589 -0.781082 -0.0169407 0.283585 0.109146 0.0105029 0.648436 -0.401555 -0.790109 -1.15659 0.489356 -0.712348 0.540271 -0.765681 -1.32106 -0.84234 -0.966176 0.121533 -0.302866 -0.961972 -0.857089 0.462887 0.676071 -1.08378 -0.83654 -0.8959 0.135392 0.629398 0.188877 -0.834602 -0.690374 -0.654113 -0.564549 0.47237 -1.19288 -1.2541 -0.521331 0.412651 -0.411995 0.0590716 0.64369 -0.414247 0.852734 0.76768 0.195828 1.00876 -0.643175 0.651908 0.44847 0.148799 0.801202 0.92323 0.0796754 0.763436 0.987556 0.414012 1.22958 0.480154 0.458838 0.453449 0.880404 0.982189 -0.708159 -0.219568 0.89818 -0.563439 -0.24481 -0.570359 0.837359 0.394499 0.666999 0.645998 -1.00803 0.63628 0.579678 0.498071 0.932859 0.959322 0.0291191 0.15933 -0.225356 -0.445955 -0.137064 0.825675 1.15351 -0.238615 0.0187756 1.0979 0.880217 1.17804 0.367708 0.406491 0.695731 0.387141 0.944474 0.398506 0.464537 -0.359981 0.804386 0.326804 0.945442 0.460985 0.0589411 0.98175 0.0964378 -0.488804 0.207851 -0.35917 -0.864821 0.84675 0.578827 -0.207282 -0.864793 -0.988694 -0.970517 -1.15666 -0.588998 -0.220536 0.625215 -0.857679 -0.307407 0.0177213 0.536523 -0.535743 -0.653836 0.416009 0.734456 0.749765 0.864076 0.41405 -0.198113 0.594855 -0.224874 0.848217 0.361832 0.757777 -0.81793 -0.640131 -0.803434 -0.971785 -0.849452 -1.26183 -0.318548 -0.535661 -0.973588 0.0566821 -0.40227 -0.213427 -0.948416 -0.555048 -0.115254 -0.138391 0.580342 -0.495889 0.393327 -1.01065 -0.995793 0.273441 -1.18574 -0.989813 -0.22628 -0.179971 0.673674 0.654877 -0.249922 0.220273 0.636225 0.132567 -1.02623 -0.819583 0.575921 -0.335078 -0.456957 -0.198663 0.476082 -0.15595 1.13939 -0.650821 0.828876 -0.596907 0.170654 -0.0739094 0.628854 0.0505098 0.819934 0.366103 0.239167 0.860471 -0.34759 0.28054 -0.70299 0.933374 -1.12355 
-0.881252 0.679985 0.297514 0.638916 0.53187 -0.368063 0.79269 0.873815 -0.748923 -0.592567 -0.689888 -0.0351522 0.758094 0.0260284 -0.0594201 0.897299 -0.408094 0.144602 -0.266927 0.25929 -0.549915 0.432334 -0.279359 0.434806 -0.588043 -0.514951 1.00161 0.466042 -0.460759 0.684108 0.707578 -0.372428 0.297384 -0.0616769 -0.822644 -0.257672 0.49547 0.937197 -0.432464 0.705065 -0.710388 -0.186618 -0.406124 0.985002 0.773634 0.466351 0.809849 -0.712914 -0.46095 -0.51999 0.481092 -0.0892315 0.841783 -0.854175 -0.678491 -0.77733 -0.39762 -0.705235 0.673158 0.107942 0.908636 0.316422 0.670883 0.141068 -0.823703 0.795913 0.817684 0.603739 0.653853 -0.696957 0.223936 0.867289 0.0408301 0.741341 0.779149 -0.263884 0.129209 0.507002 -0.0554084 0.595805 0.926309 -0.651141 -0.568006 0.671173 -0.592859 -0.329972 0.82177 -0.0995238 -0.165896 0.373788 0.924303 -0.303238 -0.389815 0.4903 0.709203 -0.262298 0.229984 0.48605 -0.742699 -0.20273 0.679211 0.384054 -0.415494 -0.343008 0.0323481 -0.719203 0.295775 -0.913479 0.719629 -0.817638 0.610361 0.565428 -0.538172 0.986842 0.220853 -0.157169 -0.401591 -0.0191424 0.697045 0.423794 -0.63927 0.613971 -0.906285 -0.0370445 0.116691 0.829907 0.681071 -0.67508 0.232862 0.857157 0.0526743 -0.111162 0.214238 0.613594 0.497324 -0.794709 0.832455 -0.254472 -0.744703 0.523051 -0.11164 0.834663 0.0633957 0.331986 0.77807 -0.759397 -0.876221 -0.672105 0.153202 0.765345 0.694149 0.440412 0.311411 0.733191 -0.664873 -0.657716 0.438651 0.924545 -0.394342 -0.344134 0.736522 0.590194 0.457371 -0.124439 0.122841 -0.0853945 0.0234645 -0.0863961 0.603094 0.216684 -0.60345 -0.543223 -0.00449472 0.395146 0.726487 -0.28697 0.558022 0.781542 -0.0168596 -0.347231 0.500047 -0.348529 1.06571 -0.218648 -0.645814 -0.623678 0.0967403 0.777415 -0.742479 0.633914 -0.638965 0.922215 0.158333 0.779048 -0.258178 -0.768652 -0.377961 0.691413 0.0799461 -0.840293 -0.160973 0.403099 -0.454041 0.751587 -0.285285 -0.819801 -0.612714 -0.807095 0.901085 0.324048 -0.198915 0.348226 0.865814 -0.248465 0.993399 -0.899419 0.0151726 0.014023 0.820404 0.229508 -0.441509 -0.929882 0.0410002 0.619375 0.768877 0.702199 0.781102 -0.654541 0.284066 -0.215169 -0.597698 -0.913021 -0.876885 -0.118106 0.750232 -0.25958 -0.0203301 -0.921134 -0.118627 -0.184712 0.312887 0.593532 -0.92174 0.132253 -0.678392 -0.949542 0.215529 0.299628 0.0116522 -0.0128836 -0.523161 0.562009 0.0835797 0.553036 0.209318 -0.119403 0.21351 -0.0686958 0.136594 -0.530753 0.673914 0.520484 -0.498805 0.731421 -0.656546 -0.786899 -0.563811 0.288067 -0.748468 0.284669 -0.92931 0.542333 -0.143984 -0.864883 -0.355788 0.121239 -0.866491 0.831649 -0.625464 0.0980354 -0.227175 -0.177939 -0.383581 0.801109 -0.722335 0.749028 -0.386595 0.440507 -0.375722 0.693047 0.849921 -0.762057 0.151254 -0.705294 0.919454 0.446912 -0.519648 -0.677605 -0.293776 -0.310043 0.561056 -0.269054 -0.796406 -0.617607 -0.181765 -0.197658 0.457135 -0.100068 -0.406068 0.816383 0.982534 0.341388 -0.390091 -0.42924 0.11797 -0.146001 -0.742944 0.660057 -0.779331 -0.181633 0.300446 1.01793 0.000739071 -0.610933 -0.739299 -0.142991 0.770903 -0.328181 0.113224 -0.59645 0.307002 -0.396464 0.0591987 0.420795 -0.102213 0.788304 -0.863316 -0.699502 -0.370162 -0.303653 1.02745 -0.495691 0.903654 -0.479972 -0.0256023 -0.0217816 0.319264 0.184357 -0.49259 0.414869 0.874474 0.718875 0.354606 -0.206186 -0.975657 0.557979 0.579039 0.752451 -0.842771 -0.339569 -0.919649 0.3847 0.170169 0.0545078 -0.288014 1.0035 -0.212062 -0.174953 -0.744777 0.358738 0.424573 -0.775008 0.826384 0.295553 -0.297394 -0.222048 -0.780688 0.992644 0.928747 -0.271346 0.42721 0.841631 -0.52126 -0.209149 -0.353062 -0.531333 -0.699315 -0.778598 -0.808425 -0.58811 -0.181982 -0.789911 0.742241 0.955006 0.206066 -0.579879 0.944882 0.986687 0.215662 -0.834274 0.310023 -0.374819 -0.641889 0.0999992 0.879553 0.0365795 0.842183 -0.936027 -0.004996 0.741247 -0.247496 -0.627782 0.528075 0.154158 0.119094 -0.86513 0.592756 0.360837 -0.710809 0.706996 0.714808 0.0579018 0.879583 0.427234 -0.0143675 0.060644 0.82124 -0.11943 -0.00280964 0.00891569 0.0301352 -0.715493 0.592167 0.340863 0.332309 0.444585 -0.64299 0.163083 0.490664 0.328376 -0.12996 -0.793148 0.668199 -0.638997 0.321359 -0.271713 -0.566399 -0.148408 1.04052 -0.334583 -0.492795 0.705517 0.679053 -0.666971 0.0678182 -0.414643 0.327908 -0.181607 0.39275 -0.767355 0.761143 -0.642807 -0.551446 0.245157 0.595134 0.713359 -0.36081 0.904329 -0.220895 1.01682 0.107943 0.561051 -0.852904 -0.261665 0.854957 0.390114 0.34995 -0.812341 -0.879291 0.288584 -0.235929 -0.424453 -0.0510081 -0.61341 -0.168605 0.927706 -0.0880238 -0.896112 -0.310103 -0.740687 -0.716987 -0.637777 -0.490623 -0.339129 0.566703 -0.909692 -0.673259 -0.855038 0.91287 0.0523898 -0.870899 -0.00280211 -0.415678 -0.73972 0.701309 -0.560266 0.642963 0.0553706 -0.372006 0.811549 -0.623932 0.398824 -0.614157 0.270051 0.755014 0.197438 0.157752 -0.385767 0.259549 0.794609 -0.183062 0.518605 -0.883279 0.299227 -0.833865 0.679331 0.356313 -0.528367 0.799992 0.246907 0.502468 0.898081 -0.78508 -0.940234 -0.890916 0.874634 -0.551876 0.718526 -0.123528 0.0177848 0.461144 0.171679 -0.635683 0.801182 -0.595973 -0.939266 -0.0498267 0.498963 -0.374511 -0.821943 0.271769 0.416488 0.662798 0.358837 -0.31218 0.793303 -0.00463013 1.01505 -0.773198 -0.257211 0.228945 0.683043 -0.400262 0.415772 0.721416 -0.297037 0.272754 -0.85149 -0.61502 -0.883531 0.135722 0.819013 0.252204 0.458735 0.578474 0.601059 0.464975 -0.532103 0.0396233 1.04178 -0.405758 -0.751954 0.399538 -0.803899 0.558422 1.01592 0.903731 -0.537883 0.940037 -0.924023 0.123517 0.085744 0.658898 0.662382 -0.551044 0.332317 -0.716833 0.61501 0.366502 -0.423286 0.648684 -0.568411 -0.679559 -0.17412 0.792157 0.788973 -0.706264 0.145072 -0.810037 0.305462 0.156238 -0.269059 0.484079 -0.541947 -0.144535 -0.0250788 -0.567538 -0.265462 0.369114 -0.701495 -0.297946 -0.536911 0.353715 -0.652387 -0.912828 0.743143 0.600788 -0.684058 0.33326 -0.069019 -0.142666 -0.0302293 0.363594 0.189933 0.793647 0.149598 -0.0246874 -0.881574 -0.653803 0.184261 0.422473 0.466599 0.897559 -0.0912848 0.912662 -0.285608 0.84017 -0.699593 0.397093 0.199797 -0.420629 -0.91643 0.639427 0.921059 -0.608063 0.690157 0.635634 0.965881 0.981535 -0.0762168 -0.153043 -0.194695 0.853278 -0.826338 0.950374 0.607293 0.278664 -0.126245 0.664126 0.548696 1.0048 0.0405934 -0.0492161 0.827234 0.885063 -0.181655 -0.493162 0.684744 0.0833728 0.864547 -0.148185 0.628708 0.918767 -0.552755 0.500634 -0.750711 -0.905584 0.0793177 -0.830713 1.04446 0.986395 0.010017 -0.166293 0.831144 0.168204 -0.237492 0.39932 -0.586489 0.608712 0.0333265 0.927497 0.570865 1.03236 -0.154913 0.362238 0.861602 0.608957 0.805617 0.484461 -0.372317 0.625133 -0.719422 -0.813138 0.434107 -0.363333 0.608117 0.629307 -0.317479 -0.382925 0.704497 -0.387082 -0.473997 -0.323799 0.379506 -0.733212 0.739916 -0.918946 0.582043 -0.940875 0.5921 -0.44585 0.940437 0.069042 -0.534185 -0.351714 -0.683368 -0.75385 -0.795384 -0.903587 0.705776 -0.210333 0.641675 0.909446 -0.0812582 0.0640831 -0.493288 -0.56943 -0.398288 0.0992639 0.026935 -0.721419 0.701134 0.531249 -0.0818498 0.0312806 0.749749 -0.369462 0.060779 0.30634 -0.320344 -0.367781 0.849897 -0.388152 0.715694 -0.674498 0.283561 -0.915168 -0.408764 0.496188 -0.847772 -0.708578 -0.722368 0.759876 -0.832505 0.16266 -0.211952 -0.359259 0.603813 0.374123 0.717777 -0.382905 0.653099 0.385674 -0.882374 -0.443413 -0.607185 0.833067 0.117801 0.390802 0.095776 0.777794 1.00968 -0.0868051 -0.649344 0.672703 0.188561 0.579293 0.698485 0.735551 0.0263203 0.780681 0.966146 0.258948 0.51707 -0.901129 -0.623449 -0.732201 -0.297427 0.956415 0.61133 -0.611796 -0.475643 0.207876 0.711883 -0.400806 0.706479 1.05532 -0.606914 -0.180956 0.438203 0.480196 -0.410299 0.432168 -0.626536 -0.0929021 0.0732596 0.532178 -0.546541 -0.273798 0.232623 0.446203 -0.525851 0.166336 -0.342265 0.935537 0.201024 -0.018729 -0.848188 0.846044 -0.13651 0.677708 -0.865528 0.29743 -0.189685 0.777493 0.822651 -0.575921 0.747748 -0.884091 0.171138 0.12598 0.544399 0.677525 -0.560886 0.83914 -0.497972 0.442366 0.282988 -0.118291 -0.862312 -0.553983 -0.758927 -0.521574 0.501146 -0.192639 -0.656875 -0.359488 0.74427 -0.545012 -0.550746 -0.457613 -0.934564 -0.455114 0.78399 -0.207649 -0.755244 0.539406 0.192675 0.969684 0.661909 -0.61814 0.0970482 0.198326 -0.972263 0.53328 0.0127452 -0.485607 -0.0260468 -0.711756 0.418528 0.101195 -0.242967 0.668073 0.593087 -0.722887 -0.514592 0.962803 -0.0878492 -0.794409 -0.610727 0.336445 -0.267851 -0.560787 0.849323 -0.499132 0.237971 -0.902649 -0.94958 -0.562895 -0.930939 0.716226 -0.203189 0.134318 -0.119482 -0.231878 -0.397868 0.844893 0.255426 0.560985 -0.886399 -0.375031 -0.386327 -0.195054 -0.759338 -0.841772 0.0309333 -0.305344 -0.91989 0.902507 -0.149884 -0.581279 0.173543 0.511703 -0.190925 -0.0088399 0.993534 1.00111 0.0357366 0.98693 -0.611235 0.0506585 0.645441 0.13014 -0.867925 -0.512772 0.875093 -0.276166 -0.680328 0.111893 -0.729017 -0.579124 0.730499 -0.140733 0.208576 0.946382 -0.0125199 -0.796479 -0.410289 0.016744 1.05512 0.392605 0.383774 0.189847 -0.140356 -0.872285 -0.878818 -0.225629 1.05161 0.0653045 -0.321476 -0.629754 1.04649 -0.751496 0.402967 -0.908451 -0.353191 0.188855 -0.257055 -0.107313 -0.751031 -0.0846904 0.24242 0.883598 0.701384 -0.638497 0.744536 -0.367381 -0.508454 -0.738077 0.55462 -0.554739 0.546537 -0.168737 0.557639 -0.641273 -0.0950909 0.624575 0.0849923 -0.0785381 -0.336191 0.696888 0.231615 -0.378983 0.865222 -0.41026 -0.326883 -0.489563 0.758196 0.394043 0.422671 1.01447 -0.656225 -0.364112 0.891323 -0.9616 -0.0159566 0.644841 -0.331226 0.509787 0.933746 -0.770937 0.95319 0.504176 0.0909415 0.567942 
0.893145 1.01747 0.159289 -0.0351138 -0.0346061 0.867507 -0.290402 -0.800048 -0.526299 -0.417876 -0.235991 0.130264 0.0880213 -0.452469 -0.465183 -0.531386 -0.473239 -0.143882 0.104637 -0.555581 -0.0816757 1.09562 1.06282 0.54346 0.545321 0.947773 0.735033 0.450831 0.389864 -0.253129 -0.0774558 0.207203 -0.338119 0.985903 1.05484 0.53154 0.732266 -0.3547 0.604359 1.06135 0.0885389 -0.734528 0.0991562 1.08317 -0.276635 0.560785 -0.53581 0.149138 -0.685156 0.42617 0.428221 0.0684257 0.41984 0.376412 -0.498818 -0.189484 0.166312 -0.978397 -0.944167 -0.614138 -0.34021 -0.106391 0.496288 0.271266 -0.194146 0.474156 -0.328469 -0.613225 0.969187 -0.847742 -0.651846 -0.0442732 -0.677516 0.377994 -0.035706 -0.0391432 -0.151973 0.325086 -0.976457 0.108337 -0.26141 0.442109 -0.937445 -1.00769 -0.367248 -0.552379 -0.283476 0.76287 -0.506029 -0.192317 -0.809966 0.161075 0.677643 0.663036 -0.626976 -0.597885 0.105542 0.0268016 -0.217851 0.0512627 0.189698 0.158963 1.05444 0.521304 -0.516491 -0.0145358 -0.504657 0.348044 -0.687867 -0.524123 -0.660642 0.0164882 0.873047 -0.500801 0.0650598 -0.401221 -0.0223492 0.786012 -0.663217 0.407828 -0.454207 -0.50856 -0.464835 -0.835169 1.06893 -0.153301 -0.484661 0.113156 0.74404 0.15752 1.02469 -0.15771 -0.74944 1.05284 -0.677276 -0.302701 -0.0783723 -0.318806 0.937588 0.182215 0.0793786 -0.770845 1.07314 -0.120171 -0.428679 -0.000400106 0.343531 0.439797 -0.29244 0.616185 -0.261811 0.127363 0.998457 0.156731 0.167614 0.992273 0.886344 0.56575 -0.0100658 0.565397 -0.353093 -0.0506523 -0.689911 -0.177407 -0.0953073 -0.450842 0.421001 0.726372 0.117278 0.254098 -0.195272 -0.880911 0.418364 -0.210687 -0.109032 0.867164 0.677716 -0.896376 0.138957 -0.760144 0.598211 0.753017 0.243409 0.46186 -0.238041 -0.743858 0.284255 -0.500196 0.672449 -0.866865 0.960048 -0.727912 0.0546521 -0.790466 0.00632661 0.830041 -0.356264 -0.684443 0.398147 0.617669 0.447589 -0.862762 0.670029 -0.218157 -0.15794 -0.537342 -0.415755 -0.510716 -0.443966 0.670828 -0.398866 -0.963175 0.373055 0.802972 0.446306 -0.894441 -0.974228 -0.289573 -0.337768 0.781599 -0.067692 -0.325345 1.0276 0.915167 -0.199753 0.00642762 0.701063 0.423313 0.311667 0.118913 0.120161 -0.2014 0.240008 -0.240297 0.551454 -0.888002 0.257999 -0.849784 -0.481067 0.818901 0.842295 0.237633 0.914184 0.239143 0.0589768 0.373775 0.356204 0.0734121 -0.91467 1.00188 -0.170274 -0.0410925 -0.396229 -0.182072 -0.172598 0.394037 0.739377 -0.563432 -0.236441 -0.0274946 0.492786 0.829188 0.722396 -0.268121 -0.444381 0.220413 -0.236622 0.766342 0.298969 0.268476 0.54995 0.0521077 -0.618442 0.353799 -0.777497 0.358279 -0.323163 0.50904 -0.633745 -0.335396 0.396449 0.0982147 0.528674 0.910754 0.813655 -0.742629 0.199528 0.478212 -0.414899 0.861056 -0.643354 1.03852 0.630511 1.0136 -0.331341 -0.904286 0.141064 0.338968 0.807956 -0.616995 -0.456474 0.24675 0.34051 -0.209769 -0.50424 0.394296 0.989985 -0.00466355 -0.251637 -0.774491 0.502265 0.973379 0.178973 -0.0339295 0.810497 -0.171303 0.0542622 -0.14934 -0.794051 0.604776 -0.371946 -0.540767 0.496743 -0.866039 -0.635013 -0.941239 -0.88006 0.408559 0.319368 0.874791 0.709953 0.781585 0.0361188 -0.0367721 -0.491876 0.505945 -0.666781 -0.551947 -0.584706 0.00283158 -0.379896 0.936791 0.00780832 0.760329 -0.134072 -0.203417 -0.338167 0.979382 0.697921 -0.121408 0.572427 -0.687927 0.33917 0.111932 -0.484998 0.714525 0.153511 -0.356949 0.171383 -0.471116 -0.458591 -0.0976603 -0.709931 0.542226 0.825844 -0.174527 0.059652 -0.763948 0.322832 0.554339 0.249668 0.956662 0.47747 -0.733309 0.72041 -0.640563 0.0967306 -0.615207 -0.674513 -0.258432 0.271173 0.907669 0.0958816 -0.407761 -0.0684623 0.530448 -0.752997 1.01023 -0.879151 0.391647 -0.484398 -0.350838 -0.729116 -0.198411 -0.819095 1.0645 0.550823 0.20274 -0.762267 -0.189759 -0.349481 0.385174 -0.318053 1.08545 0.618431 -0.620488 -0.595357 -0.384973 -0.320485 -0.334152 0.312112 0.86186 -0.508235 -0.692518 -0.64704 0.343589 0.734912 -0.491363 0.279639 0.826977 0.853902 0.760056 -0.62006 1.0042 -0.53056 -0.490681 1.05857 0.934561 0.616741 -0.868092 -0.382162 -0.864878 0.391741 0.156458 -0.919472 -0.151081 0.385331 -0.656102 0.318966 0.943167 -0.0539777 -0.431671 0.695734 0.264345 -0.253299 0.936733 -0.508965 -0.590065 -0.648793 0.686665 -0.877414 -0.920348 0.311167 -0.648366 -0.978405 0.659907 -0.236584 0.936728 0.501774 -0.713637 -1.04514 -0.95442 -0.617996 0.360476 0.176612 -0.581038 -0.870209 -0.479891 -0.26223 0.481413 -0.510237 0.625119 -0.994712 -0.789158 -0.0466537 -0.208803 -0.855915 0.472694 0.195106 -0.494415 0.137539 0.286939 -0.336461 -0.487355 0.687103 -0.327178 -0.785437 -0.492201 -0.393966 0.72533 -0.233329 -0.399811 0.795207 0.184939 0.986998 0.0518625 0.673369 -0.820702 0.639309 -0.533356 0.67377 -0.858198 -0.883161 0.722376 -0.677409 0.0565162 -0.541249 -0.512324 -0.494433 0.653935 0.0479135 0.670839 -0.106162 0.634923 -0.849671 -0.47219 -0.729546 -0.685169 -0.010005 -0.118063 1.00099 0.759313 0.478735 0.811428 -0.045913 0.440481 -0.203807 -0.425736 0.544787 -0.66933 -0.0385397 0.156595 -0.570862 0.0335499 -0.163143 -0.26459 1.04507 0.240325 0.192482 -0.496368 -0.181552 -0.831652 1.11062 0.637957 0.71669 -0.831247 1.08173 0.94379 -0.57363 0.0143979 -0.273273 -0.639632 -0.291597 -0.871594 -0.900527 0.584177 0.475988 -0.208187 1.04697 -0.118686 -0.00699849 -0.141374 0.918742 0.267567 0.728966 -0.393203 0.873554 0.67202 0.736639 -0.0103402 -0.92754 -0.56833 0.0255654 -0.943121 0.958958 -0.325269 -0.827058 1.00272 -0.483033 -0.556868 -0.12975 0.081437 -0.269534 0.474385 0.135608 -0.292136 -0.00985674 -0.445764 0.448763 -0.0354705 0.387788 -0.626494 0.734497 0.228344 0.612351 0.462458 0.842697 0.490561 0.126309 0.607006 -0.498301 0.245945 -0.898764 0.58338 0.312935 -0.892981 -0.751014 0.472402 -0.927629 -0.264851 0.935343 -0.0226738 0.895379 -0.309669 -0.501853 0.107021 0.480565 0.496836 0.617383 -0.0930711 -0.495292 0.0714225 0.364865 -0.666121 -0.641885 0.0228111 0.853463 -0.739252 -0.444397 0.0250518 0.924747 0.0943274 -0.74768 0.999978 -0.343035 0.570448 -0.871579 -0.129082 0.0242085 -0.827812 0.581663 -0.0643142 0.133135 0.429416 0.596934 0.596629 -0.530701 0.0551769 0.127121 -0.886123 0.96743 0.611481 0.167399 0.302455 0.901687 0.48626 -0.735812 0.675292 0.70948 -0.24115 -0.376125 0.589386 0.822588 -0.127923 0.580771 -0.587569 -0.623437 0.648721 0.231736 0.357097 0.778241 -0.244922 -0.765011 -0.139825 -0.880043 0.791839 -0.58643 -0.450541 -0.217492 0.48649 -0.391933 -0.305667 0.0471647 0.694378 0.912524 -0.172356 0.0576563 1.02622 -0.631498 -0.379648 -0.321217 -0.149408 -0.948033 -0.653206 0.603165 0.55699 -0.32846 0.886354 0.0842472 0.778728 0.10129 -0.252541 -0.591143 0.266795 0.541369 -0.519948 -0.0256397 0.813095 -0.0976881 0.608591 0.216484 0.41627 -0.78343 -0.851113 -0.029811 -0.986486 -0.0962355 0.969716 -0.991207 0.224391 -0.47988 -0.400247 -0.951037 -0.405136 -0.0345475 0.634077 -0.867638 0.668148 0.540189 0.267106 0.471934 -0.308426 -0.971808 0.940089 0.981538 0.538907 -0.603724 -0.123721 0.34634 0.321479 -0.454776 -0.388749 -0.215709 -0.164023 -0.221881 0.74563 -0.198282 0.732474 0.803692 -0.118027 0.00956379 -0.573064 0.57887 0.124426 0.0457516 -0.417511 -0.197767 0.23466 -0.708527 -0.613706 -0.513826 0.752023 0.0501054 -0.468779 0.703048 0.0101062 -0.943643 -0.911115 0.876594 0.397137 0.374069 -0.642741 0.920907 -0.943905 0.0817532 -0.242696 0.886187 0.97247 -0.49755 0.658715 -0.168555 0.505719 1.03833 -0.64498 -0.437237 0.0192321 -0.099055 0.318701 -0.783195 0.18394 0.674845 -0.287202 -0.0610625 -0.295243 0.182115 -0.391285 0.655107 0.193411 -0.343073 0.476191 -0.4658 0.996615 0.803993 -0.527283 1.06447 -0.117924 0.169382 0.873778 -0.210481 0.62749 0.475182 0.546479 0.0255554 0.395768 0.796097 0.470184 -0.703779 -0.415735 -0.350833 -0.620788 0.588481 -0.813146 -0.0619275 -0.549616 -0.194504 -0.971605 -0.0521115 -0.64564 0.117278 0.505738 0.710541 0.5802 0.416632 0.425605 0.935327 0.322547 -0.797745 0.00959432 0.0999586 -0.118597 -0.432696 -0.475154 -0.661571 0.480855 0.821828 -0.936581 -0.116297 -0.891013 -0.417171 0.533999 -0.558418 -0.818971 0.754137 0.429807 -0.339833 -0.402368 0.506171 0.623701 -0.0819573 -0.367721 0.132845 -0.338261 -0.761563 -0.502472 -0.940568 -0.88324 0.84166 -0.727863 0.158018 -0.0293082 0.243945 0.766761 0.523298 0.576223 0.234043 0.434845 0.7264 -0.735458 0.582525 -0.631341 0.850655 -0.953688 -0.365903 0.647565 0.56438 0.355387 -0.723875 0.0728372 -0.0170348 0.201557 0.702042 -0.887388 0.875675 0.915118 -0.333316 0.961088 1.07096 -0.547511 -0.799665 0.175473 0.407062 0.336191 -0.118738 -0.0596339 -0.0584785 -0.778965 -0.601518 -0.319103 -0.550604 0.961089 0.0339987 -0.740777 1.0036 0.636952 0.890124 0.524163 -0.0485368 -0.861619 -0.429803 0.916227 0.330984 -0.722902 1.02356 0.164677 -0.846716 -0.402575 0.0468778 -0.862244 0.000342812 0.179681 0.272051 -0.602055 -0.488034 -0.860966 0.302823 0.429483 -0.720138 0.637906 1.00608 -0.360594 0.505453 -0.073691 -0.153222 0.425074 -0.554022 -0.424616 -0.205359 0.282001 -0.433851 0.266271 0.0334782 0.751125 0.398123 -0.0441639 -0.172934 0.458959 0.484121 0.780816 0.503046 -0.59177 -0.11863 -0.308743 -0.286794 0.265105 -0.310582 0.878795 -0.401603 -0.0860939 0.46424 -0.444521 0.427351 -0.147737 0.38777 -0.844562 -0.798402 0.78107 -0.322433 -0.0255759 0.0477606 0.269074 -0.736301 -0.841987 0.109948 0.7376 0.182742 0.969141 0.186891 -0.36767 0.739996 -0.313389 0.0621452 -0.373521 0.360389 0.734577 0.90144 -0.941879 0.642729 -0.476527 0.0228124 0.165394 0.0688451 -0.51277 -0.927637 -0.46965 -0.284338 -0.665013 -0.666646 0.415014 0.343921 0.419931 -0.18462 0.665632 0.667723 0.910196 0.414099 -0.154948 0.911306 -0.376191 0.492385 0.645161 0.335436 -0.393129 -0.687367 -0.278255 -0.588656 
-0.963564 -0.362936 0.868729 -0.426744 0.641262 -0.000876832 0.649382 -0.89655 0.09178 -0.811924 -0.192081 0.382531 -0.482416 -0.760445 -0.313968 0.930794 0.0266191 -0.663792 0.535221 -0.0882644 0.739791 -0.639564 -0.198383 -0.686569 0.840765 -0.583326 0.569736 -0.647091 -0.390981 -0.782444 -0.365094 -0.260686 -0.0419422 -0.390936 0.431503 -0.321861 0.679016 0.138279 -0.167719 -0.199769 0.410454 0.698062 -0.755939 -1.03548 -0.999154 0.0020729 -1.04031 0.0785733 0.361224 0.515636 -0.993003 0.146713 -1.06612 -0.133862 0.556024 0.859467 0.307574 0.180335 -0.695928 -0.965258 0.530424 0.0477396 -0.116229 -0.433199 0.74486 -0.584409 0.336063 0.479963 0.591031 -0.829326 -0.671478 0.0258485 -1.01661 -0.31805 0.0609525 -0.986014 0.709947 0.0774409 0.147854 0.188124 -0.317724 0.24014 -0.592416 -0.319482 -0.812388 -0.972617 -0.360433 0.620918 0.318114 0.00481075 0.700355 -0.0991276 -0.886418 -0.343132 0.494877 0.851433 0.044594 -0.178636 0.335541 -0.342278 0.0474354 0.751451 0.753507 0.060838 -0.554079 -0.152568 0.101907 -0.827264 0.951126 -0.710356 0.410525 -0.323795 0.595661 0.88461 0.429241 0.792616 0.931974 -0.926012 0.389671 0.205423 0.0183048 0.0720427 -0.903213 0.11686 0.695066 0.564377 -0.0643106 -0.291153 -0.639734 -0.716793 0.373283 0.430379 -0.943626 0.132047 -0.505828 -0.464628 -0.943797 0.667631 -0.231958 -0.975269 -1.00692 -0.788788 -0.285548 0.58356 -0.905382 -0.85186 0.393817 -0.966964 -0.735298 -0.150701 0.295412 0.331028 -1.04694 0.472232 -0.496948 0.689419 0.0676681 0.498189 -0.513458 0.525032 0.865384 -1.05305 0.0769641 -0.980157 0.139939 0.622506 -0.425043 0.239474 0.381909 0.40384 0.315354 0.394737 0.670887 -0.920194 0.0600608 0.827547 -0.720085 -0.51984 0.87225 -0.429359 0.395908 0.247349 -1.00143 0.418631 -0.251109 -0.47467 0.201678 0.94142 -0.829556 0.76463 0.585881 -0.897009 0.78299 -0.264742 -0.773251 0.0023195 -0.577831 -0.144776 -0.717571 0.85085 -0.657977 0.65647 0.274847 -0.944812 0.825121 -0.589408 0.901095 -0.835742 -0.0209013 0.874257 -0.154 -0.555761 0.222568 -0.104054 0.926673 -0.926292 0.53483 0.166315 -0.914303 0.780952 0.00681195 0.713108 0.912744 -0.232416 -0.592443 -0.869909 0.801063 -0.131683 -0.00500601 -0.848038 -0.238291 0.383207 0.881113 -0.920929 0.462872 0.750415 -0.458396 0.435546 0.985207 0.582057 0.359113 -0.129753 -0.972254 -0.411615 0.787471 0.946321 -0.34441 0.308762 0.121169 -0.285572 0.0533925 -0.920598 -0.611416 -0.0514461 -0.148669 -0.211131 0.0331435 -0.329296 0.686746 -0.934319 -0.143952 -0.535875 0.444135 -0.230615 -0.387967 -0.0565193 -0.457457 0.199041 -0.58773 -0.449416 -0.211531 0.772449 0.402634 -0.177368 -0.618537 0.21383 -0.155641 0.0865438 -0.439745 -1.00276 0.830283 0.682254 -0.877684 -0.737433 -0.339003 0.0399945 0.131923 0.787266 0.778094 -0.091682 -1.0543 -0.273655 0.456277 0.464546 0.556533 -0.865083 -0.509413 -0.837351 0.396062 -0.0453507 -0.247492 -0.771505 -0.20446 -0.752057 0.110816 0.170313 0.456965 -1.03828 -0.675442 -0.902109 -0.957899 -0.823202 0.805991 -0.760082 -0.468547 -0.419862 0.369896 0.772739 -0.541697 0.254583 -0.24572 -0.514087 -0.93199 -0.754088 -1.00269 0.668795 -0.539885 -0.413132 0.894242 0.865324 0.524244 -0.293365 -0.810301 -0.593937 -0.0346169 0.361968 0.657719 -0.484506 0.434892 -0.958635 -0.292095 0.534355 -0.688336 -0.383011 0.862612 -0.087033 0.258823 0.305194 -0.254484 0.741807 -0.433639 0.491172 -0.777678 -0.35482 0.79631 -0.753043 -0.685701 -0.731676 -0.146612 -0.733811 -0.825347 -0.569919 -0.0141289 -0.535869 -0.0878583 -0.968252 0.873324 -0.409995 -0.419849 0.32404 -0.346429 0.29263 -0.0989948 -0.0248901 0.904643 -0.231081 0.884317 0.126525 -0.979855 -0.397726 -0.155832 -0.44272 -0.929928 0.0557892 0.160705 0.854017 0.320311 0.52411 -0.844239 -0.813198 0.77642 -0.61724 -0.315368 -0.176662 -0.132968 0.592647 -0.165002 -0.294746 -0.794522 0.441428 -0.941375 -0.149695 -0.263299 -0.0103267 0.87184 -0.321022 0.79505 0.821254 0.886571 0.877817 -0.539099 -0.247338 -0.52885 -0.393926 0.891923 0.725678 -0.493827 0.285777 0.324807 -0.238246 0.565733 0.172508 0.199394 -0.691992 -0.942833 -0.879542 -1.02 -0.0260287 -0.0927358 -0.743952 -0.517636 0.0102321 0.132462 0.222725 -0.968395 0.0274207 -1.02966 0.847164 -0.112978 0.905112 0.807385 0.430196 -0.282043 -0.656713 -0.883736 -0.330605 -0.881642 -0.291107 -0.974735 0.528789 0.555862 0.675315 -0.228074 -0.197124 -0.972597 -0.0858573 -0.0193211 -0.964742 0.892975 0.933809 -0.675194 -0.601581 0.0363979 0.521672 0.696932 0.133193 -0.297303 0.752979 0.0907299 0.668377 0.66831 -0.0762249 0.166193 -0.535205 0.370622 0.354211 0.15998 0.505233 -0.944438 0.191555 0.0177961 0.638058 -0.104444 0.856058 -0.529864 -0.0706469 -0.267935 0.474355 -0.00215533 -0.30082 0.48847 0.382003 0.147921 -0.443808 -0.0178387 -0.137874 0.707943 0.675731 -0.381782 -0.20511 0.332619 -0.701524 0.799278 -0.446833 -0.241359 0.0959539 0.822665 0.885362 -0.453001 0.883703 0.0610692 0.574988 0.493274 -1.05574 0.411647 -0.996091 -0.0932837 -0.824612 0.499543 -1.07285 -0.120234 0.0108359 0.359524 -0.963626 0.548446 -0.686074 -0.111234 0.26705 -0.994393 0.545961 -0.859251 0.383201 0.881208 0.904509 0.946682 -0.310523 0.0371217 0.787858 -0.388701 0.619419 0.717663 0.720555 0.271506 0.319854 0.768642 -0.236052 0.384572 -0.280053 0.0103071 -0.0307022 -0.257875 -1.02244 -0.953456 -0.851854 -0.909371 0.686386 -0.452976 0.0741009 0.0618775 -0.398655 -0.364987 0.147722 -1.00659 -0.470446 0.0994176 -1.03184 0.235338 -0.78849 0.834195 0.938747 0.885572 0.629877 0.723969 0.197468 -0.0102397 0.542632 -0.942325 -0.52808 -0.643684 0.166388 0.484102 0.107459 0.160272 0.603909 0.328087 0.29547 0.322677 0.906037 -0.576238 -0.589092 -0.438113 0.101574 0.621601 -0.337966 0.723341 -0.176642 -0.280192 0.0590986 0.04861 -0.441333 0.0379192 0.0643084 -0.668985 -0.139012 -0.756495 0.302811 -0.605813 -0.677309 0.787178 -0.261985 0.537919 0.33731 0.916623 -0.330201 -0.0861332 0.243488 -0.979267 -0.71292 0.20464 -0.540889 -0.259721 0.856848 0.649245 -0.586985 -0.449152 0.412194 0.240158 0.255372 -0.489778 -0.648064 0.931128 0.617479 0.340344 -0.813666 -0.609403 0.578324 0.467278 -0.215939 0.908401 0.286593 0.514821 0.385117 -0.42096 0.435571 -0.910433 0.536975 -0.271076 -0.858231 0.850296 -1.01747 -0.339582 -0.37615 0.821962 -0.709744 0.0188434 -0.631541 0.721836 -0.726608 0.669935 -0.761413 -0.372987 0.602011 0.870099 -0.990698 0.797104 -0.727466 0.606777 0.300363 0.128693 0.587196 -0.349877 -0.263937 0.0595761 0.338266 -0.739674 0.190039 -0.0835622 0.0816606 0.43566 -0.148007 0.116026 -0.868469 0.526185 0.0373394 -0.460985 -0.325774 0.454455 -0.710952 -0.0345026 0.161371 -0.424765 0.626541 -0.216671 -0.538268 0.626373 -0.328465 -0.161116 0.344102 -0.985169 -0.984033 -0.0495349 -0.260017 -0.158146 -0.930345 -0.891705 0.175944 0.360176 0.122564 -0.714296 -0.204582 -0.978331 0.488089 0.0450843 0.605663 -0.435723 0.611238 -0.690017 -0.917417 -0.983749 0.352678 0.354445 -0.329759 0.0552605 -0.769398 0.220141 -0.24781 -0.0986954 -0.937263 -0.8734 -0.00441142 -0.80763 0.143902 0.760157 0.0238139 0.221713 0.86824 -0.757908 -0.390121 0.0471662 -0.382463 0.473242 0.0554683 -0.930163 -0.484008 -0.31354 -0.334325 -0.838955 0.0161328 -0.224584 -0.792794 -0.593646 -0.843141 -0.132233 0.435221 -0.643634 -0.930746 -0.778965 0.284238 -0.804697 -0.65054 -0.764332 -0.689915 0.452228 -1.03537 0.342819 -0.301557 0.855088 0.587934 0.269154 -0.170286 -0.876008 -0.259771 0.909798 -0.764769 0.295899 -0.371311 -0.0684365 0.49647 0.693889 0.748211 0.6869 -0.9195 0.892368 -0.45434 0.527191 -0.763476 -0.387147 0.714841 0.542273 -0.159588 -0.883078 0.793203 0.160187 0.59343 0.796869 -0.449433 -0.656425 0.687529 -0.790474 0.714999 -0.364719 -0.549123 -0.450416 -0.372129 -0.253476 0.911891 0.313361 0.759102 0.479643 0.0720278 0.56126 0.249747 0.228771 0.580407 0.877767 -0.228685 0.846056 -0.474641 -0.441044 0.443745 0.361378 -0.332622 0.245652 -0.375295 -0.640942 0.134591 0.225184 -0.273612 -0.122121 0.545308 -0.451743 0.591646 -0.958795 0.148066 -0.726651 -0.131882 0.0784947 0.603579 -0.351178 -0.38449 -0.283351 -0.749209 0.908157 -1.02076 0.873934 0.835342 -0.146772 0.802944 -0.547335 0.494021 0.311479 0.914657 -0.771613 -0.39922 -0.434414 -0.401389 0.753092 0.847172 0.413056 -0.312565 0.404752 0.979452 -0.738321 0.431922 0.123362 -0.450654 -0.662511 -0.720346 -0.802762 -0.0392495 -0.122885 -0.0733639 0.264991 -0.165276 -0.0545938 0.170265 -0.308976 0.838398 0.0103086 0.173127 0.321488 -0.705602 0.0474278 0.516856 -0.0797949 0.630686 -0.835744 -0.320106 0.447156 0.516611 0.333262 -0.161528 0.486753 0.621809 -0.714963 -0.396175 -0.861704 -0.440984 -0.193903 -0.664145 0.548909 0.728199 0.306222 -0.140221 -0.407468 -0.725564 -0.918145 0.328613 -0.891802 0.0736692 -0.510752 0.442387 0.375844 0.527553 -0.0627695 -0.741219 0.175866 0.10689 -0.0309012 -0.345197 -0.343996 -0.668491 0.526153 -0.813874 -0.997908 0.849922 -0.14841 -0.730993 -0.482678 0.754112 -0.299508 -0.832636 0.547902 -0.932649 0.0893557 -0.777869 -0.56477 0.234644 0.616549 -0.42503 -0.636573 -0.794753 -0.930454 0.7587 0.770181 0.066627 -0.914126 0.00679527 -0.817843 0.0777591 0.636727 -0.0810918 0.529168 0.268463 0.176548 0.571693 0.19014 -0.873162 0.935358 0.763905 0.92062 -0.31408 0.977815 0.550273 -0.262762 0.0614295 0.755064 0.256253 -0.649358 0.447561 0.895712 -0.231 0.690696 -0.948428 -0.382805 0.536482 0.209054 -0.215399 -0.389797 0.484523 0.955579 -0.684516 -0.541131 0.476808 0.608661 0.684263 0.13751 -0.166845 0.782202 0.0984005 -0.385078 0.748838 0.733291 -0.457652 0.313435 -0.391411 0.716739 0.0922946 0.825749 -0.943539 -0.408404 0.766527 -0.154955 -0.657853 0.844364 0.471446 0.894867 0.0754487 -0.722249 -0.545707 -0.490892 -0.777861 -0.185037 -0.0177693 0.707827 -0.58107 -0.37174 -0.194447 0.20405 -0.583467 0.866039 0.802872 -0.848192 0.616035 -0.655052 
0.471693 -0.831062 -0.929239 -0.424744 -0.921624 -0.825121 0.153671 0.755966 -0.0495833 0.422294 0.620016 -0.521974 0.330277 -0.257713 -0.200941 0.889222 0.274633 -0.0345098 -0.308204 -0.73073 -0.337652 0.135187 -0.0956394 0.520847 -0.626059 0.346421 0.408184 -0.795784 0.552785 0.059541 -0.366533 0.0645706 0.330006 -0.103731 0.768917 0.519463 0.114903 -0.0143452 0.373505 -0.801076 -0.444048 0.0810874 -0.348539 -1.03503 0.89958 0.537638 0.897077 0.220173 -0.447553 -0.365203 0.490845 0.292341 0.798088 -0.594454 -0.181262 -0.758418 0.849444 -0.723962 -0.519846 0.461572 0.418968 0.246379 -0.403307 -0.209755 -0.930734 -0.702796 -0.766179 0.148329 0.286657 0.651556 0.355954 0.810441 -0.268117 -0.973863 0.770171 -0.409812 0.53396 0.660308 0.790538 -0.889275 -0.694071 0.31332 0.412307 -0.859212 0.755251 -0.745555 -0.643797 0.552775 -0.51438 -0.170958 -0.0187166 -1.1207 -0.983919 0.505377 -0.338914 -0.903588 -1.17247 -0.0641565 0.258952 0.0815034 -0.42267 -0.382726 -0.0404002 0.36421 -0.291336 -0.214966 -0.966107 -0.649361 -0.414031 -1.03566 -0.405792 0.0373401 0.323601 -0.949777 0.197457 0.2016 -0.528719 0.743664 -0.033654 0.195737 -0.197886 -0.91131 0.224128 -0.0356312 0.776376 -0.909958 0.235447 0.754068 0.139229 -0.340859 0.0320039 0.877805 0.424665 -0.901009 0.37476 -0.765073 -0.0322055 0.43297 -0.321524 0.642595 0.481466 0.338711 -0.219318 -0.0241681 0.561026 -0.872493 -0.719285 -0.929815 0.918386 0.227264 0.225998 -0.318043 0.290562 -0.55189 0.62301 0.0670453 -0.437847 -0.124726 -0.0763687 0.750545 0.644056 -0.944934 0.780773 0.214412 -0.723323 0.237004 0.518763 0.328774 -0.23697 -0.816879 -0.0456506 -0.708058 0.624031 0.798599 0.343232 0.243825 1.01349 0.575888 0.226809 0.891656 -0.13194 -0.502102 -0.355551 -0.774676 0.00174079 -0.706362 0.319606 0.625507 0.287802 -0.631566 0.398954 -0.0783176 -0.658109 0.0859798 -0.997712 -0.459322 -0.748107 0.534531 0.848514 0.0246029 0.811151 -0.0857272 0.306184 0.367259 -0.3218 -0.387007 -0.438864 -0.350293 -0.810865 0.821577 -0.427943 0.124709 -0.612169 0.195493 0.362707 0.365282 0.470409 -0.309928 -0.0793853 -0.333051 -0.0273568 -0.754402 0.580584 0.346804 0.351398 0.673508 -1.06266 0.635029 0.254529 -1.15569 -0.345829 0.0791281 -0.221966 -0.978115 -0.458872 0.541606 -0.269282 0.238753 -0.63566 0.134586 0.159917 -0.00141552 -0.735571 0.609963 -0.676981 0.772963 0.205229 -0.969526 -0.316211 -0.715221 -0.112632 0.847922 -0.282606 -0.382058 0.314826 -0.798383 -0.548622 0.443905 -1.02106 0.855402 0.437174 -0.179143 0.105316 -0.614733 -0.0535751 0.688189 -1.0079 0.788386 0.0174729 -0.591096 0.0192808 -0.666635 0.598993 0.426749 -0.885346 -1.03585 0.231488 0.355071 -0.918963 0.952772 0.613939 -0.0898116 0.739517 -0.64857 0.59876 0.116959 -0.415479 -0.903031 -0.381122 -0.272554 -0.865411 -0.797531 0.666837 0.299475 -0.352282 -0.333379 0.0674045 -0.414958 -0.564529 -0.876068 0.118405 0.543712 -0.436778 -0.206321 0.0083542 -0.386885 -0.279239 -0.788374 0.969926 -0.215838 -0.788472 0.575693 0.693032 0.937226 0.908732 0.396462 0.137148 -0.381898 0.498031 0.759711 0.245072 0.473313 0.81182 -0.241856 -0.299433 -0.573607 0.453961 0.78096 0.133742 0.965824 0.957122 -0.76287 0.480786 -0.564944 -0.049432 -0.587308 0.000105615 0.632429 -0.328817 0.0239027 -0.529131 -0.1135 -0.349196 -0.822631 -0.218648 -0.42615 0.481961 -1.16096 0.0726027 -0.111243 0.533756 -0.667363 -0.596541 0.4241 0.18575 0.212769 -1.06907 -0.312118 0.0053889 0.0640576 -0.343823 -0.0346161 0.329039 -0.815108 0.45607 -0.629228 -0.24226 -0.346998 -0.808746 0.530746 0.741401 -0.285093 -0.53599 -0.468599 0.0832112 0.492751 0.259491 -0.281078 0.456959 -0.461708 0.778586 0.190939 0.023503 -0.645063 -0.227921 -0.619389 0.71091 -0.152782 0.17997 -0.178928 -0.93982 -0.945463 0.91436 0.450707 -0.719378 0.473774 -1.09668 0.134155 -0.745974 -0.770455 -0.237294 -0.895741 -0.0173107 0.28745 -0.377456 -0.777914 -0.129081 0.985923 -0.0620127 -0.692521 -0.514466 -0.259556 0.5189 0.518601 0.138294 -0.649477 0.991386 -0.0854725 0.328697 0.271311 0.894815 0.412855 0.366917 0.821559 -0.0596836 0.629512 0.280715 -0.155321 -0.174035 0.67846 0.223094 0.658265 0.757391 -0.765721 -0.0510032 -0.60373 -0.610986 0.790824 -0.603184 0.279332 -0.928858 -0.133601 -0.976716 0.688622 -0.55971 0.209903 -0.946341 -0.637781 -0.946178 0.25324 0.542682 0.776805 -0.402803 -0.123761 0.639342 0.585926 -0.468246 -0.0136203 -0.483568 0.38959 -0.396162 0.634809 -0.0300039 -0.707091 0.813582 -1.109 -0.248605 -0.732362 0.769184 0.175674 0.575636 0.836676 -1.01501 0.5926 0.460088 -0.634115 -0.31602 0.44225 -0.296782 -0.269484 -0.253742 -0.665961 -0.402126 0.454796 0.281861 -0.694657 0.071627 0.850698 0.307868 0.583242 0.253097 -0.974528 0.341745 -0.687847 -0.58771 0.280016 -0.614075 0.318758 0.699587 -0.785625 -0.432729 0.361487 -0.802612 -0.253792 0.102216 0.815298 0.238383 0.982212 0.409306 -0.896774 -0.120285 -0.655652 -0.369118 0.633882 0.957652 -0.952618 -0.922576 0.139378 -1.03069 0.509955 -0.182176 0.327364 0.558441 -0.76686 0.767029 -0.89958 0.639045 -0.772217 0.486739 0.375806 -0.513588 -0.936859 -0.256261 -0.277136 -0.145163 0.932325 -0.445864 -0.884861 0.869308 1.02811 -0.767252 -0.242703 -0.686404 -0.163641 -0.484518 -0.611582 0.0228163 -0.326597 0.64977 0.05811 -0.74768 -0.539717 -0.516991 0.816967 -0.319822 -0.803084 0.907045 -0.57707 -0.450332 0.385988 0.779379 -0.00259786 0.485354 -0.447276 0.780643 -0.653599 -0.537936 -0.702594 -0.57991 -0.632491 -0.658001 -0.336163 0.170996 -0.2667 0.515408 0.585967 0.00276292 -0.576335 -0.830312 -0.465276 0.426769 -0.6859 -0.0146606 0.846902 -0.879495 0.690609 -0.895802 -0.908491 -0.857656 -0.350708 0.487277 0.830905 0.649007 -0.0467064 -0.569292 0.458576 0.333878 -0.0542344 0.757433 0.70593 0.24507 -0.97123 -0.720964 -0.65842 -0.347511 0.755376 -1.07311 0.705119 -0.787906 -0.855688 -0.725416 0.724868 -0.440347 0.353895 0.702669 -0.25613 0.0799068 -1.14089 -0.136176 0.283446 -0.375425 -0.576103 0.233877 -0.627489 0.532351 0.820909 -1.02139 -0.0317542 -0.157145 0.813758 -0.247903 -0.708245 -0.947296 0.226861 -0.248617 -0.136007 0.14138 -0.165371 -0.286039 0.545283 0.174548 0.207642 0.459854 0.861385 -0.329453 0.24057 -0.287274 0.834564 0.268218 0.657664 0.187316 -1.0315 -0.766017 -0.452385 -0.581166 0.829349 -0.582515 -0.569381 -0.156534 0.287792 -0.687715 0.626213 0.603592 -0.562723 -0.129161 -0.649486 0.298783 -0.940929 0.17142 -0.981086 0.605024 -0.63764 0.256852 0.124836 -0.692169 1.0386 -0.558004 0.12607 0.93562 0.663348 -0.153789 0.118283 0.621382 0.0584033 0.682464 -0.823684 0.0238946 -0.89266 -0.380382 0.830969 0.400979 0.0216868 0.520409 0.0352879 0.466967 -0.574606 0.382684 -0.278865 -0.509414 -0.490732 -0.28244 -0.905912 -0.135859 0.878841 0.101431 0.0893773 0.827827 0.467781 -0.880685 0.612459 0.0803922 -0.147749 -0.354232 -0.300281 -1.03889 -0.640569 -0.0917225 0.017723 -0.482864 0.471344 -0.187519 -1.08503 -0.462626 -0.646882 -0.0473934 -1.03669 -0.241591 -0.725132 -0.414595 0.152127 -0.271341 0.237669 0.140621 0.55376 0.13575 -0.752236 -0.353973 -0.0629149 0.716453 -0.205112 -0.361511 -0.0701714 0.831187 0.415963 0.730141 0.876092 0.847161 -0.306236 -0.05999 -0.570736 -0.761845 0.848722 -0.532637 -0.131861 -0.673919 0.556446 -0.0277994 0.220373 0.948482 0.677626 -0.526993 -0.161915 0.0798284 0.793565 -0.449838 -0.668244 -0.783635 0.372493 0.520478 -0.878109 -0.641569 -0.737639 0.170476 -0.721034 0.777633 -0.053659 -0.734054 0.737281 0.721803 0.278939 -0.795249 -0.952351 0.194485 -0.309394 -0.0652084 0.547154 -0.675802 0.911209 -0.271494 -0.691413 0.685371 0.253704 0.137704 -0.204858 0.124843 0.745153 0.198817 0.347789 0.131823 -0.350929 0.488306 0.557732 -0.00411352 -0.179715 1.00205 -0.146973 0.76573 -0.838428 -0.454731 0.457747 0.409195 -0.183819 0.50009 -0.339038 0.532917 -0.555909 -0.76028 0.93524 -0.528304 0.0692852 -0.72901 -0.861766 -0.714099 0.392084 -0.184451 0.323398 0.0907987 0.920253 -0.36615 -0.817508 -0.508145 -0.976274 0.573326 0.376649 -0.28227 0.426156 -0.889301 -0.654159 0.464102 -0.446103 0.718561 -0.134316 0.343786 0.226024 0.57144 -0.0360779 0.728212 0.769274 -0.14875 -0.833099 -0.213937 0.0907413 -0.75976 0.0117668 -0.553176 0.0205619 -0.720451 0.427875 -0.144515 -0.120377 0.565281 0.321751 -0.0810711 0.160383 -0.276573 0.607697 -0.4283 -0.124747 -0.939045 -0.78137 0.63846 -1.03536 0.19692 0.0962783 0.319904 -0.106118 -0.865799 0.114958 -0.277696 0.0827246 0.368871 0.602017 -0.750235 0.706625 -0.201515 -0.181625 -0.149205 0.2075 -0.605128 0.836281 -0.753525 -0.887743 0.330249 0.328849 0.475342 -0.702568 0.204578 -0.804625 0.296532 0.386918 -0.462358 0.0521876 0.462093 0.830685 -0.785017 -0.211551 -0.285237 -0.604485 0.935929 0.528842 0.480916 0.325984 0.159603 0.821847 0.0522418 0.937536 -0.412693 0.995041 0.189669 0.0351195 0.838573 0.487261 0.186626 0.209373 -0.150336 -0.300632 0.481648 1.02032 -0.0726473 -0.127757 0.477048 0.594155 1.03317 -0.0260828 0.387797 -0.811741 0.699588 -0.884444 -0.392556 0.710331 0.632773 -0.93035 0.0298665 -0.240229 0.947859 -0.814371 -0.24425 -0.372268 -0.798401 0.99458 0.662613 0.963159 0.408801 -0.209992 0.115868 -0.818378 0.413055 -0.431279 -0.86474 -0.795043 0.261239 0.462622 0.710442 0.176845 -0.719404 -0.0825697 0.225688 -1.05703 -0.0233429 0.760204 0.603627 -0.397626 0.903152 -0.298417 0.398958 0.843449 -0.157271 -0.850303 -0.615877 -0.00238747 -0.957205 -1.04245 -0.0816593 0.439383 -0.301909 -1.05558 0.494447 -0.918231 -0.512355 0.618042 -0.693167 0.749459 0.0906828 -1.01833 -0.10544 0.464162 0.0989582 -0.692952 0.573119 -0.778266 -0.795783 0.305782 -0.0603815 -0.780371 -0.884837 -0.581892 -0.913423 0.0483318 -0.301841 -0.401373 -0.849777 -0.126953 -0.312487 0.146685 -0.633327 0.514054 0.251967 -0.936538 0.692264 0.87607 0.809951 -0.793587 0.841946 0.163392 -0.780791 
